-0.000553959 -0.000362623 -0.000625026 -0.00111875 -0.00134925 -0.00203846 -0.00281651 -0.00400815 -0.00577525 -0.00772648 -0.0101448 -0.0120845 -0.0134441 -0.0136102 -0.0128538 -0.0111925 -0.0096072 -0.00840374 -0.00794094 -0.00850052 -0.0103181 -0.0133838 -0.0170862 -0.0206951 -0.0235794 -0.0246429 -0.0237599 -0.0210502 -0.0175347 -0.0141831 -0.0115187 -0.0102685 -0.010433 -0.0118898 -0.0143995 -0.0174081 -0.0200894 -0.0218271 -0.0218962 -0.0200202 -0.0172312 -0.0140462 -0.0115048 -0.00996185 -0.00952422 -0.0105183 -0.0127937 -0.0156491 -0.018739 -0.0209235 -0.0216129 -0.0208744 -0.0187393 -0.0155624 -0.0126469 -0.010231 -0.00928788 -0.00920182 -0.0105768 -0.013115 -0.0158348 -0.0184553 -0.020028 -0.0202189 -0.0185835 -0.016308 -0.0136603 -0.0117776 -0.0107355 -0.0110426 -0.0132354 -0.0167954 -0.0211385 -0.0258896 -0.0288909 -0.0302196 -0.0285922 -0.024935 -0.0200906 -0.0149341 -0.0105742 -0.00709904 -0.0049787 -0.00344944 -0.00253493 -0.00166801 -0.00136631 -0.000898918 -0.000706728 -0.000311972 -0.00017563 -0.000324366 -6.87808e-05 -2.98289e-05 -9.22986e-06 -9.13241e-05 -0.000169997 -0.000239298 -0.000257787 -0.000317962 
-0.000341618 -7.71698e-05 -0.000198973 -0.000551695 -0.00056546 -0.000963221 -0.00127204 -0.00180905 -0.00261741 -0.00345863 -0.00464911 -0.00553401 -0.00630085 -0.00649691 -0.00642951 -0.00586897 -0.00557474 -0.00561835 -0.0062567 -0.00775624 -0.0103791 -0.0142094 -0.0186474 -0.0229438 -0.0262946 -0.0275667 -0.0265861 -0.0235226 -0.0194678 -0.0155169 -0.0123638 -0.0106327 -0.0103816 -0.011417 -0.0134839 -0.0160994 -0.0184303 -0.0200003 -0.0200305 -0.0183073 -0.0158111 -0.0129638 -0.0107672 -0.00951356 -0.0092998 -0.0105371 -0.013043 -0.0160861 -0.0193506 -0.0216633 -0.0224426 -0.0216681 -0.0194068 -0.016048 -0.0129822 -0.0103767 -0.00929759 -0.00902119 -0.0102156 -0.0125679 -0.0150913 -0.017549 -0.0190214 -0.0192264 -0.0176856 -0.0155547 -0.0130617 -0.0113184 -0.0104249 -0.0108025 -0.0130789 -0.016684 -0.0210639 -0.0258352 -0.0288349 -0.0301947 -0.0285891 -0.0249422 -0.0200751 -0.0149469 -0.0105754 -0.00712199 -0.00499291 -0.00344351 -0.00254396 -0.00164559 -0.00134935 -0.000914652 -0.000686775 -0.000334516 -0.000197318 -0.000311161 -6.61626e-05 -3.62415e-05 -2.54573e-06 -7.51365e-05 -0.000110354 -0.0001506 -0.000135567 -0.000172721 
-7.12208e-05 0.000284828 0.000342259 0.000168093 0.000430967 0.000404526 0.000692775 0.000987001 0.00139739 0.00196467 0.00233495 0.00278961 0.00277368 0.00253837 0.00172383 0.000878219 -0.000477112 -0.00211826 -0.00417372 -0.00689752 -0.0105848 -0.0154392 -0.0208721 -0.0261 -0.0300827 -0.0316328 -0.0305067 -0.0269422 -0.0221318 -0.0173436 -0.0134953 -0.0110828 -0.0102316 -0.0106508 -0.0120672 -0.014093 -0.0159024 -0.0172119 -0.01719 -0.0156981 -0.0136412 -0.0113003 -0.00961268 -0.00878401 -0.00889019 -0.0104584 -0.0132637 -0.0165455 -0.0200286 -0.0224977 -0.0233951 -0.0225843 -0.0201739 -0.016601 -0.0133583 -0.0105235 -0.00928111 -0.0087668 -0.00973272 -0.0118471 -0.0141172 -0.0163639 -0.0177091 -0.0179308 -0.0165136 -0.0145711 -0.0122796 -0.0107142 -0.0100124 -0.0104786 -0.0128559 -0.0165146 -0.0209346 -0.025723 -0.0287141 -0.0301122 -0.0285366 -0.024908 -0.0200222 -0.0149379 -0.0105591 -0.00713862 -0.0050033 -0.00343071 -0.00255051 -0.00161326 -0.0013259 -0.000933474 -0.000659778 -0.000362764 -0.000224431 -0.000293279 -6.30848e-05 -4.50873e-05 5.17444e-06 -5.36585e-05 -3.33737e-05 -3.71142e-05 1.82864e-05 1.10612e-05 
0.000227706 0.000683482 0.000939475 0.000966159 0.00153242 0.00191411 0.00286275 0.0040762 0.00583575 0.00796305 0.0100609 0.0119964 0.0128182 0.0125422 0.0107682 0.0083779 0.00521758 0.0018369 -0.00175322 -0.00576531 -0.0105464 -0.0164228 -0.0228294 -0.0289684 -0.0335669 -0.0353971 -0.0341543 -0.0301416 -0.0246391 -0.0190817 -0.0146126 -0.0115863 -0.0102116 -0.0101047 -0.0109676 -0.0125102 -0.0138843 -0.0149882 -0.014909 -0.0135954 -0.0118834 -0.00993721 -0.00865362 -0.00814814 -0.00847852 -0.0102871 -0.0132939 -0.0167136 -0.0203145 -0.0228772 -0.0238656 -0.0230329 -0.0205325 -0.0168262 -0.0134987 -0.0105133 -0.00916694 -0.00846631 -0.0092472 -0.0111571 -0.0132107 -0.0152702 -0.0165021 -0.0167501 -0.0154448 -0.0136718 -0.0115577 -0.0101476 -0.00961521 -0.0101513 -0.0126091 -0.0162933 -0.0207285 -0.0255078 -0.0284738 -0.0299027 -0.0283644 -0.0247699 -0.019881 -0.0148671 -0.0104969 -0.00712716 -0.00499421 -0.00340324 -0.00254851 -0.00157318 -0.00129559 -0.00094828 -0.000629074 -0.000391354 -0.000252728 -0.00027179 -5.79441e-05 -5.2789e-05 1.55817e-05 -3.00588e-05 5.01084e-05 8.8001e-05 0.000189783 0.000217543 
0.000545477 0.00110509 0.00157256 0.0018149 0.00270537 0.00351759 0.00517196 0.00736033 0.0105582 0.0143458 0.0182798 0.0217896 0.0235065 0.0231878 0.0203987 0.0163583 0.01128 0.00605395 0.00082229 -0.00454696 -0.010491 -0.017444 -0.0248765 -0.0319837 -0.0372332 -0.0393688 -0.0380137 -0.0335421 -0.0273297 -0.0209908 -0.0159011 -0.0122757 -0.0104186 -0.00985782 -0.0102529 -0.011414 -0.0124364 -0.0133824 -0.0132365 -0.0120369 -0.0105598 -0.0088744 -0.00787252 -0.00756828 -0.00799507 -0.00991509 -0.0129712 -0.0163796 -0.019945 -0.0225013 -0.0235448 -0.0227298 -0.0202545 -0.0165713 -0.0133296 -0.0103619 -0.00905908 -0.00833442 -0.00910537 -0.0109925 -0.0130231 -0.0150501 -0.0162606 -0.0165451 -0.0152573 -0.0135047 -0.0113898 -0.0099607 -0.00944569 -0.00992694 -0.0123483 -0.0159422 -0.0202851 -0.0249546 -0.0278194 -0.0292496 -0.027759 -0.0242494 -0.0194289 -0.0145668 -0.0102689 -0.00700349 -0.00491034 -0.00332236 -0.00250933 -0.00150669 -0.00124665 -0.000946467 -0.000588265 -0.00041248 -0.00027626 -0.000241767 -4.87871e-05 -5.58575e-05 2.77866e-05 -2.27821e-06 0.000136717 0.000220994 0.000370448 0.000440796 
0.000908081 0.00158587 0.00229156 0.00277673 0.00403667 0.00534301 0.00779699 0.0110926 0.0159213 0.0215923 0.0276088 0.0329097 0.0356373 0.0352712 0.0313164 0.0253967 0.0181289 0.0107921 0.00368119 -0.00327341 -0.010588 -0.0188275 -0.0274997 -0.0357757 -0.0418077 -0.0443049 -0.0427876 -0.0377233 -0.0306092 -0.0232707 -0.0173669 -0.0129446 -0.0104058 -0.00917037 -0.00885295 -0.00939257 -0.0098574 -0.0105326 -0.0103142 -0.00934355 -0.00830482 -0.00711707 -0.00662902 -0.00673514 -0.00744314 -0.00965491 -0.0129446 -0.0165187 -0.0202199 -0.0228861 -0.0240471 -0.0232202 -0.0206646 -0.0168579 -0.0135519 -0.0104629 -0.00909979 -0.00824951 -0.00892346 -0.0107133 -0.0126425 -0.0145799 -0.0157294 -0.0160392 -0.0147936 -0.0130944 -0.0110145 -0.00958965 -0.00911553 -0.0095271 -0.0118879 -0.0153447 -0.0195346 -0.024031 -0.0267421 -0.0281637 -0.0267434 -0.0233729 -0.0186864 -0.0140544 -0.00989004 -0.00678197 -0.00475703 -0.00318798 -0.00243468 -0.00140962 -0.00117396 -0.000936608 -0.000531824 -0.000432755 -0.000300881 -0.000205458 -3.89809e-05 -5.93237e-05 3.92609e-05 3.01409e-05 0.000236108 0.000372449 0.0005754 0.000690717 
0.00123497 0.00202431 0.00294849 0.00365266 0.00524211 0.00699749 0.0101732 0.014479 0.020785 0.0281665 0.0360804 0.0430036 0.0466522 0.0462435 0.0412445 0.0336449 0.024413 0.0151849 0.00642484 -0.00190131 -0.0103517 -0.0196347 -0.0292835 -0.0384649 -0.04511 -0.0478847 -0.0462605 -0.0407703 -0.0329814 -0.0248847 -0.0183721 -0.0133277 -0.0102416 -0.00843422 -0.0075042 -0.00749935 -0.00747258 -0.00791669 -0.00764153 -0.00688643 -0.00625885 -0.00554361 -0.00553117 -0.00602391 -0.00701328 -0.0095249 -0.0130792 -0.0168439 -0.0207159 -0.0235133 -0.0247822 -0.0239179 -0.0212257 -0.0172222 -0.01377 -0.0104548 -0.00892352 -0.00779895 -0.00819094 -0.00966894 -0.0112668 -0.0129215 -0.0139031 -0.0142427 -0.0131728 -0.0117417 -0.00995536 -0.00880277 -0.00860665 -0.00918262 -0.0117239 -0.0153073 -0.0196172 -0.0242006 -0.0269588 -0.0284405 -0.0270452 -0.0236515 -0.0188779 -0.0142353 -0.0100068 -0.00689528 -0.00483317 -0.00321802 -0.00247519 -0.00139511 -0.00116152 -0.000970521 -0.000510018 -0.000472512 -0.000337655 -0.000188737 -3.54009e-05 -7.09742e-05 5.09361e-05 5.37712e-05 0.000327531 0.000509125 0.000765695 0.000915517 
0.00156125 0.00245702 0.00359679 0.00452252 0.00644183 0.00864038 0.0125361 0.0178417 0.0256187 0.0347008 0.0444953 0.0530323 0.0575983 0.057148 0.0511128 0.0418328 0.0306452 0.0195388 0.00912058 -0.000572728 -0.0101735 -0.0205095 -0.0311521 -0.0412667 -0.0485372 -0.051607 -0.0498799 -0.0439587 -0.0354954 -0.0266481 -0.0195436 -0.0139121 -0.0103417 -0.00806389 -0.00664016 -0.00622347 -0.00581855 -0.00609323 -0.0057547 -0.00514025 -0.00478963 -0.00438664 -0.00470429 -0.00544716 -0.00659028 -0.0092741 -0.0129531 -0.0167809 -0.0206936 -0.0235378 -0.0248813 -0.0240102 -0.021282 -0.0172179 -0.0137635 -0.0103795 -0.00881385 -0.00758141 -0.00787211 -0.00923166 -0.0107066 -0.012248 -0.0131568 -0.0135272 -0.0125213 -0.0111817 -0.0094785 -0.00838587 -0.00827161 -0.0088339 -0.011368 -0.0148758 -0.0190999 -0.023576 -0.0262372 -0.0277226 -0.0263837 -0.023085 -0.0183873 -0.0139072 -0.0097601 -0.00676089 -0.00473926 -0.00312941 -0.00243152 -0.0013249 -0.00110775 -0.000968903 -0.000466536 -0.000494976 -0.000362781 -0.000159263 -2.68875e-05 -7.51016e-05 6.31799e-05 8.10268e-05 0.000416591 0.000645219 0.000952648 0.00114309 
0.00186433 0.00285476 0.0041949 0.00532633 0.0075485 0.0101597 0.0147209 0.0209497 0.0300866 0.0407375 0.0522738 0.0623003 0.0677191 0.0672354 0.0602502 0.0494201 0.0364392 0.0236122 0.0116833 0.000763368 -0.00985422 -0.0210956 -0.0325788 -0.0434817 -0.0512719 -0.0545913 -0.0527798 -0.0465078 -0.0374818 -0.0279996 -0.0203872 -0.0142284 -0.0101911 -0.00743145 -0.0054792 -0.00459935 -0.00377143 -0.0038405 -0.0034437 -0.00300488 -0.00298364 -0.00294978 -0.00363945 -0.00465663 -0.00595138 -0.00877049 -0.0125043 -0.0163213 -0.0201951 -0.0230282 -0.0244272 -0.0235816 -0.020889 -0.0168684 -0.0135087 -0.0101534 -0.00862957 -0.00736619 -0.0076253 -0.00892936 -0.0103447 -0.0118217 -0.012691 -0.0130898 -0.0121229 -0.0108289 -0.00915771 -0.0080698 -0.00798534 -0.00849417 -0.0109684 -0.0143502 -0.0184393 -0.0227565 -0.02529 -0.0267591 -0.0254845 -0.0223062 -0.0177296 -0.0134519 -0.00942459 -0.00656222 -0.00460268 -0.00301249 -0.00236354 -0.00124321 -0.00104473 -0.000957845 -0.0004204 -0.000510984 -0.000382742 -0.000128055 -1.75062e-05 -7.76808e-05 7.40815e-05 0.00010831 0.000498502 0.000771944 0.00112505 0.00135321 
0.00211412 0.00319635 0.00470354 0.00600111 0.00847585 0.011433 0.0165488 0.0235575 0.0338307 0.045803 0.0587995 0.0700778 0.0762088 0.0756957 0.0679131 0.0558009 0.0413213 0.0270552 0.0138842 0.00195104 -0.00948145 -0.0214484 -0.0335935 -0.0451054 -0.053308 -0.0568213 -0.0549547 -0.0484294 -0.038984 -0.0290231 -0.0210438 -0.0144983 -0.010126 -0.00701941 -0.00469258 -0.00349393 -0.00237152 -0.00231862 -0.00188679 -0.00158166 -0.00181818 -0.0020799 -0.00307869 -0.00435991 -0.00587539 -0.00895739 -0.0129624 -0.0170099 -0.0211046 -0.0241072 -0.0256098 -0.0247075 -0.0218429 -0.0175754 -0.0140117 -0.0104076 -0.00871042 -0.00721601 -0.00726737 -0.00836444 -0.00956266 -0.0108619 -0.0116209 -0.0120417 -0.0111825 -0.01005 -0.00855409 -0.00763815 -0.0077384 -0.00836244 -0.01099 -0.0144932 -0.0187117 -0.023139 -0.0257365 -0.0272617 -0.02599 -0.0227587 -0.0180657 -0.0137326 -0.00961552 -0.00671757 -0.00470735 -0.00306567 -0.00241862 -0.00124867 -0.00104608 -0.000993205 -0.000410684 -0.000544149 -0.00041298 -0.000119468 -1.46384e-05 -8.52524e-05 8.36041e-05 0.000125041 0.000565481 0.000875108 0.00127442 0.00152554 
0.00230097 0.00344062 0.00506736 0.00649567 0.00914712 0.0123595 0.0178756 0.0254512 0.0365521 0.0494878 0.0635496 0.0757422 0.0824077 0.081886 0.0735548 0.0605323 0.0450091 0.0297632 0.015775 0.00325069 -0.00857672 -0.0208009 -0.033122 -0.0447874 -0.0530735 -0.0566562 -0.0548327 -0.0483526 -0.0389144 -0.0289284 -0.0209722 -0.01438 -0.00995229 -0.00676718 -0.00432137 -0.00303438 -0.00181484 -0.00173758 -0.0012854 -0.00103859 -0.00136833 -0.00173144 -0.00283861 -0.00419534 -0.00576864 -0.0089153 -0.0129747 -0.0170521 -0.0211674 -0.0242064 -0.0257439 -0.0248207 -0.0219234 -0.0176074 -0.0140248 -0.0103748 -0.00863776 -0.00707376 -0.00704903 -0.00805389 -0.00916091 -0.0103769 -0.0110739 -0.0115041 -0.0106893 -0.00960838 -0.00816322 -0.00728027 -0.00740453 -0.00798466 -0.0105416 -0.0138998 -0.017961 -0.0222154 -0.0246897 -0.0261796 -0.0249733 -0.0218778 -0.0173321 -0.0132082 -0.009238 -0.00648095 -0.00453841 -0.00293365 -0.00233627 -0.00117508 -0.000982709 -0.000971507 -0.000372648 -0.000547333 -0.000422056 -9.86258e-05 -6.89727e-06 -8.31779e-05 9.19093e-05 0.000139877 0.000611762 0.000950987 0.00138657 0.00165543 
0.0023913 0.00356241 0.00525212 0.00674657 0.00947699 0.0128154 0.0185285 0.0263909 0.0379039 0.0513232 0.0659264 0.0785696 0.0855187 0.085001 0.0764351 0.0629979 0.0470125 0.0313472 0.0170601 0.00441933 -0.00736373 -0.0194061 -0.0314532 -0.0428412 -0.0509282 -0.0544483 -0.0527504 -0.0465747 -0.0375104 -0.0279057 -0.020313 -0.0139989 -0.0097966 -0.00680541 -0.00452614 -0.00340913 -0.00231471 -0.00232938 -0.0018782 -0.00158317 -0.00181493 -0.00205779 -0.00304259 -0.00427147 -0.00572548 -0.008756 -0.0126854 -0.0166164 -0.0205849 -0.0235419 -0.0250431 -0.0241329 -0.0213044 -0.0170863 -0.0136259 -0.0100548 -0.0083719 -0.00681918 -0.00678098 -0.00773909 -0.00879736 -0.00995903 -0.0106268 -0.0110806 -0.0103168 -0.00930418 -0.00793936 -0.00714545 -0.00734901 -0.00801079 -0.0106556 -0.0140902 -0.0182489 -0.0225839 -0.0251321 -0.0266417 -0.0254309 -0.0222791 -0.0176412 -0.0134519 -0.00940923 -0.0066061 -0.00462322 -0.00298709 -0.0023793 -0.0011995 -0.000994044 -0.00099123 -0.000380667 -0.000562607 -0.000435677 -9.97622e-05 -3.98959e-06 -8.49393e-05 9.94403e-05 0.000143513 0.000631209 0.000987147 0.00144797 0.00172189 
0.00241324 0.00359149 0.00529471 0.00681073 0.00954716 0.012918 0.018672 0.026605 0.0382135 0.0517536 0.0664906 0.0792421 0.0862849 0.0857885 0.0772248 0.063744 0.0477401 0.032094 0.0179042 0.00551267 -0.00588549 -0.0173865 -0.0287978 -0.0395702 -0.047218 -0.0505843 -0.0490759 -0.0434129 -0.0350277 -0.0261312 -0.0191852 -0.0134092 -0.00965504 -0.00708692 -0.00520342 -0.00447106 -0.0036882 -0.00389404 -0.00346351 -0.00305019 -0.00304059 -0.00299531 -0.00369765 -0.00467229 -0.0059338 -0.00877915 -0.0125362 -0.0163117 -0.0201302 -0.023009 -0.0244596 -0.0235567 -0.0208066 -0.0166995 -0.0133642 -0.00991745 -0.00832965 -0.00688783 -0.00695899 -0.00801952 -0.00919247 -0.0104419 -0.0111545 -0.0116174 -0.0108069 -0.00970253 -0.0082359 -0.00735323 -0.00746009 -0.0080547 -0.0106269 -0.0139672 -0.0180519 -0.0223099 -0.0248216 -0.0262961 -0.0251019 -0.0219887 -0.0173966 -0.0132751 -0.00928517 -0.0065233 -0.00456247 -0.0029417 -0.00234943 -0.00118588 -0.000973496 -0.000979373 -0.000376927 -0.000556917 -0.000433781 -9.74909e-05 1.69181e-06 -7.80421e-05 0.000104733 0.000143518 0.0006274 0.000993076 0.00147134 0.00174132 
0.00233724 0.00348726 0.00513798 0.00661329 0.00924546 0.0125166 0.0180858 0.0257871 0.0370394 0.050183 0.0644854 0.0768521 0.0837233 0.0832717 0.0750608 0.0620868 0.0467161 0.0317335 0.0182562 0.00669432 -0.00373596 -0.0140734 -0.0241998 -0.0337339 -0.0405126 -0.0435429 -0.0423484 -0.0375893 -0.0304358 -0.0228355 -0.0170362 -0.0122329 -0.0092716 -0.00743398 -0.00623946 -0.00614261 -0.00588742 -0.00639715 -0.00601846 -0.00542116 -0.00502575 -0.0045276 -0.00476832 -0.0053396 -0.00631119 -0.00885968 -0.0123512 -0.0158953 -0.019498 -0.0222547 -0.0236083 -0.0227085 -0.0200619 -0.0161087 -0.0129207 -0.00962948 -0.00813035 -0.00679832 -0.00694318 -0.00804924 -0.00927778 -0.0105626 -0.0112882 -0.0117501 -0.0109317 -0.00979149 -0.00829965 -0.00740772 -0.00746216 -0.00804667 -0.0105726 -0.0138418 -0.0178743 -0.0220738 -0.0245841 -0.0260132 -0.0248353 -0.0217515 -0.0172025 -0.0131257 -0.00918695 -0.00644938 -0.00450437 -0.00290605 -0.00232022 -0.00118943 -0.000960235 -0.000963905 -0.000384979 -0.000543706 -0.000424673 -0.00010521 5.43907e-06 -6.9684e-05 0.000108127 0.000133149 0.00059456 0.000957052 0.00144344 0.0016927 
0.00217097 0.00326525 0.00480779 0.00618675 0.00861733 0.0116651 0.016854 0.0240573 0.0345583 0.0468525 0.0602217 0.0717654 0.078236 0.0778476 0.0703102 0.0583327 0.0441784 0.0304375 0.0182228 0.00804116 -0.000869292 -0.00944712 -0.0176585 -0.0253528 -0.0308556 -0.0333805 -0.0326428 -0.0291971 -0.0238472 -0.0181659 -0.0140604 -0.0107377 -0.00902516 -0.00837905 -0.00835306 -0.00934675 -0.0100063 -0.0110353 -0.0107335 -0.00976913 -0.00864896 -0.0073041 -0.00669064 -0.00651368 -0.00691475 -0.00889313 -0.0118578 -0.0149284 -0.0180864 -0.0205707 -0.0217322 -0.0208642 -0.0184498 -0.0148329 -0.0119739 -0.00901017 -0.00772015 -0.00661977 -0.00693511 -0.00816286 -0.00952793 -0.0109054 -0.0116848 -0.0121585 -0.0113155 -0.0101157 -0.0085807 -0.00768535 -0.00768069 -0.00831206 -0.0108596 -0.0141594 -0.0182671 -0.022537 -0.0251582 -0.0265596 -0.0253589 -0.0222004 -0.0175666 -0.0133842 -0.00938164 -0.00656533 -0.00457802 -0.00297066 -0.00235751 -0.00125339 -0.000989523 -0.00096588 -0.000423783 -0.000532271 -0.000414111 -0.000127984 7.65491e-06 -6.0308e-05 0.000112613 0.000112146 0.000533659 0.0008826 0.00137048 0.00158738 
0.00190262 0.00290716 0.00426991 0.00548141 0.00760167 0.0102918 0.0148671 0.0212532 0.0305305 0.0414327 0.0532672 0.0634765 0.0692612 0.0689618 0.0624413 0.0520115 0.0397286 0.0278676 0.0175009 0.009217 0.0023059 -0.00401615 -0.00981499 -0.0151982 -0.0190913 -0.0209722 -0.0207577 -0.0188858 -0.0157197 -0.0123568 -0.010269 -0.00870086 -0.008422 -0.00911474 -0.0103745 -0.012539 -0.0141866 -0.0157619 -0.0155694 -0.0142526 -0.0124063 -0.0102115 -0.00873133 -0.00781551 -0.00769435 -0.00913426 -0.0116275 -0.0143149 -0.0171218 -0.0193983 -0.020381 -0.0195315 -0.0173079 -0.0139749 -0.0113672 -0.00870949 -0.00762142 -0.00681042 -0.00738542 -0.00885858 -0.0104932 -0.012087 -0.0129858 -0.013446 -0.0124939 -0.0110889 -0.00935038 -0.00829546 -0.00807754 -0.00863327 -0.0110702 -0.0142693 -0.0183234 -0.0225465 -0.0252004 -0.0265266 -0.0253134 -0.0221447 -0.0175324 -0.0133343 -0.0093641 -0.00652505 -0.00454224 -0.00296216 -0.00233681 -0.00129393 -0.000997078 -0.000944011 -0.000458263 -0.00050018 -0.000387234 -0.000153042 1.06768e-05 -4.33935e-05 0.00011196 8.49223e-05 0.000439977 0.000763806 0.00124072 0.00140741 
0.00157503 0.00246955 0.00361471 0.00462221 0.0063674 0.00861826 0.0124481 0.0178383 0.0256261 0.0348311 0.0447958 0.0533775 0.058319 0.058119 0.0528237 0.0442657 0.0342359 0.024631 0.0164677 0.0104193 0.00584128 0.00212448 -0.000897631 -0.00362092 -0.00566893 -0.00680403 -0.00718917 -0.00711595 -0.00645157 -0.0057522 -0.00598058 -0.00644148 -0.00783651 -0.0101028 -0.012891 -0.0164493 -0.0192763 -0.021502 -0.0214339 -0.0196796 -0.0169459 -0.0137163 -0.0111802 -0.00936031 -0.00858609 -0.0093556 -0.0112539 -0.0134415 -0.0157894 -0.0177845 -0.0185376 -0.0177149 -0.0157353 -0.0127638 -0.0104783 -0.00818924 -0.00733114 -0.00682837 -0.00765205 -0.00933766 -0.0112068 -0.0129816 -0.0139823 -0.014432 -0.013402 -0.0118434 -0.00996787 -0.0088269 -0.00844857 -0.00899933 -0.011387 -0.014557 -0.0186339 -0.022884 -0.0256376 -0.0268998 -0.025659 -0.0224303 -0.0177781 -0.013487 -0.00949314 -0.00657939 -0.00457083 -0.00300471 -0.00234884 -0.00136611 -0.00102645 -0.000930508 -0.000508762 -0.000468919 -0.00035932 -0.000187228 1.17156e-05 -2.72668e-05 0.000111232 5.04753e-05 0.000329659 0.0006201 0.00108018 0.00118858 
0.00116806 0.00192706 0.0028017 0.00355445 0.00483719 0.0065418 0.00944643 0.0136002 0.0195381 0.026635 0.0342756 0.040837 0.0447227 0.0446395 0.040848 0.0346017 0.0273424 0.0205049 0.0150324 0.0116781 0.00989265 0.00926739 0.00952883 0.00995202 0.0100815 0.00983281 0.00874695 0.00671135 0.00443537 0.00200164 -0.000948763 -0.00380089 -0.00717268 -0.0112987 -0.0159013 -0.0211105 -0.0253386 -0.0283365 -0.0284188 -0.0261463 -0.0223633 -0.0179145 -0.0141337 -0.0112579 -0.00973755 -0.00974916 -0.0109967 -0.0126481 -0.0145121 -0.0162121 -0.0167028 -0.0158915 -0.0141506 -0.0115375 -0.00955774 -0.00763094 -0.00697711 -0.00676638 -0.00780346 -0.00965636 -0.0117145 -0.0136321 -0.0147105 -0.0151434 -0.0140635 -0.0123939 -0.0104404 -0.0092809 -0.00878393 -0.00938848 -0.0117741 -0.014967 -0.0191225 -0.0234555 -0.0263639 -0.0275658 -0.0262856 -0.0229612 -0.0182265 -0.0137828 -0.00972856 -0.00669923 -0.00464166 -0.00308284 -0.0023825 -0.0014657 -0.00107222 -0.000921554 -0.000574196 -0.000434748 -0.000327687 -0.000232203 1.06613e-05 -1.02973e-05 0.000109391 6.70494e-06 0.000195544 0.000442142 0.000879249 0.000915544 
0.000716712 0.00132441 0.0018979 0.00236784 0.00314145 0.00423828 0.00611967 0.0088983 0.0127861 0.0175441 0.0226015 0.0269228 0.0296354 0.0296813 0.0275513 0.0238538 0.0196552 0.0158738 0.0133511 0.0129493 0.014198 0.01693 0.0207477 0.0245701 0.0270566 0.0277596 0.0259166 0.0216024 0.0161423 0.0103104 0.00440496 -0.00105818 -0.00660585 -0.0128058 -0.0194424 -0.0265168 -0.0323286 -0.0361973 -0.0364411 -0.0335646 -0.0285692 -0.0227072 -0.0174965 -0.0134028 -0.0110063 -0.0101299 -0.0105993 -0.0116105 -0.0128887 -0.0142298 -0.0144225 -0.013645 -0.0122223 -0.0100771 -0.00851278 -0.00708157 -0.00674922 -0.00699079 -0.0084222 -0.0106419 -0.0131032 -0.0153418 -0.0165997 -0.0170141 -0.0157724 -0.0138115 -0.0115716 -0.0101942 -0.0093932 -0.0099087 -0.0121521 -0.0152316 -0.0193391 -0.0236403 -0.0266232 -0.0277227 -0.0264113 -0.0230484 -0.0183193 -0.0138089 -0.00977362 -0.00668382 -0.00461994 -0.00309823 -0.00236941 -0.00154188 -0.00109889 -0.000890584 -0.000633654 -0.000385487 -0.00028472 -0.000273713 1.28861e-05 1.40387e-05 0.000107014 -3.8493e-05 4.50077e-05 0.000244624 0.000653666 0.00061419 
0.000248123 0.000696231 0.000958618 0.00113345 0.00137936 0.00184539 0.0026635 0.00401251 0.00576879 0.00809047 0.0104647 0.0124538 0.0139398 0.014114 0.013697 0.012638 0.0115996 0.0109642 0.0114717 0.0140684 0.0183814 0.0244792 0.0318535 0.0390784 0.0439206 0.0455873 0.0430036 0.0364387 0.0278304 0.0186391 0.00982956 0.00180939 -0.0058435 -0.0140199 -0.0225818 -0.0313978 -0.0386906 -0.0433636 -0.0437689 -0.0403439 -0.0342349 -0.027077 -0.0205355 -0.0153037 -0.01208 -0.0103401 -0.0100342 -0.010392 -0.011069 -0.0120311 -0.01192 -0.0111862 -0.0100917 -0.00843358 -0.00729367 -0.00634959 -0.0063145 -0.00695206 -0.00869042 -0.0111647 -0.0139055 -0.0163581 -0.0177395 -0.0181344 -0.0168043 -0.0146694 -0.0122824 -0.0108185 -0.00982988 -0.0103568 -0.0125435 -0.0156003 -0.0197438 -0.0240874 -0.0272045 -0.0282228 -0.026873 -0.0234302 -0.0186545 -0.0140133 -0.00994661 -0.00675403 -0.00465793 -0.00315829 -0.00238472 -0.00163873 -0.00114219 -0.000871159 -0.000701753 -0.000341959 -0.000244833 -0.000320191 1.20361e-05 3.36258e-05 0.000103257 -8.59229e-05 -0.000106873 4.11367e-05 0.000416622 0.000298803 
-0.000232113 5.85587e-05 3.35167e-06 -0.000130588 -0.000419762 -0.000595124 -0.000862189 -0.000972765 -0.00139503 -0.00156388 -0.00193151 -0.00232437 -0.00209994 -0.00179732 -0.00048529 0.00113736 0.00330376 0.00584588 0.00940676 0.0149862 0.0223236 0.0317212 0.0425715 0.0531244 0.0602682 0.0628851 0.0596007 0.0508672 0.0392217 0.0267931 0.0152012 0.00474016 -0.00489015 -0.0148948 -0.0252194 -0.035609 -0.0442414 -0.0496364 -0.0502084 -0.0463176 -0.0392459 -0.0309678 -0.023265 -0.0170565 -0.0131539 -0.0106987 -0.00977538 -0.00964037 -0.00987483 -0.0105619 -0.0101964 -0.00948661 -0.00862878 -0.00733139 -0.00648221 -0.00590757 -0.00609654 -0.00706849 -0.00908183 -0.0118028 -0.0148118 -0.0174805 -0.0189887 -0.0193574 -0.0179364 -0.0156225 -0.0130845 -0.0115363 -0.0103764 -0.0109405 -0.0131228 -0.0162323 -0.0204963 -0.024969 -0.0282759 -0.029238 -0.027824 -0.0242374 -0.0193351 -0.0144736 -0.0103029 -0.00694608 -0.00478155 -0.00327634 -0.00244072 -0.00176239 -0.00120723 -0.000869793 -0.000780944 -0.000304401 -0.000208307 -0.000373167 8.80581e-06 5.10603e-05 9.70877e-05 -0.000134329 -0.00026159 -0.000167104 0.000172914 -2.83097e-05 
-0.000693304 -0.000562911 -0.000926408 -0.00135516 -0.00215582 -0.00295303 -0.00426436 -0.0057925 -0.00831686 -0.0108965 -0.0139211 -0.0166157 -0.0176144 -0.0171898 -0.0142193 -0.010034 -0.00479545 0.000790858 0.00723884 0.0156266 0.0257662 0.0382117 0.0522529 0.0658462 0.0751032 0.0785835 0.0746657 0.0639639 0.0495473 0.0341584 0.020027 0.00732304 -0.00413728 -0.0158597 -0.0278473 -0.0397305 -0.0496371 -0.0557074 -0.0564261 -0.0520712 -0.0440459 -0.0346522 -0.0258011 -0.0186073 -0.0139769 -0.0107349 -0.00907872 -0.00833415 -0.00799795 -0.0083191 -0.00768074 -0.00704405 -0.00654394 -0.00577171 -0.00538342 -0.00535976 -0.0059297 -0.00741967 -0.00990612 -0.0130844 -0.0165856 -0.0196519 -0.0213911 -0.0217317 -0.0200972 -0.0174105 -0.0144871 -0.0126055 -0.0110506 -0.0114293 -0.0133639 -0.0162612 -0.0203657 -0.024698 -0.0279899 -0.0288243 -0.027395 -0.0238348 -0.0190414 -0.0142081 -0.0101401 -0.00678607 -0.00466498 -0.00322563 -0.00237599 -0.00180138 -0.00121217 -0.000820636 -0.000825369 -0.000245528 -0.0001576 -0.000405803 1.12241e-05 7.5806e-05 9.01731e-05 -0.000174679 -0.000410726 -0.00036653 -6.83585e-05 -0.000341105 
-0.00112186 -0.0011289 -0.00177711 -0.00248799 -0.00376381 -0.00512807 -0.00741286 -0.0102433 -0.0147204 -0.0195318 -0.0250093 -0.0298318 -0.0319766 -0.0314452 -0.0269636 -0.0203941 -0.0123319 -0.00396269 0.00515803 0.0160704 0.0287497 0.043915 0.0608017 0.077131 0.0882735 0.0925548 0.0881029 0.0756854 0.0588558 0.0409074 0.0246047 0.0100252 -0.00288873 -0.0158824 -0.0290588 -0.0419467 -0.0527159 -0.0592401 -0.0601096 -0.0555302 -0.0469905 -0.0370081 -0.0275107 -0.0198107 -0.0149117 -0.0113659 -0.00952069 -0.00868152 -0.00829619 -0.00859382 -0.0078269 -0.0071396 -0.00661143 -0.0058329 -0.00535196 -0.00530921 -0.00578685 -0.00725138 -0.00964652 -0.0127041 -0.01608 -0.0190502 -0.0207312 -0.0210275 -0.0194828 -0.0169087 -0.0141706 -0.0125178 -0.0110853 -0.0117027 -0.0138268 -0.0169581 -0.0213337 -0.0259325 -0.0294989 -0.0303368 -0.0288395 -0.0250838 -0.0200791 -0.0149383 -0.010688 -0.00711598 -0.00488124 -0.00340441 -0.00247811 -0.00194212 -0.00129414 -0.00084622 -0.000904862 -0.000226464 -0.000134895 -0.000462948 1.12845e-06 8.16312e-05 8.06387e-05 -0.000220871 -0.000542455 -0.000551424 -0.000287307 -0.000641713 
-0.00146958 -0.00159406 -0.00247664 -0.0034247 -0.00507841 -0.00690047 -0.00997594 -0.0138811 -0.0199551 -0.0266042 -0.0340983 -0.0406629 -0.0437592 -0.0431407 -0.0374623 -0.0289939 -0.0186714 -0.00809461 0.00309538 0.0158978 0.030394 0.0474729 0.0663235 0.0845282 0.0969806 0.101821 0.0970619 0.0835483 0.0651561 0.0455589 0.0279059 0.0121856 -0.00152469 -0.0151473 -0.0288451 -0.0421073 -0.0532039 -0.0598626 -0.0608425 -0.0562661 -0.0476396 -0.0375515 -0.027889 -0.0200788 -0.015167 -0.0115195 -0.00959862 -0.00876118 -0.00839039 -0.00869427 -0.00787488 -0.00719921 -0.0066986 -0.00598605 -0.00549063 -0.00553961 -0.00607855 -0.0077186 -0.0103027 -0.0135796 -0.0171843 -0.0203627 -0.0221655 -0.0224077 -0.0207456 -0.01795 -0.0149919 -0.0131395 -0.0114801 -0.0119862 -0.0139607 -0.01698 -0.0212688 -0.0257917 -0.029351 -0.0301118 -0.0285977 -0.0248491 -0.0199214 -0.0147831 -0.010601 -0.00701677 -0.00481011 -0.00337237 -0.00243057 -0.00196652 -0.00129822 -0.000820433 -0.000933879 -0.00018538 -9.8361e-05 -0.000489348 -1.71886e-06 9.49093e-05 6.7191e-05 -0.000248002 -0.00065028 -0.000700407 -0.000476175 -0.000892099 
-0.00172461 -0.00193287 -0.002987 -0.00411433 -0.00604504 -0.00819757 -0.0118577 -0.0165491 -0.0238013 -0.0318058 -0.0407796 -0.0486249 -0.052434 -0.051758 -0.0452245 -0.0353651 -0.0234091 -0.0112514 0.00142829 0.0155214 0.0312476 0.0495779 0.0696978 0.0891277 0.102429 0.107657 0.102739 0.0885757 0.0692492 0.0486805 0.0302693 0.0139482 -8.88444e-05 -0.013858 -0.0275964 -0.0407717 -0.0518053 -0.0583889 -0.0594526 -0.0550545 -0.0466807 -0.0368923 -0.02746 -0.0198921 -0.0152606 -0.0118175 -0.0101346 -0.00956898 -0.00947974 -0.0099591 -0.00917684 -0.00845281 -0.0077786 -0.00685134 -0.00606017 -0.00588004 -0.00620631 -0.00766952 -0.010058 -0.0131424 -0.0165354 -0.0195593 -0.0212738 -0.0214617 -0.0199029 -0.0172463 -0.0144819 -0.0128239 -0.0113058 -0.0119737 -0.0140685 -0.0172345 -0.0216697 -0.0263299 -0.030025 -0.0307922 -0.0292481 -0.0254079 -0.0203991 -0.0151107 -0.0108538 -0.00716131 -0.00490509 -0.0034521 -0.0024681 -0.00202962 -0.0013358 -0.000835538 -0.000970556 -0.000173459 -8.39003e-05 -0.00052104 -1.13994e-05 9.35378e-05 5.4231e-05 -0.000271676 -0.000723025 -0.000808511 -0.000615064 -0.00108344 
-0.0019229 -0.00219936 -0.00338684 -0.00466109 -0.00680184 -0.00920759 -0.0133226 -0.0186342 -0.0268098 -0.0358866 -0.0460221 -0.0548742 -0.0592547 -0.058537 -0.0513671 -0.0404535 -0.0272596 -0.0139252 -0.000166233 0.0147901 0.0312727 0.050324 0.0711397 0.0912401 0.105014 0.110477 0.105545 0.0911293 0.0714197 0.0504689 0.0318323 0.0153899 0.00145736 -0.0120264 -0.0253582 -0.0380192 -0.0486264 -0.0549195 -0.0560398 -0.051973 -0.0441428 -0.0349856 -0.0261065 -0.0190432 -0.014854 -0.0117405 -0.0103572 -0.0101014 -0.0103118 -0.0109671 -0.0102615 -0.00953052 -0.00872129 -0.00763182 -0.00660155 -0.00624701 -0.00643426 -0.00779191 -0.0100835 -0.0130909 -0.0163879 -0.0193552 -0.0210457 -0.02118 -0.0196606 -0.017041 -0.0143425 -0.0127374 -0.0112586 -0.0119793 -0.014095 -0.0173143 -0.0217976 -0.0264985 -0.0302419 -0.0309993 -0.0294387 -0.0255605 -0.0205503 -0.0151994 -0.010933 -0.00719045 -0.00492645 -0.00347518 -0.00246513 -0.00205449 -0.00135137 -0.000839281 -0.000989223 -0.000158955 -6.82727e-05 -0.000539867 -1.91038e-05 9.19199e-05 3.95429e-05 -0.000284979 -0.000777004 -0.000890841 -0.00073075 -0.00123895 
-0.00203183 -0.00234233 -0.00360765 -0.00498622 -0.00722721 -0.00975701 -0.0141274 -0.0197937 -0.0284984 -0.0382013 -0.049005 -0.0584236 -0.063173 -0.0624443 -0.0550206 -0.0435923 -0.0298252 -0.0160051 -0.00186444 0.0131416 0.029479 0.0481975 0.0685548 0.0882241 0.101713 0.10712 0.102487 0.088652 0.0697041 0.04961 0.0318682 0.0163291 0.00344776 -0.00877258 -0.0206809 -0.0318362 -0.0411821 -0.0467065 -0.0478512 -0.044526 -0.0380014 -0.0303639 -0.0229116 -0.0171399 -0.0140509 -0.0119079 -0.0114557 -0.0121132 -0.0132044 -0.0144085 -0.0139931 -0.0131888 -0.0119191 -0.0102118 -0.0084701 -0.00750661 -0.00725975 -0.00822682 -0.0102108 -0.0129938 -0.0160316 -0.0188393 -0.0204411 -0.0204902 -0.0190446 -0.0165167 -0.0139367 -0.0124075 -0.0110298 -0.0117825 -0.0139192 -0.0171863 -0.0216822 -0.0263899 -0.0301159 -0.0308839 -0.0293191 -0.0254454 -0.0204869 -0.0151341 -0.0109006 -0.00715089 -0.00490287 -0.00345482 -0.00243527 -0.00203833 -0.00134566 -0.000847055 -0.000982888 -0.000150959 -5.87576e-05 -0.000548373 -3.0156e-05 8.37227e-05 1.76651e-05 -0.000285761 -0.000798054 -0.000933541 -0.00080827 -0.00134747 
-0.00203255 -0.00234166 -0.00361098 -0.00502836 -0.00725406 -0.00975647 -0.0141427 -0.0198336 -0.0285828 -0.0383594 -0.0492087 -0.0586643 -0.0634993 -0.0627847 -0.0554928 -0.0441378 -0.0305017 -0.0169002 -0.00302643 0.0113845 0.0269473 0.0446507 0.0638411 0.0824132 0.0951566 0.100334 0.0961621 0.08337 0.0658413 0.047321 0.0311191 0.0170978 0.00584847 -0.00448053 -0.0143008 -0.0232988 -0.0308258 -0.0352668 -0.036406 -0.0340886 -0.0293653 -0.0238242 -0.01835 -0.0143377 -0.0126963 -0.0118378 -0.0125812 -0.0143636 -0.0165293 -0.0183985 -0.018363 -0.0174757 -0.0156348 -0.013159 -0.0105543 -0.00879438 -0.00796764 -0.0083295 -0.00977824 -0.0120914 -0.0146004 -0.0170263 -0.0184181 -0.0183824 -0.0171496 -0.014933 -0.01272 -0.0114916 -0.0104429 -0.0113834 -0.0136964 -0.0171627 -0.0218061 -0.0266351 -0.0304145 -0.0312459 -0.0296745 -0.0257507 -0.0207595 -0.0153299 -0.0110503 -0.00724562 -0.0049743 -0.00349345 -0.00244999 -0.00203354 -0.00135355 -0.000882586 -0.000974209 -0.000164882 -6.6437e-05 -0.00055447 -4.48501e-05 6.39613e-05 -4.67324e-06 -0.000277433 -0.000781846 -0.000928442 -0.000829769 -0.00138852 
-0.00196394 -0.0022441 -0.00347174 -0.00489087 -0.00701717 -0.00939486 -0.013639 -0.0191414 -0.027621 -0.0371137 -0.0476132 -0.0567584 -0.0615133 -0.0608398 -0.053969 -0.0431016 -0.0301109 -0.0172573 -0.00417543 0.00904702 0.0231926 0.0391285 0.0563354 0.0730335 0.0844891 0.0892297 0.0857237 0.0745435 0.0592187 0.0431147 0.0292033 0.0173718 0.00834807 0.000507234 -0.00662391 -0.0128874 -0.0181103 -0.0211955 -0.022303 -0.0212156 -0.0187189 -0.0157743 -0.0127727 -0.0109666 -0.0111448 -0.0119482 -0.0142666 -0.017527 -0.0211105 -0.0238635 -0.0243306 -0.0233111 -0.0206886 -0.017148 -0.0133793 -0.0105237 -0.00889859 -0.00841477 -0.00911367 -0.0107641 -0.0125351 -0.0144214 -0.0155108 -0.0153794 -0.0144434 -0.0126787 -0.0109887 -0.0102009 -0.00963397 -0.0108525 -0.0134504 -0.0172266 -0.0221095 -0.0271477 -0.031019 -0.0319608 -0.030374 -0.026363 -0.0212791 -0.0157153 -0.0113319 -0.00743733 -0.00511387 -0.00357325 -0.00249812 -0.00203385 -0.00137252 -0.00093913 -0.000961193 -0.000193932 -8.56215e-05 -0.000559262 -6.3901e-05 3.56716e-05 -2.99448e-05 -0.000262727 -0.000738913 -0.00089236 -0.000818874 -0.00138897 
-0.00184054 -0.00207838 -0.00323009 -0.00462149 -0.00658426 -0.00876163 -0.0127436 -0.017903 -0.0258767 -0.0348233 -0.0446784 -0.0532551 -0.057804 -0.0571874 -0.0509549 -0.0408976 -0.0289367 -0.0172274 -0.00534345 0.0062393 0.0184628 0.0320544 0.0466468 0.0608629 0.0706194 0.0747611 0.0720908 0.0629775 0.0504825 0.0374701 0.026465 0.0173889 0.0111164 0.00630684 0.00243574 -0.000536184 -0.00298377 -0.00443462 -0.00548495 -0.00584778 -0.00598454 -0.00610524 -0.00603084 -0.00681681 -0.00909439 -0.0117977 -0.0158755 -0.0207737 -0.0259143 -0.0296307 -0.0306754 -0.0295399 -0.0260953 -0.0214341 -0.0164391 -0.0124353 -0.00999432 -0.00864765 -0.00860611 -0.00962368 -0.0106823 -0.0120577 -0.0128636 -0.0126244 -0.011956 -0.0105942 -0.00936112 -0.00892394 -0.00877764 -0.0101764 -0.0129538 -0.016924 -0.0219106 -0.0270223 -0.0308683 -0.0318967 -0.0303242 -0.0263186 -0.0212714 -0.0157112 -0.0113343 -0.00744258 -0.00512856 -0.00356015 -0.0024798 -0.00197778 -0.00135516 -0.000976782 -0.000921619 -0.000217326 -0.000101829 -0.000549406 -8.17943e-05 6.63121e-06 -5.87401e-05 -0.000237581 -0.000676505 -0.000831381 -0.000787194 -0.00135836 
-0.00168379 -0.00186668 -0.00291703 -0.00425997 -0.00602008 -0.00795214 -0.0115922 -0.0163016 -0.0236108 -0.0318318 -0.0408403 -0.0486791 -0.0529328 -0.0523866 -0.0469216 -0.037871 -0.0271801 -0.0168588 -0.00640702 0.0032971 0.0133498 0.0243121 0.0359892 0.0474383 0.0552915 0.058759 0.0569879 0.0501358 0.0407444 0.0311116 0.0232664 0.0171649 0.0138238 0.0122203 0.0117753 0.0122496 0.0127087 0.0129652 0.011987 0.0101315 0.00726863 0.00397333 0.00101517 -0.00244673 -0.00686855 -0.0115148 -0.0173756 -0.0239138 -0.0306099 -0.0352818 -0.0369119 -0.0356684 -0.0314018 -0.0256193 -0.0194032 -0.0142293 -0.0109546 -0.00869044 -0.00784115 -0.00814404 -0.00839911 -0.00918429 -0.00966832 -0.00933136 -0.00898592 -0.00812201 -0.00745344 -0.00747268 -0.00785603 -0.00953194 -0.0125987 -0.016888 -0.0221046 -0.0274092 -0.0313113 -0.0324671 -0.0308882 -0.0268129 -0.0216975 -0.0160339 -0.0115664 -0.00760734 -0.00525577 -0.00362484 -0.0025178 -0.00195256 -0.00136496 -0.00103743 -0.000892554 -0.000254752 -0.000127788 -0.000542858 -0.000102224 -2.85549e-05 -8.68118e-05 -0.000210643 -0.000600908 -0.000754917 -0.000738612 -0.00130471 
-0.00147879 -0.00159745 -0.00251767 -0.00378152 -0.005283 -0.00690807 -0.0100988 -0.0142252 -0.0206594 -0.0279209 -0.0358275 -0.0427003 -0.0465401 -0.0460749 -0.0415522 -0.0337888 -0.0246896 -0.0160773 -0.00739654 9.28863e-05 0.00759615 0.0155174 0.0238301 0.032069 0.0377257 0.0403875 0.0396194 0.0353296 0.0294532 0.0236366 0.0193351 0.0165408 0.0164055 0.018251 0.0214745 0.0256095 0.0291575 0.0312316 0.0303506 0.026943 0.0212374 0.0146401 0.00851343 0.00227492 -0.00433207 -0.0109395 -0.0185541 -0.0266989 -0.034901 -0.0404912 -0.0427219 -0.041414 -0.0364067 -0.029611 -0.0222909 -0.0160817 -0.0121108 -0.00910009 -0.00765205 -0.00747849 -0.00718229 -0.00758757 -0.00787056 -0.00743293 -0.00726717 -0.00667203 -0.00629018 -0.00647375 -0.00713584 -0.00883858 -0.0119386 -0.0162734 -0.021435 -0.0266593 -0.0304027 -0.0316172 -0.0300781 -0.0261015 -0.0211503 -0.0156347 -0.0112812 -0.00742302 -0.00514597 -0.00351914 -0.00243564 -0.00183839 -0.00131238 -0.00105324 -0.000825675 -0.00027305 -0.000141743 -0.000513761 -0.000116399 -5.65101e-05 -0.000115765 -0.000172252 -0.000512104 -0.000657458 -0.000671581 -0.00121819 
-0.001246 -0.00128569 -0.00205923 -0.00322689 -0.00444305 -0.00571992 -0.0084043 -0.0118566 -0.0172936 -0.0234461 -0.0300892 -0.0358524 -0.0392051 -0.0388265 -0.0353422 -0.0289981 -0.0216629 -0.0149256 -0.00814391 -0.00300102 0.00186168 0.0066448 0.0115019 0.0164566 0.0198595 0.0216972 0.0219452 0.0202619 0.0179676 0.0160502 0.0153555 0.0159417 0.0190841 0.0244679 0.0314529 0.0393424 0.0460578 0.0499794 0.049191 0.0441713 0.0355154 0.0254815 0.0160509 0.00688915 -0.0020807 -0.010862 -0.0205029 -0.0305242 -0.0405112 -0.0472121 -0.0501144 -0.0486568 -0.042687 -0.0345688 -0.0258289 -0.0182693 -0.0133355 -0.00929086 -0.00694786 -0.00599881 -0.004838 -0.00461363 -0.00453995 -0.00399101 -0.00415056 -0.00405645 -0.00423375 -0.00484955 -0.00602554 -0.00793213 -0.0112387 -0.0157731 -0.0210199 -0.0262957 -0.0299741 -0.031293 -0.0297872 -0.0258541 -0.0209726 -0.0155141 -0.0111955 -0.00738051 -0.00512788 -0.00347513 -0.00240215 -0.00175149 -0.00127764 -0.00109256 -0.000765888 -0.000305907 -0.000167128 -0.000492927 -0.000134904 -9.08617e-05 -0.00014448 -0.000136627 -0.000413505 -0.000549202 -0.000584492 -0.00111594 
-0.00105077 -0.00102227 -0.00166675 -0.00275947 -0.00372509 -0.00470933 -0.00695814 -0.00983969 -0.0144278 -0.0196458 -0.025215 -0.0300433 -0.0329998 -0.0327104 -0.0301455 -0.0250442 -0.0192674 -0.0142078 -0.00915565 -0.00619306 -0.00383239 -0.00206208 -0.000533811 0.00125412 0.00246918 0.00351758 0.00474183 0.00557943 0.00674593 0.00857489 0.0113477 0.0151479 0.0213729 0.0300624 0.040534 0.0519007 0.0615465 0.0671845 0.0664914 0.0600144 0.0486706 0.0355045 0.0230701 0.0112657 0.000204633 -0.0104839 -0.0218617 -0.0334637 -0.0449457 -0.0525567 -0.0560337 -0.0544815 -0.047726 -0.0385311 -0.0286292 -0.0199359 -0.0141995 -0.00924709 -0.0061006 -0.0044339 -0.00246573 -0.00164254 -0.00124596 -0.000612833 -0.00110123 -0.00152769 -0.00228854 -0.00337941 -0.00511352 -0.00731917 -0.0109505 -0.0158481 -0.0213666 -0.0268783 -0.0306332 -0.032101 -0.0305795 -0.0265512 -0.0215604 -0.015961 -0.0115108 -0.00760665 -0.0052999 -0.00357075 -0.00246505 -0.00173429 -0.00129896 -0.0011613 -0.000737772 -0.000350983 -0.000198645 -0.000483743 -0.000155869 -0.000129052 -0.00017087 -0.000106409 -0.000323354 -0.000455154 -0.000517861 -0.00103242 
-0.000840748 -0.000747064 -0.00125355 -0.00225241 -0.00295705 -0.00363675 -0.00541689 -0.00768978 -0.0113619 -0.01557 -0.0199864 -0.0238128 -0.0263166 -0.0261104 -0.024473 -0.0206737 -0.0164977 -0.0131351 -0.00982811 -0.00896463 -0.00899435 -0.0100552 -0.0116428 -0.012831 -0.0136614 -0.0133703 -0.0112584 -0.00809971 -0.0037428 0.00153298 0.00748284 0.0142146 0.0232215 0.0348607 0.0484369 0.0628798 0.0751217 0.0822852 0.081695 0.073957 0.0602812 0.0444067 0.0293698 0.0153043 0.00250905 -0.00972777 -0.0224492 -0.0352513 -0.0478458 -0.0561204 -0.060065 -0.0584936 -0.051213 -0.0412989 -0.0306168 -0.0211645 -0.0149264 -0.00939378 -0.00576919 -0.00370377 -0.00127139 -0.000116223 0.000448116 0.00114653 0.000490673 -0.000198502 -0.00123736 -0.00250346 -0.0045151 -0.00678746 -0.0104993 -0.0154992 -0.021038 -0.0265451 -0.0302084 -0.0317491 -0.0302492 -0.0262615 -0.0213472 -0.0158134 -0.0114002 -0.00754358 -0.00527424 -0.00352901 -0.00243086 -0.00165504 -0.00127184 -0.00118614 -0.000686891 -0.000375805 -0.000217064 -0.000457911 -0.000168127 -0.000156212 -0.000192655 -7.12248e-05 -0.000234903 -0.000355817 -0.000442859 -0.000929617 
-0.000657287 -0.000510348 -0.000893175 -0.00180561 -0.00228021 -0.00269987 -0.0040638 -0.00580493 -0.00866767 -0.0119879 -0.0153905 -0.0183414 -0.0204421 -0.0203116 -0.0194787 -0.0168291 -0.0140566 -0.012179 -0.0104151 -0.0113745 -0.0134967 -0.0170303 -0.0213389 -0.0251348 -0.0277593 -0.0281385 -0.0252693 -0.020102 -0.0129842 -0.00474159 0.00393498 0.0131535 0.0244808 0.0385448 0.0546519 0.0715871 0.0859327 0.0943393 0.0938504 0.0851304 0.069622 0.0516239 0.0345469 0.0187363 0.00466584 -0.00867661 -0.0222849 -0.0358443 -0.0491174 -0.0577726 -0.0620434 -0.060522 -0.0529836 -0.0427179 -0.0316472 -0.0218008 -0.0153384 -0.00950474 -0.0056541 -0.00341507 -0.000760932 0.000547133 0.00116908 0.00190401 0.00117553 0.000367121 -0.000782525 -0.00207633 -0.00422074 -0.006481 -0.0101983 -0.0152374 -0.0207556 -0.0262236 -0.0297838 -0.0313743 -0.0298901 -0.0259426 -0.0211083 -0.0156455 -0.0112724 -0.00746632 -0.00524083 -0.0034876 -0.00239616 -0.00158361 -0.00124929 -0.00120045 -0.00064349 -0.000394232 -0.00023027 -0.000430919 -0.000176152 -0.000177524 -0.000209182 -3.87575e-05 -0.000157926 -0.000268103 -0.000379418 -0.000833415 
-0.000515048 -0.000333717 -0.000617083 -0.00145654 -0.00175026 -0.00197711 -0.00301192 -0.00434343 -0.00657099 -0.009202 -0.0118151 -0.0140914 -0.0158765 -0.0158124 -0.0156004 -0.0138588 -0.0121887 -0.0114763 -0.0109475 -0.0133416 -0.0171358 -0.0226503 -0.0291409 -0.0350382 -0.0391133 -0.0400384 -0.036584 -0.0298234 -0.0205191 -0.00994801 0.000858473 0.0119801 0.025028 0.0408441 0.0587465 0.0774322 0.0932538 0.102543 0.102151 0.092797 0.0760821 0.05669 0.0382773 0.021363 0.00657608 -0.00733693 -0.0212924 -0.0350845 -0.0485263 -0.0572292 -0.0616516 -0.060248 -0.0527488 -0.0425411 -0.0315153 -0.0216701 -0.0152637 -0.00939837 -0.00553602 -0.00329003 -0.0005967 0.000741495 0.00134481 0.00208423 0.00134053 0.000493852 -0.000673662 -0.00192154 -0.00410782 -0.00632453 -0.0100038 -0.0150422 -0.0205167 -0.0259263 -0.0293908 -0.0310102 -0.0295389 -0.0256298 -0.0208723 -0.0154773 -0.011142 -0.00738507 -0.00520474 -0.00345327 -0.00236544 -0.00152597 -0.0012343 -0.00120359 -0.000610478 -0.000406509 -0.000238278 -0.000404869 -0.000180496 -0.000193531 -0.000219318 -1.19999e-05 -9.60437e-05 -0.000198269 -0.000334339 -0.000751672 
-0.000412119 -0.000215993 -0.000423739 -0.00120252 -0.00136242 -0.00146151 -0.00225099 -0.00329223 -0.00505289 -0.00718743 -0.00922927 -0.0110251 -0.0125792 -0.0125716 -0.0128032 -0.0117385 -0.0108801 -0.0110231 -0.0114358 -0.0148914 -0.0199573 -0.0269811 -0.0351393 -0.0426568 -0.0478535 -0.0492085 -0.045333 -0.0373761 -0.0264346 -0.0141466 -0.00178223 0.0106817 0.0248718 0.0417872 0.0607721 0.0804876 0.0971753 0.106998 0.106699 0.0970521 0.0797431 0.0596718 0.0406125 0.0232244 0.00827355 -0.00567627 -0.019435 -0.0329323 -0.0460281 -0.0544427 -0.0588437 -0.0576315 -0.0504792 -0.0407536 -0.0302206 -0.0207919 -0.0147416 -0.00914201 -0.00551636 -0.00346933 -0.000961261 0.000248952 0.000737859 0.0014519 0.000774844 1.10654e-05 -0.00103356 -0.00211155 -0.00420318 -0.00629974 -0.00984858 -0.0147925 -0.0201443 -0.0254223 -0.0287578 -0.0303701 -0.028919 -0.0250801 -0.0204433 -0.0151628 -0.0109052 -0.00722907 -0.00511739 -0.00339155 -0.00231402 -0.00146535 -0.00121439 -0.0011862 -0.000581064 -0.000408119 -0.000238111 -0.000376181 -0.000180042 -0.000202563 -0.000223398 1.04142e-05 -4.91366e-05 -0.000145555 -0.000307659 -0.000683354 
-0.000360125 -0.000173369 -0.000333641 -0.00106628 -0.0011515 -0.00120808 -0.00185202 -0.00275388 -0.00425218 -0.00612687 -0.00786718 -0.00942649 -0.0108414 -0.0108712 -0.0113039 -0.010625 -0.0101893 -0.0107678 -0.0117271 -0.0156873 -0.0214308 -0.0292346 -0.0382569 -0.0466501 -0.0524525 -0.054065 -0.0500285 -0.0415078 -0.0297991 -0.0167633 -0.00374664 0.00917028 0.0235895 0.0405641 0.059505 0.0791009 0.0956876 0.105493 0.105285 0.0958919 0.0789724 0.0593804 0.0407857 0.0239498 0.00975901 -0.00332433 -0.0159375 -0.0282273 -0.0400756 -0.0476154 -0.0517126 -0.0508529 -0.0446293 -0.0361865 -0.0269973 -0.0188002 -0.0137496 -0.00909372 -0.00635704 -0.00512925 -0.00347152 -0.00289945 -0.00283364 -0.00220075 -0.00252471 -0.00275936 -0.00315966 -0.0035874 -0.00513375 -0.00681558 -0.0099541 -0.014549 -0.0195742 -0.0245378 -0.0276349 -0.0291591 -0.0277279 -0.024018 -0.0195963 -0.0145347 -0.0104398 -0.00691058 -0.00492404 -0.00326509 -0.00221444 -0.00138948 -0.00118044 -0.00112975 -0.000555156 -0.000386631 -0.000220529 -0.000337995 -0.000167714 -0.000194725 -0.00021748 3.08496e-05 -2.74579e-05 -0.000115585 -0.00030425 -0.000626897 
-0.000318043 -0.000150645 -0.000268598 -0.000953177 -0.000978969 -0.00101423 -0.00153626 -0.00233103 -0.00361232 -0.00528014 -0.00677609 -0.0081545 -0.00945175 -0.00952005 -0.0100977 -0.00973562 -0.0096397 -0.0105616 -0.011977 -0.0163228 -0.0226069 -0.0310355 -0.04075 -0.0498559 -0.0561573 -0.0579853 -0.0538519 -0.0449068 -0.0326234 -0.0190578 -0.00559538 0.00756834 0.0219929 0.0387751 0.0573882 0.0765805 0.0928246 0.102475 0.102362 0.0933663 0.0770916 0.0582726 0.0404327 0.0244222 0.011243 -0.000723233 -0.0119268 -0.0227348 -0.0330685 -0.0395526 -0.0432542 -0.0427788 -0.0376287 -0.0306707 -0.0230347 -0.0162378 -0.0122794 -0.0086176 -0.00675514 -0.00627844 -0.00540029 -0.00538686 -0.00570158 -0.00516588 -0.00519693 -0.00500612 -0.00488279 -0.00477808 -0.00586536 -0.00721178 -0.00998768 -0.0142692 -0.0189956 -0.0236641 -0.0265521 -0.0279908 -0.0265876 -0.0230046 -0.0187888 -0.0139354 -0.00999349 -0.00660688 -0.00473957 -0.00315119 -0.00212268 -0.00132219 -0.00115208 -0.00107088 -0.000533498 -0.000366791 -0.000203865 -0.000300556 -0.000155545 -0.000188515 -0.000208255 4.80995e-05 -6.63026e-06 -8.90922e-05 -0.000305619 -0.000571135 
-0.000336728 -0.0002112 -0.000319501 -0.000979258 -0.00101288 -0.00112307 -0.00164255 -0.00250305 -0.00381075 -0.00555087 -0.00711762 -0.00860016 -0.00990091 -0.00999301 -0.0104567 -0.0100762 -0.00989458 -0.0107119 -0.0121585 -0.0163384 -0.02258 -0.0309442 -0.0405949 -0.0497069 -0.0560281 -0.0579014 -0.0539125 -0.0451299 -0.0330795 -0.0198873 -0.00682213 0.00575455 0.0193244 0.03494 0.0521606 0.0698684 0.0848579 0.0938312 0.0938063 0.0857222 0.0710108 0.0540409 0.0379907 0.0237509 0.0124202 0.00237365 -0.00659676 -0.0151285 -0.0231701 -0.0280917 -0.0311419 -0.0311761 -0.0275787 -0.0227648 -0.0173848 -0.0126443 -0.0102839 -0.00812921 -0.00761353 -0.00831789 -0.00868093 -0.00957124 -0.0104808 -0.0100969 -0.00965398 -0.00876424 -0.00780017 -0.0068895 -0.00725589 -0.00814213 -0.0104545 -0.0143606 -0.0187763 -0.0231516 -0.0258554 -0.0271827 -0.0257767 -0.0222704 -0.0182032 -0.0134985 -0.00965803 -0.0063719 -0.00460741 -0.00308451 -0.00206273 -0.00129245 -0.00115014 -0.0010049 -0.000535818 -0.000339315 -0.00017984 -0.000265918 -0.000136707 -0.000172503 -0.000189753 5.87974e-05 -1.04819e-05 -8.89563e-05 -0.000334044 -0.000535846 
-0.000376241 -0.000309259 -0.00041858 -0.00105431 -0.00112151 -0.00134776 -0.00190632 -0.00289932 -0.00431935 -0.00623507 -0.0079879 -0.00968274 -0.0110259 -0.0111382 -0.0113799 -0.0108597 -0.0104296 -0.010964 -0.0122835 -0.0160644 -0.0220212 -0.030028 -0.0392936 -0.0481181 -0.0542582 -0.0561103 -0.0523827 -0.0440243 -0.0325692 -0.0201635 -0.00788639 0.00370408 0.0159851 0.0299263 0.0451906 0.0608366 0.0740838 0.0821058 0.0821782 0.0753 0.0626756 0.048169 0.0345034 0.0225969 0.0136451 0.00605154 -0.000105884 -0.00578353 -0.01096 -0.0139369 -0.016158 -0.0168048 -0.0151238 -0.0129567 -0.0103611 -0.00816119 -0.00775702 -0.0074516 -0.00857082 -0.0106951 -0.012555 -0.0145288 -0.0161472 -0.0159486 -0.0149391 -0.0132131 -0.0112453 -0.00937547 -0.00886541 -0.00919238 -0.0109226 -0.0143359 -0.018335 -0.0223146 -0.0247766 -0.0259516 -0.0245559 -0.0211746 -0.0173254 -0.0128425 -0.00916279 -0.00602682 -0.00440229 -0.00297475 -0.0019698 -0.00124809 -0.00113733 -0.000914452 -0.000536379 -0.000300838 -0.000147443 -0.000223944 -0.000112528 -0.000150394 -0.000165495 6.87103e-05 -2.22673e-05 -9.70253e-05 -0.000374269 -0.00050173 
-0.000460433 -0.000474566 -0.000615977 -0.00124285 -0.00139747 -0.00181275 -0.00250921 -0.00377621 -0.0055069 -0.00782359 -0.0100235 -0.0121537 -0.0136387 -0.0137545 -0.0135696 -0.0126423 -0.0116218 -0.0115067 -0.0123558 -0.0153019 -0.0205089 -0.0276007 -0.0358764 -0.0438516 -0.0494173 -0.051118 -0.047838 -0.0403652 -0.0301484 -0.0192383 -0.00841358 0.00154649 0.011883 0.023406 0.0359113 0.048681 0.0594966 0.0661725 0.0663341 0.0610336 0.051174 0.0399246 0.0294002 0.0205095 0.0145156 0.00992734 0.0071309 0.00481881 0.00300606 0.00229138 0.00106649 -0.000261423 -0.000804074 -0.00170434 -0.00233871 -0.00312242 -0.00501003 -0.0069315 -0.0100437 -0.0139302 -0.017661 -0.0210058 -0.0234956 -0.0235041 -0.0217551 -0.0189222 -0.0156347 -0.0125071 -0.0108209 -0.0103603 -0.0112604 -0.0139148 -0.0172439 -0.0205915 -0.0226571 -0.0235955 -0.0222437 -0.0191204 -0.0156711 -0.0116047 -0.00825199 -0.00539578 -0.00399884 -0.00273317 -0.00178292 -0.00115355 -0.00108206 -0.000774699 -0.000522083 -0.00023635 -9.68466e-05 -0.000170672 -7.95791e-05 -0.00011406 -0.000135494 7.62581e-05 -5.43144e-05 -0.000125809 -0.000435882 -0.000484331 
-0.000546946 -0.00063792 -0.00080721 -0.00142452 -0.00166785 -0.00227598 -0.00310684 -0.0046405 -0.00667446 -0.00938183 -0.0120151 -0.0145783 -0.016197 -0.0163204 -0.0157004 -0.0143592 -0.0127445 -0.0119745 -0.0123351 -0.0144053 -0.0188041 -0.0249158 -0.0321203 -0.0391635 -0.0441108 -0.0456366 -0.0428424 -0.0363344 -0.0274576 -0.0181618 -0.00890461 -0.000695612 0.00756127 0.0165156 0.0260862 0.035801 0.0440351 0.0492732 0.0495241 0.0458936 0.0389528 0.0311372 0.0239269 0.0182082 0.0153111 0.0138482 0.0145288 0.0157062 0.0173737 0.0189995 0.0188156 0.0167963 0.0139796 0.00994223 0.00599725 0.00218447 -0.00202038 -0.00615675 -0.0112241 -0.0168091 -0.0223409 -0.0269898 -0.0303213 -0.0305574 -0.0281271 -0.0242883 -0.0198012 -0.0155516 -0.0128177 -0.0117198 -0.0119649 -0.0140666 -0.0169514 -0.0198858 -0.0217194 -0.0224801 -0.0211257 -0.0181117 -0.0148586 -0.0109954 -0.00778648 -0.00506781 -0.00380612 -0.00264148 -0.00170322 -0.00113151 -0.00108236 -0.000673042 -0.000537999 -0.000190433 -5.82532e-05 -0.000130476 -4.98583e-05 -8.3539e-05 -0.000102636 7.94272e-05 -8.57826e-05 -0.000154995 -0.000494836 -0.000464069 
-0.000641566 -0.00082164 -0.00102469 -0.00162956 -0.00197367 -0.00279447 -0.00377858 -0.00561302 -0.0079897 -0.0111373 -0.0142603 -0.0173072 -0.0190751 -0.019202 -0.0180912 -0.016282 -0.0139917 -0.0124738 -0.0122697 -0.013339 -0.0168028 -0.0217718 -0.0277286 -0.0336833 -0.0378981 -0.0392174 -0.0369725 -0.0315729 -0.0242369 -0.0167833 -0.00930914 -0.00306941 0.00287107 0.00897509 0.0153027 0.0216449 0.0270295 0.0306826 0.0310301 0.0292322 0.0255042 0.02147 0.0179095 0.0156856 0.0161971 0.0181836 0.0227038 0.0277288 0.0332359 0.0374413 0.0384035 0.0356216 0.0302896 0.0227817 0.0151784 0.00800414 0.00123027 -0.00537938 -0.0126355 -0.0201302 -0.0276898 -0.0338117 -0.0380855 -0.0385641 -0.0353534 -0.0303534 -0.024482 -0.0189248 -0.0149617 -0.0130751 -0.0124886 -0.0138463 -0.0160946 -0.0184295 -0.0199049 -0.0204284 -0.0191045 -0.01631 -0.0134063 -0.00990854 -0.00697902 -0.00450654 -0.003454 -0.0024423 -0.00154532 -0.00106149 -0.00104618 -0.000534632 -0.000536898 -0.000127558 -7.94542e-06 -7.7839e-05 -1.44085e-05 -4.56562e-05 -6.68447e-05 8.48379e-05 -0.000121825 -0.000187488 -0.000560362 -0.00044206 
-0.000734013 -0.000994682 -0.00123197 -0.00182343 -0.00226859 -0.00329565 -0.00443185 -0.00655102 -0.00926054 -0.0128254 -0.01642 -0.0199285 -0.0218386 -0.0219693 -0.0203757 -0.018092 -0.015136 -0.0128741 -0.0120804 -0.0121316 -0.0146023 -0.0183665 -0.0230001 -0.0277813 -0.0312135 -0.032302 -0.0306321 -0.0264062 -0.0206988 -0.015173 -0.00957117 -0.00537183 -0.00181188 0.00138652 0.00440999 0.00732263 0.00980721 0.01183 0.0122605 0.0122937 0.0117792 0.011516 0.0115878 0.0128062 0.0166071 0.0218736 0.0299807 0.0385907 0.0476594 0.0542485 0.0562965 0.0528487 0.0452332 0.0345788 0.0236483 0.0134348 0.00436542 -0.00443601 -0.0135944 -0.0227148 -0.032007 -0.039369 -0.0444371 -0.045147 -0.0412909 -0.0353464 -0.0283475 -0.021743 -0.0167741 -0.0142784 -0.0130418 -0.0138228 -0.0155933 -0.0174826 -0.018712 -0.0190462 -0.0177377 -0.0150905 -0.0124192 -0.0091693 -0.00642106 -0.00411895 -0.00321449 -0.00232095 -0.0014476 -0.00103045 -0.00103527 -0.000422113 -0.000548983 -7.82852e-05 3.21106e-05 -3.74035e-05 1.64202e-05 -1.29288e-05 -3.06942e-05 8.42001e-05 -0.000156599 -0.000220599 -0.000617969 -0.000420669 
-0.000843437 -0.00118612 -0.00146981 -0.00206249 -0.0026268 -0.00387878 -0.00520784 -0.00766018 -0.0107823 -0.0148522 -0.0190151 -0.0230664 -0.0251707 -0.0253033 -0.0231804 -0.0203283 -0.0166082 -0.0135114 -0.0120335 -0.0110125 -0.0124342 -0.0149528 -0.0182259 -0.0217901 -0.0244136 -0.0252506 -0.0241473 -0.0210966 -0.0170231 -0.0134221 -0.00968078 -0.00749544 -0.00626405 -0.00588866 -0.00607256 -0.00647819 -0.0068021 -0.0063599 -0.00585763 -0.00406579 -0.00149156 0.00186481 0.00542607 0.00993969 0.0168684 0.0252433 0.0367297 0.048715 0.0611303 0.0699596 0.0730401 0.0689801 0.0592376 0.0456516 0.0316229 0.0185886 0.00740463 -0.00340239 -0.0142766 -0.0248401 -0.0356718 -0.0441239 -0.0498946 -0.0508228 -0.0464096 -0.0396595 -0.0316995 -0.0242124 -0.0183832 -0.0153963 -0.0136269 -0.0139477 -0.0153504 -0.0168994 -0.0179595 -0.0181359 -0.0168298 -0.014276 -0.0117602 -0.00867267 -0.00603857 -0.00385025 -0.00305385 -0.00225472 -0.00138927 -0.0010267 -0.00104336 -0.000327757 -0.000571229 -3.67937e-05 6.70312e-05 -6.1383e-06 4.31565e-05 1.5526e-05 3.4024e-06 7.93473e-05 -0.000194575 -0.000261184 -0.000682983 -0.000415378 
-0.000948574 -0.00136693 -0.00169972 -0.00229678 -0.00297856 -0.00444206 -0.00596652 -0.00873989 -0.012272 -0.0168355 -0.0215564 -0.0261313 -0.0284358 -0.0285706 -0.0259476 -0.0225321 -0.0180773 -0.0141798 -0.012029 -0.0100095 -0.0104372 -0.0117935 -0.0138002 -0.0162219 -0.0180895 -0.018684 -0.0180997 -0.016131 -0.0135653 -0.0117317 -0.00970051 -0.00935356 -0.0102398 -0.0124181 -0.0155054 -0.0189066 -0.0217699 -0.0227634 -0.0222035 -0.0188406 -0.0135025 -0.00691635 -0.000241963 0.0071926 0.0168551 0.0279246 0.042302 0.0571732 0.0724391 0.083174 0.0871521 0.0826024 0.0710862 0.0550569 0.0384457 0.0230765 0.0101793 -0.002228 -0.014417 -0.0260371 -0.0380015 -0.0472295 -0.0535032 -0.0546158 -0.04982 -0.0425354 -0.0339349 -0.0258695 -0.0194433 -0.016141 -0.013994 -0.013977 -0.0151042 -0.0163965 -0.0173441 -0.0173968 -0.016102 -0.0136299 -0.0112367 -0.00827644 -0.0057325 -0.00363746 -0.00292324 -0.00220638 -0.0013466 -0.00102986 -0.00105275 -0.000248222 -0.000591848 -3.88372e-06 9.4847e-05 1.70286e-05 6.39995e-05 3.75572e-05 3.36273e-05 7.07235e-05 -0.000228392 -0.000301071 -0.000742939 -0.000417307 
-0.00104057 -0.00151887 -0.00189474 -0.00249694 -0.00328067 -0.00492693 -0.00662217 -0.00966815 -0.0135555 -0.0185403 -0.0237418 -0.0287648 -0.0312456 -0.031386 -0.0283361 -0.0244266 -0.0193436 -0.0147614 -0.0120251 -0.00915586 -0.00872498 -0.00909172 -0.0100185 -0.0114591 -0.012687 -0.0130716 -0.012937 -0.0118983 -0.0106292 -0.0103153 -0.00976377 -0.0110109 -0.0137429 -0.018146 -0.0237728 -0.0297933 -0.0348795 -0.03714 -0.0365362 -0.031809 -0.0240746 -0.0146963 -0.00533568 0.00459702 0.0165584 0.0298583 0.0465857 0.0637995 0.0813673 0.0936374 0.0983581 0.0934426 0.0805328 0.0625871 0.0439423 0.0267552 0.0125482 -0.00105768 -0.0141911 -0.0265297 -0.0392694 -0.0490052 -0.0556138 -0.0568823 -0.0518533 -0.0442669 -0.035302 -0.0269297 -0.0201581 -0.0167283 -0.0144076 -0.0142515 -0.01529 -0.016506 -0.0174611 -0.0174516 -0.0161461 -0.0136667 -0.0112624 -0.00829063 -0.00572237 -0.00362891 -0.00292771 -0.00224693 -0.00137113 -0.00107224 -0.00108966 -0.000204121 -0.000624089 1.19403e-05 0.000110037 2.68445e-05 7.79573e-05 5.1576e-05 5.99867e-05 5.87667e-05 -0.000256176 -0.000336466 -0.000791788 -0.000420527 
-0.00108439 -0.00159371 -0.00198582 -0.00257245 -0.00341133 -0.00515983 -0.0069331 -0.0100956 -0.0141371 -0.0192963 -0.0247057 -0.029932 -0.0324774 -0.0326325 -0.0293443 -0.0251716 -0.0197727 -0.014822 -0.0117423 -0.00833519 -0.00729808 -0.00697094 -0.00712143 -0.0078388 -0.00861265 -0.00883873 -0.00905686 -0.00872499 -0.00843386 -0.00925938 -0.00983873 -0.0122935 -0.0164386 -0.0225301 -0.030101 -0.0381224 -0.0449102 -0.048162 -0.0475302 -0.0417775 -0.0322459 -0.0207919 -0.00943625 0.00232046 0.0158959 0.030703 0.0489429 0.0676761 0.086713 0.0999575 0.105188 0.100109 0.0864042 0.06737 0.0475553 0.0293901 0.0145601 0.000480989 -0.0128756 -0.0252258 -0.0379933 -0.0476527 -0.0542358 -0.055617 -0.0506927 -0.0433332 -0.0346267 -0.0265501 -0.0199734 -0.0168124 -0.0147059 -0.014764 -0.0160306 -0.0174649 -0.0186323 -0.0186649 -0.0173327 -0.0147212 -0.0121044 -0.0089178 -0.00615429 -0.00393095 -0.00313428 -0.00242091 -0.00149759 -0.00117115 -0.00116412 -0.000215875 -0.000670304 -3.83774e-06 0.000100966 1.68554e-05 8.01353e-05 4.93284e-05 8.18995e-05 4.18197e-05 -0.000264541 -0.000352942 -0.000806984 -0.000406881 
-0.00111475 -0.00163585 -0.00204144 -0.00261826 -0.00349826 -0.00531363 -0.00714861 -0.0103788 -0.0145311 -0.0198005 -0.0253483 -0.0307037 -0.033304 -0.033478 -0.0300404 -0.0256648 -0.0200652 -0.0148776 -0.0115422 -0.00780379 -0.00634506 -0.00557513 -0.00522576 -0.00545473 -0.0059436 -0.00605176 -0.00650784 -0.00663951 -0.00699132 -0.00855868 -0.00989223 -0.0131457 -0.0182368 -0.0254399 -0.034313 -0.0436632 -0.051589 -0.0555267 -0.0548907 -0.0484835 -0.0378085 -0.0250592 -0.0124621 0.000378179 0.0148123 0.0303347 0.0491698 0.0685073 0.088089 0.101687 0.107169 0.102139 0.0882861 0.069056 0.0490097 0.0307552 0.0160156 0.00218727 -0.0106963 -0.0223994 -0.034498 -0.0435481 -0.0497732 -0.0512133 -0.0466941 -0.0400301 -0.032137 -0.0248925 -0.0189941 -0.0164525 -0.0149095 -0.0155051 -0.0172876 -0.0192125 -0.0207769 -0.0209473 -0.0195686 -0.0167093 -0.013699 -0.0101061 -0.00699329 -0.0045154 -0.00352394 -0.00271551 -0.00171512 -0.00132261 -0.0012738 -0.000279282 -0.000730226 -4.56247e-05 7.24834e-05 -1.42723e-05 7.00048e-05 3.26205e-05 9.65779e-05 1.82885e-05 -0.000263497 -0.000365198 -0.000809487 -0.000402754 
-0.00114948 -0.00167557 -0.0021064 -0.00268421 -0.00361665 -0.00549298 -0.00741937 -0.0107307 -0.0150397 -0.020456 -0.0261882 -0.0316959 -0.0343862 -0.0345752 -0.0309868 -0.0263464 -0.0205079 -0.0150493 -0.0113838 -0.00732561 -0.00541173 -0.00418957 -0.0033342 -0.00304354 -0.00322799 -0.00319279 -0.00385252 -0.00441166 -0.00536046 -0.00758392 -0.00958224 -0.013489 -0.0193114 -0.0273198 -0.0371367 -0.0474235 -0.0561612 -0.0606145 -0.060003 -0.0531948 -0.0418077 -0.0282842 -0.0149483 -0.00153792 0.0131863 0.0288169 0.0475105 0.0667076 0.0860745 0.0995109 0.105045 0.100263 0.0868139 0.0681513 0.0486792 0.0310944 0.0170779 0.00413689 -0.00763894 -0.018079 -0.0288626 -0.0368025 -0.0423503 -0.0437969 -0.0399625 -0.0344277 -0.0278629 -0.0219435 -0.0171446 -0.0155106 -0.0147849 -0.0161181 -0.018572 -0.0211289 -0.0231914 -0.0235527 -0.0221402 -0.0190084 -0.015543 -0.0114788 -0.00797218 -0.00520056 -0.00396835 -0.00304449 -0.00196182 -0.00149073 -0.00138802 -0.000366663 -0.000790656 -0.000100555 3.31149e-05 -6.02925e-05 5.06894e-05 6.5116e-06 0.000105836 -1.31991e-05 -0.000260247 -0.00038159 -0.000808019 -0.000416552 
-0.00115378 -0.00166077 -0.00210172 -0.00267585 -0.00362774 -0.00550655 -0.00746866 -0.0107609 -0.0151052 -0.020517 -0.026265 -0.031768 -0.0344925 -0.0347049 -0.0311149 -0.0263668 -0.0205167 -0.0150317 -0.0112323 -0.00716349 -0.00508569 -0.00377619 -0.00281005 -0.00234881 -0.00247599 -0.00236893 -0.00309079 -0.00375721 -0.00485829 -0.00722322 -0.00940357 -0.0134579 -0.0194563 -0.0276027 -0.0376265 -0.0480871 -0.0569949 -0.061612 -0.0610417 -0.0542338 -0.0428477 -0.0293968 -0.0161385 -0.00294434 0.0112972 0.0262379 0.0438888 0.0620557 0.0803139 0.0929912 0.0983205 0.0939804 0.0815506 0.0643047 0.0462987 0.0302339 0.0176175 0.00625995 -0.00374093 -0.0122863 -0.0210842 -0.0274004 -0.0319539 -0.0333571 -0.0304987 -0.0265471 -0.0218464 -0.0177676 -0.01454 -0.0141548 -0.0145906 -0.016985 -0.0204005 -0.0238624 -0.0266056 -0.0272556 -0.0257881 -0.0222632 -0.0181574 -0.0134276 -0.00936759 -0.00617532 -0.00460282 -0.00349787 -0.00230202 -0.00171039 -0.00153834 -0.000507452 -0.000863933 -0.000183285 -2.70194e-05 -0.00012547 1.93971e-05 -3.48692e-05 0.000107993 -4.88309e-05 -0.000242146 -0.000386036 -0.000785932 -0.000428391 
-0.00114963 -0.00162386 -0.00207448 -0.002649 -0.00361178 -0.00547029 -0.00746052 -0.010702 -0.0150574 -0.0204245 -0.0261473 -0.0315978 -0.034356 -0.0345975 -0.0310681 -0.0262468 -0.0204651 -0.0150452 -0.0111719 -0.00724885 -0.00514646 -0.00394737 -0.00308983 -0.0026445 -0.00285186 -0.00270621 -0.0034055 -0.00399067 -0.00498688 -0.00719108 -0.00927279 -0.0131763 -0.0190217 -0.0269033 -0.0366938 -0.0468666 -0.0555602 -0.0601363 -0.0596245 -0.0530731 -0.0421408 -0.0293076 -0.0166551 -0.00420476 0.00900052 0.0226594 0.038567 0.0550051 0.071445 0.0828868 0.0878192 0.0840964 0.0731958 0.0580727 0.0422735 0.0284379 0.0178025 0.00862691 0.000992298 -0.00508593 -0.0112943 -0.0155184 -0.018786 -0.0201049 -0.0184888 -0.01654 -0.0141993 -0.012441 -0.011211 -0.0123857 -0.0142852 -0.0180163 -0.0226351 -0.0272305 -0.0308116 -0.0318309 -0.0302949 -0.0262847 -0.0213896 -0.0158366 -0.0110963 -0.00738237 -0.00538697 -0.00405164 -0.00271838 -0.00197436 -0.0017185 -0.000689473 -0.000948775 -0.000287769 -0.000103357 -0.000208138 -2.22536e-05 -8.85753e-05 0.000105072 -9.09729e-05 -0.000216155 -0.000387977 -0.000754831 -0.000447961 
-0.00109967 -0.00151724 -0.00195615 -0.00250953 -0.00344162 -0.00520508 -0.00714173 -0.010192 -0.0143783 -0.0194769 -0.024932 -0.0301047 -0.0327953 -0.033071 -0.0297711 -0.0250823 -0.0196467 -0.0145673 -0.0108275 -0.00732025 -0.0053999 -0.00454743 -0.00404107 -0.00381549 -0.00424435 -0.00410257 -0.00469951 -0.00502454 -0.00566331 -0.00739564 -0.0090969 -0.0125241 -0.0178445 -0.0249975 -0.0340337 -0.0433772 -0.0514008 -0.0556978 -0.0552616 -0.0492767 -0.0393376 -0.0277689 -0.0163508 -0.00526536 0.0062525 0.0179378 0.0312874 0.0451857 0.0589859 0.0686348 0.0729419 0.0700429 0.0612624 0.0490802 0.0363429 0.0255516 0.0175687 0.0112622 0.00667399 0.00372229 0.000796276 -0.000797464 -0.00243729 -0.00362104 -0.00354708 -0.00406679 -0.00463408 -0.00571672 -0.00693827 -0.00997257 -0.0136047 -0.0188799 -0.0248609 -0.0307312 -0.035245 -0.0366942 -0.035108 -0.0305937 -0.0248482 -0.0184183 -0.0129545 -0.00868812 -0.00622463 -0.00463504 -0.00316341 -0.00224702 -0.00189824 -0.000898528 -0.00102809 -0.000410403 -0.000195355 -0.000301899 -7.27479e-05 -0.000153521 9.76539e-05 -0.000136705 -0.000173052 -0.00037279 -0.000692225 -0.000451858 
-0.00105414 -0.0014117 -0.0018416 -0.00238052 -0.0032874 -0.00495649 -0.00685167 -0.00971885 -0.0137572 -0.0186081 -0.0238155 -0.0287285 -0.0313666 -0.0316761 -0.0285998 -0.0240147 -0.018903 -0.0141471 -0.0105084 -0.00741248 -0.00565725 -0.00514501 -0.00498201 -0.0049584 -0.00560106 -0.00544882 -0.00593136 -0.005986 -0.00625061 -0.00748312 -0.00876911 -0.0116669 -0.0163806 -0.0226843 -0.0308261 -0.0391858 -0.0464093 -0.0503564 -0.0500051 -0.0446778 -0.0358918 -0.0257789 -0.0157742 -0.00622888 0.00342445 0.0129535 0.0235345 0.0346872 0.0456386 0.0533552 0.056982 0.0549564 0.0484481 0.0394151 0.0299604 0.0224316 0.0172812 0.0140406 0.0126989 0.0130746 0.0136452 0.0148507 0.0149387 0.0138999 0.0123281 0.00917747 0.00550853 0.00139247 -0.00245494 -0.00749512 -0.0130099 -0.0199829 -0.0274762 -0.0347637 -0.0403141 -0.042236 -0.0405799 -0.0354825 -0.0287751 -0.0213487 -0.0150632 -0.0101646 -0.00717763 -0.00529826 -0.00366557 -0.00255739 -0.00210505 -0.00113348 -0.0011214 -0.000545288 -0.000295745 -0.000406132 -0.000127768 -0.00022434 8.86611e-05 -0.000185994 -0.000129385 -0.000359604 -0.00062951 -0.000463407 
-0.00100208 -0.00128999 -0.00171131 -0.00224066 -0.00311291 -0.00466957 -0.00651391 -0.00917813 -0.0130479 -0.0176217 -0.0225538 -0.0271706 -0.0297521 -0.0300938 -0.0272876 -0.0228448 -0.0181144 -0.0137485 -0.0102693 -0.00769724 -0.006227 -0.00620202 -0.00654894 -0.00687945 -0.00783605 -0.00770927 -0.00800785 -0.00764665 -0.00734005 -0.00784195 -0.00849496 -0.0106353 -0.0144863 -0.0196418 -0.0265516 -0.0335823 -0.0397153 -0.0431517 -0.0428966 -0.0384158 -0.0311138 -0.0228447 -0.0146365 -0.00700612 0.000404892 0.00738599 0.0147528 0.0227005 0.0303447 0.035818 0.038626 0.0375624 0.033617 0.0281371 0.022388 0.0184915 0.0164408 0.0164919 0.0185641 0.0223801 0.0265652 0.0306388 0.0325082 0.0316453 0.0284068 0.022601 0.0158001 0.0086258 0.00212209 -0.00491811 -0.0123229 -0.0209901 -0.0299822 -0.0386783 -0.0452445 -0.0476438 -0.0459219 -0.0402595 -0.0326113 -0.0242113 -0.0171273 -0.0116112 -0.00810628 -0.00593792 -0.00415368 -0.00285443 -0.00230025 -0.00137113 -0.00120664 -0.00067967 -0.000396617 -0.000512051 -0.000184835 -0.000295488 7.51121e-05 -0.00023455 -8.45539e-05 -0.000345039 -0.000562499 -0.000479927 
-0.000967669 -0.00119156 -0.00161912 -0.00215036 -0.00300763 -0.00447614 -0.00631462 -0.00883202 -0.0126211 -0.0170148 -0.0217833 -0.0261932 -0.0287762 -0.0291498 -0.0265599 -0.0221579 -0.0177028 -0.0136236 -0.010208 -0.00810283 -0.00686396 -0.0072918 -0.00812268 -0.00877879 -0.0100333 -0.0099206 -0.0100337 -0.00925745 -0.00838979 -0.00816927 -0.00819812 -0.00958864 -0.0125851 -0.016597 -0.0222853 -0.0279906 -0.0330416 -0.0359754 -0.0358236 -0.0322 -0.0263969 -0.0199973 -0.0136124 -0.00794123 -0.00285077 0.00148491 0.00549625 0.010092 0.0142735 0.0173981 0.019356 0.0193084 0.0180532 0.0163038 0.0144492 0.0143639 0.0155756 0.0190839 0.0247497 0.0321895 0.0401796 0.0472735 0.0510222 0.0503488 0.0453593 0.0367621 0.0266683 0.0162823 0.00699894 -0.00212414 -0.0114807 -0.0218828 -0.0323952 -0.0425193 -0.0501168 -0.0530024 -0.0512243 -0.045009 -0.0364263 -0.0270555 -0.0191806 -0.0130517 -0.00902564 -0.00657287 -0.00463946 -0.00315081 -0.00249308 -0.00160878 -0.00129026 -0.000814632 -0.000498033 -0.000621522 -0.000244572 -0.000368684 6.02888e-05 -0.000287081 -4.26519e-05 -0.000338346 -0.000504475 -0.000510817 
-0.000912671 -0.00106891 -0.00148939 -0.00201041 -0.00283116 -0.00418229 -0.00596729 -0.0082819 -0.0118981 -0.0160112 -0.0205025 -0.0246091 -0.0271298 -0.0275286 -0.0252104 -0.0209607 -0.0168853 -0.0131914 -0.00993622 -0.00834358 -0.00738207 -0.00826856 -0.00958043 -0.0105694 -0.0121097 -0.0120219 -0.0119495 -0.0107716 -0.00935387 -0.00841842 -0.00782314 -0.0084514 -0.0105607 -0.0133938 -0.0177989 -0.0221247 -0.0260403 -0.028433 -0.0283791 -0.0256355 -0.0213663 -0.0168616 -0.0123263 -0.00861372 -0.00579913 -0.00402869 -0.00323522 -0.00186074 -0.000995313 -0.000123812 0.00100061 0.00189974 0.00318209 0.00495117 0.00676855 0.0102507 0.0144876 0.021168 0.0300911 0.040784 0.0521886 0.0619789 0.067414 0.0669261 0.0603855 0.0493264 0.0363275 0.023114 0.0113814 0.000450622 -0.0105991 -0.0224845 -0.0342843 -0.0456152 -0.0540779 -0.0573817 -0.0555695 -0.0489092 -0.0395548 -0.0293906 -0.0208703 -0.0142418 -0.0097781 -0.00708628 -0.00503725 -0.00338829 -0.00264231 -0.00181284 -0.00135213 -0.000931226 -0.00058721 -0.000715375 -0.000296801 -0.000432086 4.54732e-05 -0.000330895 -8.62919e-07 -0.000323446 -0.000437854 -0.000526858 
-0.000855407 -0.000952719 -0.00136595 -0.00187272 -0.00265093 -0.0038887 -0.00561334 -0.00773253 -0.0111697 -0.0150053 -0.0192239 -0.0230285 -0.0254874 -0.0259134 -0.0238754 -0.0198097 -0.0161364 -0.0128517 -0.00982224 -0.00880283 -0.00823046 -0.00970137 -0.0116444 -0.0131275 -0.0150552 -0.0150452 -0.0147528 -0.0130646 -0.0109568 -0.00916958 -0.00782944 -0.0076137 -0.00879537 -0.010452 -0.0135912 -0.0165722 -0.0193826 -0.0212387 -0.021265 -0.0193499 -0.0165269 -0.0138063 -0.0110183 -0.00914525 -0.00844872 -0.00905573 -0.0112317 -0.0128316 -0.0150234 -0.0162265 -0.0158778 -0.0141128 -0.0105059 -0.00551126 -0.000324977 0.00641604 0.0134166 0.0229782 0.0348545 0.0484878 0.0629759 0.075198 0.0821614 0.0818528 0.0739274 0.0606693 0.0450793 0.0293593 0.0154641 0.00297939 -0.00949681 -0.0225923 -0.0354031 -0.0476771 -0.0568082 -0.0604545 -0.0586471 -0.051694 -0.0417864 -0.0310561 -0.0220808 -0.015104 -0.0103093 -0.00744577 -0.00532307 -0.00355061 -0.00273885 -0.00196981 -0.00138523 -0.00102502 -0.000660433 -0.00078998 -0.000342407 -0.000486631 3.05929e-05 -0.000367458 4.04596e-05 -0.000306649 -0.000377806 -0.000537743 
-0.000815901 -0.000865987 -0.00128336 -0.00178656 -0.0025418 -0.00369136 -0.00539121 -0.00737841 -0.010715 -0.0143711 -0.0184233 -0.0220207 -0.0244512 -0.0248867 -0.0230423 -0.0190664 -0.0156431 -0.0126103 -0.00967162 -0.00902501 -0.00865299 -0.0104496 -0.0127437 -0.0144713 -0.0165929 -0.0166043 -0.0161549 -0.0141506 -0.0116181 -0.00926563 -0.00742537 -0.00658427 -0.00701716 -0.00768803 -0.00973196 -0.0115411 -0.0133847 -0.0147677 -0.0148756 -0.0137125 -0.0121857 -0.0110536 -0.00982276 -0.00958687 -0.0107775 -0.0134844 -0.0182752 -0.0225153 -0.0274145 -0.0304622 -0.0308102 -0.0282959 -0.0226647 -0.0148615 -0.00673836 0.0028024 0.0121518 0.0241071 0.038393 0.0543854 0.0713428 0.0854942 0.0936853 0.0935454 0.0845395 0.0695798 0.0519804 0.0343231 0.0187657 0.00512327 -0.00840183 -0.0223475 -0.0358415 -0.0487503 -0.0583267 -0.0622121 -0.0604345 -0.0533316 -0.0430938 -0.0320316 -0.0227996 -0.0156231 -0.0106119 -0.0076435 -0.00548921 -0.00364058 -0.00278096 -0.00207613 -0.00139501 -0.00108854 -0.000712119 -0.000846004 -0.000377244 -0.000525324 1.61645e-05 -0.000396275 6.75463e-05 -0.00029807 -0.000330743 -0.000556535 
-0.000779807 -0.000799739 -0.00122592 -0.00172057 -0.00245674 -0.00353394 -0.00521655 -0.0071043 -0.0103638 -0.0138799 -0.0178114 -0.0212394 -0.0236497 -0.0240886 -0.0223998 -0.0185008 -0.0152776 -0.0124373 -0.00957756 -0.00923865 -0.00904188 -0.0111063 -0.013699 -0.0156478 -0.0179273 -0.0179718 -0.0173904 -0.015116 -0.0122315 -0.00940791 -0.00715691 -0.00580222 -0.00562856 -0.00551755 -0.00668796 -0.00756731 -0.00864692 -0.00965421 -0.00982556 -0.00926803 -0.00877156 -0.00890194 -0.00891795 -0.00999697 -0.0127191 -0.0171237 -0.0240346 -0.0304309 -0.0375375 -0.042094 -0.0430149 -0.0398879 -0.0326201 -0.0225438 -0.0120388 -0.000261243 0.0109697 0.0247986 0.0409597 0.0587698 0.0776213 0.0932446 0.102393 0.102408 0.0926044 0.0763959 0.0573242 0.0382723 0.0215471 0.00717401 -0.0069468 -0.0212722 -0.0349813 -0.0480762 -0.057773 -0.061762 -0.0600819 -0.0530855 -0.0428837 -0.0318748 -0.0227093 -0.015588 -0.0105388 -0.0075803 -0.00546567 -0.00360771 -0.002733 -0.00210168 -0.00135911 -0.00111224 -0.000736283 -0.000871416 -0.000399663 -0.000547117 3.35285e-06 -0.00041486 8.8497e-05 -0.00029051 -0.000294279 -0.000569846 
-0.000735098 -0.000730149 -0.00115831 -0.00163785 -0.00233784 -0.00333705 -0.0049704 -0.00674576 -0.00987931 -0.013215 -0.016983 -0.0202044 -0.0225601 -0.022996 -0.0214848 -0.0177477 -0.0147778 -0.0121817 -0.00950522 -0.00951125 -0.00959278 -0.0119966 -0.014973 -0.0172569 -0.0197491 -0.0198804 -0.0191533 -0.0165627 -0.0132659 -0.00992525 -0.00722314 -0.00535495 -0.00461083 -0.00382333 -0.00423314 -0.00432951 -0.00476246 -0.00544099 -0.00565426 -0.00558854 -0.00592441 -0.00705904 -0.00808617 -0.0102194 -0.0141475 -0.0198737 -0.0284116 -0.0364918 -0.045308 -0.0510406 -0.052432 -0.048865 -0.0403946 -0.0286415 -0.0163826 -0.00302742 0.00947989 0.0244784 0.0417208 0.0604938 0.0803362 0.0966925 0.106354 0.106503 0.0963562 0.0796271 0.0599431 0.0403422 0.0231809 0.00866984 -0.00549255 -0.0196729 -0.0331113 -0.04594 -0.0554141 -0.0593667 -0.0578196 -0.051145 -0.0413078 -0.0307008 -0.0218896 -0.0150484 -0.0101317 -0.00727961 -0.0052694 -0.00346117 -0.00260564 -0.00205348 -0.00128322 -0.00109507 -0.000731576 -0.000864543 -0.000406703 -0.000547642 -8.54559e-06 -0.000418071 0.000102449 -0.000279056 -0.000262649 -0.000569275 
-0.000691594 -0.000686471 -0.0011227 -0.00157894 -0.00224717 -0.00318404 -0.00477641 -0.00647888 -0.00951266 -0.0127154 -0.016373 -0.0194301 -0.0217383 -0.0221605 -0.0207825 -0.0171974 -0.0144207 -0.0119956 -0.00948866 -0.00975954 -0.0100877 -0.0127511 -0.0160383 -0.0186227 -0.0212716 -0.0215017 -0.0206542 -0.0178014 -0.0141787 -0.0104277 -0.00736918 -0.00509715 -0.00391236 -0.0026385 -0.00248242 -0.00201034 -0.00197446 -0.00239856 -0.00263043 -0.00292088 -0.00383355 -0.00565222 -0.00738253 -0.010232 -0.0149684 -0.0215402 -0.0310981 -0.0402661 -0.0501713 -0.0566612 -0.0583759 -0.0545467 -0.0453684 -0.0326233 -0.0193146 -0.00510302 0.00808436 0.0235841 0.0412227 0.0602643 0.0803601 0.0968626 0.106693 0.106966 0.0968427 0.0801861 0.0605933 0.0411641 0.0242278 0.0101686 -0.00339282 -0.0167473 -0.0292267 -0.0411244 -0.049896 -0.0536138 -0.0523093 -0.046348 -0.0374313 -0.0278103 -0.0198454 -0.0136711 -0.00915429 -0.00658187 -0.00478442 -0.00312682 -0.00233898 -0.00188598 -0.00113614 -0.00101978 -0.000687133 -0.000812931 -0.000396609 -0.000524873 -1.93904e-05 -0.000406295 0.000109201 -0.000267642 -0.000244401 -0.000561711 
-0.000672517 -0.000684595 -0.00114494 -0.00158888 -0.0022499 -0.00316481 -0.00476408 -0.00648066 -0.00952075 -0.0127227 -0.0164184 -0.0194402 -0.0217533 -0.0221472 -0.0207926 -0.0172389 -0.0144707 -0.0120249 -0.00954104 -0.00986109 -0.0102528 -0.0129319 -0.0162739 -0.0189403 -0.0215758 -0.0218639 -0.020966 -0.018037 -0.0143503 -0.0104851 -0.00733624 -0.00492953 -0.0035754 -0.00214426 -0.00176434 -0.00108164 -0.000874885 -0.00119787 -0.00144205 -0.00190508 -0.00305917 -0.00515083 -0.00719306 -0.0103716 -0.0155165 -0.0224969 -0.032555 -0.0423165 -0.0528029 -0.0597146 -0.061624 -0.0576752 -0.0481897 -0.0350053 -0.0212235 -0.00675314 0.00659543 0.0219995 0.0393908 0.0580271 0.0776616 0.0937322 0.103387 0.103765 0.094017 0.0779979 0.0591603 0.0405532 0.0244214 0.0112767 -0.00123266 -0.0133231 -0.0244349 -0.0350188 -0.0428104 -0.0461683 -0.045143 -0.0400843 -0.0323731 -0.0240367 -0.01717 -0.0118561 -0.00788377 -0.00567985 -0.00414972 -0.00270069 -0.00200478 -0.00165178 -0.000958595 -0.000907056 -0.000615981 -0.000737253 -0.000373655 -0.000483182 -2.84144e-05 -0.000386264 0.000100061 -0.000266945 -0.000244895 -0.000562043 
-0.000649319 -0.000689074 -0.00117164 -0.00159722 -0.00224412 -0.00313858 -0.00473012 -0.00646634 -0.00949454 -0.0126885 -0.0164152 -0.0193954 -0.0216939 -0.0220502 -0.0207112 -0.0172277 -0.0144687 -0.0119956 -0.00957213 -0.00990889 -0.0103755 -0.013036 -0.0164011 -0.019148 -0.0217441 -0.02211 -0.0211765 -0.0182046 -0.0145033 -0.0105901 -0.00740949 -0.00494448 -0.0035135 -0.0020713 -0.00161493 -0.000892555 -0.000653216 -0.000934366 -0.00117372 -0.00169836 -0.00289194 -0.0049974 -0.00710854 -0.0103502 -0.0155846 -0.0225998 -0.0326755 -0.0425651 -0.0531446 -0.0601524 -0.0621493 -0.0582379 -0.0488551 -0.0357972 -0.0221328 -0.00801867 0.00494613 0.0196274 0.0360845 0.0535892 0.0719935 0.0870081 0.0961147 0.0965828 0.0875941 0.0728322 0.0554815 0.0384232 0.023737 0.0120395 0.00110701 -0.00920107 -0.0184504 -0.0272524 -0.0337178 -0.0365717 -0.0358788 -0.031966 -0.02582 -0.0191491 -0.013698 -0.00949249 -0.00624535 -0.00451849 -0.0033263 -0.00215189 -0.00158169 -0.00133829 -0.000736726 -0.000752439 -0.000515696 -0.000629386 -0.000336124 -0.000421428 -3.63645e-05 -0.000352765 8.35719e-05 -0.000264462 -0.000251707 -0.000552438 
-0.000635691 -0.000724102 -0.00124029 -0.00164681 -0.00229161 -0.00318948 -0.00479848 -0.00661131 -0.00968616 -0.0129516 -0.016801 -0.0198128 -0.0221245 -0.0224317 -0.0210437 -0.0175769 -0.0147243 -0.0121102 -0.00968511 -0.0099234 -0.0103895 -0.0129111 -0.0161827 -0.0189281 -0.0214015 -0.0218426 -0.0209073 -0.0179755 -0.0143858 -0.0105714 -0.00749238 -0.00511245 -0.00376265 -0.00252375 -0.0022127 -0.00168965 -0.00161767 -0.00195105 -0.00217125 -0.00262397 -0.00360585 -0.00541429 -0.00729996 -0.0102996 -0.0152906 -0.0219562 -0.031576 -0.0411395 -0.0513409 -0.0581307 -0.0601017 -0.0563608 -0.0474594 -0.0350506 -0.0220423 -0.00884975 0.00325652 0.0166635 0.0316069 0.0473795 0.063914 0.0773582 0.0856176 0.08617 0.0782659 0.0652861 0.0500433 0.035164 0.0225012 0.0127621 0.00395296 -0.00399562 -0.010803 -0.0172673 -0.0220037 -0.0241864 -0.023914 -0.0214724 -0.017353 -0.0128329 -0.00920732 -0.00643118 -0.00413113 -0.00302538 -0.00226257 -0.00144792 -0.00104271 -0.000925124 -0.000456445 -0.000547971 -0.000381274 -0.000485447 -0.000284097 -0.000338832 -4.35843e-05 -0.000307822 5.73541e-05 -0.000266261 -0.000273109 -0.000542743 
-0.000611342 -0.000751635 -0.00129401 -0.00167355 -0.0023014 -0.00319191 -0.00478812 -0.00665563 -0.00972544 -0.0130135 -0.0169315 -0.0199287 -0.0222173 -0.0224703 -0.0210594 -0.0176857 -0.0147962 -0.0120947 -0.00975043 -0.0099211 -0.0104527 -0.012873 -0.0160934 -0.0188986 -0.0212737 -0.0218213 -0.0208783 -0.0179675 -0.0144632 -0.0107288 -0.007733 -0.005438 -0.00418399 -0.00320002 -0.00308339 -0.00282865 -0.00297673 -0.00337843 -0.00356514 -0.00388706 -0.00455273 -0.00592346 -0.00745426 -0.0100596 -0.0146049 -0.020678 -0.0295147 -0.038436 -0.0479245 -0.0542724 -0.0561501 -0.0526969 -0.0445692 -0.0332123 -0.0212828 -0.00945348 0.0013922 0.013061 0.0259715 0.0394568 0.053535 0.0649301 0.0720553 0.0726789 0.0661532 0.0554292 0.0428537 0.0307067 0.0205477 0.0131611 0.00685114 0.00162392 -0.00240263 -0.00621065 -0.00897871 -0.0103921 -0.0105703 -0.00975699 -0.00790096 -0.0057834 -0.00419152 -0.00300764 -0.00177604 -0.00136096 -0.00107418 -0.000661667 -0.000445278 -0.000459882 -0.000146626 -0.000315435 -0.000227286 -0.00031872 -0.000221549 -0.00024208 -5.01754e-05 -0.000252042 2.78053e-05 -0.000263386 -0.000294979 -0.000520958 
-0.000603404 -0.000810638 -0.00139452 -0.00175542 -0.00238335 -0.00329414 -0.00491667 -0.00690712 -0.0100566 -0.0134717 -0.0175785 -0.0206571 -0.0229711 -0.02316 -0.0216565 -0.0182913 -0.0152405 -0.0123238 -0.00997441 -0.00997364 -0.0105033 -0.0127313 -0.0158178 -0.0186234 -0.0208406 -0.0214909 -0.0205547 -0.017711 -0.0143673 -0.0107988 -0.00796166 -0.00583285 -0.00475907 -0.00414825 -0.0043444 -0.00448584 -0.00496192 -0.00548032 -0.00562886 -0.00575322 -0.00597295 -0.00674292 -0.0077685 -0.009827 -0.0137649 -0.0190553 -0.0268753 -0.0349425 -0.0434956 -0.0492551 -0.0509898 -0.0478956 -0.0407383 -0.0307037 -0.0201298 -0.00997616 -0.000666218 0.00891896 0.0194126 0.0301943 0.041372 0.0503529 0.0561349 0.0568332 0.0519217 0.0438351 0.0343769 0.0254166 0.0181753 0.0135081 0.0100806 0.0079768 0.0071339 0.00636474 0.00584613 0.00531704 0.00463097 0.00359273 0.00286742 0.00224988 0.00152468 0.000896865 0.000907671 0.000533596 0.000280541 0.000231434 0.000232278 7.33613e-05 0.000203337 -4.73162e-05 -4.87795e-05 -0.000128542 -0.000149439 -0.000130245 -5.75329e-05 -0.000189099 -1.18402e-05 -0.000268036 -0.000332031 -0.000507638 
-0.000586204 -0.000860505 -0.00147828 -0.00181176 -0.00243156 -0.00335222 -0.00497793 -0.00706487 -0.0102489 -0.0137421 -0.0179817 -0.0210983 -0.0234022 -0.0235238 -0.0219418 -0.0186308 -0.0154557 -0.0123533 -0.0100245 -0.0098292 -0.0103232 -0.0122911 -0.0151604 -0.0178927 -0.0198951 -0.0206349 -0.019738 -0.0170396 -0.0139583 -0.0106684 -0.00809337 -0.00622756 -0.00542847 -0.00529847 -0.00591611 -0.0065686 -0.00746533 -0.00814989 -0.00825536 -0.00812147 -0.00778557 -0.00781942 -0.00820786 -0.00958174 -0.0127603 -0.0170995 -0.0236953 -0.0307009 -0.0381054 -0.0431354 -0.0446739 -0.0419952 -0.0359669 -0.0274743 -0.0184883 -0.0102341 -0.00264867 0.00465592 0.0125314 0.0204104 0.0284775 0.0348793 0.0392164 0.0399768 0.0367738 0.0314773 0.0253165 0.0197177 0.0155478 0.0137158 0.0132815 0.0144054 0.0168371 0.0191942 0.0209857 0.0213709 0.02017 0.0172437 0.0138801 0.0104636 0.00737103 0.00489109 0.00364981 0.00246929 0.00166563 0.00114352 0.000923813 0.000620812 0.000559201 0.000227989 0.000134634 6.85151e-05 -7.32428e-05 -1.3885e-05 -6.30098e-05 -0.00012273 -5.17831e-05 -0.000268763 -0.000364498 -0.000484222 
-0.000574238 -0.000910427 -0.00155965 -0.00187051 -0.00248318 -0.0034192 -0.00504946 -0.00723409 -0.0104575 -0.0140344 -0.0184097 -0.0215748 -0.0238739 -0.0239337 -0.0222708 -0.0190054 -0.0157041 -0.0124209 -0.0101147 -0.00973226 -0.0102034 -0.011941 -0.0146221 -0.0173042 -0.0191211 -0.0199517 -0.0190922 -0.0165236 -0.0136786 -0.010648 -0.00831879 -0.00671573 -0.00620566 -0.00657644 -0.00765154 -0.00885269 -0.0102019 -0.0110738 -0.0111357 -0.0107136 -0.00978241 -0.00903606 -0.00874247 -0.00939237 -0.0117708 -0.0151315 -0.0204774 -0.0263869 -0.0326124 -0.036889 -0.0382168 -0.035958 -0.0310656 -0.0241249 -0.0167424 -0.0103784 -0.00451141 0.000548654 0.0058507 0.0108838 0.0159047 0.0197835 0.0226978 0.0235052 0.0219616 0.0193689 0.016403 0.0140479 0.0128287 0.0136888 0.0160692 0.0202022 0.0256694 0.0309187 0.0348506 0.0360851 0.0344229 0.0297704 0.0239855 0.0180008 0.0127376 0.00856007 0.00616469 0.00424475 0.00293676 0.00197975 0.00155567 0.00112592 0.000883664 0.00048377 0.00030574 0.000251579 -1.17606e-06 9.58853e-05 -6.73786e-05 -6.00705e-05 -9.11862e-05 -0.000270784 -0.000397566 -0.000462461 
-0.000574115 -0.000975716 -0.0016627 -0.00196049 -0.00257449 -0.00354191 -0.00519843 -0.00751651 -0.0108278 -0.0145479 -0.0191232 -0.0223936 -0.024721 -0.0247193 -0.022947 -0.0196823 -0.0161995 -0.0126885 -0.0103776 -0.00979656 -0.0102634 -0.011805 -0.0143445 -0.0170254 -0.0186909 -0.0196244 -0.0187821 -0.0162961 -0.0136261 -0.0107943 -0.00865036 -0.00726499 -0.00700551 -0.00784466 -0.00934646 -0.0110672 -0.0128448 -0.0138846 -0.0139004 -0.0131926 -0.0116749 -0.0101555 -0.00918625 -0.00911133 -0.0106702 -0.0130223 -0.0170683 -0.0218325 -0.0268256 -0.0303095 -0.0314166 -0.0296042 -0.0259016 -0.0205878 -0.0148851 -0.0104906 -0.00641945 -0.00369113 -0.00106376 0.00101252 0.00287237 0.00413311 0.00556397 0.00641493 0.00658637 0.00678492 0.00711639 0.00810316 0.00991365 0.0135188 0.0187532 0.0259161 0.034431 0.0425801 0.0486615 0.0507495 0.0486356 0.0422665 0.0340636 0.0255191 0.0180914 0.0122233 0.00867233 0.00601487 0.00420582 0.00281368 0.00218339 0.00163145 0.00120581 0.000741683 0.000479166 0.000435303 7.14605e-05 0.000206827 -7.2591e-05 3.49874e-06 -0.000133981 -0.000277196 -0.000439483 -0.000448505 
-0.000569647 -0.00102293 -0.00173873 -0.00202464 -0.00263334 -0.00361922 -0.00528439 -0.00770107 -0.0110619 -0.0148756 -0.0195911 -0.0229245 -0.0252569 -0.0251984 -0.0233465 -0.0201121 -0.016498 -0.0128148 -0.0105213 -0.00976944 -0.0102319 -0.0115855 -0.0139774 -0.0166358 -0.0181511 -0.0191717 -0.0183497 -0.0159585 -0.0134679 -0.0108363 -0.00887646 -0.00769765 -0.00766269 -0.00891505 -0.0107849 -0.0129581 -0.0151056 -0.0162904 -0.0162685 -0.0153161 -0.0132953 -0.0111057 -0.00955518 -0.00885512 -0.00970265 -0.0111793 -0.0140904 -0.0178629 -0.0217852 -0.0245842 -0.0255073 -0.0240964 -0.0214471 -0.0175725 -0.013361 -0.0107238 -0.00827763 -0.00766672 -0.00749162 -0.00813903 -0.00918881 -0.0103432 -0.0102849 -0.00939871 -0.00765153 -0.00488765 -0.00152779 0.00251533 0.0070825 0.0131613 0.0209356 0.0307739 0.0419611 0.052647 0.0606138 0.0634515 0.0609568 0.0531053 0.0428068 0.0320404 0.0227356 0.0154033 0.0108464 0.00755255 0.00530791 0.00353768 0.00272807 0.00207021 0.0014843 0.000967889 0.000631393 0.000595955 0.000136582 0.000306359 -7.71053e-05 6.08218e-05 -0.000173192 -0.000281496 -0.000472573 -0.000433149 
-0.000593219 -0.00109632 -0.0018507 -0.0021439 -0.00277367 -0.00381323 -0.00553872 -0.00811432 -0.0116272 -0.015648 -0.0206225 -0.0241354 -0.0265388 -0.0264309 -0.0244256 -0.0210855 -0.0172059 -0.0132289 -0.0108181 -0.00979422 -0.0101414 -0.0112275 -0.0133837 -0.0159189 -0.0172431 -0.0183074 -0.0175303 -0.0152902 -0.0130518 -0.0107078 -0.00900926 -0.00812037 -0.00839731 -0.0101384 -0.0124784 -0.0151925 -0.017788 -0.0191706 -0.0191197 -0.0178794 -0.0152946 -0.0123769 -0.010177 -0.00880577 -0.00892171 -0.00953464 -0.0113584 -0.0141676 -0.0170634 -0.0192006 -0.0199254 -0.0188776 -0.017194 -0.0146406 -0.0117998 -0.0107454 -0.00975207 -0.0110041 -0.01297 -0.0159809 -0.0195532 -0.0227963 -0.0239334 -0.02303 -0.0199329 -0.014978 -0.00903386 -0.00239702 0.00450392 0.01264 0.0225058 0.0345203 0.0478635 0.0605892 0.070071 0.0735188 0.0707341 0.0617126 0.049748 0.0372201 0.0264254 0.0179345 0.0125732 0.0087718 0.00618372 0.00410849 0.00315594 0.00242362 0.00170065 0.00115312 0.000757351 0.000724179 0.000190407 0.000389322 -8.00908e-05 0.000105876 -0.000213978 -0.000296143 -0.000514751 -0.000435615 
-0.000581652 -0.00110594 -0.00186525 -0.0021475 -0.00275811 -0.00379477 -0.00548972 -0.00808406 -0.0115613 -0.0155661 -0.0205435 -0.0240321 -0.0263944 -0.0262528 -0.0242365 -0.0209903 -0.0171065 -0.0131024 -0.0107781 -0.00968336 -0.0100688 -0.0110659 -0.0131487 -0.0156905 -0.0169403 -0.0180689 -0.0173125 -0.015142 -0.0130189 -0.0108137 -0.00924612 -0.00851819 -0.00898149 -0.0110477 -0.0136956 -0.016784 -0.0196827 -0.0211982 -0.0211198 -0.0196659 -0.0166728 -0.0132186 -0.0105459 -0.00867456 -0.00822064 -0.00816578 -0.00913152 -0.0111736 -0.0132487 -0.014858 -0.0154335 -0.0146889 -0.0137843 -0.0122957 -0.0105723 -0.0107899 -0.0109899 -0.0137509 -0.0174717 -0.0224256 -0.0280664 -0.0330239 -0.0351529 -0.0342517 -0.0300602 -0.023331 -0.0152941 -0.00657452 0.00217376 0.0119006 0.0233325 0.0369389 0.0518278 0.066008 0.0765796 0.0804652 0.0774978 0.0676771 0.0545613 0.040808 0.0289843 0.0196918 0.0137655 0.00961862 0.00679121 0.00450709 0.00345212 0.00266931 0.00185025 0.00128393 0.000846289 0.000818333 0.000232072 0.000451741 -8.08506e-05 0.000143246 -0.000238922 -0.000294747 -0.00052872 -0.000415549 
-0.000608761 -0.00115533 -0.00193679 -0.00223598 -0.00286687 -0.00394757 -0.00569057 -0.00839659 -0.0119931 -0.0161548 -0.0213164 -0.0249521 -0.027371 -0.0272 -0.0250632 -0.0217106 -0.0176161 -0.013394 -0.0109478 -0.00962431 -0.00987437 -0.0106397 -0.0124943 -0.0148736 -0.0159608 -0.0170853 -0.0163772 -0.0143623 -0.0124678 -0.0105254 -0.00918771 -0.0087069 -0.00941752 -0.011829 -0.0148142 -0.0182794 -0.0214867 -0.0231453 -0.023055 -0.0213994 -0.0180297 -0.0140904 -0.0109757 -0.00865109 -0.00769614 -0.00706689 -0.00731004 -0.00869853 -0.0100831 -0.0112433 -0.0116773 -0.0111796 -0.0109069 -0.0102854 -0.00946963 -0.0106985 -0.0118445 -0.0157775 -0.0208531 -0.0272978 -0.0345212 -0.0407882 -0.0436855 -0.0427974 -0.0377859 -0.0297305 -0.020134 -0.00988009 0.000218223 0.0110595 0.0235559 0.0382038 0.0540749 0.0691702 0.0804273 0.0845993 0.081543 0.0712565 0.0574472 0.042962 0.0305211 0.0207551 0.0144805 0.0101259 0.00715848 0.00474167 0.00362459 0.0028223 0.00193344 0.00137079 0.000907066 0.000875913 0.000260535 0.000495393 -8.13354e-05 0.000166416 -0.00026774 -0.000308221 -0.000556875 -0.000423521 
-0.000629936 -0.0011762 -0.00196556 -0.00228651 -0.00292093 -0.00402822 -0.00579057 -0.00855471 -0.0122121 -0.016457 -0.0217146 -0.0254329 -0.0278908 -0.0277125 -0.0255359 -0.0221493 -0.0179771 -0.0136948 -0.0112563 -0.00991579 -0.0102496 -0.0110969 -0.0130589 -0.0155704 -0.0167361 -0.0179132 -0.0171662 -0.0150636 -0.0130537 -0.0110095 -0.00957267 -0.00904931 -0.00974858 -0.0122143 -0.0152618 -0.0188222 -0.0221046 -0.0237887 -0.023689 -0.0219482 -0.0184431 -0.0143176 -0.011044 -0.00855038 -0.00737493 -0.00650151 -0.00641534 -0.00751152 -0.00858149 -0.00953351 -0.00991574 -0.00956524 -0.00961683 -0.00943719 -0.00909492 -0.0108513 -0.0125417 -0.0171463 -0.0230448 -0.0304196 -0.0386227 -0.0457101 -0.049104 -0.0482388 -0.042728 -0.0338753 -0.0233427 -0.0121956 -0.0013533 0.0100373 0.0229688 0.0379597 0.054098 0.0694176 0.0808653 0.085117 0.0820976 0.0717721 0.0578609 0.0432718 0.0307466 0.0209233 0.0145783 0.0102007 0.00721513 0.00477627 0.0036416 0.00285103 0.00193935 0.00139649 0.000927341 0.000891428 0.000272077 0.000513816 -8.24607e-05 0.000177806 -0.000284435 -0.00031708 -0.000575366 -0.000431905 
-0.00065575 -0.00118708 -0.00197437 -0.00231958 -0.00296311 -0.00409703 -0.00587226 -0.0086717 -0.0123723 -0.0166727 -0.0219856 -0.0257755 -0.0282477 -0.0280629 -0.0258238 -0.0223757 -0.0180996 -0.0137275 -0.0112103 -0.00970691 -0.00990746 -0.0105762 -0.0123284 -0.0146492 -0.0156957 -0.0168291 -0.0161467 -0.0142198 -0.0124312 -0.0106513 -0.00944826 -0.00918206 -0.0101409 -0.012914 -0.016293 -0.020207 -0.0237761 -0.0256218 -0.0255265 -0.023593 -0.0197735 -0.0152579 -0.0116155 -0.00877014 -0.00722473 -0.00599212 -0.00548157 -0.00617454 -0.00683365 -0.00751613 -0.00779666 -0.00758881 -0.00797422 -0.00825332 -0.00841686 -0.0106682 -0.0128654 -0.0180263 -0.0245945 -0.0327033 -0.0416713 -0.049391 -0.0531918 -0.0523862 -0.0465311 -0.0371363 -0.0259743 -0.0142802 -0.00302502 0.00853487 0.021452 0.0362594 0.0520865 0.0670708 0.078289 0.0824712 0.0796073 0.0696247 0.0561308 0.0419803 0.0298344 0.0203186 0.01414 0.0098983 0.00700245 0.00462764 0.00352131 0.00277864 0.0018691 0.00137489 0.000916584 0.000871312 0.000274966 0.000517647 -7.84922e-05 0.000178397 -0.000301797 -0.0003275 -0.000583927 -0.000438125 
-0.000691756 -0.00119905 -0.00198595 -0.00236918 -0.00302714 -0.00419402 -0.00599983 -0.0088458 -0.0126234 -0.0170131 -0.0224126 -0.0263071 -0.0288291 -0.0286505 -0.0263586 -0.0228153 -0.0184344 -0.0139931 -0.0114033 -0.00983113 -0.0100021 -0.0106719 -0.0124144 -0.014715 -0.0157854 -0.016899 -0.0162133 -0.0142926 -0.0124904 -0.0107202 -0.00951137 -0.00927847 -0.0102744 -0.0130871 -0.0165281 -0.0205093 -0.0241283 -0.0260086 -0.0259247 -0.023934 -0.0200583 -0.0154689 -0.0117538 -0.00884898 -0.00722238 -0.00594621 -0.00538046 -0.00601566 -0.00662042 -0.00726197 -0.00752678 -0.00736937 -0.0078076 -0.00815931 -0.00842383 -0.0107376 -0.0130731 -0.0183484 -0.0251113 -0.0334541 -0.0426509 -0.0505696 -0.0545302 -0.0537795 -0.0478561 -0.0383687 -0.0271083 -0.015401 -0.00422483 0.0070688 0.0195119 0.0336424 0.0486677 0.0628467 0.073496 0.0774664 0.0748338 0.0654703 0.0527786 0.0394809 0.028061 0.0191262 0.0132989 0.00931264 0.00658735 0.00434762 0.00329994 0.00262331 0.00174874 0.00131239 0.00087884 0.000820965 0.000264518 0.000502609 -7.67286e-05 0.000169064 -0.000313285 -0.00034072 -0.000594384 -0.000457684 
-0.00074095 -0.00121515 -0.00200094 -0.0024335 -0.00311579 -0.00432823 -0.00618065 -0.00908596 -0.012972 -0.017483 -0.0229976 -0.0270357 -0.0296274 -0.0294613 -0.0270917 -0.0233992 -0.0188683 -0.0143225 -0.0116019 -0.00991379 -0.00999092 -0.010614 -0.012285 -0.0144905 -0.0155571 -0.0166178 -0.0159488 -0.0140831 -0.0123234 -0.0106291 -0.00947214 -0.00933114 -0.0104192 -0.0133106 -0.0168677 -0.020961 -0.0246675 -0.0266131 -0.0265486 -0.0244794 -0.0205258 -0.0158452 -0.0120317 -0.00905587 -0.00735017 -0.00606087 -0.00549603 -0.00611359 -0.00671557 -0.00734701 -0.00759342 -0.00745965 -0.00787584 -0.00819887 -0.00846577 -0.010699 -0.013048 -0.0182484 -0.024988 -0.0333177 -0.0424754 -0.0503688 -0.0543731 -0.0536972 -0.0478683 -0.0385585 -0.0275214 -0.016147 -0.0053789 0.00530387 0.0168767 0.0298734 0.0436102 0.0565125 0.0662457 0.069873 0.0675673 0.0591329 0.0476656 0.0356686 0.0253542 0.0173 0.0120186 0.00841743 0.0059517 0.00391958 0.00296537 0.00238371 0.001568 0.00121042 0.000815582 0.000740583 0.00024463 0.000473252 -7.32987e-05 0.00015033 -0.000324603 -0.00035843 -0.000605233 -0.000485109 
-0.000784797 -0.00121597 -0.00199225 -0.00247205 -0.00317144 -0.00441899 -0.0063004 -0.00923236 -0.0131888 -0.0177731 -0.0233461 -0.0274866 -0.0301271 -0.0299813 -0.0275651 -0.0237576 -0.0191343 -0.0145458 -0.0117321 -0.00997675 -0.00998981 -0.010615 -0.0122572 -0.0143958 -0.0154947 -0.0165018 -0.0158461 -0.0140153 -0.0122625 -0.0106074 -0.00947244 -0.00939727 -0.0105578 -0.0134954 -0.0171459 -0.0213245 -0.0250964 -0.0271037 -0.0270613 -0.024925 -0.0209253 -0.0161986 -0.0123257 -0.00932524 -0.00759675 -0.00637468 -0.00591887 -0.00661231 -0.00731362 -0.00800099 -0.00824642 -0.00809762 -0.00838836 -0.00854035 -0.00866678 -0.0106458 -0.012854 -0.0177738 -0.0242573 -0.032317 -0.0411601 -0.0488001 -0.0527209 -0.0521286 -0.046547 -0.0376652 -0.0271471 -0.0164105 -0.00633233 0.00347434 0.0138889 0.0254374 0.0375629 0.0488785 0.0574685 0.0606619 0.0587368 0.0514223 0.041446 0.0310299 0.02206 0.015072 0.0104621 0.00732793 0.00517625 0.00340035 0.00256141 0.00208914 0.00135173 0.00108071 0.000733702 0.000641217 0.000217741 0.000432904 -6.87787e-05 0.000125727 -0.00033058 -0.000373226 -0.00060856 -0.000509165 
-0.000824118 -0.00119987 -0.00195647 -0.00248459 -0.0031944 -0.00446428 -0.00635745 -0.00928081 -0.01327 -0.0178802 -0.0234505 -0.0276532 -0.030323 -0.0302059 -0.0277783 -0.0238881 -0.019232 -0.01467 -0.0117989 -0.0100346 -0.0100194 -0.0107085 -0.012376 -0.0144811 -0.0156551 -0.0166018 -0.0159441 -0.0141108 -0.0123008 -0.0106137 -0.00942956 -0.00934402 -0.0104881 -0.0133427 -0.0169528 -0.0210695 -0.0247813 -0.0267872 -0.0267721 -0.0246406 -0.020736 -0.0161365 -0.0123595 -0.00948323 -0.00787106 -0.00687048 -0.00670023 -0.00762123 -0.0085809 -0.00942437 -0.00970362 -0.00949525 -0.00951895 -0.00930787 -0.00909629 -0.0105829 -0.0124441 -0.0168047 -0.0227204 -0.0301672 -0.0383253 -0.0454063 -0.0490768 -0.0485777 -0.0434503 -0.0353325 -0.0257312 -0.016041 -0.00703497 0.00153351 0.0103953 0.0200595 0.0301237 0.0394228 0.0465538 0.0491884 0.0477202 0.0417945 0.0336796 0.0252368 0.0179441 0.0122836 0.00851888 0.00596722 0.00420734 0.00275431 0.00206075 0.001717 0.00108564 0.000912744 0.000626359 0.000515328 0.000180944 0.000376915 -6.38503e-05 9.36943e-05 -0.000329961 -0.000384923 -0.000603911 -0.00053263 
-0.00088966 -0.0012184 -0.00197169 -0.00256412 -0.00330882 -0.00463936 -0.00659843 -0.00959169 -0.013726 -0.018493 -0.0242074 -0.0285984 -0.0313686 -0.0312797 -0.0287594 -0.0246598 -0.0198235 -0.0151458 -0.012101 -0.010228 -0.0101106 -0.0108025 -0.0124423 -0.0144676 -0.0156895 -0.0165642 -0.0159168 -0.0141074 -0.0122851 -0.0106247 -0.00944663 -0.00942403 -0.0106435 -0.0135333 -0.0172439 -0.0214427 -0.0252197 -0.0272932 -0.0273062 -0.0251031 -0.0211619 -0.0165369 -0.012711 -0.00983172 -0.00822692 -0.00734808 -0.00736707 -0.00842665 -0.00955954 -0.0105012 -0.0107824 -0.0105277 -0.0103372 -0.00983467 -0.00935951 -0.0104271 -0.0119984 -0.0158634 -0.0212724 -0.0281665 -0.0357043 -0.0422769 -0.0457283 -0.0453275 -0.0406254 -0.0332317 -0.0245006 -0.0158169 -0.00784595 -0.000499284 0.00682012 0.0145994 0.0225966 0.0298687 0.0355327 0.0376086 0.0366063 0.0320826 0.0258436 0.0193945 0.0137938 0.00947428 0.00656021 0.00459283 0.00322961 0.00209934 0.00155209 0.00134521 0.00081432 0.000746623 0.00052126 0.00038769 0.000144103 0.000322015 -5.87578e-05 5.94608e-05 -0.000336469 -0.000407385 -0.000614564 -0.000571413 
-0.000932414 -0.00120728 -0.00194415 -0.00258668 -0.00334601 -0.00470384 -0.00668313 -0.0096798 -0.0138638 -0.0186755 -0.0244098 -0.0288807 -0.0316886 -0.0316258 -0.0290782 -0.0248745 -0.0199766 -0.0152945 -0.0121638 -0.0102468 -0.0100641 -0.0107733 -0.0123886 -0.0143345 -0.0155974 -0.0164018 -0.0157651 -0.0139889 -0.0121598 -0.0105209 -0.00934314 -0.00935516 -0.0105997 -0.0134527 -0.0171694 -0.0213536 -0.0251103 -0.0272052 -0.0272476 -0.0250317 -0.0211513 -0.0166123 -0.012845 -0.0100585 -0.00854854 -0.00787212 -0.00816156 -0.00944021 -0.0108233 -0.0119183 -0.0122305 -0.011917 -0.0114673 -0.0106118 -0.00980956 -0.010404 -0.0116474 -0.0149857 -0.0198675 -0.0261965 -0.0331015 -0.0391595 -0.042384 -0.0420747 -0.0377968 -0.0311179 -0.0232462 -0.0155523 -0.00860054 -0.00244495 0.00336987 0.00931739 0.0153054 0.0206097 0.0248502 0.0263826 0.0258297 0.0226655 0.0182477 0.0137288 0.00976833 0.00674788 0.00466011 0.00326254 0.00228214 0.00146662 0.00106222 0.000981798 0.000553219 0.000583444 0.0004171 0.000264231 0.000108605 0.00026839 -5.37874e-05 2.78253e-05 -0.00033815 -0.000420964 -0.000611622 -0.00059682 
-0.000968391 -0.00118942 -0.00190761 -0.00259594 -0.00336452 -0.00474057 -0.00673065 -0.0097149 -0.0139273 -0.0187588 -0.0244851 -0.0290092 -0.0318453 -0.0318108 -0.0292602 -0.0249809 -0.020062 -0.0154163 -0.0122366 -0.0103313 -0.0101372 -0.010931 -0.0125971 -0.0145325 -0.0158833 -0.0166331 -0.0159843 -0.0141823 -0.012267 -0.0105597 -0.00929984 -0.00926299 -0.0104484 -0.0131673 -0.0167856 -0.0208469 -0.0244935 -0.0265588 -0.0266294 -0.024454 -0.0207271 -0.0163857 -0.0127828 -0.0101873 -0.00886511 -0.00848117 -0.00913989 -0.0107304 -0.0124568 -0.0137652 -0.0141345 -0.0137374 -0.0129595 -0.0116563 -0.0104244 -0.0104435 -0.0112634 -0.0139684 -0.0182016 -0.0238361 -0.029972 -0.0354041 -0.0383325 -0.0381056 -0.0343146 -0.0284496 -0.0215524 -0.0149518 -0.00910428 -0.00418725 9.73813e-05 0.00420751 0.00819813 0.0115512 0.0143797 0.0153683 0.0152488 0.0134151 0.0107858 0.00816283 0.00581289 0.00406676 0.00279394 0.00195589 0.00135113 0.000846773 0.000582715 0.000622489 0.00029909 0.000420292 0.000312421 0.000141985 7.18499e-05 0.000212846 -4.97364e-05 -3.88973e-06 -0.000335879 -0.00043157 -0.000605827 -0.000620121 
-0.00100948 -0.00118083 -0.0018876 -0.0026232 -0.00340779 -0.00481158 -0.00682946 -0.00982297 -0.0140961 -0.0189822 -0.0247449 -0.0293523 -0.0322388 -0.0322329 -0.0296601 -0.02527 -0.0202943 -0.0156462 -0.0123872 -0.010479 -0.0102611 -0.0111358 -0.0128559 -0.0147853 -0.0162261 -0.0169252 -0.0162649 -0.0144317 -0.0124309 -0.0106556 -0.00932191 -0.00924935 -0.0104021 -0.0130269 -0.0165976 -0.0205888 -0.0241738 -0.02624 -0.02634 -0.0241845 -0.0205706 -0.0163845 -0.0129109 -0.0104872 -0.00936276 -0.00929651 -0.0103783 -0.0123426 -0.0144794 -0.0160491 -0.0164874 -0.015976 -0.0148112 -0.0129768 -0.0112267 -0.0105942 -0.0109161 -0.0129229 -0.0164358 -0.0213047 -0.0266009 -0.0313512 -0.0339413 -0.0337868 -0.0305058 -0.025493 -0.0196143 -0.0141424 -0.00941636 -0.00572566 -0.00293517 -0.000598746 0.00147681 0.00295856 0.00443303 0.0048976 0.00518561 0.00461239 0.00368549 0.00286764 0.00204921 0.0015141 0.00102042 0.000713055 0.000464068 0.000256344 0.000126906 0.00028027 5.80388e-05 0.000264188 0.000212027 2.36945e-05 3.5454e-05 0.000158963 -4.60787e-05 -3.64423e-05 -0.000334492 -0.000444906 -0.000603314 -0.000647273 
-0.00103886 -0.00117242 -0.00186484 -0.00263427 -0.00342686 -0.00485057 -0.00687775 -0.00986892 -0.0141686 -0.0190786 -0.0248446 -0.0295032 -0.0324132 -0.0324301 -0.0298452 -0.025394 -0.0203922 -0.015761 -0.0124653 -0.0105527 -0.0103239 -0.011259 -0.0130145 -0.0149384 -0.016448 -0.0171097 -0.0164489 -0.0146052 -0.0125525 -0.0107484 -0.00937683 -0.00930532 -0.0104694 -0.0130707 -0.0166598 -0.0206575 -0.0242432 -0.0263317 -0.026447 -0.0242601 -0.0206562 -0.0164933 -0.0130222 -0.0106217 -0.00951073 -0.0095312 -0.010734 -0.0127738 -0.0150082 -0.0166289 -0.0170654 -0.0165293 -0.0152294 -0.0132125 -0.0113016 -0.0103863 -0.0105101 -0.012157 -0.0152921 -0.0197398 -0.0245639 -0.0289234 -0.0313428 -0.0312614 -0.0283036 -0.0238381 -0.018615 -0.013892 -0.00993298 -0.00713362 -0.00545777 -0.00447688 -0.00388431 -0.00385281 -0.00342909 -0.00336609 -0.00274912 -0.00232201 -0.00190876 -0.0013051 -0.000914374 -0.000493723 -0.000379754 -0.000268892 -0.000234593 -0.000209637 -0.000235236 1.36608e-05 -0.000134225 0.000143334 0.000135032 -6.60608e-05 9.21305e-06 0.000118504 -4.184e-05 -5.94145e-05 -0.00033357 -0.00045329 -0.000601545 -0.000663048 
-0.00107816 -0.00117823 -0.00186565 -0.00267537 -0.00348975 -0.00494565 -0.00700923 -0.0100326 -0.0144111 -0.0194031 -0.0252384 -0.0300013 -0.0329618 -0.0329935 -0.030351 -0.0257703 -0.0206559 -0.0159508 -0.0125252 -0.0105073 -0.0101532 -0.0110084 -0.0126483 -0.0144226 -0.0158947 -0.0164814 -0.0158508 -0.0140961 -0.0121298 -0.0104379 -0.00915151 -0.00917822 -0.0104217 -0.0130561 -0.0167064 -0.0207466 -0.0243624 -0.02649 -0.0266292 -0.0244156 -0.020818 -0.0166728 -0.0131992 -0.0108239 -0.00974654 -0.0098727 -0.0112278 -0.0133863 -0.0157619 -0.017468 -0.0179138 -0.0173412 -0.0158806 -0.0136463 -0.0115353 -0.0103177 -0.0102308 -0.0115296 -0.014311 -0.0183747 -0.0227686 -0.0267766 -0.029042 -0.0290245 -0.0263593 -0.022386 -0.017756 -0.0137176 -0.0104601 -0.00848614 -0.00784939 -0.00813388 -0.00893101 -0.01026 -0.010824 -0.0111343 -0.0102064 -0.00883804 -0.00716505 -0.00522491 -0.00369996 -0.00237939 -0.0016937 -0.00118972 -0.000889712 -0.000649293 -0.000574718 -0.000236885 -0.00031637 3.14694e-05 6.38629e-05 -0.000152346 -1.52093e-05 8.18903e-05 -3.82387e-05 -8.235e-05 -0.000338038 -0.000466923 -0.000604212 -0.000686868 
