0.0105194 0.0108715 0 0.0115926 0.0119552 0.0122513 0.0125409 0.012795 0.0130813 0.0133113 0.0135772 0.0137481 0.0138928 0.0140865 0.014228 0.0143751 0.0142192 0.01416 0 0.0139308 0.0137511 0.0136201 0.0133868 0.013159 0.0129242 0.0126123 0.0123196 0.011993 0.011652 0.0112668 0 0.0105008 0.00999483 0.00955974 0.00906586 0.0086319 0.00811998 0.0076191 0.00711482 0.00660109 0.00607073 0.00555932 0.00499885 0.00446383 0.00395644 0.0034496 0.00284134 0 0.00180749 0.00127086 0.000759068 0.000263594 -0.000228499 -0.00070935 -0.00116155 -0.00160247 -0.00183569 -0.00219333 -0.00251258 -0.00283014 -0.00309214 -0.00336444 -0.0036123 -0.00421585 -0.00406785 -0.00392792 -0.00377345 -0.00360507 -0.00344151 -0.0032722 -0.0030861 -0.00288813 -0.00268832 -0.00248172 -0.00227784 -0.00204823 -0.00184734 -0.00163821 -0.00141346 -0.00118948 -0.00094284 -0.000722956 -0.000496394 -0.000270907 -4.35048e-05 0.000174741 0.000399732 0.000613094 0.000808964 0.00103267 0.00123537 0.00142616 0 0.00179507 0 0.00213786 0 0.00244562 0.00260872 0 0.00285833 0.00298339 0.00310489 0.00333419 0.00329959 0.00326691 0 0 0 0.00308802 0.00302852 0.0029774 0.0028997 0.00284558 0.00276899 0.00268359 0.00261972 0 0.00243554 0.00234288 0.00225515 0.00216971 0.00207204 0.0019672 0.00186383 0.00176952 0 0.00158232 0.00147869 0.00137673 0.00126925 0.0011723 0.00107133 0.000978132 0.00088676 0.000791387 0.000686686 0.000591269 0.000508003 0.000415485 0.000330054 0.000248476 0.000160163 -4.95251e-06 -5.00235e-06 -5.0651e-06 -5.11003e-06 -5.13954e-06 -5.17487e-06 -5.19413e-06 0 -5.23003e-06 -5.24717e-06 -5.24782e-06 -5.25455e-06 -5.23723e-06 0 -5.21007e-06 -5.18104e-06 -5.15896e-06 0 0 -5.03682e-06 -4.99437e-06 0 -4.88919e-06 0 -4.76423e-06 -4.68813e-06 -4.60948e-06 -4.54601e-06 -4.46039e-06 -4.3608e-06 -4.27075e-06 -4.19138e-06 -4.07678e-06 -3.48853e-06 -3.15619e-06 -2.77746e-06 -2.40911e-06 -2.07964e-06 -1.64926e-06 -1.2696e-06 -7.78315e-07 -4.66713e-07 -1.5972e-07 1.75918e-07 0 8.18269e-07 1.14512e-06 1.49306e-06 1.85522e-06 2.20581e-06 2.56673e-06 2.91259e-06 3.28813e-06 3.62043e-06 0 4.36455e-06 4.68565e-06 5.06196e-06 5.41476e-06 5.72319e-06 6.00735e-06 6.35453e-06 6.68414e-06 6.95839e-06 7.22766e-06 7.50133e-06 7.81681e-06 8.01777e-06 8.2657e-06 8.46262e-06 8.64425e-06 8.85139e-06 9.01504e-06 8.27898e-06 7.90083e-06 7.63183e-06 7.27126e-06 6.84677e-06 6.4306e-06 5.9206e-06 5.56368e-06 4.91146e-06 4.32231e-06 3.70921e-06 3.05334e-06 2.36344e-06 1.71075e-06 9.92657e-07 3.13262e-07 -4.3406e-07 -1.19489e-06 -1.87917e-06 -2.65412e-06 -3.36119e-06 0 -4.90799e-06 -5.62293e-06 -6.40514e-06 -7.13185e-06 -7.90436e-06 -8.54325e-06 -9.31464e-06 -9.91946e-06 -1.06481e-05 -1.12091e-05 -1.18568e-05 -1.24906e-05 -1.303e-05 -1.35641e-05 -1.41157e-05 -1.45783e-05 -1.50451e-05 -1.54121e-05 0.000693653 0.0010601 0 0.00181113 0.00219316 0.00256448 0.00298457 0.00338438 0.00380368 0.00422966 0.00466426 0.00502736 0.00549654 0.00592083 0.00637437 0.00679085 0.00721342 0.0076176 0 0.00847457 0.00892874 0.00932703 0.00974451 0.0100638 
0.0104652 0.0108155 0 0.0115329 0.0118936 0.0121881 0 0.0127291 0.0130139 0.0132428 0 0.0136772 0.0138212 0 0.0141547 0.014301 0.0141459 0.0140871 0 0.0138591 0.0136803 0 0.0133179 0.0130913 0.0128577 0.0125474 0.0122563 0 0 0 0.0108236 0.0104469 0.00994353 0.00951069 0.00901937 0.00858766 0.00807839 0.0075801 0.00707842 0.00656735 0.00603974 0.00553096 0.00497339 0.00444114 0.00393637 0.00343216 0.00282703 0.00233717 0.00179853 0.00126466 0.000755513 0.000262598 -0.000226957 -0.000705325 -0.0011552 -0.00159384 -0.00182587 -0.00218168 -0.00249929 -0.00281522 -0.00307588 -0.0033468 -0.00359339 -0.00419384 -0.00404661 -0.00390742 0 -0.00358626 -0.00342356 -0.00325515 -0.00307002 -0.00287309 -0.00267433 -0.00246881 -0.00226599 -0.00203759 0 -0.00162972 -0.00140615 0 -0.000937995 -0.000719262 -0.000493888 -0.000269583 0 0 0.000397544 0.000609789 0.000804633 0.00102716 0.00122881 0.0014186 0.00159464 0.00178557 0.00196883 0.00212657 0.00229767 0.00243272 0.00259497 0 0.00284328 0 0 0.00331665 0 0.00324972 0.00322622 0.00316736 0.00313181 0.00307178 0.00301259 0.00296174 0.00288445 0 0.00275443 0.00266948 0 0.00250672 0.00242273 0.00233056 0.00224328 0.0021583 0.00206114 0.00195685 0.00185403 0.00176021 0.0016653 0.001574 0.00147091 0.00136949 0.00126257 0.00116613 0.0010657 0.000972987 0.000882095 0.000787224 0 0.000588159 0.000505331 0.000413299 0.000328318 0.000247169 0.000159321 -4.92633e-06 -4.9759e-06 -5.03832e-06 -5.08302e-06 -5.11238e-06 -5.14753e-06 -5.16669e-06 0 -5.20242e-06 0 -5.22012e-06 -5.22682e-06 -5.2096e-06 0 0 -5.15372e-06 0 0 -5.04295e-06 -5.01028e-06 -4.96806e-06 -4.92277e-06 -4.86345e-06 -4.80616e-06 -4.73916e-06 -4.66346e-06 0 -4.5221e-06 -4.43694e-06 -4.33788e-06 -4.2483e-06 -4.16936e-06 -4.05537e-06 -3.4702e-06 -3.13961e-06 -2.76286e-06 -2.39645e-06 -2.06871e-06 0 -1.26292e-06 -7.74217e-07 -4.64244e-07 -1.58857e-07 1.75026e-07 0 8.14017e-07 1.13916e-06 0 1.84555e-06 2.1943e-06 0 2.89738e-06 0 3.60152e-06 3.98282e-06 4.34175e-06 4.66116e-06 5.03551e-06 5.38646e-06 5.69328e-06 5.97596e-06 6.32132e-06 6.64921e-06 6.92202e-06 7.18988e-06 7.46212e-06 0 7.97585e-06 0 8.41838e-06 8.59906e-06 8.80511e-06 8.96791e-06 8.23568e-06 7.8595e-06 7.5919e-06 7.23321e-06 6.81093e-06 6.39693e-06 5.88958e-06 5.53452e-06 4.8857e-06 4.29963e-06 3.68973e-06 3.03728e-06 2.35098e-06 1.70169e-06 9.87346e-07 3.11495e-07 -4.31928e-07 -1.18879e-06 -1.8695e-06 -2.6404e-06 -3.34379e-06 -4.09207e-06 -4.88251e-06 -5.59372e-06 0 0 -7.86325e-06 -8.49879e-06 0 -9.86783e-06 -1.05927e-05 0 -1.17951e-05 -1.24256e-05 -1.29622e-05 -1.34934e-05 -1.40421e-05 -1.45024e-05 -1.49667e-05 -1.53318e-05 0.00069008 0.00105464 0.00144268 0.0018018 0.00218186 0.00255127 0.00296919 0 0.00378408 0.00420787 0.00464024 0.00500147 0.00546823 0.00589033 0.00634154 0.00675587 0.00717626 0.00757836 0 0.00843092 0.00888274 0.00927899 0 0.0100119 
0.01047 0.0108206 0.0111916 0.0115382 0 0.0121938 0.0124821 0.0127351 0.01302 0.0132489 0.0135135 0.0136836 0.0138277 0.0140205 0.0141613 0.0143077 0.0141525 0.0140937 0.0139694 0.0138655 0.0136867 0.0135563 0.0133241 0.0130974 0.0128637 0.0125533 0.012262 0.0119369 0.0115975 0.0112141 0.0108286 0.0104518 0.00994814 0.0095151 0.00902355 0 0.00808213 0.00758361 0 0.00657038 0.00604253 0.00553351 0.00497568 0.00444318 0 0.00343373 0.00282832 0.00233822 0.00179933 0.00126522 0.000755833 0.000262688 -0.000227095 -0.000705687 -0.00115577 -0.00159461 -0.00182676 -0.00218273 -0.00250049 -0.00281656 -0.00307735 -0.00334838 -0.00359509 -0.00419582 -0.00404852 -0.00390927 -0.00375554 -0.00358795 -0.00342518 -0.00325668 0 0 -0.00267559 -0.00246997 -0.00226706 -0.00203855 -0.00183861 -0.00163049 -0.0014068 0 -0.000938431 -0.000719594 -0.000494113 -0.000269702 -4.3383e-05 0.000173822 0.000397741 0.000610086 0.000805023 0 0.0012294 0.00141928 0 0.00178643 0.00196977 0.00212759 0.00229877 0.00243388 0.00259621 0.00274804 0.00284463 0 0.00309002 0.00331823 0.00328379 0 0.00322775 0.00316887 0.0031333 0.00307324 0.00301402 0.00296315 0.00288582 0.00283196 0.00275574 0.00267075 0.00260718 0.00250792 0.00242388 0.00233167 0.00224435 0.00215933 0.00206213 0.00195778 0 0.00176105 0.00166609 0.00157475 0.00147161 0.00137014 0.00126317 0.00116669 0.00106621 0.00097345 0.000882515 0.000787599 0.000683398 0.000588439 0.000505571 0 0.000328474 0.000247287 0.000159397 -4.92868e-06 -4.97828e-06 -5.04073e-06 -5.08545e-06 -5.11483e-06 -5.14999e-06 -5.16916e-06 -5.19093e-06 -5.2049e-06 -5.22196e-06 0 -5.22932e-06 -5.21208e-06 -5.19597e-06 -5.18506e-06 -5.15618e-06 -5.13421e-06 0 -5.04536e-06 -5.01267e-06 -4.97043e-06 0 -4.86577e-06 -4.80845e-06 -4.74141e-06 -4.66568e-06 0 -4.52425e-06 -4.43905e-06 -4.33994e-06 -4.25032e-06 -4.17134e-06 -4.0573e-06 -3.47185e-06 -3.1411e-06 -2.76418e-06 -2.39759e-06 -2.06969e-06 -1.64136e-06 -1.26352e-06 0 -4.64466e-07 -1.58935e-07 1.75106e-07 4.84818e-07 8.144e-07 1.1397e-06 1.48598e-06 1.84642e-06 2.19534e-06 2.55454e-06 2.89875e-06 3.27251e-06 3.60322e-06 3.98471e-06 4.3438e-06 4.66337e-06 5.03789e-06 5.38901e-06 5.69598e-06 0 6.32431e-06 6.65235e-06 6.92529e-06 7.19328e-06 7.46565e-06 7.77963e-06 0 8.22637e-06 8.42236e-06 0 8.80928e-06 8.97215e-06 8.23958e-06 7.86321e-06 0 7.23663e-06 6.81415e-06 6.39996e-06 5.89237e-06 5.53714e-06 4.88802e-06 4.30167e-06 0 3.03872e-06 2.3521e-06 1.7025e-06 9.87823e-07 3.11654e-07 -4.3212e-07 -1.18934e-06 -1.87037e-06 -2.64163e-06 -3.34535e-06 -4.09398e-06 0 -5.59635e-06 -6.37485e-06 -7.0981e-06 -7.86695e-06 -8.50279e-06 -9.27053e-06 -9.87247e-06 -1.05977e-05 -1.1156e-05 -1.18006e-05 -1.24314e-05 -1.29683e-05 -1.34998e-05 -1.40488e-05 -1.45092e-05 -1.49737e-05 -1.5339e-05 0.000690402 0.00105513 0.00144336 0.00180264 0.00218288 0.00255245 0.00297058 0.00336851 0.00378584 0.00420983 0.0046424 0.0050038 0.00547077 0.00589308 0.00634449 0.00675901 0.0071796 0.00758189 0.00802452 0.00843484 0.00888688 0.00928331 0.00969882 0.0100166 
0.0104772 0.010828 0.0111992 0.0115461 0.0119073 0.0122022 0.0124907 0.0127438 0.0130289 0.013258 0 0.013693 0.0138372 0.0140301 0.014171 0.0143175 0.0141622 0.0141033 0.013979 0.013875 0.0136961 0.0135656 0.0133333 0 0.0128725 0.0125619 0.0122704 0.0119451 0.0116055 0.0112218 0.010836 0.0104589 0.00995495 0 0.00902971 0.00859751 0.00808764 0.00758878 0.00708652 0.00657486 0.00604664 0.00553727 0.00497906 0.00444619 0.00394084 0.00343604 0 0.00233979 0.00180052 0.00126604 0 0.00026282 -0.0002273 -0.000706221 -0.00115661 -0.00159576 -0.00182806 -0.00218427 0 -0.00281854 -0.0030795 -0.00335072 -0.0035976 -0.00419874 -0.00405134 -0.00391199 -0.00375815 -0.00359045 0 -0.00325894 -0.0030736 0 -0.00267744 -0.00247168 -0.00226863 -0.00203996 -0.00183988 -0.00163161 -0.00140777 0 -0.000939073 -0.000720084 0 -0.000269878 -4.34008e-05 0.000173956 0.000398031 0.000610524 0.000805597 0.00102839 0.00123027 0.00142028 0.00159653 0.00178769 0.00197116 0 0.00230038 0.00243559 0.00259803 0.00274997 0.00284663 0.00297118 0.00309219 0.00332056 0.0032861 0.00325355 0.00323002 0.00317109 0.0031355 0 0.00301614 0.00296523 0.00288784 0.00283395 0.00275767 0.00267262 0.00260901 0.00250967 0.00242558 0.0023333 0.00224592 0.00216084 0.00206357 0.00195915 0.00185621 0.00176228 0.00166726 0.00157585 0.00147264 0.0013711 0.00126406 0.0011675 0.00106695 0.000974132 0.000883134 0.000788151 0.000683878 0.000588851 0.000505926 0.000413786 0.000328705 0.00024746 0.000159508 -4.93215e-06 -4.98179e-06 0 -5.08903e-06 0 -5.15361e-06 -5.1728e-06 -5.19458e-06 -5.20856e-06 0 -5.22629e-06 -5.23299e-06 -5.21575e-06 -5.19963e-06 -5.1887e-06 -5.1598e-06 -5.13782e-06 -5.10498e-06 -5.0489e-06 0 0 -4.92857e-06 -4.86918e-06 -4.81182e-06 -4.74474e-06 -4.66895e-06 -4.59063e-06 -4.52742e-06 -4.44216e-06 -4.34298e-06 -4.2533e-06 -4.17426e-06 -4.06014e-06 -3.47428e-06 -3.1433e-06 -2.76611e-06 -2.39927e-06 -2.07114e-06 -1.64251e-06 0 -7.75129e-07 -4.64793e-07 0 1.75224e-07 4.85152e-07 8.14964e-07 0 1.48701e-06 1.8477e-06 2.19687e-06 2.55632e-06 2.90076e-06 0 3.60573e-06 3.98748e-06 4.34682e-06 4.66661e-06 0 5.39276e-06 5.69994e-06 5.98294e-06 6.32871e-06 0 6.93012e-06 7.19829e-06 7.47085e-06 0 7.98518e-06 8.2321e-06 8.42822e-06 8.60912e-06 8.81541e-06 8.9784e-06 8.24532e-06 7.8687e-06 7.60079e-06 0 6.8189e-06 6.40443e-06 5.89649e-06 5.54101e-06 4.89143e-06 4.30468e-06 3.69407e-06 3.04085e-06 2.35375e-06 1.7037e-06 9.88528e-07 3.11888e-07 -4.32403e-07 -1.19015e-06 -1.87165e-06 -2.64345e-06 -3.34766e-06 0 0 0 -6.37926e-06 -7.10302e-06 -7.8724e-06 -8.50869e-06 -9.27696e-06 -9.87932e-06 0 -1.11637e-05 -1.18088e-05 -1.24401e-05 -1.29773e-05 -1.35092e-05 -1.40585e-05 -1.45193e-05 -1.49841e-05 0 0.000690875 0 0.00144435 0.00180388 0.00218438 0.00255421 0.00297262 0.00337082 0.00378844 0.00421272 0.00464558 0.00500723 0.00547453 0.00589712 0 0 0.00718453 0.00758709 0.00803002 0.00844064 0.00889298 0.00928968 0.00970548 0.0100235 
0.0104523 0.0108023 0 0.0115187 0.011879 0 0.012461 0.0127135 0.012998 0.0132265 0.0134907 0.0136605 0.0138043 0 0 0.0142835 0.0141286 0.0140699 0.0139458 0.0138421 0.0136636 0.0135334 0.0133016 0.0130753 0.012842 0.0125321 0.0122413 0.0119168 0.011578 0.0111952 0.0108104 0 0.00993139 0.00949909 0.00900837 0.00857719 0.00806854 0.00757087 0.00706981 0.00655936 0.0060324 0.00552425 0.00496737 0.00443577 0.00393162 0.00342803 0.00282365 0.00233438 0.0017964 0.0012632 0.000754672 0.000262361 -0.000226592 0 -0.00115369 -0.0015918 -0.00182355 -0.00217892 -0.00249615 -0.00281169 -0.00307204 -0.00334262 -0.00358891 -0.00418863 -0.00404159 -0.00390257 -0.00374911 -0.00358181 -0.00341932 -0.00325111 -0.00306622 -0.00286953 -0.00267102 -0.00246576 -0.00226319 -0.00203507 -0.00183548 -0.00162771 -0.00140442 -0.00118189 -0.000936848 -0.000718388 -0.000493295 -0.000269269 -4.33391e-05 0.000173493 0.000397026 0.000609007 0.000803609 0.00102586 0 0 0.00159264 0.00178333 0.00196636 0.0021239 0.00229479 0.00242967 0.00259172 0.00274329 0.00283972 0.00296397 0 0.0033125 0.00327813 0.00324566 0.00322218 0.0031634 0.0031279 0.00306793 0.00300882 0.00295804 0.00288084 0.00282707 0.00275098 0.00266614 0.00260268 0.00250359 0.0024197 0.00232764 0.00224048 0.0021556 0.00205857 0.0019544 0.00185171 0.00175801 0.00166322 0.00157203 0.00146907 0 0.00126099 0.00116467 0.00106437 0.000971769 0.000880992 0.000786239 0.000682219 0.000587423 0.000504699 0.000412782 0.000327907 0 0.000159122 -4.92013e-06 -4.96965e-06 -5.03199e-06 -5.07663e-06 -5.10596e-06 -5.14106e-06 -5.1602e-06 -5.18194e-06 -5.19588e-06 -5.21292e-06 -5.21357e-06 -5.22026e-06 -5.20306e-06 -5.18698e-06 0 -5.14726e-06 -5.12533e-06 -5.09257e-06 -5.03663e-06 -5.00401e-06 -4.96184e-06 -4.91661e-06 -4.85736e-06 -4.80015e-06 -4.73322e-06 0 -4.5795e-06 -4.51644e-06 -4.43139e-06 -4.33245e-06 -4.243e-06 -4.16415e-06 -4.05031e-06 0 -3.13569e-06 -2.75941e-06 -2.39346e-06 -2.06612e-06 -1.63853e-06 -1.26134e-06 -7.73247e-07 -4.6366e-07 0 1.74814e-07 4.83995e-07 8.13011e-07 1.13775e-06 1.48344e-06 0 2.19158e-06 2.55016e-06 0 3.2669e-06 3.59705e-06 3.97788e-06 4.33635e-06 0 5.02925e-06 5.37977e-06 5.68621e-06 5.96853e-06 6.31346e-06 6.64094e-06 6.91342e-06 7.18095e-06 7.45284e-06 7.76628e-06 7.96594e-06 8.21226e-06 8.40791e-06 0 8.79417e-06 8.95676e-06 8.22544e-06 7.84972e-06 7.58245e-06 7.2242e-06 6.80245e-06 6.38897e-06 5.88225e-06 5.52762e-06 4.87961e-06 4.29426e-06 3.68512e-06 3.03348e-06 2.34803e-06 1.69954e-06 9.86089e-07 3.11077e-07 -4.31424e-07 -1.18734e-06 -1.86721e-06 -2.63715e-06 -3.33967e-06 -4.08702e-06 -4.87648e-06 -5.58681e-06 -6.36397e-06 0 -7.85352e-06 -8.48828e-06 0 0 -1.05796e-05 -1.11369e-05 -1.17805e-05 -1.24102e-05 -1.29461e-05 0 -1.40247e-05 -1.44844e-05 -1.49481e-05 -1.53128e-05 0.000689235 0.00105334 0.00144092 0 0.00217919 0.00254814 0.00296556 0 0.00377945 0.00420272 0.00463455 0 0.00546153 0.00588311 0.00633377 0.00674759 0.00716747 0.00756907 0.00801095 0.00842059 0.00887186 0.00926762 0.00968243 0.00999966 
0.0104536 0.0108036 0.011174 0.0115201 0 0.0121747 0.0124625 0.0127151 0.0129995 0.0132281 0.0134923 0.0136621 0 0.0139985 0.0141391 0.0142852 0.0141303 0.0140716 0.0139475 0.0138438 0.0136652 0.0135351 0.0133033 0.0130769 0.0128436 0.0125336 0.0122428 0.0119182 0.0115794 0 0 0.0104354 0.00993259 0.00950023 0.00900945 0.00857822 0.00806951 0 0.00707066 0.00656015 0.00603313 0 0.00496796 0 0.00393209 0.00342843 0.00282398 0.00233466 0.00179661 0.00126334 0.000754755 0 -0.000226628 -0.000704467 -0.00115384 -0.001592 -0.00182378 -0.0021792 -0.00249646 -0.00281204 -0.00307242 -0.00334303 -0.00358935 -0.00418915 -0.00404209 -0.00390305 -0.00374957 -0.00358225 -0.00341974 -0.00325151 -0.00306659 -0.00286988 -0.00267134 -0.00246606 -0.00226347 -0.00203532 0 -0.00162791 -0.00140459 -0.00118203 -0.000936961 -0.000718474 -0.000493353 -0.0002693 -4.33422e-05 0.000173516 0.000397077 0 0.00080371 0.00102599 0.00122741 0.00141699 0.00159283 0.00178355 0.0019666 0.00212416 0 0.00242997 0.00259204 0.00274363 0.00284007 0.00296434 0.00308506 0.00331291 0.00327853 0.00324606 0 0.00316379 0.00312828 0 0.00300919 0.0029584 0 0.00282742 0.00275132 0.00266647 0 0.0025039 0.00242 0 0.00224075 0.00215587 0.00205882 0.00195464 0.00185194 0 0.00166342 0.00157223 0.00146925 0 0.00126115 0.00116482 0.0010645 0.00097189 0 0.000786337 0.000682303 0.000587496 0.000504761 0.000412833 0.000327948 0.00024689 0.000159141 -4.92074e-06 -4.97026e-06 -5.03261e-06 -5.07726e-06 -5.10659e-06 -5.1417e-06 -5.16084e-06 -5.18258e-06 -5.19653e-06 -5.21356e-06 0 -5.22091e-06 -5.20371e-06 -5.18762e-06 -5.17673e-06 -5.1479e-06 -5.12596e-06 -5.0932e-06 -5.03726e-06 -5.00463e-06 -4.96245e-06 -4.91722e-06 0 -4.80074e-06 -4.73381e-06 -4.6582e-06 -4.58007e-06 -4.517e-06 -4.43194e-06 -4.33299e-06 -4.24352e-06 -4.16466e-06 -4.05081e-06 -3.46629e-06 -3.13607e-06 0 -2.39375e-06 -2.06638e-06 -1.63873e-06 -1.26149e-06 -7.73343e-07 -4.63718e-07 -1.58673e-07 1.74835e-07 4.84054e-07 8.13111e-07 1.13789e-06 0 1.84348e-06 2.19185e-06 0 2.89414e-06 3.2673e-06 3.59749e-06 3.97837e-06 4.33689e-06 0 5.02987e-06 5.38043e-06 5.68691e-06 5.96926e-06 6.31424e-06 6.64176e-06 6.91427e-06 7.18183e-06 7.45376e-06 7.76724e-06 7.96692e-06 8.21327e-06 8.40894e-06 0 0 8.95786e-06 0 0 7.58339e-06 7.22509e-06 6.80328e-06 0 5.88297e-06 5.5283e-06 4.88021e-06 4.29479e-06 3.68558e-06 3.03385e-06 2.34832e-06 1.69976e-06 9.86213e-07 3.11119e-07 -4.31474e-07 -1.18749e-06 -1.86744e-06 -2.63748e-06 -3.34007e-06 -4.08752e-06 -4.87708e-06 -5.58749e-06 -6.36475e-06 -7.08686e-06 -7.85448e-06 -8.48932e-06 0 0 -1.05809e-05 0 -1.17819e-05 -1.24117e-05 -1.29477e-05 -1.34784e-05 -1.40265e-05 0 0 -1.53146e-05 0.000689318 0.00105347 0.00144109 0.00179981 0.00217945 0.00254845 0.00296592 0.00336322 0.0037799 0.00420323 0.00463511 0 0.00546219 0.00588383 0.00633454 0.00674841 0.00716834 0.00756999 0.00801192 0.00842161 0.00887293 0.00926874 0.0096836 0.0100009 
0.0104202 0.0107691 0.0111383 0.0114834 0.0118425 0.0121358 0.0124228 0 0.0129581 0.0131859 0.0134492 0.0136185 0.0137619 0.0139538 0.0140939 0.0142396 0.0140852 0.0140267 0.013903 0.0137996 0 0.0134919 0.0132608 0.0130352 0.0128026 0.0124937 0.0122038 0.0118803 0.0115425 0.0111609 0.0107773 0.0104022 0.00990101 0.00947004 0.00898083 0.00855098 0.00804391 0.00754776 0.00704825 0 0 0 0.00495229 0.00442233 0.00391974 0 0.00281517 0.00232741 0.00179109 0.00125952 0 0.000261769 -0.000225681 -0.000701992 -0.00114993 0 -0.00181774 -0.00217203 -0.00248828 -0.00280286 -0.00306241 -0.00333217 -0.00357771 -0.0041756 -0.00402902 -0.00389044 0 0 -0.00340869 0 -0.0030567 -0.00286062 -0.00266273 -0.00245811 -0.00225618 -0.00202877 -0.00182981 -0.00162269 -0.00140009 -0.00117825 -0.000933978 -0.0007162 -0.00049181 -0.000268484 -4.32592e-05 0.000172895 0.000395731 0.00060705 0.000801045 0.0010226 0.00122337 0.00141234 0.00158761 0.00177771 0.00196017 0.00211722 0 0.00242203 0.00258358 0.00273467 0.0028308 0.00295467 0.00307501 0.00330212 0.00326785 0.00323548 0.00321208 0 0.00311809 0 0.00299939 0.00294876 0.00287181 0.00281821 0.00274236 0.00265778 0.00259452 0.00249574 0.00241211 0.00232035 0.00223345 0 0 0.00194827 0.0018459 0 0.001658 0.0015671 0 0.00136349 0.00125704 0.00116102 0.00106103 0.000968723 0.00087823 0.000783774 0.00068008 0 0.000503116 0.000411488 0.000326879 0.000246086 0.000158623 -4.90462e-06 -4.95399e-06 -5.01614e-06 -5.06064e-06 -5.08988e-06 0 -5.14395e-06 -5.16563e-06 -5.17953e-06 -5.19651e-06 -5.19717e-06 -5.20384e-06 -5.1867e-06 -5.17067e-06 -5.15982e-06 -5.13108e-06 -5.10923e-06 -5.07658e-06 -5.02082e-06 -4.98829e-06 -4.94626e-06 -4.90117e-06 -4.84212e-06 -4.78509e-06 -4.71838e-06 -4.64302e-06 -4.56514e-06 -4.50229e-06 0 -4.31888e-06 -4.22971e-06 -4.15111e-06 -4.03763e-06 -3.45501e-06 -3.12587e-06 -2.75077e-06 -2.38596e-06 -2.05965e-06 -1.6334e-06 -1.25738e-06 -7.70821e-07 0 0 1.74286e-07 4.82502e-07 8.10493e-07 1.13422e-06 1.47883e-06 1.83753e-06 0 2.54223e-06 2.88478e-06 3.25673e-06 3.58585e-06 3.96549e-06 4.32285e-06 4.64088e-06 5.01359e-06 5.36301e-06 5.6685e-06 5.94994e-06 6.29379e-06 6.62025e-06 0 7.15857e-06 0 7.74209e-06 7.94112e-06 0 8.38171e-06 8.56161e-06 8.76676e-06 8.92885e-06 8.1998e-06 0 7.55881e-06 7.20167e-06 0 6.36903e-06 5.86388e-06 0 4.86436e-06 4.28083e-06 3.67358e-06 3.02397e-06 2.34065e-06 1.69418e-06 9.82944e-07 3.10032e-07 -4.3016e-07 -1.18373e-06 -1.86148e-06 -2.62903e-06 -3.32936e-06 -4.07439e-06 -4.86139e-06 -5.56951e-06 -6.34426e-06 0 -7.82917e-06 -8.46195e-06 -9.22599e-06 0 -1.05467e-05 -1.11024e-05 -1.17439e-05 0 -1.29059e-05 -1.34349e-05 -1.39812e-05 -1.44394e-05 -1.49017e-05 0 0.000687119 0.00105011 0.00143649 0.00179407 0.0021725 0.00254032 0.00295645 0.00335249 0 0.00418981 0 0.00498 0.00544476 0.00586505 0.00631432 0.00672687 0.00714546 0.00754583 0.00798635 0.00839473 0.00884462 0.00923916 0.0096527 0.00996895 
0 0.0107745 0.0111439 0.0114891 0.0118484 0 0.012429 0.0126808 0 0.0131925 0 0.0136253 0.0137688 0 0.014101 0.0142467 0.0140922 0 0.0139099 0.0138065 0 0.0134986 0.0132674 0.0130417 0 0.0124999 0.0122098 0.0118862 0.0115482 0.0111664 0.0107826 0.0104074 0.00990592 0.00947473 0 0.00855522 0.00804789 0.0075515 0.00705173 0.00654261 0.00601701 0.00551017 0.00495473 0.0044245 0.00392166 0.00341936 0.00281654 0 0 0.00126012 0.000752905 0.000261865 0 -0.000702377 -0.00115054 -0.00158751 -0.00181868 -0.00217314 -0.00248955 -0.00280429 -0.00306397 -0.00333386 -0.00357952 -0.00417771 -0.00403105 -0.0038924 -0.00373934 -0.00357248 -0.00341041 -0.00324264 -0.00305824 -0.00286206 -0.00266407 -0.00245935 -0.00225731 0 -0.00183072 -0.0016235 -0.00140079 -0.00117884 -0.000934442 -0.000716554 -0.00049205 -0.000268611 -4.32721e-05 0.000172992 0 0.000607366 0.000801459 0.00102313 0.001224 0 0.00158842 0.00177862 0 0.0021183 0.00228874 0.00242327 0.00258489 0.00273607 0.00283224 0.00295617 0.00307657 0 0.00326951 0.00323712 0.00321371 0.00315508 0.00311967 0.00305987 0 0.00295026 0.00287327 0 0 0.00265913 0 0.00249701 0.00241334 0.00232153 0 0.00214993 0.00205315 0.00194926 0.00184684 0 0.00165884 0.0015679 0.00146521 0 0.00125768 0.00116161 0.00106157 0.000969215 0.000878676 0.000784173 0.000680426 0.000585879 0.000503372 0.000411697 0.000327046 0.000246211 0.000158703 -4.90713e-06 -4.95652e-06 -5.0187e-06 -5.06323e-06 0 -5.12749e-06 -5.14658e-06 -5.16826e-06 -5.18217e-06 -5.19917e-06 -5.19982e-06 -5.2065e-06 0 -5.17331e-06 -5.16245e-06 -5.1337e-06 -5.11183e-06 -5.07916e-06 -5.02337e-06 -4.99083e-06 -4.94878e-06 -4.90367e-06 -4.84458e-06 -4.78752e-06 0 -4.64538e-06 -4.56747e-06 -4.50458e-06 -4.41975e-06 -4.32107e-06 -4.23185e-06 -4.15322e-06 -4.03968e-06 -3.45677e-06 -3.12745e-06 -2.75217e-06 -2.38717e-06 -2.0607e-06 -1.63423e-06 -1.25802e-06 -7.71213e-07 -4.62435e-07 -1.58225e-07 1.74371e-07 4.82744e-07 8.109e-07 1.13479e-06 1.47957e-06 0 2.18587e-06 2.54351e-06 2.88623e-06 3.25838e-06 3.58766e-06 3.96749e-06 4.32503e-06 4.64322e-06 5.01612e-06 5.36572e-06 5.67136e-06 5.95294e-06 6.29697e-06 6.6236e-06 6.89536e-06 7.16219e-06 7.43338e-06 7.746e-06 7.94513e-06 8.19081e-06 8.38595e-06 8.56593e-06 8.77119e-06 8.93336e-06 8.20394e-06 7.8292e-06 7.56263e-06 7.20531e-06 0 6.37225e-06 5.86685e-06 5.51315e-06 4.86682e-06 4.28301e-06 3.67545e-06 3.02551e-06 2.34184e-06 1.69505e-06 0 3.10201e-07 -4.30365e-07 -1.18431e-06 -1.86241e-06 -2.63034e-06 -3.33103e-06 -4.07643e-06 -4.86383e-06 0 -6.34745e-06 -7.06758e-06 -7.83311e-06 -8.46621e-06 -9.23063e-06 -9.82998e-06 0 -1.11079e-05 -1.17498e-05 -1.23779e-05 -1.29124e-05 0 -1.39882e-05 -1.44467e-05 -1.49092e-05 -1.52729e-05 0.000687461 0.00105063 0.00143721 0.00179496 0.00217358 0.00254158 0.00295792 0 0.00376972 0.0041919 0 0.00498248 0.00544747 0 0 0.00673022 0 0.00754959 0.00799033 0.00839891 0.00884902 0.00924376 0.00965751 0.00997392 
0.0104004 0.0107486 0.0111172 0.0114615 0.01182 0.0121128 0.0123991 0.0126504 0.0129334 0.0131608 0.0134237 0.0135926 0.0137357 0.0139273 0.0140671 0.0142125 0.0140584 0.014 0.0138766 0.0137734 0.0135957 0.0134663 0.0132357 0.0130104 0.0127783 0.0124699 0.0121806 0.0118577 0 0.0111397 0.0107568 0.0103825 0.00988225 0.0094521 0.00896383 0.0085348 0.00802869 0.0075335 0.00703494 0.00652704 0.0060027 0.00549709 0.00494298 0.00441403 0 0.00341131 0.00280993 0.00232311 0.00178781 0.00125726 0.000751262 0.000261402 -0.000225119 -0.000700523 -0.00114761 -0.00158353 -0.00181415 -0.00216777 -0.00248342 -0.00279741 -0.00305647 -0.00332572 -0.0035708 -0.00416755 -0.00402126 -0.00388294 -0.00373026 -0.00356381 -0.00340213 -0.00323477 -0.00305082 -0.00285512 -0.00265761 -0.00245339 0 -0.00202488 -0.0018263 -0.00161958 -0.00139741 0 -0.000932206 0 -0.000490893 -0.000267999 -4.32097e-05 0.000172527 0.000394932 0.000605842 0.000799462 0 0.00122097 0 0 0.00177424 0.00195634 0.00211309 0.00228312 0 0 0.00272935 0.0028253 0.00294893 0.00306903 0.00329571 0.0032615 0.0032292 0.00320584 0.00314736 0 0.00305238 0.00299356 0.00294304 0.00286623 0.00281274 0 0.00265262 0 0.00249089 0.00240743 0.00231584 0.00222912 0.00214467 0.00204813 0.00194449 0.00184232 0.00174909 0.00165478 0.00156406 0.00146162 0.00136084 0.0012546 0.00115877 0 0.000966842 0.000876524 0.000782253 0.00067876 0 0.00050214 0.000410689 0.000326245 0.000245608 0.000158315 -4.89505e-06 0 -5.00635e-06 -5.05077e-06 -5.07995e-06 -5.11488e-06 0 -5.15556e-06 -5.16944e-06 0 -5.18704e-06 0 -5.1766e-06 0 -5.14977e-06 -5.1211e-06 -5.09928e-06 -5.0667e-06 0 -4.97859e-06 -4.93665e-06 -4.89165e-06 -4.83271e-06 -4.77579e-06 -4.70921e-06 0 -4.55628e-06 -4.49355e-06 -4.40893e-06 -4.3105e-06 -4.2215e-06 -4.14306e-06 0 -3.44831e-06 -3.11981e-06 -2.74543e-06 -2.38133e-06 -2.05566e-06 -1.63023e-06 0 -7.69323e-07 -4.61296e-07 -1.57827e-07 1.73959e-07 4.81581e-07 8.08939e-07 1.13204e-06 1.47598e-06 1.83399e-06 2.18056e-06 2.53733e-06 2.87922e-06 3.25045e-06 3.57894e-06 3.95785e-06 4.31451e-06 0 5.00392e-06 5.35267e-06 0 5.93846e-06 6.28165e-06 6.60748e-06 6.87858e-06 7.14476e-06 7.41529e-06 7.72715e-06 7.92579e-06 8.17088e-06 8.36554e-06 8.54508e-06 8.74984e-06 8.91161e-06 8.18397e-06 7.81014e-06 7.54421e-06 7.18776e-06 6.76812e-06 0 5.85254e-06 5.4997e-06 4.85494e-06 4.27254e-06 0 3.0181e-06 2.33609e-06 1.69087e-06 9.81003e-07 0 -4.2938e-07 -1.1815e-06 0 -2.62402e-06 -3.32299e-06 0 -4.85208e-06 -5.55883e-06 -6.33209e-06 -7.05047e-06 0 0 -9.20826e-06 0 -1.05265e-05 -1.1081e-05 -1.17213e-05 0 -1.28811e-05 -1.3409e-05 -1.39543e-05 -1.44116e-05 -1.4873e-05 -1.52358e-05 0 0.00104811 0.00143376 0.00179066 0.00216837 0.00253549 0.00295083 0.00334612 0 0.00418185 0 0 0.0054344 0.0058539 0 0.00671408 0.00713187 0.00753148 0.00797117 0.00837877 0.0088278 0.00922159 0.00963434 0.00994999 
0.0103367 0.0106828 0.0110491 0.0113913 0.0117476 0 0.0123232 0.0125729 0 0.0130802 0.0133415 0.0135094 0.0136516 0.013842 0.013981 0.0141255 0.0139724 0.0139143 0.0137916 0.0136891 0.0135126 0.0133839 0.0131547 0.0129309 0.0127002 0.0123937 0.0121062 0.0117853 0.0114502 0.0110717 0.0106911 0.0103191 0.00982194 0.00939444 0 0.00848279 0.00797979 0.00748764 0.00699215 0.00648737 0.00596626 0.00546375 0.00491304 0.00438735 0.0038888 0.00339079 0.00279311 0.00230927 0 0.00124996 0.000747073 0.00026022 -0.000223317 -0.000695803 -0.00114015 -0.0015734 0 -0.00215408 -0.00246782 -0.00277989 -0.00303738 0 -0.00354858 -0.00414169 -0.00399631 -0.00385886 -0.00370712 -0.00354171 -0.00338105 -0.00321473 -0.00303192 -0.00283745 -0.00264117 -0.00243822 0 -0.00201238 -0.00181504 -0.0016096 -0.00138882 -0.00116879 -0.000926511 -0.000710507 -0.000487945 -0.000266439 -4.30496e-05 0.000171344 0 0.000601962 0.000794376 0.00101413 0.00121326 0.00140069 0.00157454 0.00176309 0.00194406 0.00209983 0.0022688 0.00240217 0.0025624 0.00271227 0.00280761 0.00293048 0.00304983 0.0032751 0.00324111 0.00320901 0.0031858 0.00312768 0.00309258 0.00303329 0.00297485 0.00292463 0 0.00279515 0 0.00263603 0.00257329 0 0.00239238 0.00230136 0.00221518 0.00213126 0.00203532 0.00193233 0 0.00173816 0.00164444 0.00155428 0.00145248 0.00135233 0.00124676 0 0 0.000960797 0.000871044 0.000777362 0.000674516 0.00058079 0.000499 0.000408122 0.000324205 0.000244073 0.000157325 -4.86429e-06 -4.91325e-06 -4.9749e-06 -5.01905e-06 -5.04805e-06 -5.08277e-06 0 -5.1232e-06 -5.137e-06 -5.15385e-06 0 0 -5.14414e-06 -5.12825e-06 -5.1175e-06 -5.089e-06 -5.06733e-06 -5.03496e-06 -4.97967e-06 -4.94742e-06 -4.90574e-06 -4.86103e-06 -4.80247e-06 -4.74591e-06 -4.67976e-06 -4.60502e-06 -4.5278e-06 -4.46546e-06 -4.38138e-06 0 -4.19514e-06 -4.11719e-06 -4.00464e-06 -3.42678e-06 -3.10032e-06 0 -2.36645e-06 -2.04281e-06 -1.62004e-06 -1.24709e-06 -7.64508e-07 -4.58396e-07 -1.56814e-07 1.7291e-07 4.78619e-07 8.03942e-07 1.12504e-06 1.46684e-06 0 2.16703e-06 2.52159e-06 2.86135e-06 3.23028e-06 3.55672e-06 3.93327e-06 4.28772e-06 4.60316e-06 0 5.31942e-06 0 0 6.24263e-06 6.56643e-06 6.83585e-06 7.10037e-06 0 7.67914e-06 7.87655e-06 0 8.31355e-06 8.49198e-06 8.69547e-06 8.85624e-06 8.13309e-06 7.76158e-06 0 7.14305e-06 6.72601e-06 6.31715e-06 5.81611e-06 5.46544e-06 4.82468e-06 4.24589e-06 3.64357e-06 2.99923e-06 2.32145e-06 0 9.74765e-07 3.07314e-07 -4.26871e-07 0 -1.84657e-06 -2.6079e-06 -3.30254e-06 -4.04152e-06 -4.82213e-06 -5.5245e-06 -6.29296e-06 -7.00689e-06 -7.76582e-06 0 -9.15129e-06 -9.74548e-06 -1.04613e-05 0 -1.16487e-05 -1.22714e-05 -1.28013e-05 -1.3326e-05 -1.38679e-05 -1.43224e-05 -1.47809e-05 -1.51415e-05 0.000681614 0.0010417 0 0 0 0.00251996 0.00293276 0.00332562 0.00373765 0.00415624 0.00458329 0 0.00540112 0.00581805 0.00626372 0.00667296 0.00708819 0.00748535 0.00792235 0.00832745 0 0 0 0.00988906 
0.0103321 0.010678 0 0.0113862 0.0117423 0.0120331 0.0123176 0 0.0128484 0.0130743 0.0133354 0.0135033 0.0136455 0.0138357 0.0139747 0.0141191 0.0139661 0.013908 0.0137854 0.0136829 0.0135065 0.0133779 0.0131488 0.012925 0.0126945 0 0.0121007 0.01178 0.0114451 0.0110667 0 0.0103145 0 0 0.00890517 0.00847898 0.00797621 0.00748429 0.00698901 0.00648446 0.00596359 0 0.00491085 0.0043854 0.00388707 0.00338928 0.00279187 0.00230826 0.00177648 0.00124943 0.000746766 0.000260133 -0.000223185 -0.000695458 -0.0011396 -0.00157266 -0.00180178 -0.00215308 0 -0.0027786 -0.00303598 -0.00330347 -0.00354695 -0.0041398 -0.00399448 -0.00385709 -0.00370543 -0.00354009 0 -0.00321326 -0.00303054 0 0 -0.00243711 -0.00223691 -0.00201147 -0.00181421 -0.00160887 -0.00138819 -0.00116826 -0.000926094 -0.000710189 -0.000487729 -0.000266325 -4.30378e-05 0.000171257 0.000392176 0.000601678 0.000794004 0.00101366 0.00121269 0.00140004 0.00157381 0 0.00194316 0.00209886 0.00226775 0.00240106 0 0.00271101 0.00280632 0.00292912 0.00304843 0.00327359 0 0.00320753 0.00318433 0.00312624 0.00309115 0.00303189 0.00297347 0.00292329 0.002847 0.00279386 0.00271867 0.00263482 0.00257211 0.00247418 0.00239127 0.0023003 0.00221416 0.00213028 0.00203438 0.00193144 0.00182996 0 0.00164368 0.00155356 0.00145182 0.00135171 0.00124618 0.00115099 0.00105186 0.000960354 0.000870643 0.000777004 0.000674205 0 0.00049877 0.000407934 0 0.00024396 0.000157253 -4.86204e-06 -4.91098e-06 -4.9726e-06 -5.01672e-06 -5.04572e-06 0 -5.09934e-06 -5.12083e-06 -5.13462e-06 -5.15147e-06 -5.15212e-06 0 -5.14176e-06 -5.12588e-06 -5.11513e-06 -5.08665e-06 -5.065e-06 -5.03264e-06 -4.97737e-06 -4.94514e-06 -4.90348e-06 -4.85879e-06 -4.80025e-06 -4.74372e-06 -4.6776e-06 -4.6029e-06 -4.52571e-06 -4.46341e-06 0 -4.2816e-06 -4.1932e-06 -4.1153e-06 -4.0028e-06 -3.4252e-06 0 -2.72703e-06 0 -2.04187e-06 -1.61929e-06 -1.24652e-06 0 -4.58184e-07 -1.56739e-07 1.72833e-07 0 8.03576e-07 1.12452e-06 1.46617e-06 1.82179e-06 2.16604e-06 2.52044e-06 2.86004e-06 3.2288e-06 3.55509e-06 3.93147e-06 4.28576e-06 4.60105e-06 0 0 0 5.89887e-06 6.23977e-06 6.56342e-06 0 7.09712e-06 7.36584e-06 7.67562e-06 7.87294e-06 8.11639e-06 8.30975e-06 8.4881e-06 8.69149e-06 8.85218e-06 8.12937e-06 7.75802e-06 7.49386e-06 7.13978e-06 6.72293e-06 6.31426e-06 5.81344e-06 0 4.82247e-06 4.24394e-06 0 2.99784e-06 2.32038e-06 1.67945e-06 9.74309e-07 3.07162e-07 -4.26687e-07 -1.1738e-06 -1.84574e-06 0 -3.30104e-06 -4.03968e-06 0 -5.52199e-06 -6.2901e-06 -7.0037e-06 -7.76228e-06 -8.38964e-06 -9.14712e-06 -9.74103e-06 -1.04566e-05 -1.10074e-05 -1.16434e-05 -1.22658e-05 -1.27955e-05 -1.33199e-05 -1.38616e-05 0 -1.47742e-05 -1.51345e-05 0.000681306 0.00104123 0.00142434 0.00177889 0.00215412 0.00251882 0.00293143 0.00332412 0.00373596 0.00415436 0 0.00493786 0.00539868 0.00581542 0.00626089 0.00666995 0.007085 0.00748198 0.00791877 0 0.00876977 0.00916098 0 0.00988459 
0.01027 0.0106138 0.0109777 0.0113178 0 0.0119608 0.0122436 0 0.0127712 0.0129958 0.0132553 0 0.0135635 0.0137526 0.0138907 0 0.0138822 0.0138245 0 0.0136008 0.0134254 0.0132975 0.0130698 0.0128475 0.0126183 0.0123138 0.0120281 0.0117093 0.0113764 0.0110004 0.0106223 0.0102527 0 0.00933402 0.0088519 0.00842828 0.00792854 0.00743958 0.0069473 0 0.00592806 0.00542881 0.00488167 0.00435938 0 0.00336927 0.00277547 0.00229476 0.00176619 0 0.000742677 0.000258975 -0.000221434 -0.000690863 -0.00113234 -0.00156278 -0.00179055 -0.00213975 -0.00245146 -0.00276153 -0.00301737 0 -0.0035253 -0.00411459 -0.00397017 -0.00383362 -0.00368288 0 0 -0.00319373 -0.00301212 0 -0.00262394 -0.00242232 -0.00222335 -0.00199928 -0.00180323 0 -0.00137981 -0.00116123 -0.000920542 -0.000705956 -0.000484855 -0.000264804 -4.28803e-05 0.000170105 0.000389675 0 0.000789049 0 0.00120518 0.00139138 0 0.0017514 0.00193119 0 0.0022538 0.0023863 0.00254548 0.00269436 0.00278909 0 0.00302972 0 0 0.00318785 0.0031648 0.00310706 0.00307219 0.0030133 0.00295524 0.00290536 0 0.00277673 0.00270199 0.00261866 0.00255633 0 0 0.00228619 0.00220058 0.00211721 0.0020219 0.00191959 0.00181873 0.0017267 0.0016336 0.00154404 0.00144291 0.00134342 0.00123854 0.00114393 0.00104541 0.000954464 0.000865303 0.000772238 0.00067007 0.000576962 0.000495711 0.000405432 0.000322068 0.000242464 0.000156288 -4.83206e-06 0 -4.94195e-06 -4.98581e-06 -5.01463e-06 -5.04912e-06 -5.06793e-06 -5.0893e-06 -5.10301e-06 -5.11976e-06 -5.12042e-06 -5.12701e-06 0 -5.09436e-06 -5.08368e-06 -5.05538e-06 0 -5.00171e-06 0 -4.91476e-06 0 0 -4.77079e-06 -4.71461e-06 -4.6489e-06 -4.57466e-06 -4.49795e-06 -4.43604e-06 -4.35251e-06 -4.25536e-06 -4.16751e-06 0 -3.97829e-06 -3.40422e-06 -3.07991e-06 -2.71032e-06 -2.35087e-06 -2.02936e-06 0 -1.23887e-06 -7.59464e-07 -4.55359e-07 -1.55752e-07 0 4.75516e-07 0 1.1177e-06 1.45726e-06 1.81071e-06 2.15286e-06 2.5051e-06 2.84263e-06 3.20914e-06 3.53344e-06 3.90752e-06 4.25965e-06 4.57302e-06 4.94028e-06 5.28458e-06 5.5856e-06 0 6.20174e-06 6.52342e-06 6.79107e-06 7.05386e-06 7.32094e-06 0 7.82494e-06 8.06691e-06 8.25909e-06 8.43635e-06 8.6385e-06 8.79821e-06 8.07979e-06 7.7107e-06 7.44814e-06 0 6.68189e-06 6.2757e-06 5.77793e-06 5.42955e-06 4.79298e-06 4.21797e-06 0 2.97946e-06 2.30611e-06 1.66908e-06 0 3.05145e-07 -4.2424e-07 -1.1668e-06 -1.83466e-06 -2.591e-06 -3.2811e-06 -4.01525e-06 -4.79076e-06 -5.48853e-06 -6.25196e-06 -6.96122e-06 -7.71519e-06 -8.33873e-06 -9.0916e-06 -9.6819e-06 -1.03931e-05 -1.09406e-05 -1.15727e-05 -1.21913e-05 -1.27178e-05 -1.3239e-05 0 -1.42288e-05 -1.46844e-05 -1.50426e-05 0 0.00103497 0.00141578 0 0.00214117 0.00250369 0.00291382 0.00330415 0.00371351 0.0041294 0.00455369 0.00490819 0.00536624 0.00578048 0.00622327 0.00662987 0.00704242 0 0.00787119 0.00827368 0 0.00910593 0.0095135 0.00982519 
0.0102591 0.0106025 0.0109661 0.0113057 0.0116594 0.0119481 0.0122306 0.0124785 0.0127576 0.012982 0.0132412 0.0134079 0.0135491 0.013738 0.013876 0.0140194 0.0138674 0.0138098 0.0136881 0.0135863 0.0134111 0.0132834 0.013056 0.0128339 0.0126049 0.0123007 0.0120154 0.0116969 0.0113644 0.0109887 0.0106111 0 0.00974842 0.00932415 0.00884254 0.00841938 0.00792018 0.00743174 0.00693998 0.00643901 0.00592182 0 0 0.00435482 0.00386002 0.00336576 0.00277258 0.00229239 0.00176439 0.00124106 0.000741958 0.000258771 0 -0.000690057 -0.00113106 0 -0.00178858 -0.0021374 -0.00244879 -0.00275853 0 0 -0.00352149 -0.00411017 -0.0039659 -0.0038295 -0.00367893 -0.00351478 -0.00335534 -0.0031903 -0.00300889 -0.0028159 -0.00262112 -0.00241972 -0.00222097 -0.00199714 -0.0018013 -0.00159744 -0.00137834 -0.00116 -0.000919567 -0.000705213 -0.00048435 -0.000264537 -4.28525e-05 0.000169903 0.000389236 0.000597234 0.000788179 0.00100626 0.00120387 0.00138986 0.00156239 0.0017495 0.00192909 0 0.00225135 0.00238371 0.00254271 0.00269144 0.00278606 0.00290799 0.00302644 0.00324999 0.00321626 0.0031844 0.00316137 0.00310369 0 0.00301003 0.00295203 0.00290221 0.00282647 0 0.00269906 0.00261582 0 0.00245634 0.00237403 0.00228371 0.00219819 0.00211492 0.00201971 0.00191752 0.00181676 0 0.00163183 0.00154236 0 0.00134196 0.0012372 0 0.00104428 0.00095343 0 0.000771401 0.000669344 0.000576337 0.000495174 0.000404992 0.000321719 0.000242201 0.000156119 -4.8268e-06 -4.8754e-06 -4.93657e-06 0 0 -5.04363e-06 0 -5.08376e-06 -5.09746e-06 -5.11419e-06 -5.11485e-06 -5.12144e-06 -5.10458e-06 -5.08882e-06 -5.07816e-06 -5.04989e-06 -5.0284e-06 -4.99628e-06 0 -4.90943e-06 0 -4.82372e-06 -4.76561e-06 -4.7095e-06 -4.64386e-06 -4.56971e-06 -4.49308e-06 -4.43123e-06 -4.3478e-06 -4.25075e-06 -4.163e-06 -4.08566e-06 -3.97398e-06 -3.40053e-06 -3.07658e-06 -2.70739e-06 -2.34832e-06 -2.02716e-06 -1.60762e-06 0 -7.58641e-07 -4.54863e-07 0 1.7163e-07 4.75009e-07 7.97851e-07 1.1165e-06 1.45569e-06 0 2.15055e-06 2.5024e-06 2.83957e-06 3.20569e-06 3.52964e-06 3.90332e-06 4.25507e-06 4.5681e-06 4.93496e-06 5.2789e-06 5.57959e-06 5.85661e-06 6.19506e-06 6.5164e-06 6.78376e-06 7.04627e-06 7.31306e-06 7.62062e-06 7.81652e-06 8.05822e-06 8.2502e-06 8.42726e-06 8.6292e-06 8.78874e-06 8.07109e-06 0 7.44012e-06 7.08856e-06 6.67469e-06 6.26893e-06 5.77169e-06 0 0 4.21342e-06 3.61567e-06 2.97623e-06 2.30361e-06 1.66726e-06 0 3.04791e-07 -4.2381e-07 -1.16558e-06 -1.83271e-06 -2.58824e-06 -3.2776e-06 0 -4.78564e-06 -5.48266e-06 -6.24527e-06 -6.95377e-06 0 -8.32979e-06 -9.08186e-06 -9.67152e-06 -1.03819e-05 -1.09288e-05 -1.15603e-05 -1.21782e-05 -1.27041e-05 -1.32248e-05 -1.37625e-05 -1.42136e-05 -1.46686e-05 0 0.000676494 0.00103387 0.00141428 0.00176632 0.0021389 0.00250103 0.00291073 0.00330064 0.00370957 0.00412501 0.00454886 0.00490298 0 0.00577434 0.00621666 0 0.00703495 0.00742912 0.00786283 0.0082649 0.00870782 0.00909626 0.00950341 0.00981477 
0.0102231 0.0105654 0 0.0112661 0.0116185 0.0119062 0.0121877 0.0124347 0.0127129 0.0129365 0.0131948 0.0133609 0.0135016 0 0.0138273 0.0139702 0.0138188 0 0.0136401 0.0135387 0.0133641 0.0132369 0.0130103 0.0127889 0.0125608 0.0122577 0.0119733 0.011656 0.0113246 0.0109503 0.010574 0.0102061 0.00971436 0.00929159 0.00881167 0.00839 0.00789256 0.00740584 0.00691581 0.0064166 0 0.00540427 0.00485964 0.00433974 0.00384669 0.00335417 0 0.00228457 0 0.00123694 0.000739586 0.000258097 -0.000220116 -0.000687398 -0.00112685 -0.00155533 0 -0.00212968 -0.00243998 0 -0.00300333 -0.00326802 -0.00350895 0 -0.00395181 -0.0038159 -0.00366587 0 0 -0.00317899 -0.00299822 -0.00280592 -0.00261184 -0.00241116 -0.00221311 -0.00199008 -0.00179494 0 -0.00137349 -0.00115592 -0.00091635 -0.00070276 -0.000482685 -0.000263655 -4.27605e-05 0.000169237 0.000387788 0.000595045 0.00078531 0.00100261 0.00119952 0.00138485 0.00155676 0.0017432 0 0.00207619 0.00224327 0.00237516 0.0025336 0.00268179 0.00277608 0.00289757 0.0030156 0.00323835 0 0.003173 0.00315006 0.00309259 0.00305788 0.00299926 0.00294147 0.00289182 0.00281636 0.00276379 0.0026894 0.00260646 0.00254442 0 0.00236554 0.00227554 0.00219033 0 0 0.00191065 0.00181026 0.00171866 0.00162599 0.00153684 0.00143619 0.00133716 0.00123277 0.0011386 0 0.000950018 0.000861272 0.000768641 0 0.000574275 0.000493402 0.000403543 0 0.000241335 0 -4.80944e-06 -4.85786e-06 -4.91882e-06 -4.96248e-06 0 -5.0255e-06 -5.04423e-06 -5.0655e-06 0 -5.09583e-06 -5.09649e-06 -5.10305e-06 -5.08626e-06 -5.07056e-06 -5.05994e-06 -5.03178e-06 -5.01036e-06 -4.97837e-06 -4.92371e-06 -4.89183e-06 -4.85063e-06 -4.80644e-06 -4.74854e-06 -4.69263e-06 -4.62723e-06 -4.55335e-06 0 -4.41538e-06 -4.33225e-06 -4.23555e-06 -4.14812e-06 -4.07106e-06 -3.95978e-06 -3.38838e-06 -3.06558e-06 -2.69771e-06 -2.33993e-06 0 -1.60187e-06 -1.23309e-06 -7.55924e-07 -4.53226e-07 -1.55008e-07 1.71038e-07 4.73336e-07 7.9503e-07 1.11254e-06 1.45053e-06 1.80235e-06 0 2.49352e-06 0 3.1943e-06 3.51709e-06 0 4.23994e-06 4.55186e-06 4.91742e-06 5.26013e-06 0 5.83578e-06 6.17303e-06 6.49322e-06 6.75963e-06 7.02121e-06 0 0 7.78872e-06 8.02956e-06 8.22085e-06 8.39729e-06 8.5985e-06 8.75747e-06 8.04237e-06 7.67498e-06 7.41363e-06 7.06332e-06 6.65091e-06 6.2466e-06 5.75112e-06 0 4.77072e-06 4.19837e-06 3.60275e-06 2.96558e-06 0 1.66126e-06 9.63646e-07 3.03623e-07 -4.22391e-07 -1.16152e-06 -1.82629e-06 -2.57914e-06 -3.26605e-06 -3.9968e-06 -4.76873e-06 0 -6.22318e-06 -6.92916e-06 -7.67964e-06 -8.3003e-06 -9.04969e-06 -9.63726e-06 -1.03451e-05 -1.08901e-05 -1.15193e-05 -1.21351e-05 0 -1.31779e-05 -1.37138e-05 -1.41632e-05 -1.46166e-05 -1.49731e-05 0.000674123 0 0.00140932 0 0.0021314 0.00249226 0.00290052 0.00328907 0 0.00411055 0.00453291 0.00488579 0.00534175 0.00575409 0.00619486 0.00659961 0 0 0 0.00823592 0.00867729 0.00906437 0.00947009 0.00978035 
0.0101753 0.010516 0 0.0112135 0.0115642 0.0118506 0.0121308 0 0.0126535 0.012876 0.0131332 0.0132985 0.0134385 0.0136259 0.0137627 0.013905 0.0137543 0.0136971 0.0135764 0 0.0133017 0.0131751 0.0129495 0.0127292 0.0125022 0.0122005 0.0119175 0 0.0112719 0.0108993 0.0105247 0.0101585 0.00966914 0.00924835 0.00877068 0.00835099 0.00785588 0 0 0.00638685 0.0058739 0.00537926 0.00483718 0 0.00382898 0 0.00275045 0 0.0017505 0.00123146 0 0.0002572 -0.000218776 -0.000683871 0 -0.00154775 -0.00177344 0 -0.00242829 -0.00273551 -0.00298902 -0.00325248 -0.0034923 -0.00407619 -0.00393312 -0.00379785 -0.00364853 -0.00348575 -0.00332763 -0.00316396 -0.00298406 -0.00279267 -0.00259951 -0.00239978 -0.00220268 0 -0.0017865 -0.00158433 -0.00136705 -0.00115052 0 -0.000699503 -0.000480472 -0.000262483 -4.26377e-05 0.000168352 0.000385866 0.00059214 0 0.00099777 0.00119374 0.0013782 0.00154929 0.00173485 0.00191295 0.00206626 0 0.0023638 0.0025215 0.00266899 0.00276283 0.00288375 0.00300121 0.00322291 0.00318947 0.00315788 0.00313504 0.00307784 0 0 0.00292744 0.00287803 0.00280293 0.00275061 0.00267658 0.00259403 0.00253229 0.00243588 0.00235426 0.00226469 0.00217988 0.0020973 0.00200289 0.00190154 0.00180163 0.00171046 0.00161823 0 0.00142934 0.00133078 0.00122689 0.00113317 0 0.000945488 0 0.000764976 0.000663769 0.000571536 0.000491049 0.000401619 0.00031904 0 0.000154819 -4.7864e-06 0 -4.89526e-06 -4.93872e-06 -4.96727e-06 -5.00144e-06 -5.02009e-06 0 -5.05485e-06 -5.07145e-06 -5.07211e-06 -5.07865e-06 0 -5.04632e-06 -5.03575e-06 -5.00773e-06 -4.98643e-06 0 0 0 -4.82748e-06 -4.7835e-06 -4.72589e-06 -4.67025e-06 -4.60516e-06 0 -4.45566e-06 -4.39433e-06 -4.31161e-06 -4.21537e-06 -4.12836e-06 -4.05167e-06 -3.94093e-06 0 -3.05098e-06 -2.68486e-06 0 -2.01029e-06 -1.59423e-06 -1.22721e-06 -7.52316e-07 -4.51054e-07 -1.54249e-07 1.7025e-07 4.71116e-07 7.91284e-07 1.10729e-06 1.44368e-06 1.79382e-06 2.13278e-06 2.48172e-06 2.81609e-06 3.17917e-06 3.50044e-06 3.87103e-06 4.21986e-06 0 0 5.23521e-06 5.53341e-06 5.80813e-06 6.14379e-06 6.46246e-06 6.7276e-06 6.98793e-06 0 0 7.75181e-06 7.99151e-06 8.18189e-06 8.35749e-06 8.55775e-06 8.71597e-06 0 7.63858e-06 7.37847e-06 7.02981e-06 6.61935e-06 6.21695e-06 5.72381e-06 5.37868e-06 4.74805e-06 4.1784e-06 3.5856e-06 0 2.28438e-06 0 0 3.02073e-07 -4.20506e-07 -1.15614e-06 -1.81777e-06 0 -3.25071e-06 -3.97801e-06 -4.74628e-06 -5.43755e-06 0 -6.89649e-06 -7.64342e-06 -8.26114e-06 -9.00699e-06 -9.59177e-06 -1.02963e-05 -1.08387e-05 0 0 -1.25993e-05 -1.31157e-05 -1.3649e-05 -1.40963e-05 0 -1.49024e-05 0.000670974 0.00102543 0.00140274 0.00175191 0.00212144 0 0.00288697 0.0032737 0.00367929 0.00409135 0.00451174 0.00486296 0.0053168 0.00572721 0.00616592 0.00656877 0.00697753 0.00736849 0.00779866 0.00819744 0 0.00902202 0.00942584 0.00973466 
0.0101778 0.0105186 0.0108792 0.0112162 0.0115671 0.0118535 0.0121338 0 0.0126566 0.0128792 0.0131364 0.0133017 0.0134418 0.0136292 0.0137661 0.0139084 0.0137576 0.0137005 0.0135797 0.0134788 0.013305 0.0131784 0.0129527 0.0127324 0 0.0122035 0.0119204 0.0116045 0.0112746 0.0109019 0.0105273 0.010161 0.0096715 0.00925061 0.00877283 0.00835303 0 0.00737324 0.00688539 0.0063884 0.00587533 0.00538057 0.00483836 0.00432078 0.00382991 0.00333958 0 0.00227473 0.00175091 0.00123174 0.000736599 0.000257247 -0.000218846 -0.000684055 -0.00112156 0 -0.0017739 -0.00211997 -0.0024289 -0.0027362 -0.00298977 -0.00325329 -0.00349317 0 -0.00393409 -0.0037988 -0.00364943 -0.00348661 -0.00332846 -0.00316475 -0.0029848 -0.00279337 -0.00260016 -0.00240038 -0.00220323 -0.0019812 -0.00178694 0 0 -0.0011508 -0.000912302 -0.000699674 -0.000480588 -0.000262544 0 0.000168399 0.000385967 0.000592292 0.0007817 0.000998023 0 0.00137855 0.00154968 0.00173529 0.00191344 0.00206678 0 0.0023644 0.00252213 0.00266966 0.00276352 0.00288447 0.00300197 0.00322372 0.00319027 0.00315867 0.00313582 0 0.00304406 0.00298571 0 0.00287876 0.00280363 0.0027513 0.00267725 0.00259468 0.00253293 0.00243649 0.00235485 0.00226526 0.00218043 0.00209783 0.00200339 0.00190202 0.00180208 0.00171089 0.00161864 0.0015299 0.0014297 0.00133112 0.0012272 0 0.00103584 0.000945725 0.00085738 0.000765168 0.000663935 0.00057168 0.000491173 0.00040172 0.00031912 0.000240244 0.000154857 -4.7876e-06 -4.83581e-06 0 -4.93996e-06 -4.96852e-06 -5.0027e-06 -5.02135e-06 -5.04253e-06 -5.05612e-06 0 -5.07338e-06 -5.07992e-06 -5.06321e-06 -5.04759e-06 -5.03702e-06 0 -4.98768e-06 -4.95583e-06 -4.90142e-06 -4.8697e-06 -4.82869e-06 -4.7847e-06 -4.72707e-06 -4.67142e-06 0 -4.53277e-06 -4.45677e-06 -4.39543e-06 -4.31269e-06 0 -4.12939e-06 -4.05269e-06 -3.94192e-06 -3.37309e-06 -3.05174e-06 -2.68553e-06 -2.32936e-06 -2.01079e-06 -1.59463e-06 -1.22752e-06 -7.52505e-07 -4.51168e-07 -1.54289e-07 1.70292e-07 4.71232e-07 7.9148e-07 1.10757e-06 1.44404e-06 1.79427e-06 2.13331e-06 2.48233e-06 2.81679e-06 3.17997e-06 3.50131e-06 3.87199e-06 4.22091e-06 4.53143e-06 4.89534e-06 5.23651e-06 0 5.80958e-06 6.14532e-06 6.46407e-06 6.72928e-06 6.98968e-06 7.25433e-06 0 7.75374e-06 7.9935e-06 0 8.35957e-06 8.55988e-06 8.71814e-06 8.00623e-06 7.64048e-06 7.38031e-06 7.03157e-06 6.621e-06 6.2185e-06 5.72524e-06 5.38002e-06 4.74923e-06 0 3.5865e-06 2.95218e-06 2.28495e-06 1.6537e-06 9.59219e-07 3.02154e-07 -4.20605e-07 -1.15642e-06 -1.81821e-06 -2.56768e-06 -3.25151e-06 -3.97899e-06 -4.74746e-06 -5.43889e-06 -6.19539e-06 -6.8982e-06 -7.64532e-06 -8.26319e-06 -9.00922e-06 -9.59415e-06 0 -1.08414e-05 -1.14678e-05 -1.20808e-05 -1.26024e-05 -1.31189e-05 0 -1.40998e-05 -1.45512e-05 0 0.000671139 0.00102569 0 0.00175234 0.00212196 0.00248123 0.00288768 0.00327451 0 0.00409235 0.00451284 0.00486416 0.0053181 0.00572862 0.00616744 0.00657039 0.00697924 0.0073703 0.00780057 0.00819945 0 0.00902423 0.00942815 0 
0.0100809 0.0104184 0.0107756 0.0111093 0.0114568 0.0117406 0.0120182 0.0122617 0.012536 0.0127565 0.0130112 0.013175 0.0133137 0 0.0136349 0.0137758 0.0136266 0.01357 0.0134504 0.0133505 0.0131783 0.0130529 0.0128294 0.0126112 0.0123863 0.0120874 0.011807 0.0114942 0.0111674 0.0107983 0.0104273 0.0100645 0.00957967 0 0.0086896 0 0.00778333 0.00730341 0.00682022 0.00632798 0.00581982 0.00532979 0.00479276 0.00428013 0.00379395 0.0033083 0.00272546 0.00225363 0.00173482 0.00122061 0.00073019 0.000255415 -0.000216134 -0.000676902 -0.00111024 0 -0.00175638 -0.00209916 -0.00240516 -0.00270955 -0.00296072 -0.00322175 -0.00345936 -0.00403785 0 -0.00376215 -0.00361424 -0.00345299 -0.00329638 0 0 -0.00276647 -0.00257513 -0.00237729 -0.00218205 -0.00196217 0 -0.00156953 -0.0013543 -0.00113982 -0.000903629 -0.00069306 -0.000476096 0 -4.23925e-05 0.000166607 0 0.000586397 0.000773971 0 0.00118232 0.00136504 0.00153452 0.00171833 0.00189476 0.00204661 0.00221134 0.00234136 0.00249756 0.00264367 0.00273663 0.0028564 0.00297277 0 0.00315925 0.00312796 0.00310534 0 0.00301447 0.00295668 0.00289971 0.00285077 0.00277637 0.00272455 0.00265122 0.00256945 0 0.0024128 0.00233195 0.00224324 0 0.00207743 0.00198392 0.00188353 0.00178456 0.00169426 0.0016029 0.00151503 0.0014158 0.00131818 0.00121527 0.00112244 0.00102577 0.000936531 0.000849045 0.000757729 0 0.000566122 0.000486398 0.000397815 0.000316017 0.000237909 0.000153352 -4.74083e-06 -4.78857e-06 -4.84867e-06 -4.89172e-06 -4.92001e-06 -4.95387e-06 -4.97234e-06 -4.99332e-06 -5.00679e-06 -5.02324e-06 -5.0239e-06 -5.03039e-06 -5.01385e-06 -4.99839e-06 -4.98793e-06 -4.96018e-06 -4.93909e-06 0 -4.85369e-06 -4.82229e-06 -4.78169e-06 -4.73813e-06 -4.68108e-06 -4.62598e-06 -4.56152e-06 -4.4887e-06 -4.41345e-06 -4.35271e-06 -4.27078e-06 -4.17547e-06 -4.08929e-06 -4.01334e-06 -3.90365e-06 -3.34033e-06 0 -2.65945e-06 -2.30674e-06 -1.99125e-06 -1.57913e-06 0 -7.45183e-07 0 -1.5275e-07 1.68693e-07 4.66724e-07 7.83876e-07 1.09691e-06 1.43012e-06 1.77697e-06 2.11273e-06 2.45838e-06 2.78961e-06 3.14927e-06 3.46751e-06 3.8346e-06 4.18015e-06 4.48766e-06 4.84806e-06 5.18593e-06 0 5.75345e-06 6.08595e-06 6.40161e-06 6.66426e-06 6.92214e-06 7.18423e-06 7.48636e-06 0 7.91625e-06 8.10484e-06 8.27878e-06 8.47716e-06 8.63388e-06 7.92883e-06 7.56661e-06 7.30894e-06 6.96355e-06 6.55694e-06 6.15831e-06 5.66981e-06 0 4.7032e-06 4.13891e-06 3.55168e-06 2.92348e-06 0 1.63753e-06 9.49739e-07 2.99012e-07 0 -1.1455e-06 -1.8009e-06 -2.54314e-06 -3.22038e-06 -3.94083e-06 0 -5.38665e-06 -6.13585e-06 -6.83188e-06 -7.57179e-06 -8.1837e-06 0 -9.50182e-06 -1.01997e-05 -1.0737e-05 -1.13574e-05 -1.19644e-05 0 -1.29926e-05 -1.35209e-05 -1.39639e-05 -1.4411e-05 -1.47625e-05 0 0.00101591 0.00138971 0.00173564 0.00210175 0.00245759 0 0.00324331 0.00364513 0.00405336 0.00446984 0.00481781 0.00526743 0.00567403 0.00610867 0 0.00691274 0.00730007 0.00772625 0.00812132 0.00855656 0.00893825 0.00933832 0.00964427 
0.00980385 0.0101321 0 0.0108041 0.011142 0.011418 0 0.0119248 0.0121915 0.0124059 0.0126537 0.0128129 0.0129478 0.0131284 0.0132602 0.0133973 0.0133179 0 0.0132237 0.0131685 0.0130348 0.0129542 0.0127795 0.0126027 0.0124247 0.0121752 0.0119461 0.0116827 0.0114099 0.0110908 0.0107739 0.0104644 0.0100359 0.00967313 0.00925551 0.00889262 0.00846051 0.00803067 0.00760068 0.00716031 0.00670392 0 0.00577699 0.00531824 0.0048767 0 0.00389837 0.0034675 0.00299045 0.00251575 0.00205912 0.00161975 0.00117674 0.000747303 0.000336152 -6.21734e-05 0 0 -0.000987061 -0.00130583 -0.00158358 -0.00186317 -0.00212627 -0.00272445 -0.00262922 -0.00253917 -0.00243975 0 -0.00222607 -0.00211705 -0.00199724 -0.00186973 -0.00174104 -0.00160796 -0.00147666 -0.00132871 0 -0.00106457 -0.000919739 0 -0.000616506 -0.000474785 -0.000328751 -0.000183453 -3.68654e-05 0.000103781 0.000248817 0.000386396 0.000512654 0.000656882 0.000787622 0.000910641 0.00102479 0.00114859 0.0012674 0.00136971 0.00148071 0.00156833 0.00167359 0 0 0.00191554 0.00199402 0.00214211 0.00211988 0.00209889 0.00208371 0.00204569 0.00202273 0.00198396 0.00194573 0.00191289 0.00186297 0.0018282 0.001779 0.00172413 0.00168309 0.00161901 0.00156476 0.00150523 0.00144887 0.00139398 0.00133123 0.00126387 0.00119746 0 0.00107557 0.0010166 0.000950021 0 0.000815462 0.000753174 0.000688308 0.000628429 0 0.000508452 0.00044114 0 0.000326296 0.000266832 0.00021192 0.000159487 0.000102724 0 -3.44194e-06 -3.5085e-06 0 -3.60928e-06 -3.65936e-06 -3.69813e-06 -3.73946e-06 -3.77391e-06 -3.81303e-06 0 -3.87335e-06 -3.88748e-06 -3.90161e-06 -3.92245e-06 0 0 -3.94184e-06 0 -3.93106e-06 0 -3.91821e-06 -3.90115e-06 -3.88248e-06 -3.85527e-06 -3.82473e-06 0 -3.76485e-06 -3.72386e-06 -3.66874e-06 0 -3.58013e-06 -3.51272e-06 -2.99623e-06 -2.72024e-06 -2.40233e-06 -2.09011e-06 -1.81444e-06 -1.44852e-06 -1.12381e-06 -7.26137e-07 -4.35515e-07 -1.49189e-07 1.63853e-07 4.54096e-07 7.6296e-07 1.06781e-06 1.39232e-06 1.73011e-06 2.0571e-06 2.39372e-06 0 3.06656e-06 3.37649e-06 3.73399e-06 4.07052e-06 0 4.72098e-06 5.05003e-06 5.33771e-06 5.60274e-06 0 0 6.48977e-06 6.74091e-06 6.99616e-06 7.29041e-06 7.47784e-06 7.70908e-06 7.89275e-06 8.06216e-06 8.25536e-06 8.408e-06 7.72164e-06 7.36902e-06 7.1182e-06 6.78198e-06 6.38615e-06 5.99809e-06 5.5225e-06 5.1897e-06 0 4.03207e-06 3.46033e-06 2.8487e-06 2.20532e-06 1.59665e-06 9.26995e-07 0 -4.03502e-07 0 -1.75116e-06 -2.47385e-06 -3.13324e-06 -3.83472e-06 -4.57574e-06 0 -5.97195e-06 -6.64965e-06 -7.37008e-06 -7.9659e-06 -8.68528e-06 -9.24933e-06 -9.92887e-06 -1.0452e-05 -1.10561e-05 -1.16472e-05 -1.21502e-05 -1.26483e-05 -1.31627e-05 -1.35942e-05 -1.40295e-05 -1.43717e-05 0.000646464 0.000987983 0.00135151 0.00168793 0.00204398 0.00239004 0.00278156 0 0.00354495 0.00394196 0.004347 0.00468541 0.00512267 0.0055181 0.0059408 0.00632894 0.00672277 0.00709946 0.00751393 0.00789815 0 0.00869263 0.0090817 0.00937925 
0.00960767 0.00992932 0 0.0105879 0.0109191 0.0111895 0 0.0116861 0.0119476 0.0121577 0.0124005 0.0125566 0.0126888 0.0128657 0.0129949 0.0131292 0.0130925 0.0131043 0 0 0.0129103 0.0128571 0.0127124 0.0125614 0.0124122 0.0121935 0.0119961 0.0117634 0.0115242 0.0112363 0.0109532 0.0106769 0.0102837 0 0.00957206 0.00924229 0.00884682 0 0 0.00764443 0.00722075 0 0.0063572 0.00593244 0.00551925 0.00510564 0 0.00419361 0.00374326 0.00329389 0.00285905 0.00244242 0.00201799 0.00160878 0.00121227 0.000829752 0.000547886 0.000197004 -0.000124327 -0.000450906 -0.000743987 -0.00103404 -0.00131185 -0.00192026 -0.0018535 -0.00179036 -0.00172064 -0.00164461 -0.00157077 -0.00149428 -0.00141024 -0.00132073 -0.00123042 -0.00113701 -0.00104486 -0.000940966 0 -0.00075553 -0.000653813 -0.000552491 -0.000440879 -0.000341323 -0.000238729 -0.000136691 -3.36971e-05 6.50878e-05 0.000166993 0.000263694 0.000352401 0.000453759 0.000545683 0.000632143 0.000712407 0 0 0.000954958 0.00103304 0 0.00116878 0 0.0012823 0.00133914 0.00139442 0.00149873 0.00148317 0.00146848 0.00145786 0.00143127 0.0014152 0.00138808 0 0 0.00130343 0.0012791 0.00124468 0 0.00117758 0.00113274 0.00109479 0.00105314 0 0.000975301 0.000931399 0.000884271 0.000837808 0.000795415 0.000752528 0 0.000664689 0.000618858 0.000570546 0.000526966 0.000481583 0.000439688 0 0.000355747 0 0.000265687 0.00022822 0.000186595 0.000148153 0 7.17121e-05 -2.55028e-06 -2.61447e-06 0 -2.74625e-06 -2.80311e-06 -2.86289e-06 -2.91386e-06 -2.96742e-06 -3.01451e-06 -3.06727e-06 -3.10879e-06 -3.15969e-06 -3.19239e-06 0 0 -3.2884e-06 -3.31961e-06 -3.34411e-06 -3.35463e-06 -3.37858e-06 -3.39401e-06 -3.40905e-06 -3.41631e-06 -3.41982e-06 -3.41529e-06 -3.41051e-06 -3.40048e-06 -3.39699e-06 -3.38098e-06 -3.35042e-06 -3.32573e-06 -3.30669e-06 -3.26514e-06 -2.77858e-06 -2.52904e-06 -2.23922e-06 -1.95248e-06 -1.7018e-06 -1.36498e-06 -1.06481e-06 -7.12435e-07 -4.27397e-07 0 1.60457e-07 4.45125e-07 7.48056e-07 1.04705e-06 1.36533e-06 1.69663e-06 2.01734e-06 2.3475e-06 2.66387e-06 3.00741e-06 3.31139e-06 0 3.9921e-06 4.28583e-06 0 4.9528e-06 5.23496e-06 5.4949e-06 5.8125e-06 6.11402e-06 6.3649e-06 6.61123e-06 6.86159e-06 0 7.33402e-06 7.56082e-06 7.74097e-06 7.90713e-06 8.09662e-06 0 7.57331e-06 7.22755e-06 6.98162e-06 6.65194e-06 6.2638e-06 5.88328e-06 5.41692e-06 5.09059e-06 4.49415e-06 3.95538e-06 0 2.79491e-06 2.16399e-06 1.5671e-06 0 2.89073e-07 -3.94368e-07 0 -1.71596e-06 -2.42468e-06 -3.07133e-06 -3.75925e-06 0 -5.13979e-06 -5.85517e-06 -6.51977e-06 -7.22628e-06 -7.81059e-06 -8.51608e-06 -9.06922e-06 -9.73564e-06 0 -1.08411e-05 -1.14208e-05 -1.19141e-05 0 -1.29071e-05 -1.33302e-05 -1.37571e-05 -1.40928e-05 0.00063352 0.000968204 0.00132446 0 0.00200307 0.0023422 0.00272589 0.00309105 0.00347401 0.00386307 0.00426001 0.00459164 0.00502016 0.00540768 0.00582192 0.0062023 0.00658824 0.00695739 0 0.0077401 0.00815491 0.00851868 0.00889998 0.00919157 
0.00941246 0.00972757 0.0100611 0 0.0106972 0.0109621 0 0.0114487 0.0117048 0 0.0121485 0.0123014 0.012431 0.0126043 0.0127309 0.0128625 0.0128654 0.0129013 0.0128678 0 0 0.0127499 0 0.0125064 0.0123844 0.0121945 0.012027 0.0118232 0.0116154 0.011357 0.0111057 0.0108607 0.010501 0.010204 0.00985425 0.00955574 0.0091949 0.00882662 0.00846181 0 0.00769248 0.00731215 0.00688907 0.00649652 0.00611025 0.00572324 0.00524412 0.00486415 0.00443923 0.00401403 0.00360005 0 0.00279856 0.00240872 0.00202635 0.00165906 0.00135751 0.00100481 0.000679027 0.000345597 3.86215e-05 -0.000260799 -0.000551949 -0.00116909 -0.00112894 -0.00109093 0 -0.00100317 -0.000958713 -0.000912608 -0.000861981 -0.00080799 -0.000753518 -0.000697167 -0.000641608 -0.000578866 -0.000524061 -0.000466956 -0.000405518 -0.000344353 -0.000276944 -0.000216779 -0.000154767 -9.31433e-05 -3.08752e-05 2.88018e-05 9.04142e-05 0 0.000202554 0.000263863 0.000319526 0.000371833 0.000420444 0 0.000523732 0 0.000614709 0.000652126 0.000697051 0.000739076 0.000766031 0.000800555 0 0.000897561 0.000888247 0.00087945 0.00087309 0.000857162 0.000847543 0.000831296 0.00081528 0.00080152 0.000780604 0.000766036 0.000745419 0.00072243 0.000705237 0.000678387 0.000655657 0.000630715 0.000607097 0.000584099 0.000557807 0.000529583 0.000501758 0 0 0.000425979 0.000398081 0.000370634 0 0.000315602 0.000288423 0.000263334 0.000238737 0.000213063 0.000184782 0.000159049 0.000136581 0.000111624 0 0 4.27361e-05 -1.7703e-06 -1.84008e-06 -1.91374e-06 -1.98155e-06 -2.04832e-06 -2.11705e-06 -2.17932e-06 0 -2.303e-06 -2.36841e-06 -2.42421e-06 -2.49061e-06 -2.54058e-06 -2.58928e-06 -2.64664e-06 -2.68905e-06 -2.73861e-06 -2.78279e-06 -2.81597e-06 -2.85937e-06 -2.89451e-06 -2.93016e-06 -2.96007e-06 -2.98423e-06 -3.00085e-06 -3.02006e-06 -3.03305e-06 0 -3.05703e-06 -3.0494e-06 -3.04646e-06 -3.04754e-06 0 -2.57211e-06 -2.34753e-06 0 -1.82166e-06 -1.59458e-06 -1.28533e-06 0 -6.98712e-07 -4.19255e-07 -1.43928e-07 1.57091e-07 4.36187e-07 7.33188e-07 1.02633e-06 1.33838e-06 1.66319e-06 1.97763e-06 2.30132e-06 2.61151e-06 2.94833e-06 3.24636e-06 3.59013e-06 3.91374e-06 4.20173e-06 4.53923e-06 4.85565e-06 5.13229e-06 5.38715e-06 0 5.99415e-06 0 0 6.7271e-06 7.01005e-06 7.19029e-06 7.41266e-06 7.58929e-06 7.7522e-06 0 8.08477e-06 7.42506e-06 7.08615e-06 6.84509e-06 6.52194e-06 6.14148e-06 5.76848e-06 5.31133e-06 4.99148e-06 4.40679e-06 3.87865e-06 0 2.74105e-06 2.12256e-06 0 8.93668e-07 2.84588e-07 -3.85389e-07 -1.06748e-06 -1.68095e-06 -2.37571e-06 -3.00963e-06 -3.68401e-06 -4.39639e-06 -5.03738e-06 -5.73868e-06 -6.39019e-06 -7.08279e-06 0 0 -8.88947e-06 -9.54279e-06 -1.00458e-05 -1.06265e-05 -1.11948e-05 -1.16784e-05 -1.21573e-05 -1.26518e-05 -1.30667e-05 0 -1.38143e-05 0.00062064 0.000948525 0.00129754 0.00162053 0.00196236 0.00229461 0.0026705 0.00302823 0 0.00378458 0.00417345 0.00449835 0.00491816 0.0052978 0.00570362 0.00607627 0.00645438 0.00681603 0.00721395 0 0.00798921 0.0083456 0.00871915 0.00900481 
0.00913066 0.00943634 0.00975988 0.0100622 0.010377 0.0106339 0.0108854 0.0111059 0.0113544 0.0115541 0.0117848 0.0119331 0.0120588 0.012227 0.0123497 0.0124774 0.0125217 0.0125823 0.0125726 0 0.0125328 0.0125321 0 0 0 0.0120941 0.0119591 0.0117871 0.0116139 0.0113884 0.0111723 0.0109619 0.0106401 0.0103788 0.0100664 0 0.00948126 0.00914725 0.00881853 0.00847731 0.00812023 0.00777378 0 0.00703047 0.00667549 0.00631942 0.00587362 0.00552266 0.00512781 0 0.00434255 0 0.00358896 0.00322257 0.00285812 0.00250975 0.00219017 0.00183851 0.0015108 0.00117299 0.000854083 0.000547384 0.000244749 -0.00037637 -0.000364287 0 -0.000340133 0 -0.000312787 -0.000298749 0 -0.000266867 -0.000250222 -0.000232977 -0.000216025 -0.000196712 0 -0.00016239 -0.000143457 -0.000124667 -0.000103904 -8.53079e-05 -6.61198e-05 -4.71438e-05 -2.78524e-05 -9.44444e-06 9.64851e-06 2.78645e-05 4.44706e-05 6.35164e-05 8.09154e-05 9.71807e-05 0.000112389 0.000128867 0.000144665 0 0.000173296 0.000185122 0.000199294 0.000212557 0.000221273 0.000232238 0.000242977 0.000263207 0.000260477 0.000257898 0.000256033 0.000251364 0.000248544 0.00024378 0.000239084 0.00023505 0 0.000224646 0.000218601 0.00021186 0.000206819 0.000198946 0.000192282 0 0.000178043 0.0001713 0.00016359 0.000155314 0.000147155 0.000139711 0.00013218 0.000124935 0 0.000108707 0.000100223 9.25698e-05 8.46002e-05 0 7.00305e-05 6.25021e-05 5.41171e-05 4.65244e-05 3.98854e-05 3.25166e-05 2.57034e-05 1.92035e-05 1.21651e-05 -9.41816e-07 -1.01686e-06 -1.09341e-06 -1.16723e-06 -1.24376e-06 -1.32125e-06 -1.39478e-06 -1.47094e-06 -1.54143e-06 -1.61947e-06 -1.68969e-06 -1.7717e-06 -1.83924e-06 -1.9049e-06 0 -2.04118e-06 -2.10945e-06 -2.17378e-06 -2.23032e-06 -2.29364e-06 -2.34902e-06 -2.40587e-06 -2.45915e-06 -2.50464e-06 -2.54317e-06 -2.58725e-06 -2.62415e-06 -2.66177e-06 0 -2.7096e-06 -2.72938e-06 -2.75143e-06 -2.75935e-06 0 -2.13833e-06 -1.90498e-06 -1.66977e-06 -1.46922e-06 -1.19134e-06 0 -6.7844e-07 -4.07168e-07 -1.39904e-07 1.52299e-07 4.23222e-07 7.11526e-07 0 0 1.6143e-06 1.91952e-06 2.23374e-06 0 2.8618e-06 3.15111e-06 3.48482e-06 3.79895e-06 4.07851e-06 4.40613e-06 4.71329e-06 4.98182e-06 5.22922e-06 5.53149e-06 5.81846e-06 6.05724e-06 6.29168e-06 6.52995e-06 0 6.97959e-06 7.19545e-06 0 7.52506e-06 7.70541e-06 0 7.20763e-06 6.87871e-06 6.64476e-06 6.33114e-06 5.96189e-06 5.59988e-06 5.15619e-06 4.84578e-06 4.27829e-06 3.76568e-06 3.23222e-06 2.66153e-06 2.06122e-06 1.4933e-06 8.68457e-07 2.7728e-07 -3.73002e-07 0 -1.63049e-06 -2.30483e-06 -2.92012e-06 -3.57468e-06 -4.26614e-06 -4.88828e-06 -5.56899e-06 -6.20135e-06 -6.8736e-06 -7.4296e-06 -8.10089e-06 -8.62722e-06 -9.26134e-06 -9.74955e-06 -1.03132e-05 -1.08648e-05 -1.13343e-05 -1.17991e-05 -1.22791e-05 -1.26818e-05 -1.3088e-05 -1.34075e-05 0.000602052 0.00092012 0.00125869 0.00157201 0 0.0022259 0.00259054 0 0.00330151 0.00367127 0.0040485 0 0.00477091 0.00513919 0.00553286 0.00589435 0.00626114 0.00661196 0.00699797 0.00735581 0.00775002 0.00809574 0.0084581 0.00873522 
0.00897582 0.00927632 0 0.00989157 0.010201 0.0104536 0.0107008 0.0109176 0.0111619 0 0.011585 0.0117308 0.0118543 0.0120196 0.0121403 0.0122658 0.0123472 0.0124303 0.0124415 0 0.0124459 0.0124689 0.0124086 0.0123299 0.0122622 0.0121303 0.0120226 0 0.0117326 0.0115337 0.0113466 0 0.010873 0.0106406 0.010358 0.0101229 0.00983238 0.00952524 0.00922502 0.00891161 0 0.00826223 0.00790203 0.0075752 0.00724421 0.00691182 0.00649086 0.00616195 0.00578959 0.00541442 0.00504389 0.004694 0.00432489 0.00397543 0 0.00328782 0 0.00259463 0.00226181 0.00191665 0 0.00126758 0 0.000320606 0.00030799 0.000296122 0.000283038 0.000268858 0.000255036 0.000240863 0.000225206 0.000208757 0.000192124 0.000174967 0.000157956 0.000139067 0.000122401 0.000105136 8.66799e-05 6.81931e-05 0 2.99566e-05 0 -7.06257e-06 0 -4.34668e-05 0 0 -9.49579e-05 -0.000113085 0 -0.000144775 -0.000158945 -0.000174332 -0.000189123 -0.000201709 -0.000215324 -0.000226002 -0.000238874 -0.000250905 -0.000258224 -0.000267976 0 -0.000295073 -0.00029201 -0.000289116 -0.000287024 -0.000281786 -0.000278623 -0.00027328 -0.000268013 -0.000263488 -0.00025661 -0.00025182 -0.00024504 -0.000237481 -0.000231827 -0.000222999 -0.000215525 -0.000207324 0 -0.000191996 -0.000183351 -0.000174071 -0.000164922 -0.000156574 0 -0.000140006 -0.000130833 -0.000121809 -0.000112296 -0.000103715 -9.47796e-05 -8.65305e-05 0 0 -6.08794e-05 -5.25072e-05 -4.52168e-05 -3.71068e-05 -2.96289e-05 -2.24808e-05 -1.4745e-05 -2.18779e-07 -2.99255e-07 0 -4.59096e-07 -5.45062e-07 0 -7.15385e-07 -8.02301e-07 -8.83901e-07 -9.73935e-07 -1.05765e-06 -1.15433e-06 0 -1.31948e-06 -1.41129e-06 -1.4895e-06 -1.57504e-06 -1.65787e-06 -1.73567e-06 -1.81727e-06 -1.89116e-06 -1.96735e-06 -2.04188e-06 -2.10671e-06 -2.16503e-06 -2.23158e-06 -2.29001e-06 -2.34653e-06 -2.39979e-06 -2.43751e-06 0 -2.51843e-06 -2.54884e-06 -2.14975e-06 -1.97576e-06 -1.76644e-06 -1.55298e-06 -1.3738e-06 -1.12075e-06 -8.91315e-07 -6.67685e-07 -4.00804e-07 -1.37865e-07 0 4.1615e-07 0 9.79742e-07 1.27775e-06 1.58795e-06 1.88824e-06 2.19738e-06 0 2.81528e-06 0 3.42822e-06 3.73728e-06 4.01231e-06 4.33464e-06 4.63682e-06 4.90102e-06 5.14442e-06 5.4418e-06 0 5.95905e-06 6.1897e-06 0 6.69435e-06 6.86649e-06 7.07886e-06 7.24755e-06 7.40315e-06 0 7.72078e-06 7.091e-06 6.76748e-06 6.53738e-06 6.22891e-06 0 5.50964e-06 5.07321e-06 4.7679e-06 4.20968e-06 3.70543e-06 3.18069e-06 2.61932e-06 2.0288e-06 1.47015e-06 8.55494e-07 2.73961e-07 -3.65715e-07 -1.01697e-06 -1.60269e-06 -2.26604e-06 -2.87131e-06 -3.51519e-06 -4.19538e-06 -4.80739e-06 -5.47701e-06 -6.09906e-06 -6.76036e-06 0 -7.96766e-06 -8.48542e-06 -9.10922e-06 -9.58949e-06 -1.0144e-05 -1.06866e-05 -1.11484e-05 -1.16056e-05 -1.20779e-05 0 -1.28736e-05 -1.31879e-05 0.000591835 0.000904509 0 0.00154534 0.00187132 0.00218815 0 0.00288774 0.00324552 0.003609 0.00397983 0 0.00468999 0.00505203 0.00543902 0.00579439 0.00615496 0.00649983 0.00687929 0.00723107 0.00761859 0 0.00831467 0 
0.00873071 0 0 0.00962145 0.00992241 0.0101681 0.0104086 0.0106195 0.0108571 0.011048 0.0112686 0.0114104 0.0115306 0.0116914 0.0118088 0.0119308 0.0120558 0.0121652 0.0122013 0 0.0122582 0.0123094 0.0122805 0.0122286 0.0121911 0.0120915 0 0.0119038 0.0117947 0.011629 0.0114777 0.0113308 0.0110771 0.0108807 0.0106355 0.0104356 0.0101843 0.00991124 0.009647 0.00936885 0.00907487 0 0.00846324 0.00817304 0.00787287 0.00757094 0.00718243 0.00688199 0 0.0061917 0 0.00552066 0.00517247 0.00484556 0.00450997 0.00419264 0.00383318 0.00347795 0.0031413 0.0027897 0.00244267 0.00211705 0.00178743 0.0011488 0 0.00106723 0.00102353 0.000975996 0.000929765 0 0.000829552 0.000773931 0.000717757 0.000659723 0.000602356 0.000538073 0.000481663 0.000423041 0.000360158 0.000297379 0.000228354 0.00016694 0.0001037 0 -2.28433e-05 -8.38719e-05 -0.000146618 -0.000205963 -0.000260611 -0.000322908 0 -0.000432255 -0.000481334 -0.000534585 -0.000585724 -0.000629566 -0.000677076 -0.000714496 -0.000759504 -0.00080159 -0.000827963 -0.000862332 -0.000895595 -0.000958427 -0.000948479 -0.000939083 -0.000932289 -0.000915279 0 -0.000887655 -0.00087055 -0.000855855 -0.000833518 -0.00081796 -0.000795942 -0.000771392 -0.000753031 -0.000724357 -0.000700084 -0.000673447 -0.000648226 0 0 -0.000565449 -0.000535735 0 -0.000481195 -0.000454811 -0.00042502 0 -0.000364813 -0.000336943 -0.00030792 0 -0.000254862 -0.000227446 -0.000197518 -0.000170176 -0.000146334 -0.000119832 -9.53722e-05 -7.20072e-05 -4.6716e-05 6.44748e-07 5.58345e-07 4.74965e-07 3.88322e-07 2.91693e-07 1.96017e-07 9.95345e-08 3.83736e-10 -9.38913e-08 -1.97606e-07 -2.96831e-07 -4.10332e-07 -5.12951e-07 -6.12447e-07 -7.23403e-07 -8.21515e-07 -9.27061e-07 -1.03138e-06 -1.13399e-06 -1.23683e-06 -1.33226e-06 -1.431e-06 -1.53033e-06 -1.61779e-06 -1.6993e-06 -1.79217e-06 -1.87587e-06 0 -2.03337e-06 -2.09632e-06 -2.16032e-06 -2.22329e-06 -2.2803e-06 -1.91411e-06 -1.76833e-06 -1.58908e-06 0 -1.25056e-06 -1.02886e-06 -8.25906e-07 -6.50233e-07 -3.90421e-07 -1.34445e-07 1.45416e-07 4.04897e-07 6.81025e-07 9.53565e-07 0 1.54567e-06 1.83801e-06 2.13896e-06 2.42735e-06 2.7405e-06 3.0176e-06 0 3.63809e-06 3.90584e-06 4.21964e-06 4.51383e-06 4.77103e-06 5.00799e-06 0 5.57235e-06 5.80105e-06 6.0256e-06 6.25382e-06 6.5169e-06 6.68448e-06 0 7.05547e-06 7.20695e-06 7.37969e-06 7.51617e-06 6.90322e-06 6.58835e-06 6.36441e-06 0 5.71069e-06 5.36413e-06 4.93934e-06 4.6422e-06 0 3.60804e-06 3.09727e-06 2.55085e-06 1.97605e-06 1.43228e-06 8.33987e-07 0 -3.54711e-07 -9.88629e-07 -1.55877e-06 -2.20446e-06 -2.79362e-06 -3.42037e-06 -4.08247e-06 0 -5.33e-06 -5.9355e-06 -6.57921e-06 -7.11162e-06 -7.7544e-06 -8.25839e-06 -8.86561e-06 -9.33311e-06 -9.87285e-06 0 -1.08506e-05 -1.12957e-05 -1.17554e-05 -1.2141e-05 -1.253e-05 -1.28359e-05 0.000575665 0 0.00120354 0.00150313 0.00182021 0.00212839 0.00247705 0.00280888 0.00315688 0 0.00387115 0.00417251 0.00456191 0 0.00529049 0.00563615 0.00598687 0.00632233 0.00669143 0.0070336 0.00741054 0.00774112 0 0.00835258 
0.00852323 0.00880857 0.00911059 0 0.00968661 0.0099265 0.0101612 0 0.010599 0 0 0.0111393 0.0112566 0.0114135 0.0115282 0.0116473 0.0118082 0.0119392 0.0119959 0.0120945 0.0120962 0.0121707 0.0121676 0.012138 0.0121254 0.0120525 0.0120056 0.0119192 0.0118393 0.0117011 0.0115794 0 0.0112393 0.0110728 0.0108586 0.010688 0 0 0.00999014 0.00974127 0.00947664 0.00921807 0.00892207 0 0 0.00811117 0.00774968 0.00747294 0.00715432 0.00683034 0.0065043 0 0 0.00556167 0.00524013 0.00493778 0.00456146 0.00420573 0.0038661 0.00350937 0.00315076 0 0.00247688 0 0 0.00170365 0.00163468 0.00155961 0.00148662 0.00141126 0.00132831 0.00124036 0 0.00105976 0.000969084 0.000867331 0.000778113 0.000685354 0.000585799 0.000486457 0.000377188 0.00027991 0.000179725 7.9814e-05 -2.06909e-05 -0.000117325 -0.000216754 -0.000310862 -0.000397448 -0.000496204 0 0 -0.000747543 -0.000832049 -0.000913189 -0.00098283 -0.00105832 -0.00111781 -0.00118934 0 -0.00129833 -0.00135302 -0.00140601 -0.00150606 0 -0.00147567 -0.00146499 0 -0.00142212 -0.00139486 -0.00136798 -0.00134489 -0.00130979 -0.00128534 -0.00125074 -0.00121217 -0.00118332 -0.00113826 -0.00110012 0 -0.00101863 -0.000980036 -0.000935917 -0.000888555 0 -0.00079926 -0.000756161 -0.000714702 -0.000667889 -0.000621831 -0.000573281 -0.000529486 -0.00048388 -0.000441779 -0.000400505 -0.000357424 -0.000310322 -0.000267318 -0.000229812 -0.000188126 -0.000149647 -0.000112894 -7.31094e-05 1.3582e-06 1.26695e-06 1.18075e-06 1.0886e-06 9.83217e-07 8.79647e-07 7.73121e-07 6.63914e-07 5.59217e-07 4.44253e-07 3.32263e-07 2.04922e-07 8.68122e-08 -2.76272e-08 -1.54346e-07 -2.68853e-07 -3.90875e-07 -5.12898e-07 -6.3596e-07 -7.56287e-07 -8.69479e-07 0 -1.10657e-06 -1.21268e-06 0 -1.42789e-06 -1.53243e-06 -1.62936e-06 -1.72929e-06 -1.81306e-06 -1.8968e-06 -1.97802e-06 0 -1.71821e-06 -1.59583e-06 -1.44154e-06 0 -1.14795e-06 0 -7.7135e-07 -6.35422e-07 -3.81605e-07 -1.31534e-07 1.41872e-07 3.95367e-07 6.65126e-07 9.31379e-07 1.21481e-06 1.50983e-06 1.79543e-06 2.08944e-06 2.37117e-06 2.6771e-06 2.94781e-06 3.26006e-06 3.55399e-06 3.81557e-06 4.12213e-06 4.40953e-06 4.66081e-06 4.8923e-06 5.17514e-06 5.44366e-06 5.66708e-06 0 0 6.36643e-06 6.53015e-06 6.73214e-06 6.89259e-06 7.04058e-06 7.20934e-06 7.34268e-06 6.74399e-06 6.43644e-06 6.21772e-06 5.92448e-06 5.57922e-06 5.24071e-06 4.82579e-06 4.53558e-06 4.00483e-06 3.52541e-06 3.02649e-06 2.49274e-06 1.93127e-06 1.40011e-06 0 2.62766e-07 -3.45444e-07 -9.64666e-07 -1.52159e-06 0 -2.72782e-06 -3.34005e-06 0 -4.56873e-06 -5.20543e-06 -5.7969e-06 -6.42569e-06 -6.94578e-06 -7.57367e-06 -8.06598e-06 -8.65914e-06 -9.11582e-06 -9.64306e-06 -1.01591e-05 -1.05982e-05 0 0 -1.18587e-05 0 -1.25376e-05 0.000561978 0.000858886 0.00117493 0.00146741 0.00177694 0.0020778 0.00241818 0.00274212 0.00308185 0.00342701 0.00377914 0.00407335 0.0044535 0.00479728 0.00516476 0.00550221 0.00584459 0.00617208 0.00653241 0.00686644 0.00723443 0.00755715 0 0.00815409 
0.00834854 0.00862803 0.00892387 0.00920029 0 0.00972306 0.00995295 0.0101546 0.0103818 0.0105644 0.0107754 0.010911 0.0110259 0.0111796 0 0.0114086 0.0116045 0.0117567 0.0118332 0.0119543 0.0119756 0.0120726 0.0120944 0.012086 0.0120974 0.01205 0.0120295 0.0119686 0.0119165 0.0118044 0.0117107 0.0116206 0.0114279 0.0112896 0.0111046 0.0109616 0.0107735 0.0105552 0.0103489 0.0101275 0 0.00965778 0 0 0.00890696 0.00865392 0.00831736 0.00806259 0.00776651 0.00746395 0.00715641 0.00687184 0.00655699 0.00626607 0 0.00566827 0.00527464 0.00491739 0 0.00421122 0.00384042 0.0034991 0.00314666 0 0.00240489 0.00232021 0.00222674 0.00212499 0.00202607 0.00192389 0.00181145 0.00169216 0.00157171 0.00144723 0.00132427 0.0011862 0.00106519 0.000939346 0.000804251 0.000669477 0.000521205 0.000389174 0.000253185 0 -1.88189e-05 -0.000149958 -0.000284934 0 -0.000530265 -0.000664353 -0.000785591 0 -0.00100573 -0.00112052 -0.00123073 0 -0.00142797 -0.00150885 -0.00160608 -0.00169701 -0.00175434 -0.00182872 -0.00190081 -0.00203694 -0.00201579 -0.00199583 -0.00198139 -0.00194524 -0.00192341 -0.00188653 -0.00185018 -0.00181895 -0.00177148 -0.00173841 -0.00169162 -0.00163945 0 -0.00153949 -0.0014879 -0.00143129 -0.00137769 -0.00132549 -0.00126582 -0.00120177 -0.00113862 -0.001081 0 -0.000966635 -0.000903321 -0.000841029 -0.000775366 -0.000716134 -0.000654452 -0.000597511 -0.000541689 -0.000483423 0 -0.000361486 -0.000310735 -0.000254329 0 -0.000152529 -9.8696e-05 2.04826e-06 1.95208e-06 0 1.76521e-06 1.65109e-06 1.53962e-06 1.42313e-06 1.30393e-06 1.1889e-06 1.06278e-06 9.3818e-07 7.97153e-07 0 5.34651e-07 3.92401e-07 2.61789e-07 0 -1.5843e-08 0 0 -4.27041e-07 -5.62564e-07 -7.02358e-07 -8.26719e-07 -9.46038e-07 -1.08183e-06 -1.20671e-06 -1.32149e-06 -1.44201e-06 -1.54604e-06 -1.64902e-06 -1.74802e-06 -1.84834e-06 0 -1.43467e-06 -1.30394e-06 -1.16206e-06 -1.05268e-06 -8.81481e-07 -7.21178e-07 -6.23068e-07 -3.74266e-07 -1.29135e-07 1.38871e-07 3.8736e-07 6.5179e-07 9.12785e-07 1.19062e-06 1.47981e-06 1.75977e-06 2.04798e-06 0 2.62404e-06 2.8894e-06 0 3.48361e-06 3.74003e-06 4.04053e-06 4.32226e-06 0 4.7955e-06 5.07275e-06 5.33597e-06 5.55499e-06 5.77004e-06 0 6.24054e-06 6.40103e-06 6.59903e-06 6.75631e-06 6.90139e-06 7.06682e-06 7.19753e-06 6.61079e-06 6.30938e-06 0 5.80765e-06 5.46929e-06 5.13753e-06 4.73089e-06 4.44647e-06 3.92629e-06 0 2.9674e-06 2.44427e-06 1.89396e-06 0 8.00565e-07 2.58627e-07 -3.37494e-07 -9.44411e-07 0 -2.10846e-06 -2.67254e-06 -3.2726e-06 -3.90651e-06 -4.47688e-06 -5.10094e-06 -5.68066e-06 0 -6.80673e-06 -7.42215e-06 -7.90469e-06 -8.48607e-06 -8.9337e-06 -9.45046e-06 -9.95622e-06 -1.03866e-05 -1.08128e-05 -1.12529e-05 -1.16221e-05 -1.19946e-05 0 0.000550453 0.000841276 0 0 0.00174052 0 0.00236861 0.00268591 0.00301868 0.00335676 0.00370168 0.00398986 0.00436221 0 0.0050589 0 0.0057248 0.00604558 0.00639852 0.00672571 0.00708616 0.00740226 0 0.00798696 
0.00811616 0.00838788 0.00867548 0.00894421 0.00922399 0.00945243 0.00967592 0.00987199 0.0100928 0.0102703 0.0104754 0.0106073 0.010719 0.0108685 0.0109776 0 0.0113256 0.011501 0.0115996 0.0117455 0.0117888 0 0.0119605 0.0119763 0.0120146 0.0119961 0.0120053 0.0119735 0.011953 0.0118707 0 0.0117505 0.0115921 0.0114862 0.0113349 0.0112237 0.0110709 0.0108834 0.0107096 0.01052 0.0103148 0.0101127 0.00987559 0.00967743 0.00945467 0.00922926 0.00892224 0.00869332 0.00842392 0.00814679 0.00786143 0.00759977 0.00730412 0.00703381 0.00674033 0.00646797 0.00605649 0.00569904 0.00535268 0.00498479 0.00460183 0 0.00388857 0.00323073 0.00311496 0.0030056 0.00288491 0.00275349 0.00262576 0.00249376 0.00234854 0 0 0.00187798 0.00171912 0.00154069 0.00138434 0.00122172 0.00104712 0.00087296 0 0 0 0.000159675 -1.66992e-05 -0.000186194 -0.000360685 -0.000525927 0 -0.000851228 -0.00100802 0 -0.00129269 -0.00144114 -0.00158367 -0.0017061 -0.00183883 -0.00194348 -0.00206929 -0.00218694 -0.00226121 -0.00235747 -0.0024508 -0.00262702 -0.00259976 -0.002574 -0.00255538 0 -0.00248061 -0.00243305 -0.00238617 -0.00234589 -0.00228467 -0.00224202 0 -0.00211439 -0.00206406 -0.00198547 -0.00191894 -0.00184593 -0.0017768 -0.00170949 -0.00163253 -0.00154992 -0.00146847 -0.00139416 0 -0.00124667 0 -0.00108468 -0.000999992 -0.000923601 0 -0.000770615 -0.000698621 -0.000623476 0 -0.000466158 -0.000400682 -0.000327916 0 -0.000196584 -0.000127134 2.81801e-06 0 2.62457e-06 2.521e-06 2.39752e-06 2.27762e-06 2.15038e-06 2.02042e-06 1.89423e-06 1.75607e-06 1.61779e-06 1.46193e-06 1.31195e-06 1.16677e-06 1.00761e-06 8.59387e-07 7.03478e-07 5.4506e-07 3.7999e-07 2.23699e-07 7.40176e-08 -8.14666e-08 -2.43241e-07 -3.87654e-07 -5.27541e-07 -6.86674e-07 -8.33979e-07 -9.68393e-07 -1.11162e-06 -1.23807e-06 -1.3623e-06 -1.48094e-06 -1.60492e-06 -1.32146e-06 -1.24663e-06 -1.14303e-06 -1.02591e-06 -9.40625e-07 -7.97761e-07 -6.61431e-07 -6.06413e-07 -3.64343e-07 -1.25844e-07 1.34912e-07 3.76678e-07 6.33955e-07 8.87889e-07 1.15821e-06 1.43958e-06 0 1.99237e-06 0 0 2.81104e-06 3.10884e-06 3.38919e-06 0 3.93104e-06 4.20516e-06 4.44481e-06 0 4.93535e-06 0 5.40455e-06 5.61379e-06 0 0 6.22772e-06 6.42037e-06 6.5734e-06 6.71455e-06 0 7.00269e-06 6.43195e-06 6.13877e-06 5.93028e-06 5.65074e-06 5.3216e-06 4.9989e-06 4.60333e-06 4.32668e-06 3.82065e-06 3.36354e-06 2.88785e-06 2.37894e-06 1.8436e-06 1.33716e-06 7.79925e-07 2.52719e-07 0 -9.17617e-07 0 -2.05003e-06 -2.59878e-06 -3.18254e-06 -3.79922e-06 -4.3541e-06 -4.96121e-06 -5.52517e-06 -6.12473e-06 -6.62066e-06 -7.21936e-06 -7.6888e-06 0 -8.68987e-06 -9.1926e-06 -9.68463e-06 -1.01034e-05 0 -1.09462e-05 -1.13053e-05 -1.16677e-05 -1.19527e-05 0 0.000817852 0.0011188 0.00139731 0.00169206 0 0.00230267 0.00261114 0.00293465 0.00326332 0.00359864 0.00387879 0 0.00456815 0.00491808 0.00523942 0.00556545 0 0.00622042 0.0065385 0.00688891 0.00719622 0 0 
0.0079031 0.00816768 0.00844773 0 0.00898184 0.00920429 0.00942191 0.00961283 0.0098279 0.0100007 0.0102004 0.0103288 0.0104376 0 0.0106894 0 0.0110667 0.0112614 0 0.0115449 0.0116068 0.0117497 0.0118229 0.0118589 0.0119199 0.011926 0.0119604 0.0119532 0.0119595 0.0119026 0.0118683 0.0118364 0.0117072 0.0116289 0 0 0.0112997 0.0111386 0.0109927 0 0 0.0104766 0.0102668 0.0100971 0.0098984 0.00969681 0 0.0092088 0.0089625 0.00870745 0.00844141 0.00819966 0.00792086 0 0.00738874 0.00713085 0.00670513 0.00634824 0.00600013 0 0 0.00488115 0 0.00384651 0.0037089 0.00357891 0 0.00327922 0.00312737 0.00297044 0.0027978 0 0.00242952 0 0.00204941 0 0 0.00145792 0.00125027 0.00104317 0.000815278 0.000612301 0 0.000194859 -1.4923e-05 -0.000216501 -0.000424044 -0.000620609 -0.000801326 -0.00100754 -0.00119407 -0.0013699 -0.00153271 -0.00170933 -0.00187889 -0.00202456 -0.0021825 0 0 0 -0.00268518 -0.00279974 -0.00291084 -0.0031206 -0.00308821 -0.00305762 -0.00303551 -0.00298012 -0.00294668 -0.00289019 -0.0028345 -0.00278665 -0.00271392 -0.00266327 -0.00259158 0 0 -0.00235851 -0.00227948 -0.00219276 -0.00211064 0 -0.00193926 -0.00184113 -0.00174438 -0.00165611 -0.00156681 -0.0014809 -0.00138391 -0.00128848 0 -0.00109714 -0.00100264 -0.000915408 -0.000829888 -0.000740624 -0.000642885 -0.00055371 -0.000475919 -0.000389467 -0.000309657 -0.000233433 -0.00015092 3.46323e-06 3.35776e-06 3.26334e-06 3.15503e-06 3.02389e-06 2.89712e-06 2.76104e-06 0 2.48689e-06 2.33883e-06 2.18926e-06 2.02118e-06 1.85745e-06 1.69901e-06 0 0 1.19254e-06 1.01837e-06 0 6.63197e-07 4.9769e-07 3.25647e-07 1.45617e-07 -1.54554e-08 -1.72447e-07 0 -5.16957e-07 0 -8.29833e-07 -9.74985e-07 -1.11693e-06 -1.25194e-06 -1.39567e-06 -1.13815e-06 0 -1.00453e-06 -9.08601e-07 -8.43867e-07 -7.25271e-07 -6.09503e-07 -5.91049e-07 -3.55178e-07 -1.22785e-07 1.31295e-07 3.66872e-07 6.17562e-07 8.64995e-07 0 1.40256e-06 1.66797e-06 1.94121e-06 2.20303e-06 2.48734e-06 2.73891e-06 3.0291e-06 0 0 3.83025e-06 4.09735e-06 4.33087e-06 4.54601e-06 4.80886e-06 5.05841e-06 5.26605e-06 5.46993e-06 5.67714e-06 5.916e-06 6.06816e-06 6.25587e-06 6.405e-06 6.54254e-06 6.69938e-06 6.82331e-06 6.26728e-06 5.98167e-06 5.77856e-06 5.50623e-06 5.18558e-06 4.8712e-06 0 4.21631e-06 3.7233e-06 3.27795e-06 2.81449e-06 2.31868e-06 1.7971e-06 1.30369e-06 7.60782e-07 2.47132e-07 0 0 -1.41048e-06 -1.99641e-06 -2.53106e-06 -3.09981e-06 -3.70065e-06 -4.24126e-06 -4.83278e-06 0 -5.96639e-06 -6.44959e-06 0 -7.49028e-06 -8.04135e-06 0 -8.95546e-06 -9.43486e-06 -9.84284e-06 -1.02468e-05 0 0 0 -1.16447e-05 0.00052107 0.000796377 0.00108942 0.00136062 0.00164764 0.00192661 0.00224222 0.00254259 0.00285761 0.00317765 0.00350417 0.00377696 0 0.00444823 0.00478897 0 0 0.00572301 0.00605712 0.00636685 0.00670807 0 0.00732096 0.00756082 
0.007669 0.00792574 0.0081975 0.00845142 0.00871579 0.00893164 0.00914282 0.00932809 0.00953678 0.00970449 0 0 0.0101284 0.0102697 0.0103728 0.01048 0 0.0110056 0.0111455 0.0113376 0.0114223 0.0115911 0.0116932 0.011754 0.0118429 0.0118788 0.0119439 0.0119666 0.0120055 0 0.0119781 0 0.0118847 0 0 0.0117005 0.0116142 0.0114849 0.0113723 0.0112428 0.0110978 0.010953 0.0107759 0.0106401 0.0104701 0.0102969 0.0100457 0 0.00964668 0.00941768 0.00917432 0 0.00869683 0.00846557 0.00820157 0.00796048 0.00751604 0.00715868 0.00680735 0.00643021 0.00602491 0.00566162 0.00527602 0.00460826 0.00444363 0.00428811 0.00411646 0.00392952 0.00374784 0.00356006 0.00335348 0.00313416 0.00291274 0.00268388 0.00245786 0.00220388 0.00198138 0.00174994 0.0015014 0 0.000980766 0.000737802 0.00048753 0.00023814 -1.29808e-05 -0.000254259 0 -0.000738023 -0.000954348 -0.00120121 0 -0.00163504 -0.00182997 -0.00204143 -0.00224443 -0.00241887 -0.00260799 -0.00275713 0 -0.00310406 -0.00321002 -0.00334723 -0.0034803 0 -0.00369283 -0.00365625 -0.0036298 0 -0.00352358 -0.00345603 -0.00338944 -0.00333223 -0.00324526 -0.00318469 -0.00309897 -0.00300339 -0.0029319 -0.00282027 -0.00272577 -0.00262206 -0.00252387 -0.00242825 -0.00231894 -0.00220159 -0.00208591 -0.00198035 0 -0.00177084 -0.00165486 0 -0.00142045 0 -0.00119894 -0.00109463 -0.00099237 -0.00088563 -0.00076873 -0.000662083 -0.000569048 0 0 -0.000279046 -0.000180364 4.26019e-06 4.14932e-06 0 0 3.79647e-06 3.6609e-06 0 3.36365e-06 3.21667e-06 3.05607e-06 2.89227e-06 2.70877e-06 2.52776e-06 2.35266e-06 2.16195e-06 1.98086e-06 1.79195e-06 1.59803e-06 1.3919e-06 1.20053e-06 1.01521e-06 8.22446e-07 6.19601e-07 4.37717e-07 2.59385e-07 5.6615e-08 -1.32606e-07 -3.03729e-07 -4.89409e-07 -6.57803e-07 0 -9.77162e-07 0 -9.18632e-07 -8.9163e-07 -8.39155e-07 0 0 -6.3937e-07 -5.48264e-07 0 -3.45185e-07 -1.19471e-07 1.27305e-07 3.56111e-07 5.99596e-07 8.39918e-07 1.09575e-06 1.36203e-06 1.61982e-06 1.8852e-06 2.1395e-06 0 2.65999e-06 2.94183e-06 3.20715e-06 3.44326e-06 3.71997e-06 3.97939e-06 4.20621e-06 4.41517e-06 4.67047e-06 4.91284e-06 5.11452e-06 5.31255e-06 5.51381e-06 0 0 0 6.22076e-06 6.35435e-06 6.50669e-06 6.62706e-06 6.08716e-06 5.80982e-06 5.61261e-06 5.34819e-06 5.03683e-06 4.73156e-06 4.35733e-06 4.09566e-06 0 3.18443e-06 2.73437e-06 2.25288e-06 1.74637e-06 1.26722e-06 7.40001e-07 2.41191e-07 -3.0749e-07 -8.66115e-07 -1.36854e-06 -1.93755e-06 -2.45676e-06 -3.00908e-06 0 -4.11758e-06 -4.69202e-06 -5.22561e-06 -5.7929e-06 -6.26215e-06 0 0 -7.80797e-06 -8.22003e-06 -8.69571e-06 -9.16128e-06 -9.5575e-06 -9.94977e-06 0 -1.06948e-05 -1.10378e-05 0 0.000505628 0.000772779 0.00105715 0.00132031 0.00159883 0.00186953 0.00217579 0 0.00277296 0.00308352 0 0.00366508 0.00400713 0.00431646 0.00464711 0.00495074 0.00525881 0.00555348 0 0.00617825 0.00650936 0 0.0071041 0.00733685 
0.00745041 0.00769984 0.00796384 0 0.00846736 0.00867706 0.00888222 0.00906221 0.00926496 0.00942788 0.00961617 0.0097372 0 0.00997695 0.0100771 0.0101813 0.0105244 0.010765 0 0.011141 0.0112464 0.0114387 0.011567 0.0116503 0.0117645 0.0118276 0.0119207 0 0 0.0120411 0.01207 0 0.0120383 0 0 0.0119461 0 0.0117925 0 0.0116109 0 0.0113797 0.0112324 0.0111277 0.010984 0.0108367 0.0106133 0.0104575 0.0102636 0.0100585 0.009836 0.00963923 0 0 0 0.00871114 0.00824993 0.0078924 0.00753836 0 0.00673963 0.00636903 0.00597246 0.00529932 0.00511017 0 0.00473426 0.00451946 0.00431071 0.00409493 0.00385756 0.00360553 0.00335108 0 0.00282836 0.00253648 0.00228078 0.0020148 0.00172917 0.00144431 0.00113083 0.000851589 0.000563944 0.000277329 -1.12965e-05 -0.000288594 -0.000574141 -0.000844627 -0.00109326 -0.001377 -0.00163372 -0.00187566 -0.00209973 -0.0023428 -0.00257616 -0.00277668 -0.0029941 -0.00316556 -0.00337166 -0.0035644 -0.00368625 -0.00384401 -0.00399703 -0.00428592 0 0 -0.00416905 -0.00409299 -0.00404705 -0.00396947 -0.00389298 -0.00382727 -0.00372738 -0.00365781 -0.00355936 -0.00344958 0 -0.00323926 -0.00313071 -0.0030116 -0.00289882 -0.002789 -0.00266345 0 -0.00239579 -0.00227456 0 -0.00203393 -0.00190071 -0.00176964 -0.00163148 -0.00150685 -0.00137707 -0.00125726 -0.0011398 -0.0010172 -0.000882918 -0.000760418 -0.00065355 -0.000534788 -0.000425146 -0.000320433 0 4.98392e-06 4.86822e-06 4.76791e-06 4.64798e-06 4.49829e-06 4.35481e-06 4.19744e-06 4.03734e-06 3.87987e-06 3.70796e-06 3.5313e-06 3.33385e-06 3.13722e-06 2.94704e-06 2.74044e-06 2.5428e-06 2.33727e-06 2.12548e-06 1.89869e-06 1.68966e-06 1.48641e-06 1.27488e-06 1.05137e-06 8.50639e-07 6.52972e-07 4.28256e-07 2.17959e-07 2.83743e-08 -1.7865e-07 -3.68118e-07 -5.5208e-07 -7.25924e-07 -9.16414e-07 -7.17823e-07 -7.1472e-07 -6.87769e-07 -6.40628e-07 -6.23367e-07 -5.60591e-07 0 0 -3.35825e-07 -1.16359e-07 1.23586e-07 0 5.82804e-07 8.16474e-07 0 1.32414e-06 1.57479e-06 1.83283e-06 2.08009e-06 2.34859e-06 2.58617e-06 0 3.1182e-06 3.34777e-06 3.61683e-06 3.86907e-06 4.08961e-06 4.29279e-06 4.54102e-06 4.7767e-06 0 0 5.36103e-06 5.58661e-06 5.73032e-06 5.9076e-06 6.04844e-06 6.17834e-06 6.32646e-06 6.4435e-06 5.91867e-06 5.64908e-06 5.45739e-06 5.20035e-06 4.89768e-06 4.60093e-06 4.23713e-06 0 3.51734e-06 3.09691e-06 2.65938e-06 2.19129e-06 1.69887e-06 1.23306e-06 7.20505e-07 0 -2.97845e-07 -8.40932e-07 -1.32938e-06 -1.88256e-06 -2.38734e-06 -2.9243e-06 -3.49158e-06 -4.00198e-06 -4.56045e-06 -5.07921e-06 -5.63073e-06 0 -6.63768e-06 -7.06951e-06 -7.5898e-06 -7.99041e-06 -8.45287e-06 0 -9.29072e-06 -9.6721e-06 0 -1.03965e-05 -1.07299e-05 -1.09921e-05 0 0.000750746 0.00102701 0.00128267 0.00155325 0.00181624 0.00211377 0.00239694 0.00269391 0.00299562 0.00330344 0.00356061 0.00389291 0 0.00451465 0.00480962 0.00510892 0 0.00571016 0.00600215 0.00632382 0.00660592 0.00690161 0.00712773 
0.00719632 0.00743724 0.00769225 0 0.0081786 0.00838115 0.00857931 0.00875316 0 0.00910636 0.00928823 0.00940513 0.00950416 0 0.00973348 0.00983408 0.010213 0.010475 0.0106563 0 0.0110208 0.0112364 0.0113911 0.0114973 0.011637 0.0117277 0.0118491 0.0119269 0.0120257 0 0.0121159 0.0121764 0.0121477 0.0121645 0.0121409 0.0121501 0.0121313 0.0120609 0.0120105 0.011942 0.0118583 0.0117718 0 0.0115834 0.0114671 0.0113471 0.011153 0.0110228 0 0.0106756 0.0104753 0.0103014 0.0100798 0 0.00965509 0.00944626 0.00896971 0.00861343 0.00825803 0.00787256 0.00744579 0.00706918 0.00666294 0.00598698 0.00577344 0.00557171 0.00534905 0.00510652 0.00487084 0.0046272 0.00435921 0 0.00378732 0.00349036 0.0031971 0.00286751 0.00257879 0.00227845 0.00195591 0.00163424 0.00128026 0.000964922 0 0.000316442 0 -0.000322633 -0.000645099 -0.000950571 -0.00123135 -0.00155178 0 -0.00211495 -0.00236802 -0.00264254 -0.00290609 -0.00313258 -0.00337815 -0.00357182 -0.0038046 -0.00402231 -0.00415998 -0.00433818 -0.00451104 -0.00483739 -0.00478719 -0.00473977 -0.00470548 -0.00461964 -0.00456779 -0.00448022 0 -0.00431972 -0.00420699 -0.00412847 -0.00401735 -0.00389344 -0.00380077 -0.00365605 -0.00353355 -0.00339911 -0.00327181 -0.00314786 -0.00300615 -0.00285403 0 -0.00256723 -0.0024288 0 -0.00214528 -0.00199734 -0.0018414 -0.00170074 -0.00155426 -0.00141903 -0.00128646 -0.00114809 0 -0.000858238 -0.00073761 0 0 -0.000361603 -0.000233655 5.70633e-06 5.58614e-06 5.48339e-06 5.3583e-06 5.2002e-06 5.04917e-06 4.88208e-06 4.71226e-06 4.54467e-06 4.36184e-06 4.17271e-06 3.96176e-06 0 3.54503e-06 3.32296e-06 3.10915e-06 2.88739e-06 2.65813e-06 2.41106e-06 2.18477e-06 1.96394e-06 1.73402e-06 0 1.27096e-06 1.05426e-06 8.0794e-07 5.76871e-07 3.69115e-07 1.41031e-07 -6.92917e-08 -2.73006e-07 0 0 0 -5.30215e-07 0 0 -5.12588e-07 -4.77425e-07 -4.32294e-07 -5.40151e-07 -3.24823e-07 -1.12667e-07 1.19288e-07 3.34352e-07 5.63213e-07 7.891e-07 0 1.27986e-06 1.52217e-06 0 2.01064e-06 0 2.49987e-06 2.76479e-06 3.01418e-06 3.23612e-06 0 3.74006e-06 3.95325e-06 4.14967e-06 4.38964e-06 4.61747e-06 0 4.99318e-06 5.18236e-06 5.40042e-06 5.53935e-06 5.71073e-06 0 5.97246e-06 6.11565e-06 6.2288e-06 5.72157e-06 5.46102e-06 5.27576e-06 5.02735e-06 4.73483e-06 4.44802e-06 4.09642e-06 3.8506e-06 3.40074e-06 2.99437e-06 2.57148e-06 2.11905e-06 1.6431e-06 1.19287e-06 6.97451e-07 2.28733e-07 -2.86846e-07 -8.11776e-07 -1.28389e-06 -1.81858e-06 -2.30648e-06 0 -3.37381e-06 -3.86716e-06 -4.40697e-06 -4.90838e-06 -5.44147e-06 -5.88245e-06 -6.41478e-06 0 -7.33509e-06 -7.72232e-06 -8.16933e-06 -8.60686e-06 0 -9.34784e-06 0 -1.0048e-05 0 -1.06238e-05 0.000474451 0.000725136 0.000991977 0.00123892 0 0.00175429 0.00204168 0.00231519 0.00260203 0.00289346 0.00319077 0.00343917 0.00376014 0 0.00436068 0.0046456 0.00493468 0.00521119 0.00551542 0.00579746 0.00610816 0.00638064 0.00666624 0.00688465 
0.00693799 0.00717027 0.00741612 0.00764585 0 0.00808029 0.00827134 0.00843895 0.00862776 0 0.00895481 0.00906752 0 0.00929078 0.00938408 0.00948108 0.00989966 0.0101855 0.0103896 0 0.0108023 0.0110437 0.0112273 0 0.0115261 0 0.0117992 0.0119073 0.0120389 0.0121007 0.0121939 0.0122873 0.0122944 0 0.0123569 0.0123993 0.0124175 0 0.0123633 0.0123283 0.0122782 0.0122237 0.0121411 0.0121036 0.0120169 0.011926 0.0117633 0.0116604 0.0115213 0.0113685 0.0111919 0.0110424 0.0108413 0.0106721 0 0.0102641 0.00976984 0.00941407 0.00905638 0.00866626 0.00822762 0.00784361 0 0.00674536 0.00650491 0 0.00602702 0 0.00548852 0.00521415 0.00491236 0.00459188 0 0.0039339 0.00360365 0.00323245 0.0029073 0.00256905 0.00220579 0 0.00144486 0 0.000723861 0.000359356 -7.74838e-06 -0.000360415 -0.000723605 -0.00106767 -0.0013839 0 -0.00207139 -0.00237914 -0.0026642 -0.00297341 -0.00327026 0 -0.00380201 -0.00402017 -0.0042824 -0.00452763 -0.00468276 -0.0048835 -0.00507825 -0.00544591 -0.00538938 -0.005336 -0.0052974 -0.00520076 -0.00514239 -0.0050438 -0.00494661 -0.00486312 0 -0.0046478 -0.0045227 0 0 -0.00411596 -0.00397804 -0.0038267 -0.00368339 -0.00354384 -0.00338431 -0.00321306 -0.00304422 -0.00289017 -0.00273433 -0.00258441 0 -0.0022486 -0.00207304 -0.00191469 0 -0.00159754 -0.0014483 -0.00129252 -0.00112185 -0.000966177 0 -0.00067944 -0.000540103 0 -0.00026298 6.50227e-06 6.37693e-06 6.2713e-06 6.14033e-06 5.97274e-06 5.81318e-06 5.63517e-06 5.45441e-06 5.27547e-06 5.08038e-06 4.87728e-06 4.65122e-06 4.42236e-06 4.20109e-06 3.96174e-06 3.7299e-06 3.49005e-06 3.24132e-06 2.97171e-06 2.72617e-06 2.48579e-06 2.2354e-06 1.96904e-06 1.7292e-06 1.49137e-06 1.22107e-06 9.66954e-07 7.39022e-07 4.8759e-07 2.5418e-07 2.85881e-08 -1.83707e-07 -4.20625e-07 -2.83588e-07 -3.31654e-07 -3.59496e-07 -3.625e-07 -3.93834e-07 -3.88494e-07 -3.68624e-07 -5.2149e-07 -3.13686e-07 -1.08942e-07 1.14908e-07 0 5.43324e-07 7.61319e-07 0 1.23494e-06 1.46878e-06 1.70951e-06 0 2.19068e-06 2.41233e-06 2.668e-06 2.90868e-06 3.12286e-06 0 3.6092e-06 3.81495e-06 4.00451e-06 4.2361e-06 4.45597e-06 4.63892e-06 4.81857e-06 5.00114e-06 5.21159e-06 5.34567e-06 5.51106e-06 5.64246e-06 5.76366e-06 5.90185e-06 6.01106e-06 5.52168e-06 5.27031e-06 5.09158e-06 4.85192e-06 4.56971e-06 4.29299e-06 3.95375e-06 0 3.28254e-06 2.89045e-06 2.4824e-06 2.04586e-06 1.58662e-06 0 6.74171e-07 2.21905e-07 -2.75577e-07 -7.82084e-07 -1.23763e-06 -1.75356e-06 -2.22434e-06 -2.72515e-06 -3.25423e-06 0 -4.25115e-06 -4.73497e-06 -5.24935e-06 -5.67487e-06 -6.18853e-06 -6.59129e-06 -7.07656e-06 -7.45023e-06 -7.88156e-06 -8.30375e-06 -8.66305e-06 -9.01877e-06 -9.38623e-06 -9.69445e-06 -1.00054e-05 -1.025e-05 0.000457412 0.000699099 0.00095636 0.00119444 0.00144641 0.00169131 0.00196838 0.00223207 0.00250862 0.00278958 0 0.00331571 0.00362516 0.003905 0.00420414 0 0.00475754 0.00502412 0.00531743 0 0 0.00615159 0.00642694 0.00663751 
0.006693 0 0.00715424 0.00737585 0.00760657 0.00779496 0.00797926 0.00814096 0.00832309 0.00846945 0.0086386 0 0.00883943 0.0089627 0.00905271 0.00914628 0 0 0 0.0104066 0.010574 0.0108358 0 0.0111941 0.0113843 0.0115298 0.0117072 0.0118401 0.0119986 0.012086 0.0122067 0.0123271 0.0123641 0 0.0124841 0.0125541 0.0126031 0.0125923 0 0 0 0.0125483 0.0124939 0.0124856 0.0124239 0.0123577 0.0122218 0.0121422 0.0120272 0.0118977 0.0117415 0.0116129 0.0114298 0.0112797 0.0110777 0.0109021 0.0103952 0.0100413 0.00968326 0.00929093 0.00884427 0.00845574 0.00803036 0 0.00708696 0.00683957 0.00656651 0.00626909 0.00598006 0.00568125 0.00535258 0.00500353 0.00465115 0.00428691 0.00392724 0.00352295 0.00316882 0.00280042 0.00240477 0.00201021 0.001576 0.00118917 0 0.000393686 -6.16345e-06 -0.000390278 -0.000785865 -0.00116063 -0.00150507 -0.00189818 -0.00225391 -0.00258912 -0.00289962 -0.00323643 -0.00355978 -0.00383768 -0.00413901 -0.00437667 0 -0.00492945 -0.00509846 -0.00531715 -0.0055293 -0.00592983 -0.00586828 -0.00581016 -0.00576813 -0.0056629 -0.00559934 -0.00549199 -0.00538617 -0.00529526 -0.00515706 -0.00506081 -0.00492459 -0.0047727 -0.00465911 -0.00448171 -0.00433153 -0.00416674 -0.0040107 -0.00385875 -0.00368504 -0.00349857 -0.00331473 -0.00314699 -0.0029773 -0.00281407 -0.00262975 -0.00244841 0 -0.00208483 -0.00190526 0 -0.00157699 -0.00140737 -0.00122153 -0.00105201 -0.000904129 -0.000739785 -0.000588059 -0.000443157 -0.000286298 7.13779e-06 7.0087e-06 6.90112e-06 6.76582e-06 6.59105e-06 6.42507e-06 6.23872e-06 6.04963e-06 5.862e-06 5.65755e-06 5.44368e-06 5.20599e-06 4.96395e-06 4.72997e-06 4.47726e-06 4.23139e-06 3.9775e-06 3.71362e-06 3.42637e-06 3.16586e-06 2.91021e-06 2.64384e-06 2.35984e-06 0 1.84945e-06 1.56033e-06 1.2881e-06 1.04434e-06 7.74527e-07 5.22881e-07 2.80025e-07 5.17982e-08 -2.04421e-07 -9.45143e-08 -1.64579e-07 -2.1606e-07 -2.40774e-07 -2.9305e-07 -3.12607e-07 -3.13893e-07 -5.0363e-07 -3.03008e-07 -1.05338e-07 1.10777e-07 3.11157e-07 5.24391e-07 7.34854e-07 9.589e-07 1.19211e-06 1.41787e-06 1.65029e-06 1.87299e-06 2.11483e-06 2.32883e-06 2.57566e-06 2.80803e-06 3.01481e-06 3.25715e-06 3.48436e-06 3.683e-06 3.86601e-06 4.0896e-06 4.30188e-06 4.47851e-06 4.65195e-06 4.82822e-06 5.0314e-06 5.16085e-06 0 0 5.56441e-06 5.69783e-06 0 5.3309e-06 5.08828e-06 4.91577e-06 4.68445e-06 4.41205e-06 4.14495e-06 0 3.5886e-06 3.1696e-06 2.79111e-06 2.39722e-06 0 1.53251e-06 1.11316e-06 0 2.15135e-07 -2.65093e-07 0 -1.19379e-06 -1.69183e-06 -2.14629e-06 -2.62973e-06 -3.14047e-06 0 -4.10283e-06 0 0 -5.4772e-06 -5.97306e-06 -6.36186e-06 -6.83032e-06 -7.19104e-06 -7.60743e-06 -8.01499e-06 -8.36184e-06 -8.70524e-06 -9.05997e-06 -9.35752e-06 -9.65773e-06 -9.89388e-06 0.000441254 0.000674406 0 0.00115226 0.00139533 0.00163158 0.00189887 0.00215325 0.00242003 0.00269107 0.00296759 0.00319862 0.00349714 0 0.00405568 0.00432067 0.00458954 0.0048467 0.00512966 0.00539197 0.00568094 0.00593436 0.00619999 0.00640312 
0.00649353 0 0.00694102 0.00715603 0.00737988 0.00756265 0.00774146 0.00789833 0.00807504 0.00821704 0.00838114 0.00848664 0.00857599 0.00869559 0.00878292 0 0.00935117 0.00967205 0.00991015 0.0102117 0.0103951 0.0106749 0.0109022 0.0110712 0 0.0114479 0 0.0118015 0.0119833 0.012093 0.0122375 0 0.012444 0.012547 0.0126135 0.0127072 0.0127828 0 0.0128321 0.0128493 0 0.0128472 0.012817 0.0128338 0 0.0127483 0.0126352 0.0125754 0.012481 0.0123711 0.0122322 0.0121214 0.0119535 0.0118194 0 0.0114674 0.0109487 0.010596 0.010237 0.00984216 0.00938788 0 0.00856213 0.00787866 0.00759801 0.00733285 0.00704019 0.0067214 0.00641161 0.00609133 0 0.00536492 0 0.00459681 0.00421128 0 0.00339835 0.00300347 0.00257937 0.00215645 0.00169102 0.00127637 0.000849235 0.000423688 0 -0.000416653 -0.000840693 -0.00124242 -0.00161163 -0.00203302 -0.00241434 -0.00277367 -0.00310652 -0.00346757 -0.00381418 -0.00411209 -0.00443512 -0.00468989 -0.0049961 -0.00528248 -0.00546367 -0.00569811 -0.00592556 -0.00635494 -0.00628899 -0.00622669 -0.00618166 -0.00606888 -0.00600076 -0.00588572 -0.00577231 -0.00567488 -0.00552678 0 -0.00527764 -0.00511486 0 0 -0.00464207 -0.00446546 -0.00429823 -0.00413539 -0.00394923 -0.00374939 0 -0.00337261 -0.00319075 -0.00301581 -0.00281828 -0.00262394 -0.00241908 -0.00223429 -0.00204185 -0.00186421 -0.00169005 -0.00150827 -0.00130909 -0.00112742 -0.000968928 -0.000792798 -0.000630189 -0.000474893 -0.000306783 7.6952e-06 7.56267e-06 7.45325e-06 7.31401e-06 7.13278e-06 6.96102e-06 6.76721e-06 6.57065e-06 6.37524e-06 0 5.93896e-06 5.69089e-06 5.43713e-06 5.19185e-06 4.92725e-06 4.66893e-06 0 4.12524e-06 3.82238e-06 3.54858e-06 3.2794e-06 2.99888e-06 2.69925e-06 2.42902e-06 2.15994e-06 1.85418e-06 1.56595e-06 1.30819e-06 1.02216e-06 7.54436e-07 4.96357e-07 0 -1.91384e-08 6.76573e-08 -2.14107e-08 -9.32725e-08 -1.36667e-07 -2.07009e-07 -2.47974e-07 -2.67426e-07 -4.89133e-07 -2.94345e-07 -1.02424e-07 1.07408e-07 3.01961e-07 5.08995e-07 7.13339e-07 9.30872e-07 1.1573e-06 0 1.60216e-06 1.81839e-06 2.0532e-06 2.26098e-06 2.50063e-06 0 2.92702e-06 0 3.38291e-06 3.57578e-06 3.75347e-06 3.97057e-06 4.17667e-06 4.34817e-06 4.51657e-06 4.68772e-06 0 5.01068e-06 5.16572e-06 5.2889e-06 5.40252e-06 0 5.63443e-06 5.1759e-06 4.94039e-06 4.77294e-06 4.54839e-06 4.28397e-06 4.0247e-06 3.70681e-06 3.48463e-06 3.07788e-06 2.71045e-06 2.32807e-06 1.91898e-06 1.48861e-06 1.08151e-06 6.33536e-07 2.09704e-07 -2.56501e-07 -7.31169e-07 -1.15808e-06 -1.64158e-06 0 0 -3.04794e-06 -3.49407e-06 -3.98222e-06 0 -4.91769e-06 -5.31649e-06 -5.79787e-06 0 -6.63012e-06 -6.98033e-06 -7.38456e-06 -7.78024e-06 0 -8.45036e-06 -8.79475e-06 -9.08363e-06 -9.37509e-06 -9.60436e-06 0 0.000654302 0 0.00111791 0.00135374 0.00158295 0.00184227 0.00208907 0 0.00261086 0.00287914 0.00310329 0 0.00365483 0.0039348 0 0.00445275 0.00470225 0.00497678 0.00523127 0.00551163 0.0057575 0.00601521 0 
0.00623514 0.00644388 0 0.00687128 0.00708622 0.00726172 0.00743342 0.00758405 0 0.00789008 0.00804765 0.00814894 0.00823475 0.00834959 0.00843344 0.00852061 0.00903198 0.00937305 0.00963073 0.00995403 0.0101572 0.0104591 0.0107117 0 0.0111368 0.01133 0.0115564 0.0117375 0.0119482 0 0.0122597 0 0.0125274 0.0126606 0.0127587 0.012882 0.0129906 0.0130323 0.0130997 0 0.0131798 0.0132042 0.0132043 0.0132524 0.0132388 0.0132202 0.0131358 0.0131009 0.0130323 0 0.0128302 0.0127418 0.0125931 0.0124794 0.0123056 0.0121597 0.0116271 0 0.0109166 0.0105191 0.0100559 0 0.00921641 0 0.00822763 0.00794059 0.00762377 0.00727866 0.0069433 0.00659658 0.00621521 0.00581017 0 0.00497861 0.00456125 0.00409209 0.00368116 0.00325365 0.00279451 0.00233665 0.00183275 0.00138384 0.000921395 0.000460684 -3.35284e-06 -0.000449111 -0.000908203 -0.00134315 -0.00174288 -0.00219911 -0.00261196 -0.003001 -0.00336137 0 -0.00412757 -0.00445012 -0.00479988 -0.00507573 -0.00540728 -0.00571736 -0.00591357 -0.00616742 -0.0064137 -0.00687864 -0.00680725 -0.00673982 -0.00669107 -0.006569 0 -0.00637075 -0.006248 -0.00614253 -0.00598223 -0.00587057 -0.00571256 0 -0.0054046 -0.00519881 -0.00502461 -0.00483345 0 -0.00447618 -0.00427468 -0.00405837 -0.00384512 -0.00365054 -0.00345369 0 -0.00305053 -0.00284018 -0.00261844 -0.00241842 -0.00221012 -0.00201784 -0.00182933 -0.00163257 0 -0.00122032 0 -0.000858103 -0.000682087 -0.000513988 -0.000332018 8.38272e-06 0 8.1345e-06 7.99051e-06 7.80144e-06 7.62268e-06 7.41978e-06 7.21415e-06 7.00927e-06 6.78623e-06 6.55107e-06 6.29036e-06 6.02227e-06 5.76318e-06 5.48404e-06 5.21049e-06 4.92886e-06 4.63507e-06 4.31308e-06 4.02301e-06 3.73726e-06 3.43939e-06 3.12061e-06 2.83289e-06 2.54581e-06 0 0 1.63682e-06 1.33086e-06 1.04338e-06 7.66591e-07 5.0704e-07 2.12916e-07 2.70653e-07 1.57909e-07 6.06238e-08 -6.10422e-09 -9.89739e-08 0 -2.08864e-07 -4.70303e-07 -2.83088e-07 -9.86254e-08 1.03051e-07 2.90043e-07 4.89031e-07 6.85433e-07 8.94512e-07 1.11214e-06 1.32282e-06 1.53971e-06 1.74754e-06 0 2.17293e-06 2.40327e-06 0 0 3.03925e-06 3.25127e-06 3.43665e-06 0 3.8161e-06 4.0142e-06 4.17904e-06 4.34089e-06 4.50539e-06 0 4.81581e-06 4.96483e-06 0 5.19243e-06 0 5.41534e-06 4.97475e-06 0 4.58757e-06 0 4.11774e-06 0 3.56315e-06 3.34967e-06 2.9588e-06 2.60571e-06 2.23826e-06 1.84514e-06 1.43157e-06 1.04036e-06 6.09871e-07 2.02578e-07 -2.45434e-07 -7.01582e-07 -1.11184e-06 -1.57647e-06 0 -2.45148e-06 -2.92797e-06 -3.3567e-06 -3.82582e-06 -4.26154e-06 -4.7248e-06 -5.10805e-06 -5.57066e-06 0 -6.37046e-06 -6.70702e-06 -7.09549e-06 -7.47575e-06 -7.79937e-06 -8.11976e-06 -8.45073e-06 -8.72835e-06 -9.00846e-06 -9.2288e-06 0.000411057 0.00062826 0.000859459 0.00107342 0.00129986 0.00151995 0.00176896 0.00200593 0.00225447 0.00250697 0.00276457 0.0029798 0.0032579 0.00350939 0.00377823 0.00402509 0.00427557 0.00451514 0.00477874 0.00502311 0 0 0.00577585 0.00596509 
