-0.000364701 -0.000102402 6.39546e-06 8.58093e-05 0.0001052 0.000115885 0.000167595 0.000176655 0.00018271 0.000224849 0.000186456 0.000177098 0.000236219 0.000231749 0.000301342 0.000419189 0.000585446 0.000879164 0.00126713 0.00188127 0.00264977 0.00368942 0.00497945 0.0064711 0.00813324 0.00981363 0.0114235 0.0127202 0.0135743 0.0138627 0.0135699 0.0127184 0.0114383 0.00981045 0.00813676 0.00648471 0.00499746 0.00369086 0.00266196 0.00183206 0.00126572 0.000891194 0.000596308 0.000429251 0.000310096 0.000233336 0.000234609 0.000165769 0.000184756 0.000189578 0.000136322 0.000140742 0.000184458 0.000137616 0.000124415 3.44214e-05 -4.07723e-05 -0.000185101 -0.000423303 -0.000720584 -0.00115271 -0.00175433 -0.00242888 -0.00326668 -0.00414065 -0.00509353 -0.00592782 -0.00664419 -0.00710389 -0.00726022 -0.00712519 -0.00663792 -0.00594301 -0.00505689 -0.00416103 -0.00322761 -0.00242827 -0.00174826 -0.0011699 -0.00073576 -0.000433315 -0.000177219 -4.86189e-05 3.16759e-05 0.000133666 0.00015408 0.000175793 0.000161529 0.000165694 0.000178741 0.000180181 0.000189897 0.000188117 0.000216446 0.000186229 0.000236108 0.000288961 0.000377745 0.00047604 0.000653647 0.000870175 0.00118109 0.00153272 0.00192758 0.00242334 0.00287934 0.00332993 0.00368973 0.00391942 0.00399598 0.00392311 0.00368128 0.0033104 0.0028784 0.00239599 0.0019272 0.00155012 0.00118637 0.000840711 0.000629323 0.000492509 0.000387204 0.000279966 0.000218166 0.00019629 0.000195857 0.000178223 0.000159796 0.000177466 0.000180777 0.000171492 0.00018974 0.000170584 0.000189772 0.000155266 0.000195007 0.000194157 0.000146454 0.000130019 0.000103887 8.02061e-05 2.41037e-05 -4.9218e-05 -7.35234e-05 -0.000191543 -0.000242168 -0.00031395 -0.000381527 -0.000378397 -0.000435442 -0.000424709 -0.000360598 -0.000328188 -0.000257157 -0.000171066 -8.63666e-05 -3.712e-05 1.74388e-06 6.77153e-05 8.9001e-05 0.000119459 0.000140577 0.000163412 0.000191151 0.000174267 0.000182649 0.000175033 0.000222838 0.000162592 0.00017547 0.000153676 0.000162314 0.000189459 0.000143725 0.000173858 0.000140892 0.000101157 6.55799e-05 1.29915e-05 -0.000117511 -0.000240268 -0.000370976 -0.00059973 -0.000861005 -0.00112625 -0.00137985 -0.00164388 -0.00187216 -0.0020167 -0.00205586 -0.00200144 -0.00187936 -0.00164425 -0.00138999 -0.00114465 -0.000849576 -0.000584209 -0.000369334 -0.000237644 -0.000108049 -6.57616e-06 7.98977e-05 0.00011735 0.000171338 0.000157471 0.000170037 0.00017493 0.000183992 0.000189134 0.000192965 0.000195747 0.000186767 0.000190865 0.000191206 0.000252105 0.000242396 0.000336539 0.000466876 0.000648793 0.000882304 0.00120502 0.00160547 0.00215101 0.00276669 0.00342409 0.00413795 0.00476679 0.00529897 0.00563675 0.00575436 0.00566052 0.00531036 0.00478578 0.00413736 0.00345589 0.00275475 0.00215055 0.00163157 0.00116865 0.000881317 0.000643842 0.000466793 0.000334881 0.000261467 0.0002578 0.000210367 0.000180917 0.000191763 0.000182738 0.00017678 0.000189844 0.000160517 0.000161532 0.000159185 0.000131969 5.82078e-05 2.23913e-05 -0.00011478 -0.000324951 -0.000583767 -0.000986339 -0.00145984 -0.00205287 -0.00276256 -0.00353326 -0.00428418 -0.00504306 -0.00561648 -0.00599979 -0.00618067 -0.00601275 -0.00562935 -0.00499983 -0.00429734 -0.00350726 -0.00277191 -0.0020492 -0.00146779 -0.000964663 -0.000592067 
-0.000360333 -0.000101117 7.0022e-06 8.64743e-05 0.000106735 0.000117091 0.00016791 0.000178084 0.000183137 0.000223809 0.000185511 0.000177183 0.000234391 0.000232024 0.000297209 0.000414648 0.000577464 0.000864654 0.00124606 0.00184697 0.00260075 0.00361876 0.00488248 0.00634323 0.00797184 0.00961823 0.0111961 0.0124648 0.0133022 0.0135858 0.0132977 0.0124636 0.0112088 0.00961665 0.0079755 0.00635604 0.00489871 0.00361942 0.00261197 0.00179982 0.00124416 0.000876347 0.000588611 0.000423786 0.000308016 0.000232366 0.000233498 0.000167025 0.00018448 0.000188973 0.000138204 0.000142102 0.00018618 0.000140993 0.000131646 4.78908e-05 -1.70209e-05 -0.000146343 -0.000360764 -0.000625356 -0.00101303 -0.00155564 -0.00215716 -0.0029094 -0.00369122 -0.00454925 -0.00529461 -0.00593617 -0.00634887 -0.00648795 -0.0063697 -0.00593079 -0.00530913 -0.0045122 -0.00371121 -0.00287319 -0.0021559 -0.00154839 -0.00102866 -0.000640718 -0.000370331 -0.000138307 -2.47219e-05 4.48821e-05 0.000139602 0.000157326 0.000176825 0.000163209 0.000166376 0.000179328 0.000179316 0.000188911 0.000186788 0.000213684 0.000181096 0.000226139 0.000271978 0.000347118 0.000428152 0.000577725 0.000759954 0.00102338 0.00131866 0.00164762 0.00206898 0.00245117 0.0028296 0.00313424 0.00332463 0.00338901 0.003329 0.00312478 0.00281208 0.00244997 0.00204361 0.00164779 0.00133547 0.00102878 0.000732228 0.000554793 0.000442718 0.000356341 0.000262557 0.000208946 0.000192119 0.000193583 0.0001785 0.000161319 0.000178158 0.000181105 0.000171953 0.000189197 0.000171472 0.000188984 0.000156955 0.000195624 0.000195679 0.000150896 0.00013626 0.000112832 9.43104e-05 4.27715e-05 -2.03732e-05 -3.90048e-05 -0.000145942 -0.000187282 -0.000251289 -0.000311328 -0.00030611 -0.00035882 -0.00034883 -0.000290851 -0.000265915 -0.000203093 -0.000126378 -5.16226e-05 -9.83764e-06 2.27493e-05 8.31932e-05 9.92944e-05 0.000126584 0.000146013 0.000165919 0.00019123 0.000175252 0.000182287 0.000176194 0.000221891 0.000163531 0.000175207 0.000154069 0.00016244 0.000189132 0.00014422 0.000173933 0.000140735 0.00010127 6.46528e-05 1.17775e-05 -0.000119207 -0.000243453 -0.000375922 -0.000606456 -0.000869117 -0.00113749 -0.00139254 -0.00165933 -0.00188872 -0.0020341 -0.00207418 -0.00202058 -0.00189534 -0.00165969 -0.00140308 -0.00115396 -0.000858343 -0.000590907 -0.000374937 -0.000240977 -0.00010992 -6.80137e-06 7.82437e-05 0.000116684 0.000169917 0.000157561 0.000169542 0.000174402 0.000183127 0.000189735 0.000193207 0.000195195 0.000187662 0.000191304 0.000191499 0.000251062 0.000243925 0.000337678 0.000467261 0.000649869 0.000884889 0.00120818 0.00160949 0.00215579 0.00277352 0.0034331 0.00414868 0.00477944 0.0053129 0.00565185 0.00577069 0.00567549 0.00532375 0.00479674 0.00414814 0.00346326 0.00276173 0.00215585 0.00163458 0.00117285 0.000882296 0.000644583 0.000466641 0.000335941 0.000262105 0.000256236 0.000210433 0.000181242 0.000192413 0.000183397 0.000176977 0.00018948 0.000162217 0.000162346 0.000159136 0.000131872 5.92788e-05 2.2443e-05 -0.000113302 -0.000322225 -0.000580217 -0.000979936 -0.00144923 -0.00203973 -0.00274509 -0.00351102 -0.00425928 -0.00501342 -0.00558397 -0.00596602 -0.00614481 -0.00597898 -0.00559699 -0.00497204 -0.00427173 -0.00348741 -0.00275398 -0.00203666 -0.00145831 -0.000958415 -0.00058747 
-0.000344501 -9.29985e-05 1.2228e-05 8.98872e-05 0.000110155 0.0001199 0.000169057 0.000180195 0.000183997 0.000223178 0.000185096 0.000178034 0.000232785 0.000232758 0.000293571 0.000410163 0.000568863 0.000848294 0.00122205 0.00180757 0.00254425 0.00353745 0.00477022 0.00619528 0.00778513 0.00939164 0.0109321 0.0121688 0.0129865 0.0132645 0.0129819 0.012168 0.0109428 0.00939183 0.00778879 0.00620723 0.00478458 0.00353734 0.00255445 0.00176299 0.00121982 0.000859481 0.000579894 0.000418 0.000305868 0.000232037 0.000232651 0.000169174 0.000184945 0.000188759 0.000141371 0.000144613 0.000188492 0.00014568 0.00013967 6.30988e-05 9.22059e-06 -0.000104087 -0.000292614 -0.000521813 -0.000861394 -0.00133966 -0.00186256 -0.00252231 -0.00320447 -0.00395914 -0.00460868 -0.0051693 -0.00553106 -0.00565168 -0.00555108 -0.00516443 -0.00462219 -0.00392212 -0.00322373 -0.00248909 -0.00186072 -0.00133112 -0.00087551 -0.000537174 -0.000301425 -9.59009e-05 1.85356e-06 5.99231e-05 0.000146614 0.000161473 0.000178573 0.000165622 0.00016796 0.000180493 0.000179087 0.000188261 0.000185911 0.000211361 0.000176751 0.000216312 0.000254823 0.000315834 0.000379118 0.000499498 0.000646003 0.000860026 0.00109682 0.00135721 0.00170124 0.00200674 0.00231046 0.00255746 0.00270712 0.00275868 0.00271225 0.00254701 0.00229456 0.00200526 0.00167771 0.00135808 0.00111262 0.000865498 0.000620305 0.000478038 0.000391571 0.000324884 0.000245165 0.000200284 0.000188198 0.000191696 0.00017933 0.00016335 0.000179396 0.000181813 0.000173139 0.000189247 0.000173179 0.000188498 0.00015938 0.000196579 0.000197585 0.000155887 0.000143017 0.000122857 0.000109268 6.25463e-05 9.61591e-06 -3.54149e-06 -9.84226e-05 -0.000130321 -0.000186576 -0.000238685 -0.000231636 -0.000279562 -0.000270581 -0.000218967 -0.000201463 -0.000147186 -8.01691e-05 -1.54102e-05 1.87785e-05 4.50468e-05 9.96016e-05 0.000110375 0.00013438 0.000152066 0.000169255 0.000191857 0.000176817 0.000182442 0.000177745 0.000221099 0.00016532 0.000175432 0.000155533 0.000163206 0.000189465 0.000145936 0.000175016 0.000142825 0.000104955 6.89891e-05 1.8487e-05 -0.000108856 -0.000229087 -0.00035688 -0.000580143 -0.000834011 -0.00109422 -0.00133961 -0.00159842 -0.00182019 -0.00196037 -0.00199955 -0.00194835 -0.00182612 -0.00159895 -0.00135058 -0.00110848 -0.000824108 -0.000564662 -0.000356707 -0.000226693 -9.97082e-05 9.45206e-07 8.16229e-05 0.000119261 0.000170066 0.000159227 0.000169876 0.000174855 0.000182782 0.000190784 0.000193902 0.000195186 0.000189119 0.000191962 0.000191641 0.00024833 0.000243142 0.00033371 0.00045815 0.000635205 0.000863287 0.00117518 0.00156286 0.00209127 0.00268915 0.00332676 0.00401947 0.00462965 0.00514524 0.00547306 0.00558873 0.00549632 0.00515548 0.00464489 0.00401906 0.00335536 0.00267757 0.00209172 0.00158678 0.00114196 0.000859436 0.00062955 0.000457122 0.000332105 0.000260176 0.000253183 0.000210441 0.00018192 0.000193376 0.000184614 0.00017751 0.000189561 0.000164857 0.000163863 0.000160174 0.000133542 6.3197e-05 2.68005e-05 -0.00010496 -0.000308406 -0.000559855 -0.000948749 -0.00140413 -0.00197959 -0.00266622 -0.00341127 -0.00414107 -0.00487468 -0.00543013 -0.00580266 -0.00597641 -0.00581587 -0.00544321 -0.00483575 -0.00415232 -0.00339033 -0.00267455 -0.00197743 -0.001414 -0.000927928 -0.00056634 
-0.000339972 -9.10766e-05 1.35957e-05 9.10959e-05 0.000111884 0.000121399 0.000169776 0.000181758 0.000184711 0.000222974 0.000184948 0.000178699 0.000231984 0.000233389 0.000291184 0.00040733 0.000563398 0.000838019 0.00120678 0.00178246 0.0025081 0.00348523 0.00469827 0.00610031 0.00766517 0.00924621 0.0107626 0.0119785 0.0127839 0.0130581 0.0127791 0.0119781 0.010772 0.00924752 0.00766886 0.00611173 0.0047114 0.00348458 0.00251761 0.0017394 0.00120422 0.000848966 0.000574562 0.000414482 0.000304805 0.000231888 0.000232279 0.000170674 0.000185317 0.000188847 0.000143346 0.000146217 0.000190267 0.000148782 0.000145413 7.34962e-05 2.7018e-05 -7.53043e-05 -0.000246577 -0.000451915 -0.000759052 -0.00119419 -0.00166403 -0.00226139 -0.0028764 -0.00356183 -0.00414661 -0.00465272 -0.00498026 -0.00508825 -0.0049998 -0.00464845 -0.00415957 -0.00352465 -0.00289533 -0.00223017 -0.00166175 -0.00118486 -0.000772085 -0.000467375 -0.000254937 -6.70781e-05 1.98103e-05 7.02116e-05 0.000151509 0.000164371 0.00017992 0.000167385 0.000169055 0.000181438 0.000179074 0.000188144 0.000185612 0.000210123 0.00017405 0.000210381 0.000244343 0.000296381 0.000348532 0.000450529 0.000574696 0.000757623 0.000957704 0.0011752 0.00147063 0.00172799 0.0019846 0.00219571 0.0023197 0.00236338 0.0023253 0.00218462 0.00197008 0.00172645 0.0014484 0.00117642 0.000973057 0.000763212 0.000550257 0.000430066 0.000359611 0.000305312 0.000234411 0.000194939 0.000186054 0.000190736 0.00018014 0.000165026 0.000180417 0.000182555 0.000173992 0.000189411 0.000174333 0.00018843 0.000161051 0.000197406 0.000198916 0.000159168 0.000147308 0.000128867 0.000118491 7.44409e-05 2.79588e-05 1.7965e-05 -6.9751e-05 -9.6091e-05 -0.000147686 -0.000195086 -0.000187061 -0.000232053 -0.000223475 -0.000175746 -0.000162797 -0.000113532 -5.22746e-05 6.39676e-06 3.60994e-05 5.85758e-05 0.000109795 0.000117273 0.000139438 0.000156016 0.000171401 0.000192358 0.000177994 0.000182718 0.000179065 0.000220886 0.000166532 0.000175757 0.00015644 0.000163883 0.000189813 0.000146922 0.000175686 0.00014357 0.000106109 6.98705e-05 1.96057e-05 -0.000107208 -0.000227384 -0.000355132 -0.000577859 -0.000830622 -0.00109075 -0.00133497 -0.00159353 -0.00181428 -0.00195394 -0.00199336 -0.00194308 -0.00181989 -0.00159403 -0.00134619 -0.00110365 -0.000821199 -0.000562355 -0.000355394 -0.000225078 -9.81771e-05 2.82451e-06 8.18887e-05 0.000119865 0.000169809 0.000160038 0.000170187 0.000175106 0.000182731 0.000191779 0.00019459 0.000195271 0.000190262 0.000192747 0.00019222 0.000247689 0.000244121 0.000333865 0.000456868 0.000633112 0.00086047 0.00117027 0.00155554 0.00208056 0.00267528 0.00330939 0.00399816 0.00460496 0.0051175 0.0054435 0.00555912 0.00546668 0.00512732 0.00461894 0.00399775 0.00333685 0.00266386 0.00208132 0.00157869 0.00113794 0.00085559 0.000627225 0.000455524 0.000332213 0.000260432 0.000252197 0.000210864 0.000182623 0.000194328 0.000185611 0.000178185 0.000189791 0.000166635 0.000164973 0.00016074 0.000134139 6.47095e-05 2.76829e-05 -0.000102892 -0.000305076 -0.000555515 -0.000941684 -0.00139332 -0.00196593 -0.00264842 -0.00338876 -0.0041154 -0.0048443 -0.00539673 -0.00576776 -0.00593975 -0.00578093 -0.00540991 -0.00480674 -0.00412605 -0.00336946 -0.00265637 -0.00196429 -0.00140393 -0.000921063 -0.0005613 
-0.000324677 -8.35323e-05 1.834e-05 9.4258e-05 0.000115308 0.000124174 0.000170872 0.00018401 0.000185622 0.00022204 0.000184243 0.000179376 0.000229978 0.000234138 0.000286739 0.000402113 0.000553639 0.000819568 0.0011799 0.00173838 0.002445 0.00339436 0.00457299 0.00593514 0.00745673 0.00899341 0.0104682 0.0116483 0.0124317 0.0126997 0.0124268 0.0116483 0.0104752 0.0089968 0.00746053 0.00594556 0.00458391 0.00339279 0.00245334 0.0016982 0.00117691 0.000829947 0.000564791 0.000407816 0.000302295 0.000231279 0.000231231 0.000172881 0.000185587 0.000188418 0.000146642 0.000148761 0.000192767 0.000153832 0.000154514 9.07132e-05 5.70169e-05 -2.6934e-05 -0.000168386 -0.000333075 -0.000584981 -0.000946346 -0.00132566 -0.00181672 -0.00231719 -0.00288402 -0.00335858 -0.00377166 -0.00404065 -0.00412744 -0.00405941 -0.00376808 -0.00337047 -0.00284672 -0.00233537 -0.00178904 -0.00132266 -0.00093547 -0.000596208 -0.000348586 -0.000176018 -1.84704e-05 5.01233e-05 8.71784e-05 0.000159342 0.000168938 0.000181685 0.000169945 0.00017059 0.000182586 0.00017852 0.000187175 0.000184308 0.00020708 0.000168394 0.000198251 0.000223361 0.000258385 0.000288982 0.000355811 0.000436839 0.000560237 0.000689658 0.000824319 0.00102646 0.00119124 0.00135761 0.00149917 0.00157396 0.00160216 0.00158046 0.00148684 0.0013451 0.00118929 0.00100649 0.000826386 0.000703913 0.000565887 0.000414734 0.00033706 0.000297645 0.000267071 0.000213104 0.000184083 0.000181062 0.000188255 0.00018084 0.000167153 0.00018166 0.000183211 0.000175156 0.000189256 0.000176088 0.000187743 0.000163762 0.000198593 0.000201416 0.000165508 0.000156151 0.000141974 0.000138246 0.000100805 6.76449e-05 6.56179e-05 -6.61666e-06 -2.01466e-05 -6.10692e-05 -9.80057e-05 -8.68795e-05 -0.000126059 -0.000118906 -7.94355e-05 -7.65634e-05 -3.87955e-05 9.47245e-06 5.47603e-05 7.40791e-05 8.78919e-05 0.000131225 0.000131708 0.000149392 0.000163619 0.000175433 0.000193071 0.000179731 0.000182726 0.000180731 0.00021987 0.000168362 0.000175826 0.000157777 0.000164507 0.000189955 0.000148532 0.000176661 0.000145375 0.000109457 7.3483e-05 2.54048e-05 -9.82563e-05 -0.000215151 -0.000339045 -0.000555589 -0.000800712 -0.00105419 -0.0012899 -0.00154191 -0.00175601 -0.00189108 -0.00192992 -0.00188205 -0.00176079 -0.0015426 -0.00130166 -0.00106453 -0.000792255 -0.000540167 -0.000340251 -0.000212972 -8.93944e-05 9.78615e-06 8.44749e-05 0.000121983 0.000169516 0.000161509 0.000170257 0.00017528 0.000182089 0.000192805 0.000195218 0.000195086 0.000191783 0.000193394 0.000192383 0.000244945 0.000243897 0.000330755 0.000449056 0.000620742 0.000842591 0.0011427 0.00151646 0.00202632 0.00260453 0.00322034 0.00388991 0.00447955 0.00497701 0.00529381 0.00540707 0.0053166 0.00498616 0.00449122 0.00388967 0.00324594 0.00259331 0.00202759 0.00153828 0.00111256 0.000836082 0.00061441 0.000447168 0.000329213 0.000258962 0.000249007 0.000210872 0.000183275 0.000195334 0.000186824 0.000178622 0.000189715 0.000169427 0.000166497 0.000161567 0.000135529 6.84249e-05 3.1526e-05 -9.50919e-05 -0.000292061 -0.000536383 -0.000912137 -0.00135016 -0.00190868 -0.0025732 -0.00329356 -0.004003 -0.00471227 -0.00525044 -0.00561257 -0.00577951 -0.00562602 -0.0052637 -0.00467743 -0.00401238 -0.00327738 -0.00258052 -0.00190797 -0.00136181 -0.000892192 -0.000541199 
-0.000310877 -7.65509e-05 2.2759e-05 9.7157e-05 0.000118289 0.000126612 0.000171782 0.000185814 0.000186272 0.00022135 0.000183753 0.00018007 0.000228366 0.000234645 0.000283099 0.000397599 0.00054518 0.000803781 0.00115664 0.00170041 0.00239053 0.00331604 0.004465 0.00579289 0.00727722 0.00877565 0.0102144 0.0113637 0.0121284 0.0123909 0.0121234 0.0113643 0.0102195 0.00878061 0.00728098 0.00580249 0.00447421 0.00331376 0.00239791 0.00166258 0.00115331 0.000813736 0.000556281 0.000402166 0.000300149 0.000230791 0.00023026 0.000174715 0.000185876 0.000188134 0.000149395 0.000150942 0.000194789 0.000158004 0.000161936 0.000104786 8.1288e-05 1.23713e-05 -0.000105099 -0.000236857 -0.000443966 -0.000745468 -0.00105162 -0.00145656 -0.00186429 -0.00233499 -0.00272032 -0.00305808 -0.0032797 -0.00334924 -0.0032977 -0.00305506 -0.00273131 -0.00229769 -0.00188178 -0.00143162 -0.00104807 -0.000733457 -0.000453766 -0.000252385 -0.000112025 2.09252e-05 7.4704e-05 0.000101077 0.000165739 0.000172636 0.000183184 0.000172077 0.000171921 0.000183564 0.00017821 0.000186506 0.00018344 0.000204856 0.000164351 0.000189305 0.000207771 0.000229972 0.000244514 0.000284895 0.000333633 0.000412227 0.000488723 0.000561414 0.000693506 0.000788849 0.000887536 0.000976975 0.00101492 0.00103155 0.0010221 0.000963795 0.000876634 0.000786694 0.000675252 0.000564045 0.000502155 0.000417989 0.000313355 0.000267521 0.00025122 0.00023849 0.000197272 0.000176138 0.000177499 0.000186448 0.000181546 0.000169003 0.000182691 0.000183793 0.0001761 0.000189139 0.00017749 0.000187153 0.000165743 0.000199089 0.000202557 0.000169178 0.000160943 0.000148935 0.000148817 0.000114542 8.92187e-05 9.04126e-05 2.72158e-05 2.02195e-05 -1.54867e-05 -4.67099e-05 -3.50103e-05 -7.01589e-05 -6.34907e-05 -2.88601e-05 -3.1205e-05 6.66137e-07 4.20954e-05 8.01588e-05 9.4369e-05 0.000103941 0.000143164 0.00013974 0.00015516 0.000168242 0.000177849 0.000193268 0.000180917 0.000182693 0.000182094 0.000219043 0.000169858 0.000175941 0.000158991 0.000165132 0.000190122 0.000149967 0.000177463 0.000146925 0.000112295 7.66638e-05 3.02877e-05 -9.05788e-05 -0.000204632 -0.000325253 -0.000536481 -0.000774998 -0.00102274 -0.00125128 -0.0014976 -0.00170598 -0.00183722 -0.00187553 -0.00182965 -0.00171014 -0.00149839 -0.00126342 -0.00103107 -0.000767347 -0.000521071 -0.000327167 -0.000202536 -8.18572e-05 1.56722e-05 8.67887e-05 0.000123832 0.000169362 0.000162773 0.000170434 0.000175548 0.000181683 0.000193677 0.000195765 0.000194932 0.000193 0.000193969 0.000192551 0.000242637 0.000243545 0.000327875 0.000442107 0.000609604 0.00082637 0.00111788 0.00148131 0.0019775 0.0025408 0.00314011 0.00379238 0.00436654 0.00485052 0.00515893 0.00526998 0.0051814 0.00485909 0.00437631 0.00379221 0.00316422 0.0025298 0.00197914 0.00150207 0.0010895 0.000818678 0.000602961 0.00043984 0.000326411 0.000257558 0.000246397 0.000210844 0.000183842 0.000196133 0.000187853 0.000179087 0.000189681 0.000171714 0.00016781 0.000162402 0.00013688 7.1802e-05 3.51646e-05 -8.79073e-05 -0.000280082 -0.00051881 -0.000885046 -0.00131083 -0.00185628 -0.00250445 -0.00320662 -0.00390007 -0.00459145 -0.00511646 -0.00547039 -0.00563281 -0.00548399 -0.00512979 -0.00455882 -0.0039084 -0.00319287 -0.00251128 -0.00185642 -0.00132327 -0.000865657 -0.000522845 
-0.000308034 -7.59183e-05 2.3215e-05 9.79195e-05 0.00011996 0.000128066 0.000172446 0.000187575 0.000187064 0.000220851 0.000183339 0.00018061 0.000227157 0.000235253 0.000279701 0.000393678 0.000537939 0.000790445 0.0011369 0.00166811 0.00234409 0.00324896 0.00437285 0.00567125 0.00712354 0.00858954 0.00999758 0.0111203 0.0118691 0.0121268 0.011864 0.0111214 0.0100009 0.00859589 0.00712742 0.00568015 0.00438046 0.00324597 0.00235059 0.00163213 0.0011331 0.000800129 0.000549338 0.000397462 0.000298646 0.0002303 0.000229643 0.000176318 0.000186062 0.000188069 0.000151523 0.000152624 0.000196838 0.000161552 0.000169032 0.000117615 0.000103454 4.83541e-05 -4.7418e-05 -0.000149258 -0.000315631 -0.00056309 -0.000802487 -0.00112904 -0.00145243 -0.00183636 -0.00214025 -0.00240955 -0.00258818 -0.00264185 -0.00260569 -0.00240742 -0.00215064 -0.00179872 -0.00146959 -0.0011067 -0.00079834 -0.000550085 -0.000324007 -0.000164942 -5.39102e-05 5.69902e-05 9.70099e-05 0.000113719 0.000171643 0.000176055 0.000184626 0.000174084 0.000173018 0.000184555 0.000177919 0.000186166 0.000182813 0.000202963 0.000160433 0.000181262 0.000193715 0.000204141 0.000203934 0.000220182 0.000239528 0.000277263 0.000305434 0.000321672 0.000389804 0.00042182 0.000458473 0.000500724 0.000504891 0.000511164 0.000512651 0.000486682 0.000449477 0.000419547 0.000373353 0.00032474 0.000318378 0.000283173 0.000220831 0.000204098 0.000208939 0.000212453 0.000182835 0.000168747 0.000174452 0.000184981 0.000182332 0.000170941 0.000183779 0.000184572 0.000176963 0.000189109 0.000178696 0.000186923 0.000167713 0.000200094 0.00020432 0.000173581 0.000166885 0.00015724 0.000161768 0.000131457 0.000115175 0.000121319 6.79846e-05 6.90538e-05 4.0253e-05 1.56843e-05 2.91848e-05 -2.11118e-06 3.9412e-06 3.31403e-05 2.41859e-05 4.88442e-05 8.1978e-05 0.000111275 0.00011893 0.000122942 0.000157336 0.000149314 0.000162003 0.000173497 0.000180532 0.000193781 0.000182276 0.000182845 0.000183643 0.000218645 0.000171141 0.000176171 0.0001598 0.000165756 0.000190314 0.000150877 0.000178057 0.000147282 0.000112905 7.65159e-05 2.99133e-05 -9.1171e-05 -0.000206373 -0.00032832 -0.000540844 -0.000780164 -0.00103031 -0.00125974 -0.00150808 -0.00171705 -0.00184892 -0.00188794 -0.00184296 -0.00172079 -0.00150882 -0.00127218 -0.00103693 -0.000773088 -0.000525406 -0.000330756 -0.00020443 -8.26102e-05 1.62522e-05 8.59371e-05 0.000123813 0.000168614 0.000163356 0.000170559 0.000175521 0.000181393 0.000194738 0.000196443 0.000194834 0.000194255 0.000194857 0.000193317 0.000242299 0.000245559 0.00032971 0.000443485 0.000611983 0.000830576 0.0011233 0.00148836 0.00198627 0.00255263 0.00315531 0.0038105 0.00438767 0.00487395 0.00518406 0.00529648 0.00520645 0.00488199 0.00439594 0.00381036 0.0031779 0.00254182 0.00198835 0.00150816 0.00109576 0.000821425 0.000605045 0.000440767 0.000328128 0.00025872 0.00024555 0.000211373 0.000184616 0.000197221 0.000188911 0.000179799 0.000189788 0.000173681 0.000168996 0.000162753 0.000137113 7.29387e-05 3.5106e-05 -8.70835e-05 -0.000278713 -0.000517584 -0.000882355 -0.00130579 -0.00185079 -0.00249723 -0.00319748 -0.00389087 -0.00458023 -0.00510451 -0.00545859 -0.00561947 -0.00547208 -0.00511796 -0.00454922 -0.00389856 -0.00318579 -0.00250362 -0.00185145 -0.00131927 -0.000863079 -0.000520639 
-0.000293285 -6.85778e-05 2.78136e-05 0.000100925 0.000123112 0.000130631 0.000173373 0.000189514 0.000187776 0.000219935 0.000182731 0.000181249 0.000225276 0.000235691 0.0002755 0.000388413 0.000528255 0.000772416 0.00111037 0.00162486 0.00228205 0.00315982 0.00425006 0.0055095 0.00691937 0.00834195 0.00970912 0.010797 0.0115244 0.0117757 0.0115191 0.0107985 0.00971035 0.00835009 0.0069233 0.00551753 0.00425574 0.00315603 0.00228752 0.0015915 0.00110618 0.000781575 0.000539619 0.000390958 0.000296069 0.00022962 0.000228519 0.000178263 0.000186283 0.000187669 0.000154485 0.000154917 0.000198971 0.000166031 0.000177099 0.000132972 0.000130059 9.13737e-05 2.2019e-05 -4.36928e-05 -0.000160943 -0.000342709 -0.000501734 -0.000733741 -0.000955322 -0.00123376 -0.00143971 -0.00162632 -0.00175294 -0.00178772 -0.00176965 -0.00162486 -0.00144913 -0.00119616 -0.000971802 -0.000714544 -0.000496989 -0.000328452 -0.000167715 -5.94078e-05 1.62513e-05 0.000100141 0.000123906 0.00012891 0.000178584 0.000180081 0.000186183 0.000176362 0.000174368 0.000185541 0.000177482 0.000185356 0.000181746 0.000200373 0.000155768 0.000171108 0.00017613 0.000172186 0.000153954 0.000140549 0.000123685 0.000111255 8.00158e-05 2.67641e-05 1.63208e-05 -2.94739e-05 -6.87554e-05 -8.49389e-05 -0.000122096 -0.000128772 -0.0001136 -9.99618e-05 -7.59277e-05 -3.20227e-05 1.83353e-06 3.05132e-05 9.20232e-05 0.000117214 0.000107045 0.000126018 0.000156793 0.000180272 0.000164988 0.000159724 0.000170359 0.000182908 0.000182987 0.00017287 0.000184866 0.000185156 0.000177952 0.000188951 0.000180203 0.000186342 0.000170074 0.000201058 0.000206344 0.000179008 0.000174444 0.000168425 0.000178611 0.000153966 0.000149104 0.000161924 0.000121972 0.000133855 0.000114189 9.86135e-05 0.000114599 8.84047e-05 9.32786e-05 0.000115336 9.78895e-05 0.000112685 0.000134702 0.000152532 0.000151356 0.000148009 0.000175675 0.000161689 0.000170605 0.000180018 0.00018397 0.000194351 0.00018378 0.000182858 0.000185104 0.000217652 0.000172737 0.000176245 0.000161037 0.000166355 0.000190396 0.000152316 0.000178774 0.000148735 0.000115614 7.93959e-05 3.43829e-05 -8.4085e-05 -0.000196834 -0.000315984 -0.000523702 -0.000756987 -0.00100208 -0.00122497 -0.00146831 -0.00167199 -0.00180032 -0.00183896 -0.00179599 -0.00167504 -0.00146913 -0.00123781 -0.00100648 -0.000750752 -0.00050835 -0.000319223 -0.000194991 -7.57241e-05 2.18219e-05 8.78434e-05 0.000125441 0.000168183 0.000164561 0.000170628 0.000175662 0.00018085 0.000195628 0.000196955 0.000194597 0.000195519 0.000195394 0.000193453 0.000239785 0.000245234 0.000326689 0.000436148 0.000600292 0.000813629 0.00109731 0.00145162 0.00193521 0.002486 0.0030715 0.00370856 0.00426957 0.00474174 0.00504315 0.00515329 0.00506516 0.00474916 0.0042758 0.00370853 0.0030924 0.0024754 0.00193771 0.00147017 0.00107172 0.000803082 0.000593011 0.000432962 0.000325176 0.000257248 0.000242626 0.000211291 0.000185155 0.000198042 0.000189953 0.000180219 0.000189679 0.000176133 0.000170363 0.000163549 0.000138444 7.65193e-05 3.8879e-05 -7.94918e-05 -0.000266012 -0.000498892 -0.000853492 -0.00126382 -0.00179493 -0.00242386 -0.00310464 -0.003781 -0.00445125 -0.00496153 -0.00530689 -0.00546284 -0.0053205 -0.00497504 -0.00442268 -0.00378758 -0.00309566 -0.00242966 -0.00179644 -0.00127818 -0.000834838 -0.000501063 
-0.000280582 -6.224e-05 3.18063e-05 0.000103591 0.000125973 0.000132961 0.000174213 0.000191319 0.000188376 0.000219254 0.000182198 0.00018194 0.000223652 0.000236201 0.000271776 0.000383903 0.000519843 0.000756767 0.00108732 0.00158724 0.00222811 0.00308221 0.00414307 0.00536855 0.00674149 0.0081262 0.00945772 0.010515 0.0112238 0.0114698 0.0112184 0.010517 0.00945702 0.00813595 0.00674535 0.00537573 0.00414701 0.00307769 0.00223257 0.00155622 0.00108277 0.000765523 0.000531202 0.000385334 0.000293963 0.000229107 0.000227502 0.000180084 0.000186533 0.000187361 0.000157192 0.000157055 0.000201028 0.000170223 0.000184761 0.000147407 0.000154965 0.000131826 8.70245e-05 5.52093e-05 -1.59613e-05 -0.000136236 -0.000219975 -0.000363457 -0.00048965 -0.000669349 -0.000783485 -0.000892649 -0.000970584 -0.000987564 -0.00098654 -0.000891821 -0.000791997 -0.000631683 -0.000505452 -0.000347017 -0.000214668 -0.000120837 -2.12567e-05 3.94258e-05 8.19996e-05 0.000140659 0.000149118 0.000143157 0.000185145 0.000183826 0.000187695 0.000178509 0.000175657 0.000186517 0.000177135 0.000184674 0.000180861 0.000198127 0.000151623 0.000162091 0.000160457 0.00014356 0.000109175 6.91177e-05 1.97781e-05 -3.78051e-05 -0.00012233 -0.000237927 -0.000318907 -0.000434611 -0.000542101 -0.000610684 -0.000684965 -0.000703268 -0.000675776 -0.000626569 -0.000547561 -0.000437335 -0.000331649 -0.000233652 -0.000111086 -3.16921e-05 4.94788e-06 5.59822e-05 0.000109993 0.000151489 0.000149011 0.000151663 0.000166799 0.000181061 0.000183716 0.000174775 0.000185906 0.000185754 0.000178837 0.000188782 0.000181566 0.000185706 0.000171958 0.000201417 0.000207215 0.000182258 0.000178559 0.00017427 0.000187637 0.000165462 0.00016774 0.000182828 0.000150891 0.000168258 0.000152809 0.000142163 0.000158125 0.000135805 0.000140452 0.000158163 0.000136284 0.000146166 0.000162421 0.000174 0.000168652 0.000161851 0.000186126 0.000168664 0.000175741 0.000184237 0.000186096 0.000194387 0.000184872 0.000182763 0.000186485 0.000216827 0.000174183 0.000176326 0.000162182 0.000166953 0.000190511 0.000153631 0.000179413 0.000149937 0.000117855 8.16352e-05 3.77432e-05 -7.87362e-05 -0.000189751 -0.000306969 -0.000511177 -0.000739869 -0.000981498 -0.00119948 -0.00143932 -0.001639 -0.0017647 -0.00180321 -0.00176191 -0.00164143 -0.00144018 -0.00121268 -0.000983894 -0.00073443 -0.000495787 -0.00031092 -0.000187983 -7.05275e-05 2.62301e-05 8.92007e-05 0.000126708 0.000167727 0.000165619 0.000170701 0.000175848 0.000180407 0.000196529 0.000197515 0.000194392 0.000196736 0.000196008 0.000193674 0.000237633 0.000245152 0.000324338 0.000430139 0.000590671 0.000799756 0.00107597 0.0014213 0.00189293 0.00243091 0.00300221 0.00362431 0.00417197 0.00463247 0.00492665 0.00503503 0.00494838 0.0046393 0.00417626 0.00362432 0.00302158 0.00242055 0.00189585 0.00143879 0.00105205 0.000787961 0.000583082 0.000426546 0.000322873 0.000256108 0.000240148 0.000211295 0.00018571 0.000198851 0.000190989 0.0001807 0.000189621 0.00017841 0.00017166 0.000164322 0.000139634 7.96601e-05 4.20911e-05 -7.29623e-05 -0.000255111 -0.000483031 -0.000828882 -0.00122792 -0.00174722 -0.00236128 -0.00302549 -0.00368751 -0.00434145 -0.00483979 -0.00517783 -0.00532956 -0.00519157 -0.00485342 -0.00431506 -0.00369307 -0.00301895 -0.00236659 -0.0017496 -0.00124313 -0.000810712 -0.000484344 
-0.000265389 -5.44261e-05 3.68709e-05 0.000107007 0.000129443 0.000135871 0.000175482 0.000193528 0.000189382 0.000218766 0.000181973 0.000182946 0.000222205 0.000236984 0.000268156 0.000379235 0.000510866 0.00073981 0.00106216 0.00154602 0.00216883 0.00299689 0.00402538 0.00521342 0.00654565 0.00788858 0.00918076 0.0102045 0.0108927 0.0111326 0.0108872 0.010207 0.00917808 0.00789998 0.00654949 0.00521975 0.00402749 0.00299162 0.00217229 0.00151752 0.00105725 0.000748103 0.000522167 0.000379462 0.00029188 0.000228843 0.000226757 0.000182321 0.000187125 0.000187353 0.000160421 0.000159669 0.000203447 0.000174931 0.00019283 0.000162511 0.000180797 0.000173423 0.00015391 0.0001567 0.000132637 7.53618e-05 6.85306e-05 1.56589e-05 -1.3013e-05 -9.15607e-05 -0.00011187 -0.000141826 -0.000169919 -0.000168792 -0.000185074 -0.000141593 -0.000119438 -5.39416e-05 -2.80916e-05 2.91533e-05 7.44168e-05 9.19459e-05 0.000128843 0.000140933 0.000149605 0.000182361 0.000175271 0.000158101 0.000192155 0.000188031 0.000189569 0.000181064 0.000177379 0.000187836 0.000177104 0.000184268 0.000180245 0.000196065 0.000147684 0.000152953 0.000144293 0.000113895 6.25859e-05 -5.36088e-06 -8.87449e-05 -0.000193551 -0.000333872 -0.0005148 -0.000669668 -0.000858544 -0.00103739 -0.00116093 -0.00127404 -0.00130454 -0.00126415 -0.00117771 -0.00104115 -0.000861494 -0.000680559 -0.000509904 -0.00032353 -0.000187351 -0.000101604 -1.70167e-05 6.13589e-05 0.000121625 0.000132636 0.000143617 0.000163322 0.000179468 0.000184741 0.000177012 0.000187279 0.000186652 0.000180162 0.000188972 0.000183349 0.000185418 0.00017446 0.000202413 0.000209049 0.000187019 0.000184849 0.000183392 0.000201254 0.000183334 0.00019498 0.000214753 0.00019381 0.00021951 0.000210973 0.000207464 0.000224797 0.000207003 0.000210846 0.000222715 0.000194209 0.000196502 0.000204037 0.000206582 0.000194543 0.000182162 0.000201157 0.000178921 0.000183061 0.000189997 0.000189305 0.000195064 0.000186537 0.00018307 0.00018823 0.000216225 0.000176082 0.000176755 0.00016379 0.00016792 0.000191001 0.000155507 0.000180659 0.000152064 0.000121491 8.58723e-05 4.41305e-05 -6.88693e-05 -0.000176212 -0.000289137 -0.000486622 -0.000707068 -0.000941233 -0.00115024 -0.00138269 -0.00157522 -0.00169615 -0.00173384 -0.00169491 -0.00157702 -0.00138369 -0.00116383 -0.000941497 -0.000702484 -0.000471287 -0.000293826 -0.000174548 -6.08118e-05 3.36746e-05 9.25091e-05 0.000129305 0.000168023 0.000167363 0.000171259 0.000176439 0.000180278 0.000197731 0.000198363 0.000194523 0.000198306 0.000196885 0.000194135 0.000235458 0.000245037 0.000321493 0.000422887 0.000578898 0.000782442 0.00104935 0.00138353 0.00184039 0.00236217 0.0029156 0.00351894 0.00404983 0.00449573 0.00478084 0.00488679 0.0048022 0.00450195 0.00405214 0.00351906 0.00293338 0.00235205 0.00184366 0.00139985 0.00102732 0.000769397 0.000570978 0.000418908 0.000320108 0.000254866 0.000237641 0.000211548 0.000186611 0.000199995 0.000192358 0.000181486 0.000189869 0.000181124 0.000173348 0.000165501 0.000141401 8.35955e-05 4.63358e-05 -6.4916e-05 -0.000241873 -0.000463698 -0.000799273 -0.00118513 -0.00169028 -0.00228664 -0.00293118 -0.00357582 -0.00421042 -0.00469455 -0.00502369 -0.00517053 -0.00503757 -0.00470822 -0.00418638 -0.00358027 -0.0029272 -0.00229141 -0.00169351 -0.00120114 -0.000781731 -0.000464211 
-0.000254642 -4.94913e-05 3.9891e-05 0.000109148 0.00013211 0.00013804 0.000176245 0.000195445 0.000190079 0.00021779 0.000181239 0.000183451 0.000220277 0.000237422 0.000263692 0.000373891 0.000501184 0.000721936 0.00103591 0.00150324 0.0021075 0.00290864 0.00390399 0.00505345 0.00634367 0.00764382 0.00889565 0.00988468 0.0105519 0.0107856 0.0105462 0.00988774 0.00889076 0.00765704 0.00634761 0.00505886 0.00390411 0.00290252 0.00210988 0.00147729 0.00103053 0.000729755 0.000512614 0.000372956 0.000289381 0.000228024 0.000225605 0.000184157 0.000187194 0.000186904 0.00016316 0.000161758 0.000205621 0.000179295 0.000201221 0.000178256 0.000208195 0.000217875 0.000225564 0.000265676 0.000292361 0.000302743 0.000379078 0.000423879 0.000500398 0.000530504 0.000611532 0.000666986 0.000692569 0.000713313 0.000678131 0.000666356 0.000604859 0.000568289 0.000485898 0.000434116 0.00038563 0.000320614 0.000290282 0.000249792 0.000221914 0.00022695 0.000202906 0.000173632 0.000199238 0.000192074 0.000191076 0.000183315 0.00017858 0.000188783 0.000176515 0.000183411 0.000179073 0.000193302 0.000142567 0.000142308 0.000125936 8.05512e-05 1.04107e-05 -8.83887e-05 -0.000209433 -0.000366454 -0.000568637 -0.000821872 -0.00105853 -0.00132841 -0.00158642 -0.00177064 -0.00192684 -0.00197075 -0.00191619 -0.00178848 -0.0015881 -0.00133163 -0.0010673 -0.000816324 -0.000559111 -0.000360159 -0.000220239 -9.84406e-05 6.97105e-06 8.80288e-05 0.000113914 0.000133994 0.000159031 0.000177252 0.000185357 0.000178992 0.000188343 0.000187249 0.000181041 0.000188695 0.00018474 0.000184795 0.000176761 0.000203385 0.000211084 0.000192516 0.000192512 0.000194536 0.000218314 0.000206031 0.000229464 0.000256045 0.000248507 0.000285203 0.000285971 0.000291532 0.000311402 0.00029875 0.000301528 0.000306132 0.000268898 0.000261255 0.000257546 0.000248359 0.000227368 0.000207496 0.000219773 0.000191439 0.000191785 0.000196621 0.000192656 0.000195537 0.000187999 0.000182993 0.00018975 0.000215257 0.000177553 0.000176757 0.000164789 0.000168422 0.000190961 0.000156657 0.000181153 0.000152833 0.000123057 8.6958e-05 4.58378e-05 -6.60502e-05 -0.000172981 -0.000285492 -0.000481503 -0.000699611 -0.00093293 -0.00113942 -0.00137086 -0.00156126 -0.00168086 -0.00171887 -0.00168144 -0.00156239 -0.00137187 -0.00115342 -0.000930946 -0.000695831 -0.000466203 -0.000290966 -0.000171448 -5.82088e-05 3.65302e-05 9.26528e-05 0.000129868 0.000167078 0.000168143 0.000171133 0.000176327 0.000179623 0.00019864 0.000198864 0.000194181 0.000199559 0.000197506 0.000194464 0.000233609 0.000245751 0.000320494 0.000419092 0.000573025 0.000774423 0.00103659 0.00136523 0.00181448 0.00232863 0.00287363 0.00346774 0.00399061 0.00442932 0.00471018 0.00481549 0.00473125 0.0044349 0.00399091 0.00346794 0.0028896 0.00231872 0.00181825 0.00138031 0.00101618 0.000759761 0.000564748 0.000414571 0.000319097 0.000254464 0.000235282 0.00021162 0.000187168 0.000200879 0.000193374 0.000181929 0.000189704 0.000183473 0.000174634 0.000166023 0.000142196 8.62882e-05 4.86024e-05 -5.97351e-05 -0.000233131 -0.000451122 -0.000779415 -0.00115565 -0.00165155 -0.0022357 -0.00286668 -0.00350023 -0.00412149 -0.00459615 -0.00491967 -0.00506259 -0.00493358 -0.00460992 -0.00409977 -0.00350368 -0.00286544 -0.0022399 -0.00165557 -0.00117273 -0.000762303 -0.000450585 
-0.00023705 -4.03808e-05 4.57766e-05 0.000113027 0.00013596 0.000141229 0.000177608 0.000197829 0.000191128 0.00021721 0.000180933 0.000184501 0.00021865 0.000238283 0.000259823 0.000368993 0.00049174 0.000703941 0.00100937 0.00145968 0.00204493 0.0028186 0.00377967 0.00488959 0.00613684 0.00739281 0.00860316 0.00955675 0.0102021 0.0104296 0.0101963 0.00956022 0.0085961 0.00740792 0.00614079 0.00489409 0.00377779 0.00281166 0.00204622 0.0014365 0.00100362 0.00071121 0.000503048 0.000366677 0.000287096 0.000227757 0.000224779 0.000186587 0.000187815 0.000186803 0.000166702 0.000164592 0.00020821 0.000184446 0.000209954 0.000194713 0.000236462 0.000263331 0.000298784 0.000376845 0.000455111 0.000534529 0.000695163 0.000839191 0.00102258 0.00116358 0.00134736 0.00148962 0.00156983 0.00161037 0.00155627 0.00148842 0.00134177 0.00120129 0.00100888 0.000846198 0.000702333 0.000553757 0.000454662 0.000360971 0.000295947 0.000272554 0.000231529 0.000189922 0.000206878 0.00019665 0.000193074 0.000186043 0.000180411 0.000190159 0.000176412 0.000182856 0.000178281 0.000190949 0.0001381 0.000132004 0.00010783 4.74185e-05 -4.15832e-05 -0.000171443 -0.000330454 -0.000540028 -0.000804412 -0.00113052 -0.00144943 -0.00180086 -0.00213832 -0.00238383 -0.00258332 -0.00264085 -0.00257187 -0.0024027 -0.00213824 -0.00180437 -0.00145622 -0.00112423 -0.000795948 -0.000533671 -0.00033908 -0.000179896 -4.72923e-05 5.46963e-05 9.5574e-05 0.000124944 0.00015502 0.000175389 0.000186381 0.000181311 0.000189797 0.000188143 0.000182446 0.000188875 0.000186693 0.000184426 0.000179515 0.000204562 0.0002133 0.000198102 0.000200057 0.00020566 0.000234836 0.000227897 0.000262456 0.000295127 0.000300769 0.000347804 0.000357144 0.000371403 0.000393348 0.000385883 0.000387537 0.000385179 0.000339817 0.000322767 0.000308393 0.000288236 0.000258883 0.000232054 0.000237852 0.000203715 0.000200446 0.000203341 0.000196414 0.000196367 0.000189833 0.0001833 0.000191557 0.000214519 0.000179604 0.000177143 0.000166512 0.000169387 0.00019144 0.00015865 0.00018243 0.000155188 0.000127113 9.17083e-05 5.30841e-05 -5.48901e-05 -0.000157576 -0.000265148 -0.000453434 -0.000662179 -0.000886835 -0.00108308 -0.00130606 -0.00148833 -0.00160242 -0.00163947 -0.00160462 -0.00148872 -0.00130723 -0.00109754 -0.000882483 -0.000659335 -0.000438215 -0.000271484 -0.000156134 -4.72134e-05 4.49037e-05 9.63659e-05 0.000132736 0.000167344 0.000170043 0.000171636 0.000176939 0.000179393 0.000199885 0.000199729 0.000194291 0.000201233 0.000198342 0.000194775 0.000230844 0.000245104 0.000316457 0.000409604 0.000557663 0.000751745 0.00100188 0.00131615 0.00174648 0.00223966 0.00276149 0.00333141 0.00383257 0.00425242 0.00452152 0.0046235 0.00454218 0.00425734 0.00383066 0.00333175 0.00277575 0.00222999 0.00175065 0.00132995 0.000983727 0.000735734 0.000549006 0.000404645 0.00031519 0.000252581 0.000232167 0.00021176 0.000188033 0.000202035 0.000194806 0.000182649 0.000189914 0.000186433 0.000176408 0.000167292 0.000144165 9.07338e-05 5.35626e-05 -5.03761e-05 -0.000217709 -0.00042844 -0.000744761 -0.00110564 -0.00158486 -0.00214828 -0.00275615 -0.00336918 -0.00396775 -0.00442568 -0.00473862 -0.00487598 -0.00475277 -0.0044395 -0.00394867 -0.00337136 -0.00275777 -0.00215186 -0.00158985 -0.00112356 -0.000728404 -0.000427073 
-0.000225575 -3.46525e-05 4.94347e-05 0.000115529 0.000138651 0.000143473 0.000178491 0.000199576 0.000191818 0.000216662 0.000180595 0.000185236 0.00021727 0.000238772 0.000256436 0.000364676 0.000483659 0.000688945 0.000987085 0.00142335 0.00199271 0.00274348 0.00367619 0.00475325 0.00596471 0.00718407 0.00835985 0.00928397 0.00991134 0.0101334 0.00990541 0.00928788 0.00835107 0.00720057 0.00596862 0.004757 0.00367274 0.00273589 0.00199312 0.00140231 0.000980997 0.000695846 0.000494981 0.00036139 0.000285154 0.000227331 0.000223944 0.000188344 0.000188152 0.000186673 0.000169269 0.000166651 0.000210168 0.000188322 0.000216929 0.000207773 0.000258844 0.0002996 0.000357017 0.000465317 0.000584753 0.000719145 0.000946983 0.00117016 0.00143874 0.00166796 0.00193376 0.0021452 0.0022689 0.00232534 0.00225604 0.00214338 0.00192896 0.00170567 0.00142563 0.00117463 0.00095466 0.000739346 0.000585638 0.000449412 0.000354819 0.000308868 0.000254175 0.000202838 0.000212855 0.000200137 0.000194558 0.000188117 0.000181711 0.000191162 0.000176249 0.000182415 0.000177659 0.00018908 0.000134611 0.000124203 9.41288e-05 2.22759e-05 -8.09748e-05 -0.000234388 -0.000422058 -0.000671526 -0.000982958 -0.00136406 -0.00174534 -0.00215846 -0.00255619 -0.00284794 -0.00308019 -0.00314795 -0.00306816 -0.00286756 -0.00255451 -0.00216211 -0.00175051 -0.0013573 -0.000975174 -0.000665053 -0.000429031 -0.000241552 -8.84707e-05 2.93823e-05 8.16377e-05 0.000118008 0.000152045 0.000173924 0.000187175 0.000183182 0.000190857 0.000188824 0.000183394 0.000188865 0.000188034 0.000184044 0.000181429 0.000205144 0.00021444 0.000201584 0.000204563 0.000212065 0.000244595 0.000240532 0.00028227 0.000317894 0.000331742 0.000384667 0.000398827 0.000418286 0.000440751 0.000436949 0.00043821 0.000431424 0.000381312 0.00035889 0.000338272 0.000311493 0.000277488 0.000246778 0.000248863 0.000211178 0.000205874 0.000207675 0.000198697 0.000196651 0.000191041 0.000183393 0.000192962 0.000213888 0.000181046 0.000177379 0.000167695 0.000170092 0.000191682 0.000160012 0.000183198 0.00015647 0.000129381 9.40967e-05 5.65944e-05 -4.93317e-05 -0.000150213 -0.000255731 -0.000440429 -0.000644521 -0.000865519 -0.00105682 -0.00127607 -0.00145428 -0.00156576 -0.00160256 -0.00156937 -0.00145415 -0.00127728 -0.00107157 -0.000859376 -0.000642385 -0.000425214 -0.000262673 -0.00014886 -4.18083e-05 4.93749e-05 9.79516e-05 0.000134156 0.000167145 0.000171165 0.00017191 0.000177232 0.00017915 0.000200822 0.000200343 0.000194223 0.000202437 0.00019903 0.000195159 0.000229159 0.000245326 0.000314748 0.000404783 0.000549886 0.000740514 0.000984507 0.00129141 0.00171183 0.00219445 0.00270465 0.00326219 0.00375238 0.00416264 0.0044258 0.0045264 0.00444618 0.00416701 0.00374877 0.00326258 0.00271749 0.00218501 0.00171634 0.00130421 0.000967805 0.00072337 0.000540965 0.00039947 0.000313499 0.000251838 0.000230159 0.00021191 0.000188694 0.000202908 0.000195858 0.000183254 0.000189988 0.000188594 0.000177722 0.00016811 0.000145367 9.36965e-05 5.65343e-05 -4.44506e-05 -0.000207878 -0.000414206 -0.000722718 -0.00107355 -0.00154229 -0.00209245 -0.0026856 -0.00328586 -0.00386992 -0.00431728 -0.00462373 -0.00475724 -0.00463793 -0.00433116 -0.00385279 -0.00328714 -0.00268938 -0.00209558 -0.00154801 -0.00109224 -0.000706802 -0.000412061 
-0.000211674 -2.75507e-05 5.40663e-05 0.000118655 0.000141849 0.000146174 0.000179628 0.000201613 0.000192702 0.000216187 0.000180404 0.000186199 0.000215906 0.000239383 0.000252968 0.000360042 0.000474832 0.000672437 0.000962442 0.00138312 0.00193479 0.0026602 0.00356138 0.004602 0.00577371 0.00695236 0.00808972 0.00898127 0.00958853 0.00980462 0.0095825 0.00898557 0.00807914 0.00697036 0.00577758 0.00460496 0.00355627 0.00265193 0.00193428 0.00136444 0.000956014 0.000678906 0.000486102 0.000355681 0.000283075 0.000227022 0.000223168 0.000190427 0.000188701 0.000186678 0.000172273 0.000169092 0.000212393 0.0001927 0.000224439 0.000221853 0.000282823 0.000338287 0.000419137 0.000559594 0.000722826 0.000915804 0.00121505 0.00152245 0.00188165 0.00220486 0.00255784 0.00284287 0.00301286 0.00308617 0.00300079 0.00284044 0.00255392 0.00224245 0.0018692 0.0015242 0.00122324 0.000937029 0.000725107 0.000543707 0.000417655 0.0003476 0.000278457 0.000216811 0.00021938 0.000204038 0.00019632 0.000190502 0.000183311 0.000192382 0.00017627 0.000182107 0.000177179 0.000187286 0.000131214 0.00011619 7.99184e-05 -3.93474e-06 -0.000122083 -0.000300228 -0.000517972 -0.000809291 -0.00117007 -0.00160885 -0.00205558 -0.00253341 -0.0029943 -0.0033346 -0.0036012 -0.00367968 -0.00358855 -0.00335498 -0.00299101 -0.00253718 -0.00205905 -0.00160157 -0.00116309 -0.000802732 -0.000523128 -0.000306003 -0.000131477 2.99158e-06 6.72324e-05 0.000110994 0.000149076 0.000172561 0.000188178 0.000185315 0.000192143 0.000189681 0.000184606 0.000189052 0.000189662 0.00018382 0.000183735 0.000206055 0.000216062 0.000205924 0.000210275 0.000220331 0.000256944 0.000256719 0.000306968 0.000346761 0.000370646 0.000431024 0.000451462 0.000477406 0.000501041 0.000501391 0.000501952 0.000489839 0.000433777 0.000404469 0.00037595 0.000340984 0.00030094 0.000265186 0.000262522 0.000220505 0.000212598 0.000212918 0.000201625 0.000197271 0.000192585 0.000183708 0.000194592 0.000213307 0.000182794 0.000177797 0.000169207 0.000171034 0.000192135 0.000161743 0.000184288 0.000158345 0.000132555 9.77935e-05 6.20366e-05 -4.08349e-05 -0.000138657 -0.000240644 -0.000419644 -0.000616673 -0.000831399 -0.00101512 -0.00122816 -0.00140022 -0.00150768 -0.00154381 -0.00151273 -0.00139954 -0.00122942 -0.00103019 -0.000823324 -0.000615306 -0.000404486 -0.000248233 -0.000137396 -3.34784e-05 5.58444e-05 0.000100744 0.000136399 0.000167331 0.000172732 0.000172458 0.000177776 0.000179065 0.000201965 0.000201126 0.000194308 0.000203864 0.000199848 0.000195599 0.00022716 0.000245203 0.000312077 0.000398019 0.000538871 0.000724294 0.000959597 0.0012561 0.00166265 0.0021301 0.00262361 0.00316356 0.00363805 0.00403469 0.00428933 0.00438763 0.00430937 0.00403847 0.00363261 0.00316402 0.00263495 0.00212091 0.00166748 0.00126778 0.000944626 0.000706008 0.000529668 0.000392359 0.000310875 0.000250642 0.000227828 0.000212116 0.000189521 0.000203961 0.000197124 0.000184027 0.00019021 0.000191099 0.000179295 0.000169213 0.000146989 9.73455e-05 6.03889e-05 -3.71178e-05 -0.000195792 -0.000396617 -0.000695706 -0.00103453 -0.00149037 -0.00202443 -0.00259965 -0.0031841 -0.00375051 -0.00418493 -0.00448334 -0.0046123 -0.00449758 -0.00419884 -0.00373554 -0.00318435 -0.00260574 -0.00202704 -0.00149687 -0.00105395 -0.000680369 -0.000393704 
-0.00019437 -1.87835e-05 5.95588e-05 0.000122238 0.000145508 0.000149149 0.000180763 0.000203826 0.000193578 0.000215258 0.000179814 0.000186985 0.000213905 0.00023998 0.000248457 0.000354409 0.00046439 0.000652849 0.000933639 0.00133608 0.00186731 0.0025632 0.00342768 0.00442586 0.00555136 0.00668268 0.00777554 0.00862904 0.00921295 0.00942222 0.00920677 0.00863382 0.00776264 0.00670267 0.00555528 0.00442782 0.00342044 0.00255405 0.00186565 0.00132029 0.000926792 0.000658729 0.000475599 0.000348654 0.000280332 0.000226382 0.000222021 0.00019265 0.000189031 0.000186299 0.000175643 0.000171711 0.000214813 0.000197722 0.000233382 0.000238828 0.000312209 0.00038572 0.000495688 0.000675938 0.000893252 0.00115859 0.00154636 0.00195785 0.00242919 0.0028686 0.00332944 0.00370554 0.00393281 0.0040269 0.00392161 0.0037024 0.00332659 0.00290617 0.00241751 0.00195614 0.00155521 0.00118122 0.000897292 0.000660018 0.000495001 0.000395199 0.000308165 0.000233588 0.000227095 0.000208555 0.000198099 0.000193088 0.000184882 0.000193546 0.000175854 0.00018125 0.000176037 0.000184456 0.000126067 0.000104896 6.03115e-05 -3.95679e-05 -0.000177882 -0.000389141 -0.000647356 -0.000994702 -0.00142187 -0.00193834 -0.00247284 -0.00303761 -0.00358332 -0.00398897 -0.00430173 -0.00439472 -0.00428825 -0.00401045 -0.00357806 -0.00304174 -0.00247415 -0.00193028 -0.00141595 -0.000988097 -0.000650243 -0.00039321 -0.000189677 -3.28948e-05 4.73491e-05 0.000100967 0.000144542 0.000170306 0.000188949 0.000187479 0.000193409 0.000190385 0.000185784 0.00018895 0.000191421 0.000183237 0.000186421 0.000207187 0.000218388 0.000211999 0.000218721 0.00023281 0.000275656 0.000281732 0.000344604 0.000391806 0.000430509 0.0005029 0.000533434 0.000569346 0.000595731 0.000601736 0.000600973 0.000580954 0.000515494 0.000475253 0.000434421 0.000386755 0.000336925 0.000293031 0.00028289 0.000234278 0.000222163 0.000220213 0.000205508 0.000197981 0.000194318 0.000183783 0.000196265 0.000212283 0.000184645 0.000177949 0.000170668 0.00017175 0.000192297 0.000163434 0.000185162 0.000160082 0.000135735 0.00010118 6.7289e-05 -3.25824e-05 -0.000127515 -0.000226197 -0.000399596 -0.00058965 -0.000798438 -0.00097457 -0.00118176 -0.00134771 -0.00145105 -0.00148671 -0.00145789 -0.00134624 -0.00118314 -0.000990092 -0.000787879 -0.000589229 -0.000384529 -0.0002347 -0.000126358 -2.5441e-05 6.22889e-05 0.000103068 0.000138352 0.000166959 0.000174162 0.00017259 0.000178025 0.00017853 0.000202996 0.000201763 0.000194144 0.000205337 0.0002005 0.000195803 0.000224376 0.000244824 0.000308621 0.000389658 0.000525488 0.000704834 0.000929752 0.0012139 0.00160403 0.00205358 0.0025273 0.00304644 0.00350235 0.00388276 0.00412739 0.00422304 0.004147 0.00388586 0.00349465 0.00304704 0.0025368 0.00204461 0.00160933 0.00122422 0.000916989 0.000685021 0.000515903 0.000383476 0.000307517 0.000249007 0.000224616 0.000212094 0.000190183 0.000204925 0.000198349 0.000184538 0.000190166 0.000193898 0.000180888 0.00017021 0.000148632 0.000101557 6.49731e-05 -2.8082e-05 -0.000180755 -0.000374438 -0.000661615 -0.000985108 -0.00142448 -0.00193791 -0.00249021 -0.00305442 -0.00359836 -0.00401622 -0.00430422 -0.00442752 -0.00431864 -0.00403019 -0.00358611 -0.00305343 -0.00249931 -0.00193988 -0.00143194 -0.00100546 -0.000646987 -0.000370575 
-0.000181334 -1.23252e-05 6.36835e-05 0.000125119 0.000148707 0.000151807 0.000181831 0.000206002 0.000194442 0.000214649 0.000179408 0.000187903 0.000212281 0.000240666 0.000244391 0.000349374 0.000454936 0.000635222 0.000907511 0.00129338 0.00180595 0.00247486 0.00330595 0.00426543 0.0053488 0.00643704 0.00748925 0.00830795 0.00887072 0.00907374 0.00886439 0.00831332 0.00747422 0.00645878 0.00535268 0.00426648 0.00329678 0.0024649 0.00180319 0.00128016 0.000900233 0.00064066 0.000466196 0.000342443 0.000278111 0.000225922 0.000221062 0.000194818 0.000189455 0.000186155 0.000178761 0.000174201 0.000217264 0.000202477 0.000242053 0.000254948 0.000339878 0.000430567 0.000567624 0.000785266 0.00105343 0.00138661 0.00185748 0.00236671 0.00294333 0.00349164 0.00405384 0.00451541 0.00479639 0.00491015 0.00478602 0.00451148 0.00405196 0.00352927 0.00293234 0.00236191 0.00186696 0.00141046 0.00105913 0.00076926 0.000567724 0.000440107 0.000336142 0.000249519 0.000234509 0.000212872 0.000199945 0.00019565 0.000186456 0.0001948 0.000175651 0.000180725 0.000175275 0.00018218 0.000121692 9.52387e-05 4.33833e-05 -7.06712e-05 -0.000226635 -0.000467047 -0.000760724 -0.00115743 -0.00164285 -0.0022274 -0.00283904 -0.0034802 -0.00410052 -0.00456336 -0.0049167 -0.00502234 -0.00490249 -0.00458578 -0.00409327 -0.00348449 -0.00283838 -0.00221878 -0.00163772 -0.00115067 -0.00076161 -0.000469545 -0.000240652 -6.41976e-05 3.00838e-05 9.23368e-05 0.000140878 0.000168503 0.000189945 0.000189799 0.000194748 0.000191258 0.000186937 0.000188951 0.00019308 0.000182794 0.00018876 0.000207941 0.000219808 0.00021626 0.000224224 0.00024057 0.000287524 0.000297026 0.000368698 0.000419448 0.000468075 0.000547647 0.000583986 0.000626201 0.000653176 0.000663649 0.000662458 0.000637052 0.0005658 0.000519055 0.000470688 0.000414965 0.000359494 0.000310899 0.000296322 0.000243348 0.0002288 0.00022554 0.000208293 0.00019834 0.000195807 0.000183909 0.000198022 0.000211573 0.000186406 0.000178242 0.000172077 0.000172602 0.000192592 0.000165011 0.000186002 0.000161405 0.000138053 0.000103346 7.03833e-05 -2.76891e-05 -0.000121323 -0.000218584 -0.000389091 -0.000575151 -0.000781328 -0.000953256 -0.00115772 -0.00132016 -0.00142128 -0.00145697 -0.00142986 -0.00131805 -0.00115911 -0.000969147 -0.000768577 -0.000575578 -0.000373997 -0.000227845 -0.000120266 -2.07406e-05 6.65633e-05 0.000104254 0.000139643 0.000166509 0.0001754 0.000172856 0.000178346 0.000178231 0.000204195 0.000202563 0.000194079 0.000206853 0.000201395 0.000196331 0.000222471 0.00024531 0.000306946 0.000384484 0.000517131 0.000692861 0.000911059 0.00118718 0.00156648 0.00200466 0.00246582 0.00297155 0.0034156 0.0037856 0.00402382 0.00411808 0.00404313 0.00378804 0.00340582 0.00297219 0.00247358 0.00199596 0.00157224 0.00119629 0.000900021 0.000671603 0.000507216 0.000377836 0.000305851 0.00024833 0.000222298 0.000212348 0.000191008 0.000206038 0.000199673 0.000185299 0.000190283 0.000196562 0.0001825 0.000171183 0.000149991 0.000104982 6.82722e-05 -2.13972e-05 -0.000169699 -0.00035854 -0.000636914 -0.000949002 -0.00137673 -0.00187531 -0.00241108 -0.0029612 -0.00348886 -0.00389491 -0.00417577 -0.00429465 -0.00419024 -0.00390899 -0.00347896 -0.00295914 -0.00242285 -0.00187673 -0.0013851 -0.00097034 -0.000622772 -0.000353683 
-0.000165569 -4.41676e-06 6.86865e-05 0.000128356 0.000152011 0.000154521 0.0001828 0.000207961 0.00019514 0.000213733 0.00017883 0.0001886 0.000210375 0.00024105 0.000240142 0.000343879 0.000444788 0.000616417 0.000879712 0.00124816 0.00174103 0.00238164 0.00317755 0.00409634 0.00513538 0.00617819 0.00718761 0.00796994 0.00851027 0.00870665 0.00850381 0.00797573 0.00717052 0.00620168 0.00513926 0.0040965 0.00316647 0.0023709 0.00173723 0.00123761 0.000872059 0.000621336 0.000455975 0.000335694 0.000275418 0.00022523 0.000219882 0.000196817 0.000189719 0.000185785 0.000181817 0.000176601 0.000219414 0.000207058 0.000250141 0.000270429 0.00036658 0.000473765 0.000637322 0.0008912 0.00120869 0.00160788 0.0021593 0.00276344 0.00344219 0.00409646 0.00475691 0.00530144 0.00563463 0.00576734 0.00562511 0.00529687 0.00475602 0.00413398 0.00343195 0.00275551 0.00216937 0.00163294 0.00121598 0.000875209 0.000638188 0.000483403 0.000363171 0.000264857 0.000241498 0.000216932 0.000201553 0.000197975 0.000187891 0.000195817 0.000175279 0.000179962 0.000174287 0.000179671 0.000117259 8.53758e-05 2.62281e-05 -0.0001019 -0.000275451 -0.000544901 -0.000874002 -0.00131985 -0.00186336 -0.00251586 -0.00320443 -0.00392172 -0.00461632 -0.00513634 -0.00553009 -0.00564839 -0.00551516 -0.00515969 -0.00460727 -0.00392624 -0.00320182 -0.00250658 -0.0018592 -0.00131303 -0.000872809 -0.000545834 -0.000291621 -9.56447e-05 1.27041e-05 8.36327e-05 0.000136933 0.000166506 0.000190662 0.000191792 0.000195849 0.000191855 0.000187969 0.000188817 0.000194609 0.000182199 0.000191108 0.000208777 0.000221604 0.000221338 0.000231189 0.000250893 0.000303052 0.000317695 0.000400032 0.000456628 0.000517854 0.000607248 0.000651883 0.000702421 0.000731389 0.000746821 0.000744588 0.000712491 0.000633488 0.000577729 0.000519125 0.000452853 0.000389381 0.000334117 0.000313334 0.000254848 0.000236854 0.00023168 0.000211562 0.000198827 0.000197278 0.00018393 0.000199495 0.000210552 0.00018805 0.000178351 0.000173416 0.000173277 0.00019273 0.000166596 0.000186862 0.000163163 0.000141283 0.000107084 7.61349e-05 -1.85701e-05 -0.000108801 -0.000202141 -0.000366283 -0.000544512 -0.0007437 -0.000907169 -0.00110474 -0.00126035 -0.00135693 -0.00139191 -0.00136713 -0.00125757 -0.00110623 -0.000923442 -0.000728725 -0.000545808 -0.000351285 -0.000212178 -0.000107847 -1.1813e-05 7.34403e-05 0.00010699 0.000141783 0.00016633 0.000176804 0.000173057 0.000178587 0.000177742 0.000205103 0.000203083 0.000193848 0.000208125 0.000201935 0.000196437 0.000219779 0.000244733 0.000303397 0.000376184 0.000503856 0.000673476 0.000881484 0.00114543 0.00150854 0.00192897 0.00237059 0.00285573 0.00328139 0.00363541 0.00386369 0.00395524 0.0038826 0.00363721 0.00326954 0.00285648 0.00237664 0.00192053 0.00151469 0.00115328 0.000872469 0.000650897 0.000493606 0.000369113 0.000302381 0.000246563 0.000219221 0.000212218 0.000191572 0.000206862 0.000200738 0.000185762 0.000190186 0.000199058 0.000183917 0.000172067 0.000151484 0.000108813 7.2407e-05 -1.32254e-05 -0.000156017 -0.000338382 -0.000605841 -0.000903977 -0.00131668 -0.00179647 -0.00231136 -0.00284302 -0.00335014 -0.00374112 -0.00401253 -0.00412619 -0.00402711 -0.00375523 -0.00334273 -0.00283979 -0.00232581 -0.0017973 -0.00132592 -0.000926141 -0.000592376 -0.00033267 
-0.000152964 2.05024e-06 7.28599e-05 0.000131187 0.000154896 0.000156967 0.00018381 0.000209753 0.000195921 0.000213296 0.000178698 0.000189493 0.000209141 0.00024151 0.000236898 0.000339412 0.000436392 0.000600869 0.000856359 0.00121017 0.00168625 0.00230295 0.00306915 0.00395357 0.00495505 0.00595949 0.00693259 0.00768424 0.0082056 0.00839623 0.00819907 0.00769042 0.00691391 0.00598426 0.00495888 0.00395302 0.00305661 0.00229161 0.00168164 0.00120171 0.000848387 0.000605414 0.000447558 0.000330326 0.000273436 0.000224889 0.000219121 0.000198655 0.000190204 0.000185818 0.000184487 0.00017878 0.000221374 0.00021092 0.00025686 0.000282987 0.000387867 0.000508191 0.000692488 0.000974907 0.00133131 0.00178255 0.00239736 0.00307632 0.00383554 0.00457326 0.00531115 0.00592103 0.00629529 0.00644302 0.0062865 0.00591584 0.00531103 0.00461065 0.00382589 0.00306597 0.00240788 0.00180845 0.00133985 0.000958929 0.000693998 0.000517828 0.000384721 0.000277325 0.000247294 0.000220391 0.000203121 0.000200125 0.000189315 0.000196918 0.00017534 0.000179744 0.000173929 0.000178132 0.00011439 7.85511e-05 1.40608e-05 -0.000124421 -0.000310766 -0.000601536 -0.00095647 -0.00143841 -0.00202438 -0.00272641 -0.00347141 -0.00424435 -0.00499337 -0.00555513 -0.00597841 -0.00610591 -0.00596297 -0.0055791 -0.00498282 -0.00424895 -0.00346727 -0.00271672 -0.00202086 -0.0014315 -0.000953691 -0.000601211 -0.00032863 -0.000118346 3.71015e-07 7.76593e-05 0.00013449 0.000165381 0.000191598 0.000193751 0.000197005 0.000192661 0.000189042 0.000188976 0.000196033 0.000182037 0.000193125 0.000209505 0.000222868 0.000224929 0.000235838 0.000257488 0.000312937 0.000330584 0.000419905 0.000479586 0.000548998 0.000644215 0.000693795 0.000749545 0.000779151 0.000798143 0.000795453 0.000758968 0.000675295 0.000614087 0.000549183 0.000476311 0.000408135 0.000348946 0.000324395 0.000262446 0.000242406 0.000236054 0.000213969 0.000199303 0.000198623 0.000184213 0.000200987 0.000210043 0.000189598 0.000178767 0.000174786 0.000174159 0.000193121 0.000168145 0.000187758 0.000164651 0.000143789 0.000109876 8.01028e-05 -1.22673e-05 -0.000100423 -0.000191411 -0.000351502 -0.00052456 -0.000719464 -0.000877526 -0.00107077 -0.00122186 -0.00131558 -0.00135017 -0.00132711 -0.00121861 -0.00107227 -0.000894029 -0.000702803 -0.000526533 -0.00033654 -0.000201997 -9.95537e-05 -5.68546e-06 7.83574e-05 0.000108976 0.000143481 0.000166362 0.000178088 0.000173555 0.000179061 0.000177709 0.00020613 0.000203791 0.000193915 0.000209376 0.000202713 0.000196947 0.000218217 0.000244929 0.000301552 0.000371101 0.000495519 0.000661267 0.000862675 0.00111871 0.00147111 0.00188001 0.002309 0.00278066 0.00319441 0.00353808 0.00375988 0.00384979 0.00377847 0.00353933 0.00318096 0.00278147 0.00231368 0.00187181 0.00147753 0.00112554 0.000855097 0.000637669 0.000485053 0.000363719 0.000300544 0.000245806 0.000217354 0.000212453 0.000192351 0.000207809 0.00020188 0.000186526 0.000190397 0.000201274 0.000185359 0.00017309 0.000152958 0.000112146 7.59091e-05 -6.54605e-06 -0.000145014 -0.000322409 -0.000581291 -0.000868552 -0.00126951 -0.00173465 -0.0022333 -0.00275053 -0.00324167 -0.00362089 -0.003885 -0.00399449 -0.00389954 -0.00363502 -0.00323616 -0.00274644 -0.00224976 -0.00173503 -0.00127943 -0.00089137 -0.000568302 -0.000315974 
-0.000137322 1.00844e-05 7.80632e-05 0.000134617 0.000158321 0.000159826 0.000184991 0.000211856 0.000196813 0.000212715 0.000178406 0.000190421 0.000207615 0.000242157 0.000233256 0.000334645 0.0004273 0.000583762 0.000830988 0.0011687 0.00162664 0.00221723 0.00295091 0.0037978 0.0047584 0.00572089 0.00665448 0.00737257 0.0078732 0.00805776 0.00786656 0.00737912 0.00663389 0.00574729 0.00476221 0.00379641 0.00293659 0.00220517 0.00162104 0.00116276 0.00082268 0.000587824 0.000438366 0.000324352 0.000271212 0.000224544 0.000218278 0.00020081 0.000190728 0.000185721 0.000187649 0.000181324 0.000223662 0.000215529 0.000264689 0.000297795 0.000413222 0.000549039 0.000758256 0.00107475 0.00147753 0.00199085 0.00268134 0.00344952 0.00430476 0.00514214 0.00597236 0.00666023 0.00708357 0.00724912 0.00707561 0.00665448 0.0059732 0.00517941 0.00429583 0.00343626 0.00269241 0.00201791 0.00148754 0.00105881 0.000760511 0.000558772 0.000410405 0.000292004 0.000254128 0.000224468 0.000204903 0.000202565 0.000190954 0.00019813 0.000175255 0.000179271 0.000173261 0.000176056 0.000110538 6.95855e-05 -1.73125e-06 -0.000153366 -0.000356144 -0.000674074 -0.00106215 -0.00159005 -0.00223032 -0.00299593 -0.00381285 -0.00465699 -0.00547544 -0.00609069 -0.00655176 -0.00669112 -0.00653564 -0.00611553 -0.00546326 -0.0046618 -0.00380692 -0.00298561 -0.00222774 -0.00158307 -0.0010574 -0.000672291 -0.000376026 -0.000147478 -1.56134e-05 6.98091e-05 0.000131034 0.00016376 0.000192533 0.000195866 0.000198284 0.000193454 0.000190279 0.000189109 0.000197734 0.000181692 0.000195557 0.000210473 0.000224704 0.000229757 0.000242311 0.000267012 0.000327121 0.000349323 0.000448279 0.000513051 0.000593912 0.000697899 0.000754825 0.000818061 0.000849308 0.000872877 0.00086926 0.000826731 0.000736119 0.000666868 0.000592792 0.000510487 0.000435199 0.00037008 0.000339964 0.000273038 0.000249917 0.000241868 0.000217213 0.000199971 0.000200228 0.00018447 0.000202602 0.00020933 0.000191412 0.000179112 0.000176334 0.000175049 0.000193535 0.000169953 0.000188917 0.000166786 0.000147483 0.000114299 8.68041e-05 -1.85297e-06 -8.60286e-05 -0.000172383 -0.000325242 -0.000489516 -0.00067628 -0.0008248 -0.00101005 -0.00115351 -0.00124214 -0.00127579 -0.00125514 -0.00114965 -0.00101167 -0.000841679 -0.00065752 -0.000492327 -0.000310363 -0.000183701 -8.52522e-05 4.57139e-06 8.61062e-05 0.00011245 0.000146135 0.000166633 0.000179802 0.000174052 0.000179598 0.000177509 0.000207232 0.000204533 0.000193961 0.000210832 0.000203452 0.000197234 0.000215763 0.00024439 0.000298008 0.000362728 0.000481969 0.000641273 0.000832119 0.00107551 0.00141119 0.00180161 0.00221022 0.00266054 0.00305515 0.00338224 0.00359367 0.00368066 0.00361188 0.00338288 0.00303973 0.00266145 0.00221333 0.00179365 0.00141796 0.00108117 0.000826515 0.000616483 0.000471179 0.000354976 0.000297094 0.000244131 0.000214574 0.000212544 0.000193123 0.000208827 0.000203138 0.000187197 0.000190554 0.000203892 0.000186944 0.000174209 0.000154702 0.000116113 8.02722e-05 1.72849e-06 -0.000131332 -0.000302323 -0.000550529 -0.000824159 -0.00121031 -0.00165705 -0.00213521 -0.00263423 -0.00310521 -0.0034696 -0.00372437 -0.00382884 -0.00373906 -0.00348376 -0.00310206 -0.002629 -0.00215418 -0.00165687 -0.00122109 -0.000847729 -0.000538216 -0.000295127 
-0.000124358 1.67457e-05 8.23899e-05 0.000137629 0.00016144 0.000162502 0.00018615 0.000213866 0.000197751 0.000212352 0.000178395 0.000191492 0.000206411 0.000242703 0.000229813 0.000329802 0.000418173 0.000566872 0.000805477 0.00112719 0.0015667 0.0021311 0.00283231 0.00364158 0.00456101 0.00548153 0.00637531 0.00705984 0.00753974 0.00771793 0.00753302 0.00706685 0.00635304 0.00550926 0.00456477 0.00363943 0.00281644 0.00211841 0.00156024 0.00112347 0.000796807 0.000570545 0.000429253 0.000318599 0.000269151 0.000224243 0.000217544 0.000202861 0.000191342 0.000185888 0.000190571 0.000183731 0.000225853 0.000219714 0.00027199 0.000311293 0.000435975 0.000585826 0.000817058 0.00116392 0.0016081 0.00217681 0.00293474 0.00378255 0.00472341 0.00564953 0.00656217 0.00731956 0.00778659 0.00796815 0.00777941 0.00731309 0.0065638 0.00568665 0.00471509 0.0037667 0.00294629 0.00220471 0.00161946 0.00114797 0.000819998 0.00059553 0.000433424 0.00030542 0.000260409 0.000228258 0.000206687 0.00020498 0.000192566 0.000199418 0.000175453 0.0001792 0.000173046 0.000174585 0.000107694 6.26677e-05 -1.41839e-05 -0.000176582 -0.000392605 -0.000732676 -0.00114749 -0.00171286 -0.00239717 -0.00321406 -0.00408954 -0.00499137 -0.00586631 -0.00652479 -0.00701647 -0.00716532 -0.00699984 -0.00655025 -0.00585246 -0.00499624 -0.00408197 -0.00320334 -0.00239522 -0.00170579 -0.00114108 -0.000729536 -0.000414289 -0.000170901 -2.82471e-05 6.37631e-05 0.000128694 0.000162746 0.000193671 0.000198108 0.000199637 0.000194458 0.00019152 0.000189391 0.000199335 0.000181681 0.000197816 0.000211384 0.000226164 0.000233715 0.000247402 0.000274124 0.000337767 0.000363177 0.000469572 0.000537656 0.000627202 0.000737348 0.000799591 0.000868374 0.000900305 0.000927648 0.000923575 0.000876365 0.000780796 0.000705733 0.00062494 0.000535581 0.000455279 0.00038597 0.000351863 0.000281265 0.000255983 0.000246647 0.000219871 0.0002006 0.000201789 0.000184903 0.000204341 0.000208917 0.000193152 0.000179691 0.000177893 0.000176121 0.000194052 0.000171677 0.000189913 0.000168294 0.000149919 0.000116874 9.02736e-05 3.68479e-06 -7.89294e-05 -0.000163556 -0.000313139 -0.000473052 -0.000656549 -0.00080063 -0.000982507 -0.00112212 -0.00120842 -0.00124186 -0.00122288 -0.00111778 -0.000984088 -0.00081772 -0.000636022 -0.000476562 -0.000298292 -0.000175432 -7.82476e-05 9.90036e-06 9.06138e-05 0.000114158 0.000147746 0.00016664 0.000181169 0.000174692 0.000180179 0.00017761 0.000208459 0.000205407 0.000194129 0.000212263 0.000204432 0.000197981 0.000214433 0.000245005 0.0002967 0.000358386 0.000474735 0.00063071 0.000815671 0.00105203 0.00137801 0.00175821 0.00215568 0.00259393 0.00297798 0.00329587 0.00350155 0.00358722 0.00351943 0.00329593 0.00296089 0.00259489 0.00215729 0.00175052 0.00138508 0.00105659 0.000811495 0.000604805 0.000463734 0.000350295 0.00029576 0.000243734 0.000212891 0.000212959 0.00019409 0.000209968 0.000204472 0.000188176 0.000190895 0.000206342 0.000188604 0.000175396 0.00015632 0.000119681 8.39067e-05 8.62184e-06 -0.000120052 -0.000286084 -0.000525559 -0.000788132 -0.00116244 -0.00159436 -0.00205609 -0.00254058 -0.0029954 -0.00334791 -0.00359539 -0.00369552 -0.00360996 -0.00336209 -0.00299422 -0.00253447 -0.00207716 -0.00159369 -0.00117392 -0.000812418 -0.000513708 -0.000278078 
-0.000107377 2.52925e-05 8.77567e-05 0.000141078 0.00016494 0.000165352 0.000187138 0.000215901 0.000198438 0.000211351 0.000177733 0.000192201 0.000204346 0.000243095 0.000225273 0.000324002 0.000407497 0.000547085 0.000776282 0.0010797 0.00149857 0.00203326 0.00269753 0.0034641 0.00433701 0.00520985 0.00605874 0.00670505 0.00716141 0.00733267 0.00715456 0.00671253 0.00603426 0.00523945 0.00434075 0.00346099 0.00267962 0.00201973 0.00149098 0.00107882 0.000767218 0.000550207 0.000418496 0.000311459 0.000266282 0.000223486 0.000216245 0.000204942 0.000191579 0.00018544 0.000193779 0.000186235 0.000228097 0.000224545 0.000280592 0.000327773 0.000464448 0.000631934 0.000891447 0.00127703 0.00177391 0.00241311 0.00325711 0.00420627 0.00525626 0.00629555 0.00731315 0.00815917 0.00868195 0.00888377 0.00867568 0.00815202 0.00731585 0.00633258 0.00524873 0.00418712 0.00326928 0.00244232 0.00178695 0.00126108 0.000895216 0.000641744 0.000462245 0.000321733 0.000267829 0.000232538 0.000208348 0.000207408 0.000194036 0.000200456 0.000175004 0.000178322 0.000171928 0.00017185 0.000102879 5.20506e-05 -3.25999e-05 -0.000210066 -0.000444926 -0.000816083 -0.00126882 -0.00188681 -0.00263332 -0.00352297 -0.0044808 -0.00546415 -0.00641861 -0.00713832 -0.00767326 -0.00783569 -0.00765586 -0.00716478 -0.00640285 -0.00546927 -0.00447117 -0.00351155 -0.00263238 -0.00187966 -0.00126022 -0.000811285 -0.000468927 -0.000204611 -4.69184e-05 5.43708e-05 0.000124421 0.000160547 0.000194384 0.000200176 0.000200765 0.000195047 0.000192559 0.000189188 0.000200918 0.000180978 0.000200224 0.000212154 0.0002279 0.000238845 0.000254415 0.000284503 0.000353416 0.000383956 0.000501291 0.000575106 0.000677512 0.00079758 0.000868106 0.000945333 0.000979077 0.00101161 0.00100654 0.000952481 0.000849094 0.00076495 0.000673834 0.000573774 0.00048545 0.00040947 0.000369113 0.000292895 0.000264146 0.000252919 0.000223162 0.000201002 0.000203261 0.000184852 0.000205855 0.000207789 0.000194849 0.000179752 0.000179264 0.000176777 0.000194136 0.000173291 0.000190719 0.000170021 0.000153147 0.000120513 9.58865e-05 1.26226e-05 -6.67019e-05 -0.000147568 -0.000290921 -0.000443123 -0.000619873 -0.000755645 -0.000930867 -0.00106375 -0.00114557 -0.00117838 -0.00116176 -0.00105868 -0.000932545 -0.000773143 -0.000596976 -0.000447563 -0.000276154 -0.000160288 -6.61193e-05 1.86337e-05 9.74232e-05 0.000116737 0.000149798 0.000166308 0.000182555 0.00017481 0.000180381 0.000177033 0.000209375 0.000205923 0.00019384 0.000213574 0.000204966 0.00019805 0.000211514 0.000244349 0.000292888 0.000349542 0.000460602 0.000610112 0.000784263 0.00100769 0.00131651 0.00167789 0.00205462 0.00247106 0.00283561 0.00313655 0.0033317 0.0034145 0.00334915 0.00313593 0.0028163 0.00247213 0.00205444 0.00167047 0.001324 0.00101092 0.000782244 0.000582798 0.000449246 0.000340989 0.000292037 0.00024182 0.000209575 0.000212778 0.000194635 0.000210788 0.000205565 0.000188613 0.000190746 0.000208959 0.000190068 0.000176306 0.000157877 0.000123757 8.83492e-05 1.74382e-05 -0.000105278 -0.000264287 -0.000491958 -0.000739437 -0.00109744 -0.00150901 -0.00194813 -0.0024126 -0.00284519 -0.00318134 -0.00341856 -0.00351309 -0.00343326 -0.00319557 -0.00284666 -0.00240525 -0.00197207 -0.00150773 -0.00110988 -0.000764606 -0.000480816 -0.000255363 
-9.90987e-05 2.93867e-05 9.03868e-05 0.000142986 0.000167083 0.000167196 0.000187881 0.000217373 0.000199077 0.000210993 0.000177685 0.000192966 0.000203372 0.000243353 0.000222406 0.00031994 0.000400061 0.000533517 0.000755703 0.00104636 0.00145038 0.00196406 0.00260239 0.00333883 0.00417865 0.00501792 0.00583489 0.00645433 0.00689413 0.00706016 0.0068872 0.00646222 0.00580912 0.00504855 0.00418236 0.00333514 0.00258331 0.00195005 0.00144212 0.00104713 0.000746314 0.000536335 0.000411141 0.000306792 0.000264542 0.000223107 0.000215566 0.000206427 0.000191956 0.000185523 0.000195886 0.000187945 0.000229704 0.000227619 0.00028624 0.000338149 0.000481931 0.000660334 0.000936733 0.00134577 0.0018746 0.00255652 0.00345261 0.00446324 0.00557935 0.00668699 0.00776826 0.00866794 0.00922438 0.00943864 0.00921872 0.00866008 0.00777154 0.0067239 0.0055722 0.00444208 0.00346514 0.00258628 0.00188873 0.00132976 0.000941044 0.000670074 0.00047989 0.000332077 0.000272626 0.000235392 0.000209664 0.000209214 0.00019514 0.000201379 0.00017512 0.000178291 0.000171779 0.000170755 0.000100748 4.70374e-05 -4.15721e-05 -0.000226914 -0.000471319 -0.000858586 -0.00133063 -0.00197582 -0.00275426 -0.00368091 -0.00468128 -0.00570637 -0.00670189 -0.00745278 -0.00800992 -0.00817911 -0.00799216 -0.00747967 -0.0066847 -0.00571148 -0.00467037 -0.00366924 -0.00275371 -0.0019686 -0.00132079 -0.000852722 -0.000496732 -0.000221633 -5.60772e-05 4.99589e-05 0.000122815 0.000159819 0.00019524 0.000201904 0.000201781 0.000195824 0.0001934 0.000189353 0.000202044 0.00018103 0.000201924 0.00021295 0.000229129 0.000242151 0.000258804 0.0002906 0.000362634 0.000396071 0.000519739 0.000596775 0.000706484 0.000831987 0.000907364 0.00098941 0.00102407 0.00105961 0.00105412 0.000996077 0.00088834 0.000798999 0.000702002 0.000595744 0.000502882 0.000423102 0.000379315 0.000299913 0.000269316 0.000256861 0.000225277 0.000201529 0.00020447 0.000185185 0.000207187 0.000207444 0.000196072 0.000180164 0.000180336 0.000177554 0.00019442 0.000174382 0.000191148 0.000170533 0.00015389 0.000120795 9.57916e-05 1.27265e-05 -6.74102e-05 -0.000149395 -0.000293466 -0.00044597 -0.000624223 -0.000760721 -0.000937238 -0.00107025 -0.00115249 -0.0011858 -0.00116985 -0.00106487 -0.000938754 -0.00077831 -0.000600029 -0.000450874 -0.000278719 -0.000162517 -6.68942e-05 1.85163e-05 9.81805e-05 0.000116323 0.000149971 0.000165765 0.000183197 0.000175145 0.000180647 0.000177066 0.000210313 0.000206552 0.000193869 0.000214588 0.000205715 0.0001987 0.000210815 0.000245246 0.00029275 0.000347818 0.000457645 0.000605987 0.000777562 0.000998001 0.00130233 0.00165945 0.00203162 0.00244276 0.00280285 0.0030999 0.00329261 0.00337512 0.00330986 0.00309882 0.00278232 0.00244382 0.00203022 0.00165225 0.00131009 0.00100035 0.000776475 0.000577728 0.000446161 0.000338956 0.000291812 0.000241951 0.000208524 0.000213111 0.000195323 0.00021163 0.000206532 0.000189373 0.000190953 0.000210737 0.000191277 0.000177091 0.000158845 0.000126142 9.04852e-05 2.17221e-05 -9.8258e-05 -0.000254365 -0.000476489 -0.000716953 -0.00106774 -0.00147011 -0.00189903 -0.00235475 -0.00277731 -0.00310619 -0.00333911 -0.00343066 -0.00335359 -0.00312045 -0.0027802 -0.00234682 -0.00192452 -0.00146843 -0.00108069 -0.000742723 -0.000465607 -0.000244719 
-8.58089e-05 3.58383e-05 9.439e-05 0.000145558 0.000169846 0.000169438 0.000188502 0.000218973 0.000199436 0.00020995 0.000176908 0.000193439 0.000201364 0.00024345 0.000218072 0.000314409 0.000390066 0.000515366 0.000728852 0.00100292 0.00138807 0.00187467 0.0024794 0.00317695 0.00397438 0.00477027 0.00554626 0.00613088 0.00654931 0.00670895 0.00654225 0.00613926 0.00551854 0.00480248 0.00397802 0.0031724 0.00245853 0.00185992 0.00137878 0.00100616 0.000719092 0.000517757 0.000401131 0.000300144 0.000261807 0.000222188 0.000214153 0.000208069 0.000191961 0.00018498 0.000198478 0.000189963 0.000231537 0.000231713 0.000293847 0.000352797 0.000507248 0.000701634 0.00100326 0.00144705 0.00202323 0.00276838 0.00374168 0.0048433 0.00605732 0.00726644 0.00844194 0.00942114 0.0100276 0.0102601 0.0100228 0.00941259 0.00844616 0.00730328 0.00605089 0.00481925 0.00375477 0.00279924 0.00203888 0.00143103 0.00100835 0.000711397 0.000505532 0.000346575 0.000279104 0.000238995 0.000210984 0.000211202 0.000196256 0.000202135 0.000174567 0.000177405 0.000170702 0.000168253 9.64841e-05 3.78732e-05 -5.73908e-05 -0.000255669 -0.00051611 -0.000929966 -0.00143434 -0.00212459 -0.00295609 -0.00394476 -0.00501552 -0.00611023 -0.00717373 -0.00797679 -0.00857088 -0.00875161 -0.00855246 -0.0080045 -0.00715473 -0.00611546 -0.00500277 -0.00393258 -0.00295635 -0.00211723 -0.0014226 -0.000922621 -0.000543572 -0.000250573 -7.21635e-05 4.17961e-05 0.000119103 0.000157773 0.000195779 0.000203679 0.000202607 0.000196208 0.000194089 0.000188946 0.00020319 0.000180176 0.000203684 0.00021311 0.000229831 0.000245448 0.000263097 0.000296844 0.000372353 0.000408661 0.000539982 0.00061973 0.000738201 0.000869694 0.00094992 0.00103739 0.00107225 0.00111188 0.00110607 0.0010433 0.00093071 0.000835872 0.000732439 0.000619302 0.000521759 0.000438082 0.000390475 0.000307347 0.000274698 0.000261122 0.000227334 0.00020137 0.000205403 0.000184891 0.000208382 0.00020628 0.000197339 0.000180045 0.000181332 0.000178003 0.000194305 0.000175584 0.000191628 0.000171667 0.000156192 0.000123308 9.96372e-05 1.90849e-05 -5.88042e-05 -0.000138266 -0.000277913 -0.000424741 -0.00059842 -0.000728937 -0.000900828 -0.00102889 -0.00110795 -0.00114093 -0.00112691 -0.00102293 -0.000902372 -0.000746838 -0.000572192 -0.000430461 -0.000263181 -0.000152072 -5.83824e-05 2.46928e-05 0.00010315 0.000117893 0.000151292 0.00016517 0.000184131 0.000175087 0.000180621 0.000176408 0.000210991 0.000206851 0.000193378 0.000215558 0.000206087 0.000198688 0.000208316 0.000244852 0.000289908 0.000341058 0.000446951 0.000590607 0.000754137 0.0009649 0.00125625 0.00159942 0.00195623 0.00235106 0.00269665 0.00298109 0.00316595 0.00324649 0.00318286 0.00297937 0.00267416 0.00235215 0.00195318 0.0015925 0.00126441 0.000966087 0.000754781 0.000561096 0.000435175 0.000331805 0.000289 0.000240427 0.000205661 0.000212817 0.000195666 0.000212207 0.000207338 0.000189673 0.000190637 0.000212832 0.000192398 0.000177669 0.000159887 0.00012927 9.36637e-05 2.84107e-05 -8.68788e-05 -0.000237694 -0.000450461 -0.000678967 -0.00101714 -0.00140364 -0.00181493 -0.00225527 -0.00266044 -0.00297663 -0.00320175 -0.00328872 -0.00321626 -0.00299095 -0.0026656 -0.0022463 -0.0018429 -0.00140143 -0.00103095 -0.000705582 -0.000440116 -0.000227159 
-6.61959e-05 4.64362e-05 0.000101326 0.000150021 0.000173849 0.000172829 0.000190006 0.000221161 0.000200498 0.000209677 0.000177051 0.000194721 0.000200196 0.000244161 0.000215029 0.000309858 0.000381133 0.000498393 0.000703321 0.000961192 0.00132786 0.00178824 0.00236001 0.00301975 0.00377585 0.00452922 0.00526513 0.00581615 0.00621345 0.00636683 0.00620632 0.00582475 0.00523579 0.00456285 0.0037794 0.00301444 0.0023376 0.00177289 0.00131774 0.000966878 0.000693325 0.000500286 0.000391942 0.000294445 0.000259696 0.000222171 0.000213537 0.000210413 0.000192845 0.000185204 0.000201906 0.000192803 0.00023382 0.000236332 0.000301004 0.000366374 0.000530062 0.000738154 0.00106192 0.00153591 0.00215324 0.00295375 0.00399394 0.00517473 0.00647388 0.00777176 0.00902899 0.0100774 0.0107273 0.0109756 0.0107234 0.0100684 0.00903416 0.0078082 0.00646824 0.0051481 0.00400746 0.00298554 0.00217013 0.00152002 0.00106779 0.00074795 0.000528707 0.000360112 0.000285507 0.000242985 0.000212935 0.000213764 0.000198188 0.000203547 0.000174947 0.000177324 0.000170527 0.000166845 9.38881e-05 3.07773e-05 -7.02438e-05 -0.000279541 -0.000553621 -0.000990303 -0.00152242 -0.00225127 -0.00312823 -0.00417005 -0.0053012 -0.0064555 -0.00757709 -0.00842508 -0.00905071 -0.00924141 -0.00903174 -0.00845343 -0.0075568 -0.00646088 -0.00528695 -0.00415732 -0.00312942 -0.00224389 -0.00150887 -0.00098163 -0.000582903 -0.000274613 -8.50532e-05 3.58319e-05 0.000116612 0.000156786 0.000196974 0.000205885 0.000204059 0.000197202 0.000195594 0.000189437 0.000205102 0.000180193 0.000206237 0.000214202 0.000231666 0.000249982 0.000269054 0.000305638 0.000385042 0.000425468 0.000565039 0.000649117 0.00077789 0.000916908 0.00100354 0.00109765 0.0011338 0.00117757 0.00117085 0.00110274 0.000984284 0.000882334 0.000770814 0.000649499 0.000545775 0.000456976 0.00040438 0.000316983 0.000281619 0.000266505 0.000230587 0.000202312 0.000207181 0.000185485 0.000210092 0.000205817 0.000199392 0.000180726 0.000183313 0.000179224 0.000195055 0.000177852 0.000193142 0.000174538 0.000160934 0.000129388 0.000108648 3.30562e-05 -3.92495e-05 -0.000112227 -0.000242036 -0.0003772 -0.000539378 -0.000657339 -0.000818052 -0.000936012 -0.00100832 -0.00103975 -0.00102849 -0.000929487 -0.000819736 -0.000675529 -0.000511256 -0.000383732 -0.000227434 -0.000126693 -3.88862e-05 3.85049e-05 0.000113124 0.000123036 0.000155011 0.000166152 0.000186362 0.000176048 0.000181633 0.000176632 0.000212237 0.000207786 0.000193751 0.000217124 0.00020695 0.000199079 0.000205715 0.000243678 0.000285022 0.000330313 0.000429275 0.000564073 0.000713908 0.000908204 0.00117784 0.00149652 0.00182643 0.00219324 0.00251361 0.00277636 0.00294749 0.00302379 0.00296392 0.00277407 0.0024893 0.00219445 0.00182202 0.00148987 0.00118619 0.000908258 0.00071666 0.000533711 0.000417252 0.000320808 0.000284253 0.00023815 0.000202854 0.000212997 0.000196633 0.000213322 0.000208776 0.000190586 0.000191082 0.000215597 0.000194236 0.000179296 0.000162392 0.000134304 9.97547e-05 3.92515e-05 -6.91287e-05 -0.000211438 -0.000410754 -0.000622412 -0.000941195 -0.00130419 -0.00168934 -0.00210556 -0.00248507 -0.00278201 -0.00299475 -0.00307573 -0.00300939 -0.00279629 -0.00249253 -0.00209543 -0.00171954 -0.00130146 -0.000955843 -0.000649491 -0.000401232 -0.00020035 
-5.78391e-05 5.03441e-05 0.000103835 0.000151804 0.000175966 0.000174626 0.000190625 0.000222616 0.000200985 0.00020907 0.000176671 0.000195296 0.000198861 0.000244362 0.00021171 0.000305466 0.000373105 0.000483847 0.000681529 0.000925915 0.00127707 0.00171529 0.00225972 0.00288769 0.00360907 0.00432708 0.00502944 0.00555206 0.00593194 0.00607996 0.00592472 0.0055611 0.0049986 0.00436188 0.00361258 0.00288172 0.00223593 0.00169937 0.00126616 0.000933479 0.000671193 0.000485442 0.000383989 0.000289283 0.000257725 0.000221579 0.000212613 0.000211874 0.000193027 0.000185042 0.000204043 0.000194522 0.000235476 0.000239665 0.000307213 0.000378026 0.000549958 0.000770582 0.00111389 0.0016149 0.0022691 0.00311878 0.00421902 0.00547066 0.00684599 0.00822268 0.00955331 0.0106635 0.0113524 0.0116149 0.0113491 0.0106539 0.00955916 0.00825909 0.00684085 0.00544178 0.00423299 0.00315134 0.00228721 0.00159899 0.00112035 0.000780347 0.000548832 0.000371674 0.00029077 0.000245993 0.000214196 0.000215546 0.000199245 0.000204358 0.00017476 0.00017696 0.000170016 0.000165232 9.09652e-05 2.43127e-05 -8.16003e-05 -0.000300481 -0.000586328 -0.00104264 -0.00159851 -0.0023606 -0.00327662 -0.00436398 -0.00554705 -0.00675258 -0.00792433 -0.00881059 -0.00946345 -0.00966254 -0.00944401 -0.00883952 -0.0079025 -0.00675797 -0.00553133 -0.00435091 -0.00327834 -0.0023531 -0.00158351 -0.00103279 -0.000617177 -0.000295713 -9.66339e-05 3.00739e-05 0.000114209 0.000155545 0.000197676 0.000207583 0.000204935 0.000197777 0.000196324 0.000189339 0.000206143 0.000179824 0.000207819 0.000214594 0.000232445 0.000252812 0.00027266 0.00031068 0.000392894 0.000435546 0.000581114 0.000667373 0.000802922 0.000946533 0.00103706 0.00113539 0.00117175 0.00121865 0.00121172 0.00113993 0.00101767 0.000911431 0.000794864 0.000668145 0.000560755 0.000468868 0.000413338 0.000323046 0.000286121 0.000270048 0.000232385 0.000202421 0.000208155 0.00018551 0.000211313 0.000205174 0.00020055 0.000180886 0.000184253 0.000179833 0.000195182 0.000178928 0.000193683 0.000175371 0.000162451 0.000130887 0.000110702 3.65084e-05 -3.49199e-05 -0.000106948 -0.000234724 -0.000366989 -0.000527356 -0.000642405 -0.000801132 -0.000916522 -0.000987361 -0.00101878 -0.00100884 -0.000909624 -0.000802766 -0.000660787 -0.00049771 -0.000374111 -0.000220126 -0.000121874 -3.46518e-05 4.17916e-05 0.000116103 0.000123792 0.000155858 0.000165755 0.000187158 0.000176259 0.000181761 0.000176376 0.000213042 0.000208254 0.000193547 0.000218083 0.000207537 0.00019945 0.00020444 0.000244178 0.000284153 0.000327227 0.000424338 0.000557116 0.000703031 0.000892643 0.00115574 0.00146778 0.00179045 0.00214929 0.00246274 0.00271944 0.0028868 0.00296242 0.00290302 0.00271663 0.00243696 0.00215051 0.0017847 0.00146137 0.0011644 0.000891763 0.000706906 0.000525716 0.00041211 0.000317416 0.000283336 0.000237769 0.000201233 0.000213088 0.000197174 0.000214052 0.000209631 0.000191142 0.00019106 0.000217384 0.000195325 0.000179873 0.000163195 0.000136537 0.00010166 4.33583e-05 -6.22148e-05 -0.000201628 -0.000395252 -0.000599612 -0.000911157 -0.0012648 -0.00163956 -0.00204707 -0.00241628 -0.0027059 -0.00291434 -0.00299227 -0.00292887 -0.00272023 -0.0024254 -0.00203621 -0.00167159 -0.00126164 -0.000926413 -0.000627413 -0.000386053 -0.000189771 
-4.32661e-05 5.7781e-05 0.000108515 0.0001548 0.000178902 0.000177059 0.000191433 0.000224205 0.000201498 0.000208283 0.000176276 0.000195984 0.000197229 0.000244472 0.000207937 0.000300214 0.000363538 0.000466393 0.000655395 0.000883664 0.00121626 0.00162813 0.00213977 0.00272986 0.00340978 0.00408543 0.00474769 0.00523656 0.00559547 0.0057371 0.00558816 0.00524599 0.0047152 0.00412158 0.00341321 0.00272314 0.00211446 0.0016116 0.00120447 0.000893492 0.000644746 0.000467559 0.000374346 0.000283067 0.000255163 0.000220896 0.000211454 0.000213549 0.000193276 0.000184781 0.000206652 0.000196599 0.000237206 0.000243483 0.000313949 0.000390957 0.000572013 0.000806414 0.0011715 0.00170246 0.00239749 0.00330189 0.00446861 0.00579878 0.00725857 0.00872295 0.0101348 0.0113136 0.0120456 0.0123239 0.0120431 0.0113033 0.0101415 0.00875911 0.00725407 0.00576735 0.00448302 0.00333529 0.00241691 0.00168658 0.00117868 0.000816158 0.000571177 0.000384536 0.000296572 0.000249351 0.000215563 0.000217532 0.000200478 0.000205225 0.000174579 0.000176448 0.000169374 0.00016335 8.78008e-05 1.70013e-05 -9.44224e-05 -0.000324008 -0.000623023 -0.00110137 -0.0016839 -0.00248328 -0.00344315 -0.00458161 -0.00582299 -0.00708596 -0.00831389 -0.00924329 -0.0099266 -0.0101352 -0.00990664 -0.00927283 -0.00829051 -0.00709143 -0.00580569 -0.00456811 -0.00344559 -0.00247571 -0.00166722 -0.00109019 -0.000655669 -0.000319434 -0.000109607 2.36953e-05 0.00011144 0.000154111 0.000198377 0.000209351 0.000205873 0.000198335 0.000197176 0.000189239 0.000207384 0.000179392 0.00020969 0.000215089 0.000233507 0.000256398 0.000277437 0.000317637 0.000403366 0.000449386 0.00060245 0.000692147 0.000836621 0.000986593 0.00108257 0.00118661 0.00122374 0.00127446 0.00126698 0.00119043 0.00106313 0.000950871 0.000827407 0.000693498 0.000580924 0.000484732 0.000425052 0.000331017 0.000291855 0.000274463 0.000234705 0.000202676 0.000209305 0.00018555 0.000212573 0.000204292 0.00020192 0.000181054 0.000185479 0.000180505 0.000195299 0.000180324 0.000194289 0.000176693 0.000164864 0.000133632 0.000114677 4.30525e-05 -2.61194e-05 -9.56484e-05 -0.000218997 -0.000345674 -0.000501324 -0.000610605 -0.000764625 -0.000875112 -0.00094285 -0.000973843 -0.00096569 -0.00086771 -0.000766246 -0.000629196 -0.000469909 -0.000353509 -0.000204467 -0.000111164 -2.59241e-05 4.81261e-05 0.000121092 0.000125654 0.000157387 0.000165478 0.000188246 0.0001765 0.000182009 0.000176072 0.000213816 0.000208693 0.000193328 0.000219086 0.000208024 0.000199632 0.000202272 0.000243753 0.000281234 0.00032041 0.000413321 0.000541004 0.000678551 0.000858124 0.00110767 0.00140496 0.00171149 0.00205316 0.00235136 0.00259488 0.00275396 0.00282732 0.0027698 0.0025915 0.00232388 0.00205442 0.00170428 0.00139883 0.00111662 0.000856144 0.000684057 0.000508582 0.000400884 0.000310275 0.000280442 0.00023632 0.000198749 0.000212963 0.000197673 0.000214711 0.000210534 0.000191645 0.000190991 0.000219461 0.000196582 0.000180749 0.000164621 0.000140114 0.000105602 5.10337e-05 -4.93715e-05 -0.000182729 -0.000366151 -0.000557678 -0.000855021 -0.00119113 -0.00154645 -0.00193645 -0.00228655 -0.002562 -0.00276155 -0.00283463 -0.00277603 -0.00257633 -0.00229772 -0.00192465 -0.0015806 -0.00118748 -0.000871022 -0.000586102 -0.000357514 -0.000170131 
-2.6744e-05 6.68498e-05 0.000114483 0.000158711 0.000182377 0.000180062 0.000192822 0.000226117 0.000202521 0.00020825 0.000176717 0.000197309 0.000196505 0.000245022 0.000205513 0.000296124 0.000355569 0.000451387 0.000632408 0.000846236 0.00116201 0.00155032 0.00203242 0.00258856 0.00323116 0.0038686 0.00449466 0.00495349 0.00529339 0.00542913 0.00528604 0.00496312 0.00446098 0.00390577 0.00323448 0.00258125 0.00200595 0.00153336 0.00114959 0.000858002 0.00062155 0.000452139 0.000366187 0.000278184 0.000253374 0.000220982 0.000211038 0.000215617 0.000194216 0.000185235 0.000209609 0.000199092 0.000239152 0.000247291 0.000319757 0.000401778 0.000589816 0.000834884 0.0012169 0.00177111 0.00249786 0.00344502 0.00466318 0.00605437 0.00757974 0.00911252 0.0105873 0.0118194 0.0125848 0.0128753 0.0125831 0.0118087 0.0105947 0.0091482 0.00757585 0.00602092 0.00467786 0.00347897 0.00251824 0.00175534 0.00122475 0.000844556 0.000589246 0.000395404 0.000301771 0.000252693 0.000217343 0.000219822 0.000202228 0.000206571 0.000175238 0.000176766 0.000169663 0.000162708 8.65277e-05 1.26288e-05 -0.000102675 -0.000339791 -0.000647891 -0.0011418 -0.00174297 -0.00256861 -0.00355921 -0.00473336 -0.00601578 -0.00731895 -0.00858626 -0.00954595 -0.0102505 -0.0104657 -0.0102302 -0.00957584 -0.00856178 -0.00732444 -0.00599733 -0.00471952 -0.00356229 -0.00256105 -0.00172493 -0.00112953 -0.000681969 -0.000335379 -0.00011785 2.01784e-05 0.000110275 0.000153841 0.000199637 0.000211406 0.000207276 0.000199424 0.000198582 0.000189899 0.000209083 0.000179802 0.000211962 0.000216264 0.000235219 0.000260346 0.000282613 0.000325096 0.000413998 0.000463535 0.000623197 0.00071661 0.000869463 0.00102549 0.00112693 0.00123643 0.00127472 0.00132873 0.0013205 0.00123958 0.00110759 0.000989374 0.000859224 0.000718568 0.000600849 0.000500395 0.00043663 0.000339177 0.000297831 0.000279035 0.000237551 0.000203748 0.000211011 0.000186348 0.000214205 0.000204145 0.000203757 0.000181913 0.00018735 0.000181794 0.000196108 0.000182347 0.000195517 0.000178864 0.000168212 0.000137779 0.000120385 5.19981e-05 -1.39767e-05 -7.99035e-05 -0.000197372 -0.000316942 -0.000465836 -0.000567766 -0.000715205 -0.00081946 -0.000883235 -0.000913357 -0.000907048 -0.000811687 -0.000716799 -0.000586459 -0.000433024 -0.000325362 -0.000182963 -9.58792e-05 -1.38171e-05 5.6867e-05 0.000127633 0.000129001 0.000159982 0.000166201 0.00019004 0.000177532 0.000183027 0.000176581 0.000215058 0.00020966 0.000193825 0.000220481 0.00020897 0.000200304 0.000200676 0.000243283 0.00027798 0.000312863 0.000400627 0.000521819 0.000649368 0.00081696 0.00105041 0.00132973 0.00161664 0.00193762 0.00221734 0.00244504 0.00259402 0.0026643 0.00260945 0.00244118 0.00218851 0.00193896 0.00160829 0.00132385 0.00105949 0.000814011 0.00065644 0.000488754 0.000388071 0.000302533 0.000277234 0.000234963 0.00019695 0.000213353 0.000198688 0.000215804 0.000211902 0.000192715 0.000191586 0.000221844 0.000198323 0.000182361 0.000166924 0.000144582 0.000110923 6.03226e-05 -3.43023e-05 -0.000160587 -0.000332752 -0.000510347 -0.000791424 -0.00110792 -0.00144148 -0.00181119 -0.00213994 -0.00239929 -0.00258854 -0.00265652 -0.00260292 -0.00241355 -0.00215287 -0.00179855 -0.00147724 -0.00110383 -0.000808056 -0.000539076 -0.000324745 -0.000147509 
-1.84697e-05 7.05889e-05 0.000116863 0.000160306 0.000184285 0.000181664 0.00019322 0.000227342 0.000202765 0.000207417 0.00017614 0.000197675 0.000194961 0.00024494 0.000202016 0.000291434 0.00034716 0.000436355 0.000609934 0.000810049 0.00110997 0.00147573 0.00192994 0.00245373 0.00306093 0.00366231 0.00425414 0.00468413 0.00500623 0.00513645 0.00499879 0.00469415 0.00421903 0.00370063 0.00306421 0.00244579 0.00190215 0.00145822 0.00109678 0.000823687 0.000598756 0.000436802 0.000357817 0.000272728 0.000251117 0.000220161 0.000209882 0.000216874 0.000194202 0.000184871 0.000211547 0.000200623 0.000240559 0.000250405 0.000325605 0.000413022 0.000609103 0.000866443 0.00126764 0.00184832 0.00261121 0.00360663 0.00488357 0.00634424 0.00794426 0.00955435 0.011101 0.0123937 0.0131973 0.0135018 0.0131963 0.0123824 0.0111091 0.00958993 0.00794086 0.00630858 0.00489868 0.0036413 0.00263278 0.00183255 0.00127609 0.000876064 0.000608776 0.000406591 0.000306731 0.000255442 0.000218396 0.000221367 0.000203088 0.000207154 0.000174878 0.000176227 0.000168994 0.000160972 8.36086e-05 6.28009e-06 -0.000113688 -0.000359978 -0.000679258 -0.00119193 -0.00181577 -0.00267316 -0.00370102 -0.00491859 -0.00625062 -0.00760266 -0.00891784 -0.00991404 -0.0106446 -0.0108678 -0.0106239 -0.00994447 -0.00889188 -0.00760812 -0.00623074 -0.00490443 -0.00370466 -0.00266548 -0.00179627 -0.0011785 -0.000714859 -0.000355713 -0.000129067 1.45526e-05 0.000107801 0.000152461 0.000200138 0.00021288 0.000207933 0.000199773 0.000199102 0.000189618 0.000209908 0.000179243 0.000213337 0.000216465 0.000235803 0.000263008 0.000286089 0.000330127 0.000421884 0.000473768 0.000639478 0.000735224 0.000895041 0.00105579 0.0011613 0.00127515 0.00131378 0.00137092 0.00136241 0.00127775 0.00114185 0.00101918 0.000883805 0.000737627 0.000616083 0.0005124 0.000445583 0.000345172 0.000302226 0.000282384 0.000239193 0.000203684 0.000211782 0.000186196 0.000215175 0.000203263 0.000204704 0.000181868 0.000188105 0.000182221 0.000196047 0.000183246 0.000195893 0.000179639 0.000169764 0.000139523 0.00012291 5.63181e-05 -8.26087e-06 -7.264e-05 -0.000187228 -0.00030296 -0.00044895 -0.00054697 -0.00069138 -0.000792248 -0.000854018 -0.000883934 -0.000879083 -0.000784142 -0.000692924 -0.000565832 -0.000414657 -0.000311956 -0.000172856 -8.90509e-05 -8.19322e-06 6.10209e-05 0.000131081 0.000129981 0.000160878 0.000165725 0.000190722 0.000177594 0.000182984 0.000176139 0.000215646 0.000209895 0.000193402 0.000221202 0.0002093 0.000200379 0.000199015 0.00024325 0.00027632 0.000308578 0.000393874 0.000512175 0.000634618 0.000796095 0.00102117 0.00129165 0.00156893 0.00187947 0.00215 0.00236976 0.00251374 0.00258287 0.00252894 0.00236539 0.00211973 0.0018808 0.00155926 0.00128602 0.00103052 0.000792203 0.000642878 0.000478139 0.000381119 0.00029797 0.000275536 0.000234033 0.000194943 0.000213155 0.000198987 0.000216294 0.000212521 0.000193047 0.000191348 0.000223403 0.000199183 0.000182737 0.000167547 0.000146643 0.000112672 6.42749e-05 -2.7479e-05 -0.000150791 -0.000317158 -0.000487391 -0.000761066 -0.00106807 -0.00139105 -0.00175185 -0.00207008 -0.00232199 -0.00250684 -0.00257172 -0.00252109 -0.00233627 -0.00208467 -0.00173845 -0.00142858 -0.00106354 -0.000778303 -0.000516793 -0.00030952 -0.000136979 
-2.129e-07 8.0376e-05 0.000123061 0.000164195 0.000187721 0.000184533 0.000194275 0.000228966 0.000203393 0.000206836 0.000176045 0.000198613 0.000193551 0.000245098 0.000198637 0.000286311 0.000337676 0.000418935 0.000583613 0.000767504 0.00104859 0.00138785 0.00180888 0.00229451 0.00285985 0.00341835 0.00396957 0.00436569 0.00466648 0.00479019 0.00465899 0.00437601 0.00393301 0.00345785 0.00286298 0.00228584 0.00177971 0.00136982 0.00103462 0.000783368 0.000572201 0.000418941 0.000348138 0.000266671 0.000248612 0.000219703 0.000208859 0.000218661 0.000194695 0.000184817 0.00021435 0.000202911 0.000242261 0.000254216 0.000331856 0.000425079 0.000629367 0.000899236 0.00132025 0.00192817 0.00272823 0.00377367 0.00511095 0.00664309 0.00831995 0.0100101 0.0116306 0.0129857 0.0138285 0.0141472 0.0138284 0.0129739 0.0116395 0.0100453 0.00831728 0.00660513 0.00512642 0.00380904 0.00275095 0.00191251 0.00132946 0.000908799 0.000629357 0.00041862 0.000312207 0.000258721 0.000219852 0.000223428 0.00020452 0.000208154 0.000175005 0.000175948 0.00016866 0.000159499 8.12607e-05 1.54828e-07 -0.000124669 -0.000380296 -0.000710996 -0.00124296 -0.00189006 -0.0027801 -0.00384624 -0.00510836 -0.00649141 -0.00789359 -0.00925776 -0.0102918 -0.0110488 -0.0112803 -0.0110276 -0.0103226 -0.00923051 -0.00789911 -0.00647015 -0.00509381 -0.00385059 -0.00277239 -0.001869 -0.00122829 -0.000748267 -0.000376219 -0.000140081 9.37363e-06 0.000105643 0.000151425 0.000200996 0.000214685 0.00020897 0.000200453 0.000200134 0.000189737 0.000211289 0.000179019 0.000215244 0.000216933 0.000236704 0.000266124 0.000290093 0.000335928 0.000430344 0.000484934 0.000656676 0.000754775 0.000922103 0.00108773 0.00119742 0.00131591 0.00135471 0.00141528 0.00140635 0.00131772 0.00117804 0.00105058 0.000909702 0.000757811 0.000632308 0.000525381 0.00045518 0.000351837 0.000307105 0.000286235 0.000241348 0.000204035 0.000212991 0.000186425 0.000216485 0.000202536 0.000206237 0.000182262 0.000189642 0.000183105 0.000196377 0.000184986 0.000196735 0.000181481 0.000172951 0.000143446 0.000128554 6.54466e-05 4.30228e-06 -5.62198e-05 -0.000164457 -0.000272478 -0.000411307 -0.000501333 -0.000638718 -0.00073287 -0.000790306 -0.000819366 -0.000816547 -0.000724266 -0.000640274 -0.000520351 -0.000375375 -0.00028219 -0.000150173 -7.31851e-05 4.32435e-06 6.99421e-05 0.000137671 0.000133049 0.000163164 0.000165939 0.00019216 0.000178132 0.000183569 0.000176118 0.000216481 0.000210456 0.000193412 0.000222268 0.000209865 0.000200638 0.000196715 0.000242384 0.000272451 0.000300091 0.000379946 0.000491474 0.000603383 0.000752148 0.000960168 0.00121172 0.00146829 0.00175702 0.00200808 0.00221108 0.00234444 0.00241041 0.00235918 0.00220616 0.00197619 0.00175842 0.00145732 0.00120638 0.000969715 0.0007472 0.000613376 0.000456667 0.000367041 0.000289242 0.000271734 0.000232174 0.00019244 0.000213086 0.000199621 0.000216993 0.000213544 0.000193703 0.000191472 0.000225581 0.000200626 0.000184004 0.000169589 0.000151137 0.000118134 7.42946e-05 -1.08862e-05 -0.000126184 -0.000279736 -0.000434038 -0.000689228 -0.000973864 -0.00127208 -0.00160986 -0.00190381 -0.00213738 -0.00231048 -0.00236961 -0.0023247 -0.00215161 -0.00192043 -0.0015955 -0.00131156 -0.000968879 -0.000707211 -0.000463851 -0.000272767 -0.000111785 
8.34007e-06 8.44661e-05 0.000125612 0.000165812 0.000189434 0.000185975 0.000194559 0.000229844 0.000203472 0.000206064 0.000175592 0.000198937 0.000192182 0.000244775 0.000195543 0.00028183 0.000329763 0.000405006 0.000562554 0.000733831 0.00100006 0.00131847 0.00171365 0.00216934 0.00270179 0.00322681 0.00374615 0.00411569 0.00439991 0.00451836 0.00439236 0.00412635 0.0037085 0.00326713 0.0027048 0.00216014 0.00168346 0.00130004 0.000985474 0.000751265 0.000550898 0.000404763 0.000340221 0.000261624 0.000246409 0.000218879 0.000207699 0.000219621 0.000194651 0.000184496 0.000215929 0.000204176 0.000243263 0.000256674 0.000336454 0.000434063 0.0006446 0.000924316 0.00136048 0.00198939 0.00281821 0.00390212 0.00528596 0.00687333 0.00860946 0.0103612 0.0120387 0.0134419 0.014315 0.0146449 0.0143155 0.0134295 0.0120482 0.0103961 0.00860726 0.00683363 0.00530173 0.00393793 0.00284185 0.00197377 0.00137023 0.000933756 0.000644811 0.000427598 0.000316092 0.000260841 0.00022065 0.000224648 0.000205198 0.000208575 0.000174764 0.000175539 0.000168201 0.000158191 7.93055e-05 -4.28681e-06 -0.00013243 -0.000394609 -0.000733115 -0.00127844 -0.0019415 -0.00285418 -0.00394665 -0.0052393 -0.00665764 -0.00809435 -0.00949246 -0.0105523 -0.0113276 -0.0115647 -0.0113061 -0.0105834 -0.00946399 -0.00809978 -0.00663527 -0.00522458 -0.0039514 -0.00284637 -0.00191931 -0.00126281 -0.000771607 -0.000390664 -0.000147954 5.5057e-06 0.000103997 0.000150432 0.000201414 0.000215886 0.000209441 0.000200706 0.000200497 0.000189454 0.00021187 0.000178539 0.000216216 0.000216821 0.000236704 0.000267602 0.000291872 0.000338414 0.000434349 0.000490005 0.000665319 0.000763968 0.000935481 0.00110323 0.00121485 0.00133571 0.00137397 0.00143678 0.0014279 0.001337 0.00119549 0.00106582 0.000922225 0.000767369 0.00064016 0.000531797 0.000460043 0.000355117 0.000309654 0.000288215 0.000242241 0.000203771 0.000213471 0.000186249 0.000217216 0.000201711 0.000206952 0.000182231 0.00019031 0.000183486 0.000196271 0.000185767 0.000196936 0.000182056 0.000174152 0.000144858 0.000130451 6.89358e-05 8.88902e-06 -5.04848e-05 -0.000156382 -0.000261248 -0.000397736 -0.000484753 -0.000619665 -0.000711028 -0.000766912 -0.000795798 -0.000794163 -0.000702184 -0.000621125 -0.000503819 -0.000360672 -0.000271431 -0.000142129 -6.77541e-05 8.84605e-06 7.3261e-05 0.000140369 0.000133809 0.000163839 0.000165491 0.000192653 0.000178209 0.000183543 0.000175788 0.000216883 0.000210573 0.00019299 0.00022273 0.00021008 0.000200687 0.000195276 0.000242216 0.000270828 0.000296209 0.00037375 0.000482566 0.00058995 0.000733241 0.000933629 0.00117713 0.00142499 0.0017042 0.00194693 0.0021428 0.00227159 0.00233644 0.00228609 0.00213744 0.00191389 0.00170557 0.00141292 0.00117205 0.000943363 0.000727491 0.000600897 0.000447072 0.000360745 0.000285173 0.00027006 0.000231251 0.000190745 0.00021282 0.000199822 0.000217282 0.000213986 0.000193996 0.000191225 0.000226778 0.00020133 0.000184393 0.000170266 0.000153208 0.000120155 7.85761e-05 -3.51591e-06 -0.000115467 -0.000262875 -0.00040957 -0.000656528 -0.000930932 -0.00121781 -0.00154552 -0.00182825 -0.00205363 -0.00222176 -0.00227776 -0.00223576 -0.00206785 -0.00184622 -0.00153056 -0.00125864 -0.000925591 -0.000675013 -0.000439844 -0.000256232 -0.000100476 
