0.00622341 0.00663966 0.00706622 0.00748206 0.00786885 0.00828191 0.00870709 0.0090744 0.00949477 0.00987209 0.010274 0.0105935 0.0109666 0.0113363 0.0116405 0.0119656 0.0122434 0.0125124 0.0127844 0.0130175 0.0132543 0.013437 0.0136455 0.0137566 0.0139339 0.0140457 0.0138493 0.0138191 0.0137828 0.0136332 0.013478 0.0133124 0.013108 0.0128922 0.0126478 0.012412 0.0120468 0.0117778 0.0114289 0.011085 0.0106953 0.0102395 0.00986612 0.00944302 0.00899046 0.00851339 0.00802632 0.00755157 0.0070499 0.00653354 0.00599001 0.00547363 0.00496136 0.00449165 0.00394759 0.00337832 0.00288234 0.0023627 0.00188674 0.00134527 0.000857905 0.000383578 -7.5195e-05 -0.000538807 -0.000983107 -0.00144664 -0.0017355 -0.00205305 -0.00238328 -0.00267091 -0.0028975 -0.0031662 -0.00343836 -0.00400536 -0.00387204 -0.00372818 -0.0036054 -0.00343123 -0.00326467 -0.00309152 -0.00290474 -0.00274221 -0.00253447 -0.00233583 -0.00213645 -0.00193923 -0.00172137 -0.00152133 -0.00129634 -0.00106647 -0.000873128 -0.000643649 -0.000413349 -0.000216856 -7.23904e-06 0.000226004 0.000442686 0.000640214 0.00085228 0.00104176 0.00125131 0.0014281 0.0016158 0.00179734 0.0019527 0.00212219 0.0022765 0.00242849 0.0025616 0.00267355 0.00283428 0.00294177 0.00304512 0.00325183 0.00322655 0.0031929 0.00316007 0.00311228 0.00306965 0.00302173 0.00296261 0.00290957 0.0028426 0.002774 0.00269689 0.00262861 0.00254519 0.00246417 0.00238025 0.00228885 0.00219637 0.00211299 0.00202247 0.00192107 0.00182585 0.00174036 0.00163913 0.00153918 0.00143633 0.00134649 0.00124958 0.001146 0.00105352 0.000952192 0.0008574 0.000772499 0.000687152 0.000594176 0.000495153 0.000415721 0.000325901 0.000232237 0.000158708 -4.7998e-06 -4.8572e-06 -4.90075e-06 -4.93831e-06 -4.96225e-06 -4.9941e-06 -5.0116e-06 -5.03395e-06 -5.04475e-06 -5.05892e-06 -5.05091e-06 -5.04333e-06 -5.03778e-06 -5.02274e-06 -5.01801e-06 -4.98843e-06 -4.94804e-06 -4.92446e-06 -4.88051e-06 -4.82974e-06 -4.7834e-06 -4.74105e-06 -4.66645e-06 -4.62092e-06 -4.55636e-06 -4.49859e-06 -4.40292e-06 -4.32975e-06 -4.24913e-06 -4.16267e-06 -4.0825e-06 -3.99485e-06 -3.89222e-06 -3.31847e-06 -3.02995e-06 -2.64295e-06 -2.3084e-06 -1.95736e-06 -1.58522e-06 -1.20152e-06 -7.27184e-07 -4.36828e-07 -1.29185e-07 1.7291e-07 4.74279e-07 7.65688e-07 1.13372e-06 1.43262e-06 1.81347e-06 2.10392e-06 2.45248e-06 2.82143e-06 3.1357e-06 3.46042e-06 3.80739e-06 4.14201e-06 4.48137e-06 4.79658e-06 5.13074e-06 5.46676e-06 5.7435e-06 6.05217e-06 6.34846e-06 6.62561e-06 6.91065e-06 7.16183e-06 7.41706e-06 7.63716e-06 7.86229e-06 8.04207e-06 8.24941e-06 8.42802e-06 8.56152e-06 7.96322e-06 7.5875e-06 7.26947e-06 6.94258e-06 6.57911e-06 6.19421e-06 5.7768e-06 5.35698e-06 4.8163e-06 4.22978e-06 3.64175e-06 3.06834e-06 2.4711e-06 1.80785e-06 1.20032e-06 5.1751e-07 -1.52478e-07 -8.74722e-07 -1.5445e-06 -2.212e-06 -2.95815e-06 -3.69332e-06 -4.3038e-06 -5.03245e-06 -5.76599e-06 -6.41517e-06 -7.12497e-06 -7.79921e-06 -8.38122e-06 -9.06942e-06 -9.66183e-06 -1.02743e-05 -1.08537e-05 -1.14349e-05 -1.19612e-05 -1.24956e-05 -1.29679e-05 -1.34422e-05 -1.38607e-05 -1.42317e-05 0.000663818 0.00105391 0.00136929 0.00178701 0.00215795 0.00250671 0.0029356 0.00333386 0.00370529 0.00413722 0.00452202 0.00493736 0.00536595 0.00584591 
0.00621415 0.00662978 0.00705571 0.00747093 0.00785714 0.00826958 0.00869413 0.00906089 0.00948064 0.0098574 0.0102587 0.0105777 0.0109503 0.0113194 0.0116232 0.0119478 0.0122252 0.0124938 0.0127654 0.0129981 0.0132345 0.013417 0.0136252 0.0137361 0.0139132 0.0140248 0.0138287 0.0137986 0.0137623 0.0136129 0.013458 0.0132926 0.0130886 0.012873 0.012629 0.0123936 0.0120289 0.0117603 0.0114119 0.0110686 0.0106795 0.0102243 0.00985149 0.00942903 0.00897715 0.00850079 0.00801445 0.0075404 0.00703948 0.00652389 0.00598117 0.00546557 0.00495407 0.00448505 0.00394181 0.00337338 0.00287814 0.00235928 0.00188403 0.00134337 0.00085673 0.00038311 -7.49784e-05 -0.000537899 -0.000981537 -0.00144438 -0.00173281 -0.00204989 -0.00237964 -0.00266684 -0.0028931 -0.0031614 -0.00343316 -0.00399931 -0.0038662 -0.00372256 -0.00359996 -0.00342606 -0.00325975 -0.00308686 -0.00290036 -0.00273808 -0.00253066 -0.00233232 -0.00213324 -0.00193631 -0.00171879 -0.00151905 -0.0012944 -0.00106488 -0.000871832 -0.000642701 -0.00041275 -0.000216554 -7.25447e-06 0.000225636 0.000441989 0.000639218 0.000850963 0.00104015 0.00124939 0.00142591 0.00161333 0.0017946 0.00194971 0.00211895 0.00227303 0.00242479 0.0025577 0.00266948 0.00282996 0.0029373 0.00304048 0.00324688 0.00322164 0.00318804 0.00315526 0.00310755 0.00306498 0.00301713 0.00295811 0.00290514 0.00283827 0.00276979 0.00269279 0.00262461 0.00254132 0.00246043 0.00237663 0.00228537 0.00219303 0.00210978 0.00201939 0.00191815 0.00182308 0.00173771 0.00163664 0.00153684 0.00143415 0.00134444 0.00124768 0.00114426 0.00105192 0.000950745 0.000856096 0.000771324 0.000686107 0.000593272 0.000494401 0.000415089 0.000325405 0.000231883 0.000158467 -4.79247e-06 -4.84977e-06 -4.89326e-06 -4.93077e-06 -4.95467e-06 -4.98648e-06 -5.00395e-06 -5.02626e-06 -5.03705e-06 -5.0512e-06 -5.0432e-06 -5.03564e-06 -5.0301e-06 -5.01508e-06 -5.01036e-06 -4.98082e-06 -4.9405e-06 -4.91695e-06 -4.87308e-06 -4.82239e-06 -4.77612e-06 -4.73384e-06 -4.65935e-06 -4.61389e-06 -4.54943e-06 -4.49175e-06 -4.39622e-06 -4.32317e-06 -4.24267e-06 -4.15634e-06 -4.0763e-06 -3.98878e-06 -3.88631e-06 -3.31343e-06 -3.02534e-06 -2.63894e-06 -2.3049e-06 -1.95439e-06 -1.58281e-06 -1.19969e-06 -7.26077e-07 -4.3616e-07 -1.28983e-07 1.72657e-07 4.73569e-07 7.64538e-07 1.13201e-06 1.43047e-06 1.81073e-06 2.10075e-06 2.44878e-06 2.81717e-06 3.13097e-06 3.45519e-06 3.80165e-06 4.13576e-06 4.4746e-06 4.78934e-06 5.12299e-06 5.45851e-06 5.73483e-06 6.04303e-06 6.33887e-06 6.6156e-06 6.90021e-06 7.15101e-06 7.40586e-06 7.62563e-06 7.85042e-06 8.02992e-06 8.23695e-06 8.41529e-06 8.54859e-06 7.95118e-06 7.57603e-06 7.25848e-06 6.93208e-06 6.56916e-06 6.18484e-06 5.76806e-06 5.34887e-06 4.809e-06 4.22337e-06 3.63623e-06 3.06368e-06 2.46734e-06 1.80509e-06 1.19847e-06 5.16694e-07 -1.52284e-07 -8.73439e-07 -1.54221e-06 -2.2087e-06 -2.95373e-06 -3.68779e-06 -4.29734e-06 -5.0249e-06 -5.75733e-06 -6.40553e-06 -7.11426e-06 -7.78748e-06 -8.36861e-06 -9.05578e-06 -9.64729e-06 -1.02589e-05 -1.08374e-05 -1.14177e-05 -1.19432e-05 -1.24768e-05 -1.29484e-05 -1.3422e-05 -1.38399e-05 -1.42103e-05 0.000662831 0.00105234 0.00136725 0.00178435 0.00215474 0.00250298 0.00293123 0.0033289 0.00369977 0.00413106 0.00451529 0.00493001 0.00535796 0.00583721 
0.00623308 0.00664997 0.0070772 0.00749369 0.00788108 0.00829478 0.00872062 0.0090885 0.00950952 0.00988743 0.01029 0.0106099 0.0109837 0.0113539 0.0116586 0.0119842 0.0122624 0.0125319 0.0128043 0.0130377 0.0132749 0.0134579 0.0136668 0.013778 0.0139556 0.0140675 0.0138708 0.0138406 0.0138043 0.0136543 0.013499 0.0133331 0.0131284 0.0129122 0.0126674 0.0124312 0.0120655 0.0117961 0.0114466 0.0111022 0.0107119 0.0102553 0.00988139 0.00945764 0.00900437 0.00852656 0.00803873 0.00756323 0.00706078 0.00654361 0.00599923 0.00548205 0.00496899 0.00449854 0.00395364 0.00338347 0.00288672 0.00236627 0.00188957 0.00134726 0.000859131 0.000384065 -7.54216e-05 -0.000539755 -0.000984747 -0.001449 -0.0017383 -0.00205635 -0.00238709 -0.00267516 -0.0029021 -0.00317121 -0.00344379 -0.00401167 -0.00387814 -0.00373405 -0.00361108 -0.00343663 -0.00326981 -0.00309638 -0.0029093 -0.00274652 -0.00253845 -0.0023395 -0.0021398 -0.00194226 -0.00172406 -0.00152371 -0.00129836 -0.00106813 -0.000874481 -0.00064464 -0.000413975 -0.000217171 -7.22284e-06 0.000226389 0.000443414 0.000641254 0.000853655 0.00104343 0.00125332 0.00143039 0.00161838 0.00180021 0.00195581 0.00212557 0.00228013 0.00243235 0.00256568 0.0026778 0.00283878 0.00294645 0.00304995 0.00325699 0.00323167 0.00319797 0.00316509 0.00311723 0.00307452 0.00302653 0.00296732 0.00291419 0.00284711 0.00277841 0.00270118 0.00263278 0.00254923 0.00246809 0.00238403 0.00229248 0.00219986 0.00211635 0.00202568 0.00192412 0.00182875 0.00174312 0.00164173 0.00154162 0.00143861 0.00134863 0.00125156 0.00114782 0.0010552 0.000953704 0.000858761 0.000773726 0.000688243 0.000595119 0.00049594 0.000416381 0.000326418 0.000232605 0.00015896 -4.80746e-06 -4.86495e-06 -4.90857e-06 -4.94619e-06 -4.97016e-06 -5.00207e-06 -5.01959e-06 -5.04197e-06 -5.05279e-06 -5.06698e-06 -5.05895e-06 -5.05136e-06 -5.0458e-06 -5.03073e-06 -5.02599e-06 -4.99637e-06 -4.95591e-06 -4.93229e-06 -4.88827e-06 -4.83742e-06 -4.79101e-06 -4.74859e-06 -4.67387e-06 -4.62826e-06 -4.56359e-06 -4.50573e-06 -4.40991e-06 -4.33663e-06 -4.25587e-06 -4.16927e-06 -4.08897e-06 -4.00118e-06 -3.89839e-06 -3.32373e-06 -3.03475e-06 -2.64714e-06 -2.31206e-06 -1.96047e-06 -1.58773e-06 -1.20343e-06 -7.28339e-07 -4.37525e-07 -1.29397e-07 1.73175e-07 4.75019e-07 7.66888e-07 1.1355e-06 1.43488e-06 1.81632e-06 2.10724e-06 2.45635e-06 2.82587e-06 3.14064e-06 3.46587e-06 3.81339e-06 4.14854e-06 4.48843e-06 4.80414e-06 5.13883e-06 5.47538e-06 5.75256e-06 6.06171e-06 6.35847e-06 6.63606e-06 6.92155e-06 7.17313e-06 7.42876e-06 7.64921e-06 7.8747e-06 8.05476e-06 8.26242e-06 8.44132e-06 8.57503e-06 7.97578e-06 7.59947e-06 7.28095e-06 6.95354e-06 6.5895e-06 6.204e-06 5.78593e-06 5.36545e-06 4.82392e-06 4.23648e-06 3.64752e-06 3.07321e-06 2.47503e-06 1.81073e-06 1.20225e-06 5.18363e-07 -1.5268e-07 -8.76062e-07 -1.5469e-06 -2.21544e-06 -2.96277e-06 -3.6991e-06 -4.31054e-06 -5.04034e-06 -5.77503e-06 -6.42523e-06 -7.13615e-06 -7.81145e-06 -8.39438e-06 -9.08367e-06 -9.67701e-06 -1.02905e-05 -1.08708e-05 -1.14529e-05 -1.198e-05 -1.25153e-05 -1.29883e-05 -1.34633e-05 -1.38825e-05 -1.42541e-05 0.00066485 0.00105555 0.00137142 0.00178979 0.00216131 0.00251061 0.00294016 0.00333904 0.00371104 0.00414365 0.00452904 0.00494503 0.00537429 0.00585499 
0.00621645 0.00663223 0.00705832 0.0074737 0.00786005 0.00827265 0.00869735 0.00906425 0.00948415 0.00986105 0.0102625 0.0105816 0.0109544 0.0113236 0.0116275 0.0119523 0.0122297 0.0124984 0.0127701 0.013003 0.0132394 0.013422 0.0136303 0.0137412 0.0139184 0.01403 0.0138338 0.0138037 0.0137674 0.0136179 0.013463 0.0132976 0.0130934 0.0128778 0.0126336 0.0123981 0.0120334 0.0117647 0.0114161 0.0110726 0.0106834 0.0102281 0.00985513 0.00943251 0.00898046 0.00850392 0.0080174 0.00754318 0.00704207 0.00652629 0.00598337 0.00546757 0.00495588 0.00448669 0.00394325 0.00337461 0.00287918 0.00236013 0.00188471 0.00134385 0.000857022 0.000383226 -7.50322e-05 -0.000538125 -0.000981928 -0.00144494 -0.00173348 -0.00205068 -0.00238054 -0.00266785 -0.00289419 -0.00316259 -0.00343445 -0.00400082 -0.00386765 -0.00372396 -0.00360132 -0.00342735 -0.00326098 -0.00308802 -0.00290145 -0.00273911 -0.0025316 -0.00233319 -0.00213404 -0.00193704 -0.00171943 -0.00151962 -0.00129489 -0.00106528 -0.000872155 -0.000642937 -0.000412899 -0.000216629 -7.25064e-06 0.000225727 0.000442163 0.000639466 0.000851291 0.00104055 0.00124987 0.00142646 0.00161394 0.00179528 0.00195046 0.00211975 0.00227389 0.00242571 0.00255867 0.00267049 0.00283103 0.00293841 0.00304164 0.00324811 0.00322286 0.00318925 0.00315646 0.00310873 0.00306614 0.00301828 0.00295923 0.00290624 0.00283935 0.00277083 0.00269381 0.00262561 0.00254228 0.00246136 0.00237753 0.00228623 0.00219386 0.00211058 0.00202016 0.00191887 0.00182377 0.00173837 0.00163726 0.00153742 0.00143469 0.00134495 0.00124815 0.00114469 0.00105232 0.000951105 0.000856421 0.000771616 0.000686367 0.000593497 0.000494588 0.000415246 0.000325528 0.000231971 0.000158527 -4.79429e-06 -4.85162e-06 -4.89512e-06 -4.93264e-06 -4.95655e-06 -4.98837e-06 -5.00585e-06 -5.02817e-06 -5.03896e-06 -5.05312e-06 -5.04512e-06 -5.03755e-06 -5.03201e-06 -5.01698e-06 -5.01226e-06 -4.98271e-06 -4.94237e-06 -4.91882e-06 -4.87493e-06 -4.82422e-06 -4.77793e-06 -4.73563e-06 -4.66112e-06 -4.61564e-06 -4.55115e-06 -4.49345e-06 -4.39789e-06 -4.32481e-06 -4.24427e-06 -4.15792e-06 -4.07784e-06 -3.99029e-06 -3.88778e-06 -3.31468e-06 -3.02649e-06 -2.63994e-06 -2.30577e-06 -1.95513e-06 -1.58341e-06 -1.20015e-06 -7.26352e-07 -4.36326e-07 -1.29033e-07 1.7272e-07 4.73746e-07 7.64824e-07 1.13244e-06 1.431e-06 1.81141e-06 2.10154e-06 2.4497e-06 2.81823e-06 3.13214e-06 3.45649e-06 3.80308e-06 4.13731e-06 4.47629e-06 4.79114e-06 5.12492e-06 5.46056e-06 5.73698e-06 6.0453e-06 6.34125e-06 6.61809e-06 6.9028e-06 7.1537e-06 7.40865e-06 7.6285e-06 7.85337e-06 8.03294e-06 8.24005e-06 8.41846e-06 8.5518e-06 7.95417e-06 7.57888e-06 7.26121e-06 6.93469e-06 6.57163e-06 6.18717e-06 5.77023e-06 5.35089e-06 4.81082e-06 4.22496e-06 3.6376e-06 3.06484e-06 2.46828e-06 1.80577e-06 1.19893e-06 5.16897e-07 -1.52332e-07 -8.73758e-07 -1.54278e-06 -2.20952e-06 -2.95483e-06 -3.68917e-06 -4.29895e-06 -5.02678e-06 -5.75949e-06 -6.40793e-06 -7.11692e-06 -7.7904e-06 -8.37175e-06 -9.05917e-06 -9.65091e-06 -1.02627e-05 -1.08415e-05 -1.1422e-05 -1.19477e-05 -1.24815e-05 -1.29532e-05 -1.3427e-05 -1.38451e-05 -1.42156e-05 0.000663076 0.00105273 0.00136776 0.00178502 0.00215554 0.00250391 0.00293232 0.00333013 0.00370114 0.00413259 0.00451696 0.00493184 0.00535995 0.00583937 
0.00620783 0.00662304 0.00704854 0.00746334 0.00784915 0.00826118 0.0086853 0.00905169 0.009471 0.00984738 0.0102483 0.0105669 0.0109392 0.0113079 0.0116114 0.0119357 0.0122127 0.0124811 0.0127524 0.0129849 0.0132211 0.0134034 0.0136114 0.0137222 0.0138991 0.0140106 0.0138147 0.0137846 0.0137484 0.0135991 0.0134443 0.0132792 0.0130753 0.0128599 0.0126161 0.012381 0.0120167 0.0117484 0.0114003 0.0110573 0.0106686 0.0102139 0.00984152 0.00941949 0.00896806 0.00849219 0.00800635 0.00753279 0.00703238 0.00651731 0.00597515 0.00546007 0.00494909 0.00448055 0.00393786 0.00337002 0.00287528 0.00235694 0.00188219 0.00134208 0.000855929 0.000382791 -7.48309e-05 -0.000537281 -0.000980467 -0.00144284 -0.00173098 -0.00204774 -0.00237715 -0.00266407 -0.0028901 -0.00315812 -0.00342961 -0.00399519 -0.00386222 -0.00371872 -0.00359626 -0.00342253 -0.0032564 -0.00308369 -0.00289738 -0.00273527 -0.00252806 -0.00232993 -0.00213105 -0.00193433 -0.00171703 -0.0015175 -0.00129308 -0.0010638 -0.000870949 -0.000642055 -0.000412341 -0.000216348 -7.26493e-06 0.000225384 0.000441515 0.000638539 0.000850066 0.00103906 0.00124808 0.00142442 0.00161164 0.00179272 0.00194768 0.00211674 0.00227066 0.00242226 0.00255504 0.0026667 0.00282702 0.00293425 0.00303733 0.00324351 0.0032183 0.00318473 0.00315199 0.00310432 0.0030618 0.003014 0.00295504 0.00290213 0.00283533 0.00276691 0.00269 0.00262189 0.00253868 0.00245787 0.00237416 0.002283 0.00219075 0.00210759 0.0020173 0.00191616 0.00182119 0.00173591 0.00163494 0.00153524 0.00143266 0.00134304 0.00124638 0.00114307 0.00105083 0.000949758 0.000855208 0.000770524 0.000685395 0.000592656 0.000493887 0.000414658 0.000325067 0.000231643 0.000158302 -4.78747e-06 -4.84471e-06 -4.88816e-06 -4.92563e-06 -4.9495e-06 -4.98128e-06 -4.99873e-06 -5.02102e-06 -5.0318e-06 -5.04594e-06 -5.03795e-06 -5.03039e-06 -5.02486e-06 -5.00986e-06 -5.00514e-06 -4.97564e-06 -4.93536e-06 -4.91184e-06 -4.86801e-06 -4.81737e-06 -4.77116e-06 -4.72892e-06 -4.65451e-06 -4.6091e-06 -4.5447e-06 -4.48709e-06 -4.39166e-06 -4.31869e-06 -4.23827e-06 -4.15203e-06 -4.07207e-06 -3.98465e-06 -3.88229e-06 -3.30999e-06 -3.02221e-06 -2.6362e-06 -2.30251e-06 -1.95236e-06 -1.58117e-06 -1.19845e-06 -7.25323e-07 -4.35705e-07 -1.28844e-07 1.72484e-07 4.73086e-07 7.63754e-07 1.13085e-06 1.42899e-06 1.80887e-06 2.09859e-06 2.44626e-06 2.81427e-06 3.12774e-06 3.45163e-06 3.79773e-06 4.13149e-06 4.46999e-06 4.7844e-06 5.11771e-06 5.45288e-06 5.72891e-06 6.03679e-06 6.33233e-06 6.60878e-06 6.89309e-06 7.14364e-06 7.39822e-06 7.61776e-06 7.84232e-06 8.02164e-06 8.22845e-06 8.40661e-06 8.53977e-06 7.94298e-06 7.56821e-06 7.25099e-06 6.92492e-06 6.56237e-06 6.17845e-06 5.7621e-06 5.34334e-06 4.80403e-06 4.219e-06 3.63246e-06 3.0605e-06 2.46478e-06 1.80321e-06 1.19722e-06 5.16137e-07 -1.52152e-07 -8.72565e-07 -1.54065e-06 -2.20645e-06 -2.95071e-06 -3.68402e-06 -4.29294e-06 -5.01975e-06 -5.75143e-06 -6.39896e-06 -7.10696e-06 -7.77949e-06 -8.36002e-06 -9.04648e-06 -9.63738e-06 -1.02483e-05 -1.08263e-05 -1.14059e-05 -1.1931e-05 -1.2464e-05 -1.29351e-05 -1.34082e-05 -1.38256e-05 -1.41957e-05 0.000662157 0.00105128 0.00136586 0.00178254 0.00215255 0.00250044 0.00292825 0.00332552 0.00369601 0.00412687 0.0045107 0.004925 0.00535252 0.00583128 
0.00622404 0.00664033 0.00706694 0.00748282 0.00786965 0.00828275 0.00870797 0.00907532 0.00949573 0.00987309 0.010275 0.0105945 0.0109678 0.0113375 0.0116417 0.0119669 0.0122446 0.0125137 0.0127857 0.0130188 0.0132556 0.0134384 0.0136469 0.013758 0.0139354 0.0140471 0.0138507 0.0138205 0.0137842 0.0136346 0.0134794 0.0133138 0.0131094 0.0128935 0.012649 0.0124132 0.012048 0.011779 0.01143 0.0110861 0.0106964 0.0102405 0.00986712 0.00944398 0.00899137 0.00851425 0.00802713 0.00755233 0.00705061 0.00653419 0.00599061 0.00547418 0.00496186 0.0044921 0.00394799 0.00337865 0.00288262 0.00236293 0.00188693 0.0013454 0.000857985 0.000383609 -7.52098e-05 -0.000538869 -0.000983215 -0.00144679 -0.00173568 -0.00205326 -0.00238353 -0.00267119 -0.0028978 -0.00316653 -0.00343872 -0.00400577 -0.00387244 -0.00372856 -0.00360577 -0.00343159 -0.00326501 -0.00309184 -0.00290504 -0.00274249 -0.00253473 -0.00233607 -0.00213667 -0.00193942 -0.00172155 -0.00152149 -0.00129647 -0.00106658 -0.000873217 -0.000643714 -0.00041339 -0.000216876 -7.23798e-06 0.000226029 0.000442734 0.000640282 0.00085237 0.00104187 0.00125144 0.00142825 0.00161597 0.00179753 0.0019529 0.00212241 0.00227674 0.00242874 0.00256187 0.00267383 0.00283457 0.00294208 0.00304543 0.00325216 0.00322688 0.00319323 0.0031604 0.00311261 0.00306997 0.00302204 0.00296292 0.00290987 0.00284289 0.00277429 0.00269717 0.00262888 0.00254545 0.00246443 0.00238049 0.00228909 0.0021966 0.00211321 0.00202268 0.00192127 0.00182604 0.00174054 0.0016393 0.00153934 0.00143648 0.00134663 0.00124971 0.00114612 0.00105363 0.000952291 0.000857489 0.000772579 0.000687224 0.000594237 0.000495205 0.000415764 0.000325934 0.000232261 0.000158725 -4.8003e-06 -4.8577e-06 -4.90126e-06 -4.93883e-06 -4.96276e-06 -4.99462e-06 -5.01212e-06 -5.03447e-06 -5.04527e-06 -5.05944e-06 -5.05143e-06 -5.04386e-06 -5.03831e-06 -5.02326e-06 -5.01853e-06 -4.98895e-06 -4.94855e-06 -4.92497e-06 -4.88102e-06 -4.83024e-06 -4.7839e-06 -4.74154e-06 -4.66694e-06 -4.6214e-06 -4.55683e-06 -4.49906e-06 -4.40337e-06 -4.3302e-06 -4.24957e-06 -4.1631e-06 -4.08292e-06 -3.99526e-06 -3.89262e-06 -3.31881e-06 -3.03026e-06 -2.64323e-06 -2.30864e-06 -1.95757e-06 -1.58538e-06 -1.20164e-06 -7.27259e-07 -4.36873e-07 -1.29199e-07 1.72928e-07 4.74327e-07 7.65766e-07 1.13384e-06 1.43277e-06 1.81365e-06 2.10414e-06 2.45274e-06 2.82172e-06 3.13602e-06 3.46077e-06 3.80779e-06 4.14244e-06 4.48183e-06 4.79708e-06 5.13127e-06 5.46733e-06 5.74409e-06 6.05279e-06 6.34911e-06 6.6263e-06 6.91136e-06 7.16257e-06 7.41783e-06 7.63795e-06 7.8631e-06 8.0429e-06 8.25026e-06 8.42889e-06 8.56241e-06 7.96404e-06 7.58828e-06 7.27022e-06 6.9433e-06 6.57979e-06 6.19485e-06 5.7774e-06 5.35753e-06 4.8168e-06 4.23022e-06 3.64213e-06 3.06866e-06 2.47136e-06 1.80804e-06 1.20045e-06 5.17566e-07 -1.52491e-07 -8.7481e-07 -1.54466e-06 -2.21222e-06 -2.95846e-06 -3.6937e-06 -4.30424e-06 -5.03297e-06 -5.76658e-06 -6.41583e-06 -7.1257e-06 -7.80001e-06 -8.38208e-06 -9.07035e-06 -9.66282e-06 -1.02754e-05 -1.08548e-05 -1.14361e-05 -1.19625e-05 -1.24969e-05 -1.29692e-05 -1.34436e-05 -1.38622e-05 -1.42332e-05 0.000663886 0.00105402 0.00136943 0.0017872 0.00215817 0.00250697 0.0029359 0.0033342 0.00370566 0.00413764 0.00452248 0.00493786 0.00536649 0.0058465 
0.00620433 0.0066193 0.00704455 0.00745912 0.00784472 0.00825651 0.00868039 0.00904657 0.00946565 0.00984182 0.0102425 0.010561 0.010933 0.0113015 0.0116048 0.011929 0.0122058 0.012474 0.0127452 0.0129776 0.0132136 0.0133958 0.0136037 0.0137144 0.0138912 0.0140026 0.0138069 0.0137768 0.0137406 0.0135914 0.0134367 0.0132717 0.0130679 0.0128527 0.012609 0.012374 0.0120099 0.0117418 0.0113939 0.0110511 0.0106626 0.0102082 0.00983598 0.00941419 0.00896302 0.00848742 0.00800185 0.00752856 0.00702843 0.00651366 0.0059718 0.00545702 0.00494632 0.00447805 0.00393567 0.00336815 0.00287369 0.00235565 0.00188116 0.00134136 0.000855484 0.000382614 -7.4749e-05 -0.000536937 -0.000979872 -0.00144198 -0.00172996 -0.00204654 -0.00237577 -0.00266253 -0.00288843 -0.0031563 -0.00342764 -0.0039929 -0.00386 -0.00371659 -0.0035942 -0.00342058 -0.00325453 -0.00308192 -0.00289572 -0.0027337 -0.00252661 -0.0023286 -0.00212984 -0.00193323 -0.00171605 -0.00151664 -0.00129235 -0.0010632 -0.000870458 -0.000641695 -0.000412114 -0.000216234 -7.27073e-06 0.000225245 0.000441251 0.000638162 0.000849567 0.00103845 0.00124736 0.00142359 0.00161071 0.00179168 0.00194655 0.00211551 0.00226935 0.00242086 0.00255356 0.00266516 0.00282539 0.00293255 0.00303557 0.00324164 0.00321644 0.00318289 0.00315017 0.00310253 0.00306003 0.00301226 0.00295333 0.00290045 0.00283369 0.00276531 0.00268845 0.00262037 0.00253721 0.00245645 0.00237279 0.00228168 0.00218949 0.00210637 0.00201613 0.00191505 0.00182013 0.00173491 0.00163399 0.00153436 0.00143183 0.00134227 0.00124567 0.00114241 0.00105022 0.000949209 0.000854714 0.000770079 0.000684999 0.000592314 0.000493602 0.000414419 0.00032488 0.000231509 0.000158211 -4.78469e-06 -4.8419e-06 -4.88532e-06 -4.92277e-06 -4.94663e-06 -4.97839e-06 -4.99583e-06 -5.01811e-06 -5.02889e-06 -5.04301e-06 -5.03503e-06 -5.02748e-06 -5.02195e-06 -5.00696e-06 -5.00224e-06 -4.97276e-06 -4.9325e-06 -4.909e-06 -4.8652e-06 -4.81459e-06 -4.7684e-06 -4.72618e-06 -4.65182e-06 -4.60644e-06 -4.54208e-06 -4.4845e-06 -4.38913e-06 -4.3162e-06 -4.23582e-06 -4.14964e-06 -4.06972e-06 -3.98235e-06 -3.88005e-06 -3.30808e-06 -3.02047e-06 -2.63468e-06 -2.30118e-06 -1.95124e-06 -1.58025e-06 -1.19776e-06 -7.24904e-07 -4.35452e-07 -1.28768e-07 1.72387e-07 4.72817e-07 7.63319e-07 1.1302e-06 1.42818e-06 1.80783e-06 2.09739e-06 2.44486e-06 2.81266e-06 3.12595e-06 3.44966e-06 3.79555e-06 4.12912e-06 4.46743e-06 4.78166e-06 5.11477e-06 5.44975e-06 5.72563e-06 6.03333e-06 6.3287e-06 6.60499e-06 6.88914e-06 7.13954e-06 7.39398e-06 7.61339e-06 7.83782e-06 8.01704e-06 8.22373e-06 8.40179e-06 8.53487e-06 7.93842e-06 7.56387e-06 7.24682e-06 6.92095e-06 6.5586e-06 6.1749e-06 5.75879e-06 5.34027e-06 4.80126e-06 4.21657e-06 3.63037e-06 3.05873e-06 2.46335e-06 1.80216e-06 1.19652e-06 5.15828e-07 -1.52079e-07 -8.72079e-07 -1.53978e-06 -2.2052e-06 -2.94904e-06 -3.68192e-06 -4.2905e-06 -5.01689e-06 -5.74815e-06 -6.39531e-06 -7.1029e-06 -7.77505e-06 -8.35525e-06 -9.04131e-06 -9.63188e-06 -1.02425e-05 -1.08201e-05 -1.13994e-05 -1.19241e-05 -1.24569e-05 -1.29277e-05 -1.34005e-05 -1.38177e-05 -1.41876e-05 0.000661783 0.00105068 0.00136509 0.00178153 0.00215134 0.00249903 0.0029266 0.00332364 0.00369392 0.00412453 0.00450815 0.00492222 0.0053495 0.00582798 
0.00621168 0.00662714 0.0070529 0.00746796 0.00785402 0.0082663 0.00869068 0.00905729 0.00947687 0.00985348 0.0102546 0.0105735 0.010946 0.0113149 0.0116186 0.0119431 0.0122203 0.0124888 0.0127603 0.012993 0.0132293 0.0134117 0.0136198 0.0137307 0.0139077 0.0140192 0.0138232 0.0137931 0.0137569 0.0136075 0.0134527 0.0132874 0.0130834 0.0128679 0.0126239 0.0123886 0.0120241 0.0117557 0.0114074 0.0110642 0.0106752 0.0102203 0.00984759 0.0094253 0.00897359 0.00849743 0.00801128 0.00753742 0.00703671 0.00652132 0.00597882 0.00546342 0.00495212 0.00448329 0.00394027 0.00337207 0.00287702 0.00235836 0.00188331 0.00134287 0.000856417 0.000382986 -7.49207e-05 -0.000537657 -0.000981119 -0.00144377 -0.0017321 -0.00204905 -0.00237867 -0.00266576 -0.00289192 -0.00316012 -0.00343177 -0.0039977 -0.00386464 -0.00372106 -0.00359851 -0.00342468 -0.00325844 -0.00308562 -0.0028992 -0.00273698 -0.00252964 -0.00233138 -0.00213238 -0.00193554 -0.0017181 -0.00151845 -0.00129389 -0.00106446 -0.000871487 -0.000642448 -0.00041259 -0.000216473 -7.25856e-06 0.000225537 0.000441804 0.000638953 0.000850612 0.00103973 0.00124888 0.00142533 0.00161267 0.00179386 0.00194892 0.00211809 0.0022721 0.0024238 0.00255666 0.00266839 0.00282881 0.0029361 0.00303925 0.00324556 0.00322034 0.00318675 0.00315398 0.00310629 0.00306374 0.00301591 0.00295691 0.00290396 0.00283712 0.00276866 0.0026917 0.00262355 0.00254028 0.00245943 0.00237566 0.00228444 0.00219214 0.00210892 0.00201857 0.00191737 0.00182234 0.00173701 0.00163597 0.00153622 0.00143357 0.00134389 0.00124717 0.00114379 0.00105149 0.000950359 0.000855749 0.000771011 0.000685829 0.000593032 0.0004942 0.000414921 0.000325273 0.000231789 0.000158403 -4.79051e-06 -4.8478e-06 -4.89127e-06 -4.92876e-06 -4.95265e-06 -4.98444e-06 -5.00191e-06 -5.02421e-06 -5.035e-06 -5.04914e-06 -5.04115e-06 -5.03359e-06 -5.02805e-06 -5.01304e-06 -5.00832e-06 -4.9788e-06 -4.93849e-06 -4.91495e-06 -4.8711e-06 -4.82043e-06 -4.77418e-06 -4.73191e-06 -4.65746e-06 -4.61202e-06 -4.54758e-06 -4.48993e-06 -4.39444e-06 -4.32142e-06 -4.24095e-06 -4.15466e-06 -4.07464e-06 -3.98716e-06 -3.88474e-06 -3.31209e-06 -3.02412e-06 -2.63787e-06 -2.30396e-06 -1.9536e-06 -1.58217e-06 -1.19921e-06 -7.25782e-07 -4.35982e-07 -1.28929e-07 1.72589e-07 4.7338e-07 7.64232e-07 1.13156e-06 1.42989e-06 1.81e-06 2.09991e-06 2.4478e-06 2.81603e-06 3.1297e-06 3.4538e-06 3.80011e-06 4.13409e-06 4.4728e-06 4.78741e-06 5.12092e-06 5.45631e-06 5.73251e-06 6.04059e-06 6.33631e-06 6.61294e-06 6.89743e-06 7.14813e-06 7.40287e-06 7.62255e-06 7.84725e-06 8.02668e-06 8.23362e-06 8.41189e-06 8.54514e-06 7.94797e-06 7.57297e-06 7.25555e-06 6.92928e-06 6.5665e-06 6.18234e-06 5.76573e-06 5.34671e-06 4.80706e-06 4.22166e-06 3.63475e-06 3.06243e-06 2.46634e-06 1.80435e-06 1.19798e-06 5.16476e-07 -1.52232e-07 -8.73097e-07 -1.5416e-06 -2.20782e-06 -2.95255e-06 -3.68631e-06 -4.29562e-06 -5.02289e-06 -5.75502e-06 -6.40296e-06 -7.1114e-06 -7.78436e-06 -8.36525e-06 -9.05214e-06 -9.64342e-06 -1.02548e-05 -1.0833e-05 -1.14131e-05 -1.19384e-05 -1.24718e-05 -1.29432e-05 -1.34166e-05 -1.38343e-05 -1.42046e-05 0.000662567 0.00105193 0.00136671 0.00178365 0.00215389 0.00250199 0.00293006 0.00332758 0.0036983 0.00412942 0.00451349 0.00492805 0.00535584 0.00583489 
0.00619284 0.00660705 0.00703151 0.00744531 0.0078302 0.00824123 0.00866432 0.00902983 0.00944813 0.0098236 0.0102235 0.0105414 0.0109128 0.0112806 0.0115833 0.0119069 0.0121832 0.012451 0.0127216 0.0129536 0.0131892 0.013371 0.0135785 0.013689 0.0138655 0.0139767 0.0137813 0.0137513 0.0137152 0.0135662 0.0134119 0.0132471 0.0130437 0.0128289 0.0125857 0.0123511 0.0119877 0.0117201 0.0113729 0.0110307 0.0106429 0.0101894 0.00981784 0.00939683 0.0089465 0.00847179 0.00798712 0.00751471 0.00701551 0.00650169 0.00596085 0.00544702 0.00493727 0.00446987 0.0039285 0.00336203 0.00286849 0.00235141 0.0018778 0.001339 0.000854026 0.000382034 -7.44813e-05 -0.000535812 -0.000977927 -0.00143918 -0.00172663 -0.00204263 -0.00237125 -0.00265748 -0.00288297 -0.00315035 -0.00342119 -0.00398541 -0.00385276 -0.00370962 -0.00358746 -0.00341416 -0.00324843 -0.00307615 -0.0028903 -0.00272859 -0.00252188 -0.00232424 -0.00212586 -0.00192962 -0.00171285 -0.00151381 -0.00128995 -0.00106123 -0.000868851 -0.000640519 -0.00041137 -0.000215859 -7.28963e-06 0.000224788 0.000440387 0.000636928 0.000847935 0.00103646 0.00124498 0.00142088 0.00160764 0.00178828 0.00194286 0.0021115 0.00226505 0.00241627 0.00254872 0.00266011 0.00282004 0.002927 0.00302983 0.00323551 0.00321036 0.00317687 0.00314421 0.00309667 0.00305424 0.00300656 0.00294774 0.00289497 0.00282833 0.00276008 0.00268336 0.00261542 0.00253241 0.00245181 0.0023683 0.00227736 0.00218535 0.00210239 0.00201232 0.00191143 0.00181669 0.00173163 0.0016309 0.00153146 0.00142912 0.00133973 0.00124331 0.00114025 0.00104824 0.000947414 0.000853098 0.000768623 0.000683704 0.000591194 0.000492669 0.000413635 0.000324265 0.000231071 0.000157912 -4.7756e-06 -4.8327e-06 -4.87604e-06 -4.91342e-06 -4.93724e-06 -4.96894e-06 -4.98635e-06 -5.00859e-06 -5.01934e-06 -5.03344e-06 -5.02548e-06 -5.01794e-06 -5.01243e-06 -4.99746e-06 -4.99276e-06 -4.96334e-06 -4.92316e-06 -4.8997e-06 -4.85598e-06 -4.80547e-06 -4.75937e-06 -4.71724e-06 -4.64302e-06 -4.59772e-06 -4.53349e-06 -4.47601e-06 -4.38083e-06 -4.30804e-06 -4.22782e-06 -4.1418e-06 -4.06203e-06 -3.97483e-06 -3.87272e-06 -3.30184e-06 -3.01476e-06 -2.62971e-06 -2.29683e-06 -1.94755e-06 -1.57727e-06 -1.19549e-06 -7.23532e-07 -4.34624e-07 -1.28516e-07 1.72073e-07 4.71937e-07 7.61893e-07 1.12809e-06 1.4255e-06 1.80444e-06 2.09345e-06 2.44027e-06 2.80738e-06 3.12008e-06 3.44318e-06 3.78843e-06 4.12137e-06 4.45904e-06 4.77268e-06 5.10517e-06 5.43952e-06 5.71487e-06 6.022e-06 6.31681e-06 6.59258e-06 6.8762e-06 7.12613e-06 7.38009e-06 7.59909e-06 7.82309e-06 8.00197e-06 8.20828e-06 8.386e-06 8.51883e-06 7.9235e-06 7.54965e-06 7.2332e-06 6.90793e-06 6.54626e-06 6.16328e-06 5.74795e-06 5.33021e-06 4.79222e-06 4.20862e-06 3.62351e-06 3.05295e-06 2.45869e-06 1.79874e-06 1.19423e-06 5.14816e-07 -1.51838e-07 -8.70488e-07 -1.53693e-06 -2.20111e-06 -2.94355e-06 -3.67506e-06 -4.2825e-06 -5.00753e-06 -5.73741e-06 -6.38336e-06 -7.08962e-06 -7.76051e-06 -8.33962e-06 -9.0244e-06 -9.61386e-06 -1.02233e-05 -1.07998e-05 -1.13781e-05 -1.19018e-05 -1.24335e-05 -1.29035e-05 -1.33754e-05 -1.37919e-05 -1.4161e-05 0.000660559 0.00104874 0.00136256 0.00177824 0.00214736 0.0024944 0.00292118 0.00331749 0.00368709 0.0041169 0.00449981 0.00491311 0.00533959 0.0058172 
0.00617426 0.00658722 0.00701042 0.00742298 0.00780671 0.0082165 0.00863833 0.00900274 0.00941979 0.00979413 0.0101929 0.0105098 0.01088 0.0112468 0.0115486 0.0118711 0.0121467 0.0124136 0.0126835 0.0129147 0.0131496 0.0133309 0.0135378 0.0136479 0.0138239 0.0139348 0.01374 0.01371 0.0136741 0.0135256 0.0133717 0.0132074 0.0130046 0.0127905 0.012548 0.0123141 0.0119518 0.011685 0.0113388 0.0109977 0.0106111 0.0101589 0.00978849 0.00936875 0.00891978 0.0084465 0.00796329 0.0074923 0.00699461 0.00648234 0.00594312 0.00543084 0.00492263 0.00445664 0.00391689 0.00335212 0.00286007 0.00234455 0.00187236 0.00133518 0.000851666 0.000381094 -7.40492e-05 -0.000533994 -0.000974779 -0.00143464 -0.00172125 -0.0020363 -0.00236394 -0.00264931 -0.00287413 -0.00314072 -0.00341075 -0.00397329 -0.00384105 -0.00369834 -0.00357655 -0.00340379 -0.00323857 -0.00306681 -0.00288153 -0.00272031 -0.00251424 -0.0023172 -0.00211942 -0.00192378 -0.00170767 -0.00150924 -0.00128606 -0.00105804 -0.000866251 -0.000638617 -0.000410167 -0.000215253 -7.31993e-06 0.000224049 0.000438991 0.000634932 0.000845295 0.00103325 0.00124112 0.00141649 0.00160268 0.00178277 0.00193688 0.00210501 0.00225808 0.00240885 0.0025409 0.00265195 0.00281139 0.00291802 0.00302054 0.00322559 0.00320052 0.00316714 0.00313457 0.00308717 0.00304488 0.00299735 0.00293871 0.00288609 0.00281966 0.00275162 0.00267514 0.0026074 0.00252465 0.00244429 0.00236104 0.00227038 0.00217865 0.00209595 0.00200615 0.00190557 0.00181112 0.00172632 0.0016259 0.00152676 0.00142474 0.00133562 0.0012395 0.00113676 0.00104502 0.00094451 0.000850483 0.000766267 0.000681609 0.000589382 0.000491159 0.000412367 0.000323271 0.000230363 0.000157428 -4.76088e-06 -4.81782e-06 -4.86102e-06 -4.89829e-06 -4.92204e-06 -4.95364e-06 -4.971e-06 -4.99318e-06 -5.0039e-06 -5.01796e-06 -5.01003e-06 -5.00252e-06 -4.99702e-06 -4.98211e-06 -4.97742e-06 -4.94809e-06 -4.90804e-06 -4.88465e-06 -4.84107e-06 -4.79072e-06 -4.74477e-06 -4.70276e-06 -4.62878e-06 -4.58362e-06 -4.51959e-06 -4.46229e-06 -4.3674e-06 -4.29484e-06 -4.21487e-06 -4.12912e-06 -4.0496e-06 -3.96266e-06 -3.86087e-06 -3.29173e-06 -3.00553e-06 -2.62166e-06 -2.2898e-06 -1.94158e-06 -1.57243e-06 -1.19183e-06 -7.21313e-07 -4.33285e-07 -1.2811e-07 1.71563e-07 4.70515e-07 7.59587e-07 1.12467e-06 1.42117e-06 1.79896e-06 2.08709e-06 2.43285e-06 2.79884e-06 3.11059e-06 3.4327e-06 3.7769e-06 4.10883e-06 4.44547e-06 4.75815e-06 5.08963e-06 5.42296e-06 5.69748e-06 6.00367e-06 6.29758e-06 6.57251e-06 6.85526e-06 7.10443e-06 7.35761e-06 7.57595e-06 7.79927e-06 7.97761e-06 8.18328e-06 8.36046e-06 8.49289e-06 7.89936e-06 7.52664e-06 7.21115e-06 6.88687e-06 6.5263e-06 6.14448e-06 5.73041e-06 5.31394e-06 4.77758e-06 4.19576e-06 3.61243e-06 3.0436e-06 2.45114e-06 1.7932e-06 1.19053e-06 5.1318e-07 -1.51449e-07 -8.67914e-07 -1.53233e-06 -2.19449e-06 -2.93468e-06 -3.66396e-06 -4.26955e-06 -4.99238e-06 -5.72004e-06 -6.36403e-06 -7.06814e-06 -7.73699e-06 -8.31434e-06 -8.99703e-06 -9.5847e-06 -1.01923e-05 -1.07671e-05 -1.13436e-05 -1.18657e-05 -1.23958e-05 -1.28643e-05 -1.33348e-05 -1.375e-05 -1.4118e-05 0.000658577 0.00104559 0.00135848 0.0017729 0.00214091 0.00248692 0.00291242 0.00330753 0.00367602 0.00410455 0.00448631 0.00489836 0.00532357 0.00579974 
0.00616526 0.00657762 0.0070002 0.00741215 0.00779533 0.00820453 0.00862573 0.00898961 0.00940605 0.00977985 0.010178 0.0104945 0.0108642 0.0112304 0.0115317 0.0118538 0.012129 0.0123955 0.012665 0.0128959 0.0131304 0.0133115 0.013518 0.013628 0.0138037 0.0139145 0.0137199 0.0136901 0.0136541 0.0135059 0.0133522 0.0131882 0.0129857 0.0127718 0.0125298 0.0122962 0.0119345 0.011668 0.0113223 0.0109817 0.0105957 0.0101441 0.00977427 0.00935515 0.00890684 0.00843424 0.00795175 0.00748145 0.00698448 0.00647296 0.00593453 0.005423 0.00491553 0.00445022 0.00391127 0.00334732 0.00285599 0.00234122 0.00186973 0.00133333 0.000850523 0.000380638 -7.38404e-05 -0.000533113 -0.000973255 -0.00143245 -0.00171864 -0.00203324 -0.0023604 -0.00264536 -0.00286985 -0.00313606 -0.0034057 -0.00396742 -0.00383537 -0.00369288 -0.00357127 -0.00339876 -0.00323379 -0.00306228 -0.00287728 -0.00271629 -0.00251053 -0.00231378 -0.0021163 -0.00192095 -0.00170517 -0.00150703 -0.00128418 -0.0010565 -0.000864992 -0.000637695 -0.000409584 -0.000214959 -7.33448e-06 0.000223692 0.000438314 0.000633965 0.000844016 0.00103169 0.00123926 0.00141437 0.00160028 0.0017801 0.00193398 0.00210186 0.00225471 0.00240525 0.00253711 0.00264799 0.00280719 0.00291367 0.00301604 0.00322079 0.00319575 0.00316242 0.00312991 0.00308258 0.00304035 0.00299289 0.00293433 0.00288179 0.00281546 0.00274753 0.00267115 0.00260352 0.00252089 0.00244065 0.00235753 0.002267 0.0021754 0.00209282 0.00200316 0.00190273 0.00180843 0.00172375 0.00162348 0.00152449 0.00142262 0.00133364 0.00123765 0.00113506 0.00104347 0.000943104 0.000849216 0.000765126 0.000680594 0.000588505 0.000490427 0.000411753 0.00032279 0.00023002 0.000157194 -4.75376e-06 -4.81061e-06 -4.85375e-06 -4.89096e-06 -4.91468e-06 -4.94623e-06 -4.96357e-06 -4.98571e-06 -4.99642e-06 -5.01046e-06 -5.00254e-06 -4.99504e-06 -4.98956e-06 -4.97467e-06 -4.96999e-06 -4.94071e-06 -4.90071e-06 -4.87737e-06 -4.83385e-06 -4.78358e-06 -4.73769e-06 -4.69575e-06 -4.62188e-06 -4.57679e-06 -4.51285e-06 -4.45565e-06 -4.3609e-06 -4.28844e-06 -4.2086e-06 -4.12297e-06 -4.04358e-06 -3.95677e-06 -3.85513e-06 -3.28684e-06 -3.00106e-06 -2.61776e-06 -2.28639e-06 -1.9387e-06 -1.57009e-06 -1.19005e-06 -7.20238e-07 -4.32637e-07 -1.27913e-07 1.71317e-07 4.69825e-07 7.5847e-07 1.12301e-06 1.41908e-06 1.79631e-06 2.08401e-06 2.42926e-06 2.7947e-06 3.10599e-06 3.42763e-06 3.77131e-06 4.10275e-06 4.43889e-06 4.75111e-06 5.0821e-06 5.41494e-06 5.68905e-06 5.99478e-06 6.28826e-06 6.56279e-06 6.84512e-06 7.09392e-06 7.34673e-06 7.56474e-06 7.78773e-06 7.9658e-06 8.17117e-06 8.34809e-06 8.48032e-06 7.88767e-06 7.5155e-06 7.20047e-06 6.87667e-06 6.51664e-06 6.13538e-06 5.72191e-06 5.30606e-06 4.77049e-06 4.18953e-06 3.60706e-06 3.03907e-06 2.44749e-06 1.79051e-06 1.18873e-06 5.12387e-07 -1.5126e-07 -8.66667e-07 -1.53011e-06 -2.19128e-06 -2.93038e-06 -3.65858e-06 -4.26328e-06 -4.98504e-06 -5.71163e-06 -6.35466e-06 -7.05774e-06 -7.72559e-06 -8.30209e-06 -8.98378e-06 -9.57057e-06 -1.01773e-05 -1.07512e-05 -1.13268e-05 -1.18482e-05 -1.23775e-05 -1.28453e-05 -1.33151e-05 -1.37297e-05 -1.40972e-05 0.000657617 0.00104407 0.0013565 0.00177032 0.00213779 0.00248329 0.00290817 0.00330271 0.00367067 0.00409856 0.00447977 0.00489122 0.00531581 0.00579129 
0.00614348 0.00655438 0.00697546 0.00738597 0.00776778 0.00817554 0.00859526 0.00895785 0.00937282 0.00974529 0.010142 0.0104574 0.0108258 0.0111907 0.011491 0.011812 0.0120861 0.0123517 0.0126202 0.0128503 0.013084 0.0132644 0.0134703 0.0135799 0.013755 0.0138653 0.0136715 0.0136417 0.0136059 0.0134582 0.0133051 0.0131416 0.0129399 0.0127268 0.0124855 0.0122528 0.0118924 0.0116269 0.0112824 0.010943 0.0105584 0.0101084 0.00973986 0.00932223 0.00887551 0.00840459 0.00792381 0.00745517 0.00695998 0.00645027 0.00591375 0.00540403 0.00489836 0.0044347 0.00389765 0.00333571 0.00284612 0.00233317 0.00186335 0.00132885 0.000847754 0.000379533 -7.33364e-05 -0.000530984 -0.000969568 -0.00142714 -0.00171233 -0.00202582 -0.00235183 -0.00263579 -0.0028595 -0.00312477 -0.00339346 -0.00395321 -0.00382163 -0.00367966 -0.00355849 -0.0033866 -0.00322222 -0.00305133 -0.00286699 -0.00270659 -0.00250157 -0.00230553 -0.00210875 -0.0019141 -0.0016991 -0.00150167 -0.00127963 -0.00105276 -0.000861944 -0.000635464 -0.000408174 -0.000214247 -7.36938e-06 0.000222827 0.000436678 0.000631626 0.000840922 0.00102792 0.00123474 0.00140923 0.00159447 0.00177365 0.00192697 0.00209425 0.00224655 0.00239655 0.00252793 0.00263842 0.00279705 0.00290315 0.00300515 0.00320916 0.00318422 0.00315101 0.00311861 0.00307145 0.00302938 0.00298208 0.00292374 0.00287139 0.0028053 0.00273761 0.00266151 0.00259412 0.00251179 0.00243185 0.00234902 0.00225882 0.00216755 0.00208527 0.00199593 0.00189587 0.0018019 0.00171753 0.00161762 0.00151899 0.00141749 0.00132882 0.00123319 0.00113097 0.0010397 0.0009397 0.000846152 0.000762364 0.000678137 0.000586381 0.000488657 0.000410267 0.000321625 0.00022919 0.000156626 -4.73651e-06 -4.79316e-06 -4.83615e-06 -4.87323e-06 -4.89686e-06 -4.92831e-06 -4.94559e-06 -4.96765e-06 -4.97832e-06 -4.99232e-06 -4.98443e-06 -4.97696e-06 -4.9715e-06 -4.95666e-06 -4.95201e-06 -4.92283e-06 -4.88299e-06 -4.85973e-06 -4.81638e-06 -4.76629e-06 -4.72057e-06 -4.67879e-06 -4.60519e-06 -4.56027e-06 -4.49656e-06 -4.43957e-06 -4.34516e-06 -4.27297e-06 -4.19342e-06 -4.10811e-06 -4.029e-06 -3.94251e-06 -3.84124e-06 -3.27499e-06 -2.99025e-06 -2.60832e-06 -2.27815e-06 -1.9317e-06 -1.56443e-06 -1.18576e-06 -7.17637e-07 -4.31067e-07 -1.27437e-07 1.70719e-07 4.68157e-07 7.55766e-07 1.119e-06 1.414e-06 1.78988e-06 2.07655e-06 2.42056e-06 2.78469e-06 3.09486e-06 3.41535e-06 3.7578e-06 4.08805e-06 4.42298e-06 4.73408e-06 5.06388e-06 5.39552e-06 5.66865e-06 5.97329e-06 6.26572e-06 6.53926e-06 6.82057e-06 7.06848e-06 7.32038e-06 7.53761e-06 7.7598e-06 7.93724e-06 8.14187e-06 8.31815e-06 8.44991e-06 7.85937e-06 7.48853e-06 7.17463e-06 6.85199e-06 6.49324e-06 6.11334e-06 5.70135e-06 5.28699e-06 4.75333e-06 4.17445e-06 3.59407e-06 3.02811e-06 2.43865e-06 1.78402e-06 1.18439e-06 5.10469e-07 -1.50802e-07 -8.63649e-07 -1.52471e-06 -2.18352e-06 -2.91997e-06 -3.64557e-06 -4.2481e-06 -4.96728e-06 -5.69127e-06 -6.33199e-06 -7.03255e-06 -7.69802e-06 -8.27245e-06 -8.9517e-06 -9.53639e-06 -1.01409e-05 -1.07128e-05 -1.12864e-05 -1.18059e-05 -1.23333e-05 -1.27994e-05 -1.32675e-05 -1.36806e-05 -1.40468e-05 0.000655294 0.00104038 0.0013517 0.00176406 0.00213024 0.00247452 0.00289789 0.00329104 0.0036577 0.00408408 0.00446394 0.00487394 0.00529703 0.00577083 
0.00613949 0.00655012 0.00697093 0.00738117 0.00776274 0.00817022 0.00858967 0.00895203 0.00936673 0.00973896 0.0101354 0.0104506 0.0108188 0.0111834 0.0114835 0.0118043 0.0120783 0.0123437 0.012612 0.012842 0.0130755 0.0132558 0.0134615 0.0135711 0.013746 0.0138563 0.0136626 0.0136329 0.0135971 0.0134494 0.0132964 0.0131331 0.0129315 0.0127185 0.0124774 0.0122449 0.0118847 0.0116193 0.0112751 0.0109359 0.0105515 0.0101019 0.00973356 0.00931619 0.00886977 0.00839916 0.00791868 0.00745036 0.00695548 0.00644611 0.00590994 0.00540055 0.00489522 0.00443186 0.00389516 0.00333358 0.00284431 0.0023317 0.00186218 0.00132803 0.000847246 0.00037933 -7.32442e-05 -0.000530594 -0.000968892 -0.00142616 -0.00171117 -0.00202446 -0.00235026 -0.00263403 -0.0028576 -0.0031227 -0.00339122 -0.0039506 -0.00381912 -0.00367723 -0.00355614 -0.00338437 -0.0032201 -0.00304932 -0.0028651 -0.00270481 -0.00249992 -0.00230401 -0.00210737 -0.00191285 -0.00169799 -0.00150069 -0.00127879 -0.00105208 -0.000861385 -0.000635055 -0.000407915 -0.000214117 -7.37572e-06 0.000222668 0.000436378 0.000631197 0.000840355 0.00102723 0.00123392 0.00140828 0.00159341 0.00177246 0.00192569 0.00209285 0.00224506 0.00239496 0.00252625 0.00263667 0.00279519 0.00290122 0.00300315 0.00320703 0.0031821 0.00314891 0.00311654 0.00306941 0.00302736 0.0029801 0.0029218 0.00286949 0.00280344 0.00273579 0.00265975 0.0025924 0.00251013 0.00243023 0.00234746 0.00225732 0.00216611 0.00208389 0.00199461 0.00189461 0.0018007 0.00171639 0.00161655 0.00151798 0.00141655 0.00132794 0.00123237 0.00113022 0.00103901 0.000939076 0.00084559 0.000761858 0.000677687 0.000585991 0.000488333 0.000409995 0.000321412 0.000229038 0.000156522 -4.73335e-06 -4.78996e-06 -4.83292e-06 -4.86998e-06 -4.8936e-06 -4.92502e-06 -4.94229e-06 -4.96434e-06 -4.97501e-06 -4.98899e-06 -4.98111e-06 -4.97365e-06 -4.96819e-06 -4.95337e-06 -4.94871e-06 -4.91956e-06 -4.87974e-06 -4.8565e-06 -4.81318e-06 -4.76312e-06 -4.71744e-06 -4.67568e-06 -4.60213e-06 -4.55724e-06 -4.49358e-06 -4.43662e-06 -4.34228e-06 -4.27014e-06 -4.19063e-06 -4.10538e-06 -4.02633e-06 -3.9399e-06 -3.8387e-06 -3.27282e-06 -2.98827e-06 -2.60659e-06 -2.27664e-06 -1.93042e-06 -1.56339e-06 -1.18497e-06 -7.1716e-07 -4.3078e-07 -1.27349e-07 1.7061e-07 4.67851e-07 7.5527e-07 1.11826e-06 1.41307e-06 1.7887e-06 2.07518e-06 2.41897e-06 2.78286e-06 3.09283e-06 3.4131e-06 3.75532e-06 4.08536e-06 4.42007e-06 4.73096e-06 5.06054e-06 5.39197e-06 5.66491e-06 5.96935e-06 6.26158e-06 6.53494e-06 6.81608e-06 7.06382e-06 7.31555e-06 7.53264e-06 7.75468e-06 7.932e-06 8.1365e-06 8.31266e-06 8.44433e-06 7.85419e-06 7.48359e-06 7.1699e-06 6.84746e-06 6.48895e-06 6.1093e-06 5.69759e-06 5.28349e-06 4.75019e-06 4.17169e-06 3.59169e-06 3.0261e-06 2.43703e-06 1.78283e-06 1.1836e-06 5.10118e-07 -1.50718e-07 -8.63096e-07 -1.52372e-06 -2.1821e-06 -2.91806e-06 -3.64319e-06 -4.24532e-06 -4.96402e-06 -5.68754e-06 -6.32784e-06 -7.02794e-06 -7.69297e-06 -8.26702e-06 -8.94582e-06 -9.53013e-06 -1.01343e-05 -1.07057e-05 -1.1279e-05 -1.17981e-05 -1.23252e-05 -1.2791e-05 -1.32588e-05 -1.36716e-05 -1.40375e-05 0.000654869 0.0010397 0.00135082 0.00176292 0.00212886 0.00247291 0.00289601 0.0032889 0.00365532 0.00408143 0.00446104 0.00487077 0.00529359 0.00576708 
0.00612285 0.00653238 0.00695205 0.00736117 0.00774171 0.00814809 0.0085664 0.00892778 0.00934135 0.00971258 0.010108 0.0104223 0.0107894 0.0111531 0.0114524 0.0117723 0.0120456 0.0123102 0.0125779 0.0128072 0.0130401 0.0132199 0.0134251 0.0135343 0.0137088 0.0138188 0.0136256 0.0135959 0.0135603 0.013413 0.0132604 0.0130975 0.0128965 0.0126841 0.0124437 0.0122118 0.0118525 0.0115879 0.0112446 0.0109064 0.010523 0.0100746 0.00970728 0.00929106 0.00884584 0.00837651 0.00789735 0.0074303 0.00693677 0.00642878 0.00589407 0.00538606 0.0048821 0.00442 0.00388477 0.00332471 0.00283677 0.00232555 0.00185731 0.00132461 0.000845131 0.000378485 -7.28609e-05 -0.000528969 -0.000966078 -0.00142211 -0.00170635 -0.00201879 -0.00234372 -0.00262673 -0.00284969 -0.00311408 -0.00338188 -0.00393975 -0.00380863 -0.00366714 -0.00354638 -0.00337508 -0.00321126 -0.00304096 -0.00285725 -0.0026974 -0.00249308 -0.00229771 -0.0021016 -0.00190762 -0.00169335 -0.0014966 -0.00127531 -0.00104922 -0.000859058 -0.000633352 -0.000406838 -0.000213574 -7.40199e-06 0.000222008 0.000435129 0.000629411 0.000837993 0.00102436 0.00123047 0.00140436 0.00158897 0.00176753 0.00192034 0.00208704 0.00223883 0.00238832 0.00251925 0.00262936 0.00278745 0.00289319 0.00299484 0.00319816 0.0031733 0.0031402 0.00310792 0.00306092 0.00301899 0.00297186 0.00291372 0.00286155 0.00279568 0.00272822 0.00265239 0.00258523 0.00250318 0.00242351 0.00234096 0.00225107 0.00216012 0.00207812 0.00198909 0.00188936 0.00179572 0.00171164 0.00161208 0.00151378 0.00141263 0.00132427 0.00122896 0.00112709 0.00103614 0.000936478 0.00084325 0.00075975 0.000675812 0.00058437 0.000486982 0.000408861 0.000320522 0.000228404 0.000156089 -4.72019e-06 -4.77664e-06 -4.81949e-06 -4.85644e-06 -4.88e-06 -4.91134e-06 -4.92856e-06 -4.95055e-06 -4.96119e-06 -4.97514e-06 -4.96728e-06 -4.95984e-06 -4.9544e-06 -4.93962e-06 -4.93499e-06 -4.90592e-06 -4.86621e-06 -4.84304e-06 -4.79984e-06 -4.74992e-06 -4.70437e-06 -4.66273e-06 -4.58938e-06 -4.54462e-06 -4.48114e-06 -4.42434e-06 -4.33027e-06 -4.25833e-06 -4.17905e-06 -4.09403e-06 -4.0152e-06 -3.92901e-06 -3.82809e-06 -3.26378e-06 -2.98001e-06 -2.59939e-06 -2.27035e-06 -1.92509e-06 -1.55907e-06 -1.18169e-06 -7.15175e-07 -4.29582e-07 -1.26986e-07 1.70154e-07 4.66578e-07 7.53206e-07 1.1152e-06 1.4092e-06 1.78379e-06 2.06949e-06 2.41233e-06 2.77522e-06 3.08433e-06 3.40372e-06 3.74501e-06 4.07413e-06 4.40792e-06 4.71796e-06 5.04663e-06 5.37715e-06 5.64934e-06 5.95295e-06 6.24437e-06 6.51698e-06 6.79734e-06 7.0444e-06 7.29544e-06 7.51193e-06 7.73336e-06 7.91019e-06 8.11413e-06 8.28981e-06 8.42112e-06 7.83258e-06 7.463e-06 7.15017e-06 6.82862e-06 6.47109e-06 6.09248e-06 5.68189e-06 5.26893e-06 4.73709e-06 4.16018e-06 3.58177e-06 3.01774e-06 2.43027e-06 1.77787e-06 1.18029e-06 5.08654e-07 -1.50369e-07 -8.60791e-07 -1.51961e-06 -2.17618e-06 -2.91012e-06 -3.63325e-06 -4.23373e-06 -4.95046e-06 -5.67199e-06 -6.31054e-06 -7.00871e-06 -7.67191e-06 -8.24439e-06 -8.92133e-06 -9.50403e-06 -1.01065e-05 -1.06764e-05 -1.12481e-05 -1.17658e-05 -1.22914e-05 -1.2756e-05 -1.32225e-05 -1.36342e-05 -1.39991e-05 0.000653095 0.00103689 0.00134717 0.00175814 0.00212309 0.00246621 0.00288817 0.00327999 0.00364542 0.00407037 0.00444895 0.00485758 0.00527925 0.00575145 
0.00609998 0.00650797 0.00692607 0.00733367 0.00771278 0.00811765 0.0085344 0.00889442 0.00930645 0.00967629 0.0100702 0.0103833 0.0107491 0.0111115 0.0114096 0.0117283 0.0120006 0.0122642 0.0125309 0.0127593 0.0129914 0.0131705 0.0133749 0.0134837 0.0136576 0.0137671 0.0135747 0.0135452 0.0135096 0.0133629 0.0132109 0.0130487 0.0128484 0.0126368 0.0123973 0.0121662 0.0118083 0.0115447 0.0112027 0.0108657 0.0104838 0.0100371 0.00967115 0.00925648 0.00881294 0.00834537 0.00786801 0.00740271 0.00691103 0.00640495 0.00587224 0.00536614 0.00486407 0.0044037 0.00387047 0.00331251 0.0028264 0.00231709 0.00185061 0.0013199 0.00084222 0.000377322 -7.23355e-05 -0.000526737 -0.00096221 -0.00141654 -0.00169972 -0.00201101 -0.00233472 -0.00261668 -0.00283882 -0.00310223 -0.00336904 -0.00392483 -0.00379421 -0.00365326 -0.00353296 -0.00336231 -0.00319912 -0.00302946 -0.00284645 -0.00268721 -0.00248366 -0.00228904 -0.00209368 -0.00190044 -0.00168698 -0.00149098 -0.00127053 -0.0010453 -0.000855857 -0.000631009 -0.000405355 -0.000212826 -7.43766e-06 0.000221101 0.000433412 0.000626956 0.000834746 0.0010204 0.00122573 0.00139896 0.00158287 0.00176076 0.00191298 0.00207905 0.00223026 0.00237918 0.00250962 0.00261931 0.0027768 0.00288214 0.00298341 0.00318596 0.00316119 0.00312822 0.00309606 0.00304924 0.00300747 0.00296052 0.0029026 0.00285063 0.00278502 0.00271781 0.00264227 0.00257536 0.00249363 0.00241426 0.00233203 0.00224248 0.00215188 0.00207019 0.0019815 0.00188216 0.00178887 0.00170511 0.00160593 0.001508 0.00140724 0.00131921 0.00122427 0.00112279 0.00103218 0.000932905 0.000840033 0.000756851 0.000673234 0.00058214 0.000485124 0.000407301 0.000319299 0.000227533 0.000155494 -4.70209e-06 -4.75833e-06 -4.80101e-06 -4.83783e-06 -4.8613e-06 -4.89252e-06 -4.90968e-06 -4.93159e-06 -4.94219e-06 -4.95609e-06 -4.94827e-06 -4.94086e-06 -4.93545e-06 -4.92073e-06 -4.91611e-06 -4.88716e-06 -4.84761e-06 -4.82452e-06 -4.78149e-06 -4.73177e-06 -4.6864e-06 -4.64492e-06 -4.57186e-06 -4.52727e-06 -4.46404e-06 -4.40746e-06 -4.31375e-06 -4.24209e-06 -4.16311e-06 -4.07842e-06 -3.9999e-06 -3.91404e-06 -3.81351e-06 -3.25134e-06 -2.96865e-06 -2.58948e-06 -2.26169e-06 -1.91775e-06 -1.55312e-06 -1.17718e-06 -7.12444e-07 -4.27934e-07 -1.26486e-07 1.69526e-07 4.64826e-07 7.50367e-07 1.11099e-06 1.40387e-06 1.77705e-06 2.06166e-06 2.4032e-06 2.76471e-06 3.07265e-06 3.39083e-06 3.73082e-06 4.05869e-06 4.39122e-06 4.70008e-06 5.02751e-06 5.35677e-06 5.62793e-06 5.93038e-06 6.2207e-06 6.49227e-06 6.77157e-06 7.01769e-06 7.26778e-06 7.48345e-06 7.70404e-06 7.8802e-06 8.08336e-06 8.25838e-06 8.38919e-06 7.80288e-06 7.43469e-06 7.12304e-06 6.8027e-06 6.44652e-06 6.06935e-06 5.66031e-06 5.24891e-06 4.71908e-06 4.14435e-06 3.56813e-06 3.00623e-06 2.42099e-06 1.77106e-06 1.17573e-06 5.06642e-07 -1.49887e-07 -8.57621e-07 -1.51394e-06 -2.16803e-06 -2.89919e-06 -3.61959e-06 -4.2178e-06 -4.93181e-06 -5.65061e-06 -6.28674e-06 -6.98227e-06 -7.64296e-06 -8.21327e-06 -8.88765e-06 -9.46815e-06 -1.00684e-05 -1.06361e-05 -1.12056e-05 -1.17213e-05 -1.2245e-05 -1.27078e-05 -1.31725e-05 -1.35826e-05 -1.39462e-05 0.000650656 0.00103301 0.00134213 0.00175157 0.00211516 0.002457 0.00287738 0.00326774 0.0036318 0.00405517 0.00443233 0.00483943 0.00525953 0.00572997 
0.00607892 0.00648551 0.00690217 0.00730835 0.00768616 0.00808963 0.00850494 0.00886372 0.00927433 0.00964289 0.0100355 0.0103475 0.010712 0.0110731 0.0113702 0.0116878 0.0119591 0.0122219 0.0124876 0.0127153 0.0129465 0.013125 0.0133287 0.0134372 0.0136104 0.0137196 0.0135278 0.0134984 0.013463 0.0133168 0.0131654 0.0130037 0.0128041 0.0125932 0.0123545 0.0121243 0.0117676 0.011505 0.0111641 0.0108283 0.0104477 0.0100025 0.00963788 0.00922466 0.00878265 0.00831671 0.00784099 0.00737731 0.00688733 0.006383 0.00585214 0.0053478 0.00484746 0.00438869 0.0038573 0.00330128 0.00281685 0.00230931 0.00184443 0.00131557 0.000839538 0.000376248 -7.18536e-05 -0.000524684 -0.000958651 -0.00141141 -0.00169363 -0.00200384 -0.00232644 -0.00260744 -0.00282882 -0.00309132 -0.00335721 -0.0039111 -0.00378094 -0.00364048 -0.00352061 -0.00335056 -0.00318794 -0.00301888 -0.00283651 -0.00267783 -0.002475 -0.00228106 -0.00208639 -0.00189382 -0.00168111 -0.0014858 -0.00126613 -0.00104169 -0.00085291 -0.000628852 -0.000403991 -0.000212137 -7.47005e-06 0.000220266 0.000431832 0.000624697 0.000831757 0.00101676 0.00122137 0.00139399 0.00157726 0.00175452 0.00190621 0.0020717 0.00222238 0.00237078 0.00250076 0.00261006 0.00276701 0.00287197 0.00297288 0.00317472 0.00315005 0.00311719 0.00308514 0.00303849 0.00299687 0.00295008 0.00289237 0.00284058 0.0027752 0.00270823 0.00263295 0.00256629 0.00248484 0.00240575 0.00232381 0.00223458 0.00214429 0.00206289 0.00197451 0.00187552 0.00178256 0.0016991 0.00160026 0.00150269 0.00140228 0.00131456 0.00121995 0.00111883 0.00102854 0.000929616 0.000837072 0.000754183 0.00067086 0.000580088 0.000483414 0.000405865 0.000318174 0.000226731 0.000154946 -4.68543e-06 -4.74148e-06 -4.78401e-06 -4.8207e-06 -4.84408e-06 -4.8752e-06 -4.8923e-06 -4.91414e-06 -4.92471e-06 -4.93856e-06 -4.93077e-06 -4.92339e-06 -4.918e-06 -4.90333e-06 -4.89874e-06 -4.86989e-06 -4.83048e-06 -4.80748e-06 -4.76461e-06 -4.71507e-06 -4.66986e-06 -4.62853e-06 -4.55573e-06 -4.51131e-06 -4.44829e-06 -4.39192e-06 -4.29854e-06 -4.22714e-06 -4.14845e-06 -4.06406e-06 -3.98581e-06 -3.90026e-06 -3.80009e-06 -3.23989e-06 -2.9582e-06 -2.58036e-06 -2.25373e-06 -1.91099e-06 -1.54765e-06 -1.17303e-06 -7.09931e-07 -4.26418e-07 -1.26026e-07 1.68949e-07 4.63214e-07 7.47754e-07 1.10711e-06 1.39897e-06 1.77083e-06 2.05445e-06 2.39479e-06 2.75504e-06 3.0619e-06 3.37896e-06 3.71776e-06 4.04449e-06 4.37585e-06 4.68363e-06 5.00991e-06 5.33801e-06 5.60822e-06 5.90961e-06 6.19892e-06 6.46954e-06 6.74785e-06 6.99311e-06 7.24233e-06 7.45724e-06 7.67706e-06 7.8526e-06 8.05504e-06 8.22944e-06 8.3598e-06 7.77553e-06 7.40863e-06 7.09807e-06 6.77885e-06 6.42391e-06 6.04805e-06 5.64045e-06 5.23048e-06 4.7025e-06 4.12978e-06 3.55557e-06 2.99564e-06 2.41245e-06 1.76479e-06 1.17154e-06 5.04791e-07 -1.49443e-07 -8.54702e-07 -1.50873e-06 -2.16053e-06 -2.88913e-06 -3.60701e-06 -4.20313e-06 -4.91465e-06 -5.63093e-06 -6.26483e-06 -6.95794e-06 -7.61631e-06 -8.18463e-06 -8.85665e-06 -9.43511e-06 -1.00332e-05 -1.0599e-05 -1.11665e-05 -1.16804e-05 -1.22022e-05 -1.26634e-05 -1.31265e-05 -1.35352e-05 -1.38975e-05 0.00064841 0.00102945 0.0013375 0.00174553 0.00210786 0.00244852 0.00286744 0.00325646 0.00361926 0.00404117 0.00441703 0.00482273 0.00524137 0.00571019 
0.0060512 0.00645593 0.00687069 0.00727502 0.0076511 0.00805273 0.00846615 0.00882329 0.00923203 0.00959891 0.00998969 0.0103003 0.0106632 0.0110226 0.0113184 0.0116345 0.0119046 0.0121662 0.0124307 0.0126573 0.0128875 0.0130652 0.0132679 0.0133759 0.0135484 0.013657 0.0134662 0.0134369 0.0134016 0.0132562 0.0131054 0.0129444 0.0127457 0.0125359 0.0122983 0.0120691 0.0117141 0.0114526 0.0111133 0.0107791 0.0104002 0.00995706 0.00959409 0.00918275 0.00874278 0.00827896 0.00780543 0.00734387 0.00685613 0.00635412 0.00582568 0.00532364 0.0048256 0.00436893 0.00383997 0.00328649 0.00280428 0.00229906 0.00183631 0.00130986 0.000836005 0.000374833 -7.12218e-05 -0.000521983 -0.000953969 -0.00140466 -0.0016856 -0.00199441 -0.00231555 -0.00259526 -0.00281565 -0.00307697 -0.00334165 -0.00389302 -0.00376347 -0.00362366 -0.00350435 -0.00333509 -0.00317322 -0.00300495 -0.00282343 -0.00266548 -0.00246359 -0.00227055 -0.00207678 -0.00188511 -0.00167339 -0.00147898 -0.00126033 -0.00103693 -0.000849031 -0.000626012 -0.000402194 -0.00021123 -7.51202e-06 0.000219168 0.000429753 0.000621723 0.000827824 0.00101197 0.00121563 0.00138745 0.00156987 0.00174631 0.00189729 0.00206202 0.002212 0.00235971 0.00248909 0.00259789 0.00275411 0.00285859 0.00295903 0.00315994 0.00313538 0.00310268 0.00307078 0.00302434 0.00298291 0.00293634 0.0028789 0.00282735 0.00276227 0.00269562 0.00262069 0.00255434 0.00247327 0.00239455 0.00231299 0.00222417 0.00213431 0.00205329 0.00196532 0.00186679 0.00177426 0.00169118 0.00159281 0.00149569 0.00139575 0.00130844 0.00121427 0.00111362 0.00102376 0.000925287 0.000833174 0.000750671 0.000667736 0.000577387 0.000481163 0.000403975 0.000316692 0.000225675 0.000154224 -4.6635e-06 -4.71929e-06 -4.76163e-06 -4.79815e-06 -4.82143e-06 -4.85241e-06 -4.86943e-06 -4.89117e-06 -4.9017e-06 -4.91549e-06 -4.90773e-06 -4.9004e-06 -4.89503e-06 -4.88044e-06 -4.87587e-06 -4.84716e-06 -4.80794e-06 -4.78506e-06 -4.74239e-06 -4.69308e-06 -4.64808e-06 -4.60696e-06 -4.5345e-06 -4.49029e-06 -4.42757e-06 -4.37147e-06 -4.27853e-06 -4.20746e-06 -4.12914e-06 -4.04515e-06 -3.96727e-06 -3.88213e-06 -3.78242e-06 -3.22483e-06 -2.94445e-06 -2.56836e-06 -2.24324e-06 -1.9021e-06 -1.54045e-06 -1.16757e-06 -7.06623e-07 -4.24423e-07 -1.25421e-07 1.68189e-07 4.61091e-07 7.44315e-07 1.10201e-06 1.39252e-06 1.76266e-06 2.04496e-06 2.38372e-06 2.7423e-06 3.04774e-06 3.36334e-06 3.70057e-06 4.02578e-06 4.35561e-06 4.66196e-06 4.98673e-06 5.31332e-06 5.58228e-06 5.88227e-06 6.17024e-06 6.4396e-06 6.71663e-06 6.96076e-06 7.20882e-06 7.42273e-06 7.64153e-06 7.81626e-06 8.01777e-06 8.19136e-06 8.32111e-06 7.73954e-06 7.37433e-06 7.0652e-06 6.74745e-06 6.39415e-06 6.02002e-06 5.6143e-06 5.20622e-06 4.68068e-06 4.1106e-06 3.53905e-06 2.9817e-06 2.4012e-06 1.75653e-06 1.16603e-06 5.02355e-07 -1.48858e-07 -8.50859e-07 -1.50186e-06 -2.15065e-06 -2.87589e-06 -3.59045e-06 -4.18382e-06 -4.89205e-06 -5.60502e-06 -6.236e-06 -6.9259e-06 -7.58123e-06 -8.14692e-06 -8.81583e-06 -9.39163e-06 -9.98697e-06 -1.05501e-05 -1.1115e-05 -1.16266e-05 -1.2146e-05 -1.2605e-05 -1.3066e-05 -1.34728e-05 -1.38333e-05 0.000645454 0.00102475 0.0013314 0.00173757 0.00209824 0.00243735 0.00285437 0.00324161 0.00360276 0.00402274 0.00439689 0.00480073 0.00521747 0.00568415 
0.00599484 0.0063958 0.0068067 0.00720726 0.00757984 0.00797773 0.0083873 0.00874111 0.00914604 0.00950951 0.00989665 0.0102044 0.0105639 0.0109199 0.011213 0.0115262 0.0117937 0.0120528 0.0123149 0.0125394 0.0127675 0.0129435 0.0131444 0.0132513 0.0134222 0.0135298 0.0133408 0.0133118 0.0132769 0.0131328 0.0129834 0.012824 0.0126271 0.0124192 0.0121839 0.0119569 0.0116052 0.0113461 0.0110101 0.0106789 0.0103036 0.00986462 0.00950504 0.00909756 0.0086617 0.00820222 0.00773312 0.00727587 0.0067927 0.00629538 0.00577188 0.00527454 0.00478115 0.00432874 0.00380473 0.00325642 0.00277871 0.00227821 0.00181978 0.00129824 0.000828813 0.000371946 -6.99467e-05 -0.000516503 -0.000944458 -0.00139094 -0.0016693 -0.00197524 -0.0022934 -0.00257053 -0.00278888 -0.00304778 -0.00331002 -0.00385628 -0.00372795 -0.00358947 -0.00347129 -0.00330364 -0.00314331 -0.00297663 -0.00279683 -0.00264038 -0.0024404 -0.00224919 -0.00205726 -0.00186741 -0.00165769 -0.00146513 -0.00124855 -0.00102726 -0.000841143 -0.000620237 -0.000398539 -0.000209384 -7.59502e-06 0.000216938 0.000425529 0.000615682 0.000819832 0.00100224 0.00120397 0.00137416 0.00155485 0.00172962 0.00187918 0.00204235 0.00219091 0.00233723 0.00246538 0.00257316 0.00272789 0.00283139 0.00293088 0.00312989 0.00310557 0.00307317 0.00304158 0.00299558 0.00295455 0.00290842 0.00285152 0.00280047 0.00273601 0.00266999 0.00259577 0.00253005 0.00244975 0.00237178 0.002291 0.00220302 0.00211401 0.00203376 0.00194663 0.00184904 0.00175739 0.0016751 0.00157767 0.00148147 0.00138248 0.001296 0.00120273 0.00110303 0.00101402 0.000916489 0.000825252 0.000743534 0.000661387 0.000571897 0.000476588 0.000400134 0.000313681 0.000223529 0.000152758 -4.61894e-06 -4.6742e-06 -4.71615e-06 -4.75233e-06 -4.77539e-06 -4.80608e-06 -4.82295e-06 -4.84449e-06 -4.85492e-06 -4.86859e-06 -4.86092e-06 -4.85366e-06 -4.84836e-06 -4.83391e-06 -4.8294e-06 -4.80097e-06 -4.76214e-06 -4.73948e-06 -4.69722e-06 -4.6484e-06 -4.60384e-06 -4.56311e-06 -4.49136e-06 -4.44757e-06 -4.38546e-06 -4.3299e-06 -4.23785e-06 -4.16747e-06 -4.0899e-06 -4.00672e-06 -3.92959e-06 -3.84526e-06 -3.74652e-06 -3.1942e-06 -2.91649e-06 -2.54397e-06 -2.22194e-06 -1.88403e-06 -1.5258e-06 -1.15646e-06 -6.999e-07 -4.20367e-07 -1.24192e-07 1.66642e-07 4.56776e-07 7.37322e-07 1.09163e-06 1.3794e-06 1.74604e-06 2.02567e-06 2.36123e-06 2.71642e-06 3.01898e-06 3.33159e-06 3.66563e-06 3.98777e-06 4.31447e-06 4.61793e-06 4.93963e-06 5.26313e-06 5.52954e-06 5.8267e-06 6.11194e-06 6.37876e-06 6.65317e-06 6.89499e-06 7.1407e-06 7.35259e-06 7.56933e-06 7.7424e-06 7.942e-06 8.11395e-06 8.24247e-06 7.66638e-06 7.30461e-06 6.99839e-06 6.68363e-06 6.33366e-06 5.96305e-06 5.56115e-06 5.15691e-06 4.63633e-06 4.07163e-06 3.50546e-06 2.95337e-06 2.37834e-06 1.73975e-06 1.15482e-06 4.97406e-07 -1.47665e-07 -8.43045e-07 -1.48791e-06 -2.13058e-06 -2.84898e-06 -3.5568e-06 -4.14456e-06 -4.84611e-06 -5.55236e-06 -6.17738e-06 -6.86077e-06 -7.50993e-06 -8.07028e-06 -8.73287e-06 -9.30324e-06 -9.89296e-06 -1.04508e-05 -1.10103e-05 -1.15171e-05 -1.20316e-05 -1.24863e-05 -1.29429e-05 -1.33459e-05 -1.3703e-05 0.000639443 0.00101521 0.001319 0.00172139 0.0020787 0.00241465 0.00282778 0.00321142 0.0035692 0.00398527 0.00435594 0.00475602 0.00516887 0.0056312 
0.00600173 0.00640315 0.00681452 0.00721555 0.00758856 0.0079869 0.00839694 0.00875116 0.00915656 0.00952044 0.00990803 0.0102161 0.010576 0.0109325 0.0112259 0.0115394 0.0118073 0.0120667 0.012329 0.0125538 0.0127821 0.0129584 0.0131595 0.0132666 0.0134376 0.0135454 0.0133561 0.0133271 0.0132921 0.0131479 0.0129983 0.0128387 0.0126416 0.0124335 0.0121979 0.0119706 0.0116185 0.0113592 0.0110227 0.0106912 0.0103154 0.00987593 0.00951594 0.00910798 0.00867162 0.00821161 0.00774196 0.00728419 0.00680046 0.00630256 0.00577846 0.00528054 0.00478659 0.00433366 0.00380904 0.0032601 0.00278184 0.00228076 0.0018218 0.00129966 0.000829693 0.0003723 -7.0102e-05 -0.000517172 -0.000945621 -0.00139262 -0.00167129 -0.00197758 -0.00229611 -0.00257355 -0.00279215 -0.00305135 -0.00331389 -0.00386077 -0.0037323 -0.00359365 -0.00347533 -0.00330748 -0.00314696 -0.00298009 -0.00280008 -0.00264345 -0.00244324 -0.0022518 -0.00205965 -0.00186957 -0.00165961 -0.00146682 -0.00124999 -0.00102845 -0.000842108 -0.000620943 -0.000398986 -0.00020961 -7.58504e-06 0.000217211 0.000426045 0.000616421 0.000820809 0.00100343 0.0012054 0.00137579 0.00155669 0.00173166 0.0018814 0.00204475 0.00219349 0.00233998 0.00246828 0.00257618 0.0027311 0.00283471 0.00293433 0.00313357 0.00310921 0.00307678 0.00304515 0.0029991 0.00295802 0.00291184 0.00285487 0.00280375 0.00273922 0.00267312 0.00259882 0.00253302 0.00245263 0.00237456 0.00229369 0.00220561 0.00211649 0.00203615 0.00194892 0.00185121 0.00175946 0.00167707 0.00157952 0.00148321 0.0013841 0.00129752 0.00120414 0.00110433 0.00101521 0.000917565 0.00082622 0.000744407 0.000662164 0.000572569 0.000477147 0.000400604 0.00031405 0.000223792 0.000152937 -4.62439e-06 -4.67972e-06 -4.72171e-06 -4.75793e-06 -4.78102e-06 -4.81175e-06 -4.82863e-06 -4.8502e-06 -4.86064e-06 -4.87433e-06 -4.86664e-06 -4.85938e-06 -4.85407e-06 -4.8396e-06 -4.83508e-06 -4.80662e-06 -4.76774e-06 -4.74505e-06 -4.70275e-06 -4.65386e-06 -4.60925e-06 -4.56847e-06 -4.49663e-06 -4.45279e-06 -4.39061e-06 -4.33498e-06 -4.24283e-06 -4.17236e-06 -4.0947e-06 -4.01142e-06 -3.9342e-06 -3.84977e-06 -3.75091e-06 -3.19795e-06 -2.9199e-06 -2.54695e-06 -2.22454e-06 -1.88624e-06 -1.52759e-06 -1.15782e-06 -7.00722e-07 -4.20863e-07 -1.24342e-07 1.66832e-07 4.57304e-07 7.38177e-07 1.0929e-06 1.381e-06 1.74807e-06 2.02803e-06 2.36398e-06 2.71959e-06 3.02249e-06 3.33547e-06 3.6699e-06 3.99242e-06 4.3195e-06 4.62332e-06 4.94539e-06 5.26926e-06 5.53599e-06 5.8335e-06 6.11907e-06 6.3862e-06 6.66093e-06 6.90303e-06 7.14903e-06 7.36117e-06 7.57816e-06 7.75143e-06 7.95127e-06 8.12342e-06 8.25209e-06 7.67533e-06 7.31314e-06 7.00656e-06 6.69144e-06 6.34105e-06 5.97002e-06 5.56765e-06 5.16294e-06 4.64175e-06 4.07639e-06 3.50957e-06 2.95683e-06 2.38114e-06 1.74181e-06 1.15619e-06 4.98011e-07 -1.47811e-07 -8.44001e-07 -1.48962e-06 -2.13303e-06 -2.85227e-06 -3.56091e-06 -4.14936e-06 -4.85173e-06 -5.5588e-06 -6.18455e-06 -6.86874e-06 -7.51865e-06 -8.07965e-06 -8.74302e-06 -9.31405e-06 -9.90446e-06 -1.04629e-05 -1.10231e-05 -1.15305e-05 -1.20456e-05 -1.25008e-05 -1.29579e-05 -1.33614e-05 -1.3719e-05 0.000640178 0.00101638 0.00132052 0.00172337 0.00208109 0.00241743 0.00283104 0.00321511 0.00357331 0.00398985 0.00436094 0.00476149 0.00517482 0.00563768 
0.00595525 0.00635356 0.00676174 0.00715966 0.00752978 0.00792504 0.0083319 0.00868338 0.00908564 0.0094467 0.00983128 0.010137 0.0104941 0.0108478 0.0111389 0.01145 0.0117158 0.0119732 0.0122335 0.0124566 0.0126831 0.012858 0.0130576 0.0131638 0.0133335 0.0134405 0.0132527 0.0132239 0.0131892 0.0130461 0.0128977 0.0127393 0.0125438 0.0123373 0.0121035 0.011878 0.0115287 0.0112714 0.0109375 0.0106086 0.0102358 0.00979967 0.00944249 0.00903771 0.00860474 0.00814831 0.00768232 0.0072281 0.00674813 0.00625411 0.00573408 0.00524003 0.00474992 0.00430051 0.00377996 0.00323529 0.00276074 0.00226355 0.00180816 0.00129007 0.000823753 0.000369911 -6.90583e-05 -0.00051266 -0.000937784 -0.00138132 -0.00165785 -0.00196178 -0.00227785 -0.00255316 -0.00277008 -0.00302729 -0.00328781 -0.00383047 -0.00370301 -0.00356546 -0.00344807 -0.00328155 -0.0031223 -0.00295674 -0.00277815 -0.00262275 -0.00242412 -0.00223419 -0.00204355 -0.00185497 -0.00164667 -0.0014554 -0.00124027 -0.00102047 -0.000835602 -0.000616179 -0.000395971 -0.000208085 -7.65147e-06 0.000215374 0.000422565 0.000611441 0.00081422 0.000995402 0.00119578 0.00136483 0.00154431 0.00171791 0.00186646 0.00202853 0.0021761 0.00232144 0.00244873 0.00255578 0.00270948 0.00281229 0.00291112 0.00310879 0.00308463 0.00305246 0.00302107 0.00297539 0.00293463 0.00288882 0.0028323 0.00278159 0.00271756 0.00265199 0.00257827 0.00251299 0.00243324 0.00235579 0.00227555 0.00218817 0.00209976 0.00202005 0.00193351 0.00183657 0.00174554 0.00166381 0.00156703 0.00147148 0.00137316 0.00128726 0.00119462 0.00109559 0.00100718 0.000910311 0.000819688 0.000738521 0.000656929 0.000568042 0.000473375 0.000397437 0.000311567 0.000222023 0.000151728 -4.58765e-06 -4.64254e-06 -4.68421e-06 -4.72015e-06 -4.74306e-06 -4.77355e-06 -4.79031e-06 -4.81171e-06 -4.82208e-06 -4.83566e-06 -4.82804e-06 -4.82084e-06 -4.81558e-06 -4.80124e-06 -4.79676e-06 -4.76854e-06 -4.72997e-06 -4.70747e-06 -4.66551e-06 -4.61702e-06 -4.57276e-06 -4.53232e-06 -4.46106e-06 -4.41757e-06 -4.35589e-06 -4.30071e-06 -4.20929e-06 -4.13939e-06 -4.06235e-06 -3.97973e-06 -3.90313e-06 -3.81938e-06 -3.7213e-06 -3.1727e-06 -2.89685e-06 -2.52684e-06 -2.20697e-06 -1.87134e-06 -1.51552e-06 -1.14867e-06 -6.95178e-07 -4.17519e-07 -1.23329e-07 1.65556e-07 4.53745e-07 7.3241e-07 1.08435e-06 1.37018e-06 1.73437e-06 2.01212e-06 2.34544e-06 2.69824e-06 2.99877e-06 3.30929e-06 3.64109e-06 3.96107e-06 4.28558e-06 4.58701e-06 4.90655e-06 5.22787e-06 5.49251e-06 5.78767e-06 6.071e-06 6.33603e-06 6.6086e-06 6.84879e-06 7.09286e-06 7.30333e-06 7.51861e-06 7.69052e-06 7.88879e-06 8.05959e-06 8.18724e-06 7.615e-06 7.25564e-06 6.95146e-06 6.63881e-06 6.29117e-06 5.92304e-06 5.52382e-06 5.12228e-06 4.60518e-06 4.04425e-06 3.48187e-06 2.93347e-06 2.36229e-06 1.72797e-06 1.14695e-06 4.93932e-07 -1.46825e-07 -8.37554e-07 -1.4781e-06 -2.11647e-06 -2.83007e-06 -3.53315e-06 -4.11699e-06 -4.81385e-06 -5.51537e-06 -6.13621e-06 -6.81503e-06 -7.45984e-06 -8.01644e-06 -8.6746e-06 -9.24115e-06 -9.82693e-06 -1.0381e-05 -1.09368e-05 -1.14402e-05 -1.19512e-05 -1.24029e-05 -1.28565e-05 -1.32567e-05 -1.36115e-05 0.000635221 0.00100851 0.00131029 0.00171002 0.00206497 0.0023987 0.00280911 0.00319021 0.00354563 0.00395895 0.00432717 0.00472461 0.00513473 0.00559401 
0.00577586 0.00616217 0.00655806 0.00694399 0.00730297 0.00768632 0.00808093 0.00842182 0.00881196 0.00916215 0.00953515 0.00983164 0.010178 0.0105211 0.0108034 0.0111052 0.0113629 0.0116126 0.0118651 0.0120814 0.0123011 0.0124707 0.0126642 0.0127673 0.0129319 0.0130356 0.0129296 0.0129408 0.0129392 0.0128447 0.012742 0.0126293 0.0124822 0.0123205 0.01214 0.0119683 0.0116683 0.0114643 0.0111832 0.0109163 0.0105963 0.01022 0.0099222 0.00957087 0.009197 0.00879775 0.00839005 0.00799096 0.00756729 0.00713335 0.00666902 0.00622969 0.00579284 0.0053899 0.00491975 0.00442695 0.00399716 0.00354594 0.00312894 0.00265254 0.00222527 0.00180836 0.00140005 0.000986371 0.000589682 0.000170865 -0.00013637 -0.000452621 -0.000780916 -0.00107319 -0.00131992 -0.00160325 -0.0018881 -0.00245131 -0.00237016 -0.00228253 -0.00220782 -0.00210172 -0.00200026 -0.00189475 -0.00178092 -0.00168191 -0.0015553 -0.00143419 -0.00131268 -0.00119243 -0.00105963 -0.000937674 -0.000800468 -0.000660257 -0.000542378 -0.000402421 -0.000261956 -0.000142085 -1.42072e-05 0.000128091 0.000260293 0.000380821 0.000510239 0.000625912 0.000753782 0.000861692 0.00097628 0.00108711 0.001182 0.00128549 0.00137977 0.00147263 0.00155399 0.00162241 0.00172065 0.00178641 0.00184963 0.00197607 0.00196071 0.00194026 0.00192031 0.00189127 0.00186536 0.00183624 0.00180032 0.00176808 0.00172739 0.00168571 0.00163885 0.00159736 0.00154666 0.00149743 0.00144643 0.00139089 0.00133469 0.00128403 0.00122902 0.0011674 0.00110954 0.00105759 0.000996072 0.000935336 0.000872838 0.000818242 0.000759354 0.000696411 0.000640215 0.000578638 0.000521035 0.000469443 0.000417534 0.000361009 0.000300812 0.000252519 0.000197912 0.000140967 9.62595e-05 -3.12897e-06 -3.19023e-06 -3.24436e-06 -3.29539e-06 -3.33548e-06 -3.38568e-06 -3.42118e-06 -3.46421e-06 -3.50139e-06 -3.53611e-06 -3.5574e-06 -3.58207e-06 -3.60686e-06 -3.62436e-06 -3.65071e-06 -3.66157e-06 -3.6606e-06 -3.67128e-06 -3.66926e-06 -3.66362e-06 -3.65638e-06 -3.65512e-06 -3.62957e-06 -3.62382e-06 -3.60191e-06 -3.58646e-06 -3.53994e-06 -3.51118e-06 -3.47771e-06 -3.43437e-06 -3.40076e-06 -3.35646e-06 -3.29891e-06 -2.80671e-06 -2.57397e-06 -2.25336e-06 -1.97462e-06 -1.68255e-06 -1.37103e-06 -1.05347e-06 -6.75639e-07 -4.05951e-07 -1.20207e-07 1.60385e-07 4.40302e-07 7.10969e-07 1.0528e-06 1.33043e-06 1.68417e-06 1.95395e-06 2.27771e-06 2.62039e-06 2.91229e-06 3.2139e-06 3.53618e-06 3.84698e-06 4.16219e-06 4.45497e-06 4.76534e-06 5.07745e-06 5.3345e-06 5.6212e-06 5.8964e-06 6.15383e-06 6.41858e-06 6.65189e-06 6.88896e-06 7.0934e-06 7.30251e-06 7.4695e-06 7.66208e-06 7.82799e-06 7.95199e-06 7.3964e-06 7.04751e-06 6.75219e-06 6.44864e-06 6.11112e-06 5.7537e-06 5.36608e-06 4.97623e-06 4.47412e-06 3.92942e-06 3.38334e-06 2.85082e-06 2.29617e-06 1.68021e-06 1.116e-06 4.81875e-07 -1.40339e-07 -8.11088e-07 -1.43312e-06 -2.05303e-06 -2.74598e-06 -3.42874e-06 -3.99569e-06 -4.6724e-06 -5.35365e-06 -5.95655e-06 -6.61575e-06 -7.24193e-06 -7.78245e-06 -8.42161e-06 -8.97179e-06 -9.54065e-06 -1.00787e-05 -1.06185e-05 -1.11073e-05 -1.16036e-05 -1.20423e-05 -1.24828e-05 -1.28715e-05 -1.3216e-05 0.000616073 0.000978114 0.00127081 0.0016585 0.00200276 0.00232644 0.00272448 0.0030941 0.00343882 0.00383969 0.00419681 0.00458228 0.00498006 0.0054255 
0.00564915 0.00602699 0.0064142 0.00679167 0.00714277 0.00751772 0.00790366 0.00823708 0.00861867 0.00896117 0.00932599 0.00961597 0.00995473 0.0102903 0.0105664 0.0108616 0.0111137 0.0113579 0.0116048 0.0118164 0.0120313 0.0121972 0.0123865 0.0124872 0.0126482 0.0127497 0.0126912 0.0127255 0.0127429 0.0126769 0.012601 0.012515 0.0123965 0.0122612 0.0121121 0.0119722 0.0117019 0.0115295 0.0112799 0.0110499 0.0107617 0.0104213 0.010159 0.00983988 0.0095016 0.00913694 0.00876451 0.00839882 0.00800932 0.00761177 0.00718144 0.00677543 0.00637107 0.00599656 0.00555735 0.00509646 0.00469421 0.00427133 0.00387815 0.0034277 0.00302468 0.00263074 0.00224176 0.001847 0.00146831 0.00106543 0.00074171 0.000419616 8.55811e-05 -0.000215317 -0.000478251 -0.000775514 -0.00107327 -0.00164606 -0.00159198 -0.0015335 -0.0014837 -0.0014129 -0.0013452 -0.00127475 -0.00119873 -0.00113265 -0.00104811 -0.000967194 -0.00088605 -0.00080571 -0.000717002 -0.000635522 -0.000543821 -0.000450087 -0.000371328 -0.000277779 -0.000183882 -0.000103729 -1.82218e-05 7.69344e-05 0.000165345 0.00024596 0.000332538 0.000409959 0.000495485 0.000567693 0.000644388 0.000718568 0.00078212 0.000851406 0.000914561 0.000976777 0.00103132 0.00107718 0.00114305 0.00118718 0.00122961 0.00131444 0.00130422 0.00129062 0.00127735 0.00125804 0.0012408 0.00122143 0.00119754 0.0011761 0.00114903 0.0011213 0.00109014 0.00106253 0.00102881 0.000996068 0.000962144 0.000925199 0.000887818 0.000854117 0.000817526 0.00077654 0.000738053 0.000703495 0.000662576 0.000622176 0.000580604 0.000544288 0.000505116 0.000463248 0.000425868 0.000384909 0.000346592 0.000312274 0.000277704 0.000240082 0.00020002 0.000167874 0.000131528 9.36252e-05 6.38627e-05 -2.27406e-06 -2.33874e-06 -2.39985e-06 -2.45939e-06 -2.50922e-06 -2.5706e-06 -2.61676e-06 -2.67211e-06 -2.72462e-06 -2.77139e-06 -2.80929e-06 -2.85225e-06 -2.8943e-06 -2.93011e-06 -2.97414e-06 -3.00752e-06 -3.02826e-06 -3.05806e-06 -3.0791e-06 -3.09822e-06 -3.11238e-06 -3.13374e-06 -3.13468e-06 -3.15075e-06 -3.15188e-06 -3.15944e-06 -3.13902e-06 -3.13414e-06 -3.12596e-06 -3.10547e-06 -3.09681e-06 -3.07546e-06 -3.04155e-06 -2.58392e-06 -2.37703e-06 -2.08624e-06 -1.83239e-06 -1.56666e-06 -1.28199e-06 -9.94173e-07 -6.61572e-07 -3.97588e-07 -1.17889e-07 1.56769e-07 4.30766e-07 6.95709e-07 1.03032e-06 1.30207e-06 1.64833e-06 1.91241e-06 2.22932e-06 2.56476e-06 2.85049e-06 3.14572e-06 3.46119e-06 3.76542e-06 4.07396e-06 4.36055e-06 4.66436e-06 4.96988e-06 5.22149e-06 5.50213e-06 5.77152e-06 6.02351e-06 6.28267e-06 6.51105e-06 6.74311e-06 6.94323e-06 7.14792e-06 7.31138e-06 7.4999e-06 7.6623e-06 7.78368e-06 7.23996e-06 6.89853e-06 6.60953e-06 6.31247e-06 5.98216e-06 5.63239e-06 5.25304e-06 4.87152e-06 4.3801e-06 3.847e-06 3.31255e-06 2.79136e-06 2.24853e-06 1.64567e-06 1.09347e-06 4.72832e-07 -1.36141e-07 -7.92622e-07 -1.40142e-06 -2.00815e-06 -2.68636e-06 -3.3546e-06 -3.90949e-06 -4.57181e-06 -5.23858e-06 -5.82867e-06 -6.47386e-06 -7.08673e-06 -7.61576e-06 -8.24133e-06 -8.77983e-06 -9.33661e-06 -9.86326e-06 -1.03915e-05 -1.087e-05 -1.13558e-05 -1.17851e-05 -1.22162e-05 -1.25967e-05 -1.2934e-05 0.000602551 0.000956651 0.00124293 0.00162211 0.00195882 0.0022754 0.00266471 0.00302622 0.00336338 0.00375546 0.00410475 0.00448176 0.00487081 0.00530649 
0.00552306 0.00589247 0.00627103 0.00664008 0.00698334 0.00734992 0.00772726 0.00805323 0.0084263 0.00876116 0.00911784 0.00940135 0.00973255 0.0100606 0.0103306 0.0106191 0.0108656 0.0111044 0.0113458 0.0115526 0.0117627 0.0119249 0.01211 0.0122085 0.0123659 0.0124651 0.0124504 0.0125058 0.0125406 0.0125007 0.0124495 0.0123881 0.0122961 0.0121852 0.0120652 0.0119546 0.0117121 0.0115689 0.0113486 0.0111528 0.0108943 0.0105874 0.0103581 0.0100691 0.00976404 0.00943173 0.00909227 0.00875784 0.00840035 0.00803686 0.00763845 0.0072637 0.00688983 0.00654203 0.00613197 0.00570113 0.00532484 0.00492867 0.00455802 0.00413216 0.00375206 0.00337988 0.00300931 0.00263258 0.00227105 0.0018835 0.00154522 0.00121834 0.000879627 0.000571352 0.000294021 -1.54958e-05 -0.000324552 -0.000905137 -0.000875945 -0.000844298 -0.000817439 -0.000779111 -0.000742472 -0.000704295 -0.000663086 -0.000627311 -0.000581474 -0.000537545 -0.000493552 -0.000449935 -0.000401804 -0.000357575 -0.00030775 -0.000256785 -0.000214028 -0.000163184 -0.000112142 -6.85391e-05 -2.20225e-05 2.9752e-05 7.78648e-05 0.000121751 0.000168906 0.000211127 0.000257687 0.000297042 0.000338867 0.000379319 0.000414035 0.000451843 0.000486365 0.000520383 0.000550243 0.000575351 0.00061142 0.00063565 0.000658951 0.000705505 0.000700022 0.000692722 0.0006856 0.000675234 0.000665984 0.000655589 0.000642764 0.000631256 0.000616727 0.000601847 0.000585118 0.000570305 0.000552206 0.000534631 0.000516423 0.000496594 0.000476531 0.000458443 0.000438804 0.000416805 0.000396149 0.000377601 0.000355639 0.000333955 0.000311642 0.00029215 0.000271126 0.000248654 0.000228591 0.000206607 0.000186042 0.000167622 0.000149011 0.000128786 0.000107255 8.99711e-05 7.04315e-05 5.00544e-05 3.4047e-05 -1.48593e-06 -1.55364e-06 -1.62104e-06 -1.68827e-06 -1.74695e-06 -1.81847e-06 -1.87434e-06 -1.94087e-06 -2.00734e-06 -2.06509e-06 -2.11815e-06 -2.17781e-06 -2.23561e-06 -2.28814e-06 -2.34831e-06 -2.40229e-06 -2.4429e-06 -2.49018e-06 -2.53234e-06 -2.57412e-06 -2.60788e-06 -2.64995e-06 -2.67519e-06 -2.71123e-06 -2.7335e-06 -2.76214e-06 -2.7657e-06 -2.78272e-06 -2.79775e-06 -2.79825e-06 -2.8125e-06 -2.81224e-06 -2.80006e-06 -2.37496e-06 -2.19213e-06 -1.92923e-06 -1.69865e-06 -1.45756e-06 -1.19802e-06 -9.38001e-07 -6.47473e-07 -3.89194e-07 -1.1554e-07 1.53184e-07 4.2126e-07 6.80479e-07 1.00786e-06 1.27374e-06 1.61252e-06 1.87089e-06 2.18095e-06 2.50915e-06 2.78871e-06 3.07756e-06 3.38622e-06 3.68388e-06 3.98575e-06 4.26616e-06 4.56341e-06 4.86233e-06 5.1085e-06 5.38308e-06 5.64665e-06 5.8932e-06 6.14676e-06 6.37021e-06 6.59726e-06 6.79306e-06 6.99333e-06 7.15327e-06 7.33772e-06 7.49661e-06 7.61538e-06 7.08352e-06 6.74954e-06 6.46685e-06 6.17627e-06 5.85316e-06 5.51101e-06 5.13992e-06 4.76673e-06 4.286e-06 3.76448e-06 3.24165e-06 2.73179e-06 2.20075e-06 1.611e-06 1.0708e-06 4.63635e-07 -1.32106e-07 -7.74329e-07 -1.36991e-06 -1.96346e-06 -2.62694e-06 -3.28067e-06 -3.82351e-06 -4.47145e-06 -5.12375e-06 -5.70103e-06 -6.33221e-06 -6.93179e-06 -7.44934e-06 -8.06133e-06 -8.58815e-06 -9.13284e-06 -9.64807e-06 -1.01649e-05 -1.0633e-05 -1.11082e-05 -1.15282e-05 -1.195e-05 -1.23223e-05 -1.26522e-05 0.000589096 0.000935292 0.00121518 0.0015859 0.00191509 0.0022246 0.00260523 0.00295867 0.0032883 0.00367163 0.00401313 0.00438173 0.00476209 0.00518804 
0.00542883 0.00579194 0.00616404 0.0065268 0.0068642 0.00722453 0.00759543 0.00791584 0.00828254 0.00861169 0.00896228 0.00924096 0.00956651 0.00988897 0.0101543 0.010438 0.0106803 0.0109149 0.0111522 0.0113555 0.0115621 0.0117215 0.0119034 0.0120003 0.012155 0.0122525 0.0122854 0.0123643 0.0124185 0.0124069 0.0123823 0.0123474 0.0122835 0.0121985 0.0121095 0.0120301 0.0118159 0.0117036 0.0115136 0.0113537 0.0111255 0.0108529 0.0106579 0.0103995 0.0101284 0.00982883 0.00952276 0.00921987 0.00889458 0.00856548 0.00819883 0.00785531 0.00751182 0.0071905 0.00680907 0.00640771 0.00605683 0.00568674 0.0053378 0.00493547 0.00457745 0.00422612 0.00387274 0.00351277 0.00316715 0.00279329 0.00243642 0.00210169 0.00175518 0.0014364 0.00114112 0.00081574 0.00049187 -0.000101834 -9.96519e-05 -9.71076e-05 -9.51307e-05 -9.20327e-05 -8.90899e-05 -8.59168e-05 -8.24591e-05 -7.95581e-05 -7.57066e-05 -7.18939e-05 -6.81991e-05 -6.44132e-05 -6.02952e-05 -5.64686e-05 -5.20629e-05 -4.74859e-05 -4.37772e-05 -3.92519e-05 -3.46893e-05 -3.07273e-05 -2.64988e-05 -2.17746e-05 -1.7367e-05 -1.33149e-05 -8.91433e-06 -4.86865e-06 -5.67674e-07 3.15731e-06 7.16589e-06 1.10424e-05 1.44875e-05 1.81592e-05 2.16299e-05 2.5071e-05 2.817e-05 3.07708e-05 3.45308e-05 3.71828e-05 3.97428e-05 4.47942e-05 4.4447e-05 4.39844e-05 4.35333e-05 4.28761e-05 4.22898e-05 4.16308e-05 4.08177e-05 4.0088e-05 3.91666e-05 3.8223e-05 3.71619e-05 3.62224e-05 3.50744e-05 3.39596e-05 3.28046e-05 3.15466e-05 3.02737e-05 2.91263e-05 2.78803e-05 2.64846e-05 2.5174e-05 2.39973e-05 2.26036e-05 2.12278e-05 1.98119e-05 1.85752e-05 1.72409e-05 1.58147e-05 1.45415e-05 1.31463e-05 1.18411e-05 1.0672e-05 9.37464e-06 8.02628e-06 6.60133e-06 5.44217e-06 4.13773e-06 2.77568e-06 1.69252e-06 -6.35145e-07 -7.06711e-07 -7.81543e-07 -8.57725e-07 -9.26577e-07 -1.00977e-06 -1.0767e-06 -1.15602e-06 -1.23832e-06 -1.30855e-06 -1.37863e-06 -1.45706e-06 -1.53255e-06 -1.60382e-06 -1.68215e-06 -1.7591e-06 -1.82179e-06 -1.88858e-06 -1.9542e-06 -2.02114e-06 -2.07663e-06 -2.1417e-06 -2.19375e-06 -2.25194e-06 -2.29753e-06 -2.34948e-06 -2.37932e-06 -2.42045e-06 -2.461e-06 -2.48449e-06 -2.52393e-06 -2.54676e-06 -2.55827e-06 -2.16536e-06 -2.00741e-06 -1.7729e-06 -1.56595e-06 -1.34988e-06 -1.11577e-06 -8.84094e-07 -6.37284e-07 -3.83172e-07 -1.13932e-07 1.50458e-07 4.14212e-07 6.6925e-07 9.9135e-07 1.25295e-06 1.58626e-06 1.84047e-06 2.14553e-06 2.46844e-06 2.74349e-06 3.02769e-06 3.33137e-06 3.62423e-06 3.92124e-06 4.19713e-06 4.48959e-06 4.78369e-06 5.0259e-06 5.29606e-06 5.55538e-06 5.79796e-06 6.04744e-06 6.26729e-06 6.49069e-06 6.68333e-06 6.88038e-06 7.03774e-06 7.21922e-06 7.37556e-06 7.49241e-06 6.96927e-06 6.64077e-06 6.36272e-06 6.0769e-06 5.75909e-06 5.42255e-06 5.05753e-06 4.69045e-06 4.21757e-06 3.70454e-06 3.19023e-06 2.68869e-06 2.1663e-06 1.58614e-06 1.05474e-06 4.57455e-07 -1.28586e-07 -7.60358e-07 -1.34625e-06 -1.93015e-06 -2.58283e-06 -3.22593e-06 -3.75994e-06 -4.39734e-06 -5.03903e-06 -5.60693e-06 -6.22786e-06 -6.81769e-06 -7.32683e-06 -7.92888e-06 -8.44714e-06 -8.98299e-06 -9.48985e-06 -9.99828e-06 -1.04588e-05 -1.09263e-05 -1.13395e-05 -1.17545e-05 -1.21207e-05 -1.24453e-05 0.000579037 0.000919327 0.00119444 0.00155883 0.00188241 0.00218664 0.00256077 0.00290819 0.00323219 0.00360898 0.00394465 0.00430697 0.00468084 0.00509953 
0.00529267 0.00564666 0.00600944 0.00636309 0.00669204 0.00704332 0.00740492 0.0077173 0.0080748 0.0083957 0.0087375 0.00900919 0.00932657 0.00964094 0.00989965 0.0101762 0.0104124 0.0106412 0.0108725 0.0110707 0.0112721 0.0114275 0.0116049 0.0116993 0.0118501 0.0119452 0.0120224 0.0121226 0.0121944 0.0122094 0.01221 0.0122002 0.0121632 0.0121032 0.0120438 0.0119944 0.0118086 0.0117262 0.0115663 0.0114414 0.0112436 0.0110056 0.0108443 0.0106169 0.0103799 0.0101137 0.00984156 0.00957087 0.00927858 0.00898457 0.00865089 0.00833964 0.00802763 0.00773392 0.00738267 0.00701244 0.00668845 0.00634605 0.00602052 0.00564375 0.00530956 0.00498086 0.0046467 0.00430559 0.00397792 0.00362018 0.00324903 0.00290993 0.00255918 0.00223336 0.00192388 0.00158653 0.00125166 0.000650913 0.000627789 0.000603065 0.000581729 0.000551818 0.000523189 0.000493565 0.00046165 0.00043375 0.000398262 0.000364487 0.000330424 0.000296889 0.000259768 0.000225738 0.000187587 0.0001487 0.000115821 7.69465e-05 3.79585e-05 4.77728e-06 -3.06178e-05 -6.99792e-05 -0.000106523 -0.000139795 -0.000175456 -0.00020718 -0.000242476 -0.000272136 -0.000303562 -0.000333957 -0.000359813 -0.000388128 -0.000413752 -0.000438963 -0.00046094 -0.000479429 -0.000505943 -0.000523511 -0.000540387 -0.000574226 -0.000569761 -0.000563817 -0.000558019 -0.00054958 -0.00054205 -0.000533586 -0.000523146 -0.000513777 -0.00050195 -0.000489836 -0.000476218 -0.000464159 -0.000449426 -0.000435119 -0.000420298 -0.000404156 -0.000387824 -0.0003731 -0.000357114 -0.000339207 -0.000322392 -0.000307294 -0.000289417 -0.000271766 -0.000253604 -0.000237737 -0.000220624 -0.000202333 -0.000186002 -0.000168107 -0.000151368 -0.000136375 -0.000121449 -0.000105112 -8.7699e-05 -7.37501e-05 -5.79694e-05 -4.15156e-05 -2.86156e-05 1.67428e-07 9.28935e-08 1.1778e-08 -7.21102e-08 -1.49861e-07 -2.43238e-07 -3.19941e-07 -4.1052e-07 -5.06892e-07 -5.88179e-07 -6.73569e-07 -7.68868e-07 -8.60265e-07 -9.48433e-07 -1.04306e-06 -1.14085e-06 -1.22366e-06 -1.30812e-06 -1.39511e-06 -1.48501e-06 -1.56034e-06 -1.64639e-06 -1.72307e-06 -1.80149e-06 -1.8685e-06 -1.94182e-06 -1.996e-06 -2.05934e-06 -2.12344e-06 -2.16824e-06 -2.23092e-06 -2.27516e-06 -2.30877e-06 -1.94953e-06 -1.8163e-06 -1.61051e-06 -1.42753e-06 -1.23686e-06 -1.02866e-06 -8.2561e-07 -6.21966e-07 -3.7404e-07 -1.11355e-07 1.46599e-07 4.03932e-07 6.52762e-07 9.67022e-07 1.22225e-06 1.54745e-06 1.79548e-06 2.09311e-06 2.40816e-06 2.67652e-06 2.9538e-06 3.25009e-06 3.53583e-06 3.82561e-06 4.09478e-06 4.38013e-06 4.66708e-06 4.9034e-06 5.16697e-06 5.41999e-06 5.65667e-06 5.90007e-06 6.11458e-06 6.33254e-06 6.5205e-06 6.71276e-06 6.86629e-06 7.04336e-06 7.19589e-06 7.30991e-06 6.79962e-06 6.47918e-06 6.20796e-06 5.92917e-06 5.61916e-06 5.29088e-06 4.93481e-06 4.57674e-06 4.11544e-06 3.61497e-06 3.11325e-06 2.62398e-06 2.11438e-06 1.54842e-06 1.03002e-06 4.47342e-07 -1.24361e-07 -7.4068e-07 -1.31225e-06 -1.88186e-06 -2.51858e-06 -3.14596e-06 -3.6669e-06 -4.28872e-06 -4.91472e-06 -5.46874e-06 -6.07449e-06 -6.64991e-06 -7.1466e-06 -7.73394e-06 -8.23954e-06 -8.76229e-06 -9.25678e-06 -9.75278e-06 -1.0202e-05 -1.06581e-05 -1.10612e-05 -1.14661e-05 -1.18233e-05 -1.214e-05 0.000564507 0.000896263 0.00116447 0.00151973 0.00183519 0.00213179 0.00249654 0.00283524 0.00315112 0.00351846 0.00384571 0.00419894 0.00456344 0.00497162 
0.00516365 0.00550902 0.00586295 0.00620798 0.0065289 0.00687163 0.00722441 0.00752918 0.00787797 0.00819104 0.00852451 0.00878957 0.00909922 0.00940593 0.00965833 0.00992812 0.0101586 0.0103818 0.0106075 0.0108009 0.0109973 0.0111489 0.011322 0.0114141 0.0115613 0.011654 0.0117724 0.0118923 0.0119805 0.0120202 0.0120441 0.0120577 0.0120456 0.012009 0.0119772 0.0119555 0.0117963 0.0117417 0.0116098 0.0115175 0.0113481 0.0111422 0.0110124 0.0108139 0.0106088 0.0103736 0.0101331 0.0098925 0.00963102 0.00936975 0.00906686 0.00878574 0.00850313 0.00823522 0.00791217 0.00757104 0.00727219 0.00695568 0.00665204 0.00629922 0.00598733 0.0056798 0.00536366 0.00504023 0.00472939 0.0043868 0.00400257 0.00365955 0.00330501 0.00297282 0.00265029 0.00230197 0.00195702 0.00135001 0.00130338 0.00125333 0.00121034 0.00114976 0.00109181 0.00103172 0.000966951 0.000910441 0.000838412 0.000769722 0.000700588 0.000632387 0.000556962 0.000487769 0.000410089 0.00033083 0.000263967 0.000184781 0.000105342 3.76608e-05 -3.45379e-05 -0.000114847 -0.000189428 -0.000257368 -0.000330238 -0.000395186 -0.000467261 -0.000527929 -0.000592266 -0.000654494 -0.000707565 -0.000765588 -0.000818236 -0.000870058 -0.000915325 -0.000953402 -0.00100803 -0.00104438 -0.00107931 -0.00114927 -0.00114033 -0.00112844 -0.00111683 -0.00109994 -0.00108487 -0.00106794 -0.00104704 -0.00102829 -0.00100462 -0.000980377 -0.000953124 -0.000928989 -0.000899504 -0.000870871 -0.000841207 -0.000808904 -0.000776217 -0.00074675 -0.000714754 -0.000678917 -0.000645264 -0.000615047 -0.000579269 -0.000543943 -0.000507594 -0.000475839 -0.000441589 -0.000404981 -0.000372297 -0.000336483 -0.000302981 -0.000272974 -0.000242979 -0.000210212 -0.000175299 -0.000147316 -0.000115664 -8.26597e-05 -5.677e-05 9.13444e-07 8.36187e-07 7.49269e-07 6.58258e-07 5.72271e-07 4.6947e-07 3.83726e-07 2.82722e-07 1.7331e-07 8.17828e-08 -1.77996e-08 -1.28735e-07 -2.34869e-07 -3.38709e-07 -4.48444e-07 -5.65545e-07 -6.67015e-07 -7.6787e-07 -8.74693e-07 -9.8589e-07 -1.07964e-06 -1.18513e-06 -1.28468e-06 -1.38186e-06 -1.46876e-06 -1.56191e-06 -1.63869e-06 -1.72265e-06 -1.80861e-06 -1.87321e-06 -1.95745e-06 -2.02159e-06 -2.07571e-06 -1.74795e-06 -1.63776e-06 -1.45876e-06 -1.29817e-06 -1.13118e-06 -9.47179e-07 -7.70839e-07 -6.07421e-07 -3.65365e-07 -1.089e-07 1.42946e-07 3.94188e-07 6.37127e-07 9.43948e-07 1.19314e-06 1.51064e-06 1.75279e-06 2.04338e-06 2.35097e-06 2.61298e-06 2.8837e-06 3.17298e-06 3.45195e-06 3.73488e-06 3.99768e-06 4.27627e-06 4.55643e-06 4.78716e-06 5.0445e-06 5.29153e-06 5.52261e-06 5.76025e-06 5.96968e-06 6.18249e-06 6.366e-06 6.55371e-06 6.70361e-06 6.87649e-06 7.02542e-06 7.13674e-06 6.63863e-06 6.32585e-06 6.06111e-06 5.78897e-06 5.48636e-06 5.16592e-06 4.81835e-06 4.46883e-06 4.01851e-06 3.52995e-06 3.04018e-06 2.56255e-06 2.06508e-06 1.51258e-06 1.00652e-06 4.37699e-07 -1.20402e-07 -7.22061e-07 -1.28004e-06 -1.83611e-06 -2.45768e-06 -3.07013e-06 -3.57869e-06 -4.18573e-06 -4.79685e-06 -5.33769e-06 -5.92905e-06 -6.49078e-06 -6.97567e-06 -7.54906e-06 -8.04264e-06 -8.55297e-06 -9.0357e-06 -9.51993e-06 -9.95851e-06 -1.04038e-05 -1.07973e-05 -1.11925e-05 -1.15413e-05 -1.18505e-05 0.00055074 0.000874409 0.00113608 0.00148268 0.00179045 0.00207982 0.00243568 0.00276612 0.0030743 0.00343269 0.00375196 0.00409658 0.00445219 0.00485042 
0.00503414 0.00537085 0.00571591 0.00605229 0.00636517 0.0066993 0.00704323 0.00734035 0.0076804 0.00798562 0.00831072 0.00856914 0.00887103 0.00917004 0.00941612 0.00967913 0.0099038 0.0101214 0.0103415 0.01053 0.0107215 0.0108693 0.011038 0.0111279 0.0112713 0.0113617 0.0115257 0.0116676 0.0117739 0.0118409 0.0118905 0.0119298 0.0119452 0.011934 0.0119324 0.0119413 0.0118109 0.0117868 0.0116853 0.0116286 0.0114899 0.0113189 0.0112234 0.0110562 0.0108855 0.0106839 0.0104778 0.0102696 0.0100413 0.00981543 0.00954567 0.00929699 0.00904602 0.00880583 0.00851301 0.00820305 0.00793112 0.0076423 0.00736202 0.00703467 0.00674654 0.00646155 0.00616446 0.0058597 0.00556662 0.00523986 0.00484032 0.00449218 0.00413263 0.00379263 0.00345499 0.00309377 0.00273692 0.00212158 0.002049 0.00197098 0.00190408 0.00180966 0.00171933 0.00162561 0.00152456 0.00143647 0.0013241 0.00121687 0.00110901 0.00100254 0.000884831 0.00077682 0.000655503 0.000531678 0.000427298 0.000303612 0.000179518 7.37522e-05 -3.90739e-05 -0.000164586 -0.000281155 -0.000387365 -0.000501309 -0.00060293 -0.000715605 -0.000810502 -0.000911168 -0.00100853 -0.00109164 -0.00118246 -0.00126494 -0.00134613 -0.00141711 -0.0014768 -0.00156247 -0.00161954 -0.00167439 -0.00178422 -0.00177035 -0.00175188 -0.00173387 -0.00170764 -0.00168425 -0.00165796 -0.00162552 -0.00159641 -0.00155966 -0.00152203 -0.00147972 -0.00144225 -0.00139647 -0.00135202 -0.00130597 -0.00125582 -0.00120508 -0.00115933 -0.00110966 -0.00105402 -0.00100177 -0.000954864 -0.000899319 -0.000844477 -0.000788045 -0.000738748 -0.000685575 -0.000628742 -0.000578001 -0.000522401 -0.000470389 -0.000423805 -0.000377169 -0.000326262 -0.000272026 -0.000228546 -0.000179369 -0.000128091 -8.78587e-05 1.73604e-06 1.6556e-06 1.56209e-06 1.46303e-06 1.36777e-06 1.25436e-06 1.15846e-06 1.04575e-06 9.21734e-07 8.18724e-07 7.03293e-07 5.74893e-07 4.52296e-07 3.30969e-07 2.04355e-07 6.57276e-08 -5.65105e-08 -1.75633e-07 -3.04524e-07 -4.39412e-07 -5.53643e-07 -6.80779e-07 -8.05708e-07 -9.23763e-07 -1.03274e-06 -1.14792e-06 -1.24975e-06 -1.35659e-06 -1.46679e-06 -1.55331e-06 -1.66148e-06 -1.74764e-06 -1.82446e-06 -1.53053e-06 -1.44541e-06 -1.29543e-06 -1.15907e-06 -1.01773e-06 -8.59881e-07 -7.12485e-07 -5.92907e-07 -3.56719e-07 -1.06473e-07 1.39269e-07 3.8442e-07 6.21471e-07 9.20855e-07 1.164e-06 1.47381e-06 1.7101e-06 1.99365e-06 2.29378e-06 2.54944e-06 2.8136e-06 3.09586e-06 3.36808e-06 3.64415e-06 3.90059e-06 4.17243e-06 4.4458e-06 4.67094e-06 4.92204e-06 5.16309e-06 5.38857e-06 5.62046e-06 5.82482e-06 6.03247e-06 6.21154e-06 6.3947e-06 6.54097e-06 6.70967e-06 6.85499e-06 6.96362e-06 6.4777e-06 6.17258e-06 5.91433e-06 5.64885e-06 5.35365e-06 5.04105e-06 4.70198e-06 4.36101e-06 3.92169e-06 3.44504e-06 2.96722e-06 2.50124e-06 2.0159e-06 1.47687e-06 9.83146e-07 4.28192e-07 -1.16301e-07 -7.03297e-07 -1.24768e-06 -1.7902e-06 -2.39662e-06 -2.99415e-06 -3.49032e-06 -4.08257e-06 -4.6788e-06 -5.20647e-06 -5.78343e-06 -6.33148e-06 -6.80456e-06 -7.36399e-06 -7.84555e-06 -8.34346e-06 -8.81444e-06 -9.28688e-06 -9.7148e-06 -1.01492e-05 -1.05332e-05 -1.09188e-05 -1.12591e-05 -1.15608e-05 0.000536921 0.000852472 0.00110758 0.00144548 0.00174554 0.00202766 0.00237459 0.00269674 0.0029972 0.00334659 0.00365786 0.00399383 0.00434053 0.00472878 
0.00491028 0.00523871 0.00557528 0.00590338 0.00620856 0.00653447 0.00686995 0.00715976 0.00749144 0.00778915 0.00810626 0.00835832 0.00865277 0.00894444 0.00918446 0.009441 0.00966015 0.00987241 0.010087 0.0102709 0.0104578 0.0106019 0.0107665 0.0108541 0.010994 0.0110822 0.0112897 0.0114526 0.0115763 0.0116693 0.0117434 0.0118072 0.0118489 0.011862 0.0118894 0.0119274 0.0118245 0.0118294 0.0117571 0.0117343 0.0116251 0.0114874 0.0114246 0.0112873 0.0111496 0.0109801 0.0108067 0.0106295 0.010433 0.0102409 0.0100028 0.0097851 0.00956436 0.00935066 0.00908672 0.00880655 0.00856034 0.00829799 0.00804001 0.00773701 0.00747159 0.00720814 0.00692926 0.00664234 0.00636624 0.00605461 0.00564044 0.00528742 0.0049231 0.00457564 0.00422356 0.00385004 0.00348182 0.00285854 0.00276116 0.00265643 0.00256668 0.00243992 0.00231866 0.00219281 0.00205712 0.00193884 0.00178794 0.00164389 0.00149905 0.00135602 0.00119791 0.00105281 0.000889811 0.000723412 0.000583193 0.000416996 0.000250243 0.000108096 -4.35402e-05 -0.000212233 -0.000368913 -0.000511679 -0.000664861 -0.000801514 -0.000952972 -0.00108057 -0.00121594 -0.00134687 -0.00145867 -0.00158082 -0.00169178 -0.00180104 -0.00189657 -0.00197691 -0.00209223 -0.00216909 -0.00224297 -0.00239087 -0.00237229 -0.00234754 -0.00232341 -0.00228827 -0.00225692 -0.00222169 -0.00217822 -0.00213922 -0.00208997 -0.00203954 -0.00198284 -0.00193264 -0.0018713 -0.00181173 -0.00175002 -0.00168282 -0.00161482 -0.00155352 -0.00148696 -0.00141241 -0.0013424 -0.00127954 -0.00120511 -0.00113162 -0.001056 -0.000989941 -0.00091869 -0.000842533 -0.000774539 -0.000700034 -0.000630338 -0.000567915 -0.00050538 -0.00043714 -0.000364443 -0.000306157 -0.000240236 -0.000171498 -0.000117562 2.52224e-06 2.43876e-06 2.33895e-06 2.23219e-06 2.12809e-06 2.00453e-06 1.89894e-06 1.77503e-06 1.63706e-06 1.52308e-06 1.3925e-06 1.24741e-06 1.10908e-06 9.71047e-07 8.28305e-07 6.69107e-07 5.27022e-07 3.90442e-07 2.40464e-07 8.29342e-08 -5.08685e-08 -1.98687e-07 -3.47875e-07 -4.85875e-07 -6.15956e-07 -7.52185e-07 -8.77946e-07 -1.00665e-06 -1.14002e-06 -1.24749e-06 -1.37853e-06 -1.48574e-06 -1.58425e-06 -1.32266e-06 -1.26151e-06 -1.13927e-06 -1.02607e-06 -9.09251e-07 -7.7641e-07 -6.56685e-07 -5.79013e-07 -3.48441e-07 -1.04145e-07 1.35754e-07 3.75077e-07 6.06492e-07 8.98759e-07 1.13613e-06 1.43857e-06 1.66924e-06 1.94605e-06 2.23905e-06 2.48863e-06 2.74651e-06 3.02207e-06 3.28782e-06 3.55733e-06 3.80767e-06 4.07305e-06 4.33992e-06 4.55971e-06 4.80485e-06 5.04018e-06 5.2603e-06 5.48667e-06 5.68618e-06 5.8889e-06 6.06371e-06 6.24253e-06 6.38533e-06 6.55001e-06 6.69189e-06 6.79794e-06 6.32369e-06 6.02589e-06 5.77385e-06 5.51475e-06 5.22663e-06 4.92154e-06 4.5906e-06 4.25782e-06 3.82902e-06 3.36376e-06 2.89738e-06 2.44255e-06 1.96882e-06 1.44268e-06 9.60764e-07 4.19075e-07 -1.12397e-07 -6.85361e-07 -1.21673e-06 -1.74628e-06 -2.33821e-06 -2.92146e-06 -3.40577e-06 -3.98386e-06 -4.56585e-06 -5.08092e-06 -5.64409e-06 -6.17906e-06 -6.64084e-06 -7.1869e-06 -7.65697e-06 -8.14298e-06 -8.60273e-06 -9.06388e-06 -9.48159e-06 -9.90566e-06 -1.02804e-05 -1.06569e-05 -1.09891e-05 -1.12835e-05 0.000523704 0.000831492 0.00108033 0.00140991 0.00170259 0.00197776 0.00231616 0.00263039 0.00292345 0.00326425 0.00356786 0.00389557 0.00423374 0.00461243 
0.00477625 0.00509571 0.00542308 0.00574223 0.00603908 0.0063561 0.00668242 0.00696432 0.00728694 0.00757653 0.00788498 0.00813016 0.00841658 0.00870028 0.00893375 0.00918329 0.00939645 0.00960292 0.0098117 0.00999058 0.0101723 0.0103125 0.0104726 0.0105578 0.0106939 0.0107797 0.0110263 0.0112078 0.011347 0.0114635 0.0115599 0.011646 0.0117116 0.0117471 0.0118009 0.0118656 0.0117884 0.0118201 0.0117747 0.0117834 0.0117016 0.0115951 0.0115627 0.0114534 0.0113466 0.0112073 0.0110647 0.0109167 0.0107502 0.01059 0.010382 0.0101937 0.0100016 0.00981315 0.00957686 0.00932522 0.00910367 0.00886673 0.00863033 0.00835095 0.0081075 0.00786494 0.00760394 0.0073346 0.00707524 0.00677881 0.00635289 0.00599683 0.00562961 0.00527672 0.00491282 0.00452951 0.00415236 0.00352433 0.00340455 0.00327569 0.00316531 0.00300934 0.00286013 0.00270526 0.00253826 0.00239273 0.00220702 0.0020297 0.00185145 0.0016754 0.00148079 0.0013022 0.00110154 0.000896684 0.000724088 0.000519489 0.000314201 0.000139189 -4.75075e-05 -0.000255208 -0.000448122 -0.000623913 -0.00081254 -0.000980841 -0.00116733 -0.00132447 -0.00149119 -0.00165244 -0.00179017 -0.00194061 -0.00207732 -0.00221192 -0.00232963 -0.00242863 -0.00257073 -0.00266548 -0.00275655 -0.00293885 -0.00291601 -0.00288559 -0.00285592 -0.00281273 -0.0027742 -0.00273089 -0.00267746 -0.00262952 -0.00256899 -0.002507 -0.00243731 -0.00237559 -0.00230019 -0.00222698 -0.00215112 -0.00206852 -0.00198494 -0.00190959 -0.00182777 -0.00173613 -0.00165008 -0.00157281 -0.00148132 -0.00139099 -0.00129804 -0.00121684 -0.00112926 -0.00103564 -0.000952066 -0.000860486 -0.000774816 -0.000698085 -0.00062119 -0.000537293 -0.00044792 -0.000376259 -0.000295214 -0.000210704 -0.00014439 3.23487e-06 3.14894e-06 3.04376e-06 2.93037e-06 2.81856e-06 2.68619e-06 2.57212e-06 2.43844e-06 2.28821e-06 2.16461e-06 2.02065e-06 1.86082e-06 1.7086e-06 1.55577e-06 1.39879e-06 1.22133e-06 1.06159e-06 9.09524e-07 7.40775e-07 5.6308e-07 4.11835e-07 2.45611e-07 7.47325e-08 -8.10365e-08 -2.29983e-07 -3.85006e-07 -5.32256e-07 -6.80538e-07 -8.34657e-07 -9.60955e-07 -1.11248e-06 -1.2386e-06 -1.35665e-06 -1.12589e-06 -1.08705e-06 -9.90842e-07 -8.99425e-07 -8.05642e-07 -6.96359e-07 -6.02587e-07 -5.63787e-07 -3.39346e-07 -1.01546e-07 1.31975e-07 3.64935e-07 5.90198e-07 8.74696e-07 1.10575e-06 1.40016e-06 1.62469e-06 1.89414e-06 2.17935e-06 2.4223e-06 2.67333e-06 2.94156e-06 3.20025e-06 3.4626e-06 3.70628e-06 3.96461e-06 4.22439e-06 4.43834e-06 4.67697e-06 4.90604e-06 5.12031e-06 5.34067e-06 5.53487e-06 5.73221e-06 5.90238e-06 6.07644e-06 6.21545e-06 6.37576e-06 6.51387e-06 6.61711e-06 6.15556e-06 5.86574e-06 5.62046e-06 5.3683e-06 5.0879e-06 4.79099e-06 4.46889e-06 4.14503e-06 3.72769e-06 3.27486e-06 2.82095e-06 2.37827e-06 1.91719e-06 1.4051e-06 9.36058e-07 4.08831e-07 -1.08448e-07 -6.66113e-07 -1.1833e-06 -1.69872e-06 -2.27484e-06 -2.84252e-06 -3.3139e-06 -3.87656e-06 -4.44302e-06 -4.94434e-06 -5.49249e-06 -6.01318e-06 -6.46264e-06 -6.99413e-06 -7.45166e-06 -7.92471e-06 -8.37219e-06 -8.82105e-06 -9.22762e-06 -9.64038e-06 -1.00052e-05 -1.03716e-05 -1.06949e-05 -1.09815e-05 0.000509403 0.000808789 0.00105083 0.00137142 0.00165611 0.00192377 0.00225293 0.00255858 0.00284364 0.00317514 0.00347046 0.00378923 0.00411816 0.00448652 
0.00461845 0.00492735 0.00524392 0.00555252 0.00583957 0.00614611 0.00646165 0.00673424 0.0070462 0.00732622 0.00762448 0.00786156 0.00813852 0.00841285 0.00863861 0.00887991 0.00908602 0.00928567 0.00948755 0.00966053 0.00983623 0.00997184 0.0101266 0.010209 0.0103406 0.0104236 0.0107164 0.0109198 0.0110773 0.0112216 0.0113442 0.0114567 0.0115505 0.0116123 0.0116974 0.0117935 0.0117466 0.0118098 0.0117964 0.011842 0.0117926 0.0117229 0.0117263 0.0116501 0.0115797 0.011476 0.0113697 0.0112562 0.0111251 0.0110024 0.0108298 0.0106762 0.010518 0.0103593 0.0101556 0.00993758 0.0097451 0.00953812 0.00932715 0.00907562 0.00885807 0.00864013 0.0084002 0.00815158 0.00791195 0.00763342 0.00719362 0.00683394 0.00646327 0.00610396 0.00572608 0.0053312 0.00494349 0.00430981 0.00416361 0.00400627 0.00387154 0.0036811 0.00349893 0.00330981 0.00310588 0.00292819 0.00270139 0.00248483 0.00226715 0.00205213 0.00181447 0.00159635 0.00135126 0.00110102 0.000890226 0.000640315 0.000389558 0.000175768 -5.22958e-05 -0.000306022 -0.000541689 -0.000756446 -0.000986895 -0.00119254 -0.00142037 -0.00161235 -0.00181606 -0.00201309 -0.0021814 -0.00236523 -0.00253231 -0.00269682 -0.0028407 -0.00296172 -0.00313541 -0.00325126 -0.00336261 -0.0035855 -0.00355763 -0.00352052 -0.00348432 -0.00343163 -0.00338462 -0.00333178 -0.00326659 -0.0032081 -0.00313426 -0.00305862 -0.0029736 -0.00289831 -0.00280632 -0.00271699 -0.00262445 -0.00252367 -0.0024217 -0.00232976 -0.00222995 -0.00211814 -0.00201316 -0.00191888 -0.00180726 -0.00169706 -0.00158366 -0.00148459 -0.00137774 -0.00126353 -0.00116156 -0.00104983 -0.000945308 -0.000851694 -0.000757852 -0.00065548 -0.000546427 -0.000458984 -0.000360091 -0.00025697 -0.000176048 4.07596e-06 3.98715e-06 3.87562e-06 3.75439e-06 3.63348e-06 3.49071e-06 3.36662e-06 3.22141e-06 3.0567e-06 2.92175e-06 2.76199e-06 2.58475e-06 2.41612e-06 2.24583e-06 2.07204e-06 1.87304e-06 1.69244e-06 1.52209e-06 1.33119e-06 1.12968e-06 9.57847e-07 7.69894e-07 5.7341e-07 3.96665e-07 2.25448e-07 4.82386e-08 -1.24378e-07 -2.95765e-07 -4.74382e-07 -6.229e-07 -7.986e-07 -9.47054e-07 -1.08817e-06 -8.93784e-07 -8.8125e-07 -8.15759e-07 -7.50034e-07 -6.83433e-07 -6.01941e-07 -5.38787e-07 -5.45852e-07 -3.28631e-07 -9.84813e-08 1.27528e-07 3.52995e-07 5.71012e-07 8.4636e-07 1.06999e-06 1.35492e-06 1.57224e-06 1.83302e-06 2.10906e-06 2.34419e-06 2.58715e-06 2.84676e-06 3.09713e-06 3.35104e-06 3.58689e-06 3.83691e-06 4.08834e-06 4.29541e-06 4.52636e-06 4.74807e-06 4.95546e-06 5.16873e-06 5.35669e-06 5.54769e-06 5.71239e-06 5.88085e-06 6.01539e-06 6.17056e-06 6.30422e-06 6.40414e-06 5.95756e-06 5.67714e-06 5.43981e-06 5.19583e-06 4.92452e-06 4.63723e-06 4.32557e-06 4.0122e-06 3.60836e-06 3.17016e-06 2.73092e-06 2.30256e-06 1.85638e-06 1.36084e-06 9.06951e-07 3.96754e-07 -1.0381e-07 -6.43461e-07 -1.14394e-06 -1.64271e-06 -2.20023e-06 -2.74957e-06 -3.20573e-06 -3.75022e-06 -4.29838e-06 -4.78353e-06 -5.31397e-06 -5.81785e-06 -6.2528e-06 -6.76714e-06 -7.20991e-06 -7.66769e-06 -8.10073e-06 -8.5351e-06 -8.92856e-06 -9.328e-06 -9.68103e-06 -1.00356e-05 -1.03485e-05 -1.06259e-05 0.000492567 0.000782062 0.00101611 0.00132611 0.00160139 0.00186021 0.00217849 0.00247405 0.00274969 0.00307024 0.0033558 0.00366404 0.00398211 0.0043383 
