0.000453064 0.000386065 0.000313024 0.000534636 0.000646762 0.000713179 0.00135785 0.00274179 0.00663667 0.0133054 0.023286 0.0362191 0.0491454 0.0603511 0.0675762 0.0702777 0.0677255 0.0603011 0.0491337 0.0360929 0.0235197 0.013146 0.00625008 0.00276161 0.0012902 0.000557764 0.000559258 0.000411151 0.000385533 0.000436793 0.000359681 0.000268877 -0.000382554 -0.00168244 -0.00401697 -0.00772907 -0.0120911 -0.0165971 -0.0207197 -0.0234211 -0.0242668 -0.0233607 -0.0207928 -0.0169539 -0.012175 -0.00755517 -0.00389458 -0.0016384 -0.000331928 0.000261355 0.000365042 0.000688772 0.000552148 0.000283856 0.000407165 0.000495047 0.000273014 -0.000150922 -0.000838117 -0.00252503 -0.00474515 -0.00776904 -0.0107912 -0.0132828 -0.0150168 -0.0154389 -0.0150402 -0.0132518 -0.0107594 -0.00777512 -0.0048387 -0.00239137 -0.0010396 -9.10882e-05 0.00048126 0.000336542 0.000551743 0.00064153 0.000483062 0.000378545 0.000528945 0.000435602 0.000369231 -0.000420385 -0.00107715 -0.0023278 -0.00381404 -0.00539906 -0.0066175 -0.00776475 -0.0079513 -0.00747966 -0.00688959 -0.00541525 -0.00387742 -0.00238257 -0.000915208 -0.00035705 0.000260826 0.000401097 0.000493881 0.000484058 0.000434165 0.000641513 0.000486903 0.000405491 0.000376635 0.000427527 0.00013469 -0.000402622 -0.00113338 -0.00190009 -0.00277437 -0.00346132 -0.0040976 -0.0042024 -0.0039947 -0.00368076 -0.00283914 -0.00182161 -0.00102376 -0.00043933 0.000221641 0.000273966 0.000593895 0.000646186 0.000609308 0.000412143 0.000325341 0.000767413 0.000489723 0.000431056 0.000603592 0.000663119 0.00080675 0.000769705 0.00111645 0.00119627 0.00135213 0.00159699 0.00155945 0.00152816 0.00135895 0.00120396 0.000927425 0.000829356 0.000810333 0.000474175 0.000534367 0.000554885 0.000452032 0.000567408 0.000624977 0.000637936 0.000644171 0.000428346 0.000469485 -0.00012394 -0.00114137 -0.00298502 -0.00579446 -0.00948572 -0.0133 -0.0164424 -0.0185696 -0.0192443 -0.0184034 -0.0163117 -0.0130324 -0.00953676 -0.0059681 -0.00315214 -0.00129235 -0.000214748 0.000188869 0.00041301 0.000368757 0.000439189 0.000531722 0.00053779 
0.000463 0.0003954 0.000321146 0.000545886 0.000658996 0.000726397 0.00138096 0.00278756 0.00674023 0.0135096 0.0236414 0.0367711 0.0498943 0.0612683 0.0686034 0.071346 0.0687541 0.0612191 0.0498812 0.0366434 0.0238779 0.013347 0.00634876 0.00280572 0.00131382 0.000570129 0.000569588 0.000419905 0.000394429 0.000447872 0.000369365 0.000279397 -0.000378208 -0.00168705 -0.00403732 -0.0077742 -0.012165 -0.0167008 -0.0208518 -0.0235713 -0.0244226 -0.0235103 -0.0209265 -0.0170626 -0.0122507 -0.00759788 -0.00391253 -0.00164163 -0.000325217 0.000270824 0.00037466 0.000701822 0.000564412 0.000291207 0.000417027 0.000507693 0.000282056 -0.000146582 -0.00084004 -0.00254199 -0.00478219 -0.00783282 -0.010881 -0.0133948 -0.015145 -0.0155714 -0.0151691 -0.0133653 -0.0108495 -0.00783887 -0.00487698 -0.00240728 -0.00104304 -8.52098e-05 0.000492463 0.000344987 0.000563881 0.000653875 0.000493764 0.000388024 0.000539663 0.000447843 0.000380931 -0.000411212 -0.00106568 -0.00231418 -0.00379775 -0.00538067 -0.00659522 -0.0077453 -0.00792818 -0.00745466 -0.0068699 -0.00539763 -0.00386159 -0.00236925 -0.000900533 -0.000347144 0.000272281 0.000411395 0.000505199 0.000492957 0.00044429 0.000654258 0.000498997 0.000415122 0.000387317 0.000440567 0.000147886 -0.000388437 -0.00111728 -0.00187994 -0.00275026 -0.00343364 -0.00407058 -0.00417348 -0.00396556 -0.00365772 -0.00281647 -0.00179963 -0.00100829 -0.000427708 0.000235666 0.000284825 0.000606356 0.000658884 0.00062262 0.000421641 0.000333904 0.000782232 0.000498079 0.000433348 0.000596173 0.000626477 0.000714561 0.000590537 0.000833335 0.000805697 0.00086827 0.00105452 0.000996089 0.000986741 0.000876527 0.000812689 0.000643565 0.000651334 0.000717858 0.000434137 0.000524794 0.000559259 0.000458885 0.000579091 0.000637162 0.000651193 0.000655413 0.000437686 0.000479937 -0.000122141 -0.00115305 -0.00302005 -0.00586852 -0.00960902 -0.0134744 -0.0166596 -0.0188152 -0.019499 -0.0186473 -0.0165272 -0.0132022 -0.00965979 -0.0060443 -0.0031915 -0.0013053 -0.000213774 0.000195579 0.00042283 0.000378393 0.00044998 0.000542816 0.000551285 
0.000461108 0.000392109 0.000315954 0.000542324 0.000656787 0.000722961 0.0013863 0.00281335 0.0068173 0.0136729 0.0239408 0.0372431 0.0505381 0.0620609 0.0694927 0.0722735 0.0696427 0.0620136 0.0505253 0.0371144 0.024179 0.013509 0.00642339 0.00283355 0.00132214 0.000568781 0.000566585 0.000413945 0.000388935 0.000445626 0.000365945 0.000273139 -0.000390277 -0.00171504 -0.00408724 -0.00785904 -0.012297 -0.0168771 -0.0210683 -0.0238157 -0.0246768 -0.0237556 -0.0211452 -0.0172444 -0.0123846 -0.00768469 -0.00395945 -0.00166619 -0.000337497 0.000265558 0.000368823 0.000698545 0.000562688 0.000285011 0.000410919 0.000506627 0.000276616 -0.000155071 -0.000855965 -0.00256733 -0.00482783 -0.00790127 -0.0109705 -0.0135014 -0.0152672 -0.0156992 -0.0152934 -0.013474 -0.0109403 -0.00790556 -0.00492329 -0.00243433 -0.00105654 -9.59507e-05 0.000485986 0.000339995 0.000561851 0.000650408 0.000490682 0.000383947 0.000535973 0.000441386 0.000369104 -0.000437213 -0.00111287 -0.00239631 -0.00391949 -0.00554589 -0.00679627 -0.00797368 -0.00816085 -0.00767741 -0.00707449 -0.00556313 -0.00398423 -0.00245008 -0.000944694 -0.000372887 0.00026103 0.000404493 0.00050207 0.000487744 0.000441398 0.000652573 0.000497974 0.000409288 0.000379248 0.000422762 0.000109181 -0.000467224 -0.00125326 -0.00209478 -0.00304034 -0.00379031 -0.00447186 -0.00458692 -0.00436313 -0.00401582 -0.00310912 -0.00201276 -0.00114888 -0.000506167 0.000196764 0.000267762 0.00059983 0.000655344 0.000618247 0.000417025 0.000325866 0.000779649 0.000490897 0.000424262 0.000573291 0.000576351 0.000609443 0.000400119 0.00054058 0.000408353 0.000380892 0.00050801 0.000432682 0.000443633 0.000392491 0.000415952 0.00034928 0.000460976 0.000612997 0.000381174 0.000502594 0.000550935 0.00045296 0.000575943 0.000635917 0.000650363 0.000654858 0.000434796 0.000484816 -0.000104887 -0.0010988 -0.00290164 -0.00565004 -0.00927031 -0.0130108 -0.016088 -0.0181749 -0.0188342 -0.0180053 -0.0159568 -0.0127334 -0.00931948 -0.00582927 -0.00307517 -0.00125023 -0.000195475 0.00020049 0.000419528 0.000376131 0.000446453 0.000537641 0.000549085 
0.00046633 0.000400346 0.000324053 0.000552302 0.000662714 0.000731179 0.00139524 0.0028243 0.00683064 0.0136927 0.0239667 0.0372798 0.0505847 0.0621176 0.0695563 0.0723377 0.0697075 0.0620692 0.0505731 0.037151 0.0242081 0.0135273 0.00643646 0.00284183 0.00133068 0.000575327 0.000571697 0.00042141 0.000396209 0.000452056 0.000377723 0.000286864 -0.000360031 -0.00164949 -0.00395829 -0.00763358 -0.0119496 -0.0164053 -0.0204899 -0.0231683 -0.0240044 -0.023107 -0.0205675 -0.0167717 -0.0120362 -0.00745645 -0.00383095 -0.00160098 -0.00030798 0.000280564 0.000379546 0.000708968 0.000569723 0.000292016 0.000418717 0.000511404 0.000284317 -0.000146428 -0.000844604 -0.00255446 -0.0048088 -0.00787928 -0.0109432 -0.0134683 -0.0152318 -0.0156621 -0.0152571 -0.0134403 -0.0109111 -0.00788278 -0.00490342 -0.0024203 -0.00104664 -8.53385e-05 0.000497495 0.000347905 0.000569929 0.000659062 0.000498087 0.000391963 0.000541453 0.000444993 0.000366178 -0.000459083 -0.00116964 -0.00250445 -0.00409497 -0.00578791 -0.00709374 -0.00830963 -0.0085082 -0.00801453 -0.00737387 -0.0058035 -0.00415936 -0.0025587 -0.0010025 -0.000396453 0.000257049 0.000407822 0.000505476 0.000496131 0.000447047 0.000659483 0.000501341 0.000417082 0.00038522 0.000426056 0.00010793 -0.00048281 -0.0012881 -0.00215087 -0.00312272 -0.00388866 -0.0045847 -0.00470577 -0.00447826 -0.00411647 -0.0031895 -0.00206925 -0.00118207 -0.000521878 0.000194819 0.00026978 0.000607802 0.000663883 0.000628308 0.000423414 0.000336304 0.000788658 0.0005002 0.000434834 0.000597085 0.00061915 0.000691264 0.000542375 0.00076039 0.000704079 0.000741338 0.000908658 0.00084851 0.000842371 0.000749523 0.000708295 0.0005672 0.000603105 0.000694513 0.000423625 0.000524103 0.000562341 0.000460805 0.000584112 0.000642875 0.000657041 0.000661912 0.000441901 0.000486269 -0.00011878 -0.00115241 -0.00302413 -0.00587833 -0.00963329 -0.0135079 -0.0167007 -0.0188631 -0.0195479 -0.0186913 -0.0165683 -0.0132304 -0.00968352 -0.00605724 -0.00319815 -0.00130597 -0.000212435 0.000198497 0.000425336 0.000379359 0.000453733 0.000546689 0.000556065 
0.00050351 0.00043906 0.000362622 0.000590725 0.000700543 0.000771422 0.00144262 0.00289541 0.00695601 0.0139071 0.024322 0.0378149 0.051299 0.062985 0.070528 0.0733463 0.0706801 0.0629407 0.0512881 0.0376859 0.0245659 0.0137373 0.00655547 0.00291309 0.00138089 0.000612813 0.000609782 0.000458204 0.000431486 0.000489906 0.000417512 0.000328761 -0.000307447 -0.00158249 -0.00385726 -0.00747535 -0.0117248 -0.0161097 -0.0201356 -0.0227782 -0.0236003 -0.0227157 -0.0202161 -0.0164823 -0.011814 -0.00729749 -0.00372227 -0.00153171 -0.000255968 0.000324865 0.000418115 0.000748361 0.000610102 0.00032749 0.000455599 0.000550773 0.00031613 -0.000127209 -0.000856311 -0.00262115 -0.00495693 -0.00813435 -0.0113051 -0.0139183 -0.0157469 -0.0161977 -0.0157732 -0.0138926 -0.0112726 -0.00813646 -0.00505295 -0.00248764 -0.00105918 -6.79022e-05 0.000529011 0.000382749 0.000611989 0.000696487 0.000538973 0.000431168 0.000581198 0.000487212 0.000416248 -0.000393943 -0.00106758 -0.00235357 -0.0038815 -0.00550831 -0.00675642 -0.00794017 -0.00812214 -0.0076413 -0.00704114 -0.00552207 -0.00394219 -0.00240674 -0.000898665 -0.000329441 0.000307925 0.00044854 0.000542735 0.00053324 0.000484833 0.000698732 0.000540473 0.000452245 0.000414077 0.000433623 6.8998e-05 -0.000607145 -0.00153877 -0.00256543 -0.00370336 -0.00460784 -0.00539832 -0.00554948 -0.00528914 -0.00483877 -0.00377041 -0.00247998 -0.00143281 -0.000644956 0.000161436 0.000276757 0.000637407 0.000701336 0.000667766 0.000459957 0.000371799 0.000832515 0.000537506 0.000467784 0.000621779 0.000619035 0.000643015 0.000422909 0.000558706 0.000414034 0.000375822 0.000491505 0.000420252 0.00042903 0.000385275 0.000418394 0.00036402 0.000485108 0.000646263 0.000420674 0.000545942 0.000595683 0.0004946 0.000623912 0.000682963 0.000696903 0.000702373 0.000477508 0.000527645 -8.20409e-05 -0.00111004 -0.0029816 -0.00583367 -0.00958754 -0.0134612 -0.0166487 -0.0188116 -0.0194942 -0.0186358 -0.0165155 -0.0131776 -0.0096353 -0.00601274 -0.00315835 -0.00126597 -0.000174469 0.000238858 0.000464158 0.000415965 0.000490764 0.000582797 0.000595382 
0.000602882 0.000541937 0.000460818 0.000693903 0.000797402 0.000867768 0.0015468 0.00301566 0.00710687 0.0141147 0.0246186 0.0382252 0.0518218 0.0636076 0.0712129 0.0740578 0.071364 0.0635638 0.051812 0.0380968 0.0248685 0.0139432 0.00671001 0.00303147 0.00149052 0.000714956 0.000704441 0.000553736 0.00052885 0.000592252 0.000526308 0.000434922 -0.000181534 -0.00141804 -0.00361421 -0.00711574 -0.0112254 -0.0154632 -0.0193599 -0.0219221 -0.0227165 -0.0218603 -0.0194445 -0.0158365 -0.0113155 -0.00693944 -0.00347899 -0.00136181 -0.000131172 0.000433825 0.000520425 0.000850419 0.00070985 0.000424387 0.000552193 0.000650122 0.000419784 -1.45467e-05 -0.000724083 -0.00244483 -0.00472647 -0.00783174 -0.0109226 -0.0134656 -0.0152541 -0.0156963 -0.0152838 -0.0134426 -0.0108891 -0.00782911 -0.00481991 -0.00231441 -0.000920373 4.47203e-05 0.000634768 0.000484046 0.000713339 0.000796649 0.000637549 0.000531011 0.000674443 0.000571528 0.000469283 -0.000408965 -0.0012144 -0.00269738 -0.00446847 -0.00634786 -0.00780846 -0.0091356 -0.00935733 -0.00883123 -0.00809644 -0.00635988 -0.00453146 -0.00274697 -0.00104426 -0.000349389 0.00036193 0.000531773 0.000636017 0.000631285 0.00058325 0.000799004 0.000637005 0.000549733 0.000506677 0.000509998 0.000117168 -0.00062634 -0.00165007 -0.00280119 -0.0040619 -0.00506765 -0.00592969 -0.00610374 -0.00581953 -0.00530259 -0.0041304 -0.00271578 -0.00155374 -0.00066461 0.00020321 0.00035404 0.000732966 0.000800597 0.000768433 0.000556643 0.000470872 0.000930113 0.000631357 0.000559276 0.000702 0.000668213 0.0006319 0.000320384 0.000346273 9.03557e-05 -4.70061e-05 -1.63919e-06 -8.86988e-05 -6.19075e-05 -3.70554e-05 8.9068e-05 0.00014895 0.000381696 0.000634627 0.000466385 0.000625244 0.000688917 0.000590634 0.000723576 0.000782665 0.000798471 0.000803013 0.000579191 0.000631291 2.67773e-05 -0.000992003 -0.00284188 -0.00565956 -0.00938209 -0.0132106 -0.0163648 -0.0185049 -0.0191795 -0.0183262 -0.0162333 -0.0129211 -0.00942755 -0.00584287 -0.00302055 -0.0011466 -6.8534e-05 0.000339698 0.000561538 0.000513116 0.000591377 0.000682863 0.000696161 
0.000806295 0.000748849 0.000667402 0.000892066 0.000990661 0.00105677 0.00171042 0.0031252 0.00705741 0.0137933 0.0238951 0.0369773 0.0500507 0.0613821 0.0686935 0.0714321 0.0688369 0.0613421 0.050041 0.0368557 0.0241356 0.0136279 0.00667893 0.00314088 0.00166018 0.000914363 0.000901799 0.000756066 0.000732597 0.00079867 0.000733547 0.000643192 4.98778e-05 -0.00114508 -0.00326214 -0.00663497 -0.0105998 -0.0146878 -0.0184415 -0.0209113 -0.021679 -0.0208526 -0.0185239 -0.0150454 -0.010689 -0.00646844 -0.00312967 -0.00108757 9.89713e-05 0.000642623 0.0007258 0.00104131 0.000907537 0.000633284 0.000755505 0.000852855 0.000631874 0.000217277 -0.000459029 -0.00209333 -0.00426753 -0.00722129 -0.0101602 -0.0125766 -0.0142793 -0.0147045 -0.0143115 -0.0125571 -0.0101276 -0.00721668 -0.00435607 -0.00197097 -0.000642134 0.000273054 0.000835285 0.000691835 0.000913109 0.000990032 0.000838636 0.000736195 0.000872321 0.000772287 0.00066234 -0.000196637 -0.00100329 -0.00248091 -0.00424162 -0.00611265 -0.00757087 -0.00888202 -0.00910253 -0.00858507 -0.00784572 -0.00612362 -0.00430189 -0.00252405 -0.000839392 -0.000140568 0.000561726 0.000732799 0.000837337 0.000831447 0.000787574 0.000994872 0.000839555 0.00075217 0.000707207 0.000696897 0.000291738 -0.000476776 -0.00153854 -0.00275094 -0.00406337 -0.00512007 -0.00600668 -0.00619319 -0.00589852 -0.00534684 -0.00413182 -0.00266776 -0.00145319 -0.000513444 0.000372883 0.000547977 0.000922701 0.000992738 0.000963083 0.000760034 0.000676282 0.00111808 0.000827078 0.000751042 0.000861734 0.00077395 0.000630966 0.000167397 -1.20128e-05 -0.000462591 -0.000772301 -0.000847581 -0.000966794 -0.000902984 -0.00075936 -0.000463994 -0.000200125 0.000227281 0.000633017 0.00057808 0.00078835 0.000875662 0.00078917 0.000920976 0.000977293 0.000995306 0.000997169 0.00078246 0.000838143 0.000267939 -0.000680596 -0.0024068 -0.00503474 -0.00851429 -0.0120906 -0.0150343 -0.0170334 -0.0176636 -0.0168636 -0.0149103 -0.0118092 -0.00855381 -0.00521155 -0.00257858 -0.000826822 0.000178267 0.000559415 0.000766338 0.000721905 0.000794844 0.000881431 0.000896173 
0.00114811 0.00109978 0.00102243 0.00122761 0.0013146 0.00137598 0.00196534 0.00324138 0.00678836 0.0128632 0.0219724 0.0337695 0.0455591 0.0557806 0.0623728 0.0648454 0.0625031 0.0557434 0.0455523 0.0336625 0.0221924 0.0127116 0.00644636 0.00325725 0.00191983 0.00124576 0.00123585 0.00110431 0.00108175 0.00114473 0.00108563 0.00100064 0.000464611 -0.000622448 -0.00254553 -0.00560728 -0.00920652 -0.0129222 -0.0163281 -0.0185716 -0.0192687 -0.0185173 -0.0164033 -0.0132436 -0.0092891 -0.00545555 -0.00242276 -0.00056869 0.000509261 0.0010016 0.00107757 0.001363 0.00123905 0.000993127 0.00110328 0.00118894 0.000988982 0.000606044 -2.28984e-05 -0.00153252 -0.00354808 -0.00628026 -0.0090032 -0.0112376 -0.0128128 -0.0132129 -0.0128433 -0.0112197 -0.00896851 -0.00627546 -0.00362703 -0.00142121 -0.000187141 0.000657167 0.00117317 0.00104568 0.00124801 0.00131599 0.00117954 0.00108535 0.00120865 0.00111501 0.00100427 0.000200975 -0.000571543 -0.00198363 -0.00366247 -0.00544622 -0.00684259 -0.00807961 -0.0082936 -0.00780954 -0.00708997 -0.00545383 -0.00371536 -0.00201902 -0.000426406 0.000250734 0.00091217 0.00107924 0.00117578 0.00117536 0.0011324 0.00132247 0.00117696 0.0010991 0.0010517 0.00102724 0.000624166 -0.000141839 -0.00120471 -0.00243328 -0.00375253 -0.00482144 -0.00569781 -0.00589322 -0.00560049 -0.00502709 -0.00381537 -0.00235766 -0.00112843 -0.000172241 0.000698965 0.000890619 0.00124634 0.00131653 0.00129149 0.00110649 0.0010325 0.00143408 0.00116764 0.00109571 0.00118973 0.00109346 0.000932381 0.000463971 0.000245309 -0.000223176 -0.000553157 -0.000658099 -0.000774872 -0.000711435 -0.000542242 -0.000224357 7.40167e-05 0.000520379 0.000933427 0.000914812 0.00112231 0.0012086 0.00113372 0.00125437 0.00130351 0.001322 0.00132284 0.001126 0.00117652 0.000650492 -0.0002258 -0.00182537 -0.00425789 -0.00747592 -0.010782 -0.0135046 -0.0153514 -0.0159362 -0.015197 -0.0133903 -0.0105258 -0.00750933 -0.0044165 -0.0019786 -0.000359411 0.000569725 0.000922136 0.00111393 0.00107316 0.0011382 0.00121894 0.00122958 
0.0016556 0.00162247 0.00155263 0.00172725 0.00179594 0.00185165 0.00233913 0.00339433 0.0063358 0.0113697 0.018913 0.0286817 0.038446 0.0469198 0.0523784 0.0544279 0.0524902 0.0468826 0.038445 0.0285972 0.0191035 0.0112408 0.00604811 0.00341126 0.00229745 0.00173593 0.00173432 0.00162519 0.0016022 0.00165662 0.00160958 0.00153185 0.00108819 0.000169615 -0.00145357 -0.00403305 -0.00706134 -0.0101971 -0.0130636 -0.014957 -0.0155432 -0.014907 -0.0131263 -0.0104619 -0.00713247 -0.00390129 -0.00134623 0.000214371 0.00112226 0.00153736 0.00160282 0.00184246 0.00172963 0.00153098 0.00162217 0.00168426 0.00152073 0.00118742 0.000632985 -0.000689123 -0.00245776 -0.00485377 -0.00724866 -0.00920516 -0.010583 -0.0109429 -0.0106102 -0.00918493 -0.00720853 -0.00484889 -0.00252185 -0.000592351 0.000492668 0.00123148 0.00167846 0.00157381 0.00174597 0.00180129 0.00168679 0.00160566 0.00170972 0.00162343 0.00151482 0.000792173 6.95418e-05 -0.00124948 -0.00281246 -0.0044706 -0.00577882 -0.00690589 -0.0071142 -0.00668147 -0.0059858 -0.00447044 -0.00285294 -0.00127335 0.000183395 0.000832655 0.0014345 0.00159532 0.00167706 0.00169093 0.00164444 0.00180815 0.0016737 0.00161533 0.00155978 0.00150683 0.00109096 0.000296885 -0.000815527 -0.00212386 -0.003516 -0.0046513 -0.00554452 -0.00576778 -0.00546681 -0.00482363 -0.00356705 -0.00206065 -0.000745939 0.000279607 0.00115822 0.00138824 0.00172446 0.00179787 0.00177965 0.00162241 0.00156515 0.00190348 0.00168097 0.00162459 0.00172328 0.00168092 0.00162277 0.00134498 0.00131446 0.00106639 0.000921238 0.000910716 0.000844086 0.000855549 0.00092409 0.00106544 0.00116546 0.00139604 0.0016226 0.00153061 0.00166543 0.00171891 0.00165211 0.00175071 0.00178751 0.00180547 0.0018081 0.00163711 0.00167373 0.00120293 0.000404489 -0.00106472 -0.00328823 -0.00622179 -0.00923129 -0.0117135 -0.0133923 -0.0139304 -0.013261 -0.0116131 -0.00901517 -0.00624718 -0.00341767 -0.00118544 0.000286702 0.00113359 0.00145502 0.00163021 0.00159262 0.00164746 0.00172237 0.00172074 
0.00222251 0.00220241 0.00214493 0.00227282 0.0023218 0.00236206 0.00269473 0.00340991 0.00542782 0.00887597 0.0140338 0.0207208 0.0273989 0.0332077 0.0369323 0.0383468 0.0370131 0.0331789 0.027401 0.0206671 0.0141677 0.00878428 0.00522863 0.00343349 0.00266117 0.00227692 0.00228181 0.00220367 0.0021868 0.00223136 0.00218842 0.00212099 0.00177278 0.00104666 -0.00023583 -0.00227587 -0.00467816 -0.00717391 -0.00943458 -0.0109218 -0.0113907 -0.0108885 -0.00947753 -0.00735674 -0.0047325 -0.00218401 -0.000159818 0.00108302 0.00180279 0.00212329 0.00218101 0.00235442 0.00227254 0.00213641 0.00219696 0.0022373 0.00211219 0.00184129 0.00137236 0.000295486 -0.00117986 -0.00314069 -0.00512478 -0.00673908 -0.00786916 -0.00818446 -0.00788892 -0.00672456 -0.0050839 -0.00314173 -0.00122332 0.000366599 0.00127975 0.00187378 0.00222041 0.00216191 0.00228566 0.0023275 0.00224622 0.00218237 0.002263 0.00219164 0.00209 0.00151469 0.000902305 -0.000208489 -0.00151523 -0.00290246 -0.00401591 -0.00493067 -0.00511972 -0.00477146 -0.00415528 -0.0029041 -0.00154486 -0.000221909 0.000973601 0.00154166 0.00202388 0.00217491 0.00223972 0.00225627 0.00221719 0.00234004 0.00223685 0.00219628 0.00215406 0.00211976 0.00181877 0.00124911 0.00045597 -0.000485558 -0.00147429 -0.00229596 -0.00293079 -0.00308944 -0.00287635 -0.00240972 -0.001517 -0.000444089 0.000500957 0.00124287 0.00186675 0.00203179 0.00226821 0.00232132 0.00230693 0.00219932 0.00215985 0.00240361 0.00223764 0.00219263 0.00223982 0.00216589 0.00203743 0.00170303 0.00151759 0.00116915 0.000929533 0.000827482 0.000747719 0.000779375 0.000934076 0.00117501 0.00141251 0.00174326 0.00203593 0.00205831 0.00220102 0.00225844 0.00222597 0.00229189 0.0023179 0.00233333 0.00233357 0.00220749 0.00223938 0.00190329 0.00133848 0.000301238 -0.00127023 -0.0033371 -0.00546812 -0.00722285 -0.00840447 -0.00878734 -0.00831398 -0.00714564 -0.00531749 -0.00335496 -0.00135952 0.000221582 0.00125723 0.00185917 0.00208256 0.00221031 0.00218641 0.00221631 0.00227329 0.00226815 
0.00280523 0.00279644 0.00275062 0.0028314 0.00286803 0.00289449 0.00308924 0.00350504 0.00470786 0.00675051 0.00980181 0.0137527 0.0177029 0.0211498 0.0233441 0.024191 0.0233981 0.0211251 0.017709 0.0137283 0.00988574 0.00669198 0.00458112 0.00353507 0.00306173 0.00283327 0.00285292 0.00279851 0.00278141 0.00281629 0.00277382 0.00271343 0.00244277 0.00184644 0.000790511 -0.000867061 -0.00283777 -0.0048972 -0.00672693 -0.00793312 -0.00832225 -0.00790823 -0.00675028 -0.00500534 -0.00287916 -0.000809136 0.000847547 0.00187037 0.00246141 0.00271717 0.00277296 0.00288509 0.00282801 0.00275521 0.00278943 0.00280684 0.0027231 0.00251917 0.00215104 0.00133565 0.000199069 -0.00128985 -0.00281748 -0.00405237 -0.00490703 -0.00516543 -0.00492441 -0.00403618 -0.00277632 -0.00129304 0.000172708 0.00138431 0.00209286 0.00253759 0.00278515 0.00276515 0.0028482 0.00287095 0.00282282 0.00277519 0.00283728 0.00278553 0.00271269 0.00232088 0.0019118 0.00113108 0.000242118 -0.000713808 -0.00148753 -0.00210445 -0.00223938 -0.00200285 -0.00156679 -0.000709802 0.000228836 0.00113397 0.00194529 0.00234113 0.00266691 0.00277863 0.00282088 0.00284004 0.00280514 0.00288822 0.00281148 0.00278395 0.00273761 0.00267631 0.00237792 0.00182621 0.00104122 8.13169e-05 -0.000903662 -0.00174511 -0.00234638 -0.00252067 -0.0023118 -0.00180941 -0.000935489 0.000108064 0.001074 0.001836 0.00241872 0.00261572 0.00280507 0.00286035 0.00285167 0.00279083 0.00276226 0.00292525 0.0028173 0.00278675 0.00280069 0.00273773 0.00262351 0.00235393 0.00217489 0.00188174 0.00168316 0.00158038 0.00151873 0.00153602 0.00168655 0.00189718 0.00210647 0.00238761 0.00262118 0.00266919 0.00278012 0.0028256 0.00281429 0.00285162 0.00286383 0.00287974 0.00288003 0.00278934 0.00281667 0.00259314 0.00223445 0.00154668 0.000522037 -0.000820214 -0.00221448 -0.00335375 -0.00412015 -0.00437583 -0.00406813 -0.00329981 -0.00211929 -0.000823621 0.000471943 0.00151065 0.00217996 0.00257294 0.00271743 0.00280321 0.00279084 0.00279623 0.00284018 0.00282538 
0.00323608 0.00324182 0.00320734 0.00325683 0.00327418 0.0032973 0.00338207 0.00356247 0.00413134 0.00508097 0.00648144 0.00830736 0.0101247 0.0117356 0.012737 0.0131419 0.0127732 0.0117157 0.0101368 0.00830441 0.00653017 0.0050448 0.00405952 0.00359774 0.00335604 0.0032457 0.00327452 0.00324542 0.00323022 0.00325335 0.00322358 0.00317454 0.00299878 0.00259295 0.00187811 0.000752852 -0.000580459 -0.00198854 -0.00322577 -0.00403702 -0.00430208 -0.00402177 -0.00323664 -0.0020427 -0.000607741 0.000789728 0.00191565 0.00260925 0.00301285 0.00317953 0.00322107 0.00328919 0.00324849 0.00321735 0.00323084 0.00322495 0.0031618 0.00297636 0.00260841 0.00184176 0.00074114 -0.000670799 -0.00214483 -0.00332995 -0.00414403 -0.00440881 -0.00415068 -0.00331559 -0.00209657 -0.000680246 0.0007284 0.00187761 0.00257642 0.00298856 0.00319637 0.00321207 0.00326641 0.00328103 0.00325671 0.0032189 0.00326553 0.00322124 0.00316046 0.00286106 0.00252766 0.00188302 0.00115515 0.000380411 -0.000265045 -0.000743234 -0.000869003 -0.000693838 -0.000303974 0.000386052 0.00115315 0.00188829 0.00252691 0.00287208 0.00311731 0.00322426 0.00324709 0.00327993 0.0032417 0.00330048 0.00323816 0.00323129 0.00318932 0.00313503 0.00290195 0.00247676 0.00187199 0.00112054 0.000357514 -0.000303191 -0.000755137 -0.000895511 -0.000741475 -0.000326296 0.000336051 0.00113195 0.00189815 0.00249838 0.00293549 0.00309222 0.00322627 0.00326866 0.00326409 0.0032323 0.00322333 0.00332456 0.00325536 0.00324104 0.00326267 0.00325477 0.00324354 0.00316901 0.00318381 0.00311329 0.00310683 0.00310447 0.00309214 0.00305998 0.00310369 0.00313158 0.00314029 0.0031956 0.00324043 0.00321662 0.00325057 0.0032601 0.00326091 0.0032727 0.00327678 0.00328638 0.00329033 0.0032249 0.00324139 0.00307661 0.00280122 0.00227075 0.00148113 0.000468576 -0.000596583 -0.00146608 -0.00204296 -0.0022414 -0.00201133 -0.0014214 -0.000547402 0.000464877 0.00146161 0.00226359 0.00276533 0.00307042 0.0031789 0.00324796 0.00323737 0.00323111 0.00326658 0.00324518 
0.00358913 0.00360473 0.00357614 0.0036066 0.00361313 0.00363191 0.00363619 0.00362394 0.0036943 0.00379455 0.00389627 0.00404346 0.00419098 0.00436573 0.00442696 0.00447727 0.00445339 0.00433026 0.00420788 0.00405594 0.00392727 0.00378077 0.00366339 0.00365694 0.00360026 0.0035865 0.00362686 0.00361536 0.00359799 0.00360547 0.00358272 0.003534 0.00340022 0.00306962 0.0024621 0.00151548 0.00040455 -0.000794016 -0.00181879 -0.00249293 -0.00271485 -0.00247476 -0.00181347 -0.000797285 0.000389643 0.00154692 0.00247676 0.00306847 0.00340289 0.00354045 0.00358979 0.00362787 0.00358221 0.0035987 0.00359951 0.00356259 0.0035485 0.00342618 0.00318632 0.0026664 0.00193548 0.000994432 -1.10766e-05 -0.000801643 -0.00132605 -0.00151191 -0.00132949 -0.000772648 4.48265e-05 0.000982706 0.00193459 0.00269997 0.00315874 0.00344015 0.00357394 0.0035887 0.0036095 0.00362551 0.00360558 0.00358021 0.00361458 0.00357087 0.00350482 0.00323214 0.00288037 0.00222294 0.00147687 0.000684822 1.36946e-05 -0.000437938 -0.000589267 -0.000429531 8.01633e-06 0.000698323 0.0014791 0.00223532 0.0028529 0.00323538 0.00346824 0.00358248 0.00359681 0.00364842 0.00359729 0.0036374 0.00357339 0.00359511 0.00354979 0.00350105 0.00330331 0.00293548 0.00240726 0.00176578 0.00110376 0.000532426 0.000158315 1.86389e-05 0.000148922 0.000532665 0.00109647 0.00176216 0.0024448 0.00296746 0.00332735 0.00346676 0.00356925 0.0036089 0.00360705 0.00359531 0.00360244 0.00364662 0.00362716 0.00364073 0.00372885 0.0039011 0.00424321 0.00472077 0.00538314 0.00599073 0.00656621 0.00693126 0.00703913 0.00686745 0.0065457 0.00600769 0.00535108 0.00474333 0.00423919 0.00388805 0.00372671 0.00364772 0.00363685 0.00361883 0.00360939 0.00362006 0.00362677 0.0035838 0.00356513 0.0034037 0.00306961 0.00243259 0.00149522 0.000311093 -0.000921751 -0.00194874 -0.00261578 -0.00285881 -0.00260602 -0.0019111 -0.000910982 0.00030808 0.0014982 0.00245774 0.00303941 0.00339732 0.00352136 0.00360334 0.00359458 0.00358554 0.00362697 0.00357958 
0.00372946 0.00374379 0.00371656 0.00373271 0.00373914 0.00374782 0.0037119 0.00360852 0.00342873 0.00309972 0.00256371 0.00187972 0.00119778 0.000652572 0.000243761 0.000126958 0.000258923 0.000621263 0.00121295 0.00190081 0.00257489 0.0030986 0.00342602 0.00364577 0.00368202 0.00371904 0.0037589 0.00375185 0.00373794 0.00374689 0.003717 0.00366662 0.00353432 0.00320442 0.00259879 0.00166053 0.00054081 -0.000664281 -0.00167639 -0.00233988 -0.00256754 -0.00232877 -0.00166533 -0.00064512 0.000528288 0.00167428 0.0026046 0.00320364 0.00353705 0.00367006 0.00372366 0.00374302 0.00371159 0.00374492 0.00373604 0.00370096 0.00369732 0.00360332 0.00341216 0.00301769 0.00244058 0.00172374 0.000937981 0.000327208 -6.99251e-05 -0.000227763 -7.49518e-05 0.000352231 0.000989122 0.00171171 0.00244536 0.00303989 0.00340408 0.00361081 0.00370229 0.00373157 0.00373694 0.00374768 0.00373778 0.00371767 0.00374645 0.00370784 0.00364058 0.00341737 0.00310357 0.00251735 0.00186559 0.00116488 0.000561353 0.0001801 3.93407e-05 0.000176297 0.00057794 0.00117522 0.00186839 0.00253584 0.00306801 0.00341761 0.00361233 0.00372187 0.00373708 0.00377991 0.00373777 0.00376386 0.00371488 0.00373301 0.00369425 0.00365167 0.00348921 0.00319398 0.00276863 0.00223838 0.00170896 0.00123073 0.000937839 0.000821468 0.000926983 0.00124856 0.00169946 0.00222947 0.00279054 0.00322731 0.00350462 0.00362911 0.00369645 0.0037302 0.00372739 0.00373477 0.00373969 0.00375761 0.00375256 0.00376393 0.00380186 0.00390399 0.00410383 0.00437652 0.00475502 0.00509897 0.00544264 0.00565074 0.00570973 0.00559409 0.00542997 0.00512103 0.00473878 0.00439575 0.00409966 0.00390189 0.00380932 0.00376252 0.00377063 0.00374537 0.00373482 0.00374727 0.00375065 0.0037226 0.00371326 0.00362337 0.0034371 0.00306783 0.00253831 0.00187793 0.00117864 0.000599475 0.00023137 8.54852e-05 0.000225028 0.000625535 0.00117278 0.00188108 0.00254962 0.003104 0.00342262 0.00362819 0.00369251 0.00374416 0.0037452 0.00372321 0.00375566 0.00371189 
0.00378216 0.00380247 0.00377594 0.0037883 0.00378533 0.00379316 0.00373515 0.00358037 0.00325386 0.00267944 0.00176987 0.000606042 -0.0005562 -0.001515 -0.00219291 -0.00241062 -0.00218281 -0.00154781 -0.000539971 0.000631662 0.00177771 0.00268365 0.00326768 0.00361259 0.00370699 0.00377062 0.00380654 0.0038079 0.00379559 0.00380255 0.00378098 0.00373441 0.00364038 0.00339261 0.00293167 0.00221697 0.00137057 0.000443829 -0.000318044 -0.000818577 -0.000992 -0.000808275 -0.000304862 0.000478893 0.00136197 0.00222811 0.00292967 0.00339001 0.00364112 0.00373866 0.003786 0.00379345 0.00376125 0.00380577 0.00379338 0.00375133 0.00376405 0.00369501 0.00355407 0.00326294 0.00283213 0.00230487 0.00171296 0.00126521 0.000979868 0.000851962 0.000975342 0.00129007 0.00176562 0.00229438 0.00284231 0.00328168 0.00355286 0.00370424 0.00376707 0.0037933 0.00378832 0.00379831 0.00379003 0.00377524 0.00379434 0.00375459 0.00367054 0.00343108 0.00305417 0.00238585 0.00162627 0.000817304 0.000119033 -0.000313224 -0.000476516 -0.000327697 0.000145085 0.00082983 0.00162954 0.00240684 0.00301151 0.00342527 0.00364526 0.00376926 0.00378558 0.00383503 0.00379136 0.00381181 0.00376282 0.0037907 0.00375241 0.0037109 0.00356611 0.00329295 0.00290172 0.00241398 0.00192616 0.0014878 0.00122307 0.00111022 0.00120516 0.00150984 0.00192073 0.00240039 0.00291953 0.00332613 0.00357379 0.00369196 0.00374936 0.00378012 0.00378021 0.00379 0.00380356 0.00380087 0.00380698 0.00382098 0.00386532 0.00398121 0.00420998 0.00453515 0.00496608 0.00537219 0.00576406 0.00599658 0.00606808 0.00593837 0.00574686 0.00538859 0.00495473 0.00455191 0.00420498 0.00398516 0.00387317 0.00381687 0.00382627 0.00379667 0.00378198 0.00379522 0.00379717 0.00377924 0.00375897 0.00367176 0.00346709 0.00307326 0.0025043 0.00179648 0.00105737 0.000435429 4.49261e-05 -0.000112053 3.3656e-05 0.000458299 0.0010418 0.00180014 0.00252131 0.00311523 0.00345653 0.00367482 0.00374305 0.00379767 0.00379854 0.00377938 0.00381144 0.00376358 
0.00385793 0.00387778 0.00385599 0.00385858 0.00385692 0.00386546 0.00379158 0.00361848 0.00323246 0.00254617 0.00147871 0.00011498 -0.0012546 -0.00239868 -0.0031886 -0.00344497 -0.00318271 -0.00241667 -0.00124005 0.000143516 0.00147261 0.00254885 0.0032489 0.00365581 0.0037688 0.00384211 0.00388033 0.00388345 0.00387212 0.00388211 0.00385562 0.00381767 0.00373262 0.0035079 0.00310041 0.00247072 0.00171631 0.000890435 0.000214672 -0.00022164 -0.000378165 -0.000218804 0.000227102 0.000924753 0.00170653 0.0024733 0.00310463 0.00350958 0.00374059 0.00381883 0.00385862 0.00385912 0.00384293 0.00388229 0.00386707 0.00383215 0.00382059 0.00371486 0.00347787 0.00302929 0.00234607 0.00151627 0.000604182 -0.000113502 -0.000586896 -0.000776567 -0.000586678 -9.87277e-05 0.000654686 0.00150093 0.00235451 0.00304294 0.00348614 0.00371924 0.00380956 0.00386101 0.00386294 0.00386555 0.00387088 0.00385245 0.00387553 0.0038498 0.00379993 0.00365934 0.00345576 0.00304856 0.00261287 0.00214423 0.00172664 0.00148446 0.00138238 0.00146567 0.00175899 0.00215125 0.00262273 0.00306632 0.00341081 0.00365747 0.00377373 0.00386361 0.00386692 0.00390512 0.00387009 0.00388698 0.00385185 0.00386874 0.00383774 0.00380272 0.00367959 0.00346815 0.00316305 0.0027676 0.00238755 0.00202821 0.00182524 0.00173962 0.0018115 0.0020602 0.00237832 0.0027566 0.00317352 0.00350058 0.00369484 0.00378788 0.00382393 0.00384942 0.00385053 0.00386691 0.0038781 0.00387967 0.0038748 0.00387423 0.00386619 0.00387169 0.00388198 0.00388742 0.00391447 0.00391394 0.00395821 0.00396143 0.00396257 0.00391638 0.00395096 0.00393763 0.00391431 0.00390473 0.00387699 0.0038781 0.00387257 0.00386537 0.00389379 0.0038707 0.00385937 0.00386911 0.00386922 0.00385065 0.00384886 0.0037926 0.00368117 0.00345231 0.00312023 0.00273162 0.00229884 0.00194512 0.0017288 0.00163515 0.00171621 0.00196786 0.00227919 0.00273638 0.00314405 0.00349018 0.00367776 0.003808 0.00384517 0.00388195 0.00388428 0.00385574 0.00387838 0.00384553 
0.00392526 0.00394288 0.00391867 0.00392211 0.00392626 0.00393267 0.00386515 0.00369767 0.00333582 0.00269181 0.00168721 0.000392556 -0.000895937 -0.00197107 -0.00271828 -0.00296268 -0.00270969 -0.00199884 -0.00088071 0.000421141 0.00168612 0.00269657 0.00334787 0.00373467 0.00383799 0.00390875 0.00395271 0.0039509 0.00393573 0.00394416 0.00391299 0.00386712 0.00375556 0.00345838 0.00291082 0.00207672 0.0010734 -1.52458e-05 -0.000911971 -0.00150127 -0.00170709 -0.00149131 -0.000896519 2.12233e-05 0.00106235 0.00208316 0.00291658 0.00345456 0.00375632 0.00387085 0.00392286 0.00392617 0.00390171 0.00394954 0.0039358 0.00389637 0.00390051 0.00382018 0.00364789 0.00330782 0.00280154 0.00218286 0.00149184 0.000958538 0.000618131 0.000470572 0.000612714 0.00098291 0.00154256 0.00217079 0.00280969 0.00332415 0.00364706 0.00382421 0.00389299 0.00393195 0.00393088 0.00393352 0.00393397 0.00391735 0.00394225 0.00391442 0.003864 0.00371501 0.00350617 0.00308129 0.00263325 0.00214233 0.00171207 0.00146077 0.00135521 0.00144518 0.00174378 0.002155 0.00264294 0.00310536 0.00346261 0.00371548 0.00384322 0.00392881 0.00393476 0.00397542 0.00393582 0.00395193 0.0039107 0.00392907 0.00388687 0.00382842 0.00364441 0.00331589 0.00283432 0.00222615 0.00162312 0.00107686 0.000749747 0.000614992 0.000735513 0.00110401 0.00161627 0.00221634 0.00285385 0.00335234 0.00366193 0.00381182 0.00387589 0.00391498 0.00391569 0.00393313 0.00393983 0.0039417 0.00394725 0.00395555 0.00397273 0.00404575 0.00418873 0.00438661 0.00465459 0.00489817 0.00515259 0.00529582 0.00533912 0.00524226 0.00514081 0.00492304 0.00464887 0.00440592 0.00418397 0.00405189 0.00398254 0.00394769 0.00396388 0.00393681 0.00392174 0.00393562 0.00393715 0.00391643 0.00390755 0.00383926 0.00369936 0.00340091 0.00298208 0.00247316 0.00192567 0.00147509 0.0011927 0.00107272 0.00117683 0.00149572 0.00190852 0.00248266 0.0030046 0.00344606 0.00369037 0.00385132 0.00390102 0.0039436 0.00394715 0.00391868 0.0039475 0.00390343 
0.00384621 0.00386854 0.00384784 0.00385026 0.0038475 0.00385855 0.00378197 0.00359929 0.00319984 0.00248818 0.00137674 -4.79445e-05 -0.00147385 -0.00266065 -0.00348039 -0.00375426 -0.00347077 -0.00268764 -0.00145476 -1.86309e-05 0.00137597 0.00249248 0.0032126 0.00363763 0.00375307 0.0038282 0.00387407 0.0038776 0.00386225 0.00386564 0.00384525 0.00380356 0.00372682 0.00350298 0.0030917 0.00246064 0.0017114 0.000886698 0.00021197 -0.000230102 -0.000383794 -0.000220947 0.000226358 0.000923525 0.00170434 0.00246879 0.00309568 0.00349862 0.00372591 0.00381024 0.00385157 0.00385333 0.00382773 0.00387501 0.00385934 0.00381358 0.00381321 0.00371544 0.00349641 0.00306699 0.00243053 0.00164199 0.000775539 0.000100055 -0.000341628 -0.000518754 -0.000341306 0.000124338 0.000830503 0.00162799 0.00243941 0.00308511 0.00349465 0.00371972 0.00380897 0.00385423 0.00385384 0.00385798 0.00386056 0.00384336 0.00386631 0.00383399 0.00378521 0.00362236 0.00339106 0.00293322 0.00243572 0.00190463 0.0014364 0.00116098 0.00104352 0.00113577 0.00146441 0.00191829 0.00244736 0.00295196 0.00334202 0.00362088 0.0037579 0.00385127 0.00385206 0.00390281 0.00385762 0.00387489 0.00383042 0.00385673 0.00381393 0.00375709 0.00358375 0.00327118 0.00281616 0.00224179 0.00166666 0.0011533 0.000845262 0.000717192 0.000826109 0.00118522 0.00166365 0.00222963 0.0028403 0.00331103 0.00360266 0.00374055 0.00380518 0.00384013 0.00384106 0.00385684 0.00387077 0.00386969 0.00387775 0.0038959 0.00394803 0.00408731 0.00435901 0.0047592 0.00528231 0.00577708 0.00625188 0.0065335 0.00662807 0.00647816 0.00623449 0.00579973 0.00527383 0.0047766 0.00435464 0.00409649 0.0039555 0.00388658 0.00389439 0.00386208 0.00384766 0.00385601 0.0038629 0.00384066 0.00382698 0.00374588 0.00356966 0.00321214 0.00270079 0.00207715 0.0014114 0.000860932 0.000512957 0.00037331 0.000502838 0.000885104 0.0013903 0.00208064 0.00272588 0.00325847 0.00355847 0.00375595 0.00381922 0.00386855 0.0038663 0.0038421 0.00387163 0.00382573 
0.00382707 0.00384656 0.00382431 0.00382806 0.0038282 0.00383596 0.00376092 0.00357453 0.00316889 0.00245087 0.00132779 -0.000113495 -0.00155315 -0.00275326 -0.00358481 -0.00386092 -0.00357603 -0.0027831 -0.0015362 -8.48999e-05 0.00132642 0.00245761 0.00318464 0.00361175 0.00373125 0.00381013 0.00385396 0.003856 0.00384189 0.00384596 0.00382056 0.00377596 0.00367941 0.00341978 0.00293765 0.00219644 0.00131284 0.000347832 -0.00044514 -0.000963879 -0.00114521 -0.000954892 -0.000429037 0.000387063 0.00130541 0.00220384 0.00293759 0.00341457 0.00367964 0.00378001 0.00382863 0.00383122 0.00380506 0.00385453 0.00383915 0.00379491 0.00380103 0.00371868 0.00353962 0.00318332 0.00265444 0.00200609 0.00128299 0.000724844 0.000367408 0.000216133 0.000365781 0.000750227 0.00133579 0.00199231 0.00266383 0.00320117 0.00353862 0.00372423 0.00379648 0.00383594 0.00383118 0.00383787 0.00383683 0.00382094 0.00384401 0.00381139 0.00375516 0.00358319 0.00332878 0.0028407 0.00230721 0.00173377 0.00123061 0.000934398 0.000808736 0.000911639 0.00126202 0.0017458 0.0023153 0.00286073 0.00328157 0.00358108 0.00372988 0.00382818 0.00383399 0.00388085 0.00383762 0.00385398 0.00381055 0.00383614 0.00379768 0.0037538 0.00360589 0.00334033 0.0029543 0.00246982 0.00198799 0.00154933 0.0012925 0.00118096 0.00127388 0.00158026 0.0019835 0.00245634 0.00297622 0.00337755 0.00362032 0.00373739 0.00378837 0.00381984 0.00381945 0.00383678 0.00384852 0.00384408 0.00385445 0.00387108 0.00391452 0.00404135 0.00428898 0.00464828 0.00511604 0.00556047 0.00598945 0.00624508 0.00632517 0.00618834 0.00597352 0.00558326 0.00510908 0.00466543 0.00428447 0.00405045 0.00392436 0.0038626 0.00387323 0.00383986 0.00382518 0.00383593 0.00384021 0.00382149 0.00380605 0.00373199 0.0035644 0.00322733 0.00274654 0.00216047 0.00153469 0.00101473 0.000689258 0.000554966 0.000674947 0.00103708 0.00151235 0.00216463 0.00276987 0.00327409 0.00355542 0.00374146 0.00379855 0.00384646 0.00384774 0.00382231 0.00385214 0.00380529 
0.00391612 0.00393455 0.00390944 0.00391704 0.00391638 0.00392222 0.00385082 0.00366983 0.00327209 0.00257408 0.00147982 8.21416e-05 -0.00131771 -0.00248586 -0.00329889 -0.00356151 -0.00329257 -0.00251197 -0.00130462 0.000109769 0.00147724 0.00258 0.00329264 0.00370422 0.00382438 0.00390284 0.00393827 0.00394095 0.00393088 0.00394016 0.0039107 0.00386747 0.00376148 0.0035008 0.00301649 0.00226448 0.00136729 0.000388196 -0.000415804 -0.000936074 -0.00112147 -0.000931497 -0.000400819 0.000427447 0.00135794 0.00226977 0.00301289 0.00350004 0.00376965 0.00386614 0.00391588 0.00391885 0.00389621 0.00394063 0.00392631 0.0038886 0.00389169 0.00381011 0.0036377 0.00329993 0.00278615 0.00217089 0.00147907 0.000945028 0.000603216 0.000454215 0.000601064 0.000964102 0.00153002 0.00215616 0.00279629 0.00331575 0.00364423 0.00381884 0.00388543 0.00392371 0.00391803 0.00392686 0.00392364 0.00390747 0.00392928 0.00389821 0.00382647 0.00363742 0.00333986 0.00279559 0.00219071 0.00154136 0.000972845 0.00063354 0.000496881 0.000616582 0.00100844 0.00154807 0.00219466 0.00281505 0.0032954 0.0036327 0.00380084 0.00391213 0.00392468 0.00396434 0.00392718 0.00394494 0.00390528 0.00392734 0.00390012 0.00388315 0.00379338 0.00363663 0.00341424 0.00313265 0.00286536 0.00260116 0.00246036 0.00239239 0.00244414 0.00263007 0.00285599 0.00311823 0.00342504 0.00366635 0.00380073 0.00386629 0.0038886 0.0039097 0.00390948 0.00392498 0.00393696 0.00393182 0.00393264 0.00393454 0.00393614 0.00396497 0.0040228 0.00409272 0.00419692 0.00427915 0.00439216 0.00444436 0.00445307 0.00439185 0.00438229 0.00430027 0.00419547 0.00410974 0.00401731 0.00397119 0.00394485 0.00392794 0.00395456 0.00392736 0.00391423 0.00392742 0.00392487 0.00391088 0.00389871 0.00383374 0.00368378 0.00339541 0.00297357 0.00246739 0.00192089 0.00146343 0.0011841 0.0010646 0.00116729 0.00148584 0.00189917 0.00247128 0.00299468 0.00343539 0.00368047 0.00384427 0.00389056 0.00393576 0.00394082 0.00391433 0.00394116 0.00390162 
0.00382888 0.00384525 0.00382125 0.00382059 0.00382181 0.00382302 0.00374433 0.00355465 0.00312509 0.00236324 0.00119073 -0.000320241 -0.0018335 -0.00309991 -0.00397458 -0.00425748 -0.00397206 -0.00311961 -0.00181839 -0.00028964 0.00118059 0.00237194 0.00315074 0.00359702 0.00372534 0.0038098 0.00384755 0.00384758 0.00383754 0.00384954 0.00381927 0.00377256 0.00367399 0.00340967 0.00293546 0.00220401 0.00131325 0.000352892 -0.000432974 -0.000945711 -0.00113133 -0.000944271 -0.000419611 0.000391543 0.00130348 0.00219729 0.00293688 0.00341324 0.00367724 0.00377543 0.00382052 0.00381774 0.00380539 0.00385044 0.00383062 0.00379976 0.00379595 0.00371261 0.00352071 0.00317074 0.00261789 0.00196381 0.00123332 0.00066659 0.000295698 0.000133434 0.000291302 0.00068201 0.00128008 0.00195187 0.00262847 0.00317854 0.003537 0.00371095 0.00377773 0.00383125 0.00382638 0.00382721 0.00383391 0.00381804 0.00383869 0.00380627 0.00374286 0.00358187 0.0033267 0.00284335 0.00232171 0.00175593 0.00125455 0.00096456 0.000844734 0.000946702 0.00129045 0.00176326 0.00232863 0.00286646 0.00328193 0.00357846 0.00372157 0.00382238 0.00383409 0.00386964 0.00383826 0.0038501 0.00381881 0.00383151 0.00379721 0.00374793 0.0036027 0.00334618 0.00297562 0.00248551 0.00201962 0.00157855 0.00132851 0.00122599 0.0013172 0.00161616 0.00200797 0.00247294 0.00297747 0.00338201 0.00361213 0.00373928 0.00378087 0.00380988 0.00380781 0.00383333 0.00383843 0.00383249 0.00383598 0.00384221 0.00381996 0.00382261 0.00382177 0.00380926 0.00380629 0.00378463 0.00380903 0.00379714 0.00379622 0.0037548 0.00380585 0.00381073 0.00380708 0.0038243 0.00381756 0.00383127 0.00383406 0.00383091 0.00386121 0.00383279 0.00382269 0.00383385 0.00383561 0.00382068 0.00382794 0.00381705 0.00380531 0.00375106 0.00369716 0.00364776 0.00356992 0.00351606 0.00349523 0.00346671 0.00347742 0.00353069 0.00354923 0.00365693 0.00371835 0.00379525 0.00380776 0.00383566 0.00383296 0.00384783 0.00385577 0.00382142 0.00384083 0.00380703 
0.00387382 0.00389072 0.00386738 0.00387038 0.00387162 0.00387652 0.00380193 0.00362133 0.00321974 0.00250903 0.00140451 -9.05617e-06 -0.00142708 -0.00261295 -0.00343416 -0.00369844 -0.00342947 -0.00263269 -0.00141401 1.9442e-05 0.00139642 0.00251454 0.00324023 0.00365984 0.00377911 0.0038579 0.00389483 0.00389627 0.00388635 0.00389739 0.00386584 0.00382394 0.00371961 0.00345814 0.00298124 0.00224255 0.00135295 0.000387809 -0.000405653 -0.000918002 -0.00110262 -0.000916369 -0.000391825 0.000424269 0.00134284 0.00224239 0.00298185 0.00346011 0.00372853 0.00382301 0.00386933 0.0038702 0.00385521 0.00389649 0.00388031 0.00384764 0.00383972 0.0037444 0.00353326 0.00313524 0.00252168 0.00178698 0.000970807 0.00033177 -8.51752e-05 -0.000258687 -8.65805e-05 0.000346809 0.00101949 0.00177165 0.00253071 0.0031477 0.00354436 0.00374851 0.00382654 0.00387646 0.00387433 0.00387889 0.00388215 0.00386449 0.00388803 0.00386064 0.00380318 0.00365202 0.00342306 0.00298046 0.00250384 0.00198801 0.00152985 0.00126434 0.00115273 0.0012473 0.00156562 0.00199304 0.00251042 0.00299946 0.00337905 0.00364946 0.00377819 0.00387477 0.00388324 0.00391774 0.003885 0.00390077 0.00386749 0.00388259 0.00385545 0.00383089 0.00372959 0.00355941 0.00331545 0.00299588 0.00269763 0.00240127 0.00224343 0.00217322 0.00223078 0.00243479 0.00268619 0.00298339 0.00332209 0.00359053 0.00374055 0.00381719 0.00384042 0.00386248 0.00386166 0.00388132 0.00388968 0.00388816 0.00388526 0.00388416 0.00386428 0.00385415 0.00383264 0.00378653 0.00374511 0.00368059 0.00366867 0.00363776 0.00362353 0.00359242 0.00366403 0.00370562 0.00374667 0.00380326 0.00382768 0.00386091 0.0038739 0.00387529 0.0039077 0.00388265 0.003872 0.0038833 0.00388177 0.00386611 0.0038661 0.00382514 0.00374346 0.00357227 0.00332829 0.00304943 0.00272941 0.00246921 0.00231615 0.00224231 0.00229964 0.00248967 0.00270823 0.00305483 0.0033504 0.00361128 0.00374326 0.00384149 0.00386448 0.00389542 0.00390155 0.00387021 0.00389211 0.00385924 
0.0038124 0.00382887 0.00380571 0.00381446 0.00381827 0.00382769 0.00376902 0.00362161 0.00332006 0.00278053 0.0019262 0.000837934 -0.000252541 -0.00115384 -0.00178998 -0.00199083 -0.00177891 -0.00117913 -0.000238545 0.000862547 0.00192692 0.00278177 0.00332632 0.00365856 0.00373975 0.0037991 0.00384001 0.00383876 0.00382589 0.00383351 0.00380293 0.00376044 0.00364429 0.00335701 0.0028268 0.00200618 0.00102812 -3.29291e-05 -0.000916507 -0.00148926 -0.00168948 -0.00148244 -0.00090297 -4.76544e-06 0.00101753 0.00201615 0.00283028 0.00335529 0.00365167 0.0037606 0.00381021 0.00382049 0.00379653 0.00383406 0.00382253 0.00378549 0.00377682 0.00367254 0.00345074 0.00300976 0.00235581 0.00155173 0.000667737 -2.66343e-05 -0.000478661 -0.00065639 -0.000479113 -5.78765e-06 0.000719248 0.00153553 0.00236181 0.00302974 0.00344831 0.00368034 0.00377423 0.00381511 0.0038182 0.0038267 0.00382378 0.00380388 0.00383217 0.00380338 0.00375307 0.00358961 0.00336654 0.00292389 0.00244563 0.00192963 0.00147648 0.00120409 0.00109236 0.00119033 0.00150324 0.00193704 0.00245213 0.00294005 0.00332518 0.00358988 0.00372436 0.0038174 0.00382344 0.00386283 0.00382349 0.00384518 0.00380353 0.00382236 0.0037915 0.00376665 0.00365 0.00345049 0.00316258 0.00280267 0.00245033 0.00211761 0.00192783 0.00184591 0.00191417 0.00214358 0.00244144 0.00279195 0.00318242 0.00348228 0.00366661 0.00374651 0.00378459 0.00381024 0.00380921 0.00382136 0.00383018 0.00383959 0.00383505 0.00383954 0.0038584 0.00391898 0.00403831 0.00419857 0.0044262 0.00462294 0.00483965 0.00496272 0.00499404 0.0049097 0.00482891 0.00464713 0.00441957 0.00421737 0.00403356 0.00392225 0.00386482 0.00383425 0.00385294 0.00382761 0.00381629 0.00382699 0.00382792 0.00380504 0.00379611 0.00371432 0.00354327 0.00320683 0.00271499 0.00212041 0.00147702 0.000945121 0.000611579 0.000477055 0.00060079 0.000971604 0.0014611 0.00212256 0.0027345 0.00324382 0.00353388 0.0037247 0.00378332 0.00383313 0.00383477 0.00380903 0.00383754 0.00379865 
0.00393361 0.00394886 0.00392482 0.00393291 0.00393851 0.00394571 0.00387909 0.00370776 0.00335709 0.00273144 0.0017439 0.000481659 -0.000782503 -0.00182738 -0.00256461 -0.00279949 -0.00255314 -0.00185773 -0.000766549 0.000507884 0.0017428 0.00273686 0.0033675 0.00375028 0.0038466 0.0039174 0.00396255 0.00396044 0.00394732 0.00395269 0.00391976 0.00387008 0.00373871 0.00341429 0.00281488 0.00188395 0.000771772 -0.000428318 -0.00143013 -0.00208049 -0.00230816 -0.0020736 -0.00141422 -0.000396306 0.000762536 0.0018918 0.00281409 0.00341122 0.00374349 0.003871 0.00392735 0.00393835 0.00391294 0.00395644 0.00394159 0.00390116 0.00389647 0.00379467 0.00357722 0.00314315 0.00249739 0.00170687 0.000832607 0.000149225 -0.000292237 -0.000468509 -0.000292638 0.000174036 0.000886347 0.00168966 0.00250444 0.00316384 0.00357543 0.00380089 0.0038929 0.00393663 0.00393479 0.00394634 0.00394191 0.00392202 0.003952 0.00391585 0.0038579 0.00366806 0.00339846 0.00288123 0.00231553 0.00170631 0.00117142 0.00085129 0.000717504 0.000833469 0.00120031 0.00171388 0.0023198 0.00289793 0.00335332 0.00366751 0.00382686 0.00393361 0.00394314 0.00398647 0.00394371 0.00396489 0.00392084 0.00394251 0.00391041 0.00388763 0.00377465 0.00358112 0.00330316 0.00295499 0.00261618 0.00229105 0.00211114 0.00203045 0.00209561 0.00232318 0.00260707 0.00294104 0.00332461 0.00361736 0.00378918 0.00386858 0.00390391 0.00392865 0.00392444 0.00394198 0.00394976 0.00395469 0.00395757 0.00397264 0.00400803 0.00411952 0.00433519 0.00463908 0.00504399 0.00542069 0.00579657 0.00602266 0.00608614 0.00596439 0.00578428 0.00544769 0.00503549 0.00465701 0.00433094 0.00412573 0.00401915 0.00396577 0.00398046 0.00394616 0.00393517 0.00394523 0.00394939 0.00392666 0.00391716 0.00384614 0.00369163 0.00338507 0.00294611 0.0024146 0.00183611 0.00135915 0.00106257 0.000938895 0.00104952 0.00138488 0.00181596 0.00241534 0.00296552 0.00342871 0.00368314 0.00385696 0.00390643 0.00395307 0.00395626 0.00392751 0.00395779 0.00391324 
0.00381699 0.0038354 0.00381254 0.00381669 0.00381617 0.00382244 0.00374763 0.00356365 0.00315918 0.00244374 0.00132774 -0.000100851 -0.00153293 -0.00272693 -0.00355526 -0.00382512 -0.00354871 -0.00275145 -0.0015176 -7.26016e-05 0.0013232 0.00245011 0.00317848 0.00360192 0.00372182 0.00380081 0.00383989 0.00384225 0.0038311 0.0038385 0.00381153 0.00376814 0.00367135 0.00342082 0.0029608 0.00224732 0.00139355 0.000463872 -0.000300217 -0.000795849 -0.000972305 -0.000791511 -0.000285821 0.000501238 0.00138535 0.00225031 0.00295964 0.00342013 0.00367623 0.00376971 0.00381566 0.00381767 0.00379743 0.00384169 0.00382538 0.00378734 0.00378562 0.00369547 0.00349661 0.00311338 0.00253057 0.00182604 0.00104307 0.000433919 3.8137e-05 -0.000126824 3.73006e-05 0.000453272 0.00109391 0.00181132 0.00254008 0.00312825 0.00350307 0.00370033 0.00377721 0.00382254 0.00381852 0.00382516 0.00382589 0.00380909 0.0038316 0.00379931 0.00373766 0.00356307 0.00329622 0.00279493 0.00224372 0.0016525 0.0011315 0.000824158 0.000696611 0.000803823 0.00116429 0.0016603 0.00224993 0.00281338 0.0032504 0.00355965 0.0037112 0.00381527 0.00382394 0.00386555 0.00382757 0.00384405 0.00380564 0.00382674 0.00379547 0.00376535 0.00365165 0.00345229 0.00316632 0.0027995 0.00244583 0.00210952 0.0019224 0.0018394 0.00190654 0.00214258 0.00243757 0.00278561 0.00317901 0.0034862 0.0036626 0.0037507 0.00378408 0.00380824 0.00380702 0.00382535 0.00383621 0.00383235 0.00383573 0.00384469 0.00385784 0.00391849 0.00403541 0.00419839 0.00441971 0.00461783 0.0048335 0.00494995 0.00498478 0.00489937 0.00482328 0.004641 0.00441667 0.0042145 0.00403079 0.00392644 0.00386773 0.00383606 0.00385771 0.00382763 0.00381582 0.00382602 0.00382792 0.00381122 0.0038039 0.00374936 0.0036288 0.00338651 0.00304056 0.00262776 0.00217577 0.00180248 0.00157483 0.00147522 0.00156029 0.001824 0.00215376 0.00263123 0.0030624 0.00342879 0.00362503 0.00376184 0.00379915 0.00383748 0.003841 0.0038132 0.00383855 0.00379932 
0.00385165 0.00387464 0.00385267 0.00385941 0.00385421 0.00386624 0.00379457 0.00362123 0.00324853 0.00258468 0.00154173 0.000211435 -0.00112502 -0.0022306 -0.0030011 -0.00325369 -0.00299067 -0.00225735 -0.0011057 0.000239336 0.00154367 0.00258749 0.00326096 0.00365974 0.00376585 0.00383571 0.00387808 0.0038824 0.00386886 0.00387303 0.00385506 0.00381297 0.00373926 0.00352995 0.00314714 0.00255074 0.0018479 0.0010725 0.000436098 2.17232e-05 -0.00012261 2.91955e-05 0.000448676 0.00110609 0.0018411 0.0025599 0.00314886 0.00352821 0.00374084 0.00381892 0.00385785 0.00386288 0.00383623 0.00387883 0.00386349 0.00381888 0.00381486 0.00370931 0.0034745 0.00301368 0.00232728 0.00147836 0.000549626 -0.00017597 -0.000654797 -0.000843008 -0.000653062 -0.000153749 0.000605931 0.00146363 0.0023364 0.00303267 0.00347446 0.00371541 0.00381379 0.00385874 0.00385921 0.00386657 0.00386654 0.00384828 0.00387067 0.00383326 0.00377137 0.0035712 0.00327452 0.00272036 0.00210022 0.00144469 0.000870068 0.000521841 0.000381968 0.000498323 0.000895153 0.00145637 0.00210896 0.00273642 0.00322605 0.00356752 0.00373994 0.00385069 0.00385574 0.00390864 0.00386288 0.0038834 0.00383682 0.00386476 0.00382584 0.00378139 0.00363454 0.00336748 0.0029841 0.00249939 0.00201583 0.00158118 0.00132251 0.00121418 0.0013033 0.00161234 0.00201143 0.00248591 0.00300538 0.00340561 0.00365011 0.00376355 0.00382024 0.0038492 0.00384924 0.00386192 0.00387803 0.00387869 0.00388211 0.00389956 0.00395247 0.00408546 0.00434483 0.00472532 0.00522777 0.00569899 0.0061543 0.00642313 0.00651301 0.00636757 0.00613699 0.00571956 0.00521769 0.00474188 0.00434037 0.00409269 0.00395873 0.00389182 0.00390108 0.00386905 0.00385642 0.0038637 0.00387053 0.00384796 0.00383414 0.00374931 0.00356089 0.00319302 0.00265979 0.00200718 0.00131239 0.000735309 0.000371699 0.000227727 0.000364592 0.000761668 0.00129271 0.00200729 0.00268208 0.00323599 0.00355021 0.00375745 0.00382256 0.00387436 0.0038713 0.00384929 0.00387889 0.00383457 
0.003887 0.00390596 0.0038817 0.00388353 0.00388369 0.00388829 0.00381408 0.00363332 0.00322483 0.00250381 0.00138627 -5.20097e-05 -0.00148754 -0.00269089 -0.00352061 -0.00379291 -0.00351607 -0.00271431 -0.00147339 -2.2146e-05 0.00138145 0.00250999 0.00324554 0.00366852 0.00379167 0.00387086 0.00390896 0.00391032 0.00389806 0.00390877 0.00387991 0.00383702 0.00374224 0.00348732 0.00302017 0.00230679 0.00144621 0.000508038 -0.000256158 -0.000756635 -0.000934846 -0.000750494 -0.000241671 0.000548506 0.00143584 0.00230826 0.00302306 0.00348661 0.00374544 0.00383949 0.00388596 0.00388381 0.00386431 0.0039117 0.0038962 0.00385997 0.00386439 0.00378992 0.0036262 0.00331516 0.00283784 0.00226642 0.00162354 0.00112918 0.000812058 0.000668717 0.000806848 0.0011483 0.00167216 0.00225505 0.00284804 0.0033271 0.00363411 0.0037935 0.00385264 0.00389442 0.00389051 0.00389177 0.00389473 0.00387987 0.00390002 0.00387299 0.00381333 0.00366167 0.00342785 0.00297556 0.00248994 0.00196169 0.00149711 0.00122733 0.00111601 0.00121042 0.00153306 0.0019722 0.0024988 0.0029999 0.00338367 0.00365904 0.00379407 0.00388642 0.00389478 0.00393282 0.0038978 0.00391124 0.00387487 0.00389232 0.00385517 0.00380399 0.00364623 0.00336407 0.00295307 0.00242598 0.00191182 0.00143802 0.00116066 0.00104448 0.00114657 0.00146759 0.00190362 0.00241484 0.00296306 0.00339762 0.00365833 0.00379066 0.00384039 0.00387388 0.00387548 0.00389443 0.0039031 0.00389792 0.00390205 0.00390452 0.00389737 0.00391735 0.00395637 0.00400179 0.0040732 0.00412436 0.00420897 0.00423871 0.00424777 0.00419079 0.00420052 0.00414701 0.00407258 0.00401927 0.00395124 0.00392462 0.00390727 0.00389561 0.00392097 0.00389603 0.00388164 0.0038956 0.00389454 0.00387935 0.00387375 0.00382427 0.00372163 0.00349974 0.00318998 0.00282099 0.00241837 0.00208684 0.00188515 0.00179279 0.00186734 0.00210465 0.00239875 0.00283105 0.00321322 0.00354307 0.0037183 0.00383816 0.0038718 0.00390613 0.00391148 0.00388236 0.00390687 0.00386804 
0.00385338 0.00387406 0.00385382 0.00384945 0.00384513 0.0038508 0.00376112 0.0035586 0.00308509 0.00224497 0.000954656 -0.000699106 -0.00236263 -0.00376029 -0.00471396 -0.00502757 -0.0047131 -0.00377188 -0.00234724 -0.000666938 0.000939855 0.00225099 0.00311228 0.00359988 0.00374412 0.00383357 0.00387078 0.00387634 0.00386693 0.00387851 0.00385345 0.00381659 0.00374997 0.00355985 0.00322507 0.00270697 0.00207737 0.00138724 0.000832211 0.000475853 0.000342782 0.000473802 0.000844211 0.00142678 0.00206882 0.00269975 0.00322866 0.00356507 0.00375763 0.00381864 0.00385216 0.00384427 0.00383737 0.00387895 0.00385852 0.00382697 0.00381111 0.00370336 0.00344883 0.00298929 0.00226898 0.00140644 0.000457763 -0.000290519 -0.000789441 -0.000992032 -0.000788484 -0.000280993 0.000506298 0.00139141 0.00227947 0.00299621 0.00346854 0.00370232 0.00379002 0.00385476 0.00385418 0.00385212 0.00386551 0.00384814 0.00386787 0.00384259 0.00379386 0.00367313 0.00348589 0.00310829 0.00271019 0.002282 0.00189281 0.00167794 0.00158223 0.00165378 0.00193052 0.00228751 0.00272185 0.00312712 0.00343748 0.00366967 0.00376937 0.0038579 0.00386003 0.00389583 0.00386563 0.00387712 0.00384977 0.00386316 0.00383314 0.0037912 0.0036686 0.00346044 0.00316063 0.00275567 0.002377 0.00201193 0.00181249 0.00172968 0.00179957 0.0020532 0.0023663 0.00274352 0.00316131 0.00349499 0.00368182 0.00378297 0.00381263 0.00383631 0.00383709 0.00386114 0.00387182 0.00386569 0.00386274 0.00386165 0.0038287 0.00379377 0.00372087 0.00360914 0.00348154 0.00333125 0.00324577 0.00315816 0.00313735 0.00312106 0.00324339 0.00335691 0.00348733 0.00362408 0.00371623 0.00380414 0.00383796 0.00384842 0.00388555 0.00386109 0.00385148 0.00385921 0.00386031 0.00384565 0.00385476 0.00383783 0.00381739 0.00375268 0.00366963 0.00359719 0.00348654 0.00340686 0.00336984 0.00333861 0.00335471 0.00342461 0.00346229 0.00360383 0.00369631 0.00379313 0.00382132 0.00385958 0.00386228 0.00387941 0.00388404 0.00385017 0.00386619 0.00383918 
0.0037469 0.00378062 0.00376438 0.00376369 0.00374316 0.00376145 0.00366956 0.00347005 0.00299713 0.00216012 0.000861524 -0.000790157 -0.0024567 -0.00385029 -0.00479472 -0.00511833 -0.00478952 -0.00386527 -0.00243511 -0.000758125 0.000858778 0.00216043 0.0030182 0.00350216 0.00364828 0.00372987 0.00376749 0.00378367 0.00377106 0.00377442 0.0037742 0.0037492 0.00376157 0.00373405 0.00369167 0.00362257 0.00356055 0.00344973 0.0033881 0.00335112 0.00333598 0.00335517 0.00339729 0.00349017 0.00355744 0.00362937 0.00369623 0.0037347 0.00376388 0.00375846 0.00377071 0.00376104 0.00374073 0.00378261 0.00376522 0.0037172 0.00370776 0.00358963 0.00330926 0.00278227 0.00198758 0.00100217 -6.4897e-05 -0.00090473 -0.00147224 -0.00169045 -0.00146496 -0.000891245 -7.07652e-06 0.000988022 0.00199963 0.0027961 0.00331732 0.00359531 0.00370273 0.00375833 0.00376144 0.00376047 0.00377226 0.00375629 0.00376822 0.00373902 0.003687 0.00352937 0.00328378 0.00281889 0.00229452 0.00175441 0.00127284 0.000989285 0.000872065 0.000953618 0.0013004 0.00176816 0.00231192 0.00283249 0.00322877 0.00352208 0.00365609 0.00375478 0.0037472 0.00380614 0.00376167 0.00377762 0.00373595 0.00376923 0.00372902 0.00367018 0.00351605 0.00323106 0.00282204 0.00229548 0.00176739 0.00130676 0.0010277 0.000912671 0.00100366 0.00134141 0.00176827 0.00228252 0.00283858 0.0032686 0.00353373 0.00365645 0.00371691 0.00374484 0.00375206 0.00376166 0.00378997 0.00378056 0.00378174 0.00379263 0.00383945 0.00393664 0.00412897 0.00442865 0.00482469 0.0051884 0.00554664 0.00573956 0.00582104 0.00569385 0.00552693 0.00520231 0.00482124 0.00444314 0.00412375 0.00394811 0.00383808 0.0037811 0.0037951 0.00376925 0.00375467 0.00375752 0.00376452 0.00374632 0.00373079 0.00364055 0.00343855 0.00305006 0.00247269 0.00177573 0.00103615 0.000419502 3.02788e-05 -0.000118704 2.74471e-05 0.000446005 0.00101135 0.00177531 0.00250402 0.00309021 0.00343012 0.00365048 0.00372516 0.00377811 0.0037683 0.00375161 0.00377557 0.00373877 
0.00357787 0.00362561 0.00361193 0.00360919 0.00356756 0.00359294 0.00349317 0.00329345 0.00277562 0.00186663 0.000466324 -0.00130898 -0.00310685 -0.00461685 -0.00562258 -0.00597696 -0.00562265 -0.00462103 -0.00308266 -0.00127407 0.000467271 0.00186175 0.00280512 0.00331311 0.00348325 0.00356401 0.00358931 0.00361848 0.00360763 0.00361314 0.00363833 0.0036311 0.00375196 0.00395233 0.00433699 0.00492817 0.00567028 0.00639355 0.00705348 0.00748496 0.00763236 0.00748754 0.00705572 0.00643902 0.00567018 0.00493512 0.00434521 0.00395788 0.0037531 0.00364624 0.00362499 0.00360112 0.00358211 0.00362026 0.00360315 0.00355282 0.0035461 0.00343171 0.00314544 0.00262619 0.00183262 0.000844245 -0.000215043 -0.00104606 -0.00162398 -0.00184805 -0.00161448 -0.00104247 -0.000156003 0.000835645 0.00184928 0.00263363 0.00316256 0.0034389 0.00354274 0.00359748 0.00360366 0.00359347 0.00361364 0.0036023 0.00359703 0.00357107 0.00350581 0.00333992 0.00304717 0.00252813 0.0019186 0.00130683 0.000764389 0.000437643 0.000315665 0.000395712 0.000789584 0.00132566 0.00194306 0.00254209 0.00298879 0.00332524 0.00347808 0.00358271 0.00356963 0.00363889 0.00359528 0.00360843 0.00356714 0.00360829 0.00356194 0.00347393 0.00328448 0.00291425 0.00238528 0.00169776 0.00100091 0.000417277 4.54317e-05 -0.000101102 1.66365e-05 0.00044699 0.00100798 0.00168633 0.00239264 0.0029489 0.00329951 0.00346352 0.00354768 0.0035792 0.00359622 0.00359566 0.00363932 0.00361909 0.00361593 0.00361788 0.00365974 0.00371057 0.0038179 0.00400869 0.00426743 0.00449188 0.00472013 0.00481292 0.00488285 0.0047779 0.00469589 0.00449168 0.00426704 0.00402069 0.00381142 0.00372243 0.00364794 0.00360556 0.00362184 0.00360733 0.00358939 0.00359002 0.00359572 0.00358305 0.00356159 0.00345487 0.00320968 0.0027505 0.00205401 0.00120705 0.00032855 -0.000412608 -0.000883052 -0.00105598 -0.000878226 -0.000387147 0.000305197 0.00120792 0.00209047 0.0027845 0.00320178 0.003461 0.00355621 0.00361475 0.00359642 0.00359187 0.00361121 0.00358116 
0.00333962 0.00341341 0.00340549 0.00339703 0.00331306 0.00335024 0.00322204 0.00299424 0.00232754 0.00116606 -0.000600891 -0.0028269 -0.00510398 -0.00702256 -0.00827546 -0.00872594 -0.00828767 -0.00700072 -0.0050724 -0.00278481 -0.000600999 0.00115394 0.00238145 0.00300144 0.00323569 0.00332791 0.00332983 0.00338543 0.00338191 0.00339167 0.00346594 0.00348905 0.00381938 0.0044667 0.00570102 0.00758717 0.00990274 0.0122674 0.014341 0.0156986 0.0161623 0.0156898 0.0143287 0.012321 0.00991056 0.00758502 0.00571111 0.00448803 0.00382205 0.00351463 0.00342515 0.00337392 0.00336671 0.00339356 0.00337008 0.00331905 0.00330026 0.0031615 0.00278115 0.00213751 0.00111439 -0.000151939 -0.00148583 -0.00253713 -0.00330302 -0.00359422 -0.00328376 -0.00255873 -0.00142241 -0.000154437 0.00114092 0.00212961 0.002828 0.00316714 0.00329308 0.00336792 0.00337913 0.00335434 0.00339519 0.00338931 0.00335293 0.00332361 0.00322393 0.00301276 0.00257327 0.0018662 0.000988738 0.000136467 -0.000620877 -0.00108781 -0.00124393 -0.00114798 -0.000599343 0.000158487 0.00102373 0.00187486 0.00250338 0.00298131 0.00319279 0.00333237 0.00331174 0.00340192 0.0033618 0.0033703 0.00333427 0.0033888 0.00333952 0.00321707 0.00301638 0.00259277 0.00200232 0.00120122 0.000392577 -0.000257959 -0.000687842 -0.000846821 -0.00072503 -0.000222981 0.000406793 0.00118818 0.0019822 0.00262506 0.00302232 0.00321742 0.00331934 0.00334367 0.00337412 0.00336172 0.00343497 0.00339223 0.00337685 0.00336701 0.00338701 0.00333402 0.00324163 0.00317347 0.0031055 0.00299772 0.00292818 0.00279263 0.00283227 0.00278271 0.00290073 0.00297513 0.00311332 0.00317711 0.00323355 0.00334952 0.00335912 0.00334967 0.00337925 0.00337902 0.00336124 0.0033515 0.00335899 0.00335684 0.00333835 0.00324027 0.00300271 0.00258741 0.0019277 0.00113088 0.000322277 -0.000370156 -0.000806142 -0.000956799 -0.000784712 -0.000346265 0.000296101 0.0011279 0.0019731 0.00261017 0.00300379 0.0032454 0.00334057 0.00339129 0.00335821 0.00337046 0.0033752 0.00336477 
0.00292313 0.00304451 0.00304871 0.00303811 0.00288036 0.00294722 0.00277895 0.00251813 0.00166252 0.000181498 -0.00206438 -0.00485817 -0.00775352 -0.0101879 -0.0117481 -0.0123282 -0.0117715 -0.0101321 -0.00770545 -0.00480755 -0.00205487 0.000152928 0.00174256 0.00250268 0.00281941 0.00291734 0.0028873 0.00298968 0.00299459 0.0030018 0.00316704 0.00324291 0.00393152 0.0053466 0.00802695 0.01211 0.0171199 0.0222851 0.0267594 0.0296913 0.0307 0.0296698 0.0267236 0.0223471 0.0171445 0.012109 0.0080387 0.0053873 0.00393464 0.0032881 0.00308385 0.00299725 0.00299477 0.00300131 0.00297152 0.00290492 0.00286601 0.00266448 0.00208651 0.00112379 -0.00041307 -0.00233553 -0.00432481 -0.00590215 -0.00708621 -0.0075127 -0.00704408 -0.0059566 -0.00424477 -0.00233187 -0.000372468 0.0011031 0.00216405 0.00267523 0.0028702 0.00296969 0.00299317 0.00295298 0.00301987 0.00302017 0.00293649 0.00289532 0.00274332 0.00241853 0.00170012 0.000618345 -0.000791322 -0.00212229 -0.00330132 -0.0040528 -0.00428641 -0.00414962 -0.00329683 -0.00209153 -0.000738459 0.000609961 0.00160749 0.00235991 0.00269506 0.00290188 0.00286244 0.0030041 0.00295451 0.00296414 0.00292126 0.00301344 0.00295651 0.0027893 0.00258152 0.00208565 0.00141914 0.000486801 -0.000473218 -0.00118604 -0.00169148 -0.00186714 -0.00175063 -0.00114732 -0.00044008 0.000469223 0.00137567 0.00211693 0.00257853 0.00279795 0.00293817 0.00294829 0.00300125 0.00295803 0.00308972 0.00301673 0.00298345 0.0029694 0.00303739 0.00296783 0.00285277 0.00281872 0.00280222 0.00272506 0.00267066 0.00249064 0.00258494 0.00250698 0.00262334 0.00266159 0.00281178 0.00280989 0.00284217 0.00298874 0.00297677 0.00294726 0.00297499 0.00299155 0.00297217 0.00294074 0.00295746 0.00296454 0.00292923 0.00277309 0.00237262 0.00171927 0.000647147 -0.0006623 -0.00196643 -0.00309598 -0.00381408 -0.00404244 -0.00375515 -0.00306258 -0.00199762 -0.000682181 0.000707809 0.00172344 0.00237512 0.00276587 0.0029274 0.00300207 0.00293424 0.00298568 0.00297732 0.00298714 
0.00229416 0.00247414 0.00249493 0.00247835 0.00223258 0.00233711 0.00212487 0.00184001 0.000786745 -0.00102938 -0.00377099 -0.00715232 -0.0106879 -0.0136611 -0.0155276 -0.0162493 -0.0155639 -0.0135642 -0.0106199 -0.0070914 -0.00374756 -0.00108005 0.000891666 0.00179219 0.00219849 0.00229537 0.00222986 0.00238767 0.00239888 0.00240217 0.00267915 0.00282321 0.00395672 0.00631071 0.0107565 0.017539 0.0258564 0.0344572 0.0418789 0.0467368 0.0484158 0.0467055 0.0418148 0.0345282 0.0259003 0.0175428 0.0107779 0.00637089 0.00395548 0.00289522 0.00254984 0.00241781 0.00241868 0.00240315 0.00236873 0.00228135 0.00222383 0.00195828 0.00116803 -0.000134061 -0.00220904 -0.00483484 -0.00751703 -0.00965028 -0.0112842 -0.0118541 -0.0112171 -0.00974136 -0.00741898 -0.00482054 -0.00215276 -0.000170029 0.00127521 0.00197412 0.00224256 0.00236537 0.00240721 0.00234207 0.00244303 0.0024526 0.00231081 0.00226432 0.00206981 0.00165992 0.000703061 -0.00068655 -0.00255879 -0.00428236 -0.00580757 -0.00679958 -0.00708888 -0.00693948 -0.00582567 -0.00423533 -0.00247839 -0.000711628 0.000585222 0.00157218 0.00200808 0.00226578 0.00219548 0.00239856 0.00233707 0.00234538 0.00229426 0.00243049 0.002354 0.00210178 0.00181707 0.00110737 0.000156085 -0.00117252 -0.00256476 -0.00355665 -0.00429195 -0.00453898 -0.00437719 -0.00351983 -0.00250455 -0.0011908 9.19086e-05 0.00113872 0.00181096 0.00212002 0.00233721 0.0023443 0.00242834 0.0023455 0.00254646 0.00243979 0.00238811 0.00236798 0.00250306 0.00242977 0.00232203 0.00238348 0.00249721 0.00252506 0.00254413 0.00234631 0.00252188 0.00239513 0.00246997 0.00241132 0.00250776 0.00236159 0.00230841 0.00245683 0.00240027 0.00234003 0.0023579 0.00239963 0.00237468 0.00231885 0.00234685 0.00236281 0.00230363 0.0020608 0.0014364 0.000425837 -0.00124105 -0.00329329 -0.00531851 -0.00707676 -0.00820667 -0.00855295 -0.00810216 -0.00703344 -0.0053519 -0.0033281 -0.00115922 0.000408667 0.00143518 0.00203776 0.00229673 0.00240523 0.00229297 0.00239412 0.00237145 0.00240349 
0.00158805 0.00183196 0.00187424 0.00184789 0.00150432 0.00165115 0.00138109 0.00105743 -0.000254139 -0.00250928 -0.00590199 -0.0100535 -0.0144266 -0.0181133 -0.0203906 -0.0212911 -0.0204445 -0.0179595 -0.0143409 -0.00998121 -0.00587307 -0.00258583 -0.000117427 0.000973422 0.00149454 0.00159761 0.00148831 0.00171094 0.00173307 0.00173456 0.00213082 0.00235992 0.00398837 0.00741093 0.0138665 0.0237161 0.0357883 0.0482908 0.0590584 0.0661137 0.0685528 0.0660638 0.0589619 0.0483717 0.035853 0.0237208 0.0138972 0.00749665 0.00399391 0.00245448 0.00194801 0.00176228 0.00177863 0.00173115 0.00169133 0.00158778 0.00149164 0.00112944 4.26974e-05 -0.00173789 -0.0045759 -0.00817424 -0.0118317 -0.0147583 -0.0170126 -0.0177809 -0.0169123 -0.0149002 -0.011716 -0.00815396 -0.00450321 -0.00179321 0.000191232 0.00115245 0.00151906 0.00168133 0.00174634 0.00165339 0.00179759 0.00181485 0.00161091 0.00156989 0.00134402 0.000896851 -0.00023235 -0.00181387 -0.0040209 -0.00598987 -0.00774436 -0.00889792 -0.00921582 -0.0090873 -0.00778072 -0.00593339 -0.00390932 -0.00186365 -0.00037817 0.000777377 0.00126403 0.0015634 0.00145294 0.00171263 0.00164647 0.00165272 0.00160348 0.00178238 0.00170179 0.00139501 0.00111463 0.000349966 -0.0006497 -0.00208705 -0.00361237 -0.00463015 -0.00542776 -0.00568162 -0.00553972 -0.00459039 -0.00352656 -0.00210638 -0.000745557 0.000373966 0.00110466 0.00142489 0.00167924 0.00166609 0.00178493 0.0016596 0.00193845 0.00179542 0.00171065 0.00166585 0.00182612 0.00163326 0.00130852 0.00114111 0.000975867 0.000696084 0.000430593 -2.3233e-05 0.000161334 7.11477e-05 0.000335074 0.000529243 0.000998558 0.00110436 0.00129089 0.00166764 0.00167372 0.00163017 0.00165768 0.00173407 0.00170628 0.00162131 0.00165608 0.00168567 0.00160868 0.00128463 0.000451567 -0.000866711 -0.00308353 -0.00579974 -0.00847885 -0.01081 -0.0123108 -0.0127565 -0.0121573 -0.0107534 -0.00851977 -0.00585438 -0.00297474 -0.000916202 0.00045385 0.00125099 0.00160158 0.00174129 0.00158198 0.00173375 0.0016879 0.00175874 
0.000901782 0.00120902 0.00126891 0.00123136 0.000788367 0.000970754 0.000638287 0.00025872 -0.00135555 -0.00412796 -0.00828001 -0.0133551 -0.0187174 -0.0232395 -0.0260163 -0.0271227 -0.0260903 -0.0230332 -0.0186097 -0.0132682 -0.00824553 -0.004224 -0.00117618 0.000145938 0.00079621 0.00091552 0.000762141 0.00104724 0.00108119 0.00108244 0.00160125 0.00190243 0.00402944 0.00850622 0.0169569 0.0298483 0.0456334 0.0620025 0.076091 0.0853196 0.088508 0.0852502 0.0759615 0.0620981 0.0457198 0.0298443 0.016994 0.00862087 0.0040321 0.00202599 0.00135923 0.00111676 0.00114882 0.0010765 0.0010245 0.000906145 0.000782655 0.000347787 -0.00099088 -0.00315085 -0.00662386 -0.0110249 -0.0154786 -0.0190451 -0.0218202 -0.022762 -0.0216921 -0.0192354 -0.0153465 -0.0109926 -0.00653089 -0.00323192 -0.000791505 0.000370114 0.000814091 0.00101799 0.00109852 0.000975954 0.00116433 0.00119244 0.000920557 0.000867989 0.000579925 2.2957e-05 -0.00142331 -0.00341716 -0.00622249 -0.00871625 -0.0109385 -0.0124041 -0.0128008 -0.0126433 -0.0109941 -0.00864683 -0.00608323 -0.00348495 -0.00159927 -0.000132581 0.000484856 0.000858183 0.000720448 0.00104329 0.000971709 0.0009719 0.000922997 0.00114469 0.0010488 0.000653935 0.000319353 -0.000623862 -0.00184842 -0.00363392 -0.00552652 -0.00677276 -0.00776182 -0.00806815 -0.00789974 -0.00672317 -0.00541616 -0.00365715 -0.00198534 -0.000599013 0.000297815 0.000702711 0.00102177 0.000996791 0.00114686 0.000987653 0.0013406 0.00115162 0.00104583 0.000993145 0.0011858 0.000918656 0.000458016 0.000184561 -0.000109825 -0.000540265 -0.000954849 -0.00158436 -0.00135448 -0.00144391 -0.00107108 -0.000760184 -7.93979e-05 0.000129441 0.000437548 0.000962859 0.000992545 0.000947 0.000978603 0.00108012 0.00105082 0.000936793 0.000984406 0.00102956 0.000943367 0.000585241 -0.000357029 -0.00181004 -0.00429249 -0.00733702 -0.0103095 -0.0129096 -0.0145849 -0.0150639 -0.0143848 -0.0128487 -0.0103571 -0.00740748 -0.00416128 -0.00188199 -0.000346819 0.000541584 0.000943371 0.0010909 0.000887943 0.001087 0.00101627 0.00112052 
0.000305202 0.000669437 0.000750743 0.00070674 0.000177124 0.000399428 2.38404e-06 -0.000454689 -0.00237048 -0.00565974 -0.0106022 -0.0166291 -0.0230057 -0.0283771 -0.0316737 -0.032997 -0.0317573 -0.0281356 -0.0228758 -0.0165324 -0.0105601 -0.00577238 -0.00216306 -0.000591539 0.000180927 0.000322087 0.000141972 0.000486441 0.00052766 0.000514026 0.00114301 0.00151017 0.00406295 0.00945587 0.0196186 0.0351081 0.0540934 0.0737828 0.0907116 0.101808 0.105647 0.101726 0.0905599 0.0738917 0.0542054 0.0351116 0.0196521 0.00958458 0.00406462 0.00165646 0.000856395 0.000572779 0.000606756 0.000516907 0.000456232 0.000306489 0.000157791 -0.00036913 -0.00198301 -0.00461633 -0.00881828 -0.0141611 -0.019568 -0.0239039 -0.0272653 -0.0283895 -0.0271017 -0.0241256 -0.0194111 -0.0141285 -0.00871007 -0.00470501 -0.00175865 -0.000338219 0.000207112 0.000444925 0.000537315 0.000402569 0.000621101 0.000655329 0.000333064 0.000268354 -5.46033e-05 -0.000710386 -0.00240835 -0.00472991 -0.00802966 -0.0109405 -0.0135397 -0.0152555 -0.01573 -0.015554 -0.0136142 -0.0108607 -0.00786698 -0.00482607 -0.00261891 -0.000895447 -0.000177915 0.000260816 8.79193e-05 0.000479637 0.000387516 0.000389183 0.000328749 0.000605863 0.000504936 8.11429e-05 -0.000215496 -0.00114907 -0.00232776 -0.00408078 -0.00597613 -0.00713915 -0.00811208 -0.00840656 -0.00828405 -0.00707733 -0.00583713 -0.00411338 -0.00247365 -0.00112111 -0.000241217 0.000136983 0.000481112 0.000431253 0.000605944 0.000412402 0.00083993 0.000611334 0.000495152 0.00045384 0.000765522 0.000612591 0.000386555 0.000552722 0.000815483 0.000916578 0.000954654 0.000558544 0.000940735 0.000719772 0.000805685 0.000651515 0.000845952 0.000482313 0.000363877 0.000670214 0.000533191 0.000399599 0.000413494 0.00052219 0.000490054 0.000344353 0.000409147 0.000463261 0.000343288 -0.000113328 -0.00132913 -0.00320681 -0.00639583 -0.01031 -0.01415 -0.0175035 -0.0196658 -0.0202886 -0.0194202 -0.0174247 -0.0142154 -0.0104095 -0.00624005 -0.00329475 -0.0013226 -0.000173346 0.000336986 0.000530936 0.00028172 0.000528813 0.000447579 0.000567493 
-0.000225546 0.000168155 0.000261851 0.000214536 -0.000362157 -0.000118471 -0.000542105 -0.00101729 -0.00304034 -0.00651577 -0.0117377 -0.0180887 -0.0248271 -0.0304965 -0.0339675 -0.0353675 -0.0340566 -0.0302309 -0.0246854 -0.0179881 -0.0116916 -0.00663968 -0.00282059 -0.00116581 -0.000347937 -0.000206405 -0.000404115 -2.89872e-05 1.75976e-05 -2.03774e-06 0.000688624 0.00109321 0.00388459 0.00979159 0.0209237 0.0378816 0.0586703 0.0802387 0.0987694 0.11092 0.115124 0.110828 0.0986017 0.0803476 0.0587955 0.0378862 0.0209589 0.00993215 0.00388648 0.00125263 0.000373787 6.94637e-05 0.000109188 1.63615e-06 -6.37241e-05 -0.000223774 -0.000395946 -0.000982464 -0.00277167 -0.00570294 -0.0103695 -0.0163079 -0.0223156 -0.0271392 -0.0308738 -0.0321122 -0.0306906 -0.027383 -0.0221484 -0.0162742 -0.0102545 -0.00579828 -0.0025303 -0.00094982 -0.000338554 -7.76563e-05 2.55611e-05 -0.000117683 0.000119742 0.000156204 -0.000193756 -0.000265636 -0.000605137 -0.00131158 -0.00313837 -0.00562346 -0.00917622 -0.0122951 -0.0150837 -0.0169305 -0.0174406 -0.0172572 -0.0151747 -0.0122116 -0.00900103 -0.00573706 -0.00336391 -0.00151225 -0.000744269 -0.000272536 -0.000463961 -3.83465e-05 -0.000137421 -0.000134443 -0.000197305 0.000104382 2.02062e-06 -0.000441222 -0.000720234 -0.00165349 -0.00281253 -0.00456332 -0.00647116 -0.00759911 -0.0085717 -0.00885705 -0.00875812 -0.00753094 -0.00631867 -0.00459902 -0.00296876 -0.00162479 -0.000747879 -0.000379618 -1.87094e-05 -8.33608e-05 0.000103815 -0.000109093 0.000356424 0.000112185 -1.59875e-05 -5.32832e-05 0.000309212 0.000187084 2.50756e-05 0.000335838 0.000787092 0.0010601 0.00124283 0.00090696 0.00135433 0.0010869 0.00108021 0.000770536 0.000817131 0.00025587 1.81107e-06 0.000249696 5.50634e-05 -0.000111639 -0.000104949 1.14549e-05 -1.86891e-05 -0.000183793 -0.000108458 -5.14808e-05 -0.000179954 -0.000673364 -0.00198996 -0.00401054 -0.00745235 -0.0116772 -0.0158229 -0.0194425 -0.0217794 -0.0224455 -0.0215049 -0.0193553 -0.0158929 -0.0117927 -0.00728651 -0.00411219 -0.00198367 -0.000740581 -0.000188226 1.99045e-05 -0.000254691 1.83031e-05 -7.28462e-05 6.26178e-05 
-0.000570846 -0.000152674 -4.83467e-05 -9.87424e-05 -0.000713856 -0.000451804 -0.00090196 -0.00140278 -0.00353396 -0.00719951 -0.0127101 -0.0194013 -0.0265128 -0.0324894 -0.0361464 -0.0376244 -0.0362391 -0.032205 -0.02636 -0.0192971 -0.0126617 -0.00733202 -0.00330417 -0.0015574 -0.000697357 -0.000551465 -0.00076031 -0.000359728 -0.000309216 -0.000335494 0.000405608 0.000839066 0.00382283 0.0101432 0.0220554 0.0401923 0.0624302 0.0855084 0.105324 0.118324 0.122821 0.118222 0.105144 0.0856171 0.0625667 0.0401975 0.0220907 0.0102929 0.00382466 0.00100967 6.73977e-05 -0.000252827 -0.000208783 -0.000329689 -0.000400335 -0.000571334 -0.000765799 -0.00141163 -0.00336963 -0.00659421 -0.0117141 -0.0182313 -0.0248286 -0.0301307 -0.0342243 -0.0355733 -0.034023 -0.0303912 -0.0246504 -0.018199 -0.0115933 -0.00669357 -0.00311508 -0.00137793 -0.000701688 -0.000417114 -0.000305067 -0.000453697 -0.000200482 -0.000163537 -0.000534079 -0.00061462 -0.000966328 -0.00172066 -0.00365874 -0.00629083 -0.0100659 -0.0133692 -0.0163273 -0.0182888 -0.0188339 -0.018642 -0.0164309 -0.013283 -0.00988033 -0.0064203 -0.00389945 -0.00193397 -0.00112194 -0.000618917 -0.000826673 -0.000370192 -0.0004777 -0.00047263 -0.000539121 -0.000215387 -0.000319034 -0.000774953 -0.00103399 -0.0019547 -0.00307901 -0.00480447 -0.00669894 -0.00777892 -0.00873662 -0.00900968 -0.00893627 -0.00770181 -0.00653526 -0.00484404 -0.00324115 -0.00192283 -0.00106195 -0.000709055 -0.000336745 -0.000415032 -0.000218929 -0.000446119 5.12693e-05 -0.000205455 -0.000342243 -0.000371523 4.41745e-05 -2.50099e-05 -8.18088e-05 0.000427583 0.00113478 0.00164829 0.00203942 0.00181068 0.00233018 0.00200332 0.00186439 0.00134051 0.00116329 0.00033973 -0.00010532 4.3033e-05 -0.000227007 -0.000434154 -0.000435463 -0.000316761 -0.000344641 -0.000527336 -0.000441074 -0.000383494 -0.000518959 -0.00104388 -0.00244699 -0.00459118 -0.00824899 -0.012738 -0.0171482 -0.0209957 -0.0234811 -0.0241852 -0.0231822 -0.0208994 -0.0172241 -0.012869 -0.00807406 -0.00470177 -0.00244146 -0.00111639 -0.000528819 -0.000307768 -0.000603972 -0.000310912 -0.000409193 -0.000262867 
-0.000800364 -0.000371259 -0.00025755 -0.000310314 -0.000942355 -0.00066847 -0.00113983 -0.00167283 -0.00389189 -0.00771203 -0.0134681 -0.0204512 -0.0278741 -0.0341093 -0.0379299 -0.0394744 -0.0380219 -0.0338181 -0.027716 -0.0203461 -0.0134215 -0.00784759 -0.00365981 -0.00182921 -0.000937653 -0.000781915 -0.000990943 -0.000575795 -0.000523876 -0.000559958 0.000204263 0.000654934 0.00372331 0.0102375 0.0225059 0.0411748 0.0640786 0.0878461 0.108243 0.121633 0.126262 0.121526 0.108061 0.0879558 0.064224 0.0411852 0.0225369 0.0103869 0.00372794 0.000827851 -0.000141668 -0.000467287 -0.000422276 -0.000548457 -0.000621395 -0.000803742 -0.00101353 -0.00170421 -0.00377786 -0.00722105 -0.0126618 -0.0195917 -0.0266173 -0.0322708 -0.0366133 -0.0380344 -0.0363968 -0.0325363 -0.0264313 -0.0195659 -0.0125397 -0.00731688 -0.00352352 -0.00166664 -0.000943162 -0.000644085 -0.000528844 -0.000674324 -0.000415206 -0.000379802 -0.000755136 -0.000836855 -0.00117719 -0.00192949 -0.00386612 -0.00648502 -0.0102699 -0.0135557 -0.0165078 -0.0184645 -0.0190157 -0.0188385 -0.0166166 -0.0134704 -0.0100794 -0.00662935 -0.0041176 -0.00214705 -0.00134732 -0.000837783 -0.00106077 -0.000587814 -0.000703461 -0.000695946 -0.00076498 -0.00042515 -0.000520904 -0.000951413 -0.00113925 -0.00193035 -0.00285822 -0.00433312 -0.00598637 -0.00684231 -0.00765865 -0.00788083 -0.00786888 -0.00675661 -0.00581505 -0.00437738 -0.00301303 -0.00189735 -0.0011645 -0.000886368 -0.000536771 -0.0006324 -0.000433742 -0.000667511 -0.000151609 -0.000414826 -0.000553256 -0.000573445 -0.000103969 -9.12437e-05 1.35427e-05 0.000787054 0.00182662 0.00266382 0.00333928 0.00328649 0.00387369 0.00347955 0.00315443 0.00234972 0.00185491 0.0006953 -9.84401e-06 -1.72921e-05 -0.000384305 -0.00063869 -0.000648803 -0.00053513 -0.000561487 -0.000756265 -0.000663021 -0.00060574 -0.000752715 -0.00131289 -0.0028117 -0.00510406 -0.00900873 -0.0137927 -0.0185129 -0.0226246 -0.0252808 -0.0260361 -0.0249702 -0.0225191 -0.0185995 -0.0139383 -0.00882601 -0.00521852 -0.00280871 -0.00138867 -0.000765479 -0.000525453 -0.000834289 -0.000530947 -0.000630164 -0.000481029 
-0.000952214 -0.000520134 -0.000404524 -0.000459178 -0.0010988 -0.000824885 -0.00130595 -0.00185657 -0.00413143 -0.00804681 -0.0139443 -0.0211043 -0.0287128 -0.035104 -0.0390263 -0.0406062 -0.0391218 -0.0348077 -0.0285531 -0.020998 -0.0139011 -0.00818092 -0.00389026 -0.00201261 -0.00109919 -0.0009345 -0.00114885 -0.000728385 -0.000673118 -0.000709599 6.33299e-05 0.000518059 0.0036219 0.0102171 0.0226407 0.0415392 0.0647208 0.0887819 0.10943 0.122986 0.127673 0.122877 0.109245 0.088894 0.0648692 0.0415443 0.0226671 0.0103705 0.00362743 0.000691905 -0.000289702 -0.000620711 -0.000570572 -0.000698917 -0.000775386 -0.00095643 -0.00116983 -0.00186483 -0.00395829 -0.00742487 -0.0129158 -0.0199003 -0.026982 -0.0326813 -0.037062 -0.038497 -0.0368422 -0.0329528 -0.0267965 -0.0198745 -0.0127915 -0.00752487 -0.0036946 -0.00182882 -0.0011022 -0.000795717 -0.000682972 -0.000828719 -0.000565846 -0.000529129 -0.00091042 -0.000996234 -0.00134721 -0.00211844 -0.00410749 -0.00679398 -0.0106708 -0.0140447 -0.0170765 -0.0190814 -0.0196499 -0.0194614 -0.0171846 -0.0139617 -0.0104813 -0.00694153 -0.00436186 -0.00234043 -0.00151994 -0.000995824 -0.00121765 -0.000741776 -0.000855365 -0.000849867 -0.000915339 -0.000572948 -0.000663843 -0.00108688 -0.00124222 -0.00197844 -0.00282049 -0.00419749 -0.00574687 -0.00651315 -0.00726983 -0.00746864 -0.00748174 -0.00642162 -0.00557545 -0.00424451 -0.00298372 -0.00194596 -0.00127303 -0.00101756 -0.000681242 -0.00078549 -0.000586983 -0.000819403 -0.000298578 -0.000569866 -0.000708315 -0.00072665 -0.000261544 -0.000260893 -0.000181896 0.00056146 0.0015591 0.00235655 0.00299624 0.00291423 0.00349907 0.0031132 0.00281241 0.00203926 0.00159004 0.000466017 -0.000205083 -0.00018438 -0.000542182 -0.000793884 -0.000800278 -0.000688198 -0.000712279 -0.000910896 -0.000816015 -0.000754437 -0.000898113 -0.00143852 -0.00290154 -0.00511516 -0.00890775 -0.0135499 -0.0181231 -0.022113 -0.024687 -0.0254126 -0.024375 -0.022009 -0.0182134 -0.0136989 -0.0087245 -0.00523104 -0.00289333 -0.00151342 -0.000906354 -0.000675197 -0.000985164 -0.000680392 -0.000784433 -0.00063021 
-0.00102752 -0.000597647 -0.000479915 -0.000533707 -0.00116996 -0.000894088 -0.00137242 -0.0019171 -0.00416012 -0.00802577 -0.0138532 -0.0209192 -0.0284363 -0.0347443 -0.0386149 -0.040176 -0.0387067 -0.0344496 -0.0282749 -0.0208148 -0.0138097 -0.00816058 -0.003926 -0.00206827 -0.00117054 -0.00101111 -0.0012199 -0.000801347 -0.000747201 -0.000787693 -1.58701e-05 0.000437032 0.00352728 0.0100945 0.0224662 0.0412798 0.064363 0.0883235 0.108878 0.122375 0.127043 0.122266 0.108693 0.0884298 0.0645124 0.041287 0.0224931 0.010246 0.00353245 0.000611051 -0.000367882 -0.000692777 -0.00064381 -0.00077504 -0.000851523 -0.00103451 -0.00125623 -0.00197078 -0.0041076 -0.00766539 -0.0132836 -0.0204343 -0.0276889 -0.0335313 -0.0380085 -0.0394693 -0.037785 -0.0338 -0.027502 -0.0204114 -0.0131616 -0.00776121 -0.00384984 -0.00193513 -0.00118561 -0.000874625 -0.000759129 -0.000901113 -0.000639588 -0.000605818 -0.000981253 -0.00106983 -0.00140921 -0.00217859 -0.00414429 -0.00680189 -0.0106438 -0.0139782 -0.0169786 -0.0189648 -0.0195312 -0.0193474 -0.0170921 -0.0138966 -0.0104548 -0.00695448 -0.00439914 -0.00239804 -0.00158802 -0.00106672 -0.00129184 -0.000813737 -0.000931003 -0.000922459 -0.000990147 -0.000646758 -0.000736173 -0.00114947 -0.00129052 -0.00199448 -0.00278923 -0.00410226 -0.00559063 -0.00630417 -0.00702607 -0.00721129 -0.00723835 -0.00620984 -0.00541884 -0.00414984 -0.00294476 -0.00195928 -0.00131711 -0.0010822 -0.000749686 -0.000857297 -0.000661892 -0.000894048 -0.000374426 -0.000638939 -0.000777505 -0.000787359 -0.000296035 -0.000237318 -4.70579e-05 0.000862483 0.00207329 0.00307908 0.00390474 0.00394682 0.00456922 0.00414225 0.00371901 0.00276518 0.00210007 0.000767019 -6.93558e-05 -0.000160525 -0.00057615 -0.000854492 -0.000868629 -0.00076163 -0.000783308 -0.000985633 -0.000886237 -0.000829976 -0.000973323 -0.00152164 -0.00299963 -0.00523988 -0.00907174 -0.0137622 -0.018392 -0.0224255 -0.0250302 -0.0257636 -0.0247138 -0.0223175 -0.0184827 -0.0139161 -0.00888955 -0.00535544 -0.00299461 -0.00159689 -0.000984259 -0.000749497 -0.0010616 -0.000757141 -0.0008593 -0.000706861 
-0.00101705 -0.000586237 -0.00046845 -0.000521953 -0.00115918 -0.000882616 -0.0013614 -0.00190722 -0.00415611 -0.00802979 -0.0138707 -0.0209531 -0.028486 -0.0348095 -0.0386882 -0.0402537 -0.0387801 -0.0345149 -0.0283254 -0.0208489 -0.0138266 -0.00816493 -0.00392172 -0.00206118 -0.00115984 -0.000999669 -0.00120943 -0.000789761 -0.000735731 -0.000776268 -3.93054e-06 0.000451032 0.00354497 0.0101225 0.0225101 0.0413492 0.064466 0.0884583 0.109042 0.122555 0.127233 0.122446 0.108858 0.0885665 0.0646153 0.0413585 0.022536 0.0102731 0.0035509 0.000624368 -0.000354861 -0.000680804 -0.000632998 -0.000763326 -0.000838745 -0.00102289 -0.0012418 -0.00195208 -0.00407741 -0.00761561 -0.0132016 -0.0203134 -0.0275278 -0.0333374 -0.037791 -0.0392439 -0.0375674 -0.033606 -0.0273407 -0.0202907 -0.0130793 -0.00771092 -0.00382067 -0.00191471 -0.00117013 -0.000862355 -0.000747324 -0.000889387 -0.000628503 -0.000594052 -0.000970449 -0.00105658 -0.00139566 -0.00215958 -0.00411848 -0.00676376 -0.0105921 -0.013912 -0.0168991 -0.0188772 -0.0194396 -0.0192593 -0.0170113 -0.0138301 -0.0104025 -0.00691595 -0.0043733 -0.0023793 -0.00157342 -0.00105457 -0.00128058 -0.000802577 -0.000919958 -0.000911597 -0.000979681 -0.000634976 -0.000723766 -0.00113482 -0.00127174 -0.00196871 -0.00275384 -0.00405146 -0.0055263 -0.00622659 -0.00694094 -0.00712479 -0.00715414 -0.00613429 -0.00535368 -0.00409891 -0.00290852 -0.00193508 -0.00129855 -0.00106841 -0.000737867 -0.000845549 -0.000648803 -0.000882571 -0.000361428 -0.000627366 -0.000765903 -0.000778469 -0.000287818 -0.000235423 -5.55499e-05 0.000838517 0.00202892 0.00301486 0.00382177 0.00385212 0.00446956 0.00404686 0.00363505 0.00269958 0.00205661 0.000743494 -7.82386e-05 -0.00015869 -0.000569264 -0.000845115 -0.000858668 -0.000750118 -0.000773129 -0.000974475 -0.000876733 -0.000819189 -0.000966261 -0.00152337 -0.00302367 -0.0053033 -0.00919728 -0.0139638 -0.018671 -0.0227715 -0.025419 -0.0261682 -0.0251037 -0.0226633 -0.0187623 -0.0141174 -0.00901409 -0.00541953 -0.00301923 -0.00159958 -0.00097834 -0.00073875 -0.00105117 -0.000745335 -0.000846757 -0.000694796 
-0.000953116 -0.000520461 -0.00040272 -0.000460002 -0.00109817 -0.000821843 -0.00130372 -0.00185084 -0.00411524 -0.00801755 -0.0138939 -0.0210285 -0.0286094 -0.0349791 -0.0388825 -0.0404601 -0.0389766 -0.0346819 -0.0284486 -0.0209216 -0.0138509 -0.00815326 -0.00387971 -0.0020058 -0.00109854 -0.000937067 -0.00114615 -0.000726339 -0.000673767 -0.000712088 6.118e-05 0.000517788 0.00362472 0.0102182 0.022639 0.0415396 0.0647237 0.0887867 0.109436 0.122988 0.127677 0.122884 0.10925 0.088897 0.0648721 0.0415464 0.0226703 0.0103694 0.00362825 0.000693419 -0.000289313 -0.000620209 -0.000570441 -0.000698366 -0.00077416 -0.000957544 -0.00117474 -0.00187959 -0.00399732 -0.00751275 -0.013068 -0.0201418 -0.0273145 -0.0330898 -0.037522 -0.0389714 -0.0373009 -0.0333595 -0.0271282 -0.0201163 -0.0129454 -0.00761113 -0.00373868 -0.00184484 -0.00110706 -0.000797465 -0.000680815 -0.000829125 -0.00056347 -0.000527935 -0.000906579 -0.000988403 -0.00132126 -0.00205849 -0.0039749 -0.00655887 -0.0103075 -0.0135467 -0.0164636 -0.0183949 -0.0189391 -0.0187769 -0.0165744 -0.0134614 -0.0101138 -0.00670669 -0.00423002 -0.00227729 -0.00149393 -0.000987702 -0.00121682 -0.000739813 -0.000855498 -0.000850059 -0.00091609 -0.000574236 -0.000670244 -0.00110653 -0.0012935 -0.00208361 -0.00300863 -0.00448801 -0.00614548 -0.00700042 -0.00781611 -0.00803613 -0.00802818 -0.00690885 -0.00597203 -0.00453287 -0.00316507 -0.00204821 -0.0013172 -0.00103811 -0.000687735 -0.000785976 -0.000586518 -0.000819073 -0.000298869 -0.000565563 -0.00070344 -0.000719517 -0.000242066 -0.000215582 -8.59784e-05 0.000735616 0.00183373 0.00272827 0.00345423 0.00342799 0.00403295 0.00362623 0.00326853 0.00241306 0.00186324 0.0006415 -0.000108862 -0.000138509 -0.000523973 -0.000787602 -0.00079915 -0.00068681 -0.000711679 -0.00091149 -0.000814345 -0.000756871 -0.000900442 -0.0014513 -0.00292864 -0.00517974 -0.00902492 -0.0137312 -0.0183731 -0.0224172 -0.02503 -0.0257675 -0.0247158 -0.0223114 -0.0184631 -0.0138794 -0.00883918 -0.00529431 -0.00292404 -0.00152517 -0.00090862 -0.000674292 -0.000986696 -0.000682194 -0.000785161 -0.000632178 
-0.00081501 -0.000388508 -0.000276242 -0.000329316 -0.000958845 -0.000688118 -0.00115596 -0.00168168 -0.00388703 -0.00768239 -0.0133954 -0.0203265 -0.0276964 -0.0338895 -0.0376818 -0.0392133 -0.0377758 -0.0335953 -0.0275405 -0.020222 -0.0133512 -0.00781761 -0.00365291 -0.00183804 -0.000950311 -0.000795967 -0.00100821 -0.000595227 -0.000541794 -0.000574121 0.00018538 0.000634973 0.0036915 0.0101835 0.0224143 0.041026 0.0638534 0.0875447 0.107878 0.121228 0.12584 0.121117 0.107695 0.0876538 0.0639968 0.0410321 0.0224456 0.0103355 0.00369823 0.000806053 -0.000161244 -0.000487383 -0.000438261 -0.000566506 -0.000639449 -0.000815635 -0.00102685 -0.00171166 -0.00377158 -0.00718119 -0.012581 -0.0194513 -0.0264152 -0.0320201 -0.0363301 -0.037743 -0.0361157 -0.032289 -0.0262328 -0.0194243 -0.012459 -0.00728008 -0.00351251 -0.00167546 -0.000960588 -0.000660939 -0.00054584 -0.000692868 -0.000432963 -0.000397296 -0.000772762 -0.000852338 -0.00119509 -0.00193933 -0.00386817 -0.00647228 -0.0102357 -0.0135039 -0.0164407 -0.018387 -0.0189319 -0.0187562 -0.0165476 -0.0134208 -0.0100466 -0.00661462 -0.00411641 -0.00215669 -0.00136212 -0.000854832 -0.00107443 -0.000608556 -0.000718701 -0.000712504 -0.000776913 -0.000443177 -0.000536074 -0.000964605 -0.00114686 -0.00192526 -0.00283467 -0.00429217 -0.00592023 -0.0067617 -0.00756616 -0.00778205 -0.00777269 -0.00667663 -0.00575219 -0.00433536 -0.00299656 -0.00189487 -0.00117441 -0.000897797 -0.000554276 -0.000650675 -0.000452474 -0.000684352 -0.000172396 -0.00043477 -0.000576716 -0.000604022 -0.000164626 -0.000211322 -0.000223501 0.000371383 0.0011854 0.00179961 0.00228015 0.0021019 0.00264693 0.00229976 0.00210077 0.00148661 0.00121687 0.00027959 -0.000246985 -0.000138849 -0.000443544 -0.000669086 -0.000670778 -0.000553338 -0.000578511 -0.000771377 -0.000681124 -0.000621928 -0.000761843 -0.00130251 -0.00275215 -0.00495534 -0.00872626 -0.0133419 -0.0178908 -0.0218568 -0.024417 -0.0251406 -0.0241095 -0.0217541 -0.0179752 -0.0134849 -0.00854537 -0.00507207 -0.00274532 -0.00137562 -0.000771499 -0.000541616 -0.000846813 -0.000546607 -0.000648989 -0.000495053 
-0.000563433 -0.000143587 -3.73064e-05 -8.57212e-05 -0.000703026 -0.000437137 -0.000890044 -0.00139656 -0.00353664 -0.00721607 -0.0127571 -0.0194772 -0.0266221 -0.0326255 -0.0363009 -0.0377865 -0.0363916 -0.0323414 -0.0264697 -0.0193742 -0.0127083 -0.00735006 -0.00330889 -0.00155307 -0.000689506 -0.000542587 -0.000751184 -0.000347328 -0.000296435 -0.000325763 0.00041743 0.000855551 0.00384471 0.0101892 0.0221393 0.0403286 0.0626406 0.0857911 0.105666 0.118708 0.123218 0.118603 0.105487 0.0858997 0.0627789 0.0403387 0.0221718 0.0103373 0.00385051 0.00102374 7.98515e-05 -0.000238571 -0.000196561 -0.000319348 -0.000388548 -0.000563573 -0.000762011 -0.00142195 -0.0034086 -0.00669635 -0.0119019 -0.0185308 -0.0252463 -0.0306466 -0.0348051 -0.0361718 -0.0345989 -0.0309072 -0.0250655 -0.0185024 -0.0117819 -0.00679164 -0.00315766 -0.00138372 -0.00069351 -0.000408881 -0.000295986 -0.000440447 -0.000189276 -0.000153727 -0.000522601 -0.000601275 -0.00094846 -0.00170067 -0.00362972 -0.00624575 -0.0100082 -0.0132926 -0.0162358 -0.0181883 -0.0187337 -0.0185459 -0.0163399 -0.0132081 -0.00982293 -0.00638063 -0.00387249 -0.00191426 -0.00110958 -0.000605529 -0.000817225 -0.000358184 -0.000468649 -0.00046072 -0.00052936 -0.000200462 -0.000297302 -0.000728976 -0.000939807 -0.00176812 -0.00275569 -0.00430011 -0.00601663 -0.00694168 -0.00779929 -0.00803784 -0.00800223 -0.00686458 -0.00585153 -0.00434138 -0.00291274 -0.00173863 -0.000967065 -0.000666503 -0.000313803 -0.000400784 -0.000204273 -0.000435244 6.72497e-05 -0.000189003 -0.000328444 -0.000358862 7.14822e-05 1.95665e-05 -9.23733e-07 0.000564441 0.0013432 0.00192501 0.00237702 0.00218996 0.00271876 0.00237915 0.00219892 0.00161606 0.00137204 0.000476818 -2.4822e-05 8.8102e-05 -0.00020313 -0.000420565 -0.000422767 -0.000304857 -0.000332816 -0.000517518 -0.000431834 -0.000374363 -0.000517506 -0.00106687 -0.00253218 -0.00477718 -0.00859924 -0.0132859 -0.0179047 -0.0219305 -0.0245298 -0.0252723 -0.0242295 -0.021829 -0.0179843 -0.0134225 -0.00842234 -0.00489054 -0.00252856 -0.0011415 -0.000531979 -0.000296972 -0.000595977 -0.000299799 -0.000396064 -0.000249995 
-0.000222147 0.000172982 0.00026542 0.000219959 -0.000360514 -0.000117272 -0.000540594 -0.00101524 -0.0030451 -0.00652808 -0.0117614 -0.018123 -0.0248754 -0.030557 -0.0340366 -0.0354372 -0.0341277 -0.0302891 -0.0247347 -0.0180227 -0.0117149 -0.00665247 -0.00282073 -0.00116636 -0.000343221 -0.000200932 -0.000404778 -2.74356e-05 2.16608e-05 4.59427e-06 0.000697579 0.00110424 0.00390707 0.00984681 0.0210406 0.0380885 0.0589864 0.0806691 0.0992992 0.111516 0.115741 0.111422 0.0991299 0.080779 0.0591116 0.0380912 0.0210731 0.00999038 0.00391196 0.00126232 0.00037926 7.31907e-05 0.000114488 4.42541e-06 -6.09845e-05 -0.000218387 -0.000390425 -0.00097391 -0.00275638 -0.00566906 -0.010317 -0.0162245 -0.0222006 -0.0269973 -0.0307174 -0.0319531 -0.030534 -0.0272455 -0.0220339 -0.0161904 -0.0102003 -0.00576656 -0.00250943 -0.000939807 -0.00033341 -7.34841e-05 2.86505e-05 -0.00011424 0.00012282 0.000160105 -0.000193516 -0.000266318 -0.000619151 -0.0013456 -0.00322042 -0.0057705 -0.00940731 -0.012612 -0.0154739 -0.0173692 -0.0178928 -0.0176944 -0.0155632 -0.0125302 -0.0092339 -0.00588436 -0.0034454 -0.00154928 -0.000758305 -0.000274624 -0.000462058 -3.7439e-05 -0.000133805 -0.000130634 -0.000192098 0.000109728 1.18048e-05 -0.000422537 -0.000677095 -0.00156914 -0.00266417 -0.00433806 -0.00616411 -0.00722339 -0.00815175 -0.00842014 -0.00833798 -0.00715622 -0.00601308 -0.00437465 -0.00282774 -0.00154402 -0.000709799 -0.000360174 -9.72672e-06 -7.94017e-05 0.000108677 -0.000106063 0.000361868 0.000114496 -1.76117e-05 -6.1149e-05 0.000283645 0.000116441 -0.000132634 4.7976e-05 0.00033517 0.000445181 0.000484294 5.33878e-05 0.000470726 0.000236508 0.000323645 0.000152505 0.000367676 -3.29547e-05 -0.000156444 0.000178007 2.82083e-05 -0.000118788 -0.00010505 1.45449e-05 -1.50836e-05 -0.000179548 -0.000107051 -4.65845e-05 -0.000174417 -0.000662694 -0.00197239 -0.00396999 -0.00738464 -0.0115746 -0.0156824 -0.0192731 -0.0215886 -0.0222476 -0.0213144 -0.0191868 -0.0157518 -0.0116905 -0.00721981 -0.00407505 -0.00196291 -0.000730345 -0.000182803 2.36202e-05 -0.00025019 2.418e-05 -6.90598e-05 7.02121e-05 
0.000274988 0.000630921 0.000707214 0.000664653 0.000146945 0.000361346 -1.76213e-05 -0.000444296 -0.00227829 -0.00542474 -0.0101426 -0.0158979 -0.0219886 -0.0271202 -0.0302631 -0.0315279 -0.0303466 -0.0268842 -0.0218623 -0.0158027 -0.0100982 -0.0055354 -0.00207474 -0.000580845 0.000162549 0.000292745 0.000112649 0.000446756 0.000486835 0.000478327 0.00109337 0.00144996 0.0039488 0.0092169 0.0191498 0.0342971 0.0528544 0.072102 0.0886569 0.0995009 0.103252 0.0994223 0.088506 0.0722084 0.052961 0.0342981 0.0191869 0.009345 0.00394695 0.00159544 0.000812359 0.000533214 0.000566172 0.00047856 0.00042009 0.000278372 0.000140657 -0.000352595 -0.00188093 -0.00435489 -0.00831906 -0.0133608 -0.0184528 -0.0225304 -0.0257109 -0.0267792 -0.0255568 -0.0227482 -0.0183028 -0.013323 -0.00821232 -0.00444568 -0.00165862 -0.000324826 0.000187189 0.000412842 0.000503329 0.000366599 0.000580664 0.000616526 0.000297165 0.000233458 -9.29567e-05 -0.000744841 -0.0024324 -0.00474329 -0.00801506 -0.0109144 -0.0134962 -0.0152038 -0.0156704 -0.0154883 -0.0135707 -0.0108334 -0.00785575 -0.00483057 -0.00263403 -0.000926435 -0.000205855 0.000223669 6.01458e-05 0.000440542 0.00035405 0.000353635 0.000295287 0.000561567 0.000455007 1.24888e-05 -0.000334581 -0.00136097 -0.00268066 -0.00461174 -0.00668175 -0.00800297 -0.00907788 -0.00940873 -0.00924253 -0.00794821 -0.0065467 -0.00464064 -0.00282962 -0.00133393 -0.000361617 6.92333e-05 0.000431585 0.000393653 0.000566234 0.000376407 0.000790827 0.000567403 0.000453884 0.000409499 0.000694421 0.000506735 0.000211428 0.000259659 0.000373713 0.000332447 0.00024334 -0.000228232 0.000122704 -6.65522e-05 0.000100103 7.09786e-05 0.000402851 0.00019118 0.000189095 0.000560311 0.000468193 0.000357353 0.000372629 0.000484377 0.000451662 0.000313147 0.000374596 0.000428472 0.000315561 -0.000117789 -0.00127056 -0.00305204 -0.00607845 -0.00980122 -0.0134378 -0.0166174 -0.0186697 -0.0192583 -0.0184305 -0.016546 -0.0134948 -0.00989148 -0.00592898 -0.00313809 -0.00126349 -0.000176806 0.000310752 0.000491507 0.000249954 0.000491729 0.000411008 0.000528937 
0.000882251 0.00118533 0.00123917 0.00120556 0.000766652 0.000939857 0.000610485 0.000214145 -0.00144038 -0.00426625 -0.00850472 -0.0137034 -0.0191737 -0.0237928 -0.0266405 -0.0277725 -0.0267172 -0.0236008 -0.0190694 -0.0136166 -0.0084662 -0.0043537 -0.00124979 9.3982e-05 0.000766164 0.000898898 0.000740095 0.00102256 0.00105772 0.00105948 0.00157098 0.00186182 0.00395226 0.00835352 0.0166478 0.0293033 0.0448016 0.060866 0.0747067 0.0837664 0.0868961 0.0837019 0.0745832 0.0609747 0.044888 0.0292998 0.0166734 0.00846263 0.00395029 0.00198279 0.00133526 0.00109128 0.00111428 0.00105654 0.00100548 0.0008848 0.000797918 0.000434253 -0.000728883 -0.00256837 -0.00556026 -0.00935235 -0.0131759 -0.0162202 -0.018627 -0.0194567 -0.0185086 -0.016402 -0.013048 -0.00931447 -0.00546334 -0.00265036 -0.00053045 0.000460419 0.000832342 0.00100851 0.00107221 0.000954785 0.00113091 0.00116675 0.000889127 0.000831443 0.000508976 -0.000103487 -0.00167606 -0.00384886 -0.00687003 -0.00960361 -0.0120225 -0.01361 -0.01405 -0.013844 -0.0120685 -0.00953166 -0.0067394 -0.00390703 -0.00184877 -0.000263117 0.000424849 0.000820416 0.00069951 0.0010199 0.000948864 0.000944462 0.000892038 0.00111833 0.00102259 0.000634312 0.000310198 -0.000628321 -0.00184662 -0.00361154 -0.00548546 -0.00671877 -0.0076981 -0.00801074 -0.00783822 -0.00667608 -0.00537452 -0.00363862 -0.00198606 -0.000607481 0.000274399 0.000683798 0.000995801 0.00097304 0.00112207 0.000965562 0.00131537 0.00110918 0.00102051 0.000971616 0.00116641 0.000923046 0.000511686 0.000300451 7.01562e-05 -0.00027845 -0.000632775 -0.00121654 -0.000983472 -0.00108538 -0.000751683 -0.000502742 0.00010062 0.000244656 0.000490511 0.00096821 0.000980297 0.000928017 0.000956497 0.00105261 0.00101786 0.000913326 0.000955 0.00101172 0.000910263 0.000558119 -0.00040089 -0.00188122 -0.00439268 -0.00748793 -0.0104928 -0.0131338 -0.0148298 -0.0153251 -0.0146419 -0.0130809 -0.0105431 -0.00755249 -0.00426556 -0.0019457 -0.000388624 0.000507727 0.000909024 0.00105961 0.000864702 0.00106504 0.00099946 0.00109149 
