0.000979931 0.000910977 0.000818274 0.00108499 0.00123081 0.00133656 0.0021475 0.00390261 0.00875788 0.0171543 0.0297211 0.0459324 0.0622049 0.0762843 0.0853644 0.088746 0.0855739 0.0761814 0.0621882 0.0457981 0.0300051 0.0169591 0.0083051 0.00389537 0.00204131 0.00112028 0.00112898 0.000954009 0.000896893 0.000981336 0.000864402 0.000746752 -5.91709e-05 -0.00171079 -0.00472083 -0.00947782 -0.015046 -0.0208359 -0.0260864 -0.0295318 -0.0305894 -0.0294526 -0.0261488 -0.0212447 -0.0151465 -0.00923493 -0.00456241 -0.00169176 7.30032e-06 0.000746138 0.000904715 0.00128782 0.00108656 0.000793233 0.000954618 0.00102541 0.000803992 0.000348906 -0.000355782 -0.00223142 -0.00459486 -0.00786426 -0.0111314 -0.0138022 -0.0156483 -0.0161078 -0.0156923 -0.0137558 -0.0110703 -0.007871 -0.00468729 -0.00206143 -0.000639776 0.000440934 0.00108116 0.000868541 0.00111914 0.00124058 0.00102211 0.000901882 0.00107113 0.00101249 0.000912771 -2.5281e-05 -0.000798593 -0.00228199 -0.00404485 -0.00591042 -0.00733953 -0.00870533 -0.00890804 -0.008357 -0.00765856 -0.00591495 -0.00409817 -0.00232527 -0.000599106 4.1129e-05 0.000780992 0.000942627 0.00104525 0.00104311 0.000979732 0.00122302 0.00101318 0.00093118 0.000890083 0.000958273 0.000604952 -0.000111443 -0.00106334 -0.00200778 -0.00314358 -0.00403411 -0.00483478 -0.00499138 -0.00471187 -0.0043032 -0.00321517 -0.00193238 -0.000894804 -0.000144486 0.000694267 0.000757859 0.00114708 0.00123394 0.00118874 0.000955451 0.000862609 0.00136167 0.00104703 0.000960165 0.00118926 0.0013133 0.00156671 0.00161698 0.00216738 0.00239787 0.00269205 0.00307115 0.00304161 0.00295633 0.00270926 0.00240893 0.00194771 0.00169782 0.0015629 0.00107411 0.00111979 0.00111369 0.000989827 0.00112789 0.00115742 0.00121349 0.00119445 0.000954957 0.000935049 7.34735e-05 -0.00151972 -0.00443416 -0.00887333 -0.0146062 -0.0205167 -0.025441 -0.0287368 -0.0298137 -0.0285383 -0.025278 -0.0202119 -0.014651 -0.00905623 -0.00462664 -0.00171622 -5.36045e-05 0.000577515 0.00092203 0.000875589 0.000968015 0.00111355 0.00108904 
0.00109187 0.00102404 0.000929534 0.00119751 0.0013433 0.00145039 0.00226462 0.00403056 0.00890773 0.0173451 0.0299748 0.0462676 0.0626212 0.0767702 0.085895 0.0892951 0.0861049 0.076668 0.0626034 0.0461341 0.0302602 0.0171485 0.00845523 0.00402252 0.00215951 0.00123346 0.00124097 0.00106565 0.00100786 0.00109637 0.000977268 0.000859444 5.22883e-05 -0.00160149 -0.00461356 -0.00937491 -0.0149488 -0.0207448 -0.0259993 -0.0294465 -0.0305055 -0.029369 -0.0260628 -0.0211548 -0.0150505 -0.00913135 -0.00445354 -0.00158132 0.000121189 0.000858937 0.00101735 0.00140038 0.0011994 0.000904221 0.00106656 0.00113878 0.00091444 0.00045454 -0.000261001 -0.00215561 -0.0045503 -0.00785519 -0.0111602 -0.0138606 -0.0157293 -0.0161988 -0.0157744 -0.0138171 -0.0110975 -0.00786192 -0.00464192 -0.00198633 -0.000543324 0.000547346 0.00119143 0.000980247 0.00123262 0.00135377 0.00113472 0.00101386 0.00118261 0.00112618 0.00102168 7.82504e-05 -0.000704628 -0.00220462 -0.00398554 -0.00586978 -0.00731557 -0.00869395 -0.00889725 -0.00834244 -0.00763448 -0.00587504 -0.00403787 -0.00224609 -0.000504131 0.00014367 0.000889081 0.0010546 0.00115832 0.00115472 0.00109305 0.00133729 0.00112751 0.00104353 0.00100313 0.00107214 0.000719362 2.82834e-06 -0.000946327 -0.0018893 -0.00302217 -0.00391241 -0.00471251 -0.00486748 -0.00458816 -0.0041823 -0.00309567 -0.00181428 -0.000780901 -3.07811e-05 0.000808129 0.000871315 0.00125931 0.0013465 0.00130179 0.00106758 0.000974947 0.0014751 0.00115589 0.00106299 0.00127577 0.00136265 0.00154054 0.00147636 0.00188667 0.00197464 0.00214563 0.00244464 0.00238939 0.00233069 0.00216605 0.00198623 0.00166838 0.00155776 0.00153644 0.0011203 0.00120648 0.00121736 0.00109917 0.00124039 0.00126909 0.00132751 0.0013061 0.00106677 0.00104792 0.000184759 -0.00140838 -0.00432306 -0.00876512 -0.0144998 -0.0204126 -0.0253408 -0.0286374 -0.029715 -0.028438 -0.0251767 -0.0201066 -0.0145435 -0.0089478 -0.00451731 -0.00160448 5.86319e-05 0.000689706 0.00103458 0.000989176 0.00108071 0.0012262 0.00120399 
0.00107333 0.00100403 0.000907882 0.00117551 0.00132147 0.00142527 0.00224237 0.00401587 0.00890983 0.0173711 0.0300448 0.0463925 0.0627981 0.0769921 0.086146 0.0895603 0.0863535 0.0768949 0.0627804 0.0462589 0.0303296 0.0171744 0.00845804 0.00401161 0.00214259 0.00121392 0.00121891 0.00104127 0.000985658 0.00107685 0.000957866 0.000837717 3.07549e-05 -0.0016267 -0.00463514 -0.00939141 -0.0149676 -0.0207602 -0.0260118 -0.02946 -0.0305209 -0.0293836 -0.0260784 -0.0211737 -0.015072 -0.00915361 -0.00447316 -0.00160097 9.83248e-05 0.000838018 0.000993067 0.00137644 0.00118067 0.000881395 0.00104201 0.00112136 0.000891881 0.000430288 -0.000292199 -0.00218665 -0.00459534 -0.00791179 -0.0112253 -0.0139337 -0.0158137 -0.0162868 -0.0158602 -0.0138934 -0.0111657 -0.00791584 -0.00468777 -0.0020211 -0.000567507 0.00051881 0.00116395 0.000957582 0.0012121 0.00132952 0.00111426 0.000992759 0.00116109 0.00109976 0.00098977 3.56967e-05 -0.000768018 -0.00230118 -0.00411891 -0.00604472 -0.00752561 -0.00892773 -0.0091356 -0.00857219 -0.00784635 -0.00605084 -0.00417271 -0.00234161 -0.000565966 0.000101562 0.000859013 0.00102918 0.00113747 0.00113057 0.00107232 0.00131619 0.00110984 0.00102044 0.000977504 0.00103263 0.000654864 -0.000106485 -0.00112129 -0.00216027 -0.00338053 -0.00434974 -0.0052013 -0.00536998 -0.00507308 -0.00461876 -0.00345719 -0.00208329 -0.000964585 -0.000139611 0.000743188 0.000834962 0.00123297 0.00132273 0.00127722 0.00104498 0.000948416 0.00145198 0.00112935 0.00103524 0.00122694 0.00127476 0.00137558 0.00119535 0.00146155 0.0014054 0.00145147 0.00166645 0.00158888 0.00155876 0.00147585 0.00141728 0.00124307 0.00127612 0.00137176 0.00103188 0.00115845 0.00118861 0.00107503 0.00121876 0.00125054 0.001308 0.00128768 0.00104719 0.00104111 0.000206298 -0.00131222 -0.00409447 -0.00833149 -0.0138158 -0.0194702 -0.0241757 -0.0273289 -0.0283562 -0.0271297 -0.0240145 -0.0191589 -0.0138573 -0.00851828 -0.00428981 -0.00150501 8.33565e-05 0.000686607 0.00101482 0.000971305 0.00106025 0.00120077 0.00118382 
0.000939954 0.000873268 0.000778808 0.00104796 0.00118691 0.00129053 0.00210317 0.00386469 0.00872967 0.0171349 0.02972 0.0459648 0.0622609 0.0763621 0.0854592 0.0888483 0.0856629 0.0762685 0.0622438 0.0458291 0.0300086 0.0169374 0.00827612 0.00385758 0.00200591 0.00108178 0.00108286 0.000908961 0.000856117 0.000942111 0.000834012 0.000720812 -5.83462e-05 -0.00164717 -0.00453226 -0.00909739 -0.0144392 -0.0199887 -0.0250343 -0.0283465 -0.0293627 -0.0282686 -0.0251036 -0.0204015 -0.0145416 -0.0088591 -0.00437264 -0.00161975 7.99633e-06 0.000720259 0.000865728 0.00124757 0.00105099 0.000750165 0.00091098 0.000989334 0.000763277 0.000304937 -0.000405727 -0.00227633 -0.00464948 -0.0079278 -0.0111972 -0.0138708 -0.0157288 -0.0161906 -0.0157732 -0.0138307 -0.0111393 -0.00793099 -0.00474321 -0.00211029 -0.000679567 0.000395338 0.00103746 0.000826278 0.00108064 0.00119676 0.000983193 0.000862873 0.0010286 0.000961862 0.000851431 -0.000109797 -0.000932051 -0.00248586 -0.00433739 -0.00629596 -0.00780201 -0.00922096 -0.00943637 -0.00886908 -0.00812374 -0.00630096 -0.00439338 -0.00252969 -0.000731262 -4.42438e-05 0.000722287 0.000893664 0.00100066 0.000998119 0.000937285 0.00118186 0.000974683 0.000890186 0.000846628 0.000899742 0.000521257 -0.000239869 -0.00125904 -0.00230328 -0.00353005 -0.00449537 -0.00535121 -0.00552268 -0.00522727 -0.00476917 -0.0036033 -0.00222374 -0.00110284 -0.000276972 0.000610751 0.000701577 0.00110431 0.00119183 0.00114976 0.00091128 0.000819501 0.00132308 0.00100035 0.00090773 0.00111607 0.00118199 0.00132721 0.00121995 0.0015738 0.00160609 0.00172625 0.00198589 0.0019253 0.00187958 0.00174312 0.00161208 0.0013537 0.00129953 0.00132376 0.000941357 0.00104127 0.00106207 0.000942735 0.00108853 0.00112239 0.00117477 0.00115686 0.00091584 0.000906533 6.29103e-05 -0.00148201 -0.00430393 -0.0086043 -0.0141735 -0.0199086 -0.0246839 -0.0278835 -0.0289252 -0.0276825 -0.0245221 -0.0195959 -0.0142178 -0.00879219 -0.00450102 -0.00167624 -6.31007e-05 0.00054996 0.000883414 0.000835421 0.000930062 0.00106932 0.00105275 
0.000762212 0.00069506 0.000603492 0.000870627 0.00100602 0.00110717 0.00191924 0.00368662 0.00856366 0.016972 0.0295689 0.0458402 0.0621523 0.0762637 0.0853798 0.088771 0.0855772 0.0761838 0.0621353 0.0457002 0.0298583 0.0167704 0.00810081 0.00368008 0.00183025 0.000902365 0.000901449 0.000726923 0.00067776 0.000760068 0.000660025 0.000556059 -0.000197961 -0.00173318 -0.00450786 -0.00889593 -0.0140316 -0.0193615 -0.0242211 -0.0274161 -0.0283946 -0.0273357 -0.0242981 -0.019781 -0.014136 -0.00866194 -0.00434216 -0.00169862 -0.000133662 0.000555816 0.000686813 0.00106736 0.000878884 0.00056885 0.000730699 0.000817546 0.000579443 0.000109586 -0.000629903 -0.00253589 -0.00497171 -0.00833387 -0.0116831 -0.0144294 -0.0163428 -0.0168144 -0.0163844 -0.0143922 -0.0116316 -0.00833559 -0.0050715 -0.00237288 -0.000898632 0.000195266 0.000848602 0.00064335 0.000906156 0.00101201 0.000808549 0.000687624 0.000854659 0.000786412 0.000698784 -0.000213743 -0.000944098 -0.00235977 -0.00404197 -0.00582637 -0.00718102 -0.0085047 -0.00868497 -0.00815085 -0.00750672 -0.00583117 -0.00409661 -0.00240623 -0.000741518 -0.000143354 0.000575244 0.000720503 0.000820966 0.00081445 0.000755873 0.0010008 0.000800058 0.000708821 0.000660091 0.000688372 0.000258518 -0.000581145 -0.00172658 -0.00294411 -0.00433807 -0.00543977 -0.006392 -0.00659344 -0.00626658 -0.00571979 -0.00441016 -0.00285477 -0.00157519 -0.000621741 0.000358707 0.000492207 0.00091787 0.0010103 0.000973511 0.000728974 0.000635076 0.00115142 0.000819787 0.000722434 0.000917059 0.00094048 0.00101039 0.000799023 0.00102196 0.000919423 0.000922064 0.00110035 0.00102007 0.00100566 0.000936456 0.00092339 0.000800771 0.00087872 0.0010082 0.000700254 0.000834632 0.000876178 0.000756649 0.000911787 0.00095231 0.000996875 0.000982596 0.0007347 0.000740266 -8.86797e-05 -0.00157863 -0.00430903 -0.00847051 -0.0138705 -0.019432 -0.0240521 -0.0271568 -0.0281615 -0.0269538 -0.0238917 -0.0191109 -0.0139142 -0.00866131 -0.00451207 -0.00177368 -0.00021062 0.000386849 0.000709539 0.000656563 0.000752327 0.000883878 0.00087703 
0.000565241 0.00049954 0.000405655 0.000676649 0.00080098 0.000894363 0.00170363 0.00345842 0.00829974 0.0166333 0.0291222 0.0452711 0.0614434 0.0754384 0.0844825 0.087848 0.0846683 0.0753698 0.061427 0.0451263 0.0294172 0.0164319 0.00783944 0.00345056 0.00162775 0.000705897 0.000692554 0.000520725 0.000480489 0.0005604 0.00047597 0.0003771 -0.000337918 -0.00177791 -0.00436922 -0.00847595 -0.0132789 -0.0182555 -0.0228134 -0.0258139 -0.0267321 -0.0257344 -0.0228996 -0.0186771 -0.013384 -0.00825002 -0.00420738 -0.00173237 -0.000276728 0.000376289 0.000489932 0.000867586 0.000684999 0.000367784 0.000527557 0.000625359 0.000390079 -6.35866e-05 -0.000762007 -0.00256675 -0.00487729 -0.00807757 -0.0112467 -0.0138496 -0.0156743 -0.0161141 -0.0157171 -0.0138172 -0.011204 -0.00807248 -0.00497896 -0.00240956 -0.00101503 1.96353e-05 0.000655181 0.000445209 0.000707035 0.000807533 0.000608537 0.000491354 0.000650294 0.000566181 0.000456132 -0.000502395 -0.00133784 -0.00289949 -0.00476668 -0.00674781 -0.00826399 -0.00969431 -0.0099067 -0.0093372 -0.00859217 -0.00675283 -0.00482865 -0.00294702 -0.00113413 -0.000434776 0.000339761 0.000503462 0.000614627 0.000607689 0.000552614 0.000797589 0.000601527 0.000508966 0.000458762 0.000469896 2.00633e-05 -0.000858409 -0.00206522 -0.00337907 -0.00485633 -0.00602266 -0.00702757 -0.00724335 -0.00690182 -0.00631004 -0.00492825 -0.00328382 -0.00193172 -0.000906733 0.000115673 0.000279548 0.000718593 0.000808286 0.000776637 0.000524544 0.000431985 0.000949292 0.000613205 0.000513144 0.000691135 0.000661907 0.000640846 0.000299982 0.000355103 8.89812e-05 -5.73542e-05 1.62484e-05 -8.93671e-05 -6.70296e-05 -4.68368e-05 8.27273e-05 0.000131896 0.000376247 0.00063983 0.000422628 0.000601542 0.000668089 0.00055005 0.000712757 0.000760494 0.000798385 0.000787367 0.000539933 0.000557723 -0.000237064 -0.00165079 -0.00423029 -0.00816247 -0.0132951 -0.0185655 -0.022941 -0.025887 -0.0268359 -0.0256837 -0.0227862 -0.0182353 -0.013339 -0.00836213 -0.00443819 -0.00184075 -0.000359566 0.000206948 0.000511759 0.000456971 0.000558 0.000679841 0.0006813 
0.00046488 0.000399682 0.000310319 0.000567523 0.000682423 0.000762635 0.0015248 0.00317552 0.00773455 0.0155652 0.0273026 0.0424966 0.0576994 0.0708532 0.0793595 0.0825265 0.0795257 0.0708017 0.0576813 0.0423536 0.0275824 0.0153729 0.00729525 0.00316985 0.0014629 0.000596991 0.000577654 0.000413712 0.00038261 0.000456506 0.000380741 0.000292432 -0.000378477 -0.00171809 -0.0041187 -0.00792164 -0.0123775 -0.016988 -0.0212168 -0.0240035 -0.0248612 -0.023928 -0.0213061 -0.0173917 -0.0124796 -0.00771572 -0.00396519 -0.00166553 -0.000321027 0.00028809 0.000386864 0.000743724 0.00058058 0.000272082 0.000423566 0.00052837 0.000300804 -0.000124472 -0.000770993 -0.00242889 -0.00456076 -0.00751685 -0.0104337 -0.0128379 -0.0145271 -0.014925 -0.0145676 -0.0128107 -0.0104022 -0.00750884 -0.00466221 -0.00228445 -0.000999099 -4.98628e-05 0.000543703 0.000346048 0.000596762 0.000684389 0.00050324 0.000392593 0.000543335 0.000456341 0.000356118 -0.000536936 -0.00130974 -0.00275598 -0.00448131 -0.00632256 -0.00772455 -0.00905713 -0.00924886 -0.0087134 -0.00803483 -0.00633056 -0.00454547 -0.00280198 -0.00111372 -0.000470259 0.000253603 0.00040051 0.000509142 0.000494387 0.000446848 0.000679448 0.000501823 0.000406488 0.000358739 0.000358334 -8.99032e-05 -0.000944885 -0.00213382 -0.00345241 -0.00490981 -0.00606557 -0.007055 -0.00726942 -0.00693437 -0.00634431 -0.00498025 -0.00335413 -0.00202043 -0.000998515 4.35354e-06 0.000181772 0.000603333 0.000688299 0.000662292 0.000418865 0.000327198 0.000826246 0.000498953 0.000396678 0.000532578 0.000426216 0.000262531 -0.000271979 -0.00049034 -0.00101082 -0.00138541 -0.00147204 -0.00162135 -0.00153978 -0.00137616 -0.00102063 -0.000700573 -0.000200082 0.000262728 0.000199882 0.000441424 0.000544189 0.000439049 0.00060134 0.00065484 0.000684711 0.000675085 0.00043815 0.000472074 -0.000246936 -0.00149557 -0.00377339 -0.00724756 -0.0118051 -0.0164817 -0.0203546 -0.0229702 -0.0238075 -0.0227806 -0.0202123 -0.0161599 -0.011845 -0.00744403 -0.00397578 -0.00167133 -0.000358949 0.000144525 0.00041518 0.000363227 0.000457745 0.000563616 0.000575533 
0.00049649 0.000438118 0.000358254 0.000588966 0.00068735 0.000753557 0.00142583 0.00287734 0.00690187 0.0137941 0.0241226 0.0375125 0.050897 0.0624796 0.0699731 0.0727632 0.0701143 0.0624433 0.0508805 0.0373813 0.0243758 0.0136209 0.00650369 0.00287433 0.00137645 0.000612077 0.000592816 0.000446735 0.000424373 0.000485338 0.000424656 0.000351111 -0.00023719 -0.00140177 -0.00348197 -0.00677646 -0.010638 -0.0146305 -0.0183022 -0.0207234 -0.0214718 -0.0206541 -0.0183885 -0.0149934 -0.0107306 -0.00659645 -0.00334478 -0.00134766 -0.000186934 0.000344552 0.000424511 0.000743612 0.000603055 0.000322091 0.000457318 0.000557261 0.000348749 -3.69972e-05 -0.000621563 -0.00210227 -0.00401647 -0.00667219 -0.0092886 -0.0114503 -0.0129714 -0.0133246 -0.0130055 -0.0114268 -0.00926515 -0.00666395 -0.00411247 -0.00197366 -0.000818679 2.79956e-05 0.000561696 0.000387015 0.00061439 0.000686978 0.000531323 0.000432255 0.000568647 0.000482403 0.000399318 -0.000389123 -0.00106195 -0.00232808 -0.00383713 -0.00545374 -0.00667861 -0.00785062 -0.00801722 -0.00754289 -0.00695622 -0.00546184 -0.00389787 -0.00237214 -0.000887737 -0.00032606 0.000311935 0.000436491 0.000534033 0.000518869 0.000475654 0.000686053 0.000530102 0.000442846 0.000397586 0.000385413 -4.13959e-05 -0.000838166 -0.00195995 -0.00322337 -0.00460166 -0.00569577 -0.00662658 -0.00683297 -0.00651944 -0.00595073 -0.00466402 -0.00312818 -0.00186489 -0.000891224 4.94005e-05 0.000228242 0.000616577 0.000692805 0.000673938 0.000450841 0.000368089 0.000823253 0.000524731 0.000429882 0.000543562 0.000418026 0.000223836 -0.000320524 -0.000602443 -0.0011551 -0.0015659 -0.00169707 -0.00184595 -0.00175165 -0.00156291 -0.00116711 -0.000791541 -0.000256121 0.000225188 0.000217576 0.000454659 0.000561938 0.000468467 0.000619234 0.000673455 0.000692957 0.000687863 0.000470788 0.000511833 -0.000118497 -0.00119621 -0.00316096 -0.00615917 -0.010106 -0.014153 -0.0174982 -0.0197621 -0.0204839 -0.0195938 -0.017371 -0.0138598 -0.0101424 -0.00633911 -0.00334488 -0.00135276 -0.000216099 0.000220198 0.000454948 0.000405456 0.000491276 0.000579841 0.000596254 
0.00071461 0.000668946 0.000601589 0.000795854 0.000871607 0.000923727 0.0014716 0.0026494 0.00593935 0.0115491 0.0199491 0.0308602 0.0417534 0.051187 0.0572919 0.0595635 0.0574045 0.0511615 0.0417422 0.0307483 0.0201676 0.0114025 0.00559885 0.00265061 0.00143256 0.000806826 0.000794699 0.000673775 0.000657607 0.000701436 0.000660406 0.000602074 0.000128542 -0.000808744 -0.00247785 -0.00511842 -0.00820934 -0.0114074 -0.0143566 -0.0163073 -0.0169106 -0.0162439 -0.0144342 -0.0117108 -0.0082879 -0.00496808 -0.00236225 -0.000759203 0.000165242 0.000597694 0.000656321 0.000923346 0.000805862 0.000570596 0.000682576 0.000765166 0.000589857 0.00025903 -0.000243743 -0.00150018 -0.0031314 -0.00540138 -0.0076343 -0.00948201 -0.0107819 -0.01108 -0.0108076 -0.00945766 -0.00761425 -0.00539258 -0.00321621 -0.00139027 -0.000406254 0.000312071 0.000767079 0.000622586 0.000816499 0.000871321 0.000746977 0.000663351 0.000779188 0.000694414 0.000629459 -3.94244e-05 -0.000609622 -0.00169107 -0.00297603 -0.00435702 -0.00540117 -0.00639416 -0.00654025 -0.00613965 -0.00563491 -0.00436019 -0.00302815 -0.00172884 -0.00046912 1.57816e-05 0.000558588 0.000662517 0.000742574 0.000736888 0.000692673 0.000872611 0.000738822 0.000669028 0.000619595 0.000580901 0.00015787 -0.000619589 -0.00173151 -0.00301502 -0.00439281 -0.00548983 -0.00639582 -0.0066145 -0.0063108 -0.00570804 -0.00444126 -0.00292873 -0.00165145 -0.00066343 0.000243034 0.000449368 0.000805268 0.000876809 0.000866242 0.000673159 0.000605788 0.000995336 0.000744134 0.000669996 0.0007861 0.000712097 0.000621172 0.000281102 0.000190633 -0.00013156 -0.000351415 -0.000387757 -0.00048314 -0.000434563 -0.000360039 -0.000145375 2.58523e-05 0.000336444 0.000623531 0.000547026 0.000704103 0.000780184 0.000693467 0.000821187 0.000870763 0.000879322 0.000881745 0.000691908 0.00073091 0.000197464 -0.000708794 -0.00236692 -0.00488955 -0.00822144 -0.0116333 -0.0144475 -0.0163556 -0.0169645 -0.0162142 -0.0143387 -0.0113824 -0.00825316 -0.00504292 -0.00251865 -0.000843555 0.000115976 0.000485331 0.00068407 0.000636407 0.000710736 0.00078328 0.00079521 
0.00102621 0.000990195 0.000939091 0.00108271 0.00113594 0.00116539 0.00154377 0.00234471 0.00462471 0.0084841 0.0142524 0.0217772 0.0292661 0.035762 0.0399597 0.0415324 0.0400331 0.0357548 0.0292579 0.0216934 0.0144089 0.00837769 0.00437471 0.00235648 0.00151879 0.0010876 0.00108047 0.000991674 0.000987554 0.00101531 0.000983863 0.000940808 0.000575843 -0.000130721 -0.0013837 -0.003371 -0.00570585 -0.00812004 -0.0103443 -0.0118083 -0.0122726 -0.0117651 -0.0104056 -0.00834212 -0.00576597 -0.00326906 -0.00130362 -8.44543e-05 0.000607337 0.000931009 0.000974066 0.00117133 0.00109468 0.000918619 0.00099648 0.00106485 0.00092151 0.000653028 0.000231356 -0.000769194 -0.00210826 -0.00393853 -0.00575388 -0.00726029 -0.00831571 -0.00856415 -0.00832991 -0.00724451 -0.00574105 -0.00393574 -0.00217496 -0.00068919 0.000126372 0.000689567 0.00104192 0.000951025 0.00109463 0.0011328 0.00104849 0.000983384 0.0010761 0.00099985 0.00095329 0.000456911 3.11616e-05 -0.000780664 -0.00173754 -0.0027754 -0.00356405 -0.00429957 -0.00441738 -0.00411478 -0.00372926 -0.00278358 -0.00178288 -0.000813319 0.000127929 0.000500426 0.000899289 0.00098483 0.00104626 0.00103884 0.00100569 0.00114159 0.00104827 0.000993298 0.000962037 0.000947 0.00065907 0.000158171 -0.000566125 -0.0014088 -0.00229714 -0.00300946 -0.00360919 -0.00374398 -0.00354747 -0.00316529 -0.00233734 -0.00134155 -0.000518087 0.000121668 0.000726266 0.000851378 0.00109581 0.00113879 0.00113161 0.00099057 0.000938878 0.00123413 0.00103981 0.000981036 0.00104018 0.000926321 0.000752017 0.00034378 7.46026e-05 -0.000366501 -0.000698231 -0.000839777 -0.000950733 -0.000870495 -0.00070625 -0.000374406 -4.42585e-05 0.000384721 0.000754561 0.000808212 0.000976167 0.00106066 0.0010082 0.0011026 0.00114857 0.00114579 0.00115105 0.00100665 0.00105308 0.000693926 0.000110215 -0.00094663 -0.00256127 -0.00470943 -0.00691775 -0.00872698 -0.00995772 -0.010347 -0.00985871 -0.00864523 -0.00673323 -0.00473651 -0.00267724 -0.00105793 1.71461e-05 0.000641335 0.000877682 0.00100984 0.000975669 0.00102321 0.00106919 0.00108518 
0.0014079 0.00138061 0.00134315 0.00143912 0.00147978 0.00149176 0.00172957 0.00222522 0.00368339 0.00611306 0.0097406 0.0144938 0.0192107 0.0233085 0.025954 0.0269515 0.0259978 0.0233115 0.0192056 0.0144355 0.00984619 0.00604032 0.00350265 0.00224652 0.00171449 0.00144111 0.0014476 0.00138168 0.00138055 0.00139553 0.00136848 0.00133482 0.00105065 0.000488147 -0.000506047 -0.00206388 -0.00391535 -0.00583165 -0.00757895 -0.00873082 -0.00910716 -0.00869644 -0.00762354 -0.00598441 -0.00396137 -0.00200072 -0.000445718 0.000526048 0.00106996 0.00132517 0.00136025 0.00149822 0.00145222 0.00133315 0.00138352 0.0014343 0.001327 0.00112055 0.000788805 3.87724e-05 -0.000985896 -0.00237536 -0.00376243 -0.00491682 -0.00571815 -0.00591079 -0.00572756 -0.00490065 -0.00375404 -0.0023747 -0.00103939 9.5089e-05 0.000722632 0.00113999 0.00139804 0.00134885 0.00145307 0.00147112 0.00142343 0.00137397 0.00144912 0.0013875 0.00137602 0.00107008 0.000860867 0.000404198 -0.000107942 -0.00068698 -0.00111196 -0.00153481 -0.00159479 -0.00140723 -0.0012203 -0.000692013 -0.000140505 0.00038367 0.000922249 0.00110868 0.00134328 0.00138468 0.00142483 0.00141663 0.00138951 0.00148635 0.00142355 0.00137835 0.00134571 0.00130475 0.0010267 0.00056572 -0.000123182 -0.000957976 -0.00180927 -0.00251167 -0.00306108 -0.00320264 -0.00301814 -0.00261912 -0.00183864 -0.000902529 -9.14746e-05 0.000542186 0.00108866 0.00123929 0.00143395 0.0014747 0.0014732 0.00137781 0.00133469 0.00155433 0.00141565 0.00137377 0.00139845 0.00129149 0.00112708 0.000779828 0.000510103 0.000118341 -0.000178162 -0.000324305 -0.000417317 -0.000344725 -0.000187617 0.000119292 0.000426761 0.000812834 0.00113013 0.00121406 0.00135002 0.00142618 0.00139339 0.00145969 0.00149802 0.00149003 0.00149855 0.00138704 0.00143849 0.00121244 0.000887524 0.000278672 -0.000640373 -0.00188183 -0.00316703 -0.00419964 -0.00491218 -0.00513629 -0.0048506 -0.00414266 -0.00303476 -0.00189714 -0.000721723 0.000207481 0.000822756 0.00118564 0.00132305 0.00140232 0.0013785 0.0014018 0.00142948 0.00144139 
0.0016803 0.00166513 0.0016396 0.00170624 0.0017276 0.00173382 0.00186673 0.00213481 0.00298715 0.00436459 0.00640345 0.00911895 0.0117835 0.0141166 0.0156165 0.0161899 0.0156405 0.0141281 0.0117849 0.00907868 0.00647593 0.00431296 0.00285582 0.00216278 0.00185497 0.00169511 0.00170884 0.00166684 0.00166992 0.00167149 0.00165888 0.00163794 0.00144755 0.0010787 0.000434546 -0.00057979 -0.00178128 -0.00302869 -0.00417455 -0.00492512 -0.00517671 -0.00490059 -0.00420995 -0.00313398 -0.001814 -0.00053878 0.000475375 0.00111206 0.00146168 0.00162864 0.00164636 0.0017439 0.00171651 0.00163314 0.0016631 0.00169581 0.00160309 0.00141021 0.00106955 0.000354163 -0.000659455 -0.00200408 -0.00336688 -0.00449946 -0.00528159 -0.00548232 -0.00527906 -0.00448628 -0.00335515 -0.00200923 -0.000701736 0.000397559 0.00103089 0.00142208 0.00164682 0.00163338 0.00171171 0.00172132 0.00169817 0.00165781 0.00171906 0.00166084 0.00166518 0.00145008 0.00131948 0.00100491 0.000660145 0.000267362 -2.31074e-05 -0.000306909 -0.000356711 -0.000228498 -9.55539e-05 0.000262232 0.000636068 0.000983568 0.00134916 0.0014807 0.00163491 0.00166954 0.00169128 0.00169423 0.00166489 0.00173912 0.0016933 0.00166603 0.00163899 0.00160712 0.00139744 0.00107392 0.00057956 -3.20109e-05 -0.000643493 -0.00114944 -0.00154215 -0.00164376 -0.00151853 -0.00121803 -0.000663829 1.02803e-05 0.000602341 0.00106003 0.00145345 0.00156002 0.00169981 0.00172522 0.00172702 0.00165805 0.00163215 0.00179669 0.00169289 0.00166823 0.00170075 0.00164504 0.00157791 0.00141748 0.001333 0.00115391 0.00104064 0.000990579 0.000945385 0.00097378 0.00102448 0.00115685 0.00127222 0.00144235 0.00158111 0.00159702 0.00165912 0.00170187 0.00167899 0.00172193 0.00175654 0.0017385 0.00175286 0.00166391 0.00171094 0.00155328 0.00133907 0.000940195 0.000336515 -0.000480449 -0.00133872 -0.00201645 -0.00248589 -0.00263174 -0.00244269 -0.00196873 -0.00124797 -0.000497997 0.000281414 0.000894799 0.00129288 0.0015407 0.00163183 0.00168799 0.00166515 0.00167777 0.00169391 0.00170349 
0.00407385 0.00409191 0.00405747 0.00408519 0.00409157 0.00411234 0.00411206 0.00409977 0.00416308 0.00425789 0.00436878 0.00450385 0.00463712 0.00482045 0.00486336 0.00492967 0.00489561 0.00478167 0.004663 0.00452786 0.00438963 0.00424825 0.00415212 0.00415492 0.00407878 0.00406538 0.00410941 0.00409596 0.00407649 0.00409784 0.00407008 0.0039981 0.00386102 0.00349245 0.00284902 0.00181869 0.00059389 -0.000705122 -0.00181797 -0.00254694 -0.00278832 -0.00254211 -0.00181183 -0.000710123 0.000580382 0.00183455 0.00286484 0.00350013 0.00386382 0.00401435 0.00406413 0.00410209 0.00406293 0.00407987 0.00406718 0.00403178 0.00399699 0.00383116 0.00346092 0.00271948 0.00161787 0.000246238 -0.00121765 -0.00236884 -0.00315735 -0.00344724 -0.00316211 -0.00234912 -0.00114923 0.000232829 0.00162654 0.00274431 0.00345152 0.00383344 0.00401318 0.00406519 0.0040849 0.00410482 0.00408858 0.0040574 0.0040899 0.0040283 0.00391447 0.00352115 0.00295158 0.00194903 0.000790662 -0.000419998 -0.00146599 -0.00215609 -0.00238476 -0.0021508 -0.00147514 -0.000409505 0.000794461 0.00196522 0.0029163 0.00351488 0.00386094 0.0040438 0.004072 0.00413494 0.00408543 0.00412542 0.004059 0.00407619 0.0040269 0.00396449 0.00375834 0.00335098 0.0027931 0.00207977 0.0013629 0.000722472 0.000322485 0.000184026 0.000319611 0.000751961 0.0013449 0.0020634 0.0028137 0.00340287 0.0037697 0.00393823 0.00404509 0.00408347 0.00406899 0.00407757 0.00408222 0.00411808 0.00409779 0.00412652 0.0041906 0.00435719 0.00465916 0.00507571 0.00567455 0.00621189 0.00674209 0.00706378 0.0071762 0.00700219 0.00673844 0.00624019 0.00564182 0.00509395 0.0046553 0.0043431 0.00420596 0.00412688 0.0041298 0.0040956 0.00408857 0.00410082 0.00411394 0.00407049 0.0040753 0.00398339 0.00381119 0.00346958 0.00298992 0.00237849 0.00172734 0.00119605 0.000854149 0.000725821 0.000871498 0.00123024 0.00173217 0.00237494 0.00299324 0.00350423 0.00379256 0.0039858 0.00404267 0.00408851 0.00408615 0.00406295 0.00410217 0.00405613 
0.00203184 0.00202293 0.00200442 0.00204108 0.0020522 0.00204278 0.00206356 0.00206725 0.00222663 0.0024157 0.00265479 0.00304285 0.00338435 0.00371594 0.00390626 0.00399568 0.00390849 0.00371879 0.00338793 0.00302293 0.00269295 0.00239629 0.00215773 0.00209883 0.00205036 0.00202673 0.0020508 0.00202807 0.00203437 0.00202091 0.00201015 0.00198766 0.00183768 0.00154307 0.00100959 0.000180045 -0.000811642 -0.00185445 -0.00278022 -0.00338691 -0.00360286 -0.00336726 -0.00279827 -0.00189503 -0.000830685 0.000197668 0.00101935 0.00156263 0.00184086 0.0019773 0.00200358 0.00205707 0.00204169 0.00201371 0.00202238 0.00203233 0.00198982 0.00187925 0.00169528 0.00131632 0.000769495 4.7845e-05 -0.000697586 -0.00131662 -0.00172738 -0.0018309 -0.00172231 -0.00129485 -0.000686283 4.0064e-05 0.000741964 0.00134622 0.00168131 0.0018849 0.00200579 0.00200682 0.00204049 0.00204599 0.00203741 0.00201298 0.002058 0.00200139 0.00200068 0.00185271 0.00173546 0.00146914 0.00118589 0.00085208 0.000592643 0.000392457 0.00032686 0.000422704 0.000569316 0.000850441 0.00116408 0.00145802 0.00173391 0.00187391 0.00198444 0.0020223 0.00203871 0.00204933 0.00201736 0.00206153 0.00203016 0.00202393 0.0020013 0.00198187 0.00184185 0.00165069 0.00133985 0.000948122 0.000573469 0.000253907 1.83222e-05 -5.52481e-05 2.02432e-05 0.000223112 0.000563911 0.000973339 0.00135559 0.00164682 0.00188175 0.0019552 0.0020317 0.00204584 0.00204895 0.00201611 0.0020013 0.00209157 0.00204618 0.00204723 0.00209474 0.00214195 0.00227197 0.00243704 0.00269492 0.00290429 0.00311943 0.00326717 0.0032897 0.00324206 0.00309458 0.00291055 0.00265788 0.00245427 0.00227507 0.00212751 0.0020713 0.00206192 0.00204456 0.00205308 0.00207721 0.00205848 0.00207512 0.00201935 0.00204825 0.00197314 0.00187336 0.00168565 0.00141639 0.00103891 0.000635888 0.000327765 0.00011593 4.22055e-05 0.000124948 0.000357408 0.000677743 0.00102629 0.00138648 0.00167857 0.00184837 0.00197148 0.00200864 0.00204197 0.00202926 0.00202735 0.00203816 0.00202984 
0.00206747 0.00206388 0.00204644 0.00207932 0.00208169 0.00207129 0.00207153 0.00202847 0.002054 0.00201835 0.00191566 0.00186545 0.00176719 0.00172009 0.00166431 0.00166192 0.001662 0.00172258 0.00177196 0.00184918 0.00195051 0.00200417 0.00200029 0.0020558 0.00206046 0.00206133 0.00208107 0.00206635 0.0020743 0.00205907 0.0020565 0.00203766 0.00192391 0.00170661 0.00131126 0.000694632 -3.72692e-05 -0.000814343 -0.00150279 -0.00195465 -0.00211903 -0.00193563 -0.00151884 -0.000841066 -5.2491e-05 0.000709342 0.00131436 0.00172521 0.0019249 0.00202769 0.0020476 0.00209069 0.00207464 0.0020565 0.00206189 0.00206545 0.00203818 0.00194971 0.00181041 0.00152417 0.0011085 0.000555744 -1.59883e-05 -0.000488828 -0.000799793 -0.000876334 -0.000793943 -0.000467139 -3.15761e-06 0.000549917 0.00108549 0.00155083 0.00180328 0.00195651 0.00205161 0.00205013 0.00207454 0.00207956 0.00207251 0.00205322 0.00208901 0.00203068 0.00201388 0.00184842 0.00166832 0.00132014 0.000929719 0.000488203 0.000134468 -0.000117471 -0.000205418 -9.70338e-05 0.000119163 0.000487919 0.000908036 0.00131088 0.00166076 0.00186406 0.00200003 0.00205226 0.00206992 0.00208654 0.00205337 0.00209274 0.00206144 0.00206418 0.00204213 0.00202352 0.00190032 0.00173096 0.00145249 0.00110146 0.000766906 0.000485344 0.000276614 0.000206791 0.000272154 0.00045874 0.000760893 0.0011222 0.00146414 0.00172639 0.00193282 0.00200036 0.00206759 0.0020789 0.00208457 0.00205367 0.00204695 0.0021184 0.00208289 0.00208688 0.00214041 0.00219985 0.00235625 0.00256932 0.00287464 0.00314104 0.00340003 0.0035702 0.00360432 0.00354393 0.00337114 0.00314174 0.00284221 0.00258398 0.00235879 0.00219092 0.00211679 0.00209919 0.00208314 0.00208738 0.0021081 0.0020902 0.00210542 0.00205872 0.00207808 0.00200716 0.00189501 0.0016923 0.00139861 0.000991804 0.00056715 0.000232359 8.16861e-06 -7.25924e-05 1.29647e-05 0.000259077 0.000600549 0.000979287 0.00137335 0.00169039 0.00187343 0.00200412 0.00204323 0.00207825 0.00206533 0.00206627 0.00207622 0.00206452 
0.00212847 0.00212398 0.00211079 0.0021349 0.00213823 0.00212805 0.00211462 0.00205516 0.00202781 0.00189174 0.00164792 0.00142009 0.00113612 0.00092347 0.00076782 0.00073155 0.000761757 0.00094026 0.00113951 0.00140617 0.00167009 0.00187593 0.00197614 0.00208742 0.00210841 0.00211787 0.00213981 0.00212612 0.00213585 0.00212304 0.00211579 0.002105 0.00199971 0.00180432 0.00145994 0.000924118 0.000279132 -0.000402089 -0.0010093 -0.00139988 -0.0015484 -0.00138841 -0.00102615 -0.000430079 0.000262541 0.000930371 0.00146904 0.00182721 0.00200789 0.00209232 0.00210508 0.00214174 0.00214086 0.00211731 0.00212022 0.00213126 0.00207994 0.00195568 0.00172373 0.00128547 0.000624889 -0.000220879 -0.00110224 -0.00183693 -0.00232993 -0.00246611 -0.00231994 -0.00182487 -0.00109194 -0.000231231 0.000600367 0.00130694 0.00172572 0.00195788 0.00208026 0.0021029 0.00213451 0.00213212 0.00213793 0.00211486 0.00215511 0.00210922 0.00212544 0.0020531 0.00203785 0.00193717 0.00185423 0.00173518 0.00164777 0.00157609 0.00154619 0.00159271 0.00163826 0.00172997 0.0018386 0.00192453 0.00202799 0.00207274 0.00211041 0.00213054 0.00213539 0.00214146 0.00211691 0.0021528 0.00213465 0.0021267 0.00211196 0.00209974 0.0019969 0.00188636 0.00169037 0.0014281 0.00119631 0.000990157 0.000840502 0.00079689 0.000840131 0.000973202 0.00118631 0.00145134 0.001695 0.00188118 0.00203647 0.00207976 0.00212746 0.0021337 0.00213954 0.00211532 0.00210571 0.00218233 0.00213573 0.00212564 0.00212962 0.00208364 0.00203122 0.00193866 0.00185865 0.00173599 0.00166331 0.0016143 0.00158124 0.00160073 0.00164362 0.00174356 0.00183638 0.0019535 0.00203348 0.00207654 0.00210483 0.0021337 0.00213549 0.00214628 0.00217069 0.00214871 0.00216249 0.00211507 0.00215295 0.00211235 0.00209098 0.00204958 0.00198845 0.00189328 0.00176854 0.00169654 0.00164254 0.00162378 0.0016461 0.00172271 0.00179845 0.00188163 0.00196937 0.00204348 0.0020763 0.00212067 0.00212934 0.0021469 0.00213558 0.00212729 0.00212824 0.00213117 
0.00219565 0.0021893 0.00217372 0.00219856 0.00220739 0.00219558 0.00218772 0.00213359 0.00212908 0.00203283 0.00184855 0.00168537 0.00147777 0.00133044 0.00121458 0.00118972 0.00121111 0.00133767 0.00148197 0.00167166 0.00187517 0.00201879 0.00207332 0.0021658 0.0021774 0.00218453 0.00221198 0.00219379 0.00219965 0.0021854 0.00217369 0.00215545 0.00202461 0.00176024 0.00128231 0.000551527 -0.000330912 -0.00126277 -0.00208057 -0.00261741 -0.00281285 -0.00259912 -0.0020948 -0.00128867 -0.0003487 0.000561515 0.00129287 0.00177795 0.00202608 0.00214516 0.0021695 0.00220868 0.00220042 0.00218472 0.00218898 0.00219573 0.00215908 0.00205906 0.001888 0.00155243 0.00105933 0.000413166 -0.00025904 -0.000819172 -0.00118649 -0.00128284 -0.00118165 -0.000798107 -0.000248192 0.000405809 0.00103446 0.00157673 0.00188155 0.00206086 0.00216275 0.00217359 0.00220221 0.0021999 0.00220145 0.00217988 0.00222184 0.00217405 0.0021892 0.00210883 0.00208781 0.00196922 0.00187298 0.00173133 0.00163064 0.00154929 0.00151601 0.00156889 0.00162045 0.00173125 0.0018572 0.00196245 0.00207902 0.00213068 0.00217954 0.00219567 0.00220354 0.00221174 0.00218269 0.00221796 0.00219408 0.00218749 0.0021619 0.00212737 0.0019665 0.00174456 0.00138026 0.000914855 0.0004704 8.63009e-05 -0.000181698 -0.000272197 -0.000182832 6.47144e-05 0.000462923 0.000939213 0.00139344 0.0017431 0.00200844 0.00210605 0.00217998 0.00219936 0.00220492 0.0021816 0.00216786 0.00224473 0.00220786 0.00220632 0.00223407 0.00225267 0.00232662 0.00241697 0.00256662 0.00267639 0.00280391 0.00288794 0.00289497 0.00286617 0.00278003 0.0026851 0.00253888 0.00243402 0.00232924 0.00224525 0.00221268 0.00221544 0.00220556 0.00221252 0.00223328 0.00221547 0.00223056 0.00218095 0.00221224 0.00215999 0.00211152 0.00200478 0.00186154 0.00165263 0.00141936 0.00125559 0.00113914 0.00109548 0.00113998 0.00127995 0.00145138 0.00164543 0.00184094 0.00200543 0.00209219 0.0021651 0.00218606 0.00220902 0.00219862 0.00219038 0.00219707 0.00218958 
0.00211992 0.00211835 0.00210655 0.00212993 0.00213261 0.00212507 0.00210822 0.00204008 0.00200032 0.00184024 0.00155525 0.00126971 0.000932806 0.000679843 0.000496033 0.000443355 0.000493627 0.000688327 0.000940739 0.00125628 0.00158232 0.00182573 0.00194489 0.00207349 0.00209638 0.00210787 0.0021372 0.00212387 0.00212911 0.00211057 0.00210923 0.00209502 0.00199718 0.00180174 0.00145396 0.000916018 0.000274519 -0.000405933 -0.00101326 -0.00140956 -0.00155579 -0.00139201 -0.0010279 -0.000431641 0.000261304 0.00092756 0.00146268 0.00181918 0.00199698 0.00208738 0.00210121 0.00213924 0.0021295 0.00211368 0.00211576 0.00211614 0.00207579 0.00195932 0.00174337 0.00132209 0.000704424 -0.000104564 -0.000944978 -0.00164131 -0.00210579 -0.00223001 -0.00209489 -0.00161996 -0.00092994 -0.000113677 0.000680222 0.00134803 0.00173595 0.00196105 0.00208226 0.00209955 0.0021286 0.00212806 0.0021314 0.00210953 0.0021494 0.00209727 0.00211402 0.00202045 0.00197691 0.00182648 0.00168281 0.00150262 0.00136466 0.00126009 0.00121505 0.00127036 0.00135099 0.00150299 0.00166866 0.00181501 0.00196358 0.00203959 0.00209788 0.00212172 0.00212423 0.00214239 0.002108 0.00214459 0.00211776 0.00211851 0.00209213 0.0020589 0.00190853 0.00170167 0.00136267 0.000929058 0.000511085 0.000158372 -9.15119e-05 -0.000175354 -9.7381e-05 0.000140898 0.000507203 0.000951233 0.0013803 0.0017035 0.00195166 0.00203806 0.00211265 0.0021279 0.00213388 0.00210881 0.00210175 0.00217612 0.00214132 0.00214982 0.00221036 0.00229183 0.002488 0.00277141 0.00316292 0.00351176 0.00384865 0.00406449 0.0041202 0.00404131 0.00381943 0.00351884 0.00313268 0.00278627 0.00249103 0.00228736 0.00218656 0.00215709 0.00213929 0.00214119 0.00216292 0.00213975 0.00216004 0.00210889 0.00213515 0.0020712 0.00198887 0.00182606 0.00159577 0.00127944 0.000934702 0.000676642 0.000498789 0.00043684 0.000505073 0.000704714 0.0009631 0.0012666 0.00157803 0.00182796 0.00196664 0.00207491 0.0021079 0.00213763 0.00212184 0.00211748 0.00212474 0.00211518 
0.00208881 0.00208402 0.00207062 0.00209575 0.00210119 0.00209025 0.00207572 0.002004 0.00195981 0.00179589 0.00150319 0.0012062 0.000860772 0.000598948 0.000406208 0.000351854 0.00040314 0.000604328 0.000866286 0.00119238 0.00152974 0.00178386 0.00190717 0.00203629 0.00206319 0.00207761 0.00210466 0.00209002 0.00209655 0.00207851 0.00207261 0.00205586 0.00193908 0.00171099 0.00129614 0.000654877 -0.000111893 -0.000924123 -0.00164222 -0.00211074 -0.0022825 -0.00209379 -0.00165547 -0.000948139 -0.000125984 0.000665615 0.00130088 0.00172768 0.00194018 0.00204588 0.00206629 0.00210533 0.00209519 0.00208107 0.00208348 0.00208594 0.00205122 0.00194976 0.00177275 0.00142283 0.00091022 0.000238118 -0.000462116 -0.00104384 -0.00142623 -0.00152566 -0.00141771 -0.00102185 -0.000449566 0.000229131 0.00088661 0.00144865 0.00176623 0.00195245 0.00205788 0.00206903 0.00209421 0.00209572 0.00209578 0.00207497 0.00211509 0.00206299 0.00207342 0.00197196 0.00190981 0.00173444 0.00156136 0.00134567 0.00117936 0.00105781 0.00100599 0.00107052 0.00116885 0.00134493 0.00154395 0.00172391 0.00189811 0.00199143 0.00205945 0.0020866 0.00209434 0.00210839 0.00207602 0.00211117 0.00208586 0.00208578 0.0020641 0.00204303 0.00191751 0.00175608 0.0014839 0.00113739 0.000809871 0.000529429 0.000329103 0.000261476 0.000324071 0.000511253 0.000804649 0.00115855 0.00149923 0.00175517 0.00195629 0.00202202 0.00208386 0.00209543 0.00210021 0.0020767 0.00206754 0.00213892 0.00210632 0.00211289 0.0021652 0.00223482 0.00240775 0.00265106 0.00298969 0.00328989 0.00358238 0.003773 0.00381472 0.00374856 0.00355456 0.00329679 0.00296074 0.00266605 0.00241038 0.00223017 0.00214364 0.00212102 0.00210616 0.00210717 0.00212857 0.00210759 0.00212546 0.00207755 0.00210252 0.0020448 0.00196967 0.00182663 0.00162419 0.00134182 0.00103448 0.000804427 0.000646948 0.00058996 0.000649105 0.000830397 0.00106157 0.00132987 0.00160479 0.00182838 0.00194993 0.00204719 0.00207535 0.00210315 0.00209062 0.00208562 0.00209331 0.00208286 
0.00217578 0.00217018 0.00215355 0.00218264 0.00218693 0.00217411 0.00216329 0.002097 0.00206042 0.00191612 0.00165132 0.00139749 0.00109047 0.000860307 0.000685819 0.000644675 0.000679982 0.000869098 0.00109233 0.00138253 0.00167709 0.00190332 0.00201235 0.00212643 0.00215389 0.00216772 0.00218692 0.00217308 0.0021834 0.00217033 0.00216023 0.00214461 0.00201927 0.00178994 0.00137253 0.000720349 -5.98344e-05 -0.000886086 -0.00161518 -0.00208564 -0.00226171 -0.00207277 -0.00163013 -0.000909995 -7.59439e-05 0.000729732 0.00137402 0.00181073 0.00202746 0.00212943 0.00215157 0.00219054 0.00218393 0.00216498 0.00216864 0.00217743 0.00213937 0.00203804 0.00186712 0.00153355 0.00103338 0.000390885 -0.000281843 -0.000842956 -0.0012117 -0.0013094 -0.0012037 -0.000826852 -0.000271349 0.00038102 0.0010105 0.00155754 0.00186757 0.00204419 0.00214449 0.00215446 0.00217875 0.00218272 0.0021802 0.00215942 0.00219828 0.00214749 0.00214285 0.00202471 0.00192048 0.00168985 0.00144714 0.00115683 0.000926477 0.000762741 0.000699894 0.000781264 0.000919836 0.00115092 0.00142561 0.00167881 0.001911 0.00204158 0.0021285 0.00216849 0.00218262 0.00218976 0.00216316 0.00219993 0.00217818 0.00217458 0.0021634 0.00216831 0.00209757 0.00203933 0.00192245 0.0017685 0.00164459 0.00152928 0.00143888 0.00141251 0.00143619 0.00150908 0.00163446 0.00178881 0.00192711 0.00203114 0.00212977 0.00214684 0.00218153 0.00218319 0.00218804 0.0021625 0.00215362 0.00222441 0.00218284 0.00217505 0.00218794 0.00216414 0.00215675 0.0021247 0.00211809 0.00207357 0.00206565 0.00206297 0.00203704 0.00204227 0.00204336 0.00207858 0.00209416 0.00213952 0.00215852 0.00215677 0.00216541 0.00218548 0.00218527 0.0021924 0.00221512 0.0021964 0.00220814 0.0021646 0.00219256 0.00214407 0.00208645 0.00199031 0.0018461 0.00164196 0.00141185 0.00124332 0.00113097 0.00108856 0.00113081 0.00126951 0.00143981 0.00162942 0.0018244 0.00198624 0.00207219 0.00214768 0.00216499 0.00219022 0.00218132 0.00217514 0.0021799 0.00217663 
0.00210406 0.00209663 0.00208147 0.00210246 0.0021088 0.00209182 0.00207345 0.00199817 0.00193007 0.00172291 0.00138074 0.00101404 0.000594935 0.00026786 3.21419e-05 -2.92304e-05 2.26697e-05 0.000282832 0.000599277 0.00100222 0.00139875 0.00171242 0.0018871 0.00203557 0.00207098 0.00209086 0.00211238 0.00209594 0.00210634 0.00209583 0.00208517 0.00206597 0.00194732 0.00171356 0.00130564 0.000671796 -0.00010423 -0.000914333 -0.0016275 -0.00209168 -0.00226815 -0.0020814 -0.00164345 -0.000938355 -0.000120603 0.000669074 0.00131175 0.0017386 0.00195119 0.002055 0.00207216 0.00210602 0.00210889 0.0020909 0.00208885 0.00210376 0.00205972 0.00195696 0.00176623 0.00142 0.000880641 0.000198795 -0.000513896 -0.00110747 -0.00150561 -0.00161616 -0.00149942 -0.00109485 -0.000506744 0.000191195 0.00085821 0.00143616 0.00177628 0.001953 0.00205318 0.00207833 0.00210285 0.0020991 0.00210665 0.00208588 0.00212359 0.00207143 0.00207403 0.00198178 0.00191536 0.00173996 0.00157188 0.00135751 0.00118745 0.00106821 0.00102074 0.00108553 0.00118115 0.00135215 0.00155329 0.00173244 0.00190563 0.00199937 0.00206378 0.00209469 0.00210784 0.00211165 0.00209014 0.0021213 0.00210702 0.00209515 0.00207671 0.00205076 0.0019269 0.00177321 0.00151475 0.00116069 0.000846678 0.000562457 0.000367625 0.000308009 0.000369248 0.000550335 0.000834497 0.00118274 0.00151079 0.00177141 0.00196148 0.00203715 0.00209015 0.00209959 0.00210293 0.00208699 0.00207182 0.00214116 0.00210227 0.00209934 0.00208896 0.00204056 0.0019778 0.00186852 0.00175981 0.0016176 0.00152626 0.00146279 0.00142766 0.00145235 0.0015108 0.00162799 0.00173835 0.00188127 0.00198085 0.00203592 0.00207169 0.00210464 0.00210831 0.00211388 0.00213978 0.00211924 0.00213477 0.0020904 0.00213695 0.0021397 0.00221383 0.00234047 0.00254602 0.00277679 0.00299258 0.00320804 0.00334162 0.0033858 0.00334078 0.00322676 0.00302135 0.00276947 0.00252458 0.00234029 0.00220467 0.00215131 0.00212182 0.00211836 0.00211209 0.00209841 0.00209601 0.00209799 
0.00214683 0.00213962 0.00212516 0.00214921 0.00215575 0.00214211 0.00212777 0.00206114 0.00201944 0.00186079 0.00158237 0.00130785 0.000979228 0.000727462 0.000542441 0.000498473 0.000535284 0.000742708 0.000981005 0.00129399 0.00160274 0.00184737 0.00197145 0.00209499 0.00212174 0.00213631 0.00215681 0.00214179 0.00215252 0.00214104 0.00212899 0.0021146 0.00199078 0.00175981 0.00134905 0.000708378 -6.58031e-05 -0.000880641 -0.00160038 -0.00206437 -0.00223983 -0.0020539 -0.00161645 -0.000906786 -8.28552e-05 0.000712214 0.00135417 0.00178346 0.00199951 0.00209966 0.00211863 0.00215547 0.00215604 0.00213439 0.00213621 0.00214941 0.00210136 0.00198681 0.00177859 0.00138665 0.000790543 3.21608e-05 -0.000760895 -0.00142295 -0.00186422 -0.00198541 -0.00185524 -0.00141069 -0.000752127 2.18286e-05 0.000766326 0.00140733 0.00178312 0.00198858 0.00209925 0.00212102 0.002148 0.00214799 0.00215209 0.00212968 0.00217042 0.00212274 0.00213131 0.00204837 0.00200766 0.00187087 0.00174672 0.00158033 0.0014514 0.00135623 0.00131672 0.00137421 0.00144508 0.00157265 0.00172771 0.00185947 0.00199849 0.00206735 0.00211736 0.00214424 0.00215445 0.00215709 0.00213381 0.00216912 0.002153 0.0021437 0.00213185 0.00212926 0.00204741 0.00197583 0.00183771 0.00164593 0.00149183 0.00134513 0.00123793 0.00120901 0.00123842 0.00132934 0.00147971 0.00166802 0.00183815 0.00196955 0.00208319 0.00211107 0.00214641 0.00214921 0.00215348 0.00213215 0.00212025 0.00219387 0.00214872 0.00213883 0.00213098 0.00207024 0.00198778 0.00184644 0.00170124 0.00151833 0.0013924 0.0013107 0.00126336 0.00129734 0.00137509 0.00152735 0.00168076 0.00186078 0.00199029 0.00206387 0.00210921 0.00214645 0.0021524 0.00216103 0.00218625 0.00216592 0.00217846 0.00213337 0.00217274 0.00214711 0.00215431 0.00216947 0.00219365 0.00220551 0.00219051 0.0022088 0.00221654 0.00221727 0.00221657 0.00223355 0.00221888 0.00219449 0.00217326 0.00216472 0.00214269 0.00215645 0.00215128 0.00216316 0.00215514 0.00214434 0.00214463 0.0021473 
0.00425563 0.00427404 0.00424385 0.00425403 0.00425813 0.004271 0.00421983 0.0040986 0.0038628 0.00344201 0.00278363 0.00192462 0.00106031 0.000377851 -0.000141391 -0.000276087 -0.000121692 0.000348054 0.00108423 0.00195847 0.00277945 0.00344464 0.00388232 0.00415854 0.00419257 0.00423813 0.00428247 0.00427695 0.00426158 0.00428336 0.0042494 0.00418151 0.00405815 0.00372323 0.00314236 0.00221199 0.00109093 -9.87243e-05 -0.00110001 -0.00174832 -0.00197318 -0.00175362 -0.00108773 -7.93089e-05 0.00108094 0.00220909 0.00314909 0.00373158 0.00406482 0.00419284 0.00424231 0.00425811 0.00423768 0.00427058 0.00424717 0.0042128 0.00418007 0.00402548 0.00366061 0.00296831 0.00190338 0.000612627 -0.000784127 -0.00188296 -0.00263162 -0.0029212 -0.00263375 -0.00187064 -0.000719311 0.000595507 0.0019176 0.00298137 0.00367317 0.00402175 0.00417272 0.0042483 0.00425405 0.00426793 0.00426599 0.00423884 0.00426656 0.00421535 0.00411254 0.00380187 0.00332657 0.0024825 0.00152239 0.000516205 -0.000370452 -0.000926444 -0.00112666 -0.000938916 -0.000353947 0.000521159 0.00152919 0.00250137 0.00328 0.00379297 0.00406456 0.00423333 0.00425583 0.00430881 0.00426928 0.00429466 0.00424679 0.00426076 0.00422339 0.00418008 0.00404046 0.00377095 0.00341101 0.00292684 0.00246407 0.00201831 0.00176924 0.00167926 0.00176363 0.00206994 0.00244394 0.00290456 0.00341567 0.00382335 0.00404541 0.00416601 0.00422043 0.00424678 0.00423225 0.00426096 0.00426634 0.00427477 0.00426569 0.00428784 0.00429345 0.00436651 0.00448084 0.00462973 0.00486377 0.00505515 0.0052843 0.00540242 0.00545148 0.00535064 0.00528956 0.00508997 0.00485143 0.00464451 0.00447659 0.00436561 0.00431638 0.00427795 0.00430566 0.00426501 0.00425751 0.00426917 0.00427828 0.0042506 0.00426605 0.00424512 0.00422106 0.00415268 0.00407944 0.00400181 0.00388538 0.00380428 0.00376442 0.00373546 0.00376569 0.00382914 0.00386894 0.00400208 0.00409542 0.00419685 0.00422015 0.00426187 0.00425931 0.00427565 0.00428198 0.00424441 0.00427234 0.00423417 
0.0022056 0.00219728 0.00218182 0.00221091 0.00222166 0.00221024 0.002203 0.00214523 0.00215116 0.00207217 0.00190332 0.00177033 0.00158523 0.00146574 0.00135892 0.00134298 0.00135816 0.00147072 0.00159003 0.00175424 0.00193001 0.00205872 0.00209363 0.00218275 0.00218789 0.0021953 0.00222357 0.00220494 0.00221258 0.00219559 0.0021826 0.00216062 0.00201086 0.00172043 0.00119285 0.000369849 -0.000616635 -0.00165448 -0.00257293 -0.00316801 -0.00338427 -0.00315224 -0.00258652 -0.00168465 -0.000632537 0.000380977 0.00119712 0.00173877 0.00201607 0.00214752 0.00217595 0.00222262 0.00221308 0.00219327 0.00219661 0.00220221 0.00215767 0.00203696 0.00182306 0.00139735 0.000771309 -3.88057e-05 -0.000886186 -0.00158934 -0.0020533 -0.00217696 -0.00204371 -0.0015679 -0.00087265 -5.10914e-05 0.000745491 0.00142575 0.0018155 0.00204074 0.00216491 0.00218049 0.00220809 0.00221428 0.00221097 0.0021863 0.00223327 0.00217727 0.00218571 0.002066 0.00198637 0.00177949 0.00157053 0.00131589 0.00111448 0.000967478 0.000906948 0.000984799 0.00110172 0.00131063 0.00154964 0.00176599 0.00197678 0.00208697 0.00216599 0.00220232 0.00221374 0.00222434 0.00219243 0.00223259 0.00220585 0.00220244 0.00218636 0.00218577 0.00209253 0.00199871 0.00182808 0.00160959 0.00141655 0.00124254 0.00111405 0.00107493 0.00111203 0.00122555 0.00140683 0.0016302 0.00184269 0.00199716 0.00213166 0.00216189 0.00220874 0.00221424 0.00221544 0.00219238 0.0021795 0.00225926 0.00222006 0.00222492 0.00227013 0.00232505 0.00246825 0.00266005 0.00293923 0.00317605 0.00341939 0.00358268 0.00360884 0.003556 0.00339504 0.00318701 0.0029094 0.00267558 0.00247155 0.0023178 0.00224961 0.00223483 0.00222376 0.00222357 0.00224826 0.00222678 0.0022446 0.00219308 0.00222337 0.00216881 0.00210653 0.0019919 0.00182957 0.00159952 0.00133699 0.00114807 0.0010182 0.000970932 0.00102141 0.00117746 0.00136599 0.00158416 0.00180619 0.00199124 0.00208739 0.00217292 0.00219333 0.00222013 0.00220962 0.00220117 0.00220926 0.00220109 
0.00209961 0.00209399 0.00207994 0.00210505 0.00210947 0.0020973 0.00208257 0.00201274 0.00196672 0.00180158 0.00150957 0.00121691 0.000870968 0.00060883 0.000414429 0.00036471 0.000409299 0.000619014 0.000875196 0.00120274 0.00153316 0.00178939 0.00191804 0.00204577 0.00207359 0.00208893 0.00211141 0.0020971 0.00210674 0.00209166 0.00208399 0.00206793 0.0019514 0.00173052 0.001336 0.000718823 -2.24347e-05 -0.000804037 -0.00149651 -0.00194475 -0.00211263 -0.00193159 -0.0015118 -0.00082899 -3.73367e-05 0.000725235 0.00133937 0.0017518 0.00195656 0.00205559 0.00207434 0.00211213 0.00210772 0.00208882 0.00209074 0.00209853 0.00205632 0.00194707 0.00175014 0.00137246 0.000804798 7.55534e-05 -0.000686708 -0.0013209 -0.00174239 -0.00185553 -0.00173261 -0.00130425 -0.000675726 6.50444e-05 0.000781126 0.00139518 0.00175059 0.00194953 0.00205926 0.00207687 0.00210212 0.00210365 0.0021053 0.00208383 0.00212352 0.00207109 0.00207533 0.00196982 0.00189212 0.00169859 0.00150167 0.00126231 0.00107208 0.000936154 0.000881047 0.000951069 0.00106323 0.00125705 0.00148253 0.00168662 0.00188129 0.00198779 0.00206003 0.00209437 0.00210465 0.00211413 0.00208639 0.00212218 0.00210083 0.00209689 0.00208147 0.00207405 0.00197969 0.00188003 0.00170171 0.00146442 0.00125665 0.00107157 0.000936598 0.000894939 0.000933468 0.00105518 0.00124766 0.00148512 0.00170778 0.00187641 0.00201553 0.00205435 0.00209954 0.00210444 0.00210809 0.00208589 0.00207614 0.0021474 0.00210834 0.0021078 0.00213133 0.00213842 0.00218768 0.00224568 0.00235116 0.00241808 0.0025093 0.00256789 0.00256685 0.00254908 0.00248665 0.0024255 0.00232612 0.00225936 0.00219045 0.00213282 0.00211021 0.00211606 0.00211143 0.00211527 0.00213949 0.00211797 0.00213355 0.00208767 0.00212008 0.00208163 0.00205191 0.00199878 0.00192529 0.00180875 0.00166722 0.00157763 0.00151371 0.00148968 0.0015154 0.00160299 0.00169423 0.00179583 0.00190442 0.00199688 0.00203702 0.00208734 0.00209579 0.00211505 0.00210442 0.00209675 0.00210046 0.00209723 
0.00212646 0.00212538 0.00211201 0.0021396 0.00213978 0.00213317 0.00212102 0.00206161 0.00204628 0.0019304 0.00170806 0.00150978 0.00125529 0.00107737 0.000938531 0.000905698 0.000936964 0.00108562 0.00126316 0.0014952 0.00173806 0.00191449 0.00199071 0.00209504 0.00210931 0.00211593 0.00214175 0.00212959 0.00213675 0.00211876 0.00211921 0.00210488 0.00201022 0.00182952 0.00150845 0.00100348 0.000407356 -0.000226344 -0.000795826 -0.00116642 -0.0013034 -0.0011504 -0.00081329 -0.000254824 0.000393852 0.00101654 0.00151485 0.00184901 0.0020122 0.00209641 0.00210847 0.00214904 0.00213886 0.0021184 0.00212122 0.00212301 0.00207868 0.00195455 0.00172463 0.00127409 0.000610811 -0.000253712 -0.00115105 -0.00189388 -0.00239264 -0.0025271 -0.0023806 -0.00187449 -0.00113518 -0.000263389 0.000586526 0.00130124 0.00171823 0.00195851 0.00208827 0.00210514 0.00213458 0.00213724 0.00213796 0.00211544 0.00215465 0.00209765 0.00210226 0.00197331 0.00186879 0.00162757 0.00136833 0.00107077 0.000832676 0.000659715 0.000593657 0.000671515 0.000816333 0.00106931 0.00135143 0.00161349 0.00185546 0.0019909 0.00208219 0.00212221 0.00212942 0.00214917 0.00211356 0.00215379 0.00212481 0.00212733 0.00210461 0.00208333 0.00195816 0.0017942 0.00152375 0.00117518 0.00084503 0.000567175 0.000363892 0.000298727 0.000358442 0.000548896 0.00083976 0.00119646 0.0015381 0.00179467 0.00199814 0.00206107 0.00212791 0.00213747 0.00214261 0.00211472 0.00210978 0.00218584 0.00214674 0.00215391 0.00221563 0.0022912 0.00247597 0.00274056 0.00311329 0.00344014 0.00375882 0.00396263 0.00401393 0.00393884 0.00372947 0.00344468 0.00308163 0.00275515 0.00247907 0.00228524 0.00219071 0.00216285 0.00214683 0.00214879 0.00217188 0.00214761 0.00216819 0.00211656 0.00214297 0.00207519 0.00198017 0.00180665 0.00155333 0.0012067 0.000831687 0.000546336 0.000352023 0.000285037 0.000360682 0.000576509 0.000861382 0.00119039 0.00153259 0.00180531 0.00195897 0.00207683 0.00211201 0.00214401 0.00212724 0.00212514 0.00213276 0.00212475 
0.00215096 0.00214574 0.00213024 0.00215351 0.0021586 0.00214513 0.00213138 0.00206494 0.00201792 0.00185096 0.00156325 0.00126911 0.000927041 0.000662059 0.000471111 0.000420577 0.000463837 0.000673589 0.000930099 0.00125634 0.00158665 0.00183814 0.00197006 0.00209541 0.00212558 0.00214029 0.00216208 0.00214671 0.0021556 0.00214353 0.00213403 0.00211852 0.0020038 0.00177969 0.00137856 0.000763232 1.71369e-05 -0.000770578 -0.00146216 -0.00191412 -0.00208334 -0.00189941 -0.00147737 -0.000793148 -4.76894e-09 0.000768246 0.00138649 0.00180033 0.00200751 0.00210708 0.00212594 0.00216026 0.00215642 0.00214047 0.00214275 0.00215257 0.00211648 0.00202172 0.00185907 0.00155076 0.00108479 0.000483413 -0.00014354 -0.000666649 -0.00101231 -0.00110458 -0.00100758 -0.000650759 -0.000134973 0.000476676 0.00106175 0.00157078 0.00186055 0.00202342 0.00211603 0.00212951 0.00215508 0.00215205 0.00215569 0.00213599 0.00217338 0.00212652 0.00213308 0.00205029 0.00200609 0.00186277 0.0017319 0.00155608 0.00142398 0.00132578 0.00128716 0.0013443 0.00141777 0.00155412 0.00171536 0.00185618 0.00199703 0.00206901 0.00212479 0.00214686 0.00215705 0.00216287 0.00213824 0.002171 0.00215169 0.00214413 0.00212348 0.0020954 0.00196059 0.00178253 0.00148631 0.00109873 0.000739562 0.000425331 0.000204495 0.000132079 0.000204148 0.000405365 0.000730773 0.00112214 0.00149045 0.00177854 0.00199702 0.00207764 0.00213823 0.00215212 0.00215868 0.00213652 0.0021245 0.00219477 0.00215673 0.00214961 0.00215431 0.00212159 0.00209676 0.00204183 0.00200343 0.00192997 0.00189505 0.00187119 0.00184556 0.00185535 0.00187471 0.00193668 0.0019804 0.00205697 0.00209895 0.00211598 0.00213253 0.0021574 0.00215616 0.00216548 0.00218704 0.00216919 0.00218197 0.00213732 0.00217204 0.00213767 0.00212561 0.00209228 0.00205451 0.00198054 0.00188712 0.00183829 0.00179976 0.00178282 0.00179864 0.00185985 0.001917 0.00197398 0.00203475 0.00209113 0.00211121 0.00214501 0.00215007 0.00216503 0.00215651 0.0021479 0.00215032 0.00214764 
0.00212462 0.00212141 0.00210968 0.00212693 0.00212828 0.00211552 0.00208669 0.00200028 0.00189233 0.0016139 0.00116459 0.000668874 0.000113344 -0.000333176 -0.000640767 -0.000729549 -0.000651523 -0.000310536 0.000117514 0.000658531 0.00117847 0.00160109 0.00185057 0.00203687 0.0020865 0.00211086 0.00213167 0.00212048 0.00213126 0.00212048 0.00211485 0.00210508 0.00201659 0.00185355 0.00157712 0.00114515 0.000616457 6.25267e-05 -0.000432447 -0.000748749 -0.000875506 -0.000742117 -0.000450018 3.84879e-05 0.000601206 0.00114223 0.00158533 0.00188008 0.00202455 0.00209304 0.00209951 0.00212844 0.00213672 0.00211502 0.0021128 0.00212725 0.00207126 0.00194436 0.00169382 0.00124075 0.00053957 -0.000344709 -0.0012682 -0.00203776 -0.00255994 -0.00270969 -0.00254874 -0.00203098 -0.00125966 -0.000354908 0.000516952 0.00125642 0.00170671 0.00194128 0.00206225 0.00209783 0.00212672 0.00212026 0.00213372 0.00211197 0.00214859 0.00210301 0.0021195 0.00206451 0.00206136 0.00198409 0.00193083 0.00184451 0.00177849 0.00172945 0.0017041 0.00174047 0.00177377 0.00183721 0.00191679 0.00197242 0.00204854 0.00208248 0.00210612 0.0021253 0.00213021 0.00213364 0.00211338 0.00214466 0.00213408 0.00212249 0.00210863 0.00208912 0.00198713 0.00187906 0.00168754 0.00141419 0.00118272 0.000970501 0.000823099 0.000782352 0.000823542 0.000961982 0.00117147 0.00143649 0.00168193 0.00187571 0.00202476 0.00207604 0.00211761 0.0021221 0.00212778 0.00211095 0.00210058 0.00217039 0.00212526 0.00211491 0.00209459 0.00201065 0.00187932 0.00167537 0.00144852 0.00118412 0.000988411 0.000853274 0.000799329 0.000847113 0.000973622 0.00119392 0.00143206 0.0016881 0.00188225 0.0020074 0.00207281 0.00211854 0.00212897 0.00213828 0.00216422 0.0021405 0.00215593 0.00211134 0.00216004 0.00215746 0.00222439 0.0023439 0.00252576 0.00273878 0.00292825 0.00312289 0.0032438 0.00328608 0.0032453 0.00314499 0.00295357 0.002729 0.00250909 0.00234016 0.00221725 0.00217229 0.00214742 0.00214544 0.00213605 0.00212305 0.00211747 0.00212603 
0.00202558 0.00203437 0.00202658 0.00204735 0.00203295 0.00203214 0.0020016 0.00191739 0.00180851 0.00153084 0.00107034 0.00057234 9.56596e-06 -0.000436846 -0.000737954 -0.00083742 -0.000744449 -0.000417391 1.97388e-05 0.000561744 0.00109573 0.00151259 0.00176136 0.00194483 0.00199722 0.00201391 0.00203518 0.00203409 0.00204238 0.00202338 0.00204149 0.00204272 0.00202954 0.00202118 0.00202308 0.00201833 0.00203 0.00202654 0.00200154 0.00198945 0.00197498 0.00200145 0.00198149 0.00200403 0.00201969 0.00202874 0.00203245 0.00204331 0.00203258 0.00203767 0.0020242 0.0020514 0.00204632 0.00202532 0.00202592 0.00202491 0.00197516 0.00183872 0.00156391 0.00104872 0.000278638 -0.000719601 -0.00175319 -0.00260757 -0.00319301 -0.00335743 -0.00317609 -0.0025969 -0.00173583 -0.000728987 0.000257631 0.00107039 0.00156606 0.00184176 0.00198111 0.00200836 0.00204068 0.00203489 0.0020471 0.0020264 0.00205602 0.00200646 0.00202007 0.00193054 0.00187308 0.00171432 0.00154292 0.00135191 0.0011999 0.0010866 0.00104138 0.0010869 0.0011855 0.0013529 0.00153453 0.00169764 0.0018537 0.00194504 0.00200052 0.00202936 0.00202454 0.00205028 0.00201643 0.00205164 0.00202737 0.00203489 0.00201135 0.00197609 0.00184394 0.00166292 0.00136761 0.000979432 0.000606283 0.000302938 8.04412e-05 8.79669e-06 7.06255e-05 0.000288616 0.000605941 0.00100079 0.00137759 0.00166301 0.00188589 0.00195736 0.00202857 0.00203686 0.00204855 0.00201815 0.00202479 0.00209112 0.00204986 0.00205098 0.00210657 0.00214839 0.0022687 0.00245582 0.00272656 0.0029503 0.00317643 0.00330752 0.0033507 0.00329339 0.00314496 0.00294913 0.00270125 0.00246813 0.00227111 0.00214576 0.00207485 0.00205644 0.00204475 0.00205277 0.00207421 0.00204567 0.00206636 0.00201896 0.00204386 0.0019717 0.00186497 0.00167505 0.00138416 0.00100106 0.000589937 0.000271944 5.61384e-05 -1.41662e-05 6.93429e-05 0.000301681 0.000614739 0.000984483 0.00137268 0.00167088 0.00184587 0.00197462 0.00201851 0.00205111 0.00202794 0.00203113 0.00203346 0.00203239 
0.00186168 0.00188426 0.00187861 0.00189763 0.0018634 0.0018693 0.00183056 0.00174614 0.00159392 0.00124665 0.000687639 6.96886e-05 -0.000620535 -0.00117947 -0.00154018 -0.00166937 -0.00155174 -0.00114958 -0.000607619 6.13116e-05 0.000716245 0.00122353 0.00155452 0.00176167 0.00183666 0.00185349 0.00186292 0.00187411 0.00188371 0.00186701 0.00190943 0.0019278 0.00201794 0.00222664 0.0026355 0.00326083 0.00403842 0.00483066 0.00549332 0.00592781 0.00606816 0.00593932 0.00546695 0.00481312 0.00403156 0.00327082 0.00264826 0.00225313 0.00201999 0.00192842 0.00188241 0.00189602 0.00189302 0.00186779 0.00186907 0.00186539 0.00181862 0.00168631 0.00140641 0.000900412 0.000134254 -0.000863375 -0.00188633 -0.00272978 -0.00332314 -0.00349181 -0.00330372 -0.00272813 -0.00186756 -0.000867881 0.000117502 0.000916394 0.00141731 0.00169081 0.00182626 0.00185227 0.00188774 0.00187311 0.00189352 0.00187682 0.0018898 0.00184391 0.00184513 0.00174889 0.00164789 0.00144079 0.0011915 0.000936228 0.000728558 0.000576019 0.000527022 0.000570443 0.000712177 0.000941247 0.00118943 0.00142466 0.00162594 0.00175605 0.00182898 0.00186309 0.00185271 0.00188827 0.00185556 0.00188794 0.00186389 0.00187895 0.00184946 0.0017869 0.00162074 0.00135934 0.00095056 0.000409768 -0.000123554 -0.000542799 -0.00085304 -0.000954621 -0.000868308 -0.000562406 -0.000117846 0.000432744 0.000951677 0.00135614 0.00166086 0.0017712 0.0018644 0.00187636 0.00189766 0.00185729 0.00187849 0.0019348 0.00188935 0.00188203 0.00193278 0.00193023 0.00196994 0.00205405 0.00219392 0.00228522 0.00238783 0.00242384 0.00245591 0.0024199 0.00235231 0.00227053 0.00217173 0.00206385 0.00197102 0.00192827 0.00189078 0.00188668 0.00187711 0.00189562 0.00191396 0.00188353 0.0019025 0.00186077 0.00187983 0.0017911 0.00164293 0.00138355 0.000976602 0.000446994 -0.000100464 -0.000539774 -0.000834986 -0.000928721 -0.00081451 -0.000510832 -7.39775e-05 0.000431925 0.000969182 0.00137333 0.00162398 0.00179069 0.00185455 0.00189281 0.00186167 0.00187624 0.00187389 0.00187959 
0.00163495 0.00168197 0.00168168 0.00169542 0.00162076 0.00163758 0.00157276 0.00146203 0.00116967 0.000584316 -0.000319683 -0.00136181 -0.00250308 -0.00344647 -0.0040398 -0.00425925 -0.00406284 -0.00339223 -0.00248321 -0.00136273 -0.000292225 0.000554512 0.00115355 0.00146568 0.00160157 0.00162867 0.00161559 0.00165215 0.00166871 0.0016562 0.00174499 0.00179212 0.00208111 0.00271373 0.00392859 0.00578211 0.00805277 0.0104024 0.0124057 0.0137183 0.014159 0.0137195 0.0123653 0.0103922 0.00805282 0.00578399 0.00394369 0.00275549 0.00208432 0.00180232 0.00169228 0.00167977 0.0016877 0.00165193 0.00164694 0.00164298 0.00158428 0.00142872 0.00105873 0.000432671 -0.000553877 -0.00181788 -0.00310464 -0.00415947 -0.00493359 -0.00516678 -0.00490488 -0.00418212 -0.00308215 -0.0018168 -0.000561102 0.000433966 0.00109763 0.00143148 0.00158855 0.0016334 0.00167356 0.0016455 0.00168532 0.00167407 0.0016576 0.00160814 0.00157675 0.00143639 0.00119504 0.000807799 0.000301768 -0.000184683 -0.000597842 -0.000884925 -0.00096705 -0.000907725 -0.000617618 -0.000176286 0.000309489 0.000785962 0.00116167 0.00142803 0.00155683 0.00162438 0.00160711 0.00166233 0.00163329 0.00166114 0.00164218 0.00166964 0.00163739 0.00154236 0.00136579 0.0010535 0.000586134 -6.2734e-05 -0.000701999 -0.0011854 -0.00155103 -0.00166434 -0.00157351 -0.00119985 -0.000689792 -4.11441e-05 0.000561126 0.00104776 0.0013969 0.00153648 0.00164728 0.00165235 0.00168634 0.00163468 0.00168382 0.00171887 0.00166175 0.0016429 0.00167284 0.00157146 0.00142208 0.00125916 0.00108875 0.000864416 0.000683616 0.000502599 0.000505924 0.000522469 0.000644888 0.000828019 0.00107408 0.00126138 0.0014214 0.00157347 0.00161579 0.00164282 0.00164596 0.00167848 0.00169674 0.00165634 0.00167733 0.00164506 0.00166753 0.00158764 0.00144748 0.00123207 0.000863114 0.000385291 -9.14223e-05 -0.000480906 -0.000740965 -0.000812539 -0.000704912 -0.000453576 -6.80136e-05 0.000366247 0.000864586 0.00121129 0.0014375 0.00158598 0.0016496 0.00167997 0.00163459 0.00166523 0.00164915 0.00167357 
0.00123733 0.00132926 0.00134086 0.00135245 0.00120793 0.00125271 0.00114981 0.00100792 0.000536773 -0.000350675 -0.0017082 -0.00328753 -0.00501371 -0.00644585 -0.0073296 -0.00767171 -0.00736326 -0.00635879 -0.00497838 -0.00328052 -0.00167133 -0.000396539 0.000545246 0.000990225 0.00120426 0.0012364 0.00119329 0.00127403 0.00129886 0.00128375 0.00145874 0.00155597 0.00218524 0.00354662 0.00613491 0.0100739 0.0149026 0.019911 0.0241942 0.0270012 0.0279597 0.02699 0.0241307 0.0199086 0.0149188 0.0100766 0.0061509 0.00360699 0.00218873 0.00158523 0.0013658 0.0013198 0.00133246 0.00127746 0.0012661 0.0012473 0.00116948 0.000954352 0.000396998 -0.000532279 -0.00200685 -0.00389475 -0.00580393 -0.00735865 -0.00852958 -0.00889124 -0.00847926 -0.00741209 -0.00576541 -0.00388731 -0.00200109 -0.000543021 0.000464682 0.000962121 0.00118417 0.00125317 0.00130453 0.00126223 0.00132649 0.00132137 0.00125999 0.00119948 0.00111822 0.000870128 0.000364029 -0.000379578 -0.00139027 -0.00233105 -0.00314443 -0.00370185 -0.00385703 -0.00375925 -0.00318077 -0.00231408 -0.00136538 -0.000416816 0.000309051 0.000835427 0.00108215 0.00121338 0.00117807 0.00128257 0.0012437 0.00127317 0.00124789 0.00131119 0.00127135 0.00113357 0.000950761 0.000569656 3.05687e-05 -0.000743211 -0.00152588 -0.00206776 -0.00250507 -0.00263386 -0.00254834 -0.00207855 -0.00149534 -0.000725605 -1.66106e-05 0.000563462 0.000973045 0.00113636 0.00128324 0.00127435 0.00133007 0.00124868 0.00135371 0.00135979 0.00128571 0.00126324 0.00133899 0.00122172 0.00105026 0.000920056 0.000798266 0.000602805 0.000436319 0.000213034 0.000268625 0.000258524 0.000378794 0.000528009 0.000784971 0.000910144 0.00104735 0.00122864 0.00125059 0.0012584 0.0012599 0.00130798 0.0013252 0.00126408 0.00129408 0.00127036 0.0012764 0.00114188 0.000847249 0.000406243 -0.000353844 -0.00131747 -0.0022638 -0.00306796 -0.00359538 -0.0037404 -0.00352357 -0.00303147 -0.00224488 -0.00135235 -0.000337521 0.000367987 0.000838107 0.00112876 0.00125494 0.00130828 0.00122962 0.0012977 0.00126911 0.00131245 
0.000639956 0.000788415 0.00081546 0.000821403 0.000592529 0.000673617 0.000528451 0.000362413 -0.000300051 -0.00151202 -0.00334974 -0.00549887 -0.00784477 -0.00979902 -0.0109804 -0.0114596 -0.0110265 -0.00967303 -0.00779081 -0.00548198 -0.00329961 -0.0015785 -0.000267661 0.000313659 0.000613938 0.000646199 0.000568842 0.000702773 0.000733567 0.000714682 0.000996495 0.0011592 0.00221333 0.00447224 0.00874703 0.0152664 0.0232558 0.0315469 0.0386469 0.0432951 0.0448932 0.0432742 0.0385571 0.0315536 0.0232902 0.0152736 0.00877238 0.00455124 0.00221252 0.00121354 0.000859454 0.000770126 0.00078562 0.000709838 0.000694456 0.000655162 0.000560499 0.000284196 -0.000474425 -0.00172459 -0.00370943 -0.00626365 -0.00882908 -0.0109111 -0.012508 -0.0130064 -0.0124341 -0.0109994 -0.00877341 -0.00624633 -0.00368843 -0.00175023 -0.000378213 0.000296925 0.000589031 0.000679504 0.000748841 0.00068211 0.00077933 0.000782617 0.000665975 0.000600432 0.000478955 0.000150587 -0.00058144 -0.0016168 -0.00306612 -0.00437887 -0.0055201 -0.00630524 -0.00651342 -0.00640384 -0.00557763 -0.00434634 -0.00301464 -0.00167011 -0.000660647 8.84518e-05 0.000430159 0.000609638 0.000544949 0.000707755 0.000657785 0.000685564 0.000652543 0.000758129 0.000699766 0.000480994 0.000224294 -0.000360091 -0.00117095 -0.00232188 -0.00351695 -0.00432468 -0.00498056 -0.00517823 -0.00504995 -0.00433748 -0.00346091 -0.00230557 -0.00123773 -0.000366672 0.000243843 0.00049291 0.000712432 0.000701305 0.00078633 0.000667351 0.000838704 0.000811905 0.000720695 0.000692206 0.000832245 0.000711339 0.000546709 0.000507338 0.000509933 0.000414261 0.000317623 7.69133e-05 0.000210104 0.000152903 0.000234157 0.000291199 0.00049768 0.000485083 0.000540846 0.000724099 0.000703458 0.000682245 0.000673902 0.000746143 0.000758058 0.000673767 0.000713895 0.000699081 0.000682291 0.000463949 -4.5981e-05 -0.000831554 -0.0021639 -0.00384314 -0.00548434 -0.00689394 -0.00781802 -0.00807709 -0.00770294 -0.00684791 -0.00546773 -0.00389224 -0.0021277 -0.000889982 -5.82029e-05 0.000435519 0.00065599 0.000741716 0.000621114 0.000736364 0.000694074 0.00075903 
-3.18635e-05 0.00017763 0.000225789 0.000221597 -0.00010037 2.14162e-05 -0.000179907 -0.000382965 -0.00129378 -0.0029271 -0.00539003 -0.00827956 -0.0114294 -0.0140695 -0.0156456 -0.0162965 -0.0157082 -0.013889 -0.0113586 -0.00825163 -0.0053348 -0.00301848 -0.00123096 -0.000466495 -5.58527e-05 -1.75774e-05 -0.000136609 5.90816e-05 0.000100089 7.94537e-05 0.000475019 0.000719345 0.00224641 0.00552624 0.0117214 0.0211704 0.0327478 0.0447666 0.0550627 0.0618105 0.0641352 0.0617721 0.0549423 0.0447829 0.0328022 0.0211789 0.0117552 0.0056296 0.00225236 0.000795285 0.000287502 0.000146577 0.000176751 7.07229e-05 5.01068e-05 -4.66636e-06 -0.000136214 -0.000504295 -0.00154497 -0.00325142 -0.00596239 -0.00944301 -0.0129377 -0.0157744 -0.0179631 -0.0186497 -0.0178572 -0.0159116 -0.0128653 -0.00941992 -0.00592599 -0.0032951 -0.00140959 -0.000484145 -9.92437e-05 2.9305e-05 0.000120204 2.70099e-05 0.000164976 0.000176639 2.969e-07 -5.99235e-05 -0.000211641 -0.000574896 -0.00147165 -0.0026891 -0.00445818 -0.00600397 -0.00736385 -0.00830255 -0.00853798 -0.00844898 -0.00743864 -0.00596278 -0.00437654 -0.00276601 -0.00157729 -0.000667584 -0.000277639 -5.85202e-05 -0.000161544 5.53215e-05 7.38426e-07 2.69547e-05 -4.61035e-06 0.000141673 7.952e-05 -0.000191847 -0.000444057 -0.00108153 -0.00193894 -0.00319439 -0.00451708 -0.00534979 -0.00606628 -0.00627035 -0.00616041 -0.0053602 -0.00443603 -0.00317873 -0.00203619 -0.00109479 -0.000428222 -0.000168756 8.669e-05 5.5863e-05 0.000174585 1.49674e-05 0.000260435 0.00019917 7.64007e-05 2.44693e-05 0.00018834 -4.6505e-05 -0.000418239 -0.000674855 -0.000938563 -0.00132671 -0.00169443 -0.00217886 -0.00203758 -0.0020598 -0.00179836 -0.00150028 -0.00093867 -0.000711726 -0.000427455 -2.67072e-05 1.21122e-05 6.83012e-06 7.74401e-06 0.000113337 0.000121966 9.99589e-06 5.71119e-05 5.51649e-05 2.08104e-05 -0.000275282 -0.000985397 -0.00206631 -0.00392688 -0.00624349 -0.00851279 -0.0104725 -0.0117531 -0.0121078 -0.0115916 -0.0104137 -0.00850372 -0.00631168 -0.00386494 -0.00215579 -0.000994505 -0.000313048 -5.68776e-06 0.000110186 -5.53763e-05 0.000108607 4.40873e-05 0.00014564 
-0.000685331 -0.000415861 -0.000351256 -0.000365577 -0.000782323 -0.000627049 -0.000887092 -0.00114304 -0.00234026 -0.00446363 -0.00764552 -0.0114089 -0.0154958 -0.0189264 -0.0209748 -0.0218205 -0.0210572 -0.0186958 -0.015404 -0.0113672 -0.00758498 -0.00457324 -0.0022365 -0.00125377 -0.00072087 -0.00066761 -0.000828246 -0.000573138 -0.000520855 -0.000541594 -2.94763e-05 0.000282934 0.00228345 0.00656409 0.0146534 0.026991 0.0420931 0.0577837 0.0712329 0.080044 0.0830805 0.0799868 0.0710817 0.0578133 0.0421683 0.0269909 0.0146938 0.00669473 0.00228649 0.00038607 -0.000273612 -0.00046858 -0.000423055 -0.000552854 -0.000585126 -0.0006537 -0.000811399 -0.00124878 -0.00252962 -0.00459671 -0.00791205 -0.0121566 -0.0164087 -0.0198544 -0.0225386 -0.0233905 -0.0224059 -0.0200376 -0.0163203 -0.0121219 -0.00785627 -0.00466524 -0.00234543 -0.00122976 -0.000770643 -0.000602944 -0.000496879 -0.000618097 -0.000437794 -0.000416634 -0.000657336 -0.000728678 -0.000939356 -0.00140741 -0.00260561 -0.0042158 -0.00655353 -0.00859974 -0.0104049 -0.0116405 -0.0119509 -0.011834 -0.010498 -0.00854606 -0.00644644 -0.00430997 -0.00274009 -0.00153409 -0.00101987 -0.000730167 -0.000859245 -0.000582331 -0.000641954 -0.00062169 -0.000652756 -0.000465858 -0.000542504 -0.000897138 -0.00120139 -0.00200814 -0.00307938 -0.00466568 -0.00633743 -0.00738765 -0.0082853 -0.00853927 -0.00840437 -0.00738811 -0.00623332 -0.00465412 -0.00321558 -0.00202108 -0.00119671 -0.000856536 -0.00053952 -0.000581305 -0.000433649 -0.000625049 -0.000309014 -0.000413889 -0.000556873 -0.000616665 -0.000421918 -0.000727234 -0.00122769 -0.0015861 -0.00197159 -0.00250367 -0.00301307 -0.00366494 -0.0034801 -0.00350182 -0.00313694 -0.00272796 -0.00196484 -0.00163981 -0.00124021 -0.000698145 -0.00063661 -0.00064382 -0.000638911 -0.000509591 -0.00050228 -0.000642215 -0.000583044 -0.00056991 -0.000612792 -0.000940702 -0.00175386 -0.0029611 -0.00507134 -0.00769659 -0.010241 -0.0124535 -0.0138979 -0.0142833 -0.0136912 -0.0123906 -0.010238 -0.00777995 -0.00498819 -0.00307183 -0.00175529 -0.000988841 -0.000632543 -0.000509186 -0.000716675 -0.000508125 -0.000595707 -0.00046249 
-0.00124441 -0.0009222 -0.000837776 -0.000857887 -0.00135477 -0.00116222 -0.00148189 -0.00180931 -0.00328272 -0.0058804 -0.00978829 -0.0144246 -0.0194435 -0.0236524 -0.0261779 -0.0272228 -0.0262693 -0.0233894 -0.0193303 -0.0143735 -0.00972059 -0.00600626 -0.00315384 -0.00194136 -0.00129674 -0.00122384 -0.00140896 -0.00109912 -0.00103965 -0.00107471 -0.000460055 -8.69484e-05 0.00230792 0.00743781 0.0171144 0.0318598 0.0499276 0.0686954 0.0847772 0.0953197 0.098958 0.0952502 0.0846047 0.0687378 0.0500265 0.0318667 0.0171516 0.0075813 0.00231034 3.786e-05 -0.000745962 -0.000978412 -0.000931479 -0.0010779 -0.00111848 -0.00121569 -0.00139775 -0.00192237 -0.00346256 -0.00597729 -0.0099807 -0.0151146 -0.0202673 -0.0244393 -0.0276762 -0.0287 -0.0275109 -0.0246519 -0.0201561 -0.0150793 -0.00991071 -0.00605242 -0.00325533 -0.00189557 -0.00134068 -0.00114057 -0.0010236 -0.00115557 -0.000947389 -0.000920771 -0.00120788 -0.00129123 -0.0015347 -0.00209724 -0.00353299 -0.00545393 -0.00825846 -0.0106994 -0.0128612 -0.0143336 -0.0147185 -0.0145829 -0.0129729 -0.0106365 -0.00812966 -0.00557485 -0.00369985 -0.00225149 -0.00164192 -0.0012903 -0.00145203 -0.0011108 -0.00118933 -0.00116748 -0.00120972 -0.000971069 -0.0010525 -0.00143364 -0.00170089 -0.00249642 -0.00352143 -0.00507224 -0.00674163 -0.00771082 -0.00859121 -0.00883243 -0.00874121 -0.00769922 -0.00661094 -0.0050692 -0.00366554 -0.00250592 -0.00169992 -0.00138637 -0.00104619 -0.00111146 -0.00094094 -0.00116431 -0.000779397 -0.00092 -0.00107314 -0.00112143 -0.000814717 -0.00101072 -0.00128727 -0.00122787 -0.00108498 -0.00111133 -0.00118979 -0.00161756 -0.0012894 -0.00143512 -0.0013436 -0.00137713 -0.00107843 -0.00129621 -0.00130149 -0.00096966 -0.00106577 -0.0011564 -0.00116826 -0.00103255 -0.0010276 -0.00119686 -0.00112122 -0.00110065 -0.00117422 -0.00159327 -0.0026587 -0.00425715 -0.00701806 -0.0104446 -0.013788 -0.0166943 -0.018587 -0.0191053 -0.0183383 -0.0166152 -0.0138008 -0.010555 -0.00691192 -0.00438269 -0.00266387 -0.00165642 -0.00120004 -0.00103444 -0.00128428 -0.00103148 -0.00112926 -0.000981265 
-0.0017574 -0.00140596 -0.00130957 -0.0013329 -0.00187608 -0.00166268 -0.00200897 -0.00235581 -0.00393946 -0.0067279 -0.010922 -0.0158926 -0.0212816 -0.0257975 -0.0285027 -0.0296268 -0.0285993 -0.0255114 -0.0211575 -0.0158381 -0.0108506 -0.00686429 -0.00379816 -0.0025 -0.00180839 -0.00173431 -0.001937 -0.00159654 -0.0015324 -0.00157298 -0.000897827 -0.000487553 0.0021428 0.00777974 0.0184115 0.0346045 0.0544514 0.0750712 0.0927325 0.104312 0.108312 0.104236 0.0925442 0.0751141 0.0545635 0.034613 0.0184499 0.0079349 0.00214497 -0.000350025 -0.00121114 -0.00146443 -0.00141178 -0.0015754 -0.00162012 -0.00172822 -0.00193228 -0.00251381 -0.00422259 -0.00702281 -0.0114726 -0.0171774 -0.0229068 -0.0275463 -0.0311427 -0.0322765 -0.0309578 -0.0277807 -0.0227853 -0.0171417 -0.0113954 -0.00710468 -0.00399881 -0.00248476 -0.0018668 -0.00164507 -0.00151752 -0.00165835 -0.00143154 -0.0014026 -0.00171695 -0.00180673 -0.00206635 -0.00267673 -0.00423611 -0.00631291 -0.00936104 -0.0120003 -0.0143432 -0.0159417 -0.0163597 -0.016218 -0.0144704 -0.0119337 -0.00921957 -0.00645069 -0.00441766 -0.00284594 -0.00218869 -0.00180555 -0.00198528 -0.00161088 -0.00169647 -0.00167393 -0.00171826 -0.00145519 -0.00153827 -0.00193875 -0.00218969 -0.00298637 -0.00399453 -0.00554631 -0.00723104 -0.00816816 -0.00905018 -0.00928383 -0.00921472 -0.0081512 -0.00708726 -0.00554651 -0.00414891 -0.00299546 -0.00219016 -0.00188573 -0.00152903 -0.00160884 -0.00142539 -0.00166801 -0.00124539 -0.00140265 -0.0015665 -0.00161131 -0.00125543 -0.00142296 -0.00163886 -0.00144125 -0.00111829 -0.000980458 -0.000921378 -0.00129312 -0.000901726 -0.00109259 -0.00108867 -0.00127084 -0.00111135 -0.00151873 -0.00165391 -0.00137618 -0.00152827 -0.00165049 -0.00166945 -0.00152604 -0.00151943 -0.0017075 -0.00162213 -0.00159769 -0.00168061 -0.00213703 -0.00330456 -0.00504964 -0.00806816 -0.0118109 -0.0154669 -0.0186448 -0.0207154 -0.0212785 -0.0204384 -0.0185566 -0.0154851 -0.0119371 -0.00795226 -0.00518832 -0.00330994 -0.00220726 -0.00170846 -0.00152818 -0.00180285 -0.00152423 -0.00163174 -0.00146851 
-0.00209002 -0.00171491 -0.00160829 -0.00163479 -0.00221495 -0.0019834 -0.00235552 -0.002727 -0.00441494 -0.00738604 -0.0118588 -0.0171562 -0.0229046 -0.0277163 -0.0306002 -0.031799 -0.0307008 -0.0274117 -0.0227697 -0.0170981 -0.0117845 -0.007531 -0.00426395 -0.00287719 -0.00214507 -0.00206698 -0.00227972 -0.00191508 -0.00184699 -0.00189414 -0.00117087 -0.000732745 0.00208233 0.00811666 0.0194976 0.0368233 0.0580616 0.0801312 0.0990281 0.111427 0.115703 0.111337 0.0988276 0.0801747 0.058185 0.0368325 0.0195359 0.00828035 0.00208484 -0.000584019 -0.00150627 -0.00177481 -0.00171816 -0.00189447 -0.00194416 -0.00206254 -0.00228802 -0.00292628 -0.00479566 -0.00787564 -0.012757 -0.019015 -0.0253059 -0.0304021 -0.03434 -0.0355798 -0.0341385 -0.0306527 -0.0251741 -0.0189796 -0.0126752 -0.00796102 -0.00455939 -0.00289595 -0.00221644 -0.00197187 -0.00183591 -0.00198167 -0.00174002 -0.00171036 -0.00204441 -0.00214269 -0.00241373 -0.0030695 -0.00473445 -0.00695137 -0.0102109 -0.0130262 -0.01553 -0.0172366 -0.017688 -0.0175388 -0.0156692 -0.0129561 -0.0100592 -0.00710421 -0.00493081 -0.00325085 -0.00255184 -0.00213876 -0.00233438 -0.00193048 -0.00202415 -0.00199965 -0.0020473 -0.00176307 -0.00184713 -0.00226048 -0.00249221 -0.00327727 -0.00425278 -0.00578047 -0.00745282 -0.00834438 -0.00921291 -0.00943452 -0.00938974 -0.00831884 -0.00729831 -0.00578425 -0.00441226 -0.00328302 -0.00249296 -0.00220297 -0.00183541 -0.00192836 -0.00173646 -0.00199268 -0.00153948 -0.00170849 -0.00188067 -0.00191794 -0.00151104 -0.00162827 -0.0017444 -0.00135753 -0.000790897 -0.000424163 -0.000166955 -0.000436743 2.32932e-05 -0.000224399 -0.000346229 -0.000732017 -0.000785785 -0.00144257 -0.00175988 -0.00157659 -0.00180032 -0.00196144 -0.00198805 -0.001842 -0.00183375 -0.00203839 -0.00194238 -0.00191743 -0.00200705 -0.00249383 -0.0037451 -0.00560994 -0.00883702 -0.0128354 -0.0167471 -0.0201452 -0.022359 -0.0229588 -0.0220593 -0.0200488 -0.0167709 -0.0129764 -0.00871228 -0.00575722 -0.00375141 -0.00256901 -0.00203659 -0.00184394 -0.00213887 -0.00184108 -0.00195594 -0.00178204 
-0.00230325 -0.00191887 -0.00180314 -0.00183182 -0.00242704 -0.00218513 -0.00257594 -0.00297669 -0.00474307 -0.00785274 -0.0125446 -0.018104 -0.0241315 -0.0291739 -0.032205 -0.0334634 -0.0323036 -0.0288635 -0.0239912 -0.0180455 -0.0124727 -0.00799995 -0.00459009 -0.00312838 -0.00236812 -0.00228108 -0.00249402 -0.00211636 -0.00204693 -0.00210304 -0.00135895 -0.000905781 0.00198442 0.00819042 0.0198881 0.0376853 0.0595143 0.0821961 0.101608 0.114352 0.118752 0.114262 0.101405 0.0822394 0.0596456 0.0376985 0.0199223 0.00835413 0.00198944 -0.000755088 -0.00170165 -0.00197461 -0.00191682 -0.00209825 -0.00215019 -0.00227912 -0.00251919 -0.0031988 -0.00517681 -0.00846147 -0.0136437 -0.0202875 -0.0269797 -0.0324052 -0.0365764 -0.037883 -0.0363603 -0.0326596 -0.0268404 -0.0202589 -0.0135607 -0.00854383 -0.004941 -0.00316533 -0.00244124 -0.00218314 -0.00204434 -0.00218698 -0.00193983 -0.001912 -0.00225016 -0.00234929 -0.00260945 -0.00326315 -0.0049255 -0.00712779 -0.0103938 -0.01319 -0.0156863 -0.0173878 -0.0178441 -0.0177086 -0.0158306 -0.0131212 -0.010238 -0.00729469 -0.0051312 -0.00344841 -0.00276109 -0.00234241 -0.00255203 -0.00213275 -0.00223422 -0.00220735 -0.00225739 -0.00195863 -0.0020352 -0.00242322 -0.00258714 -0.00324827 -0.00403529 -0.00532381 -0.00676476 -0.00744231 -0.00817477 -0.00834787 -0.00836195 -0.00740892 -0.00660333 -0.0053319 -0.00418817 -0.00325305 -0.00258561 -0.00236698 -0.002021 -0.00213027 -0.00193666 -0.0021986 -0.0017286 -0.00190342 -0.00207711 -0.00210552 -0.00164877 -0.00168786 -0.00165022 -0.00101349 -0.000132188 0.000540847 0.00106748 0.000964758 0.00148841 0.00117797 0.000879366 0.000227804 -0.000127616 -0.0011021 -0.0016656 -0.0016304 -0.00194577 -0.00215144 -0.00218607 -0.0020454 -0.00203509 -0.00225125 -0.00214897 -0.00212447 -0.00222454 -0.00274315 -0.00408148 -0.00608039 -0.00953194 -0.0137979 -0.0179906 -0.0216294 -0.023998 -0.0246441 -0.0236872 -0.0215238 -0.0180244 -0.0139522 -0.0094 -0.00623138 -0.00409019 -0.00282146 -0.00225667 -0.00204625 -0.00235361 -0.0020463 -0.00216125 -0.00198526 
-0.00243655 -0.00204951 -0.00193188 -0.00196206 -0.00256471 -0.00232287 -0.00272302 -0.00314047 -0.00496063 -0.00816143 -0.0129888 -0.0187181 -0.0249225 -0.0301145 -0.0332437 -0.0345359 -0.0333456 -0.0297999 -0.0247811 -0.0186575 -0.0129195 -0.00830718 -0.0047988 -0.00329158 -0.00251104 -0.00241496 -0.00263316 -0.00225026 -0.00217765 -0.00223425 -0.00148238 -0.00102525 0.00189775 0.00817956 0.0200218 0.0380307 0.0601182 0.0830718 0.102717 0.115611 0.120065 0.115516 0.102512 0.0831178 0.0602521 0.0380392 0.020051 0.00834668 0.00190384 -0.000873891 -0.00183147 -0.00210946 -0.00204711 -0.00223013 -0.00228565 -0.00241315 -0.00265688 -0.00334111 -0.00533834 -0.00864629 -0.0138785 -0.0205758 -0.0273233 -0.0327946 -0.0370031 -0.0383233 -0.0367836 -0.0330547 -0.0271847 -0.0205473 -0.013793 -0.00873247 -0.00509359 -0.00330911 -0.00258144 -0.00231601 -0.00217942 -0.00232286 -0.00207217 -0.00204265 -0.00238675 -0.00249004 -0.00276055 -0.00343322 -0.00514763 -0.00741738 -0.0107744 -0.0136579 -0.0162334 -0.0179831 -0.0184571 -0.0183093 -0.0163766 -0.0135911 -0.0106193 -0.00758694 -0.00535632 -0.00362311 -0.0029145 -0.00248153 -0.00269001 -0.00226798 -0.00236799 -0.00234247 -0.0023891 -0.00208822 -0.00216003 -0.00254084 -0.00267458 -0.0032844 -0.00399074 -0.0051875 -0.00653065 -0.00712426 -0.00780032 -0.00795159 -0.00798938 -0.00708496 -0.00636918 -0.00519829 -0.00415188 -0.00328908 -0.0026787 -0.00248063 -0.0021476 -0.00226471 -0.00207139 -0.00233207 -0.00185746 -0.00203986 -0.00221376 -0.00224051 -0.00178755 -0.00183737 -0.00182478 -0.00121632 -0.000373918 0.000261589 0.00075494 0.000624678 0.00114574 0.0008429 0.000567335 -5.43969e-05 -0.000366884 -0.0013083 -0.00183959 -0.00177791 -0.00208431 -0.00228785 -0.00231873 -0.00218005 -0.00216733 -0.00238764 -0.00228339 -0.00225515 -0.00235161 -0.00285126 -0.00415519 -0.00607717 -0.00942028 -0.0135492 -0.0175997 -0.0211201 -0.0234105 -0.024028 -0.0230976 -0.0210164 -0.017637 -0.0137067 -0.00928806 -0.0062296 -0.00415824 -0.00292859 -0.00237921 -0.00217746 -0.00248609 -0.00217745 -0.00229673 -0.00211602 
-0.00252226 -0.00213594 -0.00201601 -0.00204577 -0.0026469 -0.00240221 -0.00280126 -0.0032149 -0.00501203 -0.0081776 -0.0129573 -0.0186189 -0.0247611 -0.0298948 -0.0329861 -0.0342665 -0.0330856 -0.0295804 -0.0246179 -0.018561 -0.0128873 -0.00832456 -0.00485646 -0.00336251 -0.00259346 -0.00250183 -0.00271508 -0.00233301 -0.00226127 -0.002322 -0.00156895 -0.0011121 0.00180643 0.00807962 0.019906 0.0378867 0.059944 0.0828685 0.102481 0.115359 0.119807 0.115262 0.102275 0.0829091 0.0600793 0.0378981 0.019936 0.00824524 0.0018122 -0.000960327 -0.00191784 -0.00219117 -0.00212979 -0.00231587 -0.00237117 -0.00250112 -0.00275281 -0.00345628 -0.00549723 -0.00889572 -0.0142545 -0.0211176 -0.028038 -0.0336511 -0.0379567 -0.0393029 -0.0377334 -0.0339098 -0.027897 -0.0210926 -0.014171 -0.008978 -0.00525767 -0.0034241 -0.00267444 -0.00240459 -0.00226519 -0.00240532 -0.00215526 -0.0021286 -0.00246798 -0.00257379 -0.0028332 -0.00350355 -0.00519647 -0.00743905 -0.0107647 -0.013612 -0.0161583 -0.0178903 -0.0183614 -0.0182195 -0.0163062 -0.0135461 -0.01061 -0.00761413 -0.00540618 -0.0036915 -0.0029933 -0.0025624 -0.0027751 -0.00235019 -0.00245349 -0.00242534 -0.00247432 -0.00217125 -0.00224189 -0.00261402 -0.00273424 -0.00331385 -0.00397567 -0.00511231 -0.00639928 -0.00694238 -0.00758606 -0.0077246 -0.00777606 -0.00690037 -0.00623667 -0.00512384 -0.00412951 -0.00331607 -0.00273402 -0.0025556 -0.00222611 -0.00234649 -0.00215566 -0.0024165 -0.00194174 -0.00211863 -0.00229286 -0.00231149 -0.00183234 -0.00182733 -0.00170836 -0.000939628 0.00010787 0.000943585 0.00161504 0.00160306 0.00216133 0.00181832 0.00142551 0.000629984 0.00011098 -0.00103213 -0.00172247 -0.00176739 -0.00212959 -0.00235891 -0.00239783 -0.00226299 -0.00224856 -0.00247252 -0.00236418 -0.00234022 -0.00243746 -0.00294694 -0.00427082 -0.00622883 -0.00962516 -0.0138199 -0.017945 -0.0215239 -0.0238536 -0.0244824 -0.0235367 -0.021416 -0.0179823 -0.0139825 -0.00949358 -0.00638109 -0.00427742 -0.00302491 -0.00246783 -0.00226142 -0.00257264 -0.00226362 -0.00238163 -0.0022021 
-0.0025101 -0.00212315 -0.00200355 -0.00203285 -0.0026341 -0.00238929 -0.00278831 -0.00320266 -0.00500326 -0.00817319 -0.0129604 -0.0186323 -0.0247834 -0.0299257 -0.0330224 -0.0343052 -0.0331216 -0.029612 -0.0246408 -0.0185751 -0.0128912 -0.00832057 -0.00484748 -0.00335244 -0.00258081 -0.00248881 -0.00270305 -0.00232 -0.00224843 -0.00230913 -0.00155573 -0.00109763 0.0018225 0.00810058 0.0199333 0.0379268 0.0599997 0.082939 0.102563 0.11545 0.119907 0.115356 0.102359 0.0829808 0.0601351 0.0379391 0.0199633 0.00826548 0.00182878 -0.000946308 -0.00190384 -0.00217764 -0.00211744 -0.00230268 -0.00235701 -0.00248809 -0.00273659 -0.00343592 -0.00546514 -0.00884408 -0.0141701 -0.0209944 -0.0278737 -0.0334539 -0.0377343 -0.0390729 -0.0375119 -0.0337114 -0.0277328 -0.0209684 -0.0140864 -0.00892606 -0.00522686 -0.00340269 -0.00265782 -0.00239093 -0.0022525 -0.00239199 -0.00214298 -0.00211572 -0.00245576 -0.00255882 -0.00281825 -0.00348338 -0.00516933 -0.00739993 -0.0107117 -0.0135438 -0.0160768 -0.0178004 -0.0182686 -0.0181302 -0.0162241 -0.013478 -0.0105558 -0.00757407 -0.00537894 -0.00367128 -0.00297725 -0.00254907 -0.00276216 -0.00233754 -0.00244069 -0.00241299 -0.00246215 -0.00215812 -0.00222828 -0.00259841 -0.00271417 -0.00328668 -0.00393951 -0.00506116 -0.00633456 -0.00686495 -0.0075014 -0.00763866 -0.00769178 -0.00682502 -0.00617141 -0.00507206 -0.00409201 -0.00329066 -0.00271415 -0.00254061 -0.00221286 -0.00233376 -0.00214079 -0.00240354 -0.00192748 -0.00210569 -0.00227958 -0.00230085 -0.00182235 -0.00182412 -0.00171479 -0.000961372 6.53385e-05 0.000881891 0.00153509 0.00151187 0.00206529 0.00172671 0.00134482 0.000567062 6.97944e-05 -0.0010534 -0.00172932 -0.00176401 -0.00212151 -0.00234775 -0.00238604 -0.00225034 -0.00223683 -0.00245939 -0.00235249 -0.00232775 -0.00242862 -0.0029457 -0.0042893 -0.00628274 -0.00973472 -0.013997 -0.01819 -0.0218288 -0.0241968 -0.0248394 -0.0238809 -0.0217211 -0.018228 -0.0141588 -0.00960173 -0.00643544 -0.00429655 -0.00302466 -0.0024598 -0.00224925 -0.0025604 -0.00225013 -0.00236754 -0.00218892 
-0.00244359 -0.00205579 -0.00193622 -0.00196931 -0.00257027 -0.00232625 -0.00272732 -0.00314155 -0.00495203 -0.00814131 -0.0129499 -0.0186567 -0.0248375 -0.0300107 -0.0331221 -0.0344123 -0.033223 -0.0296942 -0.024695 -0.0185965 -0.0128816 -0.00828912 -0.00479559 -0.00329171 -0.00251644 -0.0024238 -0.00263681 -0.00225465 -0.00218443 -0.00224301 -0.00149006 -0.00103094 0.00189607 0.0081786 0.0200225 0.0380418 0.060141 0.0831063 0.102758 0.115661 0.120118 0.115569 0.102556 0.0831499 0.0602744 0.0380523 0.0200574 0.00834383 0.00190038 -0.000878035 -0.00183686 -0.00211496 -0.00205309 -0.00223561 -0.00229048 -0.00242015 -0.00266738 -0.00336121 -0.00538125 -0.00873578 -0.0140281 -0.0208112 -0.027645 -0.0331874 -0.0374452 -0.0387787 -0.0372252 -0.0334462 -0.0275053 -0.0207826 -0.0139444 -0.00882056 -0.00514129 -0.00333041 -0.0025923 -0.00232371 -0.00218362 -0.00232919 -0.00207599 -0.00204763 -0.00238912 -0.00248865 -0.00274171 -0.00338161 -0.00502596 -0.00719737 -0.010431 -0.0131851 -0.0156499 -0.0173284 -0.0177789 -0.0176572 -0.0157954 -0.0131164 -0.0102718 -0.00736744 -0.00523553 -0.00356813 -0.00289603 -0.00248013 -0.00269526 -0.00227259 -0.00237395 -0.00234868 -0.00239604 -0.00209544 -0.00217195 -0.00256593 -0.00272904 -0.00338978 -0.00417496 -0.00546834 -0.00691422 -0.00759143 -0.00832396 -0.00849509 -0.00851226 -0.00755187 -0.00675044 -0.00547704 -0.00432953 -0.00339197 -0.00272647 -0.00250651 -0.00215989 -0.00227155 -0.00207703 -0.00233744 -0.00186374 -0.00204174 -0.0022152 -0.00223967 -0.00177482 -0.00180038 -0.00173954 -0.00105705 -0.000119287 0.000608566 0.00118389 0.00110661 0.00164721 0.00132413 0.000994669 0.000294544 -0.000113416 -0.00114799 -0.00175418 -0.0017406 -0.00207315 -0.00228809 -0.00232392 -0.00218455 -0.00217298 -0.00239416 -0.00228752 -0.00226323 -0.00235986 -0.00286986 -0.0041883 -0.00614782 -0.00954352 -0.0137361 -0.0178554 -0.0214297 -0.0237584 -0.0243878 -0.023444 -0.0213248 -0.0178925 -0.013893 -0.00940864 -0.00629907 -0.00419486 -0.00294632 -0.00238761 -0.00218274 -0.00249344 -0.00218502 -0.00230353 -0.00212422 
-0.0023191 -0.0019367 -0.00182218 -0.00185119 -0.00244509 -0.00220584 -0.00259394 -0.00298887 -0.00474674 -0.00784027 -0.0125028 -0.0180255 -0.0240172 -0.0290315 -0.0320429 -0.0332925 -0.0321444 -0.0287178 -0.0238792 -0.0179678 -0.0124322 -0.0079871 -0.00459113 -0.00314086 -0.00238283 -0.00229643 -0.00251309 -0.00213644 -0.00206561 -0.00211823 -0.0013776 -0.000924512 0.00195879 0.00815346 0.0198323 0.0376017 0.0593925 0.0820355 0.101417 0.114139 0.118533 0.114048 0.101213 0.0820786 0.0595214 0.0376121 0.0198673 0.00831932 0.00196609 -0.000775988 -0.00172119 -0.00199547 -0.00193399 -0.0021168 -0.00216889 -0.00229222 -0.00253357 -0.00320886 -0.00517517 -0.00843072 -0.0135781 -0.020171 -0.0268096 -0.032194 -0.036337 -0.0376368 -0.0361231 -0.0324514 -0.0266736 -0.0201411 -0.0134945 -0.00851571 -0.00493461 -0.0031762 -0.00245977 -0.00220095 -0.00206222 -0.00220635 -0.00195832 -0.0019298 -0.00226899 -0.00236606 -0.00262863 -0.00327479 -0.00493144 -0.0071214 -0.0103699 -0.0131512 -0.0156358 -0.0173285 -0.0177797 -0.0176456 -0.0157779 -0.0130847 -0.0102155 -0.00728663 -0.00513459 -0.00346027 -0.00277741 -0.00236047 -0.00256734 -0.00215442 -0.00225086 -0.00222489 -0.00227067 -0.00197717 -0.00205097 -0.00243791 -0.00259645 -0.00324643 -0.00401702 -0.00529007 -0.00670879 -0.00737335 -0.0080952 -0.00826274 -0.00827899 -0.00734031 -0.00655006 -0.00529722 -0.00417682 -0.00325345 -0.0025974 -0.00237991 -0.00203954 -0.00214925 -0.00195606 -0.00221643 -0.00174955 -0.0019238 -0.00210117 -0.00213665 -0.00170739 -0.00180292 -0.00187656 -0.00140858 -0.000740062 -0.000277904 6.45476e-05 -0.000157476 0.000326868 6.03431e-05 -0.000118784 -0.000590382 -0.0007321 -0.00149735 -0.00189183 -0.00174678 -0.00200347 -0.00218216 -0.00220893 -0.00206442 -0.00205307 -0.00226803 -0.00216814 -0.00214172 -0.00223517 -0.00273664 -0.00403152 -0.0059504 -0.00928319 -0.0133992 -0.0174389 -0.0209481 -0.0232316 -0.0238492 -0.022923 -0.0208451 -0.0174707 -0.0135513 -0.00915267 -0.00610363 -0.00403608 -0.00281269 -0.0022646 -0.00206332 -0.00236748 -0.00206284 -0.00218064 -0.00200027 
-0.0020753 -0.00169905 -0.00159052 -0.001615 -0.00219659 -0.00196202 -0.00233607 -0.00271201 -0.0044057 -0.00738528 -0.0118791 -0.0171954 -0.0229659 -0.0277946 -0.0306914 -0.0318953 -0.0307898 -0.027491 -0.0228313 -0.0171378 -0.0118045 -0.00753115 -0.00425668 -0.00286402 -0.00212938 -0.00205056 -0.00226315 -0.00189574 -0.0018276 -0.00187742 -0.00115284 -0.000710941 0.0021053 0.00815405 0.0195561 0.0369073 0.0581875 0.080296 0.0992217 0.111644 0.115931 0.111555 0.0990228 0.0803387 0.0583117 0.0369216 0.0195919 0.00831641 0.00211142 -0.000565075 -0.0014875 -0.0017537 -0.00169938 -0.0018771 -0.00192567 -0.00204768 -0.00227701 -0.002928 -0.00482401 -0.00796249 -0.0129235 -0.0192836 -0.0256842 -0.0308716 -0.0348689 -0.0361244 -0.0346632 -0.0311218 -0.0255496 -0.0192526 -0.012842 -0.00804425 -0.00459108 -0.002894 -0.00220076 -0.00195636 -0.00181934 -0.00196154 -0.0017221 -0.00169355 -0.00202598 -0.00212245 -0.00238923 -0.00304305 -0.0046996 -0.00690131 -0.0101483 -0.0129457 -0.0154352 -0.0171335 -0.0175853 -0.017439 -0.015575 -0.0128776 -0.00999706 -0.00705904 -0.00489746 -0.00322478 -0.00253236 -0.0021186 -0.00231741 -0.00191158 -0.00200793 -0.00198054 -0.00203004 -0.00174187 -0.00181913 -0.00220873 -0.00239489 -0.00309149 -0.00393648 -0.00529144 -0.0067939 -0.00753797 -0.0083102 -0.00849912 -0.00849041 -0.00751232 -0.00663809 -0.0052971 -0.00409126 -0.00309969 -0.00239541 -0.00215466 -0.00180611 -0.00190707 -0.00171504 -0.0019747 -0.00151728 -0.00168564 -0.00186033 -0.00189843 -0.00147836 -0.00157845 -0.00166034 -0.00122085 -0.000586124 -0.000155128 0.000159668 -7.03031e-05 0.000398003 0.000138554 -2.24858e-05 -0.000463517 -0.000580939 -0.00130555 -0.00167585 -0.00152684 -0.00176997 -0.00194055 -0.00196814 -0.00182315 -0.00181455 -0.00202131 -0.0019258 -0.00190132 -0.00199801 -0.00250688 -0.00381463 -0.00577049 -0.0091467 -0.0133246 -0.0174249 -0.0209853 -0.0233026 -0.0239375 -0.0230011 -0.0208838 -0.0174521 -0.0134702 -0.00902015 -0.0059203 -0.00382237 -0.00258401 -0.00203152 -0.0018258 -0.00212371 -0.00182321 -0.0019356 -0.00176236 
-0.00175106 -0.00139856 -0.00130278 -0.00132448 -0.00187182 -0.00165856 -0.0020043 -0.00235078 -0.00394159 -0.00673748 -0.0109436 -0.0159239 -0.0213276 -0.0258556 -0.0285689 -0.0296936 -0.0286676 -0.0255667 -0.0212038 -0.0158695 -0.0108709 -0.00687419 -0.00379513 -0.00249761 -0.00180105 -0.00172639 -0.00193463 -0.00159207 -0.00152513 -0.00156347 -0.00088633 -0.000474457 0.00216702 0.00783489 0.0185251 0.0348034 0.0547531 0.0754809 0.0932364 0.104882 0.108901 0.104798 0.0930465 0.0755244 0.0548648 0.0348101 0.0185613 0.00799283 0.00217237 -0.000337932 -0.00120298 -0.00145774 -0.00140404 -0.00156945 -0.00161471 -0.00171972 -0.00192422 -0.00250265 -0.00420543 -0.00698854 -0.0114209 -0.0170981 -0.0227975 -0.0274134 -0.0309953 -0.0321267 -0.0308106 -0.0276514 -0.0226765 -0.0170613 -0.0113427 -0.00707228 -0.00397619 -0.0024725 -0.00185903 -0.00163808 -0.00151144 -0.00165183 -0.00142555 -0.00139549 -0.00171372 -0.00180444 -0.00207673 -0.00270622 -0.00431191 -0.00645205 -0.00958073 -0.0123042 -0.0147177 -0.0163621 -0.0167935 -0.016637 -0.014843 -0.0122382 -0.00944109 -0.00659012 -0.00449333 -0.00287886 -0.00219888 -0.00180415 -0.00198068 -0.00160707 -0.00169016 -0.00166739 -0.00170991 -0.00144701 -0.00152565 -0.00191802 -0.00214555 -0.00290374 -0.00385143 -0.00533037 -0.00693772 -0.00781017 -0.0086498 -0.00886699 -0.00881432 -0.00779349 -0.00679517 -0.00533131 -0.00401217 -0.00291577 -0.00215177 -0.00186406 -0.0015174 -0.00160162 -0.00141785 -0.00166207 -0.00123713 -0.00139719 -0.00156517 -0.00161586 -0.00127666 -0.00148668 -0.00178558 -0.00171178 -0.00154404 -0.00156128 -0.001639 -0.00210097 -0.0017384 -0.00189754 -0.00180445 -0.00185459 -0.00153566 -0.00179004 -0.0018015 -0.00144136 -0.00155028 -0.00165427 -0.00166649 -0.00151992 -0.00151293 -0.00170067 -0.00161773 -0.00159026 -0.0016722 -0.00212361 -0.00328481 -0.00500755 -0.00799982 -0.0117095 -0.0153276 -0.018479 -0.0205284 -0.0210846 -0.0202512 -0.0183916 -0.0153456 -0.0118355 -0.00788459 -0.00514955 -0.00328698 -0.00219443 -0.00170009 -0.00152132 -0.00179559 -0.00151573 -0.00162509 -0.00145851 
-0.00128645 -0.000970574 -0.000889978 -0.000909255 -0.00139692 -0.00121085 -0.00151553 -0.00181651 -0.0032233 -0.00570323 -0.00942438 -0.0138362 -0.0186181 -0.0226293 -0.0250269 -0.026024 -0.0251185 -0.0223708 -0.0185085 -0.0137868 -0.00935441 -0.00582702 -0.00309696 -0.00194999 -0.00132805 -0.00126452 -0.0014505 -0.00114874 -0.00109063 -0.00112094 -0.000516887 -0.00015177 0.00220337 0.0072391 0.0167426 0.031232 0.0489783 0.0674148 0.0832169 0.0935693 0.0971417 0.0935034 0.0830449 0.0674553 0.0490734 0.0312368 0.0167823 0.00738237 0.00220228 -2.73876e-05 -0.00079833 -0.00102793 -0.000981949 -0.00112649 -0.00116475 -0.00125546 -0.00142688 -0.00191952 -0.00338062 -0.00574655 -0.00952871 -0.0143823 -0.0192418 -0.0231734 -0.0262427 -0.0272153 -0.0260858 -0.0233832 -0.0191366 -0.0143428 -0.00945985 -0.00582402 -0.0031749 -0.00189488 -0.00137135 -0.00118295 -0.00106735 -0.00120245 -0.000997901 -0.000968804 -0.00125509 -0.00133681 -0.00158416 -0.00214176 -0.00356902 -0.00547977 -0.00826103 -0.0106915 -0.0128372 -0.0143028 -0.0146797 -0.0145396 -0.0129489 -0.0106266 -0.00813431 -0.00559258 -0.0037277 -0.00229363 -0.00168115 -0.0013383 -0.00149184 -0.0011602 -0.00123386 -0.00121432 -0.00125451 -0.00102521 -0.0011119 -0.0015125 -0.00182802 -0.00271398 -0.0038756 -0.00559986 -0.00744041 -0.00856163 -0.00954154 -0.00981855 -0.00968555 -0.00855751 -0.00731264 -0.00559369 -0.00402317 -0.0027244 -0.00182827 -0.00146351 -0.0011055 -0.00115973 -0.00099015 -0.00121092 -0.000836599 -0.000974305 -0.00112439 -0.00117591 -0.000893678 -0.00112348 -0.00146711 -0.00151885 -0.00151644 -0.00167769 -0.0018778 -0.00237908 -0.00207945 -0.00219578 -0.00202673 -0.00194159 -0.00151046 -0.00158554 -0.00148094 -0.0010855 -0.00113992 -0.00120921 -0.00122014 -0.0010809 -0.00107682 -0.00123993 -0.00116777 -0.0011461 -0.00121446 -0.00161469 -0.00262849 -0.00414968 -0.00677916 -0.0100524 -0.0132312 -0.0159973 -0.017801 -0.0182919 -0.0175579 -0.0159241 -0.0132371 -0.0101545 -0.0066787 -0.00427389 -0.00263313 -0.00167688 -0.00123906 -0.00108416 -0.00132781 -0.0010786 -0.00117622 -0.00102958 
-0.000704694 -0.000439718 -0.000381199 -0.000391301 -0.000803048 -0.000657022 -0.000913414 -0.00118496 -0.00241695 -0.00458555 -0.00784112 -0.0117112 -0.0158911 -0.0194037 -0.0215145 -0.0223822 -0.0215995 -0.0191873 -0.0158021 -0.0116699 -0.00777684 -0.00468739 -0.00230333 -0.00130212 -0.000749595 -0.000684183 -0.000849553 -0.000597335 -0.00054405 -0.00056437 -5.99432e-05 0.000241889 0.00220475 0.00640764 0.0143366 0.0264328 0.0412401 0.0566186 0.0698133 0.0784504 0.0814272 0.0783987 0.0696664 0.0566613 0.0413149 0.0264332 0.0143659 0.00653256 0.00220368 0.000343175 -0.000297891 -0.00049363 -0.000456791 -0.000572945 -0.000604383 -0.000674558 -0.000798051 -0.00116728 -0.00228052 -0.00404254 -0.00689871 -0.0105624 -0.0142134 -0.0171609 -0.019494 -0.0202381 -0.0193711 -0.0173361 -0.0141298 -0.0105225 -0.0068393 -0.00411119 -0.00209767 -0.0011444 -0.000754451 -0.000613088 -0.000523416 -0.000638988 -0.000470984 -0.000442282 -0.000688249 -0.000764232 -0.00100763 -0.00152843 -0.00284578 -0.00462511 -0.00716696 -0.00943946 -0.01143 -0.0127814 -0.0131326 -0.0129698 -0.0115147 -0.00938358 -0.00706803 -0.00470986 -0.0029771 -0.00165892 -0.00107753 -0.00076695 -0.000879654 -0.000605419 -0.000664137 -0.000648597 -0.000682986 -0.000491818 -0.000568654 -0.000916856 -0.00121031 -0.00201198 -0.00307608 -0.00464121 -0.00629283 -0.00732966 -0.00821815 -0.00847698 -0.00833801 -0.00733703 -0.00618828 -0.00463234 -0.0032143 -0.00202845 -0.0012186 -0.000875262 -0.000564897 -0.000605194 -0.000457604 -0.000646926 -0.000334631 -0.000455267 -0.000581591 -0.000637394 -0.000441093 -0.000724063 -0.00117709 -0.00147586 -0.00180146 -0.00225482 -0.00270654 -0.00331373 -0.00312648 -0.00315947 -0.00283204 -0.00248285 -0.00179426 -0.00153032 -0.0011902 -0.000693863 -0.000649243 -0.000662818 -0.000660968 -0.000536755 -0.000534558 -0.000665116 -0.000611362 -0.000587523 -0.000644475 -0.000966296 -0.00179297 -0.00302285 -0.00515473 -0.00782053 -0.0103887 -0.0126336 -0.0140933 -0.0144926 -0.0138985 -0.0125782 -0.0103879 -0.00789801 -0.0050756 -0.00312637 -0.00179278 -0.00102043 -0.000665783 -0.000540278 -0.000739047 -0.000529768 -0.000613005 -0.000491369 
