0.000878534 0.000814221 0.000703583 0.001001 0.00113291 0.00123585 0.00203929 0.00381438 0.00874179 0.017264 0.0299746 0.0464132 0.0629069 0.0771504 0.0863346 0.0897763 0.0865309 0.0770651 0.0628641 0.0462668 0.0302655 0.0170532 0.00828149 0.00383318 0.00194869 0.00102086 0.00103138 0.000855767 0.000820153 0.000870707 0.000757914 0.000651227 -0.000221549 -0.00190929 -0.00503398 -0.00994036 -0.0156894 -0.0217025 -0.0271302 -0.0306907 -0.031815 -0.0306118 -0.0272098 -0.0220915 -0.0158077 -0.00969785 -0.00487852 -0.00187262 -0.000126877 0.000627117 0.000801259 0.00117481 0.000979265 0.000704478 0.000846416 0.000920532 0.000698223 0.000232357 -0.000503805 -0.00236862 -0.0047848 -0.0081 -0.0114034 -0.01415 -0.0160069 -0.0164641 -0.0160403 -0.014086 -0.0113483 -0.00811196 -0.00489508 -0.00219763 -0.000763908 0.000313264 0.000960883 0.000763765 0.0010081 0.00111818 0.000906733 0.000799596 0.000983979 0.000890538 0.000810237 -0.000162096 -0.000962037 -0.00249313 -0.00430214 -0.00622848 -0.00773198 -0.00910482 -0.00936542 -0.00877943 -0.00803285 -0.00626353 -0.00437121 -0.00254225 -0.000782633 -8.57403e-05 0.000656072 0.000832199 0.000950871 0.000962672 0.000884334 0.00111216 0.000911729 0.000845358 0.000809384 0.000881832 0.000571751 -4.12058e-05 -0.000870547 -0.00166455 -0.00260489 -0.00334646 -0.00406125 -0.0041854 -0.00395197 -0.00360681 -0.00267434 -0.00157041 -0.000711831 -8.72628e-05 0.000670295 0.000698193 0.00105198 0.00112097 0.00109318 0.000847051 0.000748054 0.00126377 0.000945428 0.000849289 0.00105951 0.0011324 0.00130775 0.00127063 0.00166528 0.00175748 0.00194027 0.0022271 0.00214924 0.00210604 0.00192956 0.00177093 0.00144363 0.00134916 0.00130329 0.000889402 0.000972052 0.000999346 0.000891032 0.00102841 0.00107785 0.00113066 0.00110162 0.000831532 0.000850256 1.98667e-06 -0.00155861 -0.00434541 -0.00861902 -0.0141767 -0.0199133 -0.0246741 -0.0278587 -0.0288914 -0.0276839 -0.0245019 -0.019596 -0.0142377 -0.0088456 -0.00454372 -0.0017461 -0.000114728 0.000481641 0.000861695 0.000802822 0.000881099 0.00100367 0.00098858 
0.000570272 0.000506237 0.000396411 0.0006956 0.000827512 0.000927194 0.00174751 0.00355564 0.0085655 0.0172214 0.0301364 0.0468496 0.0636116 0.0780842 0.0874211 0.0909222 0.0876178 0.0780012 0.0635704 0.0466952 0.030434 0.0170039 0.00809185 0.00356751 0.00165718 0.000716531 0.000718406 0.000543672 0.000504753 0.000559055 0.000448224 0.000353023 -0.000509385 -0.00216224 -0.00522298 -0.0100283 -0.0156527 -0.0215333 -0.0268569 -0.030349 -0.0314453 -0.0302702 -0.0269399 -0.0219335 -0.0157723 -0.00977877 -0.00506099 -0.00212373 -0.000405901 0.0003275 0.000493011 0.000871083 0.000681204 0.000388432 0.000538119 0.000619021 0.000390631 -7.10147e-05 -0.000787369 -0.00262762 -0.0049998 -0.00826206 -0.0115029 -0.0142114 -0.0160361 -0.0164789 -0.0160708 -0.0141463 -0.0114591 -0.00826985 -0.00510803 -0.00245381 -0.00105698 1.69801e-05 0.000657231 0.000449306 0.000702374 0.000812674 0.000597646 0.00049 0.000681719 0.000589148 0.000518012 -0.000430597 -0.00118036 -0.00263726 -0.00435825 -0.0061847 -0.00760294 -0.0089307 -0.00916642 -0.00859377 -0.00790904 -0.00621908 -0.00442397 -0.00268289 -0.000993545 -0.000357242 0.000367232 0.000522728 0.00064317 0.000649004 0.000574422 0.000805075 0.00060847 0.000533621 0.000504433 0.000576209 0.000277898 -0.000325803 -0.0011387 -0.00191135 -0.00283953 -0.00355193 -0.00425901 -0.00437628 -0.00414839 -0.00382539 -0.00290433 -0.00181317 -0.00098588 -0.00038081 0.000380204 0.000394548 0.000751163 0.000821532 0.000793498 0.000537105 0.000435414 0.000961397 0.000635666 0.000527577 0.000733317 0.000777189 0.000896475 0.000773967 0.00106454 0.00104789 0.00113223 0.00136027 0.0012636 0.00125017 0.00112352 0.00105686 0.000840713 0.000850458 0.000892833 0.000526435 0.000643189 0.000679408 0.000573349 0.000723173 0.00077105 0.000828923 0.000795781 0.000520439 0.000536588 -0.000328621 -0.00192048 -0.00476533 -0.00912742 -0.0148069 -0.0206618 -0.025524 -0.0287792 -0.0298301 -0.0285955 -0.0253505 -0.0203353 -0.0148678 -0.00936438 -0.00497191 -0.0021114 -0.000448358 0.000161948 0.000548959 0.00048712 0.000570254 0.000695719 0.000686312 
0.000141427 7.3825e-05 -3.29533e-05 0.000264025 0.000398517 0.000490741 0.00133176 0.0031724 0.00827006 0.0170609 0.0301917 0.04719 0.0642276 0.0789382 0.0884368 0.0919965 0.0886326 0.0788612 0.0641899 0.0470264 0.0304957 0.0168402 0.00778277 0.00317967 0.00124454 0.00028926 0.000281995 0.000105473 6.40187e-05 0.000123596 1.63104e-05 -7.1959e-05 -0.000919398 -0.00254403 -0.00553906 -0.0102432 -0.015751 -0.0214969 -0.0267186 -0.0301464 -0.0312163 -0.0300672 -0.0268072 -0.0219151 -0.015871 -0.00999347 -0.00537045 -0.0025013 -0.000815351 -9.53026e-05 5.70961e-05 0.000443041 0.000261147 -5.36767e-05 0.000103376 0.000197755 -3.93335e-05 -0.000494953 -0.00118604 -0.00298855 -0.00530009 -0.00848986 -0.0116446 -0.0142913 -0.0160778 -0.0165018 -0.0161152 -0.0142275 -0.0116152 -0.00849074 -0.00540817 -0.00281548 -0.00146273 -0.000404175 0.000228493 1.09403e-05 0.000274066 0.000382977 0.000166408 5.78926e-05 0.000253804 0.000159863 9.51697e-05 -0.000832244 -0.00154022 -0.00293312 -0.00457756 -0.00632095 -0.00766328 -0.00895713 -0.00916559 -0.00860447 -0.00798045 -0.00635169 -0.00464183 -0.00297608 -0.0013413 -0.000760449 -4.6301e-05 8.74105e-05 0.000211181 0.000206932 0.00013949 0.00037455 0.00018346 9.50169e-05 6.76132e-05 0.000125207 -0.000193438 -0.000842992 -0.00172132 -0.00258577 -0.00361137 -0.00439 -0.00515168 -0.00528185 -0.00503554 -0.00467764 -0.00367407 -0.00248186 -0.00157743 -0.000904762 -8.7279e-05 -5.35277e-05 0.000321579 0.000397336 0.000366559 0.000102238 -5.65922e-06 0.000534363 0.000200221 8.60896e-05 0.000284083 0.000299586 0.000364097 0.000155044 0.000344839 0.000221501 0.000208729 0.000379511 0.000269775 0.00028475 0.000205608 0.000226295 0.000116621 0.000228779 0.000362752 4.30983e-05 0.000192922 0.000239602 0.000131501 0.000292963 0.000343093 0.000401392 0.000369529 9.09113e-05 0.000111595 -0.000743253 -0.00229725 -0.00508574 -0.00935509 -0.0149302 -0.0206713 -0.0254339 -0.0286333 -0.0296581 -0.0284383 -0.0252643 -0.0203317 -0.01499 -0.00959977 -0.00530045 -0.00249109 -0.000865655 -0.000263613 0.000109403 4.7017e-05 0.00013478 0.00026048 0.000259098 
3.20822e-05 -3.51241e-05 -0.000137593 0.00015779 0.000288089 0.00038192 0.00122236 0.00305662 0.00813645 0.0168915 0.0299699 0.0469069 0.0638767 0.0785346 0.0880037 0.0915421 0.0881979 0.0784582 0.0638426 0.046742 0.0302775 0.0166717 0.00764646 0.00305609 0.00113541 0.0001809 0.000170625 -3.89357e-06 -4.45694e-05 1.46016e-05 -8.36631e-05 -0.000167913 -0.000982827 -0.00254573 -0.00542189 -0.00994788 -0.015236 -0.0207488 -0.0257745 -0.0290744 -0.0300982 -0.0289927 -0.0258637 -0.021171 -0.015352 -0.00969664 -0.00525556 -0.00250385 -0.000886402 -0.000188652 -4.66709e-05 0.000340954 0.000156185 -0.000163867 -2.13341e-06 9.1143e-05 -0.000143997 -0.000596604 -0.00127553 -0.0030639 -0.00534081 -0.00850124 -0.0116212 -0.0142321 -0.016005 -0.0164183 -0.0160416 -0.0141722 -0.0115911 -0.00850093 -0.00544966 -0.00288932 -0.00155373 -0.000502901 0.000130029 -9.55215e-05 0.000168912 0.000278428 6.20821e-05 -4.81024e-05 0.00014218 4.89884e-05 -1.87671e-05 -0.000950858 -0.00167418 -0.00308213 -0.004755 -0.00652674 -0.00788399 -0.00919726 -0.00940381 -0.00884294 -0.00820699 -0.00655225 -0.0048205 -0.00312937 -0.00147229 -0.000879372 -0.000155722 -2.15447e-05 9.79988e-05 9.45976e-05 2.65304e-05 0.000266539 7.21372e-05 -1.36991e-05 -4.32098e-05 1.43059e-05 -0.000314983 -0.000980382 -0.00188342 -0.00277658 -0.00383839 -0.00463806 -0.00541907 -0.00555704 -0.00530379 -0.00493289 -0.00389951 -0.00267252 -0.00173674 -0.00104429 -0.000208486 -0.000169651 0.000216324 0.000292173 0.00026272 -6.78548e-06 -0.000109454 0.000430312 9.49014e-05 -1.6248e-05 0.000200329 0.000238573 0.000353351 0.000220389 0.000512247 0.000487652 0.000556379 0.000780939 0.000692198 0.00068703 0.000549603 0.000485858 0.000281692 0.000294916 0.000352518 -1.5675e-05 0.000104744 0.000139891 2.262e-05 0.000186733 0.000237055 0.000289221 0.00026217 -1.31395e-05 -2.71876e-07 -0.000868913 -0.0024575 -0.00531064 -0.00967783 -0.0153764 -0.0212373 -0.0261052 -0.0293735 -0.0304237 -0.0291745 -0.0259352 -0.0208972 -0.0154364 -0.00991697 -0.00552765 -0.00265458 -0.000995785 -0.00037789 -4.57684e-06 -6.91996e-05 2.70279e-05 0.000154459 0.000152313 
-0.000698289 -0.000769708 -0.000860885 -0.000573995 -0.0004409 -0.000353066 0.00051292 0.00238886 0.0075783 0.0164881 0.0298197 0.0471005 0.0643954 0.0793349 0.0890102 0.0926072 0.0892013 0.0792718 0.0643698 0.0469222 0.0301371 0.0162606 0.00705884 0.00237248 0.000429126 -0.00054711 -0.000568482 -0.000743849 -0.000790211 -0.000725187 -0.000811888 -0.000875836 -0.00163673 -0.00309922 -0.00576843 -0.00997198 -0.0148728 -0.0199621 -0.024649 -0.0277308 -0.0286697 -0.0276452 -0.0247459 -0.0204153 -0.014986 -0.00971529 -0.00558922 -0.00305505 -0.00154552 -0.000891478 -0.000778865 -0.000379947 -0.000554384 -0.00091213 -0.000732522 -0.000622497 -0.000874642 -0.00132837 -0.00198854 -0.00376718 -0.00599952 -0.00913085 -0.0122015 -0.0147817 -0.0165467 -0.0169379 -0.0165841 -0.0147269 -0.012192 -0.00912199 -0.00611132 -0.00359044 -0.00228461 -0.00122809 -0.000593932 -0.000837646 -0.000551629 -0.000447808 -0.000661785 -0.000776887 -0.000581385 -0.00066464 -0.000694746 -0.00152869 -0.00206577 -0.00318939 -0.00452385 -0.00593612 -0.00697019 -0.00810561 -0.00822234 -0.00772896 -0.00731434 -0.00595028 -0.00458241 -0.00323826 -0.00184385 -0.0014549 -0.000812886 -0.000743248 -0.000635012 -0.00065615 -0.00071389 -0.000463681 -0.000650665 -0.000756358 -0.000786458 -0.000754094 -0.00113917 -0.0019049 -0.00296051 -0.00405124 -0.0053316 -0.00628173 -0.0071828 -0.0073553 -0.00705998 -0.00660559 -0.00538628 -0.00393551 -0.00281581 -0.00198001 -0.00101753 -0.000940952 -0.000513272 -0.00042616 -0.000455926 -0.000742722 -0.000849381 -0.000284343 -0.000635499 -0.000757018 -0.000533099 -0.000517473 -0.000439603 -0.000630971 -0.000392981 -0.000486917 -0.000488338 -0.000297307 -0.000387161 -0.000366748 -0.000490545 -0.000498407 -0.000630268 -0.000557782 -0.000436431 -0.00077795 -0.000637553 -0.000595931 -0.00072673 -0.000538509 -0.000486706 -0.000440303 -0.000461991 -0.000741565 -0.000729724 -0.00161289 -0.00320283 -0.00609104 -0.0105005 -0.0162624 -0.0221799 -0.0270885 -0.0304017 -0.0314565 -0.0301819 -0.0269223 -0.0218203 -0.0163192 -0.0107419 -0.0063232 -0.00341118 -0.00174523 -0.0011098 -0.00075075 -0.000820899 -0.000710216 -0.000580992 -0.000570027 
-0.00086229 -0.000930993 -0.00101915 -0.000739202 -0.000616697 -0.000538104 0.000317832 0.00215654 0.00723553 0.015943 0.0289845 0.0458989 0.0628102 0.0774302 0.0869 0.0904201 0.0870816 0.0773733 0.0627931 0.0457195 0.0293031 0.0157199 0.0067267 0.00213377 0.000243558 -0.000712693 -0.000748428 -0.000917606 -0.000961178 -0.000889903 -0.00096122 -0.00101993 -0.00171267 -0.00304491 -0.00545355 -0.00926316 -0.013697 -0.0182846 -0.0225419 -0.0253473 -0.0261906 -0.0252641 -0.0226436 -0.0187398 -0.0138045 -0.00901626 -0.00527759 -0.0029939 -0.00162864 -0.00102952 -0.000941095 -0.000548261 -0.000714112 -0.00108182 -0.000901517 -0.000783512 -0.00103029 -0.00145891 -0.00206422 -0.00372623 -0.00580253 -0.0087296 -0.011581 -0.0139776 -0.0156335 -0.0159915 -0.0156733 -0.0139308 -0.01158 -0.00871172 -0.00590737 -0.00355828 -0.00234879 -0.00135863 -0.000753255 -0.00100159 -0.000717589 -0.000617635 -0.000827165 -0.000939696 -0.000755802 -0.000848271 -0.000907909 -0.00177815 -0.00242077 -0.00368846 -0.00520873 -0.00680909 -0.00799955 -0.00924196 -0.00938037 -0.00886049 -0.00834629 -0.00681646 -0.00526784 -0.00373325 -0.00219604 -0.00171309 -0.00101404 -0.000927752 -0.000811867 -0.000833755 -0.000884995 -0.000634702 -0.000817278 -0.000926955 -0.000958895 -0.000948815 -0.00135861 -0.00218638 -0.00332644 -0.00454766 -0.00595567 -0.00700115 -0.00796886 -0.00816292 -0.00784602 -0.00732994 -0.00600831 -0.0044323 -0.00320212 -0.0022644 -0.00124506 -0.00112893 -0.00068334 -0.000594069 -0.000623969 -0.000912067 -0.00101525 -0.000460338 -0.000809804 -0.000930906 -0.000719735 -0.000737591 -0.000724334 -0.00100618 -0.000883605 -0.00108988 -0.00119755 -0.00108321 -0.00118072 -0.00113675 -0.00119666 -0.00111232 -0.00112016 -0.000938038 -0.00071967 -0.000995671 -0.000823788 -0.000771223 -0.000900408 -0.00070715 -0.000654614 -0.000611239 -0.000629555 -0.000899141 -0.000885656 -0.00172954 -0.00323836 -0.00598386 -0.0101677 -0.0156609 -0.0212815 -0.0259469 -0.0291022 -0.0301017 -0.0288769 -0.0257899 -0.0209191 -0.0157137 -0.0104084 -0.00621596 -0.00344194 -0.00186394 -0.00125691 -0.00092519 -0.000994196 -0.000876622 -0.000751606 -0.000734905 
-0.000753852 -0.000814578 -0.000896342 -0.000644067 -0.000535177 -0.000471852 0.000309418 0.00197942 0.00659051 0.0144802 0.0263068 0.0416546 0.0569872 0.0702469 0.0788351 0.0820354 0.0789969 0.0702009 0.0569765 0.0414873 0.0265993 0.0142742 0.00612494 0.00195967 0.000246891 -0.000619009 -0.000659466 -0.000811726 -0.000853747 -0.000781324 -0.000843632 -0.000893052 -0.00150443 -0.00267981 -0.00478933 -0.00813018 -0.0120209 -0.0160372 -0.01978 -0.0222478 -0.0229856 -0.0221756 -0.0198768 -0.0164578 -0.0121202 -0.00790873 -0.00462319 -0.00262637 -0.00142292 -0.000899568 -0.000830377 -0.00047278 -0.000613299 -0.00096215 -0.000796035 -0.000679538 -0.000911184 -0.00129876 -0.00184249 -0.00333566 -0.00521179 -0.00784644 -0.0104065 -0.0125671 -0.0140612 -0.0143859 -0.0140999 -0.0125255 -0.0104152 -0.00782369 -0.00530211 -0.00318621 -0.00209935 -0.00120602 -0.00066349 -0.000888422 -0.000623853 -0.000536108 -0.000725335 -0.000827961 -0.000656557 -0.000748105 -0.000811576 -0.00161161 -0.00221661 -0.00340758 -0.00483161 -0.00632487 -0.00744295 -0.00860049 -0.00872563 -0.00824409 -0.00776032 -0.0063292 -0.00488196 -0.00344021 -0.00200898 -0.00155816 -0.000903055 -0.000825493 -0.000712583 -0.000735997 -0.000777776 -0.00054884 -0.000709909 -0.000820661 -0.000849814 -0.00086295 -0.00126109 -0.00207742 -0.00320121 -0.00443967 -0.00584655 -0.00689418 -0.00784212 -0.0080377 -0.0077281 -0.00719794 -0.005893 -0.00433208 -0.00310432 -0.002151 -0.00115731 -0.00101973 -0.000597901 -0.000510438 -0.000539552 -0.000804402 -0.000902119 -0.000392239 -0.000715422 -0.000833519 -0.0006648 -0.000732556 -0.000825314 -0.00123755 -0.0013197 -0.00170468 -0.00197461 -0.00198601 -0.00210221 -0.00202041 -0.001968 -0.00172757 -0.00153587 -0.00117875 -0.000819616 -0.000972268 -0.000757279 -0.000690299 -0.000799367 -0.000615005 -0.000567179 -0.000523515 -0.000541525 -0.000790167 -0.000769088 -0.00151477 -0.00282722 -0.00522426 -0.00886886 -0.0136779 -0.0185893 -0.0226608 -0.0254245 -0.0262917 -0.0252118 -0.0225225 -0.0182517 -0.0137225 -0.00909623 -0.00543685 -0.00301047 -0.00163565 -0.00110412 -0.000816596 -0.000878864 -0.000773215 -0.000659774 -0.000638279 
-0.000582186 -0.000648802 -0.000714083 -0.000489878 -0.000383661 -0.000326734 0.000392944 0.00191139 0.00612107 0.0132983 0.0240753 0.0380654 0.052029 0.0641166 0.0719601 0.0748583 0.0721052 0.0640829 0.052024 0.037912 0.0243472 0.0131163 0.00568241 0.00187991 0.000337715 -0.000460343 -0.000495943 -0.000643765 -0.000677542 -0.000606163 -0.000658247 -0.000707747 -0.00124888 -0.00232389 -0.00422479 -0.00724575 -0.0107685 -0.0143831 -0.0177679 -0.0200029 -0.0206672 -0.019928 -0.0178587 -0.0147893 -0.0108543 -0.00704822 -0.00407522 -0.002275 -0.00120175 -0.000708568 -0.000656386 -0.000315025 -0.000450088 -0.000782417 -0.000618282 -0.000501142 -0.000720293 -0.00108402 -0.00158004 -0.00295973 -0.00466251 -0.00708963 -0.00944625 -0.0114062 -0.0127981 -0.0130846 -0.0128358 -0.0113847 -0.00945016 -0.0070696 -0.00475691 -0.00282255 -0.0018145 -0.00100064 -0.000486234 -0.000704574 -0.000453591 -0.000375699 -0.000543901 -0.000648119 -0.000502895 -0.000573766 -0.000624092 -0.00132192 -0.00181519 -0.00280197 -0.00398768 -0.00525382 -0.00615607 -0.00716824 -0.00723743 -0.00682412 -0.00646377 -0.00524578 -0.00404176 -0.00284575 -0.00160925 -0.00126074 -0.00068858 -0.000636653 -0.000546671 -0.000584838 -0.000615371 -0.000389443 -0.000541172 -0.00065157 -0.000687248 -0.00069951 -0.00113174 -0.00195606 -0.00311297 -0.00440773 -0.00585916 -0.00696155 -0.00792698 -0.00813922 -0.00781206 -0.00725941 -0.00591045 -0.00430385 -0.0030149 -0.00202705 -0.00103038 -0.000863743 -0.00044413 -0.000358972 -0.00038409 -0.000631992 -0.000720418 -0.000237488 -0.000550796 -0.000656735 -0.000508149 -0.000607792 -0.000748209 -0.00122737 -0.00139882 -0.00186075 -0.00220895 -0.00227222 -0.00239656 -0.002302 -0.00219897 -0.0018877 -0.00160055 -0.0011649 -0.000742235 -0.000821447 -0.000602378 -0.000515022 -0.000631519 -0.00045232 -0.000402802 -0.000381911 -0.000384901 -0.000602926 -0.000584513 -0.00126539 -0.00243958 -0.00461253 -0.0079128 -0.0122551 -0.0166913 -0.0203666 -0.0228661 -0.0236562 -0.0226676 -0.0202415 -0.0163743 -0.0122901 -0.008099 -0.00481639 -0.00261438 -0.00137932 -0.000889173 -0.000654011 -0.000708408 -0.000598428 -0.000496845 -0.000471414 
0.000131668 0.000102461 4.27078e-05 0.000213197 0.000277752 0.000315074 0.000841024 0.00194925 0.00503151 0.0102731 0.0181289 0.0283472 0.0385334 0.0473635 0.0530726 0.0552141 0.0531833 0.0473308 0.0385429 0.0282304 0.0183391 0.0101246 0.00470403 0.00194369 0.000795222 0.000218588 0.000189898 9.30225e-05 5.3596e-05 0.000109927 7.80485e-05 4.75659e-05 -0.000327428 -0.00106003 -0.00235354 -0.00440867 -0.00679071 -0.00924641 -0.0115627 -0.0130957 -0.0135405 -0.0130474 -0.0116331 -0.00953985 -0.00685833 -0.00425223 -0.0022272 -0.00101662 -0.000265102 5.19871e-05 8.17645e-05 0.000328529 0.000238439 -1.53244e-05 9.98893e-05 0.000176278 8.28626e-06 -0.000278324 -0.000696559 -0.00181447 -0.00324926 -0.00523542 -0.00717474 -0.00881396 -0.00994172 -0.0102061 -0.00996994 -0.00877647 -0.00718314 -0.00521149 -0.00329964 -0.00170887 -0.000880543 -0.000208482 0.000178401 3.05171e-05 0.000224325 0.000281936 0.000152907 7.93817e-05 0.00020961 0.000122671 5.96595e-05 -0.000548649 -0.00105555 -0.00204863 -0.00322713 -0.00444344 -0.0053839 -0.00629503 -0.00641177 -0.00604698 -0.00560555 -0.00443545 -0.00324968 -0.00205551 -0.000921249 -0.000523836 -5.26557e-06 6.50708e-05 0.000150812 0.000151929 0.000113074 0.000276756 0.000158637 7.93592e-05 4.55568e-05 -2.25782e-05 -0.000388125 -0.00115726 -0.00222186 -0.00346295 -0.00483453 -0.00586701 -0.00673275 -0.00694116 -0.00666108 -0.00607826 -0.00485652 -0.00338787 -0.00216689 -0.00120065 -0.000307565 -0.000122059 0.000224039 0.000304504 0.000282404 9.36898e-05 2.87497e-05 0.000386727 0.000164443 8.58773e-05 0.000230454 0.000237082 0.000270524 0.000141833 0.00028735 0.000209248 0.000193897 0.000282995 0.000256488 0.000266809 0.000194841 0.000190499 0.000128556 0.000178926 0.000276716 6.64774e-05 0.000169328 0.000178524 0.000102978 0.000232765 0.000260145 0.000297076 0.000288474 0.000102842 0.000116087 -0.000411058 -0.00133683 -0.00304959 -0.00562785 -0.00905188 -0.0125354 -0.0154191 -0.0173848 -0.0179958 -0.017221 -0.0153224 -0.0122948 -0.00908188 -0.00579392 -0.00318613 -0.00146893 -0.000495377 -0.000117251 8.57406e-05 3.55853e-05 0.000108262 0.000197003 0.000205426 
0.000558306 0.000517649 0.000483776 0.000605111 0.00066838 0.000693262 0.00109031 0.0018936 0.00417247 0.00801002 0.0137803 0.0212976 0.0287699 0.0352701 0.0394822 0.0410377 0.0395634 0.0352559 0.0287825 0.0212104 0.0139405 0.00790888 0.00390968 0.00187689 0.00105476 0.000620224 0.000603892 0.00051693 0.000495421 0.000545917 0.000519529 0.000484025 0.000190448 -0.000429359 -0.00148814 -0.00318978 -0.00517737 -0.00719832 -0.00910938 -0.0103703 -0.0107409 -0.0103243 -0.00916377 -0.00744968 -0.00522301 -0.00308062 -0.00140052 -0.000394865 0.000203942 0.000490318 0.000507637 0.000718139 0.000642931 0.000432917 0.000534942 0.000608735 0.000463002 0.000214965 -0.000138305 -0.00107775 -0.00226154 -0.00392316 -0.00556038 -0.00690101 -0.00786999 -0.00808108 -0.00789136 -0.00689569 -0.0055587 -0.00391172 -0.00231695 -0.000995625 -0.000273751 0.000266267 0.000599662 0.000478964 0.000637046 0.000682117 0.000590168 0.000516605 0.000604148 0.000554755 0.000515326 9.0917e-05 -0.000222534 -0.000854463 -0.00160824 -0.00241852 -0.00299162 -0.00363042 -0.00366627 -0.00341822 -0.00317956 -0.00240175 -0.00164054 -0.000882555 -0.000100348 0.000127586 0.000486152 0.000524671 0.000573326 0.000547283 0.000528856 0.000679162 0.000583808 0.000509788 0.000480634 0.000459241 0.000143529 -0.000431209 -0.00124615 -0.00219677 -0.00323888 -0.00404271 -0.00470953 -0.00486831 -0.0046391 -0.00422392 -0.00327261 -0.00213545 -0.00119251 -0.00046945 0.000211083 0.000352728 0.00063166 0.000689192 0.000670925 0.00052504 0.000474721 0.000770798 0.000574269 0.00051613 0.00060467 0.000535192 0.000439134 0.000128732 1.60324e-05 -0.000285071 -0.000508944 -0.000557889 -0.00062557 -0.000571318 -0.000498756 -0.000301907 -0.000106638 0.000169622 0.000445274 0.000414969 0.000546948 0.00060137 0.000528805 0.000637053 0.000668736 0.000668979 0.000680586 0.000553318 0.000567284 0.000180354 -0.000460798 -0.00167739 -0.00351079 -0.00592409 -0.00839197 -0.0104302 -0.0118234 -0.0122643 -0.0116975 -0.0103562 -0.00820397 -0.00594199 -0.00360561 -0.00179369 -0.000567097 0.000115075 0.000394152 0.000505423 0.000474844 0.000542509 0.000605937 0.000621827 
0.00115331 0.00112198 0.00110189 0.00117191 0.00122226 0.00123076 0.00147858 0.00195686 0.00335598 0.00566937 0.00916038 0.0137192 0.0182351 0.0221814 0.024737 0.0256797 0.0247896 0.0221742 0.0182536 0.0136637 0.00926649 0.00560575 0.00317123 0.00195034 0.00145202 0.00118441 0.00118496 0.00112136 0.00110168 0.00114203 0.00111804 0.00108701 0.000879239 0.000400237 -0.000403682 -0.00168427 -0.00319955 -0.00473422 -0.00617247 -0.00712458 -0.00740754 -0.00708909 -0.00620771 -0.00491101 -0.0032301 -0.00161627 -0.00033766 0.000423736 0.000876797 0.00109648 0.00110823 0.00125569 0.00120934 0.00106278 0.00113583 0.00118851 0.00108016 0.000893402 0.00062216 -8.14354e-05 -0.000973276 -0.00221824 -0.00345776 -0.00446305 -0.00519423 -0.00536054 -0.00521205 -0.00446001 -0.00345533 -0.00220957 -0.00101286 -2.50473e-05 0.000527892 0.000926159 0.00116631 0.0010929 0.00120815 0.00123337 0.00117891 0.00112053 0.00118653 0.00115454 0.00114245 0.000900728 0.000780168 0.000466777 0.000116121 -0.000279696 -0.000528189 -0.000876571 -0.000861038 -0.000725384 -0.000655975 -0.000257654 9.8166e-05 0.000452433 0.000863567 0.000931243 0.00113436 0.00113832 0.00116303 0.00113912 0.00112716 0.00123663 0.00117047 0.0011079 0.00107465 0.00102526 0.000711393 0.000160007 -0.000638461 -0.00160766 -0.00263882 -0.00346272 -0.00409081 -0.00426192 -0.00403891 -0.00358806 -0.00266417 -0.00156237 -0.000600792 0.000140663 0.000770559 0.000948093 0.00117779 0.00123493 0.00122056 0.00112686 0.00108732 0.00129978 0.00116222 0.00112443 0.00117608 0.00112011 0.0010397 0.000798775 0.000698192 0.000459236 0.000283742 0.00023588 0.000191492 0.000229167 0.000294795 0.000453318 0.000613329 0.000831943 0.00104601 0.00104263 0.00113912 0.00118117 0.00112957 0.00120526 0.00122634 0.00122209 0.00123815 0.00114894 0.00116547 0.000919841 0.000549771 -0.000200549 -0.00130755 -0.00276925 -0.00426906 -0.00549454 -0.0063443 -0.00661401 -0.00625663 -0.00544661 -0.00413979 -0.00277321 -0.00135994 -0.000271469 0.000473262 0.000881144 0.00105682 0.00110965 0.00109229 0.00113322 0.00117945 0.00118837 
0.00404648 0.00403344 0.00400078 0.00405193 0.00408191 0.00411511 0.00419074 0.00435654 0.00490866 0.00582895 0.00720256 0.00896688 0.0107255 0.0123048 0.0132823 0.0136615 0.0133202 0.0122912 0.0107332 0.00898216 0.00724258 0.00581014 0.00484796 0.00440152 0.00417143 0.00404902 0.0040987 0.00404812 0.00405218 0.00407657 0.00404063 0.00395001 0.00372579 0.00316133 0.00219602 0.000653271 -0.00120124 -0.00312554 -0.00480554 -0.00590786 -0.00628343 -0.00588615 -0.0048165 -0.00319055 -0.00122635 0.0006654 0.00221768 0.00318208 0.00369564 0.0039606 0.00401767 0.00410077 0.00404061 0.00402769 0.00403365 0.00403456 0.0039559 0.00371654 0.00321964 0.00223583 0.000814026 -0.00102298 -0.00295157 -0.0044485 -0.00553659 -0.00587669 -0.00554204 -0.00446296 -0.00286926 -0.00104772 0.000777378 0.00226492 0.00322033 0.00370399 0.00399025 0.00402975 0.00407973 0.00409355 0.00408205 0.00402859 0.00404825 0.00401046 0.00392584 0.00355299 0.0030962 0.00228041 0.00134021 0.00029765 -0.000539872 -0.00116049 -0.00132072 -0.00110801 -0.000594533 0.000302626 0.00131334 0.00225434 0.00310144 0.0035882 0.00388211 0.00404286 0.00405505 0.00407913 0.00404553 0.00412045 0.00404492 0.00404063 0.00398072 0.00394936 0.00364749 0.00318891 0.00251753 0.0016735 0.000854138 7.65782e-05 -0.00042763 -0.000581749 -0.000395358 6.6123e-05 0.000800708 0.00168206 0.00256098 0.00322581 0.00367516 0.00387594 0.00402471 0.00405837 0.00405334 0.00403942 0.00403066 0.00414219 0.00405252 0.00406297 0.00405195 0.00399261 0.00389342 0.00366042 0.00351725 0.00327979 0.00313777 0.00305111 0.0030039 0.00298448 0.00314305 0.00330774 0.00347313 0.00370209 0.00388819 0.00397044 0.00403507 0.00409443 0.00408234 0.00407872 0.00410174 0.00407641 0.00410425 0.00405333 0.00409791 0.00399738 0.00389338 0.00366847 0.00333235 0.00292723 0.0024613 0.0021037 0.00187233 0.00177406 0.00188946 0.00214949 0.00250513 0.00292715 0.00334986 0.00365811 0.00386262 0.00399872 0.00404628 0.00405913 0.00405974 0.00405218 0.0040705 0.00405364 
0.00191357 0.0019293 0.00190984 0.00193676 0.00193919 0.00193399 0.00198427 0.00204191 0.00230884 0.00269492 0.00324298 0.0040141 0.00473992 0.00542253 0.00582134 0.00601078 0.0058459 0.00539929 0.0047732 0.00399143 0.00329141 0.00266129 0.0022371 0.00206885 0.00195132 0.00191354 0.00192343 0.00192021 0.00188986 0.00190399 0.00189939 0.00188967 0.00182699 0.00168258 0.00143645 0.00103929 0.000592458 0.000116892 -0.000337657 -0.00063565 -0.000713378 -0.000628672 -0.000347614 6.77002e-05 0.000581549 0.00108255 0.00147156 0.00169342 0.00185886 0.00189918 0.00190182 0.00195488 0.00194516 0.001888 0.00190682 0.00189862 0.00185236 0.00173973 0.00153916 0.00106147 0.000390009 -0.000466738 -0.0013516 -0.00210134 -0.00257959 -0.00273437 -0.00258159 -0.00206287 -0.00134813 -0.000458591 0.000403175 0.0010983 0.00148106 0.00177017 0.00188366 0.00187827 0.00192744 0.00194698 0.00191705 0.00189391 0.00195859 0.00189327 0.00185452 0.00162888 0.00138258 0.000878307 0.000306861 -0.000255289 -0.000747445 -0.00111129 -0.0012087 -0.00107363 -0.000780254 -0.000239204 0.00032273 0.000903699 0.00137776 0.00161301 0.00182481 0.00188001 0.00190959 0.00194819 0.0019097 0.00195385 0.00191129 0.00190061 0.00187991 0.00180991 0.00166701 0.00132791 0.000865707 0.000281297 -0.000352274 -0.000820788 -0.00116454 -0.00127407 -0.00117249 -0.000848703 -0.000337189 0.000288632 0.000870208 0.00133892 0.00170111 0.00180237 0.00191906 0.00195904 0.001944 0.00190642 0.00189871 0.00197379 0.00194468 0.00194601 0.0020649 0.002271 0.00266147 0.00322479 0.00399472 0.00469547 0.00534322 0.0057646 0.00591136 0.00575383 0.00533105 0.00469875 0.00394717 0.00322782 0.00266663 0.00223459 0.00206582 0.00194894 0.00193395 0.00194328 0.00193594 0.00195822 0.00196299 0.00189774 0.00188513 0.00173413 0.00144015 0.000870083 5.50323e-05 -0.0010363 -0.00214631 -0.00306163 -0.00368578 -0.00387987 -0.00363219 -0.00303108 -0.00210389 -0.00104903 9.74154e-06 0.000876283 0.00140275 0.00171859 0.00183293 0.00190505 0.00188488 0.00188758 0.00193509 0.00190927 
0.00205176 0.00204089 0.00203981 0.00204544 0.00206625 0.00205564 0.00207644 0.00204173 0.00208262 0.00205826 0.00201866 0.00201706 0.00196712 0.00198706 0.00197934 0.00197481 0.00199254 0.00197658 0.00199752 0.00200577 0.00205154 0.00205261 0.00201999 0.0020484 0.00204971 0.00204278 0.00206315 0.00204394 0.00203005 0.00204608 0.0020366 0.00201033 0.00194095 0.0017206 0.0013693 0.000799329 0.000120159 -0.000564215 -0.0011958 -0.00161155 -0.00173672 -0.00159201 -0.00119988 -0.000621787 0.000119218 0.000817238 0.00138317 0.00172397 0.00191858 0.00202175 0.00202695 0.00208636 0.00206915 0.00202161 0.0020491 0.00205588 0.00201634 0.00192188 0.00178427 0.00142719 0.000974053 0.000353836 -0.000296375 -0.000798993 -0.00116565 -0.00125899 -0.00117019 -0.000792525 -0.000283886 0.000352763 0.000964594 0.0014554 0.00174627 0.00193943 0.00204414 0.00202835 0.00206893 0.00208227 0.00206843 0.00203435 0.002067 0.00204104 0.00202717 0.00192558 0.00185616 0.00166861 0.00147028 0.0012412 0.00108808 0.000922227 0.000917908 0.000971277 0.00104937 0.00126908 0.00146554 0.00166542 0.00187212 0.00193705 0.00203416 0.00204927 0.00204994 0.00204852 0.00203095 0.00208726 0.00204964 0.00202846 0.00200233 0.00197137 0.00178844 0.00149113 0.00105044 0.000497319 -8.47359e-05 -0.000555475 -0.000880477 -0.000990254 -0.000870614 -0.000595595 -9.14868e-05 0.000506683 0.00107302 0.00149778 0.00182177 0.00193198 0.00204413 0.00207685 0.00206522 0.00204183 0.0020333 0.00210641 0.0020668 0.00207639 0.00214862 0.00225483 0.00248001 0.00276702 0.00321404 0.00359722 0.0039551 0.00421096 0.00428887 0.00419548 0.00395411 0.00359962 0.00317808 0.00278491 0.00248542 0.00224384 0.00214121 0.00209363 0.00206049 0.00207179 0.00207546 0.00206177 0.00208702 0.00205819 0.00204874 0.00196227 0.00182971 0.00151656 0.00108603 0.000531722 -4.39785e-05 -0.000511749 -0.000836445 -0.000950675 -0.000803182 -0.000492943 -1.26377e-05 0.00053295 0.00109404 0.00151606 0.00179503 0.00195037 0.00202137 0.00202317 0.00201958 0.00203232 0.00206386 0.00204803 
0.00210286 0.00209723 0.00209716 0.00209923 0.00211136 0.00209965 0.00209992 0.00201704 0.00192053 0.00166631 0.00127714 0.000826945 0.000327176 -3.98745e-05 -0.00029943 -0.000398721 -0.000291252 -5.18559e-05 0.000358398 0.000819789 0.00130697 0.00166578 0.00187369 0.00201929 0.00207507 0.00209273 0.00210925 0.00209792 0.00208601 0.00210018 0.00209841 0.00207536 0.00204199 0.00189966 0.00168576 0.00132823 0.000907709 0.000487716 9.30026e-05 -0.000167932 -0.000241934 -0.000149742 9.12308e-05 0.00044421 0.000910728 0.00134347 0.00169306 0.00190211 0.00201823 0.00208748 0.00208705 0.00213564 0.00211755 0.0020804 0.00210477 0.00210456 0.00207962 0.00200795 0.00191435 0.00164922 0.00132561 0.000872698 0.000394508 3.64926e-05 -0.000231644 -0.000298389 -0.000235377 4.28429e-05 0.000408781 0.000873526 0.00132091 0.00167367 0.00188327 0.00202632 0.00210569 0.00208772 0.00211874 0.00213164 0.00211905 0.00209031 0.00211343 0.00208561 0.00205516 0.00193472 0.00180033 0.00152636 0.0012157 0.000873514 0.000621588 0.000401143 0.00037342 0.000440145 0.000591466 0.000903153 0.00121109 0.00152562 0.00180957 0.00194019 0.00206424 0.00209469 0.00209681 0.00210203 0.00208294 0.00213415 0.00209638 0.00208403 0.00205847 0.00202835 0.00186215 0.00158506 0.00117607 0.000662249 0.000118787 -0.000315223 -0.000613993 -0.000720375 -0.000610317 -0.000351029 0.00011545 0.000667301 0.00119426 0.00159154 0.00188766 0.00199251 0.00209574 0.00212542 0.00211608 0.00209537 0.0020945 0.00214858 0.00211906 0.00213192 0.00220973 0.00232868 0.00258027 0.00291537 0.00341043 0.00385089 0.00425335 0.00453143 0.00462136 0.00451495 0.00424807 0.00384815 0.0033789 0.00293087 0.00258459 0.00232341 0.00220256 0.00214632 0.00211433 0.00212126 0.00212148 0.00210821 0.00213232 0.00211321 0.00209464 0.00201216 0.00186701 0.00154028 0.00108703 0.000504971 -9.02012e-05 -0.000583806 -0.00091898 -0.00104004 -0.000890326 -0.000567155 -6.79699e-05 0.000506298 0.00109991 0.00154517 0.00183674 0.00199909 0.00207144 0.00207522 0.00207145 0.00208679 0.00211751 0.00209783 
0.00217061 0.00216438 0.00216886 0.00216152 0.00217506 0.0021643 0.00214963 0.00204978 0.0018995 0.00154189 0.00100841 0.000375026 -0.000315031 -0.000851619 -0.00121376 -0.00134822 -0.00121022 -0.000848902 -0.00028495 0.000371323 0.00102476 0.00153983 0.00185478 0.00205732 0.0021299 0.0021565 0.00217529 0.0021653 0.0021543 0.00217177 0.00216515 0.00215014 0.00212531 0.00200545 0.00184272 0.00156609 0.00123314 0.000909919 0.000597291 0.00039748 0.000339814 0.000408448 0.00059438 0.000865167 0.00123504 0.00157312 0.00185537 0.00201191 0.00210818 0.00215937 0.00215162 0.00219373 0.00219078 0.0021484 0.00217032 0.00217738 0.00212878 0.00202057 0.00183288 0.00141355 0.000842342 9.25044e-05 -0.000700826 -0.00132247 -0.00177545 -0.00190274 -0.00177449 -0.00132564 -0.00068779 8.82769e-05 0.000835669 0.00143298 0.00181115 0.00203417 0.00214129 0.0021473 0.00218543 0.0021914 0.00219199 0.002159 0.00218632 0.00217168 0.00217356 0.00214718 0.00217742 0.00215131 0.0021482 0.00212872 0.00214372 0.00210315 0.00213414 0.00213838 0.00211873 0.00215292 0.00214976 0.00214688 0.00218469 0.0021565 0.00218225 0.00218008 0.00216991 0.00216368 0.00215344 0.00220149 0.00217706 0.002154 0.00213495 0.00211173 0.00196587 0.00174711 0.00142092 0.000994775 0.000554352 0.000195314 -4.48137e-05 -0.000125011 -3.70979e-05 0.00016877 0.000546871 0.00100215 0.00143232 0.00175347 0.00199866 0.00207957 0.00216262 0.00218682 0.00217832 0.00216392 0.00216098 0.00221973 0.00217875 0.00217833 0.00220544 0.00221838 0.00226022 0.00228751 0.0023946 0.00244392 0.00251223 0.00257034 0.00259248 0.0025664 0.00251695 0.00244828 0.00237368 0.00230351 0.00226431 0.00221532 0.0021968 0.00218838 0.00217433 0.0021874 0.00219128 0.00217417 0.00219681 0.00217716 0.00217674 0.00212459 0.00207168 0.00190731 0.00168849 0.0014212 0.00112861 0.00090022 0.000736738 0.000678116 0.000764264 0.000916539 0.00114732 0.00142362 0.00170812 0.00190851 0.00204807 0.00212326 0.00216544 0.00215101 0.00214891 0.00215504 0.00217659 0.00217211 
0.00223498 0.00222649 0.00222849 0.00222247 0.00224127 0.00222847 0.00221962 0.00212594 0.00199831 0.0016814 0.00120842 0.000641676 2.9514e-05 -0.000441316 -0.00076241 -0.000884968 -0.000755783 -0.000447746 5.98962e-05 0.000637539 0.00122953 0.00168157 0.00194944 0.00213295 0.00219618 0.00221987 0.00224438 0.00222981 0.002215 0.00223074 0.00221986 0.00219723 0.00214687 0.00195753 0.00166024 0.0011875 0.000615817 4.00713e-05 -0.000484433 -0.000831454 -0.00093625 -0.000813447 -0.00048433 -2.47508e-06 0.000616271 0.00119813 0.00167438 0.00195866 0.00212331 0.00220933 0.00221289 0.00225752 0.00224701 0.00221248 0.00223585 0.00223844 0.00220475 0.00212132 0.00199565 0.00168025 0.00127872 0.000731197 0.000150366 -0.000294852 -0.000620303 -0.000707524 -0.000624858 -0.000289138 0.000163099 0.000730502 0.00127176 0.00170249 0.00196512 0.00213477 0.00222071 0.0022153 0.00225031 0.00225633 0.00225205 0.00222111 0.00225001 0.00223328 0.002235 0.00220048 0.00222557 0.00218294 0.00216829 0.00212792 0.00213079 0.00208169 0.00210951 0.00212003 0.00210566 0.00215739 0.00216965 0.00218493 0.00223445 0.00221182 0.00224836 0.0022421 0.00223448 0.00223108 0.00221614 0.00226339 0.00223308 0.00221142 0.00218206 0.00213578 0.00193131 0.00160073 0.00110516 0.000474731 -0.00017942 -0.000717955 -0.00107708 -0.00120403 -0.00106978 -0.000748882 -0.000184867 0.000483468 0.00112485 0.00161089 0.00196658 0.00210212 0.00221199 0.00224944 0.00224047 0.00222704 0.00221971 0.00227898 0.00224816 0.00225601 0.00230733 0.0023851 0.0025537 0.00276567 0.0031035 0.00338703 0.00365667 0.00384862 0.00391125 0.00383676 0.00365671 0.0033924 0.00307752 0.00278319 0.00255868 0.00238158 0.00230214 0.0022669 0.00224116 0.00225069 0.00225091 0.00223748 0.00226164 0.00223976 0.00223272 0.00216929 0.00208898 0.00185819 0.00155645 0.00117392 0.000771919 0.000450773 0.000224222 0.000140284 0.00024875 0.000464922 0.000793071 0.00118089 0.00157475 0.00186604 0.00205976 0.00216471 0.00221841 0.00220972 0.00220896 0.0022151 0.00224239 0.0022271 
0.0021599 0.00215581 0.00216094 0.00215368 0.00216631 0.00215812 0.00214066 0.00203203 0.0018686 0.00148761 0.000912971 0.000222192 -0.000520247 -0.00109761 -0.00148782 -0.00163822 -0.00147955 -0.00110301 -0.000486577 0.000219092 0.000934325 0.00148701 0.00182079 0.00204046 0.00211529 0.0021431 0.00216952 0.00216047 0.00214512 0.00215602 0.00215538 0.00213658 0.00211978 0.00199986 0.00183359 0.00155472 0.0012262 0.000903196 0.00059105 0.000384774 0.000330138 0.000401775 0.000590076 0.000861131 0.00123105 0.00156716 0.00184624 0.00200124 0.00209416 0.00215148 0.00214462 0.0021885 0.00217648 0.00214149 0.00216313 0.00215954 0.0021218 0.0020208 0.0018505 0.00144871 0.000921276 0.000209847 -0.000540201 -0.00112301 -0.00154648 -0.00166221 -0.00154549 -0.0011173 -0.000523823 0.000206881 0.000914783 0.00147253 0.00181863 0.00203479 0.00214024 0.00214119 0.00217691 0.00218427 0.00218227 0.00215046 0.0021778 0.00215671 0.00215984 0.00211168 0.00211439 0.00203987 0.00197694 0.00189729 0.00186314 0.00179004 0.00180639 0.00181928 0.00183413 0.00192773 0.00198009 0.0020364 0.00211835 0.00212169 0.00216681 0.00216838 0.00215566 0.00216182 0.00214173 0.00218982 0.00215659 0.00214285 0.00211258 0.00206766 0.00187384 0.00155815 0.0010879 0.000489921 -0.000137674 -0.000644783 -0.000985659 -0.00110619 -0.000982848 -0.000670883 -0.000139271 0.000496118 0.00111246 0.00157149 0.00191026 0.00203411 0.00214474 0.00217816 0.00216978 0.00215423 0.00215413 0.00221034 0.00218189 0.00219924 0.00228434 0.00242515 0.0027172 0.00312302 0.00370522 0.00422951 0.00471004 0.00503496 0.0051466 0.00502113 0.00470492 0.00423277 0.00367682 0.00313867 0.00272266 0.00242465 0.00227688 0.0022086 0.00217483 0.00217936 0.00217999 0.00216202 0.00219097 0.00216749 0.00215586 0.00208051 0.00196573 0.00167903 0.00128985 0.00079918 0.000284435 -0.000131004 -0.000419777 -0.000522127 -0.000389326 -0.000113671 0.00030204 0.000799905 0.0013103 0.00168778 0.0019347 0.00207433 0.00214079 0.00213842 0.00213206 0.00214222 0.0021702 0.00215328 
0.0021343 0.00212806 0.00213115 0.00212605 0.00214079 0.00212928 0.00211358 0.00200105 0.00183282 0.00144598 0.00085992 0.000154249 -0.000601446 -0.00119052 -0.00159145 -0.00174422 -0.00158446 -0.00119893 -0.000569545 0.000150323 0.000881074 0.00144741 0.0017872 0.00200844 0.00208765 0.00211877 0.00214308 0.0021322 0.00211861 0.00213007 0.00212477 0.00210352 0.00206792 0.0019144 0.00168124 0.00129825 0.00084306 0.000387874 -3.599e-05 -0.000314374 -0.000395413 -0.000297098 -3.56051e-05 0.000348023 0.00084704 0.00130994 0.00168976 0.00191458 0.00204319 0.00211582 0.00211582 0.00216047 0.00214792 0.00211471 0.00213661 0.00213485 0.00210303 0.00201777 0.00188613 0.00155555 0.00113362 0.000558819 -5.13055e-05 -0.00051972 -0.000860884 -0.000950936 -0.000861649 -0.000513117 -3.71257e-05 0.00055596 0.00112754 0.00157941 0.00185512 0.00203241 0.00212193 0.00211689 0.00214827 0.00215784 0.00215214 0.00212229 0.00214928 0.00212829 0.00212474 0.0020682 0.00205129 0.00195068 0.00185623 0.00173996 0.00167533 0.0015846 0.00159324 0.00161585 0.00164944 0.00176891 0.00185661 0.00194793 0.00205664 0.00207761 0.00213388 0.00213942 0.00213135 0.00213359 0.00211572 0.00216294 0.00213067 0.00211596 0.00209 0.0020578 0.00188843 0.00161777 0.00121335 0.000702199 0.000164205 -0.000270886 -0.000562883 -0.000667802 -0.000559361 -0.000298035 0.000161485 0.000707602 0.00123615 0.00162865 0.00191984 0.00202405 0.00212164 0.00215164 0.00214213 0.00212782 0.0021257 0.00217865 0.00215279 0.00216868 0.00224476 0.0023741 0.00264337 0.0030096 0.00353925 0.00401499 0.004452 0.00475153 0.00484961 0.00473655 0.00444803 0.00401859 0.00351215 0.00302523 0.00264819 0.00237357 0.00223993 0.0021789 0.00214758 0.00215111 0.0021519 0.0021358 0.00216245 0.00214206 0.00212907 0.00206013 0.00195335 0.00168554 0.00132442 0.000868406 0.000390701 3.49804e-06 -0.000264649 -0.000362067 -0.000238336 1.90028e-05 0.000406621 0.000870252 0.00134343 0.00169439 0.00192403 0.0020531 0.00211408 0.00211042 0.00210694 0.00211638 0.00214454 0.00212678 
0.00223252 0.00222496 0.00222604 0.00222418 0.00223815 0.00222532 0.0022127 0.0021058 0.00194406 0.00157669 0.00101847 0.000354316 -0.00036303 -0.00092144 -0.00130517 -0.00144509 -0.00130057 -0.000926299 -0.000334535 0.000349574 0.0010382 0.00157788 0.00190364 0.00211029 0.00218951 0.00222107 0.00223705 0.00222665 0.00221685 0.00223351 0.00222413 0.00220378 0.00215838 0.00200225 0.00176475 0.0013676 0.000894072 0.000419355 -1.8777e-05 -0.000301422 -0.00038763 -0.000288968 -1.9275e-05 0.000379838 0.000896245 0.00137707 0.00176965 0.0020069 0.00214171 0.00221136 0.0022126 0.00225727 0.00224818 0.00221082 0.00223295 0.00223767 0.00220273 0.00211726 0.00199044 0.0016749 0.00126241 0.00071403 0.000127551 -0.000321853 -0.000651535 -0.000740937 -0.000652958 -0.000321941 0.000140635 0.000710556 0.00125758 0.0016969 0.00196674 0.00213517 0.00221948 0.00221377 0.00224465 0.00225639 0.00224896 0.00221789 0.00224386 0.00222401 0.00220508 0.00213077 0.00206887 0.00190879 0.00174 0.00154425 0.00141145 0.00127566 0.00127247 0.00131273 0.00138998 0.00156806 0.00173607 0.00190633 0.00207672 0.00213732 0.00221339 0.00223259 0.00223123 0.00222671 0.00221432 0.00226316 0.0022343 0.00221648 0.00220124 0.00219488 0.00208039 0.00191428 0.0016667 0.00134839 0.00101559 0.000746815 0.000566133 0.000503686 0.000571946 0.000718014 0.00100817 0.00135287 0.00167784 0.00191795 0.00210552 0.00216075 0.00223075 0.00225075 0.00224082 0.00222571 0.00222357 0.0022757 0.00224094 0.00224227 0.00227842 0.00231371 0.00240027 0.00248857 0.00266832 0.00279685 0.0029297 0.00303381 0.00306338 0.00302341 0.00293231 0.00279848 0.00264701 0.00250399 0.00240468 0.00231041 0.00227242 0.00225444 0.002239 0.00224808 0.00225026 0.00223654 0.00225628 0.00224107 0.00223156 0.00217149 0.00208267 0.00186397 0.00156318 0.00118832 0.000791441 0.000468323 0.00024692 0.000164934 0.000270681 0.000483838 0.000808255 0.00118949 0.00158022 0.00186714 0.00205906 0.00216578 0.00221553 0.00220895 0.00220965 0.00221764 0.00224309 0.0022323 
0.00213942 0.00213015 0.00213193 0.00212213 0.00213841 0.00212066 0.00210112 0.00198644 0.00179439 0.00136663 0.000734945 -3.59981e-05 -0.000860624 -0.00151158 -0.00195307 -0.00211183 -0.00195239 -0.00150999 -0.000830086 -3.79125e-05 0.000747664 0.00137033 0.00175932 0.00199828 0.00208533 0.00212246 0.00214065 0.00212788 0.00211778 0.00213721 0.00212745 0.00210368 0.00206605 0.00190753 0.00168207 0.00130789 0.000844797 0.000392974 -2.43124e-05 -0.000297513 -0.00038296 -0.000287626 -2.67452e-05 0.000352809 0.000846619 0.00130578 0.00169155 0.00191648 0.00204442 0.00211474 0.00211205 0.00215068 0.00215176 0.00211458 0.00213185 0.00214314 0.00210122 0.00201475 0.00187007 0.00154398 0.00109662 0.000513854 -0.000106531 -0.000585466 -0.000941061 -0.00104261 -0.000944728 -0.000588451 -9.80175e-05 0.000512835 0.00109207 0.00155824 0.00185564 0.002023 0.00210704 0.00211561 0.00214714 0.0021513 0.00215366 0.00212269 0.00214774 0.00212648 0.00211589 0.00206953 0.00204914 0.00194993 0.00186333 0.0017502 0.00168406 0.00159694 0.00161054 0.00163313 0.00166264 0.0017743 0.00186208 0.00195074 0.00205676 0.00207703 0.00212866 0.00213732 0.00213497 0.00212674 0.00211978 0.00216275 0.00214204 0.00211508 0.00209357 0.00205605 0.00188873 0.00162679 0.00123772 0.000720959 0.000197353 -0.000240203 -0.000525774 -0.000621364 -0.000514981 -0.000261232 0.00018769 0.00072645 0.00124026 0.00163636 0.00191574 0.00202954 0.00211803 0.00214615 0.00213424 0.00212812 0.00211975 0.00217091 0.00213838 0.00214387 0.00215814 0.00216824 0.00219921 0.00220942 0.00228778 0.00231806 0.00236706 0.0024107 0.00243106 0.00241004 0.00237611 0.00232442 0.00226848 0.00222304 0.00220481 0.00216725 0.00215682 0.00215196 0.00213972 0.00214772 0.00215283 0.00213754 0.00216132 0.00214485 0.00215378 0.00214556 0.00218831 0.0021926 0.0022426 0.00230199 0.00235174 0.00241242 0.00243726 0.00244184 0.00246039 0.00242082 0.00236908 0.00230848 0.00225882 0.00219922 0.00217043 0.00214727 0.00215077 0.0021153 0.00211821 0.00211893 0.00213751 0.00213214 
0.00214243 0.0021588 0.00214344 0.00214775 0.00214567 0.00212839 0.00211342 0.00203253 0.00191142 0.00162912 0.00118478 0.000671877 0.000107775 -0.000328953 -0.000657262 -0.000725378 -0.000651035 -0.000338038 0.000138378 0.000662393 0.00120032 0.00161151 0.00188258 0.00206592 0.00209256 0.00213082 0.00213759 0.00214462 0.00212099 0.00213868 0.00212698 0.00212178 0.00208335 0.00199561 0.00185998 0.00163588 0.00137195 0.00109167 0.000829058 0.000665716 0.000618425 0.000657786 0.000825458 0.00107393 0.00136492 0.00165132 0.00188346 0.00201055 0.00212044 0.00212561 0.00212474 0.00214757 0.00216463 0.00212644 0.00213028 0.00212728 0.00208315 0.00198887 0.00180105 0.00140678 0.000802004 8.03986e-05 -0.000684755 -0.00133936 -0.00175109 -0.00190298 -0.00175115 -0.00131349 -0.000687479 8.54358e-05 0.000823314 0.00142534 0.00177693 0.00200986 0.00208147 0.00210825 0.00213874 0.00214885 0.00213876 0.0021216 0.00217727 0.00212361 0.00208982 0.00195783 0.00180153 0.00145704 0.00108679 0.000730881 0.000394905 0.00017195 0.000103369 0.000188903 0.000395434 0.000739122 0.00110566 0.00148746 0.00178306 0.00193696 0.00206874 0.00211303 0.00213886 0.00216323 0.00214056 0.00216483 0.00214847 0.00213107 0.00212582 0.00207556 0.00201379 0.0018405 0.00161795 0.00130197 0.000974087 0.000735403 0.000572965 0.000523143 0.000563189 0.000736671 0.000984735 0.00130185 0.00159479 0.00185143 0.00203634 0.00208606 0.0021367 0.00216115 0.00214611 0.00213538 0.00212807 0.00216609 0.00214962 0.00213976 0.0021659 0.00221652 0.00229554 0.00240992 0.00257891 0.00270434 0.0028502 0.00293288 0.00297638 0.0029389 0.00285256 0.00271483 0.00255888 0.00240748 0.00230015 0.00219635 0.00217732 0.00212925 0.00215101 0.00215408 0.00214703 0.00216897 0.00216782 0.00212455 0.00213118 0.00208829 0.0020241 0.00187883 0.00169726 0.00142898 0.00114947 0.000933371 0.000776272 0.000737308 0.000808943 0.000949011 0.00116592 0.00142265 0.00166679 0.00189618 0.00201262 0.0020924 0.00211468 0.00213998 0.00213244 0.00211566 0.00214597 0.0021337 
0.00212923 0.00211989 0.00212275 0.00212162 0.0021402 0.00213021 0.00212941 0.00205399 0.00198096 0.00175974 0.00142279 0.00104409 0.000612478 0.000299929 8.01893e-05 -3.06921e-06 8.92443e-05 0.000295766 0.000641879 0.00103652 0.00144597 0.00175639 0.00192698 0.00206029 0.00210372 0.00211736 0.00213897 0.00212479 0.00211222 0.00212725 0.00211683 0.0020977 0.00204321 0.00186288 0.00158272 0.00112343 0.000576472 2.78077e-05 -0.000483492 -0.000814196 -0.000913402 -0.000798827 -0.000485171 -2.23727e-05 0.000577652 0.00113739 0.00159471 0.00186607 0.00202544 0.00210607 0.00210754 0.00215891 0.00214852 0.00210449 0.00212981 0.00213481 0.00208944 0.00198382 0.00181343 0.00140489 0.000868329 0.00015155 -0.000606046 -0.00119918 -0.00162651 -0.00174106 -0.00162644 -0.00119662 -0.000592959 0.000146455 0.000859343 0.00143088 0.00178065 0.00200108 0.00210998 0.00210606 0.00214508 0.00215608 0.00214896 0.00211498 0.00214726 0.00213004 0.0021323 0.00208599 0.0021009 0.00204695 0.00200968 0.00195216 0.00193893 0.00187383 0.00189648 0.00191366 0.00190927 0.00197683 0.00200794 0.00204088 0.00211131 0.00209749 0.00213822 0.00213849 0.00213053 0.00212564 0.00211084 0.00216363 0.0021325 0.0021118 0.00209349 0.00207936 0.00193981 0.00173347 0.00142407 0.00103321 0.000620336 0.000287768 6.07778e-05 -1.54503e-05 6.8684e-05 0.000255635 0.000613583 0.00104105 0.00144459 0.00173896 0.0019742 0.00204207 0.00212686 0.00215149 0.00214123 0.0021225 0.00211764 0.0021832 0.00214312 0.00214696 0.00220028 0.00226604 0.00241187 0.00258811 0.00288766 0.00312655 0.00335975 0.0035327 0.00358372 0.00352132 0.00336101 0.00313087 0.00286067 0.00260574 0.00241686 0.00225998 0.00219147 0.00216031 0.00213721 0.00214853 0.0021518 0.00213606 0.00215919 0.00213528 0.00212765 0.00205039 0.00193734 0.00166496 0.00128491 0.000810524 0.000306324 -0.000101322 -0.000382868 -0.000482535 -0.000353569 -8.179e-05 0.000328258 0.000810333 0.00130041 0.00166478 0.00190779 0.00204407 0.00210759 0.00210659 0.00210361 0.00211249 0.00213988 0.00212919 
0.00224139 0.00223062 0.00223263 0.00223061 0.0022512 0.00223917 0.00223155 0.0021337 0.00201724 0.00171884 0.00126295 0.000728287 0.000140639 -0.000299838 -0.000611348 -0.000724314 -0.000601416 -0.000308919 0.00017207 0.000722368 0.00128425 0.00171959 0.00196723 0.00214587 0.00220251 0.00222658 0.0022518 0.0022371 0.00222418 0.0022372 0.00222437 0.00219836 0.00212958 0.0019133 0.00156804 0.00100356 0.000328824 -0.000352022 -0.000975795 -0.00138008 -0.00150551 -0.00136542 -0.00097536 -0.000399069 0.000331318 0.00101556 0.00157591 0.00191567 0.00210924 0.00220748 0.00221495 0.00226776 0.00225608 0.00221763 0.00223929 0.00224128 0.00219946 0.00209496 0.00192634 0.00152017 0.000985075 0.000272774 -0.000483663 -0.00107309 -0.00149541 -0.00161005 -0.00149511 -0.00106712 -0.000468396 0.000267047 0.000976979 0.00154675 0.00189442 0.00211033 0.00221844 0.00221775 0.00225213 0.00226671 0.00225787 0.00222356 0.00225779 0.00223305 0.00222724 0.00215319 0.00211922 0.00198755 0.00185901 0.00170457 0.00160657 0.00149073 0.00149096 0.00152702 0.0015783 0.00172934 0.00185542 0.00198232 0.00212683 0.00216379 0.00223061 0.0022452 0.00224071 0.0022397 0.00222193 0.00227397 0.00224077 0.0022225 0.00220296 0.0021908 0.00205468 0.00185376 0.00155353 0.00117222 0.000771576 0.000445523 0.000227826 0.000152715 0.000233993 0.000419742 0.00076473 0.00117738 0.00157475 0.00186333 0.00208672 0.00215477 0.00223717 0.00226062 0.00224718 0.00223351 0.0022274 0.00228902 0.00225645 0.0022703 0.0023395 0.0024542 0.00269309 0.00300724 0.00347759 0.00388975 0.00427612 0.00454833 0.00463077 0.0045319 0.00427614 0.00389673 0.00344906 0.00302381 0.00269852 0.0024511 0.0023354 0.00228206 0.00225505 0.00225746 0.00226183 0.00224546 0.00227131 0.00224772 0.0022399 0.00217395 0.00207926 0.00184032 0.00151828 0.00111368 0.000680415 0.000333759 9.27119e-05 5.53943e-06 0.000120234 0.000352418 0.000698882 0.00111216 0.00153341 0.00184657 0.00205067 0.00216844 0.00222167 0.00221723 0.00221577 0.00222196 0.00225082 0.00223478 
0.00213303 0.00212506 0.00212848 0.00212283 0.00213752 0.00212435 0.0021087 0.00199913 0.00183009 0.00144528 0.000865403 0.000170457 -0.000579568 -0.00116374 -0.00156273 -0.00170975 -0.00155798 -0.00116734 -0.000548861 0.000166045 0.000883339 0.00144689 0.00178862 0.00200707 0.00208645 0.00211823 0.00213783 0.00212714 0.00211644 0.00213124 0.00212426 0.00210382 0.00206798 0.00192228 0.00170944 0.00135187 0.000922888 0.000499332 0.000101431 -0.000155627 -0.000232711 -0.00014332 0.00010043 0.00045736 0.000926228 0.0013591 0.00171714 0.00192667 0.00204754 0.00211371 0.00211173 0.0021554 0.00214881 0.0021108 0.00213148 0.00213576 0.00209639 0.00200321 0.00185211 0.00149447 0.00101911 0.000388303 -0.000281387 -0.000800103 -0.00117912 -0.00128328 -0.00117947 -0.000799398 -0.000268542 0.000384889 0.00101338 0.00151534 0.00182838 0.0020173 0.00211125 0.00211216 0.00214408 0.00215392 0.00215043 0.00211888 0.00214512 0.00212459 0.00211533 0.00205594 0.00202443 0.00190806 0.00179342 0.00165603 0.00157073 0.00146716 0.00147354 0.00150102 0.0015464 0.0016806 0.00179117 0.00190438 0.00203093 0.00206383 0.00212329 0.00213515 0.00212981 0.00212728 0.00211391 0.0021616 0.00213376 0.00211519 0.00209603 0.00207713 0.00194018 0.00173329 0.00142518 0.00102609 0.000610884 0.000273706 4.86645e-05 -2.86279e-05 5.47009e-05 0.000248367 0.000604466 0.00103085 0.00143817 0.00174084 0.00196873 0.00204504 0.00212553 0.00214869 0.00213784 0.0021253 0.00212198 0.00217534 0.0021432 0.00215083 0.002199 0.00226439 0.00240824 0.00258655 0.00287981 0.00312005 0.00335245 0.00351874 0.00357332 0.00350979 0.00335423 0.00312345 0.00285669 0.00260178 0.0024134 0.00226331 0.00219366 0.00216148 0.00214086 0.00214729 0.00215105 0.00213432 0.00215855 0.00214035 0.00213531 0.0020851 0.00202305 0.00184674 0.00161503 0.00132538 0.00101523 0.000768743 0.000594864 0.000530774 0.000620764 0.000783692 0.00103173 0.00132644 0.00163265 0.00185151 0.0019993 0.00208088 0.00212272 0.00210968 0.00210865 0.00211559 0.00213997 0.00212893 
0.00216466 0.0021614 0.00216568 0.00216271 0.00217246 0.00216518 0.00215223 0.0020527 0.00191385 0.00157751 0.00106645 0.000463759 -0.000195574 -0.000696902 -0.00104129 -0.00117214 -0.0010327 -0.000702539 -0.000161505 0.000459526 0.00109054 0.00157575 0.00186582 0.00206061 0.00212726 0.0021501 0.00217298 0.00216435 0.00215141 0.00216294 0.00216457 0.0021455 0.00213157 0.00202591 0.00188737 0.00164231 0.00135886 0.00108356 0.000809093 0.000629998 0.000583892 0.000645311 0.000806613 0.00103861 0.0013635 0.00165575 0.00189758 0.00202952 0.00210841 0.00215971 0.002151 0.00219731 0.0021845 0.00214543 0.00216671 0.00216459 0.00212302 0.00201561 0.00183023 0.00139955 0.000826112 5.89614e-05 -0.000748273 -0.00137728 -0.00183505 -0.00196034 -0.00183262 -0.0013737 -0.00073068 5.57166e-05 0.000820099 0.0014243 0.00180041 0.00203072 0.00214527 0.00214554 0.00218193 0.00219247 0.00218759 0.00215503 0.00218163 0.00215601 0.00214703 0.0020632 0.00200474 0.00183909 0.00166029 0.00146327 0.00132879 0.00118748 0.00118228 0.00121808 0.00129718 0.0014919 0.00166102 0.00183317 0.0020087 0.00207076 0.00214968 0.00216798 0.002159 0.00216723 0.00214668 0.00219758 0.00216239 0.00215021 0.00212381 0.00209113 0.00192221 0.00165093 0.00124908 0.000737443 0.000197831 -0.000233466 -0.000526803 -0.000628768 -0.000524261 -0.000260307 0.00019525 0.000742702 0.00127067 0.00166204 0.00195533 0.00205609 0.00215893 0.00218666 0.00217715 0.00215889 0.00216092 0.00221846 0.00218603 0.00220242 0.00228841 0.00242342 0.00270347 0.00309065 0.00365347 0.0041559 0.00461748 0.00493011 0.00503752 0.00491635 0.00461285 0.00415675 0.00362346 0.00310564 0.0027088 0.00242125 0.00227926 0.00221374 0.002181 0.0021856 0.00218843 0.00216894 0.00219774 0.00217401 0.0021628 0.00208321 0.00195554 0.00165806 0.00124546 0.000723984 0.000178677 -0.000264347 -0.000569784 -0.000676638 -0.000537006 -0.000244939 0.00019731 0.000721469 0.00126324 0.00166352 0.00192514 0.00207506 0.00214358 0.00214386 0.00213639 0.00214891 0.00217704 0.00216167 
0.00215691 0.00217499 0.00215885 0.00216214 0.00215918 0.00214171 0.00212699 0.00204605 0.00191898 0.00162807 0.00117298 0.000639373 6.06794e-05 -0.000390708 -0.000726148 -0.000800944 -0.000720079 -0.00040288 9.21536e-05 0.000631007 0.00119115 0.00161112 0.00189042 0.00207673 0.00210644 0.00214515 0.00215296 0.00215991 0.00213424 0.00215168 0.00214206 0.00213609 0.00210543 0.00202283 0.00189448 0.00169058 0.00144948 0.00119033 0.000950992 0.000796809 0.000754598 0.00079256 0.000947914 0.00117598 0.00144232 0.00170729 0.00192005 0.00203543 0.0021377 0.00214272 0.00214214 0.00216229 0.00217574 0.00214264 0.00214702 0.00214096 0.00210722 0.00203023 0.00188197 0.00156013 0.00106879 0.000483022 -0.000137799 -0.000671778 -0.00100041 -0.00112738 -0.00100379 -0.000642621 -0.000140439 0.000491502 0.00109103 0.00157825 0.00185505 0.00205084 0.00210656 0.00212668 0.00215566 0.00216304 0.00215281 0.00213783 0.00219068 0.00213726 0.00210149 0.00196873 0.00180738 0.00145333 0.00107403 0.00070614 0.000363248 0.000135672 6.71797e-05 0.000152856 0.000364023 0.000718941 0.00109476 0.00148835 0.00178878 0.00194771 0.00208512 0.00212615 0.002152 0.00217937 0.00215465 0.00217705 0.00215808 0.00214262 0.00212888 0.00205618 0.00194681 0.00167911 0.0013158 0.000824591 0.000314666 -7.37492e-05 -0.000336878 -0.000425278 -0.000347797 -7.56909e-05 0.000327999 0.00082557 0.00129536 0.00169215 0.00197037 0.00206703 0.00214002 0.00217403 0.00216104 0.00214983 0.00214268 0.0021776 0.00216718 0.00216022 0.00219714 0.00227285 0.00240274 0.00259408 0.00285761 0.00308016 0.00330721 0.00344082 0.00350384 0.00344459 0.0033064 0.00308882 0.00283593 0.00259224 0.00240726 0.00225317 0.00220884 0.00214962 0.00216562 0.00216873 0.00215847 0.00218269 0.00218188 0.00213904 0.00214098 0.00209113 0.00200977 0.00182253 0.0015869 0.00124423 0.000896616 0.000621746 0.000424703 0.00037043 0.000456283 0.000635297 0.000914407 0.00124179 0.00155727 0.0018437 0.00199566 0.0020932 0.00212424 0.0021524 0.00214422 0.00212927 0.00216182 0.00214444 
0.00216729 0.0021621 0.00216741 0.00215408 0.00216486 0.00215139 0.00212148 0.001995 0.00176304 0.00126196 0.000520578 -0.000382906 -0.00134707 -0.00212006 -0.00263501 -0.00282245 -0.00263568 -0.00211079 -0.00131593 -0.00038316 0.000528855 0.0012628 0.0017285 0.00200611 0.00210759 0.00214953 0.00216738 0.00215943 0.00215019 0.00216922 0.00216421 0.00215005 0.00214251 0.00205417 0.00196002 0.00178752 0.00157074 0.00137413 0.00117447 0.00104906 0.00101323 0.00105544 0.0011711 0.00133439 0.00157377 0.00178479 0.00197196 0.00206461 0.00212499 0.00216034 0.00214638 0.0021807 0.0021868 0.00214614 0.00216296 0.0021735 0.00212007 0.00200922 0.00180287 0.00136934 0.000756775 -3.12139e-05 -0.0008667 -0.00152338 -0.00200514 -0.00214616 -0.00200377 -0.00153213 -0.00085574 -3.53364e-05 0.000752195 0.00138283 0.00179218 0.00201772 0.00212301 0.0021423 0.00217815 0.00217943 0.00218818 0.00215584 0.00218025 0.00216519 0.00216803 0.00215881 0.00220193 0.00220003 0.00222788 0.0022419 0.00227963 0.00226191 0.00229777 0.00229215 0.00225938 0.00226451 0.00223089 0.00219669 0.00220582 0.00216672 0.00217773 0.0021756 0.00216416 0.00215596 0.00215022 0.0021931 0.00217578 0.00214973 0.00213191 0.00210156 0.00195583 0.00173998 0.00141801 0.000981098 0.000541287 0.000175523 -6.18989e-05 -0.000139025 -5.3114e-05 0.000158176 0.000532277 0.000987377 0.00141931 0.00174821 0.00198655 0.00207559 0.00215284 0.00217521 0.00216639 0.00215925 0.00215589 0.00220728 0.00216811 0.00216729 0.00217042 0.0021448 0.00210639 0.00202105 0.00197984 0.00188577 0.00182925 0.00180005 0.00180137 0.0018041 0.00183887 0.00189172 0.00196453 0.00203483 0.00211116 0.00214522 0.00216489 0.00217322 0.00216767 0.00217961 0.0021848 0.00216615 0.00218967 0.00217334 0.00218418 0.00217058 0.0022072 0.00220436 0.0022311 0.00227472 0.00229882 0.00234053 0.00235304 0.00235606 0.00237854 0.00235157 0.00231359 0.00227892 0.00225271 0.0022076 0.00219033 0.00217559 0.00218326 0.00214987 0.00214982 0.00215101 0.00216601 0.00216725 
0.0020657 0.00207302 0.00208234 0.0020723 0.00206776 0.00206638 0.00203438 0.0019101 0.0016772 0.00117782 0.000426007 -0.000479056 -0.00144984 -0.00222198 -0.00272988 -0.00292757 -0.00272637 -0.00221608 -0.00141311 -0.000479782 0.000445616 0.00117319 0.00163709 0.00191248 0.00201626 0.00205058 0.00206857 0.0020712 0.00205912 0.00207033 0.00208885 0.00208603 0.00215452 0.00222233 0.00240873 0.00266731 0.0029957 0.00335536 0.00362949 0.00381071 0.0038878 0.00382324 0.00362309 0.00331662 0.00300409 0.00267828 0.00242161 0.00222829 0.00213186 0.0021034 0.00206878 0.00210145 0.00209458 0.00205477 0.00207387 0.00206872 0.00202163 0.00190131 0.00167094 0.00117395 0.000492612 -0.000410463 -0.00135647 -0.00209925 -0.00264475 -0.00280056 -0.00263704 -0.00210402 -0.00133673 -0.00041363 0.000489718 0.00119385 0.00164899 0.00191645 0.00203997 0.0020505 0.00208965 0.00209225 0.00209915 0.00206841 0.00208505 0.00206669 0.00206654 0.0020224 0.00201028 0.00192662 0.00183504 0.00174364 0.00169408 0.00161183 0.00162741 0.00163127 0.00166471 0.00177415 0.00184369 0.00191805 0.00200808 0.00202667 0.00207042 0.00207723 0.00205669 0.00207052 0.00205122 0.00209817 0.00206754 0.00206027 0.00203278 0.00198602 0.00181037 0.00152088 0.00109461 0.000542374 -4.06493e-05 -0.000497229 -0.00081077 -0.000918747 -0.000812517 -0.000521046 -3.82874e-05 0.000547759 0.00111166 0.00153223 0.00184551 0.00195484 0.00206144 0.00208854 0.00208551 0.00206459 0.00207826 0.00212628 0.00209109 0.00210167 0.00218154 0.00228238 0.00249825 0.00280687 0.0032675 0.00366548 0.00403447 0.00427387 0.00437322 0.00426958 0.00402733 0.00366026 0.00324342 0.00282028 0.00250202 0.00228385 0.00216556 0.00210898 0.00208147 0.00209203 0.00209253 0.00206916 0.00209834 0.00207864 0.00206556 0.00198149 0.00184306 0.00152867 0.00107874 0.000520964 -6.04086e-05 -0.000536556 -0.000862773 -0.000973371 -0.000825695 -0.000516617 -4.65993e-05 0.000518531 0.00110549 0.00153146 0.00181512 0.00197529 0.00205228 0.00205329 0.00203926 0.00205667 0.00207956 0.00207145 
0.00189778 0.00194005 0.00193297 0.00193226 0.00189411 0.00189413 0.00185797 0.00176078 0.00154092 0.00109081 0.000396141 -0.000423143 -0.0013089 -0.00202011 -0.00250489 -0.00264921 -0.00250277 -0.00201633 -0.00126889 -0.000427327 0.000419013 0.00106459 0.00151989 0.00177828 0.00184769 0.00188796 0.00188489 0.00191526 0.00189084 0.00190396 0.00193979 0.00196391 0.00211508 0.00241595 0.00300528 0.00390075 0.00500986 0.0061505 0.0071112 0.00774227 0.00797444 0.00773498 0.00709776 0.00614043 0.00501131 0.00392191 0.0030353 0.00243381 0.00214564 0.00198121 0.00192356 0.00192528 0.00193931 0.00189852 0.0019014 0.00188346 0.00184049 0.00172992 0.00147874 0.000981867 0.000224779 -0.000711203 -0.0016819 -0.00249867 -0.00304643 -0.00324133 -0.00303748 -0.0024827 -0.00167573 -0.000700331 0.000252706 0.000996146 0.00145947 0.00175355 0.00184669 0.00187772 0.00191526 0.00191297 0.00191732 0.00190527 0.0019368 0.00188435 0.00184376 0.0016994 0.00148855 0.00107869 0.000595502 0.000157858 -0.00025014 -0.000525391 -0.00060278 -0.000529184 -0.000258352 0.000177756 0.000629503 0.00110502 0.00145796 0.00166807 0.00182027 0.0018716 0.00187942 0.00193306 0.00190117 0.00192318 0.0019001 0.00190465 0.00188323 0.00177941 0.00164338 0.0013015 0.000838906 0.000212379 -0.000451512 -0.000932368 -0.00127503 -0.00138891 -0.00129832 -0.000934225 -0.000425192 0.000213141 0.0008161 0.00131536 0.00166943 0.0017927 0.00189467 0.00192708 0.00192707 0.00189954 0.00192171 0.00194394 0.00192752 0.0019199 0.00199821 0.00209991 0.00228726 0.00260119 0.00302237 0.00339095 0.0037389 0.00392567 0.00403999 0.0039403 0.00372486 0.00338028 0.00300095 0.00259484 0.00229075 0.00208409 0.00199155 0.00190645 0.00191492 0.00192675 0.00191352 0.00192655 0.00193129 0.00189069 0.00187907 0.0017809 0.00157917 0.0011913 0.000628751 -0.000117804 -0.000867611 -0.00148875 -0.00191288 -0.00203519 -0.00186233 -0.00146863 -0.000852902 -0.000127977 0.000610377 0.00120468 0.00156125 0.00177659 0.00185961 0.00190816 0.00188003 0.0018859 0.00191417 0.00190406 
0.0016678 0.00171333 0.00173096 0.00171339 0.00164742 0.00166409 0.00159755 0.00144636 0.00102873 0.000219785 -0.000979022 -0.00243158 -0.00398506 -0.00525811 -0.00606031 -0.00637897 -0.0060734 -0.0052174 -0.00393872 -0.0024232 -0.000956856 0.000203248 0.00101992 0.00142495 0.00161311 0.00165712 0.00164145 0.00168169 0.00167801 0.0016953 0.00178533 0.00182901 0.00220233 0.00291703 0.00432742 0.00646123 0.00906932 0.0118023 0.0141241 0.0156423 0.016179 0.0156428 0.0140967 0.0117768 0.00908793 0.0064631 0.00434599 0.00294241 0.00217972 0.00186207 0.00172952 0.00172244 0.0017285 0.00167376 0.00168684 0.00167933 0.00162335 0.00148361 0.00115798 0.000550098 -0.000348586 -0.00151855 -0.00271766 -0.00366168 -0.004396 -0.00462101 -0.00437706 -0.00370014 -0.00269319 -0.00151019 -0.000337641 0.000549108 0.00117308 0.00149858 0.00163944 0.00166845 0.00171525 0.00169499 0.00172979 0.00170883 0.00167898 0.00166113 0.00161529 0.00152045 0.00132386 0.00101031 0.000582495 0.000194771 -0.0001169 -0.000373606 -0.000394838 -0.000377714 -0.000152233 0.000233285 0.000608072 0.000997106 0.00130764 0.00150163 0.00161899 0.00166446 0.00163158 0.00167558 0.00166017 0.00170009 0.00167499 0.00168755 0.00165161 0.00154367 0.00132368 0.000901951 0.000302202 -0.000512869 -0.00136444 -0.00200246 -0.00246017 -0.00261001 -0.00247438 -0.00202555 -0.00134903 -0.000507301 0.000283899 0.000907979 0.00134753 0.00152632 0.00167259 0.00169622 0.00171549 0.00167346 0.00172978 0.00174608 0.00169538 0.00168595 0.0017401 0.00169713 0.00164045 0.00159802 0.00161477 0.00156194 0.00152171 0.00144691 0.00150643 0.00147703 0.00150723 0.00152164 0.00160115 0.00160089 0.00164206 0.00170241 0.00169885 0.00168769 0.00167491 0.00170996 0.00170777 0.00167219 0.00170194 0.00169719 0.00168118 0.00158999 0.00141691 0.00107627 0.000546582 -0.000108142 -0.000757039 -0.00130694 -0.0016788 -0.00179113 -0.00161828 -0.0012896 -0.000744633 -0.000113178 0.000586415 0.0010625 0.00139778 0.00157852 0.00167549 0.00167448 0.00163804 0.00168344 0.00168825 0.00170497 
0.00126829 0.00135929 0.00138841 0.00136884 0.00123284 0.00127775 0.00117297 0.000990377 0.000392251 -0.000721942 -0.00237841 -0.00437339 -0.00651672 -0.00828257 -0.00937811 -0.00982027 -0.00940177 -0.00820871 -0.00645455 -0.00435622 -0.00234692 -0.000754364 0.000408533 0.000946958 0.00121413 0.0012638 0.00121715 0.00130212 0.00130682 0.0013213 0.00149841 0.00159246 0.00230855 0.00375845 0.00655324 0.0107898 0.0159764 0.0213912 0.0260103 0.0290354 0.0300944 0.0290233 0.025961 0.0213721 0.0160114 0.0107931 0.00657321 0.00380276 0.00228667 0.00164412 0.00140205 0.00136139 0.00137157 0.00129719 0.00130521 0.00128234 0.0012068 0.00100691 0.000492067 -0.000421644 -0.00181259 -0.00361185 -0.00543908 -0.00688712 -0.00802252 -0.00837737 -0.00798133 -0.0069567 -0.00539839 -0.00359769 -0.00178857 -0.000434791 0.00053644 0.00102641 0.00123384 0.00128636 0.0013452 0.00131014 0.00136981 0.00135484 0.00127974 0.00125012 0.0011546 0.000950727 0.000486456 -0.000186174 -0.00112409 -0.00197061 -0.00268669 -0.00321635 -0.00331179 -0.00325564 -0.00273872 -0.00192428 -0.00108162 -0.000216132 0.000448732 0.000905531 0.00114146 0.00125165 0.00120025 0.00129359 0.00126937 0.00131062 0.0012785 0.00132776 0.00128441 0.00113359 0.000906608 0.000415505 -0.000256892 -0.00119779 -0.00219375 -0.00289173 -0.00342192 -0.00358751 -0.00345696 -0.00291148 -0.00216051 -0.00119632 -0.000297701 0.000420825 0.000922073 0.001124 0.00130712 0.00131706 0.00135766 0.00128617 0.00139841 0.00138591 0.00131796 0.00130453 0.00140481 0.0013461 0.00126783 0.00125765 0.00132387 0.00130069 0.00127515 0.00115751 0.00126988 0.00121342 0.00124149 0.00122144 0.00131257 0.00124882 0.00126725 0.0013569 0.00133178 0.00130165 0.00128717 0.00133788 0.00133447 0.00127814 0.00131661 0.00132108 0.0012895 0.00114202 0.000813362 0.000245368 -0.000678638 -0.00182337 -0.00294597 -0.00391279 -0.00455451 -0.00474114 -0.00445818 -0.00388652 -0.00293801 -0.00184454 -0.00062413 0.000213617 0.000795549 0.0011192 0.00127948 0.0013011 0.00123202 0.00131475 0.00130624 0.001343 
0.000672 0.00081924 0.000864615 0.000838905 0.000618483 0.000699313 0.000551853 0.000345226 -0.000445993 -0.0018877 -0.00402797 -0.00659763 -0.00936602 -0.0116583 -0.013054 -0.0136353 -0.0130905 -0.011546 -0.00928497 -0.00657052 -0.00398327 -0.00194076 -0.000405606 0.000270848 0.000624909 0.000673969 0.000593184 0.000731733 0.000742594 0.000753344 0.00103801 0.00119751 0.00234177 0.00469533 0.00918912 0.0160238 0.0243949 0.0331149 0.0405714 0.045451 0.0471543 0.0454291 0.0404953 0.0331056 0.0244482 0.016032 0.0092188 0.00475836 0.00231597 0.0012748 0.000897336 0.00081257 0.000826 0.000730951 0.000734356 0.000691016 0.000598207 0.000336924 -0.000381328 -0.00161973 -0.00352634 -0.00599921 -0.00849013 -0.0104703 -0.012037 -0.0125294 -0.0119713 -0.010575 -0.00843195 -0.00597455 -0.00348691 -0.0016479 -0.000308488 0.000361699 0.000638969 0.000714026 0.000790298 0.000731075 0.000823428 0.000817915 0.000686848 0.00065217 0.000515222 0.000230199 -0.000462676 -0.00143182 -0.00281376 -0.00403766 -0.00508605 -0.00584622 -0.00599539 -0.0059272 -0.00515928 -0.00397512 -0.0027446 -0.00147724 -0.000525622 0.000156976 0.000489296 0.000648621 0.000567678 0.000720062 0.000684058 0.00072413 0.000684064 0.000775533 0.000713347 0.000481122 0.000180377 -0.000516046 -0.00146252 -0.00278383 -0.0041953 -0.0051611 -0.00591171 -0.00614651 -0.00597258 -0.00518271 -0.00413594 -0.0027833 -0.00152304 -0.000511005 0.000192691 0.000480744 0.000737675 0.000744433 0.000815645 0.00070583 0.00088481 0.000839459 0.000754174 0.000734528 0.000899277 0.000836672 0.000765076 0.000846524 0.0010367 0.00111377 0.00115816 0.00102335 0.00121285 0.00110975 0.0010986 0.000986108 0.00102646 0.000824901 0.000761056 0.000853486 0.000785928 0.000725846 0.000702241 0.000777423 0.000768105 0.000688467 0.000737459 0.000751268 0.000695696 0.000464759 -8.10342e-05 -0.000995543 -0.00249571 -0.00435981 -0.00618106 -0.00775779 -0.00879787 -0.00909892 -0.00865794 -0.00772159 -0.00617537 -0.00439561 -0.00242068 -0.00104716 -0.000102288 0.000426401 0.000681126 0.000735608 0.000623721 0.000754237 0.000732345 0.000789757 
-1.1659e-05 0.000197446 0.000263067 0.000228121 -8.6947e-05 3.51327e-05 -0.000168412 -0.000412418 -0.00145376 -0.00331981 -0.00608971 -0.00940479 -0.0129837 -0.0159662 -0.0177592 -0.0185124 -0.0178121 -0.0157984 -0.0128861 -0.00936647 -0.00603977 -0.00339822 -0.00138275 -0.000522161 -5.7026e-05 -1.89239e-06 -0.000124514 7.65033e-05 9.75899e-05 0.000106639 0.000506347 0.000747724 0.00236931 0.00575218 0.0121818 0.0219714 0.0339593 0.0464386 0.0571183 0.0641144 0.0665498 0.064075 0.0570109 0.046439 0.0340326 0.0219797 0.01222 0.00583956 0.00234941 0.000846932 0.000314434 0.000177369 0.000205937 8.01254e-05 7.79815e-05 1.94384e-05 -0.000110328 -0.000464031 -0.00146627 -0.00316313 -0.00580012 -0.00920401 -0.0126289 -0.0153686 -0.0175292 -0.0182113 -0.0174321 -0.0155222 -0.0125539 -0.00917409 -0.0057449 -0.0032095 -0.0013536 -0.000432205 -6.07572e-05 5.17856e-05 0.000150169 6.41425e-05 0.000198429 0.000199712 8.82514e-06 -2.02411e-05 -0.000186513 -0.000506134 -0.00136304 -0.00251283 -0.00421271 -0.00566848 -0.00693366 -0.00784678 -0.00802223 -0.00797541 -0.0070244 -0.0055969 -0.00411369 -0.00258211 -0.00145264 -0.000609676 -0.00022962 -3.10155e-05 -0.000150872 5.58098e-05 1.55426e-05 5.29466e-05 1.49762e-05 0.000148093 8.15262e-05 -0.000203476 -0.000499887 -0.00124931 -0.00224229 -0.0036687 -0.00520855 -0.0061994 -0.00701053 -0.00725216 -0.00709712 -0.0062184 -0.00512457 -0.00366936 -0.00233337 -0.00125149 -0.000491303 -0.000192539 0.000100145 8.75318e-05 0.000192242 4.14593e-05 0.000295986 0.000215554 9.79847e-05 5.45569e-05 0.000243975 6.60861e-05 -0.000214189 -0.000352524 -0.00043034 -0.000648752 -0.000878277 -0.00125923 -0.0010611 -0.00112936 -0.000958206 -0.000827884 -0.00042901 -0.000388402 -0.000221765 8.99022e-05 8.26749e-05 3.91741e-05 2.39e-05 0.00013292 0.000120853 1.28607e-05 6.88292e-05 9.4994e-05 2.24898e-05 -0.000286911 -0.00103471 -0.00224761 -0.00428074 -0.00678816 -0.00924318 -0.011375 -0.0127748 -0.0131725 -0.0125879 -0.011326 -0.00924472 -0.00684276 -0.0041796 -0.00233117 -0.0010528 -0.00033555 8.00956e-06 9.24112e-05 -6.49273e-05 0.000114543 7.05196e-05 0.000165394 
-0.000661672 -0.000392028 -0.000309526 -0.00035458 -0.000765004 -0.000609065 -0.000872112 -0.00117001 -0.00250098 -0.00486136 -0.00835814 -0.0125561 -0.0170813 -0.0208621 -0.0231327 -0.0240841 -0.0232055 -0.0206443 -0.0169621 -0.0125041 -0.00830249 -0.00495808 -0.00238877 -0.00130689 -0.000718228 -0.000647609 -0.000812781 -0.000551686 -0.000519437 -0.000510695 6.57422e-06 0.000316601 0.00241492 0.00680595 0.0151446 0.027843 0.0433826 0.0595596 0.0734159 0.0824906 0.0856431 0.082433 0.0732774 0.059574 0.0434761 0.0278436 0.0151887 0.00692104 0.00239245 0.000443635 -0.000242534 -0.000433602 -0.000390034 -0.000539535 -0.000553163 -0.000626205 -0.00078237 -0.00120617 -0.00245057 -0.00451234 -0.00776079 -0.0119373 -0.0161295 -0.0194848 -0.0221471 -0.0229957 -0.022023 -0.0196855 -0.0160382 -0.0118958 -0.0076866 -0.00458399 -0.00228923 -0.00117501 -0.000729208 -0.000576008 -0.000462871 -0.000577231 -0.000401048 -0.000388741 -0.000645201 -0.000685287 -0.000911736 -0.00133804 -0.0025005 -0.00404879 -0.00632592 -0.00828828 -0.0100057 -0.0112197 -0.0114724 -0.0113968 -0.0101143 -0.00820432 -0.00620019 -0.00413521 -0.00261936 -0.00147623 -0.000969675 -0.000699577 -0.000845497 -0.000577832 -0.000623497 -0.000591652 -0.000629196 -0.000455535 -0.00053641 -0.000905664 -0.00125499 -0.00217536 -0.00338416 -0.00514437 -0.00703666 -0.00824677 -0.0092414 -0.00953315 -0.00935268 -0.00825626 -0.00692918 -0.00514865 -0.00351459 -0.00217648 -0.00125733 -0.000876896 -0.000522368 -0.000546084 -0.000412009 -0.000594647 -0.0002698 -0.000393875 -0.000531061 -0.000582354 -0.000362092 -0.00061132 -0.00102199 -0.00126275 -0.00146494 -0.00182836 -0.00220123 -0.00275128 -0.00250937 -0.00257658 -0.00230129 -0.00205804 -0.00145575 -0.00131614 -0.00103205 -0.000577608 -0.000562534 -0.000607919 -0.000618817 -0.000486256 -0.000499635 -0.00063537 -0.000567386 -0.000525783 -0.000606785 -0.000948533 -0.00179951 -0.0031388 -0.00542281 -0.0082392 -0.0109702 -0.0133548 -0.0149189 -0.0153476 -0.0146875 -0.0133025 -0.0109787 -0.00830915 -0.00529952 -0.00324338 -0.00180999 -0.00100684 -0.000614738 -0.000522828 -0.000722013 -0.000497396 -0.000565516 -0.000438819 
-0.00085436 -0.000546335 -0.000473918 -0.000508936 -0.000956887 -0.000791657 -0.00107709 -0.00138928 -0.00277982 -0.00522382 -0.0088854 -0.0132651 -0.0179859 -0.021931 -0.0243338 -0.02529 -0.0244023 -0.0217206 -0.017857 -0.0132171 -0.0088277 -0.00534061 -0.0026518 -0.00150282 -0.000928794 -0.0008384 -0.00101392 -0.000718898 -0.000699641 -0.000702602 -0.000159509 0.000178812 0.00237176 0.00703273 0.0158325 0.0292379 0.0456661 0.0627325 0.0773536 0.0869396 0.0902709 0.0868609 0.0772106 0.0627752 0.0457612 0.0292559 0.0158842 0.00715429 0.0024027 0.000306192 -0.000405564 -0.000621609 -0.000563157 -0.000711889 -0.000745471 -0.000846678 -0.00100943 -0.00146733 -0.00283545 -0.00511119 -0.00873628 -0.0133368 -0.0179655 -0.0217315 -0.0246213 -0.0255733 -0.0244826 -0.021905 -0.0178774 -0.0132909 -0.00863183 -0.00517751 -0.00268042 -0.00142378 -0.000958852 -0.000773775 -0.000663769 -0.00077049 -0.000599831 -0.000573519 -0.000808215 -0.00089366 -0.00115091 -0.00170863 -0.00310207 -0.00502972 -0.00777716 -0.0101508 -0.0122905 -0.0137354 -0.0141099 -0.0139546 -0.0123828 -0.0100798 -0.00762729 -0.00509618 -0.00326038 -0.00188286 -0.0012548 -0.000922308 -0.00104854 -0.000724088 -0.000796682 -0.000784016 -0.000823102 -0.000620714 -0.000688108 -0.00107377 -0.00129983 -0.00211511 -0.00312337 -0.00464503 -0.00631553 -0.00728334 -0.0081311 -0.00836911 -0.00827448 -0.0072581 -0.00617875 -0.00466205 -0.00327489 -0.00210662 -0.00130816 -0.0010049 -0.000684313 -0.000720348 -0.000588004 -0.000777896 -0.000433285 -0.000585588 -0.000697352 -0.000740971 -0.000436293 -0.00050573 -0.000598422 -0.000305818 0.000118616 0.000383029 0.000571257 0.000347038 0.00072363 0.00052653 0.000452368 0.000150124 0.000122895 -0.000381528 -0.000608694 -0.000483157 -0.00062786 -0.000789686 -0.000783251 -0.000667955 -0.000692845 -0.000802836 -0.000748214 -0.000733134 -0.00082674 -0.00121777 -0.00223214 -0.00380634 -0.00645452 -0.00976797 -0.0129953 -0.0158022 -0.0176427 -0.018141 -0.0173894 -0.0157375 -0.0130162 -0.00986271 -0.00637312 -0.00389555 -0.00223802 -0.00127787 -0.000847189 -0.000685412 -0.000907444 -0.000690489 -0.000746788 -0.000630669 
0.000859461 0.00120415 0.00128994 0.00125161 0.000732314 0.000968968 0.000574099 0.000134001 -0.00170732 -0.00487607 -0.00961927 -0.0154075 -0.0215552 -0.0266985 -0.0298542 -0.031141 -0.0299323 -0.0264475 -0.0214268 -0.0152959 -0.00958275 -0.00497512 -0.00149784 1.29203e-05 0.000759947 0.000869422 0.000710359 0.00103198 0.00109492 0.0010803 0.00171134 0.00203654 0.00455523 0.00982258 0.0198102 0.0349795 0.0535676 0.0728796 0.0894687 0.100345 0.104099 0.100265 0.089311 0.072962 0.0536835 0.0349578 0.0198288 0.00996129 0.00451148 0.00219144 0.00139592 0.00113633 0.00115213 0.00106622 0.000997325 0.000858452 0.000672977 5.32547e-05 -0.00178337 -0.00481113 -0.00960056 -0.0157083 -0.0219167 -0.0268478 -0.0306901 -0.0319476 -0.0305195 -0.0271041 -0.0217237 -0.0156933 -0.0095194 -0.00490482 -0.00152514 5.67534e-05 0.000727403 0.000999598 0.00109527 0.000963301 0.00119585 0.00120922 0.000861216 0.000793093 0.000445466 -0.000323094 -0.00219403 -0.00476265 -0.00837686 -0.0116524 -0.0145274 -0.0164509 -0.016978 -0.0167459 -0.0146324 -0.0115763 -0.00824226 -0.00490058 -0.00239692 -0.000483492 0.000310949 0.000819425 0.000635199 0.00102274 0.000933733 0.000958506 0.000882841 0.00116228 0.00104579 0.000654267 0.000307913 -0.000621336 -0.00180573 -0.00358085 -0.00546076 -0.00667615 -0.00766395 -0.00794985 -0.00781468 -0.00659916 -0.00535588 -0.00361675 -0.00193365 -0.000576024 0.000277683 0.000677637 0.0010379 0.000970686 0.00114115 0.000962202 0.00139104 0.00118483 0.00103863 0.00103168 0.00133336 0.00116787 0.000926239 0.00104453 0.00130182 0.00137739 0.00140858 0.00101124 0.00139027 0.00115334 0.00126858 0.00112176 0.00132427 0.000986751 0.000902805 0.00123928 0.0010945 0.000991939 0.000984843 0.00107596 0.00107023 0.000880053 0.00097772 0.00103915 0.000956629 0.000569216 -0.000456012 -0.00198205 -0.00465197 -0.00788063 -0.0110456 -0.0138184 -0.0155938 -0.0160953 -0.0153511 -0.013734 -0.0111113 -0.00798517 -0.00446382 -0.00207983 -0.000445875 0.000515436 0.000957224 0.00108772 0.000845096 0.00109464 0.000993655 0.00112385 
0.000538173 0.000905677 0.0010012 0.000959995 0.000405008 0.00065877 0.00023915 -0.000224902 -0.00216784 -0.00551536 -0.0105289 -0.0166364 -0.0231347 -0.0285665 -0.0318962 -0.0332564 -0.0319775 -0.0282968 -0.0229955 -0.0165214 -0.0104908 -0.00562214 -0.00194886 -0.000352046 0.000434733 0.000548601 0.000378929 0.000724239 0.000790782 0.000770155 0.00144821 0.00180036 0.00449893 0.0101525 0.0208686 0.0371392 0.0570807 0.0778031 0.0955923 0.10726 0.111288 0.107174 0.0954236 0.077885 0.0572073 0.0371182 0.0208872 0.0102995 0.00445491 0.00196551 0.00111074 0.000836247 0.000856168 0.00075793 0.000683976 0.000534936 0.0003289 -0.000345899 -0.00233909 -0.00563921 -0.0108492 -0.0174944 -0.0242502 -0.0296256 -0.0338014 -0.0351608 -0.0336135 -0.0298972 -0.0240466 -0.0174811 -0.0107634 -0.00573666 -0.00206909 -0.000341582 0.00038952 0.000683674 0.000787687 0.000650563 0.000897712 0.000911893 0.000544533 0.000468441 0.000109477 -0.000703393 -0.00267821 -0.00538286 -0.00920355 -0.0126503 -0.0156825 -0.0177128 -0.0182728 -0.0180324 -0.0158006 -0.0125716 -0.00905926 -0.00553593 -0.00289485 -0.00087582 -4.04794e-05 0.000497042 0.000297726 0.000713981 0.000616973 0.000643883 0.000564677 0.000864544 0.0007473 0.000343739 1.55725e-05 -0.000902556 -0.00205504 -0.00380718 -0.00567546 -0.00684677 -0.00782113 -0.0080959 -0.00798426 -0.00676161 -0.00556021 -0.00384669 -0.00218829 -0.000854163 -1.47667e-05 0.000371019 0.000741836 0.000662109 0.000840874 0.00064848 0.00110703 0.000889131 0.000734728 0.000735653 0.00108673 0.000970108 0.000825727 0.00112768 0.00162232 0.00192061 0.00214486 0.00184638 0.00229256 0.00200019 0.00199341 0.00164809 0.00164344 0.00106303 0.00080203 0.00104682 0.000831511 0.0006916 0.000677198 0.000770485 0.000766802 0.000560252 0.000668005 0.000729923 0.00064084 0.000223793 -0.000882581 -0.00252433 -0.00539777 -0.00887463 -0.0122883 -0.0152746 -0.0171899 -0.0177269 -0.016924 -0.0151821 -0.0123593 -0.00899367 -0.00520118 -0.00263086 -0.000873028 0.000165115 0.000640067 0.000783112 0.000519882 0.000788046 0.000680629 0.000821038 
-0.00229526 -0.00190928 -0.00177533 -0.00183513 -0.00242567 -0.00218234 -0.00257756 -0.00302111 -0.00492556 -0.00828081 -0.0132997 -0.0193098 -0.02579 -0.0311979 -0.0344589 -0.0358252 -0.0345489 -0.0308985 -0.0256227 -0.0192399 -0.0132333 -0.00841554 -0.00476346 -0.00319931 -0.00238166 -0.00227652 -0.00249438 -0.00210973 -0.00206038 -0.00208721 -0.00133639 -0.00088359 0.00211151 0.00844401 0.0204204 0.0386242 0.0609462 0.0841733 0.104041 0.11708 0.121608 0.116986 0.103853 0.084201 0.0610967 0.038638 0.0204586 0.00859241 0.00209083 -0.000709556 -0.00168418 -0.00195422 -0.00189822 -0.00209981 -0.00213299 -0.00226676 -0.00250582 -0.00317417 -0.00512126 -0.00841014 -0.0135399 -0.0201335 -0.0267827 -0.0321336 -0.0362939 -0.0376014 -0.0360855 -0.0324069 -0.0266416 -0.0200981 -0.0134375 -0.00849521 -0.00490736 -0.00312871 -0.0024156 -0.00217166 -0.00202514 -0.00216129 -0.0019172 -0.00189892 -0.0022531 -0.00232143 -0.00259726 -0.00321033 -0.00484044 -0.00698477 -0.0101965 -0.012914 -0.0153272 -0.0170104 -0.0174103 -0.0173152 -0.015488 -0.0128154 -0.0100219 -0.00714484 -0.00503079 -0.00340745 -0.00272721 -0.00232719 -0.00255432 -0.0021436 -0.00223117 -0.00219202 -0.0022493 -0.00196278 -0.00204343 -0.00244643 -0.00265403 -0.00342784 -0.00435109 -0.00581139 -0.00747164 -0.00830678 -0.00913471 -0.0093448 -0.0093145 -0.00828144 -0.00730597 -0.00583571 -0.00449827 -0.00342082 -0.00266034 -0.00240166 -0.00201823 -0.00210994 -0.00192913 -0.00218358 -0.00170286 -0.00189782 -0.00206629 -0.0020862 -0.00160129 -0.00158173 -0.0014497 -0.000686303 0.000389795 0.00124197 0.00191401 0.00191873 0.00250213 0.00214331 0.00174913 0.000922276 0.000396671 -0.000775493 -0.00146246 -0.00152026 -0.00188444 -0.00212955 -0.00218079 -0.0020366 -0.00204714 -0.00225975 -0.002148 -0.00209554 -0.00223452 -0.00276817 -0.00414864 -0.00628699 -0.00992276 -0.0143948 -0.0187889 -0.0226119 -0.0251096 -0.0258011 -0.0247722 -0.0225166 -0.0188346 -0.0145367 -0.00975169 -0.00643196 -0.00416642 -0.00285693 -0.00225398 -0.00207463 -0.00237475 -0.00205027 -0.0021459 -0.00197557 
0.000193818 0.000573061 0.000678692 0.000633854 5.73378e-05 0.000321797 -0.000125158 -0.000634396 -0.00270466 -0.00627397 -0.0116315 -0.0181553 -0.025095 -0.0308952 -0.0344605 -0.0359112 -0.0345448 -0.0306149 -0.0249495 -0.018039 -0.011598 -0.00638188 -0.00247531 -0.00076228 7.18779e-05 0.000202379 2.82811e-05 0.0003912 0.00046165 0.000431939 0.00113759 0.00150844 0.00431146 0.0102056 0.0213691 0.0383057 0.0590709 0.0806534 0.0991695 0.111326 0.115516 0.111228 0.0989954 0.0807382 0.0592075 0.0382842 0.0213805 0.0103558 0.00427103 0.00167625 0.000786978 0.000503698 0.000529044 0.000423762 0.000344717 0.000186719 -3.63139e-05 -0.000756467 -0.00287282 -0.00639368 -0.0119415 -0.0190121 -0.0262106 -0.0319475 -0.0363842 -0.0378219 -0.0361802 -0.0322285 -0.0259999 -0.0190056 -0.0118526 -0.00649169 -0.00259486 -0.000750604 2.69318e-05 0.000341347 0.000445934 0.000311706 0.000567112 0.000580798 0.000204405 0.00012358 -0.000234586 -0.00106322 -0.00308324 -0.00583665 -0.00974871 -0.0132582 -0.0163568 -0.0184264 -0.0190067 -0.0187697 -0.0164787 -0.0131824 -0.00960073 -0.00600628 -0.00331203 -0.0012429 -0.000400012 0.000156428 -5.5147e-05 0.000378045 0.000275809 0.000302946 0.000224993 0.000541288 0.000435621 6.36744e-05 -0.000168905 -0.000915818 -0.00180632 -0.00323497 -0.00478227 -0.00566323 -0.00645083 -0.0066568 -0.00662463 -0.00556461 -0.00466031 -0.00328129 -0.00194029 -0.000866828 -0.000201848 9.3882e-05 0.000431044 0.00032723 0.000507668 0.000311107 0.000790124 0.000559629 0.000403708 0.000415191 0.000810629 0.000758527 0.000739642 0.0012563 0.0020179 0.002577 0.00302946 0.00286712 0.0033728 0.00302651 0.0028704 0.00229653 0.00204115 0.00118494 0.000716594 0.000843103 0.00054723 0.00036711 0.000347648 0.000434623 0.000434709 0.000213655 0.000329231 0.0003944 0.000298756 -0.000131179 -0.00128833 -0.00298692 -0.00597278 -0.00957629 -0.0131262 -0.0162319 -0.0182205 -0.0187753 -0.0179427 -0.0161317 -0.0132101 -0.00971205 -0.00576887 -0.00309823 -0.00127629 -0.000191609 0.000299476 0.000451252 0.000175635 0.000454228 0.000341509 0.000488836 
-0.0025221 -0.0021344 -0.00199689 -0.00205752 -0.00265356 -0.00240774 -0.00281102 -0.0032675 -0.00520181 -0.0086134 -0.0137195 -0.0198306 -0.0264264 -0.0319235 -0.0352452 -0.0366336 -0.0353354 -0.0316206 -0.0262556 -0.0197621 -0.0136556 -0.00874777 -0.0050375 -0.00344138 -0.00261466 -0.00250548 -0.00272368 -0.00233447 -0.00228303 -0.00231411 -0.00155419 -0.00109795 0.00192637 0.00832733 0.0204345 0.0388258 0.0613801 0.0848553 0.104925 0.118106 0.12268 0.118008 0.104736 0.08488 0.0615352 0.0388373 0.0204687 0.00847774 0.00190637 -0.000922349 -0.00190871 -0.0021788 -0.00211912 -0.00232554 -0.00236225 -0.00249737 -0.00274752 -0.00343971 -0.00545025 -0.00885304 -0.0141592 -0.0209739 -0.0278526 -0.0333918 -0.0376864 -0.0390338 -0.0374714 -0.033668 -0.0277086 -0.0209419 -0.0140576 -0.00893834 -0.00523268 -0.00339593 -0.00265693 -0.00240123 -0.00225453 -0.00238736 -0.00214078 -0.00212333 -0.00247922 -0.0025535 -0.00282929 -0.00345845 -0.00511793 -0.00730072 -0.0105701 -0.0133364 -0.0157971 -0.0175104 -0.0179242 -0.0178238 -0.0159621 -0.0132407 -0.0103963 -0.00746872 -0.00531204 -0.00365749 -0.00296714 -0.00255546 -0.00278547 -0.00236907 -0.00245821 -0.00241858 -0.00247439 -0.00218358 -0.00225834 -0.0026452 -0.00280797 -0.00349947 -0.00429578 -0.00560281 -0.00710664 -0.00780571 -0.00854393 -0.00871932 -0.00872658 -0.00777217 -0.00694025 -0.00563039 -0.00444383 -0.00349036 -0.00281595 -0.0025987 -0.00223098 -0.00233445 -0.00215635 -0.00240948 -0.00192397 -0.00212086 -0.00228974 -0.0022996 -0.00179309 -0.00172911 -0.00151482 -0.000619717 0.000623512 0.00163914 0.002457 0.00255183 0.00317052 0.00277911 0.00228987 0.00131873 0.000629045 -0.000711826 -0.00152699 -0.00166486 -0.00207652 -0.0023455 -0.00240039 -0.00226194 -0.00226855 -0.0024887 -0.00237131 -0.00231914 -0.00245512 -0.00298017 -0.00434604 -0.00644327 -0.010025 -0.0144254 -0.0187513 -0.0225149 -0.024973 -0.0256471 -0.0246305 -0.0224173 -0.0188004 -0.0145752 -0.00985321 -0.00658993 -0.00436212 -0.0030685 -0.00247386 -0.00229807 -0.00260233 -0.00227575 -0.00237406 -0.00220087 
-0.00251014 -0.00212207 -0.00198391 -0.00204463 -0.00264112 -0.00239503 -0.00279817 -0.00325527 -0.00519336 -0.00860864 -0.0137218 -0.0198425 -0.0264455 -0.0319514 -0.0352773 -0.0366675 -0.0353672 -0.0316489 -0.0262754 -0.0197738 -0.0136574 -0.00874277 -0.00502881 -0.00343158 -0.00260233 -0.00249279 -0.0027117 -0.00232201 -0.00227011 -0.0023016 -0.00154152 -0.00108353 0.00194155 0.00834744 0.020461 0.0388635 0.0614331 0.0849214 0.105003 0.118188 0.12277 0.118093 0.104813 0.0849473 0.0615879 0.0388766 0.0204947 0.00849684 0.00192234 -0.000908961 -0.00189448 -0.0021657 -0.00210721 -0.00231259 -0.00234865 -0.00248424 -0.00273192 -0.00341949 -0.00541807 -0.00880095 -0.0140736 -0.0208484 -0.0276851 -0.0331905 -0.0374607 -0.0388 -0.0372458 -0.0334657 -0.0275414 -0.020816 -0.0139721 -0.00888564 -0.00520197 -0.00337422 -0.0026401 -0.00238792 -0.00224163 -0.00237456 -0.00212866 -0.00211054 -0.00246696 -0.00253924 -0.00281428 -0.00343798 -0.00509089 -0.0072616 -0.0105167 -0.0132688 -0.0157166 -0.0174214 -0.0178313 -0.0177351 -0.0158804 -0.0131724 -0.0103432 -0.00742927 -0.00528498 -0.00363771 -0.00295121 -0.00254222 -0.00277256 -0.00235672 -0.002446 -0.00240626 -0.0024623 -0.00217041 -0.00224491 -0.00262926 -0.00278841 -0.00347243 -0.00425942 -0.00555099 -0.00704108 -0.00772719 -0.00845816 -0.00863216 -0.00864142 -0.00769562 -0.00687403 -0.00557834 -0.00440664 -0.003465 -0.00279596 -0.00258354 -0.00221796 -0.00232132 -0.00214204 -0.00239695 -0.00191028 -0.00210846 -0.00227691 -0.00228964 -0.00178377 -0.00172597 -0.00152145 -0.000641554 0.000581268 0.00157766 0.00237749 0.00246111 0.00307476 0.00268751 0.00221009 0.00125639 0.000587642 -0.000733349 -0.00153387 -0.00166139 -0.00206837 -0.00233488 -0.00238906 -0.00224977 -0.00225674 -0.00247637 -0.00236031 -0.00230706 -0.00244669 -0.00297917 -0.00436546 -0.00649767 -0.0101351 -0.0146036 -0.0189991 -0.0228229 -0.0253205 -0.0260078 -0.0249778 -0.0227247 -0.0190488 -0.0147534 -0.0099629 -0.0066449 -0.00438166 -0.00306874 -0.00246605 -0.00228604 -0.00259002 -0.00226318 -0.00236047 -0.00218774 
-0.00191236 -0.00154606 -0.00144274 -0.00148908 -0.00202935 -0.00181814 -0.002176 -0.00256525 -0.00425451 -0.00722311 -0.0116837 -0.0170118 -0.0227631 -0.0275628 -0.0304853 -0.0316587 -0.0305621 -0.0273052 -0.0226078 -0.0169557 -0.0116251 -0.00735931 -0.00410217 -0.00269452 -0.00200499 -0.00189704 -0.00209726 -0.00173812 -0.00170913 -0.00173296 -0.00106737 -0.000653069 0.00201106 0.00769252 0.0184118 0.0347168 0.0547133 0.0754971 0.0932806 0.104954 0.109011 0.104861 0.09311 0.0755412 0.0548395 0.0347378 0.0184617 0.00783294 0.00204361 -0.000500661 -0.00136753 -0.0016241 -0.00155233 -0.00173292 -0.00177933 -0.00190935 -0.00212976 -0.00273772 -0.00453169 -0.00755218 -0.0123204 -0.0183828 -0.0245028 -0.0294846 -0.0332789 -0.0345057 -0.033092 -0.0296986 -0.0243897 -0.0183431 -0.0122033 -0.007627 -0.0043474 -0.00269088 -0.00206357 -0.00181779 -0.00168736 -0.00180582 -0.00159502 -0.00156756 -0.00185039 -0.00195011 -0.00221612 -0.00284258 -0.00442161 -0.0065722 -0.00970077 -0.012353 -0.014763 -0.0163903 -0.0168238 -0.0166807 -0.0148854 -0.0122778 -0.00952443 -0.00668216 -0.00461799 -0.00304556 -0.00236169 -0.00197183 -0.00214584 -0.00174883 -0.00184151 -0.0018259 -0.00186975 -0.00161222 -0.0016755 -0.00207237 -0.00220653 -0.00290194 -0.00369816 -0.0049913 -0.00646397 -0.0071736 -0.00788998 -0.00806574 -0.00806762 -0.00712321 -0.00629783 -0.00501888 -0.00385872 -0.00288723 -0.00221311 -0.00199271 -0.00166669 -0.00174355 -0.00159001 -0.00181278 -0.00138952 -0.00157462 -0.00170453 -0.00172726 -0.00128241 -0.00120132 -0.000995463 -0.000151204 0.000976093 0.00190808 0.00267463 0.00276074 0.00332531 0.00297174 0.00252462 0.00163236 0.000979763 -0.000246987 -0.00100588 -0.00116218 -0.00151626 -0.00178753 -0.00180259 -0.00168395 -0.00170296 -0.00185877 -0.00177688 -0.00175861 -0.00187261 -0.00234425 -0.00358211 -0.00547599 -0.00868555 -0.0126766 -0.0165898 -0.0199878 -0.0222125 -0.0228095 -0.0219018 -0.0199002 -0.0166312 -0.0128123 -0.00857834 -0.00558761 -0.00358943 -0.00241595 -0.00189458 -0.00169821 -0.00197385 -0.00170804 -0.0017828 -0.00163874 
-0.00231151 -0.00192773 -0.00179486 -0.00185541 -0.00244392 -0.00220318 -0.00259605 -0.00303354 -0.00492924 -0.00826807 -0.0132573 -0.0192297 -0.0256739 -0.0310528 -0.0342949 -0.0356521 -0.0343866 -0.0307505 -0.0255091 -0.0191603 -0.0131924 -0.00840272 -0.0047649 -0.00321226 -0.00239644 -0.00229233 -0.00251376 -0.00213065 -0.0020795 -0.0021027 -0.0013553 -0.000903006 0.00208553 0.00840673 0.0203661 0.0385432 0.0608277 0.0840184 0.103857 0.116877 0.121393 0.11678 0.103664 0.0840454 0.0609763 0.0385539 0.0204047 0.00855819 0.00206726 -0.000730208 -0.00170425 -0.00197529 -0.00191556 -0.00211886 -0.00215233 -0.00228068 -0.00252088 -0.00318441 -0.00512037 -0.00837997 -0.0134753 -0.0200187 -0.0266163 -0.0319255 -0.0360585 -0.0373589 -0.0358522 -0.0322009 -0.0264768 -0.0199822 -0.0133734 -0.00846841 -0.00490175 -0.00314045 -0.00243447 -0.00218984 -0.00204341 -0.00218101 -0.00193596 -0.0019172 -0.00227224 -0.00233848 -0.00261719 -0.00322278 -0.00484727 -0.00698002 -0.0101749 -0.0128789 -0.0152799 -0.0169542 -0.0173489 -0.0172557 -0.0154383 -0.012782 -0.0100013 -0.00713807 -0.0050351 -0.00342 -0.0027441 -0.00234567 -0.00256992 -0.00216578 -0.00224809 -0.00221037 -0.00226292 -0.00198184 -0.00205985 -0.00246109 -0.00266368 -0.00342589 -0.00433216 -0.00577693 -0.00741466 -0.00823632 -0.00905321 -0.00925824 -0.00923013 -0.00821179 -0.00725158 -0.00580044 -0.00448635 -0.00342203 -0.00267214 -0.00241497 -0.00203712 -0.00212969 -0.00194922 -0.00220181 -0.00172409 -0.00191889 -0.00209097 -0.00211725 -0.0016609 -0.00169803 -0.00167793 -0.0010858 -0.000223682 0.000415509 0.000901734 0.00078567 0.00132965 0.00101523 0.000741569 9.65588e-05 -0.000213871 -0.00117411 -0.00169143 -0.00163759 -0.00194313 -0.0021609 -0.00220417 -0.00205611 -0.00206563 -0.00227673 -0.00216785 -0.00211316 -0.00224536 -0.00276218 -0.00409866 -0.00615613 -0.00967285 -0.0139937 -0.0182334 -0.0219262 -0.0243372 -0.0249997 -0.0240026 -0.0218332 -0.0182769 -0.0141332 -0.00950279 -0.00630376 -0.00411221 -0.00284802 -0.00226247 -0.00209191 -0.00238916 -0.00206746 -0.00216584 -0.0019913 
0.000549333 0.000917862 0.00101524 0.000975627 0.000419522 0.000676455 0.000254821 -0.000213698 -0.00216172 -0.0055169 -0.0105512 -0.016676 -0.0231943 -0.0286423 -0.0319833 -0.033349 -0.0320636 -0.0283732 -0.0230556 -0.016562 -0.010512 -0.00562511 -0.00194502 -0.000342097 0.000446508 0.000561145 0.000392068 0.000739935 0.00080661 0.000783232 0.00146253 0.00181822 0.00451809 0.0101868 0.0209252 0.0372242 0.057208 0.0779712 0.0957922 0.107487 0.111524 0.107399 0.0956243 0.0780533 0.0573363 0.0372074 0.0209411 0.0103327 0.00447818 0.00198078 0.0011258 0.000853513 0.000871485 0.00077137 0.000699223 0.000546292 0.00033662 -0.00035119 -0.00237 -0.00572707 -0.0110139 -0.0177596 -0.0246227 -0.0300856 -0.0343196 -0.0356947 -0.0341276 -0.0303572 -0.0244158 -0.0177493 -0.0109286 -0.00582039 -0.00210325 -0.000342616 0.000401254 0.000695245 0.000800245 0.000667103 0.000912136 0.000924772 0.000559457 0.000484836 0.000129804 -0.00068111 -0.00264688 -0.00533711 -0.00914534 -0.0125745 -0.0155936 -0.017615 -0.0181749 -0.0179375 -0.015711 -0.0124977 -0.00900183 -0.00549483 -0.00286548 -0.000853617 -2.47667e-05 0.000513648 0.000310981 0.000729183 0.000629467 0.000659192 0.000578037 0.000882281 0.000771417 0.000390679 0.000107173 -0.000725078 -0.00175028 -0.00333421 -0.00503686 -0.00606447 -0.00694577 -0.00718846 -0.00711155 -0.00597929 -0.00492045 -0.00337543 -0.00187889 -0.00067905 7.7371e-05 0.000414636 0.000767144 0.000679581 0.000858247 0.000663014 0.00112563 0.000908462 0.000751268 0.000751482 0.00111553 0.00101529 0.00090443 0.00125767 0.00181812 0.00217912 0.00245974 0.00219985 0.00265449 0.00235084 0.00230546 0.00190628 0.00183934 0.00119357 0.000880484 0.00109223 0.000857629 0.000708262 0.000693108 0.00078544 0.000781778 0.000573565 0.000680731 0.000742653 0.00064704 0.000207815 -0.000953701 -0.00268489 -0.00570343 -0.00935529 -0.0129542 -0.016099 -0.018115 -0.0186856 -0.0178477 -0.0160011 -0.0130279 -0.00947966 -0.00550545 -0.00279361 -0.000945917 0.000147343 0.00064135 0.000796774 0.00053184 0.000802267 0.000696848 0.000836689 
-0.00174525 -0.00139147 -0.00127777 -0.0013305 -0.00187241 -0.00165822 -0.00200806 -0.00239638 -0.00412294 -0.0071605 -0.0116866 -0.0171098 -0.0229595 -0.0278454 -0.0307856 -0.0320155 -0.0308744 -0.027568 -0.0228086 -0.0170459 -0.0116205 -0.00728447 -0.00396783 -0.00257009 -0.00181626 -0.00172415 -0.00193729 -0.00158828 -0.00154137 -0.00155005 -0.000866686 -0.000455384 0.00228898 0.00807933 0.0190405 0.0357144 0.0561434 0.0774025 0.0956018 0.107535 0.111678 0.107453 0.0954243 0.0774302 0.0562739 0.0357222 0.0190809 0.00822209 0.00226864 -0.000295173 -0.00118847 -0.00143994 -0.00138792 -0.00157361 -0.00160001 -0.00170999 -0.00191281 -0.00247862 -0.0041481 -0.00693022 -0.0113031 -0.0169212 -0.0225689 -0.0271025 -0.0306681 -0.0317982 -0.0304917 -0.0273581 -0.0224454 -0.0168776 -0.0112053 -0.00701742 -0.00394121 -0.00243668 -0.00183535 -0.00162878 -0.00149498 -0.00162833 -0.00140541 -0.00138492 -0.00171924 -0.00177851 -0.00206671 -0.00265558 -0.00422763 -0.0063072 -0.00937967 -0.0120214 -0.0143498 -0.0159756 -0.0163482 -0.0162336 -0.0144919 -0.0119258 -0.009221 -0.00643793 -0.00439268 -0.00283963 -0.00216711 -0.00179162 -0.00198481 -0.00162003 -0.00168928 -0.0016547 -0.00170429 -0.00145393 -0.00153696 -0.00194352 -0.00221566 -0.00308629 -0.00417025 -0.00582211 -0.00764894 -0.00867917 -0.00961477 -0.00986977 -0.00977213 -0.00867151 -0.00750264 -0.00583922 -0.00432604 -0.00308719 -0.00222863 -0.00190156 -0.00151715 -0.00158403 -0.00141339 -0.00164929 -0.00121462 -0.00139475 -0.00155675 -0.00159887 -0.00123298 -0.00138603 -0.001593 -0.00139699 -0.00104039 -0.00088412 -0.000821168 -0.00117915 -0.000757681 -0.000963761 -0.000963283 -0.00118384 -0.00102988 -0.00147539 -0.00160632 -0.00133616 -0.00149302 -0.00163545 -0.00166363 -0.00151382 -0.00152736 -0.00171124 -0.00161934 -0.00156396 -0.00168448 -0.00215076 -0.00335292 -0.00521254 -0.00838663 -0.0122986 -0.016115 -0.0194469 -0.0216224 -0.0222231 -0.0213201 -0.0193696 -0.0161436 -0.0124118 -0.00823225 -0.00534867 -0.00336403 -0.00223167 -0.00170055 -0.00155213 -0.00181918 -0.00152243 -0.00161206 -0.00145141 
-0.000889559 -0.000587114 -0.000518292 -0.000552613 -0.000992501 -0.000833036 -0.00110486 -0.00139397 -0.00272544 -0.0050652 -0.00856223 -0.0127434 -0.0172555 -0.0210251 -0.0233153 -0.0242289 -0.0233839 -0.0208189 -0.017129 -0.0126965 -0.00850254 -0.00518087 -0.00259957 -0.00150849 -0.000954819 -0.000872625 -0.00104909 -0.000761263 -0.000742639 -0.000741495 -0.000207854 0.000123302 0.00228121 0.00685865 0.0155055 0.0286839 0.0448266 0.0615998 0.0759739 0.0853912 0.0886645 0.0853159 0.0758316 0.0616414 0.0449188 0.0287002 0.0155598 0.00697986 0.00230921 0.000250472 -0.000449872 -0.000663591 -0.000606018 -0.000752563 -0.000784558 -0.000879754 -0.00103313 -0.00146277 -0.00276121 -0.0049057 -0.00833525 -0.0126879 -0.017058 -0.0206117 -0.0233533 -0.02426 -0.0232223 -0.0207825 -0.0169751 -0.0126383 -0.00823136 -0.0049744 -0.00260712 -0.00142188 -0.0009845 -0.000809631 -0.000700938 -0.000810111 -0.000642303 -0.000614297 -0.000847802 -0.000932088 -0.00119263 -0.0017464 -0.00313268 -0.00505225 -0.00777931 -0.0101449 -0.0122712 -0.0137098 -0.0140775 -0.0139184 -0.0123631 -0.0100721 -0.0076315 -0.00511143 -0.00328417 -0.00191849 -0.00128784 -0.000962867 -0.00108218 -0.000765989 -0.000833992 -0.000823517 -0.000860997 -0.000666453 -0.000738613 -0.00114155 -0.00141059 -0.00230608 -0.00343576 -0.00511104 -0.0069334 -0.00803637 -0.00897223 -0.00924192 -0.00911029 -0.00801725 -0.00679911 -0.00512505 -0.00359029 -0.0022986 -0.00141998 -0.00107169 -0.000734979 -0.000761044 -0.000629916 -0.000817126 -0.000481936 -0.000631333 -0.000740993 -0.000787531 -0.000504195 -0.000603504 -0.000755757 -0.000561989 -0.000262359 -0.000117745 -3.7335e-05 -0.000326588 2.48022e-05 -0.00014595 -0.000151972 -0.000348949 -0.000258927 -0.000636074 -0.000765809 -0.000584154 -0.000691944 -0.000834623 -0.00082716 -0.000708748 -0.000734493 -0.000838789 -0.000787075 -0.00077142 -0.000860342 -0.00123462 -0.00220331 -0.00370903 -0.0062409 -0.00941814 -0.0124988 -0.0151815 -0.0169424 -0.0174164 -0.0166947 -0.0151222 -0.012513 -0.00950502 -0.00616365 -0.00379704 -0.00220848 -0.00129395 -0.000879383 -0.000727494 -0.000943969 -0.000730217 -0.000786532 -0.000671751 
-0.000680799 -0.000415735 -0.00033901 -0.000381052 -0.000786408 -0.000639318 -0.000898627 -0.00121231 -0.00257773 -0.00498452 -0.00855526 -0.0128615 -0.0174799 -0.0213444 -0.0236785 -0.0246509 -0.0237537 -0.0211414 -0.0173643 -0.0128097 -0.00849632 -0.00507319 -0.00245539 -0.00135548 -0.000747469 -0.000664069 -0.000834011 -0.000576246 -0.000542845 -0.000533391 -2.42899e-05 0.000275777 0.00233602 0.00664909 0.0148262 0.0272818 0.0425251 0.0583893 0.0719894 0.0808902 0.083982 0.0808363 0.0718557 0.0584157 0.0426189 0.0272829 0.0148591 0.00675884 0.00230964 0.000400086 -0.000266663 -0.00045882 -0.000423735 -0.0005597 -0.00057212 -0.000647238 -0.000768 -0.00112371 -0.00219983 -0.00395372 -0.00673929 -0.0103308 -0.0139164 -0.01677 -0.0190779 -0.0198185 -0.0189631 -0.0169622 -0.0138298 -0.010284 -0.00666126 -0.0040254 -0.00203918 -0.00108943 -0.000712352 -0.000586319 -0.000489043 -0.000598049 -0.000433637 -0.000414733 -0.000675595 -0.000721065 -0.000980653 -0.00145972 -0.00274276 -0.0044626 -0.00694524 -0.00913705 -0.0110415 -0.0123728 -0.012666 -0.0125438 -0.0111419 -0.00905086 -0.0068279 -0.00453944 -0.00285761 -0.00160163 -0.00102765 -0.000736499 -0.000865668 -0.000601268 -0.00064604 -0.00061845 -0.000659483 -0.000481784 -0.000562563 -0.000924984 -0.00126336 -0.002179 -0.00338061 -0.00512019 -0.00699263 -0.00818983 -0.00917405 -0.00947152 -0.00928717 -0.00820565 -0.00688459 -0.00512806 -0.00351336 -0.00218376 -0.00127985 -0.00089515 -0.000547665 -0.00056956 -0.000436635 -0.000616593 -0.000294932 -0.000435342 -0.000556232 -0.000603493 -0.000381892 -0.000607499 -0.000969945 -0.0011504 -0.00129011 -0.00157423 -0.00188803 -0.00239298 -0.00214827 -0.00222757 -0.00199053 -0.0018077 -0.00128123 -0.00120449 -0.000980593 -0.000573481 -0.000574731 -0.000626521 -0.000640626 -0.000513247 -0.00053153 -0.000658288 -0.000595862 -0.000543352 -0.000639025 -0.000974432 -0.00183905 -0.00320158 -0.00550691 -0.00836538 -0.0111206 -0.0135385 -0.0151186 -0.0155617 -0.0148992 -0.0134936 -0.0111312 -0.00842949 -0.00538826 -0.0032989 -0.00184798 -0.00103853 -0.000648267 -0.000553862 -0.000744794 -0.000519109 -0.000582225 -0.000467307 
