0.000975795 -0.00319934 -0.0139747 -0.0126243 -0.0134232 -0.00723218 0.0168887 -0.00821027 -0.0380052 0.00335284 0.0488975 -0.011839 0.0309278 0.00953415 0.106147 0.0032111 -0.745502 0.00583762 -0.00369703 0.0079228 -0.00722235 0.0242359 -0.00587911 0.0010465 -0.00442116 -0.00109943 -0.00929848 -0.0142019 -4.21976e-06 0.0102578 0.00836734 -0.0220025 -0.0182046 -0.0148026 -0.00461235 -0.0565093 -0.0917763 -0.00476138 0.00124517 -0.0254967 -0.0903762 -0.00348111 -0.107003 -0.0092666 0.0141269 -0.0294909 0.0461009 -0.00164055 0.0031514 0.0035035 0.00464735 -0.00765872 -0.00333566 0.0101432 -0.00281503 0.00730112 -0.00148966 -0.00660089 -0.004877 0.0371843 0.0184304 0.186666 -0.00949852 -0.0227398 0.119272 -0.020891 -0.0220901 0.0409859 -0.00688596 -0.0669834 -0.0410248 0.0253789 -0.00522889 -0.0121672 0.00863373 -0.00170575 -0.0117584 -0.0130981 -0.00644105 -0.00337681 -0.0108379 -0.0543423 -0.00356544 -0.00686616 -0.000455324 -0.0100715 0.0259122 -0.000614405 -0.092826 -0.00741724 -0.0152388 0.0182033 -0.0167034 -0.0237705 -0.00386555 0.0601746 0.0054299 0.00281929 -0.00114874 -0.000118066 -0.00843955 -0.00287986 -0.0121282 0.0087846 0.00776069 -0.0101776 -0.00885858 -0.00852563 -0.00148382 0.00164608 -0.0417538 -0.0387432 -0.0171427 -0.0114935 -0.0743094 -0.00946093 -0.0169577 -0.0346889 -0.104146 0.0101197 -0.0395995 0.00607715 -0.0221562 0.0118261 -0.00267474 -0.00438636 0.00188897 -0.0184961 -0.00296725 -0.000183958 -0.00507341 -0.00538307 -0.00218297 -0.0126868 -0.0145273 -0.00808238 -0.000100166 -0.0316069 -0.0269608 -0.0709474 -0.00607893 0.00860542 0.0345744 0.193419 0.0450417 -0.0113793 -0.0260423 -0.0549853 9.80686e-05 -0.00289562 -0.00388908 -0.00160415 -0.00225132 -0.00481422 0.00225201 -0.00206127 -0.0151531 0.00229204 0.0094101 -0.0188605 -0.0291896 -0.0556804 -0.0838045 0.00580918 -0.3692 -0.0286847 0.00927507 0.0179061 -0.000304278 -0.636928 -0.0396024 -0.0243445 0.00495632 -0.0153389 -0.0113915 0.0011526 -0.0257664 -0.00664828 -0.0128819 -0.00125208 
-0.0229353 -0.0334515 -0.0157907 -0.011529 -0.0128175 -0.00812901 0.00921339 -0.00779365 -0.0123618 -0.00587402 0.0417884 0.0546305 0.0350847 0.00960503 0.105189 0.115196 -0.835533 0.0695661 -0.0404898 0.0373037 -0.0450963 0.0232689 0.00870912 0.00101931 -0.00752099 -0.0071376 -0.0115786 -0.0142948 -0.000351436 0.0122125 0.0361602 -0.0234006 -0.00692766 -0.0154825 -0.00312807 -0.0514488 0.0490447 -0.00256123 0.00350032 0.0278487 -0.0184694 -0.0188655 -0.118378 -0.0263338 -0.00835966 -0.049035 -0.00225269 -0.000535699 -0.00443035 0.00353968 0.0033035 -0.0065041 -0.00317078 0.0101243 -0.00197358 0.006442 -0.00222272 -0.00509671 -0.00482579 0.03966 0.00471388 0.00188066 -0.0134616 -0.0226753 -0.0177903 0.000531143 -0.0256595 0.106986 -0.0051836 -0.066335 -0.0415057 0.0172577 -0.0046818 -0.0100842 0.00250257 -0.00741789 -0.0279795 -0.0130044 -0.00809233 -0.0013306 -0.0114132 -0.00914897 -0.00604556 -0.0079335 -0.000599696 -0.00179241 0.0344828 0.0173108 -0.0726867 -0.0382901 -0.0349686 0.106942 -0.0266697 -0.0888122 -0.00629088 0.146595 0.0122383 0.00172377 0.00065378 0.00078505 -0.00780336 -0.00688539 -0.0108324 0.00891697 0.00729656 -0.00877501 -0.00866402 -0.00999717 -0.00118828 -0.00338484 -0.0436214 -0.0143411 -0.018224 0.0153042 0.0178223 0.0223939 0.00830255 -0.00127537 -0.615702 -0.0215983 -0.108747 0.005931 -0.0134802 0.0123674 -0.00633904 -0.0042065 -0.00144192 -0.00458018 -0.00361159 0.000944096 -0.00498864 -0.0173353 -0.0091514 -0.0150253 -0.0151956 -0.0100122 -0.000700709 -0.00826169 -0.0156566 -0.0183148 -0.0349799 -0.22951 0.00273763 -0.0174499 -0.136584 -0.0263835 -0.0245574 -0.0586845 9.38453e-05 0.00685645 -0.00417267 -0.00816299 -0.00467602 -0.000406891 0.00579077 -0.00121942 -0.000256794 0.00382408 0.00984808 -0.0122142 0.00200309 -0.0595451 -0.0177028 0.00817284 -0.348211 -0.0716055 0.00963976 -0.0522599 -0.178346 -0.646234 -0.0543032 -0.0195111 0.000664593 -0.0153607 -0.0121908 0.00460648 -0.010802 -0.00715483 -0.0133863 -0.00214446 
-0.00582293 -0.0179406 -0.0126551 -0.0114134 -0.00565969 -0.00789135 0.00896807 -0.00057535 -0.0396887 -0.0036309 0.0110338 -0.0105384 0.0467924 0.0500954 -0.00977303 0.0342617 -0.792532 0.075257 0.0845112 0.0847552 -0.0218199 0.0117737 0.00177534 0.00596032 -0.0041586 -0.00614636 -0.00890011 -0.00369214 -0.000551896 0.0105722 0.0140017 -0.0212375 -0.00600942 -0.0142867 0.0222629 -0.0539648 -0.0624306 -0.0152349 -0.00248017 0.0224976 0.00374189 -0.00457838 -0.105404 -0.0338386 0.00952569 -0.0232108 0.0490427 0.00114818 0.0145081 0.00366242 0.00410535 -0.00460151 -0.0190827 0.00394545 0.00386577 0.00706721 -0.00258749 -0.00165607 -0.000405103 0.0381776 0.00254482 0.154322 0.00719407 -0.051731 0.104255 0.0118993 -0.0325261 0.0559152 -0.0161511 -0.195341 -0.0428453 0.028816 -0.00459831 -0.0104489 0.0101918 -0.00550602 -0.0131501 -0.0228857 -0.00571287 -0.0010882 -0.00923455 -0.00980087 -0.0103766 -0.00747226 0.00399959 -0.0107424 0.0249182 0.0165206 -0.0390026 -0.0106569 -0.0380325 0.114037 -0.0150849 -0.0973088 -0.00824786 0.163484 0.00313896 -0.186878 0.0011303 -0.00025724 -0.00871125 -0.0026989 -0.0115202 0.00991357 0.00560944 0.00321845 -0.00369741 -0.00911848 -0.00073672 -0.00500599 -0.0410618 0.00868387 0.0046741 -0.0167935 -0.683886 -0.0269403 -0.0227654 0.0110712 -0.103136 -0.0225039 -0.113049 0.0297776 -0.0142863 0.0123574 -0.0128442 -0.005002 -0.054153 -0.0155723 -0.00419442 -0.000355329 -0.0111608 -0.0173422 -0.0219472 0.00027114 -0.048634 -0.0053336 0.000521346 -0.0298652 -0.0113375 -0.0644965 -0.0024585 -0.232708 0.00250369 0.0530435 0.00314365 -0.0259092 -0.0245776 0.00665358 5.30348e-05 0.00812067 -0.010878 -0.00166284 -0.00159803 0.00420723 0.00219925 -0.00346335 -0.0148553 0.00260174 -0.000588496 -0.00694293 -0.0293302 0.0182496 -0.0198831 -0.0134142 -3.35591 0.0896341 0.00619178 0.0258525 -0.177284 -0.577987 -0.0463915 -0.0157135 -0.349826 -0.0136833 -0.000347391 -0.0676363 -0.0118164 -0.00778548 -0.0134146 0.00808169 
-0.0078934 -0.0160917 -0.0174259 -0.0130891 -0.0150789 -0.00717866 0.00876572 -0.00442139 -0.0457292 0.0152006 0.0339627 0.0314781 0.00479778 0.0552211 0.0648688 0.126718 -0.80882 0.00908673 0.0274072 -0.000380814 0.0215571 -0.00325864 0.0163097 0.00949682 -0.00315067 -0.00732487 -0.0115294 -0.0140609 0.000986638 0.0150795 -0.151153 -0.0253119 -0.00990159 -0.00243067 0.0361507 -0.0216233 -0.0523522 -0.0214906 -0.0105336 0.0491514 -0.131955 -0.0045451 -0.0885079 -0.00376337 0.00450652 -0.0260904 0.055882 -0.00142526 0.0127097 0.00117728 0.00435187 -0.00331649 -0.0173148 0.00993516 -0.00180681 0.00676616 -0.00230595 -0.0148076 0.000234208 0.0307532 0.00394081 0.135397 -0.0117231 -0.047869 0.16212 0.0120388 -0.0346107 0.113404 -0.0159228 -0.192935 -0.0449969 0.0233354 -0.00550643 -0.00995524 0.012131 -0.00268698 -0.0112511 -0.0130153 -0.00454768 -0.00160539 -0.00987465 -0.00724772 -0.00398857 -0.00761972 0.00147366 -0.0148426 -0.0315237 -0.00376856 -0.0369161 -0.013339 -0.00264925 0.109585 -0.0126819 -0.109656 -0.0109827 -0.0128079 -0.0161863 0.00203299 0.00282032 0.000194304 -0.0106873 -0.00632039 -0.0114301 -0.000490479 -0.0494681 -0.00620658 -0.000551873 -0.0110617 0.00286394 -0.00334497 -0.038137 -0.00574956 0.00840482 -0.0594429 -0.00252766 -0.0266843 0.0126556 -0.0411196 -0.135891 -0.0252371 -0.107119 0.0307781 -0.0120162 0.0193662 -0.0076329 -0.00481614 0.000500661 -0.0208183 -0.00440306 -0.00107558 -0.0028988 -0.0176104 -0.00940246 -0.0163316 -0.0451197 -0.00644534 -0.00422822 -0.0310212 -0.0205022 -0.0974914 -0.018492 -0.207842 0.00329666 -0.0632864 0.0604725 -0.0352035 -0.0213224 0.00746546 -0.000960851 0.00942119 -0.00258141 0.00263718 -0.00104832 -0.143263 0.00290789 -0.00278039 -0.0114884 0.0010779 -0.476929 -0.00906728 -0.0257027 0.021871 -0.0438712 0.00327672 -0.372643 0.0812503 -0.0572376 -0.0759463 -0.0639238 -0.531269 -0.0465381 -0.0386178 0.0162865 -0.0131588 -0.0098942 0.0108595 -0.00976653 0.00742658 -0.0118225 -0.000978453 
-0.00841659 -0.0210554 -0.01685 -0.0111289 -0.00364825 -0.00542592 -0.0893517 0.00877318 -0.00881221 -0.0037412 0.0124334 0.078933 -0.046432 0.39398 -0.0178608 0.00344079 -0.687379 0.174019 -0.00902898 0.00596318 0.012839 0.0166152 0.00240654 0.0060659 -0.00848108 -0.00690633 -0.00626735 -0.0142096 0.00244125 -0.191502 0.0425489 -0.0236853 -0.0151059 -0.0128107 0.0227771 -0.0845367 0.0461367 -0.0260219 -0.019426 -0.0732263 -0.120874 -0.00366915 -0.109991 0.0289696 -0.000881719 -0.0205983 0.0356097 -0.00247405 0.0147453 0.00506934 0.000261866 -0.00496993 0.000285956 -0.0242566 -0.00408429 0.00491302 -0.00284707 -0.00528857 -0.0215482 0.0330078 0.00319198 0.210929 0.0100845 -0.0958023 0.492817 -0.0064792 -0.0214734 -2.49638 -0.00370761 -0.227721 -0.0041796 0.00512398 -0.00738456 -0.00916912 0.00185241 -0.0124923 -0.0114118 -0.0018828 -0.0059115 -0.00152186 -0.0108892 -0.00340822 -0.00859645 -0.109687 -0.00452768 -0.0119127 0.0469855 -0.0336608 -0.0559653 -0.00711999 -0.0169552 0.0862404 -0.0148277 -0.000619547 0.000330884 0.154909 0.00997881 0.00195833 0.00106397 0.000901186 -0.0357846 -0.00183969 -0.00962359 0.0106183 0.0138553 -0.0101136 -0.000932814 -0.00857326 0.000276101 0.000498808 -0.0304919 -0.0227991 0.0283849 -0.038244 -0.0693129 0.0162406 0.00494406 0.00306978 -0.150163 -0.0284864 -0.00666918 -0.390791 -0.0158967 0.0209229 -0.00320108 -0.00314634 -0.000562573 -0.0215017 -0.000213913 -0.00297427 -0.00204511 -0.0170872 -0.0106556 -0.0166527 -0.0473786 -0.00750933 0.00546706 -0.0456423 -0.0305439 -0.0975834 0.00759759 -0.221663 0.0162626 -0.097915 -0.210492 -0.0247986 -0.0215788 0.00855344 0.000341636 -0.00947393 0.00452114 0.00401411 0.000547202 0.00663076 0.00375336 -0.003875 -0.0139226 0.00335284 0.0125569 -0.00993115 -0.0219336 0.0297307 0.00324466 -0.0235477 -0.233824 -0.13863 -0.0370313 -0.0744758 -0.000354522 -0.475653 -0.058748 -0.0377736 -4.79408e-05 -0.0109894 -0.0101894 0.0105361 -0.0101903 0.00732397 -0.0116868 0.012005 
-0.00549784 -0.0176797 -0.00412617 -0.0085525 -0.0171032 -0.00744471 0.0197424 -0.00728581 -0.0185245 -0.00272497 0.0727916 0.0361878 -0.0372462 0.304999 0.081897 0.205167 -0.715534 0.0962092 -0.000899849 0.0499529 -0.00111652 0.0397925 0.0183188 -0.00405406 -0.000975897 -0.00578808 -0.00404472 -0.00280924 0.011278 6.58274e-05 0.0263592 -0.0223883 -0.00279338 -0.00231772 0.0676551 -0.0324728 0.065627 0.025368 -0.0224441 0.0280797 -0.106984 0.00513734 -0.099593 -0.0143765 -0.00785691 -0.0145919 0.0365163 -0.0032412 -0.0416666 -0.00180861 0.00469012 0.00165028 -0.0164824 0.00228635 -0.00302816 -0.00176784 -0.00399779 -0.00820711 -0.00414038 -0.0027144 -1.41624 0.0829846 0.00610391 -0.0895132 0.0787533 0.0216594 -0.0503201 0.0329077 0.0115287 -0.208115 -0.0475148 0.00575958 -0.00278252 -0.00954228 0.00545475 -0.000911142 -0.0140992 -0.0127468 -0.0495338 -0.00185671 -0.009284 -0.00612363 -0.00353736 -0.00634753 0.00239067 -0.0313564 0.0436388 -0.0342618 0.00168278 0.0349129 -0.0165976 0.0748466 -0.0128212 0.00404971 -0.0196587 0.112556 0.00710041 0.00237994 0.00481043 0.00434126 -0.00899105 -0.00185868 0.000814501 0.0119406 -0.00600383 -0.0106083 -0.00078298 -0.00163497 0.00285625 -0.00486441 -0.0206539 -0.00374073 -0.0432091 0.00478943 -0.0583481 -0.0264325 -0.0308522 -0.104376 -0.00334941 -0.03057 -0.00464418 0.033162 0.00639784 -0.0238919 -0.00688883 -0.00359315 -0.000351989 -0.0240643 -0.00343603 0.000460216 0.000757832 -0.0167872 -0.0050718 -0.0464751 -0.0429982 -0.00573962 -0.0177844 -0.026564 -0.0486566 -0.00425428 0.0125704 -0.172865 -0.0169148 -0.125908 0.102958 7.31376e-05 -0.0203548 0.00287415 -0.000707566 0.00497876 0.0021729 0.00661654 0.00213758 0.00190591 -0.00110126 -0.00185024 -0.0119576 0.00102818 0.0285122 -0.0149599 -0.0196212 -0.0585939 -0.051698 -0.0111622 -0.114178 -0.0976356 0.00876748 0.0159174 -0.0392562 -0.250981 -0.0417511 -0.0306632 0.0939857 0.00485018 -0.00392116 0.0077873 0.000142855 0.00437819 -0.0124876 -0.00179916 
0.00420893 0.00122608 -0.0311266 -0.0059012 -0.0302538 -0.00152749 0.0064225 -0.00591741 -0.0427325 0.0203352 0.00626672 0.0485276 0.0134006 -0.0562865 0.154225 0.199865 25.992 0.0924732 -0.0306082 0.14469 0.0429215 0.0223913 -0.23303 -0.00426037 0.00996412 -0.00147012 -0.0127261 -0.0131199 -0.000232852 0.0149144 0.0238989 -0.015546 -0.00252904 -0.0105898 0.0491255 0.01259 0.0708621 -0.00708331 0.00501561 0.0127958 -0.101684 0.0131591 -0.0647616 0.00220813 -0.0515594 -0.0145236 0.0335615 -0.00252008 0.00514052 0.00463471 0.00446995 -0.017522 -0.0417063 0.00151118 -0.0030505 0.0025294 -0.00789081 -0.00456234 0.00976509 -0.00698121 0.00254611 0.0737195 0.000629182 -0.0794837 0.061236 0.0057894 -0.0238222 0.168552 -0.0052184 0.0137349 -0.0402373 0.0120106 -0.00959421 -0.0106131 0.00258966 -0.00286878 -0.022051 -0.0385925 0.0030757 -0.00182446 -0.00918768 -0.00284923 -0.00625246 -0.00825466 0.00332869 -0.0315344 -0.0111905 -0.0365722 -0.0489096 -0.0147782 -0.0179453 -2.57593 0.0026364 -0.129788 -0.00602609 0.0897238 -0.0159723 0.00144868 0.00964453 0.000321979 -0.00805381 0.00412133 -0.00581579 -0.00247057 0.0198516 -0.0131262 0.00842069 -0.00151689 -0.000931245 -0.0703204 -0.0123419 -0.0163584 -0.0425841 0.00236896 -0.0107678 -0.184531 -0.026004 0.00160323 -0.0832122 0.00259758 -0.0803998 0.00238538 -0.00746196 0.0353581 -0.0110874 -0.0131293 0.00665217 -0.00414377 -0.00239942 -0.0036168 -0.00846351 -0.0121849 -0.00884494 -0.0213451 -0.0369859 0.00105241 -0.011799 -0.00409977 -0.0600012 -0.0393569 -0.00388546 -0.218736 -0.0270677 0.0970926 -0.0443211 0.00169613 -0.0152792 -0.275169 -0.000194094 -0.000796283 -0.0053462 -0.00219812 -0.00356468 0.00850925 0.0171394 -0.00515785 -0.0104691 0.00262774 0.0228381 -0.0142777 -0.0155175 -0.0474985 0.000358091 5.24298e-05 0.547729 -0.0397918 -0.0507741 0.012069 -0.0386006 -0.271794 -0.0360695 -0.0407812 0.0345012 0.00614784 0.00325245 0.0127538 -0.017482 -0.00615862 -0.00240691 0.0173685 
-0.003629 -0.00728583 -0.022157 -0.00907164 -0.0189223 -0.00633306 0.007273 -0.00220634 -0.016818 -0.00213457 0.0613394 0.0889835 0.108028 -0.059769 0.0754546 0.137004 -0.43535 0.12928 -0.0248014 0.0694462 0.00708045 -0.00188925 0.0197701 -0.0393128 0.0185237 -0.0105824 -0.0170151 -0.0101518 0.0096012 0.00403938 0.00618667 -0.00473159 -0.00622062 -0.0179648 -0.00951602 -0.0154578 0.000639971 -0.0411744 -0.00812646 -0.0033437 -0.00605996 0.00743105 -0.0552667 -0.0276883 -0.00942901 -0.0108913 0.0260135 -0.00717547 0.0109424 0.00371658 -0.000494863 0.00651129 0.0056542 0.0265801 -0.000719122 -0.0784292 -0.00594458 -0.00801503 0.0013481 0.0090473 0.0252071 0.101209 0.0491568 -0.018972 0.0503438 0.0198007 -0.024802 0.0136079 0.016403 -0.102067 -0.0379833 -0.0122513 -0.00999176 -0.00452958 0.00662762 0.0084618 -0.0122876 -0.0165391 -0.020181 -0.00136186 -0.0405228 0.00815513 -0.00238761 -0.00578125 -0.00291501 0.00301016 0.00800386 -0.0100912 -0.0923063 0.0585948 0.0309446 0.00354271 -0.00650779 0.0620191 -0.0324294 0.0709841 0.0128104 -0.00169346 0.00842263 -0.00424331 -0.00199322 0.00320745 0.000175551 0.00734436 -0.0134958 -0.0044736 -0.0144047 -0.00486972 0.011475 -0.00228836 0.000123392 -0.0126971 -0.0265388 -0.0278968 0.00925248 0.00138562 0.0054282 -0.0341228 -0.0806097 -0.0311825 -0.0453125 0.0251819 -0.0144439 0.0167211 -0.0446963 0.00494122 0.00432877 -0.0469612 0.0131704 -0.000100864 -0.0119122 -0.00191993 -0.00733348 -0.0181127 -0.00543232 -0.00233624 0.00462845 -0.0150232 -0.0134567 -0.00294116 -0.00428188 -1.26758 -0.0704528 -0.0186494 -0.821494 -0.0170405 -0.0188579 0.00535377 -0.000255489 0.00204642 0.00842358 0.00195943 -0.00145359 0.00101014 0.0181268 -0.00114604 -0.011326 -0.000990299 0.0148409 -0.0131491 -0.00267162 0.0505022 -0.0391384 0.215348 0.0570823 -0.0728653 -0.0115965 0.0570732 -0.0330981 -0.141731 -0.0377526 -0.0469253 0.0315956 -0.00682766 -0.00234303 0.00533062 -0.00263691 -0.00079675 -0.013516 0.0194623 
0.0153982 -0.214089 -0.128414 0.00124756 -0.0183759 -0.0123461 -0.01906 -0.0084155 3.12723 0.0344708 0.0306038 0.0880616 0.177804 -0.460526 0.000957378 0.118302 -0.0181995 0.125076 -0.0141247 0.0483925 -0.000106236 0.00523929 0.00480103 -0.00370798 -0.0134029 -0.0105074 0.0120187 -0.101783 -0.00109835 0.0085006 0.00591622 -0.0149885 -0.00358821 -0.00723066 -0.00166264 -0.0613506 0.0898899 -0.00396784 -0.00938879 -0.00285043 0.0228205 -0.0435924 0.0345375 -0.0141254 -0.0463002 0.013236 0.024073 0.00167611 0.0036267 0.0033157 0.00317299 -0.00403771 -0.0203133 0.00886739 -0.0029975 -0.00841096 -0.0141337 -0.00956284 -0.00119298 0.00680214 0.0710114 0.00173415 -0.00238967 0.0524722 -0.0310266 -0.0156394 -0.0617138 0.113535 0.0519467 -0.0704765 0.426072 -0.00304649 -0.0162915 -0.0026614 -0.0819667 -0.00419321 -0.0116429 0.000280962 -7.74591e-05 -0.00185074 -0.00147342 -0.00376253 -0.00181282 -0.00909938 -0.00963104 -0.00942122 -0.0422042 -0.00974513 0.00821104 0.241971 -0.0101243 0.0405776 -0.0159102 0.00167023 -0.00596638 0.0341198 -0.0105679 0.00178754 0.00805906 0.00680915 -0.00490671 -0.0221344 0.00111437 0.000905207 -0.00148235 -0.0129308 -0.0018801 -0.0012833 0.00854376 0.00453757 0.0101394 -0.014799 0.0111735 -0.0627953 -0.0228474 -0.0187537 0.00124635 0.0402125 -0.0619477 -0.0257513 -0.0456801 0.0133516 -0.00517756 0.0253157 -0.00115298 -0.00473159 0.000734094 -0.0338211 -0.00207873 0.00182284 -0.01524 -0.0145785 -0.0058675 -0.0190395 -0.337894 -0.00358668 -0.163641 -0.000386291 -0.0295607 -0.0789738 -0.00270039 -0.0796453 -0.0337964 -0.0279908 0.0995215 -0.00497577 -0.0109317 0.00559191 0.000717274 0.00566107 -0.00630559 -0.0214948 -0.00108634 0.00595985 0.00024395 -0.0197094 -0.010549 -0.00153587 0.00211388 -0.0336166 -0.0104548 0.0115106 -0.0886314 -0.000589205 0.0563566 0.000413164 -0.0723822 -0.0322161 -0.00117859 -0.0959876 -0.0119557 -0.00299368 0.0256484 -0.00594738 0.00493222 0.0122503 -0.00698812 -0.00179653 -0.00256465 -0.00343978 
0.00278514 -0.0257872 -0.00963641 -0.0109257 -0.0498649 -0.0252589 -0.000208733 -0.0104496 -0.00534757 -0.117509 0.0178674 0.0221463 0.0300686 0.226585 0.000721664 0.00308679 -0.145116 0.0881569 0.00254668 8.24984e-05 0.00538031 0.00520422 0.00184745 -0.00604727 -0.0147563 0.000546301 0.00694098 -0.0102757 -0.00682709 -0.0462848 0.00926591 -0.0184443 -0.0103544 -0.00358517 -0.0035987 -0.019319 0.0638408 -0.0779264 0.00114178 -0.00787265 -0.0646544 -0.00410097 -0.0368973 -0.0236706 -0.00679269 -0.0202812 -0.003821 -0.0079292 0.00288816 -0.00119313 0.00429204 0.0144445 -0.00495787 0.00470059 0.00041505 -0.0116466 -0.00614484 -0.00992034 0.0253354 -0.00619634 0.000721585 -2.47705 0.00872143 -0.0174334 0.00224098 -0.0116607 -0.0403872 0.0823816 0.0904733 -0.0431736 -0.0206838 -0.0191891 -0.0182019 -0.092009 -0.00715507 -0.0787977 -0.236402 0.00244446 0.00597189 0.00299869 -0.0109176 -0.0344178 -0.00482408 0.0126683 -0.306903 -0.00828084 -0.030889 -0.0017408 -0.033796 0.0018352 -0.0491682 0.0205041 -0.0115933 -0.0135971 -0.00269946 0.0252754 0.0198668 -0.0326283 0.0193123 0.00726351 -0.00179233 0.00887776 -0.00883007 -0.00488055 0.018636 -0.015734 -0.00342014 -0.00421199 0.0112564 0.00197609 0.012944 -0.275219 -0.635441 -0.00341501 0.00244873 -0.0561839 -0.0224198 -0.264673 -0.0253043 -0.0260572 -0.0114862 0.0102115 -0.00553484 -0.00938023 -0.00419662 0.0107233 1.62113e-05 -0.0254982 -0.000569141 0.000482136 -0.00944034 -0.0153018 -0.00528943 -0.013705 0.0184785 0.0120653 -0.000557533 -0.00600329 0.00835045 -0.0428009 -0.0137336 -0.00514349 0.0116756 -0.064636 0.0886572 -0.0143513 -0.0290198 -0.00115973 -0.000353706 0.00503212 -0.125536 -0.00762485 -0.00089839 0.00211911 0.00045672 0.0157413 -0.0106259 0.00430936 -0.00238109 -0.0159234 -0.0173787 0.00881192 -0.0862188 -0.0144668 0.303707 -0.00338691 -0.155057 0.0186405 -0.0316659 -0.0656612 -0.617347 -0.0379637 0.0163155 0.00893604 -0.0111078 0.0131158 -0.00260582 0.0078597 -0.00846077 -0.0103843 
-0.00194535 -0.00799465 -0.0418667 -0.00469334 -0.0215056 -0.0217015 -0.00107212 -0.0120071 -0.00810598 0.0158812 0.01441 0.0312966 0.0230898 0.0483898 0.0281976 0.0487023 -0.121746 -0.00242666 0.0310455 -0.000253902 -0.00371568 -0.000405876 -0.00697031 -0.00772285 0.00069099 -0.00823379 -0.0173794 -0.000895022 -0.00511421 -0.00920707 0.0056108 -0.122721 -0.00714926 -0.00214166 -0.0137035 0.0967098 -0.00736428 -0.0107851 -0.0244002 -0.0133499 -0.0442791 -0.00996645 0.0764281 -0.0303628 0.000684816 -0.00736384 -0.00122921 -0.00478995 0.0040509 0.00597353 -0.0139545 -0.0012096 -0.0104042 0.000912373 0.00220727 -0.0035109 -0.00640615 -0.00918586 -0.000931913 0.00833326 -0.000735693 -0.0190328 0.0103789 -0.0169343 -0.1849 -0.0437599 -0.310662 -0.002793 -0.0157349 -0.0146281 0.0053613 -0.0219935 -0.0125012 0.00528245 -0.0167867 -0.0038246 -0.035358 0.000849321 -0.0334762 -0.00257151 1.66791 0.0171158 -0.00250754 -0.00635912 -0.0134118 -0.00611367 0.00328311 -0.00116303 -0.0677687 -0.00734849 -0.00444091 0.0142279 -0.0087816 -0.0468888 -0.0386778 0.0145444 0.000300266 -0.0104094 0.00822732 0.00880387 -0.00380191 0.00643506 0.0031914 -0.00111488 -3.89737e-06 0.00546937 -0.0140311 -0.00112194 0.0101857 0.00339011 0.015408 -0.0296654 -2.06258 -0.0139791 0.00269238 -0.0405205 0.178897 -0.289686 -0.00521082 -0.0235169 -0.011522 0.0215555 -0.0118271 -0.0364401 -0.00638456 -0.00426324 -0.00065301 -0.0188297 -0.000184765 0.000784068 -0.00370561 -0.0210182 -0.00547409 -0.0189153 0.00575448 -2.64239e-05 0.0113905 -0.00322414 -0.00108025 -0.0287357 0.0184793 0.00956711 0.0104181 -0.0341985 0.0608646 -0.0106558 0.000913129 0.000835611 0.00858427 0.0034191 -0.0100055 -0.00860089 0.0067153 0.00200865 0.000629197 -0.00265877 -0.0105798 0.0104088 0.0245727 -0.0121918 0.00417347 0.0712942 0.00388823 -0.0124863 -0.00660287 -0.00561088 -0.00585283 0.0329143 -0.00139252 -0.00673607 -0.00177399 -0.016537 0.00379125 -0.156458 -0.0140401 0.00529645 -0.0165017 -0.00201821 -0.00563255 -0.0193751 
-0.00393775 0.00408852 -0.020895 0.016262 -0.0522758 -0.00458203 -0.00234466 -0.0158418 -0.00597277 -0.00255761 0.00947693 0.000717676 0.0196783 0.212626 0.0207941 0.0230174 -0.0831738 0.00847841 0.043588 -0.00385028 0.000685303 0.0129176 -0.00128975 -0.00892318 -0.00320167 0.000756479 -0.0167812 -0.0116559 -0.00502137 -0.00168533 0.0136856 -0.022315 -0.0149002 -0.00578272 -0.0180011 -0.0149781 -0.0150954 -0.011037 0.00502764 0.00101967 -0.0477638 -0.00119118 -0.0161947 0.00283175 0.00608762 -0.00708292 -0.00117327 -0.00548235 0.00504106 0.00234704 0.00692661 0.000846291 0.00891256 0.00825439 0.000848325 0.00157161 -0.0694985 -0.0029401 0.030383 -0.0121002 0.00103052 -0.0246542 0.0878415 -0.0474005 -0.0711255 -0.000655164 -0.0733852 0.0619569 -2.55132 -0.0124963 -0.0106824 -0.00237781 -0.0203133 -0.0150443 -0.00270397 -0.450697 -0.0163127 -0.0163821 0.00225453 -0.00073086 -0.0101685 0.00103989 -0.00809113 0.0238887 -0.01227 -0.00711855 0.0702889 -0.0186682 0.00812932 -0.0059307 0.00310743 0.00757167 -0.00596181 -0.00194485 -0.0676718 -0.000760937 0.0692718 -0.0154615 -0.00554144 0.00765154 -0.00849622 0.0219618 0.0149129 -0.0050242 0.000747178 0.0056003 0.0135546 -0.00952299 0.0106283 0.00393589 0.000536366 -0.0580555 -0.027673 -0.00179059 0.0029716 -0.0416927 -0.0643397 -0.00580838 0.00123361 -0.0238953 0.0365749 0.00861701 1.58893 -0.0150797 -0.013751 -0.0122098 0.0100671 -0.140792 -0.00186861 -0.00128317 -0.00864453 -0.000399523 -0.011374 -0.220721 0.0195697 0.000432605 -0.00250872 -0.0014662 -0.00554823 -0.00196238 -0.00549629 0.0359084 2.76034 -0.069086 -0.00259459 0.00603561 -0.0035691 -0.00530175 -0.0018948 -0.0257003 0.000327261 -0.0440032 -0.064114 -0.00348463 0.0152619 -0.00331008 -0.0049574 -0.00578419 -0.019211 -0.00752292 -0.0196467 0.0057369 0.0039906 0.0222051 -0.0118801 0.07224 -0.0679644 -0.00260588 -0.0554688 0.123962 -0.010847 -0.483618 0.00678513 -0.0246413 -0.0331638 0.00457887 -0.018992 0.00282834 -0.0134764 -0.00273914 
0.00310859 -0.0125773 -0.0255178 -0.0100029 -0.00911063 -0.0151618 -0.00650064 -0.0095284 -0.000789268 -0.00043427 0.0157267 -0.00111953 -0.00236259 0.11796 0.0121948 0.0162838 -0.112848 0.0411089 0.00427293 -0.0047879 0.00156233 0.0057524 0.000758929 -0.466812 -0.00562458 0.00561183 -0.0162669 0.000184997 0.0213092 -0.000367329 0.00435367 -0.0276219 -0.00487948 -0.00435184 0.00382858 -0.0123432 -0.0279059 -0.0111828 -0.0995545 0.00457316 0.0733062 0.530269 -0.0371703 -0.0046271 -0.0124534 -0.0105483 -0.0135094 -0.01239 0.00232494 0.00485398 0.000890414 -0.00102119 0.00905811 -0.482684 -0.00463206 0.012742 -0.00381801 -0.010586 -0.0742427 0.00266987 0.00111962 0.0210108 0.710846 0.0313545 -0.195507 -0.0499241 -0.0266601 0.0160602 -0.0114236 -0.0291804 -0.00866138 -0.0226968 -0.0200789 -0.00588407 -0.0201464 -0.0113831 -0.0479426 -0.0166368 -0.00379452 0.00314123 0.00435792 -0.00275438 -0.0599035 -0.0063688 -0.00216157 -0.00196003 -0.0167486 -0.00685599 -0.0106335 -0.0410585 -0.00314327 0.00747139 0.0598481 0.0758327 -0.00374416 0.000675619 -0.0110722 0.00403741 0.000817483 0.00767356 -0.00659438 -0.00102944 0.00376447 -0.00930526 -0.000109208 0.0056677 -0.00566348 -0.000691094 0.0123637 0.00486252 0.006925 -0.0194858 -0.00967868 0.00974827 0.013094 -0.046735 -0.0102139 -0.290121 -0.00649846 -0.0206439 0.0666415 0.0190795 -0.00227293 0.00710465 -0.0001567 0.0142241 -0.501672 -0.0122191 0.00044829 -0.000669586 -0.0525029 -0.0318856 -0.00513929 -0.0142711 -0.0151801 0.00827156 0.0135455 0.0106556 -0.0021236 -0.00317167 -0.101856 -0.00195174 -0.302844 -0.0797224 -0.0229788 0.00694118 -0.527501 -0.00324833 0.00324406 0.00286215 0.00169065 -0.00828991 -0.00284793 -0.00364113 0.00565272 0.00966834 -0.00272114 0.00412675 -0.0327793 1.36788 -0.000399287 -0.00204081 0.00395801 -0.000613393 0.135897 -0.0638783 -0.00659132 0.0251392 -0.00083915 0.0695244 0.185267 -0.041151 0.00345057 -0.0106361 -0.033852 0.00556983 -0.0204605 -0.0710852 0.00496256 0.00496557 
0.00249181 -0.0423162 -0.00494271 0.00278085 -0.00913755 -0.14103 -0.0353751 -0.00503524 -0.00475333 -0.00599984 0.0150457 0.0101248 0.0266036 0.00468892 0.0150709 0.0109733 -0.146802 -0.00186582 0.0134349 -0.00128637 -0.00176959 0.00407113 0.00445189 -0.00516445 -0.0119007 -0.00281344 -0.0267116 -0.00882503 -0.00498712 -0.000665575 0.00167937 -0.131391 -0.0157836 -0.121569 -0.0011025 -0.0339933 -0.0144137 -0.00300622 -0.00932166 -0.0172616 -0.0236432 -0.0400964 -0.028326 -0.0156562 -0.0239677 0.00301057 0.00372118 -0.0125741 -0.000486877 0.00257449 0.00265207 -0.00293192 0.00227602 -0.000721101 0.0134409 0.00145664 -0.0247446 -0.00797243 0.031575 0.00271929 0.00629563 -0.0260011 0.00132408 0.0318502 -0.0196495 -0.052115 -0.0927337 -0.00590115 -0.0173872 -0.00731275 -0.0100338 -0.00986468 -0.660739 0.000753855 -0.00548145 -0.00386719 -0.00276186 -0.0354156 -0.0479516 0.0035575 0.00487383 -0.000573918 -0.00584633 -0.00484186 -0.0130153 -0.00769355 0.00466341 0.000971646 -0.0031583 0.380803 -3.97385e-05 0.000432758 -0.00200702 0.00148828 -0.0400467 0.00356379 -0.0105672 -0.0116151 0.00795447 0.00378198 -0.00171689 0.0056886 -0.150229 -0.00473841 0.0185048 -0.00239157 -0.00143648 -0.00845153 0.011568 0.00326359 0.0196308 -0.0197213 -0.00214942 -0.00349529 0.0481248 -0.00174167 -0.0161927 0.0339908 -0.00734818 -0.0206249 0.00364218 -0.0110288 -0.00605859 -0.00258201 -0.0138489 0.0144603 0.00175304 -0.0274892 -0.00183287 -0.000675228 -0.0101638 -0.00172312 -0.00579616 -0.136187 -0.00285352 0.00724484 -0.00174842 -0.0644964 0.114119 -0.0427828 -0.000106996 0.0525908 -0.0100985 -0.0607392 -0.0281581 -0.0188259 -0.00366761 -0.00287024 -0.00183719 -0.0270154 0.0285077 -0.0114062 -0.0115407 0.00071579 0.0148838 -0.00267455 -0.00621819 0.010864 0.00199975 -0.00468181 0.0159387 -0.00204172 0.00393866 0.0372261 0.210343 -0.0589265 0.00109295 0.00607249 0.00174755 0.119432 0.00742677 -0.0356308 -0.001665 -0.010524 -0.0342339 0.00952382 -0.0207352 0.0111835 -0.0121817 -0.0042048 
0.0178159 -0.0220863 -0.0374863 -0.00329554 -0.0478209 0.00199788 -0.00288429 0.0162585 -0.00492374 0.00552146 0.0222059 0.0252061 0.0589269 0.0579546 -0.00251689 0.0108042 -0.138216 0.0203946 0.0100525 -0.0111613 0.0766143 -0.00242192 -0.0087437 -0.473603 0.000499981 0.0056613 0.00886216 0.000465945 -0.00511856 -0.00129837 0.00107608 -0.00345283 -0.0117675 -0.00686854 -0.0214749 -0.00908123 -0.028581 -0.0113783 -0.00566276 -0.00719687 0.078244 -0.0160107 -0.017833 -0.00446207 0.00746112 -0.0113153 0.000488377 -0.00569363 0.0116075 -0.000284372 -0.000994244 0.0197182 -0.000576097 -0.00442451 -0.00450269 -0.00062676 -0.0255321 -0.00341451 0.00296093 -0.000899768 0.00331782 0.0146773 0.0121072 0.0117982 -0.0186305 0.0643944 -0.0260487 0.00859369 -0.0139699 0.056461 -0.00907957 -0.03754 -0.00411967 -0.0152024 -0.0142559 -0.00393309 -0.286934 0.00105046 -0.000573633 -0.00303835 -0.00188719 -0.00274634 -0.00303862 -0.00417463 -0.0155824 -0.00778189 -0.134709 -0.0160931 0.0441399 0.382567 -0.00247919 0.000337343 -0.00750446 0.164492 -0.0405156 -0.0598187 -0.0109113 -0.017425 0.0178447 -0.00234311 -0.00171758 -0.00388275 -0.00673567 -0.0040155 0.0182959 -0.00719916 -0.00290002 -0.129583 0.0144869 0.00391913 0.0355907 -0.0195313 0.0634705 -0.00685547 0.0843494 -0.0790887 0.00570406 -0.00179364 0.162802 -0.0204697 0.0031322 0.0189372 -0.00475067 -0.0137723 -0.0493125 -0.00558773 0.00109707 -0.0412174 -0.00131551 -0.009031 -0.00678597 -0.0144818 -0.00506049 -0.0148415 -0.00980907 0.00114465 0.00330805 -0.00562491 0.000428059 0.00261867 -0.00464924 0.117166 -0.121785 -0.0682294 -0.00325395 -0.00683884 -0.00932112 -0.00056696 -0.0019266 -0.0497883 0.0382797 -0.013888 -0.00283861 0.000386002 0.000752796 0.00365184 -0.0103832 0.0017937 -0.0102728 1.85301 0.00881698 0.0370157 -0.0179912 0.011819 0.127894 0.0804769 -0.0656245 -0.114287 -0.00083826 0.0641839 -0.000969944 -0.0398305 0.00198976 0.00427029 -0.0343113 0.00547186 -0.0214291 0.00260844 -0.0054968 0.00385798 
-0.000261151 -0.00904061 -0.00886105 -0.00357069 -0.0176863 -0.0115687 -0.00291909 -0.00414369 0.00094419 -0.00746057 0.0143291 -0.189651 0.0212671 0.00299421 0.007856 -0.0464812 -0.13671 -0.000461306 -0.00127224 0.0103311 -0.00336982 -0.00231158 0.00446987 0.0323577 -0.00994592 -0.593777 0.0103873 -0.0113837 -0.00381391 -0.0731541 0.00769737 -0.0130259 -0.0580106 -0.0103793 0.0436896 -0.032615 -0.0319486 0.138279 -0.027098 -0.0221057 -0.0418404 -0.000496504 -0.0180287 -0.00442831 -0.0268712 -0.0117532 -0.0148611 -0.00976571 -0.000548547 0.00481593 -0.000988253 -0.00300058 -0.00751415 -0.0015131 -0.00450661 -0.00827013 -0.00378149 0.0121936 -0.000889183 -0.0135579 -0.00142242 -0.0424776 0.0169573 0.0287258 -0.0198404 -0.0378998 -0.0749692 0.0115559 -0.0118754 0.205142 0.0060611 -0.0220161 -0.00717789 -0.0152197 -0.0151634 -0.00396412 -0.0379693 -0.0286448 0.00594374 -0.00067957 0.00486844 -0.00099173 -0.0058554 -0.00950698 -0.0144091 -0.00198529 -0.0129059 -0.0368029 -0.000825643 0.289723 -0.0362556 0.450329 -0.00573986 -0.0243015 0.000177797 -0.0610312 0.0225986 -0.0278227 0.00819502 -0.00156836 -0.00353251 -0.00101588 -0.00175879 -0.00224458 -0.00512669 0.00572962 -0.0137011 -0.000525564 0.011558 0.0049218 -0.113087 -0.086962 -0.0198332 -0.00696291 0.00456565 -0.00160897 0.00112701 -0.00103735 -0.00690118 -0.0228766 0.00531431 0.018766 -0.00674426 0.00520292 -0.0138166 -0.00785771 -0.109809 -0.0274562 -0.0018333 -0.00900061 -0.0108339 -0.00172208 -0.00504921 -0.0275641 0.0429244 -0.000194772 -0.00251039 -0.039145 -0.00441356 -0.00187765 0.0168122 0.0230893 -0.0212078 -0.54739 -0.0296664 -0.0129419 0.0146618 0.00290779 -0.00188639 0.00670525 0.0104525 -0.00416293 -0.00171125 0.000383111 0.0145967 -0.00593739 -0.104486 -0.0471381 -0.00406118 -0.0147166 -0.216856 0.0383858 -0.0828207 0.040223 0.127531 -0.0624866 -0.0022543 -0.106329 0.187018 0.0715524 0.00218178 -0.0349399 0.00211964 0.00425474 -0.0343677 0.0154585 -0.00415317 0.0445829 -0.00270422 -0.0229141 
0.00250332 0.00422881 -0.0361347 0.00895745 -0.0195513 -0.00752455 -0.035683 0.0129076 -0.00772399 -0.0104719 0.0156661 0.00718975 -0.000145989 0.280089 0.00218761 -0.0475585 -0.0055416 0.0193317 0.0626835 -0.0233122 -0.00150193 -0.0108279 0.0084955 -0.00122493 -0.0167388 0.0165527 -0.0211399 0.00045905 -0.00514065 -0.00283996 0.00562375 -0.0277325 -0.00182854 0.0178164 -0.0214088 -0.0186505 0.0249658 -0.0449735 -0.0273927 0.0737386 0.0780921 0.00234421 -0.0318031 0.185376 0.00209292 -0.00525407 -0.00141578 -0.00469137 -0.000410141 0.00287271 0.0021704 0.0121712 0.00235158 0.00806122 0.00135329 0.0160372 -0.0205758 -0.00796329 -0.583269 -0.000951178 0.02786 -0.100799 0.0908812 0.0731792 -0.201683 -0.000802858 0.993702 0.054247 0.00591121 -0.00624304 -0.00716978 -0.0231849 -0.127984 -0.0152163 -0.029787 -0.00301208 -0.0169879 -0.028702 -0.00384933 -0.00191298 -0.0107573 0.0128227 -0.000555238 -0.0177723 -0.180349 -0.00196245 0.0292289 -0.00582611 -0.00216066 -0.00145511 0.192084 0.003962 -0.00989794 -0.00143842 -0.0407903 -0.0121115 -0.0708045 0.00138874 0.0179446 0.00761629 -0.0100443 -0.00286688 -0.00678495 -0.00989337 -0.00207156 0.00989363 -0.422046 -0.00562656 0.00833874 0.0030151 0.0194443 -0.05507 0.00303282 -0.0589111 -0.100997 0.0431394 0.00180724 -0.242109 -0.0122611 0.203413 -0.00532105 -7.71139e-05 -0.00570499 0.00561442 -0.0726719 0.0144616 -0.00131988 -0.0412867 -0.00380603 0.00156438 -0.183832 -0.0171143 -0.00506067 -0.00184409 -0.00972504 -0.00101108 -0.0443359 -0.171589 -0.0640693 0.00222214 -0.0191824 0.0159081 -0.0114534 -0.0335285 -0.0298863 -0.011394 -0.00541129 -0.0039283 -0.00473968 0.00269979 -0.00602525 -0.00973351 -0.000789249 0.000404299 0.00463002 -0.0067238 -0.00990999 0.0116085 -0.0185943 -0.0360117 0.0100925 -0.0204583 0.000998221 0.0118813 0.202631 -0.062498 -0.168138 0.0219768 -0.00144572 0.149121 -0.709943 2.44547 -0.00168042 0.00780921 -0.149302 0.00878311 -0.00405541 0.00547948 -0.0134925 -0.0178669 
0.0058641 -0.0220877 -0.0210939 0.0176124 -0.0374527 -0.0143397 -0.00133096 -0.00014669 -0.045204 -0.00162475 0.000410672 0.0746237 0.0159321 0.209756 0.00219721 0.0125485 -0.0985735 -0.00306469 0.0212647 -0.00924925 -0.00150645 0.00573773 0.0086216 -0.00493967 -0.0106224 -0.00406487 2.40781 0.0129922 0.0443875 -0.00127722 0.0590683 -0.0210317 -0.0179578 -0.00460325 -0.00296863 -0.0188144 0.00978178 -0.0455745 0.0045546 -0.006641 -0.0102632 0.436762 -0.0259759 -0.263003 -0.01356 -0.00387302 -0.00501064 -0.00956347 2.26189 0.00240379 0.000931655 0.00228313 0.00557426 0.000127823 0.000502113 -0.0167766 -0.033645 -0.0102677 -0.0760404 -0.00149384 0.0227069 -0.0126305 0.0917504 -0.106191 0.0112992 0.00894324 -0.0930953 0.0756168 -0.017515 0.0717264 -0.0046641 -0.0810521 -0.02338 -0.00267443 -0.0079533 -0.0438489 -0.0228439 -0.0286994 -0.00362154 0.0161528 0.00490235 0.00557096 -0.00301237 -0.00637631 -0.0223438 0.00636892 0.00420066 0.132177 -0.00354885 0.287759 -1.28284e-05 0.0107211 -0.0104556 -0.0277991 -0.00412766 -0.000268994 -0.000599858 -0.0160003 0.00803447 0.0091961 -0.00858246 -0.00403405 -0.125695 -0.0012796 -0.00543582 0.00447022 -0.00949965 -0.00141307 0.0123824 0.00502591 0.00530424 -0.134825 -0.0243208 0.00162202 0.00360873 -0.00150596 0.00123784 0.000321218 -0.00645423 -0.0233361 0.00237924 0.000437203 -0.00332598 0.00589934 -0.0235219 -0.00557859 -0.00177077 -0.100078 0.0235574 -0.00380626 -0.0223657 -0.0129893 -0.00786099 -0.0190728 -0.0100117 0.000610619 -0.746637 -0.0401395 -0.0300914 -0.0338845 0.0171819 0.0163334 -0.0211972 -0.00772312 0.0930335 -0.0866172 -0.0119917 -0.709611 0.0240787 0.00669483 0.00179746 -0.0390946 -0.00284448 0.00180239 0.0146025 -0.00672393 -0.00449854 0.011771 -0.0349002 -0.0142112 0.00845194 0.00193631 -0.00804642 -0.229137 0.046889 -0.0648099 -0.00163323 0.0313462 0.00310322 0.0718541 0.0115219 -0.00281999 -0.0080347 -0.00478352 -0.149522 -0.00840681 -0.011523 0.0473093 -0.0121763 -0.0169744 
0.00247574 0.00414447 -0.0695734 -0.0768268 -0.021651 -0.00805191 -0.00822468 0.00367675 -0.00488921 -0.0062087 0.00917402 -0.00364766 0.0169979 0.146339 0.00317062 0.0129484 -0.00397321 -0.0364722 0.0108168 -0.011413 0.0304041 -0.00156909 0.00834109 0.0185712 -0.0106474 0.00644394 -0.0186358 0.0206691 0.0524586 -0.000439332 0.00559457 -0.132346 -0.00919689 -0.00211999 -0.0215501 -0.0799891 -0.38678 -0.0453882 -0.018007 0.00492078 0.150008 -0.0370175 0.0125288 0.0637882 -0.00459462 -0.013148 -0.00108094 -0.0046447 0.00207262 -0.0033854 0.00686905 0.0223044 -0.00744199 0.0215603 0.00243647 -0.00208466 -0.00382996 -0.18957 0.00299195 -0.621138 0.00112536 0.0184839 0.011818 0.0148033 1.37736 0.00658487 -0.0260538 -0.00140712 -0.0360007 0.36749 0.0226608 -0.0805135 -0.0203222 -0.00437946 -0.00907403 -0.000271446 -0.0132469 0.00268274 0.00594351 -0.000665561 0.0442701 0.0107876 -0.287865 -0.00517334 -0.0022251 -0.0117027 0.0031457 -0.0236118 0.0443256 -0.00466896 -0.000246406 -0.00172266 -0.0761937 -0.0564093 -0.00582868 -0.0619382 0.0253264 -0.0122805 0.0106662 -0.00161924 -0.00659221 -0.000671261 -0.00859474 -0.00131236 0.0180528 0.00470146 -0.00649728 0.0260827 0.00263674 0.00481775 0.0228068 -0.0877691 0.180832 -0.00244637 0.0846919 0.189142 -0.00960707 -0.00239886 -0.0128402 -0.0219199 0.00131101 0.0174771 -0.013744 0.00474871 -0.0182457 -0.0827597 -0.0056406 -0.0412795 -0.109204 -0.0103497 -0.0229241 -0.0327615 -0.0111117 -0.0146772 -0.0800582 0.0165396 -0.0433787 0.000248776 -0.00410834 -0.0506278 -0.106212 0.231506 0.459346 -0.0562415 -0.0175356 -0.0479427 -0.0217664 -0.00872718 0.00204577 0.0107004 0.000417015 -0.00986999 0.00677536 0.00111192 0.0144722 -0.0057732 -0.00459791 7.11039e-05 -0.0355844 -0.0115517 0.00988487 -0.00172268 -0.0820844 -0.00977897 0.204336 -0.267486 -0.0671299 -0.00123326 -0.0609461 0.0344139 0.00917667 -0.0346275 0.00142982 -0.0254045 -0.000773315 0.0053704 -0.0355254 -0.00233263 -0.00269761 -0.0162638 
2.18182e-05 -0.0513077 -0.00494528 -0.544416 -0.00467543 -0.00751815 0.0101242 -0.0245802 -0.00406549 -0.00683697 0.0185569 0.000817248 -0.00119019 0.143231 0.00896149 0.0126632 -0.00321139 -0.139357 0.0111513 -0.0215462 -0.00916462 0.00508412 -0.0011813 0.0107348 -0.0167196 -0.008406 -0.0274749 -0.00886544 -0.00517563 9.75127e-05 0.0297857 -0.0225389 -0.0124529 -0.0103952 -0.003131 -0.018903 -0.0181274 -0.002279 0.00276829 -0.0234684 -0.010327 -0.0163404 -0.0179871 -0.593554 0.013828 -0.00143949 -0.00542882 -0.0141251 -0.0053762 0.004837 0.00444306 -0.0009344 -0.0146119 -0.00148716 0.00241817 -0.0163511 -0.0198863 -0.00814026 0.0142684 0.00616911 0.00105166 0.0230414 0.00236942 -0.0315585 -0.00364027 0.00609539 -0.0929262 -0.00641332 0.0136377 0.000404558 -0.0942393 -0.00232593 -0.0216933 -0.00838375 -0.00276153 0.00511841 -0.0171467 -0.0286309 -0.00379858 -0.00293972 -0.0107996 -0.000531762 -0.0241531 -0.00658315 -0.0144234 -0.00793102 0.00319778 0.000466376 -0.00212115 -0.00411964 -0.0021051 -0.0050816 -0.0100762 -0.00137566 -0.0343534 -0.0907583 0.0223632 -0.0119799 0.0123081 -0.0106537 -0.00863467 -0.00404687 -0.000995494 -0.0021155 0.00603895 0.0057301 -0.00143962 0.03348 0.0173926 0.0154168 0.00226699 -0.0426723 0.00310344 -0.00513642 0.0848589 0.240114 -0.0655033 -0.00165027 -0.00410617 -0.0195961 -0.0458637 -7.48914e-05 -0.00437516 -0.00538042 -0.00108141 -0.0124517 -0.00545208 -0.006448 -0.00380221 0.00439739 -0.00676696 -0.0169902 -0.0057883 0.00995251 -0.0100385 0.0292822 0.00338775 -0.0654897 3.50095 -0.0420213 0.0165903 0.631408 -0.057859 -0.0471052 -0.0177459 0.00624749 -0.030644 -0.00808008 -0.0651955 0.002565 0.00488751 -0.0324976 0.000199985 0.0321083 0.0147323 -0.00582134 -0.00992153 0.00973439 -0.00429532 -0.127262 -0.020025 0.0385016 -0.0389317 0.0196528 0.00614911 0.00797415 -0.0393957 -0.000958082 0.00169887 0.145947 -0.00649344 -0.0145925 0.0170321 0.0098732 -0.0343038 0.0155195 -0.00841278 0.0113815 -0.00270498 -0.0159211 
-0.00186681 -0.00899557 -0.00493731 -0.00196873 -0.0176622 -0.0074812 -0.00135377 0.016037 -0.00491088 -0.254127 -0.0159752 0.606402 0.0150543 0.00299511 0.261547 0.00519113 0.00994443 -0.00155507 0.00931245 -0.0112083 0.000930875 -0.0312082 -0.00915755 -0.00488114 -0.015886 0.00207508 2.38849 -0.0105072 0.0217874 0.00896019 0.00106271 -0.0277492 -0.0130539 -0.00419105 0.0039558 -0.00915124 -0.0322006 -0.004568 0.0044376 -0.0287361 -0.0103866 -0.000666146 -0.0262775 -0.0315066 0.00896089 0.0107177 -0.00204977 -0.0126453 -0.000514728 0.00242131 0.000751663 0.00114529 0.00917248 0.0339764 0.00242415 0.00435371 -0.00373454 -0.00334809 0.00385247 -0.00115261 0.095584 -0.0049225 0.0012271 0.0275681 -0.00225079 -0.038776 -0.0751603 0.0126935 -0.0181743 -0.00483743 -0.0132973 -0.00275511 -0.00719262 -0.0151735 -0.00904349 -0.0134885 -0.0168988 -0.0167708 0.000284665 0.00551692 -0.00814729 0.0191047 -0.0240863 -0.015849 -0.0133242 0.00965654 0.0660952 -0.0268467 0.0171535 -0.00409452 0.238759 0.00702141 -0.00763222 0.128878 -0.0391754 -0.0240521 -0.00062512 -0.0173043 0.0131392 -0.00234799 -0.00657308 0.0131076 -0.00361658 -0.00691647 3.6459e-05 0.00692661 -0.00572825 0.00504791 0.0115175 0.043786 -0.0142427 -0.284922 -0.024027 1.24373 0.0388182 -0.063579 0.00553036 -0.00100581 -0.0698053 -0.0206054 -0.00502274 0.012066 -0.0128702 -0.0267873 -0.0137999 -0.00417022 0.0087438 -0.0296777 -0.00128479 -0.00377271 -0.0228928 -0.0407818 -0.00236866 -0.0214653 0.0148925 0.000731061 -0.00253528 -0.0651254 -0.102332 -0.00213257 0.00240997 0.124424 -0.0113754 -0.0339315 -0.0020537 -0.0081032 -0.009062 -0.0085644 0.00871783 0.0027599 -0.00304699 -0.00283251 -0.0117308 -0.00409006 0.0145826 0.00368033 -0.0117851 -0.00612901 -0.0224727 -0.0117282 -0.0115709 0.00700681 0.0367638 -0.711378 -0.000444227 -0.0624561 -0.00467359 -0.0779414 0.00249586 0.173268 0.00942792 -0.0619771 0.00728423 0.00782133 -0.0147089 0.00637407 0.00190662 -0.00210595 -0.0134731 -0.0179916 
0.021984 -0.0515186 -0.0120988 -0.00328342 -0.149842 -0.0123449 -0.00802602 -0.0246182 -0.00406772 -0.0103571 0.000304894 -0.00344123 0.0161981 -0.0100718 0.151512 -0.00929411 -0.239611 0.0374172 0.642226 -0.0224614 -0.00151608 -0.0211434 -0.00188415 -0.00492559 0.0234977 -0.0127211 -0.0187245 -0.0103451 -0.00491294 -0.00115126 0.00783186 -0.0398628 -0.016235 -0.00705979 -0.122513 -0.0185622 -0.0381685 0.402069 -0.00942494 -0.00470707 -0.0101728 -0.0180608 -0.0201804 -0.00418819 -0.0244424 -0.00521677 -0.00529799 -0.0095904 -0.00049483 -0.00157591 -0.0204118 0.00223443 0.00913186 0.0134154 -0.00449959 -0.00826581 -0.0334598 -0.129486 -0.00580022 0.00602609 0.00630744 -0.0105395 0.0442684 -0.0282556 -0.189154 -0.009765 -0.0926383 0.0753376 0.892867 -0.00818623 0.00643436 -0.0384392 -0.0233175 -0.00266939 -0.0181509 -0.00398536 -0.0165557 2.25765 0.000248892 0.0162006 -0.00171944 0.0192032 -0.000542713 0.000757857 -0.0131905 -0.00202601 0.0633291 0.00147676 0.0159737 -0.660309 -1.96012e-05 0.0183323 -0.00569893 -0.0263119 -0.0392516 0.00380642 -0.013976 0.00406628 0.00770111 -0.00375553 -0.00349629 -0.0010202 -0.00162659 -0.00491764 0.0183647 0.00736016 -0.00142711 -0.000515607 0.0109266 0.00278988 1.9851 -0.0196999 0.0899131 -0.00732329 0.256711 -0.0455444 -0.0101611 0.0813644 0.0615711 -0.0203238 0.0177381 0.00801865 -0.00567044 -0.0192961 -0.0551368 -0.00556875 -0.00560638 -0.0122503 0.000589904 0.00163201 -0.00671319 -0.0017284 -0.00445864 -0.00309331 0.0447896 0.0119214 -0.00371778 -0.106066 0.00511104 0.00424144 -0.0216642 0.118956 0.0091128 -0.00833296 -0.00251998 -0.889708 0.0038464 -0.00484257 0.00334869 0.00276128 0.000352456 -0.00406426 0.00213547 -0.00365037 0.0146243 -0.00798872 -0.0045358 6.82346e-05 -0.0221453 -0.0765916 0.00427855 -0.000281331 -0.0105454 0.0425813 -0.00560252 -0.272397 -0.0629447 -0.028617 0.0278859 -0.00231503 0.00989915 -0.0261625 0.00756454 -0.00478103 -0.0487427 0.0154575 -0.00401796 0.0484616 -0.0121604 -0.00898049 
0.00651712 0.00152628 -0.0210879 0.00899125 -0.0138283 -0.014306 -0.0352353 -0.0173884 -0.00775923 -0.00263342 0.0422302 0.00184141 0.0170156 0.277659 0.00232442 -0.0045173 -0.00334561 -0.00309528 0.0372801 -0.00512604 -0.00925687 0.0116223 -0.00949664 -0.00514914 0.000469315 -0.00835106 -0.0269182 -0.0017308 -0.00486039 0.0089329 0.0108527 -0.00343463 -0.0160329 -0.00701523 -0.00284325 -0.0783451 -0.0372067 -0.0209007 -0.0187857 -0.0322621 0.0785667 0.00246119 0.00500814 0.0726574 -0.0288356 -0.00531812 -0.0209716 -0.00301704 0.0116527 0.00251669 -0.000987677 -0.500951 -0.00970964 0.000717046 0.00250235 -0.0021338 -0.0199285 2.04441 0.0318836 -0.0056378 0.0232247 0.0127821 0.000865209 -0.031325 -0.00152036 -0.0101078 -0.0259237 0.474808 -0.0100135 -0.0234439 0.00601337 -0.0118797 -0.00719443 -0.0102515 -0.00524345 6.25136e-05 -0.0168927 -0.0965792 -0.00714752 0.00322356 -0.0107874 -0.00297007 -0.0379086 -0.00632683 -0.00195797 -0.0121824 0.00474389 -0.0144969 0.0142999 -0.446242 -0.178565 0.0051112 -0.010447 -0.00140088 -0.0141322 0.00214599 1.78513 -0.0375915 -0.00102098 0.00523568 -0.00658263 -0.000670614 -0.0067312 -0.00499397 0.00605318 -0.000343173 -0.00288522 -0.0314798 0.017709 0.00327626 0.0154497 -0.00921808 -0.00784869 -0.00529061 -0.00451254 -0.00156928 0.304588 0.0519669 0.0159351 -0.0258147 -0.00612684 0.00477007 -0.0965856 -0.0196229 -0.0510213 -0.00784742 -0.000594319 -0.041261 -0.017881 -0.00761292 -0.0861605 -0.018144 -0.00446618 -0.0189572 -0.00311044 -0.030872 -0.0444571 -0.0405166 -0.02988 -0.00189458 0.0168936 0.0347896 -5.69649e-05 -0.0424152 -0.00314069 -0.0114214 0.0947873 -0.00670466 0.00200039 -0.0475765 -0.00307498 -0.00404944 -0.104777 0.0312907 0.00567945 -0.00139199 -0.00991112 0.0114294 -0.01833 -0.00767755 0.0081296 0.0387782 -0.0811877 0.0418599 0.00681584 -0.113693 -0.00459996 0.0214177 0.00860613 0.164934 0.00977419 -0.0345013 0.0450016 -0.0229434 -0.000776109 0.00638317 -0.00394629 0.00518357 0.0126081 -0.123315 
0.00649555 0.00155178 2.21888 0.00277422 -0.0220426 -0.0143468 -0.00803305 -0.398045 -0.000657978 -0.00656754 -0.0011315 0.00951868 0.0218093 0.278304 0.0135594 -0.00258816 -0.0030772 -0.00176428 0.00318042 -0.0102747 0.0775884 -0.00724034 0.00444839 -0.000504631 0.000632585 -0.00280599 0.0191625 -0.0103202 -0.00122665 -0.00940093 0.00790448 -0.039799 -0.00697369 -0.00210635 -0.00318177 -0.0336758 0.0247093 0.00117685 -0.0191079 -0.0517085 0.000516648 -0.0168114 -0.0178788 -0.0146704 0.000920988 -0.0108892 -0.00117199 0.0113965 0.00229037 0.00495443 0.000916842 0.0181239 -0.0147229 0.000125839 -0.0046399 0.00212641 -0.0330236 -0.00523738 -0.00530819 0.00274109 0.00556074 -0.0140997 0.00207452 0.017206 -0.0151471 0.0660334 -0.093061 -0.00613219 -0.0177258 0.866009 -0.0097208 -0.00269378 -0.0180077 -0.0890432 -0.0102576 -0.00302164 -0.0127909 -0.0218516 -0.0180721 0.0185276 -0.00230999 0.00137685 -0.0233366 -0.00981031 -0.365167 -0.0119832 0.00410894 -0.00531872 -0.00410215 -0.00137066 -0.0369675 0.00532795 0.0611743 -0.0389246 -0.00656504 0.00458219 -0.0126621 -0.0157116 0.00809478 0.00778407 -0.00888338 0.00568939 -0.000427154 -0.00190969 0.00614548 -0.000425717 -0.0137112 -0.00563989 0.0176482 0.0153781 -0.112249 -0.0443103 -0.0247267 -0.00739526 0.0142734 -0.0595746 0.00568008 -0.00225197 0.0143124 -0.00340773 -0.00863151 0.000455431 -0.00616083 -0.00192966 -0.013914 -0.0254124 0.00429852 -0.0446771 -0.000183384 0.00433494 -0.0225522 -0.00169972 -0.0024048 -0.01904 -0.0119374 0.0012532 0.0129535 0.0117513 -0.0297059 0.00244758 -0.0217219 0.00966684 -0.068548 -0.042033 0.0927043 -0.0173057 -0.0311795 -0.00417878 -0.0047385 0.0106529 0.00039995 -0.0388871 0.000177811 -0.000271621 0.00534945 -0.00595144 -0.0209909 -0.00211865 -0.0149941 -0.00772676 0.0169594 0.00658224 0.000909601 -0.00063142 -0.00249819 0.0151601 -0.00488294 0.0244334 -0.0571526 0.143761 -0.000597205 -0.0349359 0.00208771 -0.00476799 -0.0057154 0.00686316 -0.00388082 0.00647428 -0.0120335 -0.0117517 
-0.00185902 0.00422877 -0.00494022 -0.0094996 -0.0195591 -0.000931973 0.00196008 -0.024672 -0.00486047 -0.00567191 0.0186732 0.00774289 0.00820009 0.280927 -0.0021603 -0.0718693 -0.00803913 -0.00310319 0.00315255 -0.00122137 -0.00334485 0.00398019 -0.00182294 -0.00517162 -0.015852 -0.0127129 0.00891429 0.000416032 0.0203176 -0.00111311 0.00569511 -0.0398477 -0.0160674 -0.00708941 -0.0207734 -0.0197678 -0.10421 -0.0462493 -0.0155593 0.0813351 -0.0425589 -0.00127159 -0.0180176 -0.03204 0.000919057 -0.0136279 -0.00549117 -0.0030307 0.00480062 -0.00158115 0.00695042 0.00224495 0.00917824 0.000134447 0.0331287 -0.0162814 -0.00376724 -0.0106712 -0.00530526 -0.0127868 0.002624 -0.00432002 0.00085473 0.0290629 -0.0199066 -0.0375298 -0.0751476 -0.00629095 -0.0175624 0.0123201 0.00416476 -0.0857345 -0.0233287 -0.0103634 -0.0296276 -0.00394729 -0.0237968 0.00105592 -0.00716042 0.00783787 -0.00462457 0.00548198 2.0102 0.000778923 -0.0206509 -0.00397048 0.00458881 0.00148719 -0.00364414 -0.0161077 0.00248376 0.00799634 -0.00208434 -0.0267534 -0.0401706 -0.0205261 -0.000608344 -0.0119399 0.0179157 0.00767474 -0.0164508 -0.00067697 -0.000984266 -0.00403847 -0.000141582 0.00430667 -0.00285916 -0.00845197 0.00263179 0.0483556 0.00117295 -0.283375 -0.00220121 -0.0100919 -0.0012837 0.187695 0.12393 -0.00190058 -0.013618 -0.0234803 0.00457429 0.000511043 -0.00872299 -0.00543604 -0.0138584 -0.00327585 -0.00176844 -0.0122937 0.000561635 0.0077763 -0.0381252 -0.0017133 -0.00506634 -0.0141993 0.0449283 -0.00688821 -0.00166432 3.22391 -0.0624771 0.00666504 -0.00484739 0.228789 -0.0576603 0.0792506 -0.0299533 -0.00910688 -0.0087699 -0.00831819 -0.00471184 0.00665442 -0.00308892 -0.00993991 -0.00290391 -0.00240851 0.0146635 -0.00268402 -0.00789178 0.0208706 -0.0220194 -0.0212389 -0.0203635 0.032089 0.00393033 0.0121205 0.278075 0.0153355 -0.168026 0.0261015 0.00397212 0.162536 -0.00101478 -0.0348819 0.00732907 -0.0200492 -0.0413913 0.00413884 -0.0150266 -0.00231683 -0.00548442 0.00939139 
-0.000141941 -0.00876739 -0.0195698 0.00895149 -0.0373365 -0.0156295 -0.00489389 -0.00964564 -0.00625227 -0.00588117 0.0457156 -0.0162667 0.00793649 0.278454 0.00226737 0.397082 -0.142241 -0.0148724 0.0109528 -0.00517352 -0.229122 -0.0016336 -0.0189246 -0.00977351 0.000402608 0.00813324 -0.0185375 -0.00880986 0.021756 -0.000674348 0.00550123 -0.582493 -0.00183829 -0.00694326 -0.0208919 1.69843 0.0244732 -0.011157 -0.00635459 0.00422027 -0.0103206 -0.0165968 -0.229419 -0.0319248 0.000997449 -0.00141624 -0.00578369 -0.0057398 0.00209777 0.00336155 0.00406863 0.0179625 -0.00958362 0.000298281 -0.00449848 0.0187936 -0.0205916 -0.00795729 0.00298002 -0.0137396 -0.00393058 -0.00447201 0.00117136 -1.57536 -0.020588 0.221763 -0.0928925 -0.11664 -0.0098263 -0.0194616 0.00649809 -0.0120146 -0.020395 0.00702732 -0.0151379 -4.03215e-05 -0.0237265 -0.0167516 0.000388511 -0.000682554 -0.00811022 0.0190885 -0.0241345 -0.00629521 -0.00599 -0.00694627 0.00477792 -0.0164881 -0.000786612 -0.451967 -0.0376734 0.0155583 -0.0151478 0.00158184 -0.0407948 -0.0602834 0.0226698 -0.0182243 0.0230959 0.00142483 -0.00351287 0.0131458 0.00404119 -0.00130924 0.0182201 -0.0024346 -0.0102569 -0.0236509 0.0110586 0.00509668 0.0158268 -0.0451288 -0.0238875 -0.00225542 0.0903557 -0.00157705 0.00183715 0.086485 0.00160889 -0.0228565 0.0289181 -0.000580599 -0.00656476 -0.0478338 -0.00430414 0.0144891 0.00116782 -0.0412451 -0.0018225 -0.0885129 -0.0201869 -0.0170303 -0.00504461 -0.0127755 0.0451872 0.000682233 -0.000632718 0.00013906 0.00150904 0.00663741 -0.0190405 0.0173768 -0.19659 -0.042242 -0.002715 0.0521475 0.0169776 -0.00823501 0.00116456 0.00330978 -0.00308231 -0.00835337 0.00338965 -0.0036598 0.00262025 -0.00139412 -0.00460143 0.00975492 -0.0348623 -0.00766506 0.00795096 0.0320704 0.00107101 0.0159116 0.306479 0.0857549 -0.0677995 -0.0645789 0.00468155 -0.00067459 -0.000932521 2.30915 -0.00170007 -0.363996 -0.0343335 0.00926747 -0.0212708 0.00548231 -0.00271255 -0.0169503 
-0.551478 -0.0427804 -0.008754 -0.00330645 -0.0175983 -0.0142906 -0.00348293 -0.00155902 -0.00261033 0.0065198 0.0420713 0.00769652 -0.00776065 0.0423235 0.00310865 0.0128421 -0.012651 -0.000223239 0.00452575 -0.00922772 -0.00149884 -0.001588 -0.000764138 -0.00519241 -0.00190074 -0.0126612 -0.123025 -0.0110411 0.021854 -0.000681354 0.00109872 -0.0199159 -0.00475768 -0.193851 -0.0226829 -0.032808 -0.000215321 -0.0113537 -5.63369e-06 0.00149004 -0.0317161 -0.000824755 -0.0092103 -0.00303415 -0.024152 -0.00271794 -0.0148232 -0.00571791 0.00226568 -0.0139089 0.00933403 -0.00288734 -0.014579 0.000307254 0.000479167 2.35347 -0.0106186 -0.00523503 -0.00575814 -0.00124297 0.00100462 -0.0293297 0.0445161 -0.00738169 -0.203599 0.0745209 -0.334107 -0.00613331 -0.013897 -0.00351932 0.00638955 -0.00985434 -0.0233215 -0.0109867 -0.0151263 -0.00408036 -0.0068086 -0.0286515 -0.00388119 0.00361446 -0.00459276 -0.0026819 -0.00470978 -0.00395287 -0.0205719 -0.00198269 0.00410606 0.00160897 -0.0694387 -0.00381742 -0.00171568 0.00810195 -0.0114137 -0.238363 -0.0133664 -0.0706391 -0.0259878 0.0040645 -0.00292407 0.00764737 -0.00658322 -0.00290056 -0.00670972 -0.00205927 0.00593906 -0.00719087 -0.00998791 -0.0056205 0.0124754 -0.00466784 -0.00016154 -0.181017 0.278603 -0.00693587 0.0833807 0.197816 -0.00943836 -0.00189215 0.00760692 -0.0033823 -0.000143667 0.00870462 -0.0135184 -0.00440276 -0.0723041 -0.00784297 0.00176411 -0.0273977 0.0235306 -0.0038076 -0.0223462 -0.00504216 -0.00504838 -0.00673131 -0.0119274 -0.364568 0.0136894 2.89831e-05 -0.0883485 -0.00180916 -0.108864 0.115349 -3.85487e-05 -0.0671015 0.114677 -0.011366 -0.00391722 0.00293217 -0.00471778 -0.0133112 0.0104462 -0.00972195 0.00214781 -0.00246886 0.00258476 0.00365434 -0.0212696 -0.00214082 -0.0346683 -0.00472562 -0.0196132 0.000703134 -0.080472 0.0249466 0.0472751 -0.0667242 -0.271638 0.0214892 -0.0552786 0.0740183 0.0100467 -0.0149953 0.00357136 0.00981167 -0.0343285 0.00918283 -0.0212251 0.00556118 -0.00269491 -0.0147743 
-0.00184123 -0.00903726 -0.0361002 -0.00352627 -0.0176131 -0.00804561 -0.0022008 0.012875 -0.00767698 1.80386 0.00691365 0.0895205 0.0169352 -0.283896 0.00231118 -0.0811879 -0.137849 -0.00175406 0.00667568 9.8453e-05 0.00120916 -0.00131884 0.00852336 -0.0118078 -0.0167286 -0.0265726 0.00701873 0.000514391 0.049933 -0.00125777 0.00546865 -0.031536 0.00907643 0.0136065 -0.0213848 -0.0125131 -0.000543388 -0.00290452 0.00409338 -0.0228924 -0.0324397 -0.000255702 0.122063 -0.00449495 -0.0242034 -0.00514802 -0.000620539 -0.0127091 0.00280914 0.00222646 0.0044216 -0.00111596 -0.00977448 -0.000743846 -0.004664 -0.0167877 -0.0223752 -0.0079525 -0.136412 0.00273903 -0.343357 0.0211022 0.00156625 -0.0308201 -0.00250223 -0.00086282 -0.0751218 0.0459174 -0.0137302 -0.0154546 0.0134489 -0.203347 -0.00714082 -0.0110111 -0.176206 0.00185123 -0.0127846 -0.313177 -0.0564923 0.00318235 0.0205194 0.00551288 -0.00817028 -0.00997462 -0.0132611 -0.00682782 0.0830601 -0.0028119 0.00523766 -0.48798 -0.0374082 -0.0341531 0.0597135 0.00159357 -0.046296 -0.0758 0.0229516 -0.0156245 0.0026406 -0.00233433 -0.00348373 -0.0544113 -0.00159077 -0.00975968 0.0183424 -0.136948 -0.00282192 0.026022 -0.0129972 0.00316133 0.000407061 -0.0198466 0.113744 -0.00732262 0.0840938 -0.0456451 -0.0159367 -0.000714041 -0.0708359 -0.00114145 -0.00470456 0.0183038 -0.00867934 -0.0135551 -4.3611e-05 -0.00786284 -0.00133491 -0.0122173 0.0288385 0.00434576 -0.0223801 -0.209878 -0.00499914 -0.0233217 0.0450513 -6.35992e-05 0.0420951 -0.10486 0.00172707 -0.0344355 -0.00478944 0.119591 -0.0964623 -0.0579647 -0.0179305 -0.0115442 -0.00866112 -0.000548473 -0.00187481 0.010628 0.0147336 -0.0625745 -0.00170345 0.000385666 0.000779673 0.0238085 -0.00619857 -0.00212533 -0.0349665 2.29405 -0.0205882 -0.0260016 -0.0822045 -0.0102082 0.127475 -0.00771063 -0.111235 0.00178717 -0.0573991 0.143858 -0.00942346 -0.0146152 -0.044106 -0.0284854 -0.0119392 0.015418 -0.161932 -0.00218699 -0.00268697 -0.0175785 
0.0183083 -0.0401802 -0.0120994 -0.00356972 -0.037243 -0.0143179 -0.00128717 -0.00154907 -0.0456142 -0.0104175 -7.63881e-07 -0.00327881 0.0145968 -0.110428 0.0026699 -0.0813721 -2.13834 -0.00293828 0.00943657 -0.000932591 -0.00902917 -0.0207834 -0.00196581 -0.000503587 0.0279947 -0.00175176 0.00893153 -0.0103258 -0.00669618 -0.00065578 0.00982353 -0.0181559 -0.00696463 -0.00674781 -0.0217774 -0.00968347 -0.00818347 -0.00306343 -0.0195094 -0.0306719 -0.0430613 -0.0376477 -0.0205861 -0.0278366 0.00638143 -0.00422002 -0.01522 -0.00304718 -0.000408441 0.00217516 0.00686982 0.022289 -0.171618 -0.00151038 -0.00449874 -0.0112025 -0.0781772 -0.00287026 0.0316465 0.00279036 0.465424 -0.58646 0.00111914 -0.106038 0.00934746 -0.0134007 -0.0329591 0.00743499 -0.0120869 6.79822e-05 -0.00875687 -0.0227436 -0.0202063 0.000606778 -0.000796603 -0.00319257 -0.00275026 -0.0285628 0.00698865 0.013724 -0.00168884 0.00989821 -0.00251071 -0.0158108 0.0038446 -0.0112147 0.0250755 -0.00450211 0.387649 -0.00201721 0.000349995 -0.00168302 -0.00573532 0.00715939 -0.0391563 -0.0769428 0.0715522 0.00411092 -0.109516 -0.023786 -0.00887142 -0.000680701 0.00388742 -0.000460727 0.00592657 2.148 -0.0104296 -0.0056809 -0.00104717 0.0152714 0.0719607 -0.160682 -0.0237626 -0.00535468 0.00562499 0.255561 0.0470704 -0.0024059 0.057271 -0.0227408 -0.00571717 0.00768289 -0.00471859 0.00164234 -0.00113096 -0.00302835 -0.0694953 -0.0468815 -0.000166598 -0.00370773 -0.0223711 -0.0327839 -0.0110821 -0.003067 0.0113318 0.000412705 0.0137949 -0.077059 -0.00314675 0.00658359 0.015979 0.314768 -0.021042 -0.0466342 -0.00409253 -0.0488294 -0.00884116 -0.00187762 0.00204927 0.00670222 0.0103856 -0.0119503 0.00191065 -0.00275649 -0.00478412 -0.0299688 -0.155593 0.0113863 0.0304922 -0.0114928 0.0129747 0.0357543 -0.0252534 0.0251703 0.269669 0.0088615 -0.0047096 0.022753 -0.00131913 0.619023 -0.00129329 -0.03488 0.00724332 -0.01045 -0.000731325 -0.115592 -0.00834775 0.0112973 0.00285155 -0.00895979 
0.0206693 -0.036638 -0.00491589 -0.00353265 -0.105917 -0.138074 -0.000468193 -0.0192354 -0.00764913 -0.00252153 0.009949 0.00749437 0.0135865 0.273461 -0.00287715 0.0119249 -0.131496 -0.0103564 0.00491892 0.066731 -0.0014563 0.0117734 -0.00597859 0.0182473 -0.0165843 -0.0133139 -0.0184081 -0.0227244 0.0190493 -0.00653935 0.0102091 -0.0223996 0.00915518 -0.00458576 -0.00407126 -0.0174384 -0.0300624 0.00130167 0.0643784 -0.00437346 -0.000796558 -0.00337791 1.03646 -0.0135198 0.0144601 -0.00299707 0.000999163 -0.0106753 0.00287427 0.00477034 -0.0214732 0.00464547 0.00226614 0.00792072 0.000588241 0.00429743 -0.0223172 -0.00731789 0.00303757 -0.0139212 -0.35938 -0.00106539 0.0561805 -0.00732789 -0.0113307 -0.038974 -0.075604 -0.0176057 -0.48001 0.184349 -0.157212 -0.00237172 -0.0128987 -0.00458142 -0.0107176 -0.00388238 -0.0380919 0.00109186 0.00570603 -0.00296589 -0.00232026 -0.000997995 -0.0239041 -0.00976129 -0.0129289 -0.00696434 0.0747194 -0.0231065 -0.00264694 -0.00301188 0.127789 0.0168268 -0.0138678 -0.0341928 -0.0126863 -0.0234943 0.0253177 0.00406685 0.010594 0.00748514 -0.0101575 0.0204876 -0.000403994 -0.00974775 0.0181048 -0.00776345 -0.0056191 0.0257481 0.0113414 0.00318564 0.0198863 -0.0193062 -0.0198429 0.0040821 0.00631842 -0.0554274 -0.0646279 0.0808745 -0.0689301 -0.0199628 0.00432784 0.018215 -0.00603086 -0.170259 -0.00600264 -0.00300471 -0.00556372 -0.0122494 1.93712 0.00764429 -0.0111711 -0.0167796 -0.00484764 0.016065 -0.0100278 -0.000895812 0.0150928 -0.00134895 -0.0281145 -0.0292602 -4.9982e-05 0.015463 0.000127299 -0.00651283 -0.0100366 0.00870988 -0.00363219 -0.00321719 0.000763801 0.0106582 0.0174936 -0.202169 -0.00288037 0.0315133 -0.102017 -0.00137803 -0.00478301 -0.00132104 0.0159115 -0.0208588 -0.0232673 -0.00170739 0.00399396 0.356839 0.270329 0.0203902 -0.00672038 -0.0239366 0.0275796 0.0236349 0.00239957 -0.00278904 -0.0103908 0.00981195 -0.0341451 2.07466 -0.0459798 0.022096 0.00264906 -0.0155372 
0.0178309 -0.00846438 -0.00848268 0.00251064 -0.0214898 -0.00796861 -0.0079503 -0.024641 -0.00229392 0.00367194 -0.000604803 -0.0261209 0.123232 0.128614 0.0126546 -0.0764269 0.00201671 0.0359551 0.00360981 0.10331 -0.0146966 0.00442815 -0.00922214 -0.00125896 -0.0860913 0.00194705 -0.0184704 -0.0016629 0.0213619 -0.00137143 0.00944378 -0.0180822 -0.0152026 0.00759117 -0.000731975 0.00175865 -0.00659594 0.0348449 -0.0236766 -0.0311853 0.084311 -0.0191768 0.0475825 -0.0313737 -0.0170605 -0.00897709 -0.00433675 -0.0103855 -0.00815614 0.00436585 0.00105826 0.0141362 -0.000680827 0.0211617 -0.004471 -0.00191405 -0.0241573 -0.00331825 0.0144531 -0.0123668 -0.00620561 -0.0243739 -0.00201919 -0.017284 -0.204375 -0.000798642 -0.0949661 -0.0119145 0.000504223 0.000497744 0.00353767 -0.0025423 -0.0228341 -0.0102182 -0.0105529 -0.000743372 -0.00689096 -0.0162213 -0.00397594 0.0156833 -0.00240243 -0.000712109 -0.0231802 -0.0954317 -0.0218872 -0.00769074 -0.0663594 -0.00458133 -0.000296143 -0.01489 -0.00290013 -0.000855149 -0.00548181 -0.0388662 -0.040246 -0.0319978 0.0244025 -0.00980194 0.012655 0.0013265 -0.0227803 -0.00303402 0.0036718 -0.000393392 0.0267069 0.00557146 -0.00904625 -0.129777 0.0122661 0.0051801 -0.00323257 -0.00832936 0.0437837 -0.00817097 0.013584 -0.08445 -0.0620976 -0.00188949 0.0037215 -0.000869681 0.00382871 0.000447996 -0.00455027 -0.00382117 -0.00157566 -0.0151616 -0.000691113 -0.0122105 -0.00185102 0.00498465 -0.0346425 -0.0168212 -0.00451089 -0.0125095 0.00811453 0.000354703 -0.0467659 -0.129643 -0.0411619 -0.159594 -0.00454694 0.113794 -0.0897032 -0.00419576 -0.0349264 -0.0107237 0.0188256 -0.00656685 0.00203658 -0.0460536 0.000464229 -0.00380415 -0.0117861 -0.00042129 0.00463601 -0.00661057 -0.00482224 -0.00554429 -0.0425195 -0.00485738 0.00944293 -0.00180424 0.00169486 0.0332622 0.259165 0.000327943 -0.0637515 -0.0541658 -0.0188681 0.0642339 -0.0071205 -0.0454324 -0.00145036 -0.00439077 0.00615479 0.00535051 -0.00394669 0.000954278 -0.0118966 -0.00455325 
0.00714785 0.00258745 -0.00478765 -0.0101987 -0.0166722 -0.00144493 -0.00110513 0.00929135 -0.0072605 -0.0110268 0.0121737 0.0392517 -0.00254906 0.0846565 0.0147339 0.0316054 -0.0865026 -0.0282743 0.00529009 -0.0280114 -0.0060153 -0.00115635 0.904797 -0.00822352 4.92121e-05 -0.00360012 0.0177595 -6.09302e-05 -0.00122423 -0.00240405 0.00813913 -0.0146327 -0.0142679 -0.00219608 -0.0238471 -0.0106396 9.79605 -0.00425226 -0.00536791 -0.00268507 -0.0463313 0.0844957 -0.0285306 0.090104 -0.0146663 -0.00470979 -0.00184102 0.00858929 9.62181e-05 -0.00332681 0.00925507 -0.00276553 -0.00247446 0.00728822 0.0130258 -0.0102163 -0.0214976 -0.00543372 0.00401248 -0.00354093 -0.00612372 0.0306395 0.00154799 0.0195178 -8.66884e-05 -0.0112021 -0.0280289 0.0152022 -0.0129357 -0.020381 -0.0236209 -0.0349918 -0.0367432 -0.00893579 -0.0051835 -0.00364305 -0.0123993 0.00265696 0.00443351 -0.000564788 -0.122001 -0.00260196 -0.000566937 -0.00403741 -0.00189942 0.261347 0.0033516 -0.00495729 0.00940468 -0.0134079 3.40367e-05 -1.91717e-05 -0.00533685 -0.02894 -0.0376013 -0.059697 0.0239292 -0.0115436 -0.000961751 0.00658563 -0.00352184 0.00519913 -0.0021117 -0.0034552 0.0186617 -0.00337311 -0.00131005 -0.00188177 0.0170506 0.00282257 -0.00709207 -0.27111 -0.0218745 0.00946818 -0.0594285 -0.0258615 -0.0164085 0.00263472 0.0181917 -0.00565965 -0.00962491 0.00467081 -0.00319017 -0.000160885 -0.0012359 -0.00555011 -0.00132094 -0.0248885 -0.0037011 -0.13418 -0.0211863 -0.0325906 -0.308713 -0.0188447 -0.00291578 0.0185207 -0.0436177 -0.0749508 0.00480581 0.00162898 0.00187926 0.0418929 -0.0624511 -0.104254 0.00218941 0.00273564 -0.00360511 -0.000542486 0.00201361 -0.00321922 0.013253 -0.0120466 0.00599218 0.00164348 0.0129623 0.0217991 -0.0119426 -0.00153778 0.00198613 -0.0367389 0.0201 0.0101734 -0.0879172 0.0680352 0.00945089 -0.112496 0.00829976 0.00184082 -0.0001231 0.0104028 0.00652843 -0.0118767 0.00213887 -0.00411447 -0.00523483 0.00711129 -0.0217076 0.000875263 -0.0140664 -0.018117 
0.00649345 0.00417708 -0.0405837 0.00618837 -0.0194624 -0.00446619 -0.00412615 -0.0156769 0.000352224 0.00127682 0.0275524 0.0531162 0.0609327 -0.014075 0.00755048 -0.0579451 -0.00814551 -0.000254902 0.00221428 -0.00472651 -0.0142429 -0.160815 -0.0120636 -0.00047496 -0.00286366 -0.0137769 0.00704692 -0.00878964 -0.264232 -0.000546643 0.022231 -0.0182036 -0.0128511 0.0196157 -0.0318622 -0.0189392 0.0395553 -0.0054425 0.0280798 -0.00329325 0.124391 0.0120947 -0.0166529 -0.0246997 0.0020928 -0.00411789 -0.0176387 0.0154054 0.00390413 0.00266815 -0.000919773 0.0124389 -0.0136618 -0.00176162 0.00217095 -0.00253125 -0.0206243 0.705938 -0.00420683 -0.00766185 -0.0086707 -0.0702595 0.00186301 -0.0330083 0.00759934 -0.0028435 -0.078896 0.0154805 -0.0263612 -0.0325242 -0.00971584 0.00391165 -0.510702 -0.0145608 -0.0109937 -0.00275293 -0.0177915 0.00144351 0.00298239 -0.00175175 0.0423145 0.00428598 -0.00240713 -0.00830223 -0.0207827 -0.00741725 0.0034735 0.097831 -0.0431069 0.00144463 0.00356486 0.00848101 0.0643152 -0.00279617 -0.039867 -0.0360595 0.0637067 -0.00808778 0.00988965 0.0755281 -0.0900841 -0.00127453 0.00235214 -0.00130296 0.0163832 -0.00426247 -0.00487677 -0.000493152 -0.0580192 -0.00393963 -0.189923 -0.551157 -0.0199476 -0.00168237 0.0629311 0.00173315 0.00148888 0.0750292 -0.0175857 -0.0196736 -0.030157 0.0109129 -0.00871147 -0.0052681 -0.004693 -0.022858 -0.000509665 -0.00621077 -0.00365018 -0.0064555 -0.0142579 -0.0125213 -0.0178205 -0.0114397 0.00503178 0.00125531 -0.00241329 0.00356037 0.00934674 -0.0204229 0.00120301 0.00104422 -0.00961841 0.00252031 0.00101744 0.748192 -0.00672166 -0.0210357 -0.339403 -0.0648746 0.00982582 -0.00248391 0.00129425 -0.00383538 0.0112507 0.00349601 -0.00462235 0.0131747 -0.0224214 -0.0151392 -0.0294828 0.041313 0.197546 0.0137752 0.111737 0.0756104 -0.169792 0.0145621 0.0224053 0.0295255 -0.00235872 -0.0409193 -0.0235195 -0.025918 -0.0319298 -0.00958404 -0.0034606 -0.000657323 -0.0116387 -0.0202454 
-0.00299946 -0.300265 -0.0318467 -0.010652 -0.0104843 -0.0162574 -0.00542733 -0.0153928 -0.044014 -0.0213315 0.0160956 0.00162634 0.0075119 0.0396435 0.00597518 -0.0616673 -0.00451957 -0.0608611 -0.00999914 0.00202067 7.97373e-05 -0.0331282 -0.00148647 -0.00580762 -0.00165026 0.00511645 0.0144068 -0.00952284 -0.000606466 -0.0163878 0.00109228 -0.0335752 -0.0126326 -0.00482511 -0.00130187 -0.011581 -0.0930431 0.0361938 -0.00159061 0.503566 0.626458 -0.00395987 0.505339 0.412429 -0.0139513 -0.00271632 -0.0231563 -0.00798582 0.00549088 -0.000193465 -0.000881867 -0.000960156 -0.00413998 0.0052661 0.0116689 -0.00786982 -0.0190626 -0.00918875 0.0162973 0.000809378 -0.0123636 0.0464362 0.0385927 -0.102999 -0.0104943 0.0725455 -0.0143075 -0.0262779 0.000976284 -0.0582144 -0.0273572 -0.00397896 -0.0196587 -0.0100372 -0.0113728 -0.00139619 -0.0148139 -0.00965915 -0.0169685 -0.201761 -0.00328788 -0.00227527 -0.00292846 -0.0157651 -0.0134832 -0.0104204 0.0630814 -0.00499383 0.00266559 0.00440392 0.000113027 0.0111517 -0.00439093 -0.0445879 -0.0322306 -0.000468184 -0.0120997 -0.000877282 0.00247957 -0.00210495 -0.00364054 0.00574726 0.0012251 -0.0127199 0.00559669 0.00358149 -0.00547199 -0.00800372 0.0138366 -0.0349143 -0.0299089 -0.204498 0.0724782 -5.71781e-05 -0.15001 0.00484534 0.0102089 -0.118262 -0.0517518 -0.0159404 0.00712353 0.00974019 0.00117992 -0.00118996 0.631005 -0.00367568 -0.00127201 -0.0394834 0.0157663 -0.00472374 -0.016641 -0.031722 -0.00525395 -0.0102911 -0.00285909 0.0239573 -0.00549325 -0.228776 -0.0686453 0.00884895 0.0256386 -0.0245873 0.0139027 0.00418722 -0.0467166 0.00543522 -0.00318764 -0.0204055 0.00503925 0.00377119 0.00920527 -0.00689884 -0.0654288 -0.00176093 -0.00386196 -0.00520362 -0.0123309 -0.00192436 -0.0553719 -0.0106508 -0.01532 -0.0792866 -0.163238 -0.00233919 0.0749398 0.0936308 -0.00181829 0.00208361 0.0376783 -0.0641096 -0.000206615 -0.0319597 0.0287334 -0.00803358 -0.0383462 0.00345262 -0.0228502 -0.000215949 -0.0110741 -0.00360995 
0.00816664 -0.0138472 -0.0292305 -0.0117416 -0.0417551 -0.0112899 -0.0237996 -0.0141294 -0.00196043 -0.00106411 0.0314608 -0.00364796 -0.00400679 0.102852 0.0231982 0.0250723 0.0104107 -0.138097 -0.00292241 0.0988948 0.00392634 -0.0205402 -0.00472351 0.00442921 0.0174208 -0.000332266 -0.026863 -0.0112981 0.0165076 0.0071369 0.0108236 -0.0144516 -0.00698233 0.0187267 -0.0360294 0.465516 0.0686317 0.266507 0.176636 -0.0025947 -0.00782831 -0.0781886 -0.027228 -0.0890101 0.885995 0.0452716 4.70984 -0.00133017 0.021259 -0.00325107 0.00268779 -0.00240094 -0.0197303 -0.000652901 -0.000376125 0.00167633 -0.0151903 -0.0115242 -0.400344 0.0185593 -0.0127431 0.0709012 -0.00573156 -0.0280362 -0.227491 0.0380389 -0.116245 -0.0464401 0.0217468 -0.0732902 -0.0148684 -0.0915345 -0.01309 -0.0131886 -0.00503006 0.00823149 -0.0136974 -0.0684475 -0.00505108 -0.00140815 -0.000948724 0.00594083 -0.00216828 -0.203311 -0.010242 0.000570879 0.0613362 0.000992823 -0.0338327 -0.00188653 0.0002338 -0.00907756 0.00609667 -0.0279701 0.00227305 -0.0035938 -0.0196489 0.00112348 -0.00398096 3.62009e-05 -0.00827518 -0.000623506 -0.000463849 -0.00602109 0.0127759 -0.00186524 -0.00285662 -0.0136814 -0.022827 0.0063328 0.00550309 -0.0753144 0.0474804 0.0275688 0.0211219 -0.036833 0.0289098 0.063884 0.00559505 -0.0159886 -0.00598057 0.00420786 -0.00152831 0.0220453 -0.0148553 -0.00466024 -0.0080622 -0.0114916 -8.8836e-06 3.50673e-05 -0.0158332 -0.00892488 -0.0253051 -0.00477851 -0.00199705 -0.00336446 0.0217502 0.0110912 0.0330563 0.0310017 -0.00516259 0.0750134 0.0220536 -0.0335848 -0.00917012 -0.00448723 -0.0806955 -4.39009e-05 -0.000301457 -0.00061329 0.010532 -0.0129688 0.00112349 -0.0086621 0.00501641 0.00317383 -0.0190002 0.0162915 -0.0115562 -0.0060493 -0.0254211 -0.112625 -0.102803 0.0171126 -0.325752 -0.00558206 0.0108023 0.0589193 0.0588426 -0.0763255 0.062372 -0.0189988 0.00399962 -0.0269115 -0.0274724 -0.0642971 -0.0263626 -0.00100611 -0.00526567 -0.00974201 
0.00707285 0.00938509 -0.0263798 -0.00302442 -0.0293492 -0.0185294 -0.00430333 -0.00918643 0.000688072 -0.0377871 0.030029 0.0516185 -0.110894 -0.130158 0.017963 -0.14423 0.0777127 -0.158671 0.0188549 0.0116595 0.0202726 0.0223714 -0.014149 0.000300268 -0.00849818 -0.0175651 0.000429157 -0.0201016 -0.00315657 -0.000109144 0.00433359 -0.0255553 -0.0125028 -0.00820024 -0.0403399 -0.0231052 0.00697501 0.139364 0.129273 -0.167655 0.187338 -0.0136567 -0.0114775 -0.0343237 0.120832 -0.00195568 -0.0631029 -0.0050875 0.00647087 0.00376018 0.0037764 0.00559693 -0.0136718 -0.00244957 0.000953237 -0.0076583 -0.00394087 -0.0204063 0.00300225 0.0103584 -0.0141426 -0.0331909 0.0473349 -0.0298779 0.10626 0.000850023 -0.0906008 0.0758394 -0.0243949 -0.118599 -0.0185421 0.0458343 -0.0145685 -0.0168338 -0.00431929 0.00976056 -0.0201777 -0.0304116 0.00102973 -0.0175462 -0.00472326 0.00649807 -0.00526565 -0.0123229 -0.0150409 -0.0110441 0.0489065 -0.0190727 -0.00890584 0.153347 -0.0443094 -0.0214866 0.0136999 0.0452862 0.00735941 0.0772874 0.000555119 -0.0344228 0.00176325 -0.00356554 -0.192152 -0.00698819 -0.00905996 0.000369656 0.00497696 0.00369404 -0.00206587 -0.00826614 0.00504616 -0.0910926 -0.266801 -0.0131916 0.002011 0.0102634 0.019176 -0.235199 0.00288626 0.0405851 -0.111748 -0.00847382 -0.00916003 -0.00170337 0.00817423 0.00357393 -0.00152399 -0.00191799 -0.0103009 -0.0225016 -0.000950011 0.00239521 -0.00648494 -0.0416336 -0.00489784 -2.48454e-05 -0.0239341 -0.00562657 0.0262175 -0.159297 -0.120576 -0.00643967 -0.00796141 -0.0780559 0.0273301 -0.1483 -0.171399 0.00756473 -0.0180814 0.00649932 -0.000239047 -0.015987 0.000888417 -0.00275429 0.0038572 -0.0136211 -0.00259871 -0.00241145 -0.00857126 0.0144558 0.00180545 -0.00672462 -0.0554935 -0.766387 0.0135417 0.0334691 0.10649 0.118106 0.0118405 0.0560184 0.073576 -0.119519 -1.37737 -0.0599171 -0.0720221 0.00777831 -0.00205395 0.00589633 -0.000482431 -0.0100787 -0.00185359 -0.0112661 
-0.000908379 -0.0352401 -0.000414516 -0.024714 -0.026476 -0.00620905 0.00151797 -0.00351744 0.00521814 -0.0477401 -0.0370861 0.0242426 -0.144775 -0.13538 0.00442135 0.0405281 0.105082 5.55517e-05 -0.0492621 0.0573277 0.0286498 -0.0142999 0.00745563 -0.0186286 0.00205954 0.00383869 -0.0171639 -0.00604358 -0.00230236 -0.0211999 0.0120621 -0.0142538 0.0183704 -0.00706062 -0.0523685 -0.0366854 -0.118643 0.195446 -0.0594686 0.7027 -0.0615786 -0.165837 0.291447 0.10118 0.223955 0.0882605 -0.0820383 -0.015732 0.00686199 0.000414192 0.0073677 0.00284351 -0.00931584 0.00351407 -0.00433465 0.00474709 -0.00933118 -0.0118759 0.000695989 0.0194897 -0.0293609 -0.00835137 -0.024266 -0.0891268 -0.135464 0.00151135 -0.0161533 -0.137821 -0.0213318 -0.21123 -0.0195972 0.036092 -0.00150806 -0.00526696 -0.00691742 0.00447283 -0.0158276 -0.0383014 -0.00667327 0.00398133 -0.000114766 -0.00149097 -0.00173689 0.00223794 -0.00142049 -0.0153896 -0.0260913 -0.013481 -0.0584688 0.0842911 -0.0170303 -0.0238528 0.0171835 -0.0949361 -0.0174622 0.0614441 -0.0273272 -0.197815 -0.000276991 -0.00340577 -0.000983022 0.00258545 -0.0229206 -0.00261197 0.00778456 -0.0169829 0.00915943 -0.00372491 0.0064988 0.00301296 0.0113234 0.0106798 0.0177614 0.0142906 -0.0372488 -0.0274054 0.017436 0.019151 -0.0105528 -0.00405729 -0.0461289 0.00569123 -0.0389088 0.00379381 -0.0157142 -0.00534242 0.000553622 -0.0106271 0.00019456 0.00153438 -0.0277892 -0.0244505 -0.0048404 0.00456323 -0.0283826 0.000368448 -0.00922445 0.00310129 0.124295 0.0541541 0.105793 0.0360104 0.0527821 0.0180761 0.264812 -0.0746269 -0.0199971 -0.038916 0.000332539 0.00695377 0.00104317 0.00451114 0.00470856 -0.0050954 -0.000635712 0.00296267 -0.0119606 0.00520211 -0.00533356 -0.00748545 -0.0646753 0.217021 -0.000982352 -0.00676418 -0.118084 -0.00279615 -0.0361266 -0.53696 -0.666701 -1.07708 0.0253072 -0.00345215 -0.0710731 -0.0102854 -0.00790339 0.00931173 -0.00615326 0.0101066 -0.00659566 -0.00744888 
-0.0065336 0.0140473 -0.00630809 -0.000868075 -0.00152247 -0.0207762 0.00232906 -0.00935458 -0.00106353 0.00420484 -0.0375572 0.0680467 -0.179632 0.328718 -0.0318142 -0.073272 0.137448 0.00647781 -0.0553229 0.00539553 0.0442243 0.0332624 -0.000668848 -0.0073368 -0.00366491 -0.00135641 -0.0201248 -0.0124854 -0.00111248 -0.00340552 -0.0038571 -0.0256297 -0.00702631 0.0501016 -0.0844867 -0.0388132 -0.162319 0.244314 0.301445 -0.0149773 -0.0775214 -0.19051 -0.0484759 0.252599 -0.11919 -0.00723794 -0.104702 -0.0187255 0.0311682 0.0137106 0.00522307 0.00104086 -0.0107281 -0.00224265 -0.00434215 0.0016133 -0.00909535 -0.0216752 0.00525573 -0.00612263 -0.0557835 0.142114 -0.00884497 -0.110077 0.19515 0.0276535 -0.100581 0.0295278 -0.0298765 -0.191978 -0.0219786 0.0733249 -0.00104131 -0.0249326 -0.00414822 -0.0205183 -0.0215214 0.00524417 0.000186984 -0.00015217 -0.00613022 -0.00774169 -0.0220618 -0.0175667 -0.00695121 -0.0143149 -0.0301208 -0.0237601 -0.0469278 -0.090637 -0.00315738 0.00212256 0.0324211 -0.0736255 0.0153545 0.10977 -0.0148995 -0.0419925 0.0120582 -0.0216909 -0.00402408 -0.00872312 -0.0162946 0.0102385 0.00657528 -0.0154993 -0.0145918 -0.00371281 -0.0307099 0.00834707 0.0145946 -0.0365928 0.00918428 -0.136485 -0.0321867 -0.0222094 -0.308333 -0.158058 -0.140084 -0.157125 -0.177708 0.000780933 0.00370928 0.0109492 -0.0103325 -0.00298385 -0.0103665 -0.0333971 -0.00469044 -0.00176485 -0.00666411 -0.0354224 -0.00075295 -0.0423968 -0.00241106 -0.010555 -0.00448456 0.00445907 0.0662104 -0.213954 -0.00683673 -0.0104099 -0.439967 0.0276709 -0.130253 0.0409359 -0.0237332 0.00890879 0.00393555 0.00584005 -0.00699126 -0.0181911 -0.0064331 -0.00579889 0.000953726 -0.00340099 -0.0170414 0.0222521 -0.0138056 0.0240249 0.0485766 -0.103826 -0.122238 0.0830006 -0.11122 -0.804634 -0.204229 -0.241299 -0.0934449 -0.868998 -0.0119247 -0.00482797 -0.136501 -0.0286658 0.000140433 0.00331811 -0.00454077 -0.0173533 -0.00482582 -0.00399833 
-0.00882145 -0.00170191 -0.00773366 -0.014898 -0.00255469 -0.0213695 -0.00525759 -0.0277557 0.00671758 -0.0618149 -0.0423284 0.0745082 0.00918919 -0.321258 -0.00631737 0.0564767 0.0150411 -0.203007 -0.00323922 -0.0576789 -0.406696 -0.0396418 -0.0480505 -0.00762073 -0.0356629 -0.000370831 -0.00252252 -0.0117052 -0.000179013 -0.023468 -0.00692501 -0.0255098 -0.00037314 0.0570611 0.0568715 -0.0247982 -0.254844 -0.0321499 -0.188847 -0.0633981 -0.106421 -0.228379 -0.00394724 -0.194272 -0.139451 -0.00321412 -0.122069 0.114318 -3.92502e-05 0.000260273 0.00269442 -0.00176689 -0.0105823 0.000649397 -0.0170954 2.99579e-05 -0.00680948 -0.00820307 0.0172167 0.0420347 -0.0654544 0.0381152 -0.00361489 0.0262108 0.228575 -0.0617424 -0.0832402 -0.180922 -0.173733 -0.206967 -0.0611435 -0.0395035 0.000357774 -0.00313616 -0.0136269 -0.0210729 -0.0217458 0.00140539 -0.00837931 -0.000117532 -0.011874 -0.0088447 -0.0158086 -0.00208663 -0.0158393 0.00675291 0.0556183 0.000283469 -0.086297 -0.00022983 -0.0216759 -0.0375511 0.112035 -0.106634 0.0167799 5.93225e-05 0.0125276 0.0104092 -0.00282764 -0.0199544 -0.014413 0.000302556 -0.00740651 -4.42759e-05 0.00122627 -0.00921817 0.00958066 -0.0254757 0.00396621 -0.0367855 -0.0987454 0.0339062 -0.0815912 0.0223024 -0.0809229 0.0319324 0.00841493 -0.170579 -0.105049 0.0155696 -0.000554884 -0.000783577 -0.0885311 0.00169919 -0.0188531 -0.00235193 0.000747966 -0.0373006 -0.0171796 -0.00957685 -0.000945413 -0.000519241 -0.00436913 0.0128062 -0.108948 0.000154699 -0.009619 0.0386685 0.101349 -0.205262 0.149681 -0.320939 0.0796549 0.0342617 -0.14819 0.01382 -0.0274972 -0.000335149 0.0018589 0.00449372 0.00447728 -0.00859444 -0.00111223 -0.0153024 -0.0118106 -0.0151914 0.00265238 0.0026414 -0.0143543 0.0292243 0.0579221 0.288955 -0.12449 0.091427 -0.628909 0.17541 0.0268247 0.275524 0.0246935 0.042223 0.0571565 -0.0640005 -0.153839 0.0100174 -0.0155914 0.00216282 0.00352072 0.00515725 -0.00752559 -0.018986 
-0.0103708 -0.0361284 -0.00640963 -0.0153321 -0.000413853 -0.00044822 0.0038784 -0.00290439 0.00858819 -0.0653707 0.0512314 -0.0511541 -0.037539 0.369303 0.0697335 -0.194933 0.331846 0.00643379 0.0381987 0.0525295 0.022057 -0.0402834 0.00329245 -0.00978688 -0.019594 0.000311067 -0.00632453 -0.01152 -0.000470428 -0.00174557 0.0138511 -0.0249439 -0.00705788 -0.00943629 -0.0960169 -0.0490391 0.00324487 -0.028745 0.302615 0.181637 -0.128695 0.676698 -0.0624551 -0.21547 -0.00347371 -0.00360486 -0.127273 0.00182693 0.0344381 0.0120575 0.00133362 0.00432414 -0.00896298 -0.00147073 -0.000753389 0.00141013 -0.00333569 -0.0138385 -0.00990025 0.0403604 -0.0738581 0.238888 -0.0243983 -0.0430388 0.187286 0.00308076 -0.186225 -0.144443 -0.0365575 -0.0869137 -0.0284516 0.0247124 0.00250682 -0.00496995 -0.0158316 -0.0306703 -0.0218187 -0.0287554 -0.000847039 0.000156599 -0.00220319 -0.00930339 -0.00589167 -0.0165727 -0.00381423 -0.00579304 -0.0323477 -0.0211767 -0.0945097 -0.0566833 0.000861353 0.0381567 0.0852636 -0.0746414 -0.00131356 0.173776 0.00112649 -0.0214995 0.00366889 -0.0152287 -0.00678859 -0.000496009 -0.0098228 0.00115428 -0.00153907 -0.0148669 -0.0146208 -0.018627 0.00395691 0.00991578 -0.134213 -0.101462 0.00648629 -0.0493581 0.00859683 -0.141289 0.0290114 0.0410606 -0.279455 -0.104176 -0.00095541 0.00690033 0.0256653 0.0112719 -0.0131665 -0.000888922 -0.00114857 -0.0127026 0.000590819 -0.0217769 -0.0481554 0.0025272 -0.00499997 -0.0428932 -0.0199559 0.0416733 0.0356612 -0.180265 0.0959862 -0.216803 -0.00535852 -0.166631 -0.264105 -0.0966378 0.329458 -0.101449 -0.0173618 -0.0516544 1.00192e-05 0.00486525 -0.0111052 -0.0133494 -0.000487356 -0.000627594 -0.0121499 0.00288262 -0.0198571 0.00300271 0.00149918 0.0055478 0.0585026 -0.353048 -0.00487988 0.0975643 -0.180593 0.52953 0.0246718 0.347923 0.0284183 -0.315276 -0.106389 0.00226333 -0.00489827 -0.0342357 -0.0539229 0.000590161 0.0045518 1.25371e-05 -0.00451587 -0.0223358 
-0.0107076 -0.032692 -0.00539521 -0.00753032 -0.0180506 -0.00375829 0.00303512 -3.8185e-05 0.00847014 -0.0678451 -0.0560473 -0.0205691 -0.0344805 -0.173781 0.0464219 0.0760119 0.169026 0.00860904 -0.0786346 0.0507268 -0.0329001 -0.0350643 -0.00305729 -0.000128151 5.4223e-05 0.000693084 -0.0277345 -0.0218028 0.00691207 -0.00185616 0.0141751 -0.0188538 -0.010855 -0.0109453 -0.0428632 -0.0290642 -0.15239 -0.0301305 0.332451 -0.35468 -0.13438 -0.266714 -0.055712 -0.0830302 0.153093 0.10099 -0.137049 -0.0245537 0.040068 0.0117816 0.0064011 -0.000424414 -0.019605 -0.00227647 -0.000890952 0.00575528 0.00158203 -0.0139666 0.00161212 0.0401092 -0.0816538 0.0675055 -0.0120487 -0.144344 0.26442 0.0331392 -0.0704431 0.059574 0.00469566 -0.282287 -0.0273671 -0.000205424 -0.000477429 -0.00621266 -0.0023645 -0.0283653 -0.0218182 -0.00731384 -0.00268133 0.00498857 0.00135779 -0.0117356 -0.000885284 0.00695342 -0.0136048 0.00867082 -0.0196135 -0.00858292 -0.100202 0.0420291 -0.024579 0.00334509 0.0223263 -0.0203181 -0.0278931 0.208793 -0.0151795 0.00532973 0.000405193 -0.00126002 -0.0156984 -0.00300766 -0.00998163 0.00948841 -0.00143985 -0.00977712 -0.0171348 -0.0019031 -0.00346272 0.0158747 -0.0636471 0.0469717 -0.09349 -0.0093353 -0.245716 -0.0169329 0.0306103 0.0834876 0.0175321 0.0111181 -0.0680791 -0.0564541 -0.0138358 0.00362831 -0.0286966 -0.00151907 0.00530227 -0.00343759 -0.0163817 0.00240011 0.00592115 -0.0134943 -0.00703089 -0.0314992 -0.0390482 -0.00892998 -0.00700215 0.0158231 -0.0852875 0.086748 -0.460162 -0.294078 0.0888728 -0.0102563 -0.15969 0.0152928 -0.0180291 -0.0204235 -0.0280577 0.00524978 -0.0120358 -0.0131491 -0.00402044 -0.00277056 -7.32163e-05 0.00293803 -0.0128958 0.00321914 -0.0198511 -0.0100306 0.0537462 0.305877 -0.124948 0.101687 -1.28522 0.543378 -0.0225216 0.365923 -0.457484 -0.00802583 -0.0246245 0.00351358 -0.018581 -0.0288274 -0.0126522 -0.00158807 -0.0476611 -0.00576451 -0.00219961 -0.0239993 
-0.0047102 0.0177318 -0.00670055 -0.0174846 -0.015871 0.00197422 0.00118456 -0.0116205 0.00869587 0.0197252 0.00417935 -0.0591858 -0.240788 0.344819 0.0701376 -0.207696 0.0328062 -0.231364 0.0406694 -0.0456177 0.0554767 -0.0220854 -0.0358593 -0.00799547 -0.0114882 -0.0219526 -0.0163978 -0.0136212 -0.000230293 -0.00761947 -0.00819762 -0.0245382 -0.0108222 -0.00961454 -0.05147 -0.0302233 -0.277363 -0.0304124 -0.232138 0.184604 -0.135631 0.327331 -0.0657443 0.298481 0.152395 -0.00569896 -0.132234 0.00148253 0.0051938 0.000816163 0.00562178 -0.00606005 -0.00999317 -0.00549144 -0.00383925 0.00293787 0.00186624 -0.0108121 0.00566336 0.0382634 -0.0744268 0.0679207 -0.00239033 -0.0443466 0.0945742 -0.0597462 -0.110635 -0.174321 0.0253377 0.00238639 -0.0217462 0.00104371 0.0041117 -0.030352 -0.00282971 0.00351986 -0.00710294 0.00983018 -0.0246126 0.000838838 -0.00723502 -0.0227781 -0.00655147 0.00355748 -0.0210308 -0.00963376 0.00683344 0.0185367 -0.0680331 -0.143261 -0.0246761 -0.054689 0.0387712 -0.0891495 0.00310601 -6.35183e-05 -0.0160558 0.00911825 0.00334771 -0.00406608 -0.0039726 -0.0033499 -0.00879954 -0.000828769 -0.00795991 -0.0119613 0.0170777 -0.0209823 0.00553778 0.00356942 -0.0649244 -0.0893333 0.00931036 0.0291234 -0.053855 -0.00879311 0.00585378 0.0801748 -0.243762 0.0223217 -0.169945 0.00456325 0.0279018 0.0143619 -0.00210727 -0.0013775 0.000448223 -0.0350422 -0.013092 0.000691902 -0.000501493 -0.00043362 -0.00571287 0.000511028 0.0124725 -0.00928164 0.0371773 0.0433387 -0.0966802 -0.222641 -0.0143906 -0.299807 0.0964294 -0.103791 -0.0244407 0.0108067 -0.0252823 0.00816151 0.00202198 0.0052751 0.00191408 -0.0130299 -0.00727824 -0.0185643 0.00253879 -0.000725054 -0.0129086 0.0170768 -0.00611037 0.0365972 -0.274488 0.327084 0.0284338 -0.0127748 -0.237758 -0.839489 0.0270614 -0.897163 0.144047 -0.405684 -0.0257743 0.00358835 -0.00609306 -0.00437088 0.00231376 -0.0094179 -0.000850518 0.000284811 -0.00644969 -0.0235427 
-0.00698288 0.00568374 -0.00542973 -0.000341152 -0.0164175 -0.00522118 -0.00773306 -0.0276588 -0.037995 0.0124468 -0.0522707 -0.387264 0.0112033 0.383146 -0.633704 0.00661161 0.108244 0.00792845 0.0404214 0.00792166 -0.2379 -0.0371109 -5.91106e-05 -0.018113 -9.82749e-06 0.00415603 0.00227907 -0.00963485 0.00449231 -0.0262091 -0.0314187 -0.0246154 -0.0108116 -0.00928667 -0.099432 -0.0177755 -0.150823 -0.0357279 0.295285 0.524945 -0.134714 0.688849 -0.0564746 -0.0833852 -0.00341567 0.101339 -0.141253 0.0473002 0.00783225 0.00236785 0.0063479 0.000897486 -0.0240052 -0.00535556 0.0078506 0.00766411 -0.00038016 -0.0134124 0.00921524 0.0449954 -0.073236 0.142078 -0.00925011 0.0170314 0.235506 -0.0141978 -0.187877 -0.20192 -0.0375709 0.0022647 -0.0525573 0.00110507 0.0031592 -0.00524616 -0.00351876 -0.0252119 -0.0218155 -0.0210006 -0.00704147 -0.000981722 -0.00410738 -0.0360804 -0.0023367 -0.000560794 0.00281292 -0.11336 0.028666 -0.00739788 -0.0996503 0.034962 -0.0247913 0.00134825 0.0491495 -0.125541 -0.0137101 0.163971 0.00476715 0.0052568 0.00154891 -0.0107945 -0.00668858 -0.00951717 -0.0104778 0.00525644 -0.00302859 -0.0149668 -0.017724 -0.00677166 0.000167446 0.00997412 -0.114222 0.0492107 0.0244498 0.00970432 -0.0428099 -0.010697 0.0264218 0.0783914 -0.24064 0.0103304 -0.0624867 -0.00275575 -0.0140193 0.00198979 -0.0117881 -0.00526666 0.000880269 -0.0332043 -0.000544492 1.95284e-05 -0.000576278 -0.0286791 -0.0157987 0.016762 -0.0838615 -0.00137559 -0.0104895 0.0158208 -0.0895701 0.0871529 -0.00697862 -0.325736 0.0587825 0.0309435 -0.158853 -0.089288 -0.00114213 0.00513266 -0.0248865 0.00776234 -0.0111842 -0.0168339 -0.00324719 -0.00365377 -0.01344 0.000235499 -0.0140493 0.0103475 -0.021883 0.0318841 0.0618789 -0.130143 -0.00548103 -0.19365 -0.20508 0.196172 0.0285274 0.363951 -0.282539 -1.12359 0.0350612 -0.140094 -0.0184223 0.00429679 -0.0164695 -0.0181871 -0.025276 0.0085781 -0.00442959 0.0108385 
-0.00577656 0.00172289 -0.0142444 -0.0141438 -0.0212043 0.000323174 0.00127057 -0.00290299 -0.0411273 0.000551782 -0.0465204 0.0386045 -0.0608427 -0.362756 -0.0534795 0.0962554 0.332889 0.00830586 0.0369407 -0.474172 -0.0296811 -0.03367 -0.114817 -0.00221036 -0.000880567 0.000440506 -0.0107187 -0.0253997 0.010749 -0.0261086 -0.00531732 -0.0165557 -0.000176515 -0.00876201 -0.0617778 0.139845 -0.211699 0.306097 0.234117 0.194315 0.732888 -0.25406 0.396663 0.14142 -0.147472 -0.0311929 -0.0734609 0.0022435 -5.40728e-05 0.00181414 0.00451781 0.00193723 -0.0189078 -0.0044231 -0.00159428 0.00246378 0.00742844 -0.00843037 0.00562097 0.0406879 -0.0734301 0.155626 -0.0134735 -0.0428495 0.250095 0.00242648 -0.108468 0.00181841 0.024565 -0.206036 -0.0382135 0.103535 -0.00408878 -0.00869493 -0.0029769 0.00975386 -0.0218267 0.00872817 -0.0231256 0.00464208 -0.00258048 -0.00102665 -0.0127964 -0.0221787 -0.00247842 -0.0118738 0.0256246 -0.00937294 -0.0610336 0.0391182 -0.047434 0.00224723 0.0462775 -0.113374 0.0247013 0.170451 -0.0149055 -0.0219544 -0.00307677 -0.00249325 -0.00394212 -0.00161638 -0.0095965 0.00106655 -0.00264239 -0.0146348 0.0115064 -0.00111525 -0.00258781 -0.0285013 -0.0565075 -0.104998 0.0219676 0.0287786 -0.250503 0.0384208 0.0323502 0.0900911 -0.275794 -0.10403 -0.170121 0.0110724 0.000468572 0.0116427 -0.00817311 -0.00322759 -0.0120314 -0.00938564 0.000603628 0.000203756 -0.0482477 0.00437289 -0.00519974 -0.00330738 -0.0364237 -0.00115463 -0.0113358 0.0430691 -0.090958 0.0384685 0.160807 -0.277917 0.0294636 -0.0643189 -0.0347052 -0.0917444 -0.00129005 -0.0202758 0.00170337 0.00359411 -0.00599263 6.54938e-05 -0.00666657 -0.00554755 -0.00177202 -0.00255035 -0.0247813 0.00299908 -0.0142345 -0.0323981 -0.0870946 0.00643588 0.0904726 0.0614465 -1.282 0.00118122 -0.0221311 0.00348172 -0.203722 -0.273197 0.0340855 -0.00460894 -0.0057368 -0.0229104 -0.00398645 0.00139566 0.00211928 0.000116417 -0.0040838 -0.0214868 
-0.00495799 -0.0422983 -0.00158243 -0.000639019 -0.00223872 -0.00819672 0.000517871 -0.0117045 0.00888444 0.0056814 -0.0448045 -0.0405754 -0.208093 -0.224623 -0.0388527 0.00603127 0.113214 0.0193691 -0.0611118 0.04353 -0.0479358 0.0363011 -0.00559954 -0.0215554 -0.0017571 -0.00280029 -0.00907501 -0.0126478 0.0110187 -0.0192806 -0.0270247 -0.0140463 0.0287501 -0.0123529 -0.0608068 0.0794254 -0.139382 0.0216688 0.290161 -0.289557 -0.0863104 0.298766 -0.0992988 0.599461 0.555036 -0.00844887 -0.0766492 0.00258691 0.00423031 0.000268764 0.00503991 -0.00168754 -0.00746982 0.00081625 -0.00478151 0.00271482 -0.00113029 -0.00183312 0.0030211 0.0330862 -0.0416438 0.117922 0.0102565 0.00492277 0.205584 -0.000748791 -0.105669 -0.134144 0.00388578 -0.258277 -0.0264729 0.0169464 0.00101094 -0.02842 -0.0156183 0.00934835 -0.00757998 0.0018612 -0.00590756 -0.000120587 -0.00739121 -0.01027 -0.00355025 -0.00141296 0.00527337 0.00673947 0.0290886 -0.000391371 -0.0426248 0.0342658 -0.0313845 -0.0485151 -0.630745 -0.0622849 -0.0226376 0.0691263 0.00100982 0.00146642 0.0043275 -0.00871145 -0.00407656 -0.00300413 -0.00916828 0.00913787 -0.00170244 -0.00876799 -0.0149553 0.00546599 0.00695899 0.00250837 -0.0533943 0.0367973 -0.051885 -0.0816316 -0.282268 -0.0163077 0.00472041 0.0667991 -0.119706 0.00538852 -0.0605771 -0.0645783 0.00080892 0.0126662 -0.0332412 -0.00379039 0.000992248 -0.0128609 -0.000671112 -0.00564361 -0.0429257 -0.00367221 -0.00482717 0.0125849 -0.0335535 -0.000801702 0.0346176 -0.183098 -0.108892 0.0112934 0.148598 8.24759e-05 0.171012 0.0250261 0.379143 0.0135638 -0.0162977 -0.0514769 -4.0695e-05 0.0143837 -0.00218153 -0.00823498 0.00322821 -0.0203538 0.00160551 -5.87458e-05 -0.0142317 -0.08759 -0.0151123 0.0298451 -0.0189192 0.281305 -0.125698 -0.141168 -0.133978 0.163464 -0.0212924 -0.278984 0.121566 -0.322542 0.057861 0.000984341 -0.00493207 0.0101088 -0.015579 -0.00122667 0.0023411 0.00906768 -0.00362541 0.00357074 
-0.00874877 -0.0377863 0.00162487 -0.00974119 -0.0235673 -0.00443357 -0.00840604 -0.00052153 0.0045257 -0.0537148 0.0485791 0.000842832 -0.0172441 -0.277376 0.00487464 0.0536052 0.240138 0.00651915 0.0542319 -0.0954992 0.0364719 0.0323955 0.00360681 -0.00713438 -0.000757999 -0.0202454 -0.0269212 -0.0176712 -0.00110795 0.00510496 0.00658914 -0.0167053 -0.0102923 -0.00729379 -0.0570126 -0.0223502 -0.0045504 0.018114 -0.160643 0.165032 0.240679 0.266183 -0.08788 0.252511 -0.0213724 -0.00725626 -0.0123601 0.020987 -1.87369e-05 0.00387556 0.00194441 0.000399923 -0.0164393 -0.00102411 -0.00430629 -0.00233291 -0.00899674 -0.0130289 0.00805729 0.0222007 -0.0347916 0.14288 0.00833944 0.00279157 -0.0842028 0.00185398 -0.101442 0.000940794 0.00592035 -0.17327 0.00287581 -0.0249647 -0.02271 -0.0131633 -0.0144786 0.0131483 -0.00753156 0.00132782 1.4704e-05 0.00493445 0.000369758 -0.00168035 -0.00709728 -0.0195471 -0.0207184 -0.00443303 -0.0139291 0.00296731 -0.0395782 -0.0990535 -0.0236586 -0.0032705 0.0344818 -0.0138472 0.00588735 0.100513 0.0142422 -0.000135562 0.00106444 -0.0105794 -0.0183834 -0.00779928 -0.00639004 -0.00100474 0.00479689 0.00210679 0.000534852 0.00625521 0.00301477 0.00862555 -0.0475712 0.0139618 -0.0334147 -0.135213 -0.0307151 0.023437 0.0227914 0.0455453 -0.138632 0.0330476 -0.045188 0.00608938 0.00963752 -0.00388432 -0.0247155 -0.00163108 -0.0108662 -0.00439184 -0.000764011 0.00103235 -0.00606636 -0.0288939 -0.0222392 -0.0973763 -0.0336318 -0.00385872 -0.143875 0.0269176 0.087395 0.0457431 -0.0143616 -0.132797 0.0657509 0.0288661 -0.0246495 -0.0704279 -0.0149352 -0.018481 0.00375085 0.0105006 -0.00348417 0.0020846 0.00601167 -0.0201243 -0.00113122 -0.00390941 -0.0168028 0.0197884 -0.00558519 -0.155926 -0.0423498 -0.108533 0.00312178 -0.159743 -1.10015 -0.789177 0.0235537 0.251205 0.110713 -0.222132 0.0279035 -0.00940376 -0.00442242 -0.0286888 -0.0239417 0.00336277 -0.0322303 0.00510329 -0.00489689 -0.0193375 
0.00350167 -0.0354019 -0.00913618 -0.0299385 -0.0319632 0.00045953 0.0012146 -0.0109472 0.00205448 0.00283134 0.035918 0.0595878 -0.0231159 -0.12763 0.0276638 -0.141003 0.172098 0.0109545 -2.10924 0.00419508 -0.0240444 -0.0269527 -0.00382747 -0.0153302 -0.00377481 0.000765407 0.000869724 -0.00586258 -0.00239605 -0.0145688 0.00559338 -0.0208267 0.00284464 0.0875469 -0.0520116 -0.0341183 -0.00659165 -0.02747 0.169707 1.14452 0.783395 0.508781 -0.0505534 0.220122 -0.0919402 0.05623 -0.0273359 -0.0157295 7.94146e-06 0.00418252 0.00323461 -0.00196455 0.00620643 -0.000740023 0.00842063 0.00118166 -0.0116203 -0.0118477 0.00529896 -0.00413657 -0.0441523 0.0299815 -0.00698107 0.0326759 -0.0310372 -0.0137485 -0.0161663 0.00597522 -0.028044 -0.155666 0.00347261 -0.00131059 -0.00643237 -0.00963794 -0.0145228 0.00390302 -0.00746361 -0.0379904 -0.00684987 0.00442263 -0.000972738 -0.0147531 -0.0157077 0.00199237 0.00267138 -0.00994465 0.0512784 -0.000869034 -0.0607082 0.084208 0.00848841 -0.000801168 0.075064 0.0114653 0.0119304 0.121057 0.0140869 0.00599992 0.00396476 0.0006374 -0.000983181 -0.00774702 -0.0057833 -0.00284748 0.00511963 0.00288917 -0.0142704 -0.00690546 0.000545793 0.00301724 0.0178224 -0.0481809 0.0053012 0.0122597 -0.282132 0.00613946 -0.17953 -1.06307 -0.149846 -0.00257668 0.00111788 0.00874886 -0.059616 0.0363295 -0.00461131 -0.00523721 0.000674632 -0.00485309 0.000307607 -0.00319672 -0.00808759 -0.015657 -0.00455372 0.00463345 0.025494 -0.113374 -0.00258431 -0.153541 0.0480751 -0.169317 -0.00386716 -0.101991 0.0161832 -0.0763341 -0.106149 0.00408693 -0.0178035 0.00788252 0.00439339 0.0143624 0.00328162 -0.0188115 0.00530308 -0.00333608 0.00061773 0.00694334 -0.0110338 -0.0141541 -0.0941788 -0.0361454 0.0468949 -0.136932 -0.1202 -0.0935029 -0.359108 0.279957 -0.198041 -0.655174 -0.0773905 -0.617819 -0.0223262 -0.0620447 -0.00361047 -0.0346807 -0.0359011 0.00421708 -0.00857593 -0.0138307 -0.00644121 -0.00318767 
0.00722649 -0.0361123 -0.201744 0.000131056 -0.010668 -0.00982137 -0.00330632 -0.0126651 -0.0158131 0.00406179 -0.029283 -0.00879325 -0.105503 0.25841 0.0178585 -0.110389 0.097976 -0.0797593 0.0194595 0.0237664 0.020243 0.0220439 -0.0217291 -0.00371653 -0.00416785 -0.0142708 0.00178429 -0.00431206 -0.00291321 -0.0182013 -0.00594065 -0.0143395 0.0181626 -0.00274303 0.0280506 -0.0278809 -0.159636 0.471263 -0.00817773 0.135773 -0.0779924 -0.013605 -0.0327625 -0.0910912 -0.0664901 0.0189771 -0.0615679 -0.00507587 0.0135554 0.000510674 0.00365151 0.00438176 -0.000605353 0.012536 0.000127465 -0.000736399 -0.0125699 -0.0118083 0.0102269 0.00691797 -0.0366599 0.068081 -0.00723816 -0.0147879 -0.0228636 -0.0182568 -0.0154532 0.001339 -0.0162503 -0.0997198 -0.00504696 -0.0299355 -0.00977105 -0.00182147 -0.00417337 -0.0149183 -0.00123036 -0.178056 -0.00637359 0.00901862 -0.0114694 0.00669698 -0.00752995 -0.00389628 -0.0313613 -0.0152463 0.0485066 -0.0208886 -0.0369456 0.0657129 -0.0870755 0.0191898 -0.113442 0.0488168 -0.085802 0.0349634 -0.00419274 -0.00338593 0.00616039 -0.00175468 -0.00399996 -0.000603318 -0.00468681 0.000262501 0.00508384 -0.00419464 0.000464659 -0.000617096 0.00447571 0.00682165 -0.01735 -0.0389126 0.00857301 0.00673604 -0.00304149 0.00205511 0.00194825 0.0337802 -0.113091 -0.00870399 -0.00935341 0.0094988 -0.0557401 0.00650176 -0.0106286 0.00431454 0.00129544 -0.0190078 0.00302057 0.000451039 -0.0240504 -0.00509457 -0.00525168 -0.0294317 -0.1065 -0.0236509 -0.00143625 0.026072 -0.0918991 -0.0136243 -0.000617333 -0.0787192 -0.0139121 -0.0882953 -0.0714757 0.028767 -0.0111478 -0.00166124 0.157501 0.00606988 -0.00448133 0.0021402 0.00204879 -0.00342867 -0.00262953 -0.00502842 -0.00846578 0.0143631 -0.254103 0.00934783 0.0251902 -0.734314 0.0204268 0.0579192 -0.205162 -0.457613 0.00504561 0.110596 0.0756559 0.120226 0.0668759 -0.01091 -0.245906 -0.00454414 -0.00714808 0.00483376 -0.0277984 -0.000898477 -0.00976902 -0.00267704 
-0.00173719 -0.00589385 -0.0103846 0.00349677 -0.00350557 -0.00677612 -0.0212984 -0.0262885 0.000607278 -0.00104966 0.0275656 -0.0121088 -0.00807675 -0.0472531 0.083458 0.0300071 0.00330564 -0.00205575 0.0173147 -0.0281362 0.0369284 0.015091 -0.00026493 -0.00318988 -0.00194571 -0.0333496 -0.0227902 -0.00947167 0.0190852 -0.0105574 0.00916038 -0.028012 -0.00576106 -0.00553773 -0.0221847 -0.0354155 -0.121082 0.379647 -0.00441515 -0.117781 0.375013 -0.0377025 0.167228 -0.063341 -0.00780593 0.0443576 -0.025029 -0.000787052 0.00451881 -0.00314268 0.00289397 0.00858328 0.00772773 -0.000542043 -0.00432749 0.00567463 -0.0146244 -0.00982386 0.00461878 0.00550078 -0.0151679 0.0299862 0.00764047 -0.0478704 -0.174165 0.0372591 -0.12425 -0.0456493 -0.0021694 -0.0910646 -0.000931864 0.0135103 -0.013235 -0.00468159 -0.0130963 -0.0508767 -0.0189697 -0.0101536 -0.0285552 -0.000311506 -0.0035633 -0.00457182 -0.00767256 -0.0154244 -0.0406881 -0.000854697 -0.00325767 0.00841351 -0.0192932 0.00835794 0.207716 -0.00126168 -0.168751 -0.0663908 0.00225579 0.0327154 0.000634064 -0.0185438 0.00662445 0.00219124 -0.00811066 0.0147171 -0.00787101 -0.00162743 0.0128872 -0.00300752 -0.01271 -0.00516868 0.00244627 0.00285779 0.00549623 -0.0534569 -0.0122231 0.000752117 -0.178233 -0.00864691 -0.00222651 0.00823021 -0.0758044 -0.0133615 -0.0158029 0.00626561 -0.00099864 -0.00462875 -0.0146348 -0.00247518 -0.01754 -0.0383192 -0.00187572 0.00650055 -0.084796 0.000109059 -0.00524465 -0.000596067 -0.13215 -0.000681361 -0.0691505 -0.00255092 0.00939403 -0.0254605 -0.00812127 -0.0147874 0.0172144 -0.0337218 -0.0485877 0.0048561 -0.0656817 3.09691e-05 -0.024031 0.00899512 -0.00273 -0.0129876 0.00180072 -0.00416987 -0.000580087 -0.0024616 -0.00987712 0.0118485 -0.0048418 -0.426883 0.0259661 0.125618 0.000913045 -0.0777209 -0.0893644 -0.00543336 0.0013608 0.053792 0.0389187 -0.0170333 0.0412868 -0.0533318 0.00152757 -0.0148494 0.00635934 0.00400738 -0.0232787 -0.000717806 -0.0037827 -0.0203601 
0.00417438 0.00503024 -0.101599 -0.0105257 -0.00796119 -0.0160886 0.0177527 -0.00729196 -0.00253922 0.0054097 0.0133982 -0.00236992 -0.0290258 0.107331 -0.0222216 0.203892 0.00273512 -0.00456789 0.0163414 0.0329898 -0.0144562 0.0101889 -0.00010219 -0.00561017 -0.0218667 0.000870225 0.0159995 -0.0100248 -0.0162095 0.00779218 0.000432789 -0.0304889 0.0245189 -0.00573479 -0.00138318 0.0777368 -0.0596688 -0.00835321 -0.0582347 -0.00766002 -0.0211364 -0.0489856 0.117029 0.0277555 0.806419 -0.00271497 -0.0262349 0.0963724 8.25515e-05 0.00267942 0.00291422 0.0163686 -0.00346462 -0.00204147 0.00545614 0.00182062 -0.0171506 -0.0106609 0.0121804 0.00825092 -0.0104431 -0.00798218 -0.00145184 -0.0317214 0.0212596 0.0524712 -0.106056 -0.15305 0.700599 -0.0578164 -0.0319094 -0.0335274 -0.00574446 -0.00899716 -0.0111268 -0.00641089 -0.0140562 -0.0375193 0.000702028 0.00185649 -0.00204927 0.00807801 -0.002842 -0.000807598 -0.0187437 -0.00546866 0.0037077 -0.0157123 0.00265494 -0.00989489 -0.00944178 -0.00207782 -0.059911 0.108181 -0.0261018 -0.0646035 0.0209012 -0.0178073 0.00867126 -0.00137825 -0.00362797 -0.00420187 0.00259886 -0.000968687 -0.00185918 0.00168999 -0.01182 -0.00875329 -0.36225 0.000565232 -0.0380492 -0.0663234 0.00575112 -0.000350245 -0.010057 -0.0404119 -0.00474944 0.00380296 -0.0447053 -0.0129707 -0.0659513 0.00771377 -0.0256133 0.00581968 -0.0139503 -0.00487029 -0.00713656 -0.0245134 -0.00169418 0.0070548 -0.0174906 -0.0168673 -0.00202286 -0.0159312 -0.0198614 0.00525622 0.00213472 0.015585 -0.0717885 0.00805765 0.000450772 0.00563127 -0.000520459 -0.0190288 -0.0308619 0.0054777 -0.0496915 -0.0116766 -0.0225217 0.00418054 0.000530276 -0.00678186 -2.76648e-05 0.00128878 0.00839522 -0.00245106 -0.00589413 0.00053339 -0.0247304 -0.0369673 -0.0139614 0.0929209 -0.0975729 0.0347841 -0.027871 0.0435674 -0.00120069 -0.058145 0.0297549 -0.0199415 -0.00336482 -0.0113115 0.00231244 -0.00766417 -0.0443899 0.00404146 -0.0164549 0.0120277 -0.0108886 -0.00300965 
