-0.00101695 -0.001116 -0.00120647 -0.00088986 -0.000723659 -0.000621793 0.000337903 0.000959032 0.00325088 0.0179788 0.032709 0.0517914 0.0709056 0.0874127 0.0981117 0.0408232 0.098326 0.0139733 0.0113388 0.0515958 0.0330571 0.0177438 0.00302024 0.00236357 0.000233186 -0.000846457 -0.000343706 -0.0010653 -0.00110788 -0.00104679 -0.00115571 -0.00123893 -0.00214697 -0.00391178 -0.0028615 -0.0122553 -0.00728512 -0.0244003 -0.0300646 -0.0337833 -0.0349291 -0.01347 -0.0301601 -0.00996084 -0.0183319 -0.0119689 -0.00697728 -0.00388037 -0.00207235 -0.00126301 -0.00111079 -0.000656573 -0.000348684 -0.00124962 -0.00104214 -0.000925684 -0.000473424 -0.00165935 -0.000920304 -0.00413768 -0.00635402 -0.00953949 -0.00506288 -0.0152543 -0.0170418 -0.0173992 -0.0170809 -0.0060792 -0.0126357 -0.00954162 -0.00649428 -0.00393468 -0.00263642 -0.00154667 -0.000860031 -0.000185003 -0.000853819 -0.000727945 -0.000972361 -0.00110364 -0.00089925 -0.000964461 -0.00097407 -0.0018353 -0.00232131 -0.00336853 -0.00462047 -0.00598295 -0.00692318 -0.00805747 -0.00814639 -0.00763974 -0.00730525 -0.0059972 -0.00470327 -0.00344558 -0.00206382 -0.00173416 -0.0010931 -0.00103889 -0.000936119 -0.000978336 -0.00104037 -0.000755397 -0.000387758 -0.00107688 -0.0004411 -0.00039586 -0.00134439 -0.00199083 -0.00115589 -0.00371282 -0.00474697 -0.00550057 -0.00629257 -0.00642345 -0.00246106 -0.00586942 -0.00192695 -0.00358736 -0.00269475 -0.00207997 -0.000485116 -0.00122345 -0.000794177 -0.000714969 -0.000747304 -0.000424368 -0.00117787 -0.000555506 -0.000939169 -0.00106071 -0.000783418 -0.000705323 -0.00047846 -0.000505162 -9.73268e-07 5.67888e-05 0.000347248 0.000288735 0.000640644 0.000619835 0.000339609 0.000130137 -0.000104686 -0.000165505 -0.00047658 -0.00097932 -0.000904545 -0.000870266 -0.000415856 -0.000841416 -0.000780671 -0.000746114 -0.000122148 -0.00105151 -0.00106278 -0.00206773 -0.00390708 -0.0028996 -0.0123617 -0.0189938 -0.0103279 -0.0314962 -0.03531 -0.0365465 -0.0140342 -0.0313093 -0.0254346 -0.00762296 -0.00504032 -0.00750886 -0.00165761 -0.00222137 -0.00148509 -0.000434056 -0.00115372 -0.00102133 -0.000877743 -0.000874519 
-0.000986779 -6.95296e-05 -0.00117853 -0.000858133 -0.000110558 -0.000587967 0.000383573 0.0024709 0.00826971 0.00729664 0.0331537 0.00839568 0.0718237 0.035413 0.099364 0.10336 0.0995794 0.0884549 0.071784 0.00836408 0.0335052 0.0180027 0.00768758 0.000973896 0.000280029 -0.000813221 -0.000829011 -0.00103683 -0.00107903 -0.000405884 -0.00112545 -0.000482956 -0.00212216 -0.00389569 -0.00715225 -0.00491076 -0.0182614 -0.0244771 -0.0301682 -0.0135614 -0.0350547 -0.0337954 -0.0302657 -0.0249846 -0.018383 -0.0119881 -0.00278906 -0.00154484 -0.000817668 -0.00123294 -0.00108097 -0.000622898 -0.000335384 -0.0012227 -0.00040488 -0.000891822 -0.00115472 -0.00163697 -0.00228786 -0.000265299 -0.00639083 -0.00961368 -0.0127681 -0.0153967 -0.0172072 -0.00702836 -0.0172473 -0.0153428 -0.0127472 -0.00384623 -0.002613 -0.00394142 -0.00262452 -0.00152242 -0.000829062 -0.00112808 -0.00032836 -0.000695099 -0.000941155 -0.0004296 -0.000868292 -0.000931323 -0.000942221 -0.000722428 -0.000915808 -0.00333418 -0.00458285 -0.00237714 -0.00275137 -0.00801622 -0.00810044 -0.00759155 -0.00726338 -0.00595825 -0.00186647 -0.0013646 -0.00202807 -0.00170416 -0.00106145 -0.00100836 -0.000904194 -0.000379926 -0.00100984 -0.000721687 -0.000936053 -0.00104701 -0.00107128 -0.000955147 -0.00130889 -0.00195248 -0.00284636 -0.0036622 -0.00468822 -0.00217411 -0.00249058 -0.00635415 -0.00608369 -0.00580975 -0.00476072 -0.00353443 -0.00265321 -0.00204506 -0.00117647 -0.000476592 -0.000760974 -0.000681666 -0.000713059 -0.00103135 -0.000459756 -0.000207746 -0.0009118 -0.000416832 -0.000780797 -0.000747879 -0.00024293 -0.000122865 -0.000426771 -0.000448331 -0.000387135 -0.000104052 -0.000216992 -0.000204127 -0.000392455 -0.00046105 -0.000274562 -0.000675055 -0.000605877 -0.00102619 -0.000904723 -0.00013586 -0.001014 -0.000809177 -0.000747748 -0.000711736 -0.00073196 -0.00102215 -0.00103131 -0.00204554 -0.00389776 -0.00726119 -0.0124119 -0.0190913 -0.0259669 -0.012674 -0.0056842 -0.0367713 -0.0141199 -0.0314961 -0.0255763 -0.0191543 -0.0126535 -0.00752677 -0.0016543 -0.00219982 -0.0014579 -0.00105485 -0.00112346 -0.000395965 -0.000846361 -0.000839453 
-0.000913637 -0.000405424 -0.00110749 -0.000315978 -0.000249478 -0.000524404 0.000177165 0.00252348 0.00829728 0.0182225 0.0330752 0.0209247 0.0715773 0.0882148 0.0395992 0.102982 0.0992101 0.0881415 0.071539 0.0208466 0.0334229 0.0179854 0.00772188 0.00249281 0.000345676 -0.000742776 -0.000760248 -0.000969222 -0.00100989 -0.00037655 -0.000420876 -0.00113847 -0.000819124 -0.00381935 -0.00705915 -0.0121594 -0.0181264 -0.024316 -0.0299821 -0.0337033 -0.0348524 -0.0335985 -0.0120326 -0.0248231 -0.0182489 -0.0118797 -0.00687808 -0.0037803 -0.00197146 -0.00116174 -0.0010131 -0.000558542 -0.000307078 -0.000460916 -0.000946074 -0.00081997 -0.0004347 -0.00156951 -0.00223094 -0.00163557 -0.00635625 -0.0095938 -0.00204214 -0.0024645 -0.006891 -0.017601 -0.0172699 -0.00614132 -0.0050976 -0.00383733 -0.00649632 -0.00389127 -0.00255698 -0.00146099 -0.00076882 -0.001058 -0.000751323 -0.000629694 -0.00087058 -0.00100328 -0.000800031 -0.000868154 -0.000889508 -0.000707304 -0.00228888 -0.00339075 -0.00470405 -0.00613361 -0.00114102 -0.00332254 -0.00336039 -0.00315217 -0.00751535 -0.00614951 -0.00478753 -0.00346478 -0.00202808 -0.000266875 -0.00100697 -0.000943843 -0.000834873 -0.000881978 -0.000937884 -0.000652326 -0.000862449 -0.000979 -0.00100675 -0.000363363 -0.00128987 -0.00198708 -0.00295714 -0.00155474 -0.00501616 -0.00234336 -0.00670743 -0.00685208 -0.00656132 -0.00622718 -0.00509198 -0.00375904 -0.00277516 -0.00207652 -0.00116011 -0.00045574 -0.00069927 -0.000616825 -0.000649517 -0.000961938 -0.00108334 -0.000455309 -0.000848523 -0.000978472 -0.0007432 -0.000751662 -0.000696849 -0.000983998 -0.000802842 -0.000982473 -0.00105732 -0.000868704 -0.000401788 -0.000384819 -0.00105706 -0.00039734 -0.000424308 -0.000892708 -0.000694969 -0.00102949 -0.000863396 -0.000787977 -0.000945772 -0.000741179 -0.00027094 -0.00064171 -0.000660467 -0.000949974 -0.000945357 -0.00191995 -0.00367539 -0.0068676 -0.0117528 -0.018104 -0.00985624 -0.0120278 -0.0337232 -0.0349031 -0.013399 -0.029886 -0.0242487 -0.0181637 -0.0119958 -0.00713118 -0.00156305 -0.00206938 -0.00136424 -0.000982325 -0.00104806 -0.000919618 -0.000781168 -0.000769863 
-0.000784868 -0.000877456 -0.000969821 -0.000263202 -0.000200962 -0.0004027 0.000537584 0.00256053 0.00817354 0.00712932 0.0322596 0.00815386 0.0696884 0.0858659 0.0963489 0.100222 0.0965564 0.0343173 0.0696537 0.020309 0.0326023 0.0175911 0.00761436 0.000404784 0.000442604 -0.000617684 -0.000635886 -0.000334424 -0.000875703 -0.000809669 -0.000909907 -0.000993379 -0.00185579 -0.00353385 -0.00264038 -0.0114367 -0.00683308 -0.00917656 -0.0283143 -0.0318442 -0.0131718 -0.0317415 -0.0284127 -0.0234341 -0.0172007 -0.0111619 -0.0025702 -0.00349491 -0.00178261 -0.00101355 -0.000350036 -0.00043274 -0.000640435 -0.0010148 -0.000814464 -0.000695944 -0.000954068 -0.00142902 -0.00208558 -0.00392024 -0.00616521 -0.00936805 -0.012505 -0.0151131 -0.0169192 -0.0069172 -0.0169592 -0.0150644 -0.0124819 -0.00149871 -0.00252 -0.00149066 -0.00240281 -0.000528692 -0.00064031 -0.000922653 -0.000623732 -0.000201741 -0.000739791 -0.000868966 -0.00067425 -0.000746567 -0.000312432 -0.000670832 -0.00225668 -0.00344048 -0.0048596 -0.00639224 -0.0074836 -0.0034831 -0.00882546 -0.00829568 -0.00314402 -0.00640568 -0.00494064 -0.00351319 -0.00200587 -0.00158245 -0.000898747 -0.000819395 -0.000284737 -0.000748896 -0.00012927 -0.000527572 -0.000295106 -0.000845006 -0.000875512 -0.000785604 -0.00116678 -0.00187242 -0.00285216 -0.00152059 -0.00494983 -0.00580435 -0.00665769 -0.00680835 -0.00651858 -0.00246556 -0.00502178 -0.00367841 -0.00267428 -0.00195778 -0.00104178 -0.00101166 -0.00057332 -0.000492373 -0.000522901 -0.00083078 -0.00094326 -0.000333725 -0.00028663 -0.000839426 -0.000592447 -0.000572257 -0.000462224 -0.000653648 -0.0003631 -0.000427263 -0.000403519 -0.00016167 -0.00027017 -0.000255419 -0.00016301 -0.000441621 -0.000617385 -0.000565181 -0.000460718 -0.000337168 -0.000711705 -0.000653474 -0.000324441 -0.000245281 -0.000220772 -0.000518342 -0.000534839 -0.000817541 -0.000818158 -0.00178225 -0.00353193 -0.00670846 -0.0115695 -0.0178883 -0.0243857 -0.0297868 -0.0334185 -0.013837 -0.0331949 -0.0296056 -0.024004 -0.0179484 -0.0118058 -0.0069645 -0.00376009 -0.00193101 -0.00122992 -0.000850231 -0.000917721 -0.000788394 -0.000651449 -0.00064342 
-0.000541386 -0.0006275 -0.000717321 -0.000419141 -0.000271513 -0.000173274 0.000732763 0.00107742 0.00812381 0.0174504 0.0314143 0.0495008 0.0676076 0.0832517 0.0933918 0.0971401 0.0374366 0.0831883 0.0675773 0.049321 0.031744 0.00688908 0.00758199 0.000427148 0.000646239 -0.00015311 -0.00039788 -0.000591648 -0.000631286 -0.000563527 -0.000657097 -0.000738026 -0.00155108 -0.00314616 -0.00604492 -0.00424588 -0.0159539 -0.0214891 -0.0265728 -0.0299158 -0.0309416 -0.0119272 -0.0266715 -0.0219691 -0.00642792 -0.0103537 -0.00234661 -0.00124129 -0.00148195 -0.000752949 -0.000628376 -8.131e-05 -0.000399164 -0.000305732 -0.000573273 -0.00045594 -0.000287286 -0.00120121 -0.00190104 -0.00378149 -0.0024493 -0.00943223 -0.0126836 -0.00615324 -0.00690388 -0.0176664 -0.0172986 -0.0153403 -0.00506352 -0.00942984 -0.00625357 -0.00359796 -0.00220191 -0.00044126 -0.00016822 -0.000678627 -0.000152882 -0.000274155 -0.000197277 -0.000620696 -0.000173037 -0.00050394 -0.000533103 -0.000556628 -0.00193204 -0.00122324 -0.00440084 -0.00584999 -0.00688009 -0.00804843 -0.00815253 -0.00305993 -0.00724705 -0.00234438 -0.00447382 -0.00125047 -0.00169192 -0.000519708 -0.000647623 -0.000573601 -0.000473103 -0.000506297 -0.00056283 -0.000116607 -0.000493586 -9.63666e-05 -0.000641602 -0.00023534 -0.00102311 -0.000292331 -0.00295231 -0.00411093 -0.00545831 -0.00648748 -0.00744485 -0.00763255 -0.0073075 -0.00683117 -0.00552933 -0.00398897 -0.00278514 -0.00190387 -0.000896284 -0.000804437 -0.000351361 -0.000263262 -0.000291334 -0.000587288 -0.000696886 -0.000101298 -0.000191105 -0.000598324 -0.000375872 -0.000390111 -0.000141098 -0.000636032 -0.000188639 -0.000657084 -0.000294632 -0.000231264 -0.000278033 -0.000662627 -0.000737316 -0.000267445 -0.000717839 -0.000549723 -0.000351079 -0.000104425 -0.000492109 -0.000168396 -0.000227691 -0.000374398 -0.000313726 -0.000283115 -4.73568e-05 -0.000574953 -0.000561999 -0.0014788 -0.0012461 -0.00609975 -0.010663 -0.0066408 -0.0090846 -0.0277801 -0.0311958 -0.0051672 -0.0309754 -0.0276056 -0.0223382 -0.0166569 -0.00435596 -0.00634666 -0.00133407 -0.00161742 -0.000955725 -0.000600631 -0.000667818 -0.000546229 -0.000417215 -0.000404891 
-0.000178471 -0.000101964 -0.000139013 -5.9197e-05 2.86172e-05 6.5182e-05 0.00016396 0.00288853 0.00803996 0.00675536 0.030143 0.0473098 0.0257954 0.031737 0.0355842 0.0925264 0.0891475 0.0792837 0.0644641 0.0471423 0.0121844 0.00666876 0.00753541 0.00287069 0.000380279 -2.73659e-05 -1.97851e-05 -0.000232095 -0.000106623 -0.000194716 -0.000275164 -0.000360516 -0.00110684 -0.00103072 -0.00522903 -0.00942573 -0.00573148 -0.019405 -0.0240746 -0.0271502 -0.0280923 -0.0108242 -0.0241739 -0.0198606 -0.0144399 -0.00146963 -0.00506042 -0.00252574 -0.00104314 -0.000369564 -0.0001042 5.67812e-05 -4.41021e-05 -0.00015731 -0.000216656 -0.000101395 -0.000350265 -0.000809945 -0.00148464 -0.00327023 -0.0055221 -0.00868506 -0.0117914 -0.0143615 -0.0161617 -0.016563 -0.00259237 -0.0143262 -0.0117637 -0.00347108 -0.00564117 -0.003102 -0.0017552 -0.00072027 -6.91032e-05 -0.000123472 -2.79822e-05 7.30063e-05 -0.000134153 -0.000255118 -8.45417e-05 -0.000171322 -3.98806e-05 -0.00117957 -0.00191315 -0.0033179 -0.00500231 -0.00272126 -0.0032577 -0.00949234 -0.00966283 -0.00910967 -0.00849589 -0.00681223 -0.00507515 -0.00135108 -0.00168775 -0.00109993 -0.0003604 -0.000235665 -0.000124254 -0.000146137 -0.000200326 5.98603e-05 -5.47768e-05 -0.000239291 -0.000284515 -0.000259394 -0.000713634 -0.00157362 -0.00277159 -0.00405685 -0.00551183 -0.0066401 -0.00305993 -0.0078588 -0.00751806 -0.00278553 -0.00558336 -0.00394323 -0.00263023 -0.000262811 -0.000602872 -0.000184383 -6.19745e-06 3.25373e-05 5.43164e-05 -0.000226892 -0.000328131 0.000233851 -0.000128208 -0.000240926 -4.84912e-05 -0.000100698 -5.78224e-05 -0.000212704 -0.00051715 -0.000837634 -0.00103703 -0.000979708 -0.00110733 -0.000422648 -0.00103521 -0.000341268 -0.000754518 -0.000451941 -5.73264e-05 -0.000352824 -0.000156982 -7.25932e-05 -0.000206477 -2.15832e-05 3.81522e-05 6.77746e-05 5.73243e-05 -0.000207303 -0.000184846 -0.00102751 -0.00252024 -0.00523583 -0.00375372 -0.0148087 -0.0203748 -0.00999696 -0.0281066 -0.0291058 -0.0278933 -0.00397277 -0.020015 -0.0148589 -0.00960518 -0.00218763 -0.00108962 -0.00115956 -0.000558285 -0.000235744 -0.000298894 -0.000183179 -6.3052e-05 -5.01227e-05 
0.000311142 0.00024398 6.19228e-05 0.000415166 0.000531297 0.000610964 0.00138342 0.00305487 0.00767279 0.0156007 0.0274839 0.0171485 0.0582658 0.0286332 0.0801984 0.0834034 0.0321459 0.071533 0.0582459 0.0170898 0.0277688 0.00616232 0.00288994 0.00304679 0.00132207 0.00044512 0.000169692 0.000258039 0.000228199 0.000300365 0.000225442 0.000140038 -0.000536571 -0.00188068 -0.00429104 -0.00324328 -0.0125799 -0.0172053 -0.0214525 -0.00970056 -0.0251131 -0.024174 -0.0215444 -0.0176151 -0.0126831 -0.00789946 -0.00413651 -0.00182697 -0.000478599 0.000133933 0.000231955 0.000593383 6.87568e-05 4.60024e-05 0.000269633 0.000378203 0.00014769 -0.000278129 -0.000918833 -0.000411338 -0.00468836 -0.00122129 -0.0105335 -0.00517108 -0.0146103 -0.0150003 -0.0146502 -0.0129002 -0.00420208 -0.00762469 -0.00479334 -0.0024242 -0.00115035 -8.07684e-05 0.000393954 0.00019043 0.000444751 0.000532314 0.000139856 0.000238514 0.000391448 0.000304081 0.000210298 -0.000675772 -0.00142673 -0.00283881 -0.0045249 -0.00253076 -0.00769119 -0.00900514 -0.00918803 -0.00865658 -0.00800598 -0.00633542 -0.00459108 -0.00288742 -0.0012265 -0.000606647 1.7444e-05 0.000247603 0.000142607 0.000338466 0.000291248 0.00021071 0.000349186 0.000251857 0.00020517 0.000207475 -0.000241121 -0.00109221 -0.000911312 -0.00143622 -0.0050426 -0.00618991 -0.00718013 -0.00295715 -0.00282318 -0.00259039 -0.00511271 -0.00348855 -0.00216388 -0.00045994 -0.000144032 2.8759e-05 0.000453542 0.000537763 0.000204996 0.000263735 0.000170138 0.000271083 0.000345677 0.000240576 0.000378848 0.000267331 9.76726e-05 -0.000179219 -0.000677249 -0.00121121 -0.00159862 -0.000676104 -0.00184413 -0.00175627 -0.00159097 -0.000489032 -0.000890355 -0.000375707 9.84816e-05 1.54394e-05 0.000113716 0.000390565 0.00028216 0.000449393 0.000505096 0.00053329 0.000523937 0.00028377 0.000318748 -0.000163598 -0.00167209 -0.00397399 -0.00748714 -0.0120975 -0.00673092 -0.00829752 -0.0233899 -0.00969448 -0.0231983 -0.0205998 -0.0165001 -0.0121387 -0.00307508 -0.00418147 -0.00185035 -0.000522747 -1.31806e-05 0.000260625 0.000206958 0.000304591 0.000409927 0.000424406 
0.000913792 0.000861268 0.000780268 0.000401028 0.00109782 0.00116613 0.0018127 0.00321239 0.00283507 0.0137345 0.00947916 0.0366003 0.0198016 0.060677 0.0678955 0.0282362 0.0680367 0.0606346 0.0197966 0.0364809 0.0239399 0.0135686 0.00671198 0.00321486 0.00176154 0.00102448 0.00101033 0.000869366 0.000843388 0.000363692 0.000845379 0.00076406 7.57132e-05 -0.000966224 -0.0030268 -0.00251772 -0.0101267 -0.0140917 -0.0177261 -0.0201221 -0.0208622 -0.0200579 -0.0178054 -0.0144372 -0.0102163 -0.00244838 -0.00289316 -0.000366116 0.000238303 0.000762034 0.00084544 0.00115225 0.00101295 0.000299402 0.000875126 0.000965322 0.000763209 0.000151537 -0.000222513 -0.000689132 -0.00368156 -0.00637405 -0.00361661 -0.00449412 -0.0127788 -0.0131553 -0.00512548 -0.011213 -0.00900909 -0.0063672 -0.00150733 -0.00159945 -0.000411337 0.000440823 0.00038747 0.00032386 0.00102771 0.00110041 0.000379405 0.00085069 0.000981609 0.000896203 0.000794865 -1.44284e-05 -0.000299511 -0.00211143 -0.00149309 -0.00546115 -0.00679251 -0.00801809 -0.00820937 -0.00308924 -0.00705825 -0.00546697 -0.00378789 -0.000859516 -9.37522e-05 4.17963e-05 0.000703663 0.000851434 0.000379652 0.000942546 0.000897889 0.00110123 0.000377893 0.000862706 0.000325672 0.000795329 0.000369379 -0.000440209 -0.00156961 -0.00285201 -0.00424608 -0.00214552 -0.00100708 -0.00650488 -0.00619068 -0.00559966 -0.00430897 -0.00276694 -0.0014782 -0.000192624 0.000452216 0.000643756 0.00102419 0.00110219 0.00108026 0.000872277 0.000794169 0.00122672 0.000940956 0.000853329 0.00038426 0.000850434 0.00067296 0.000159546 -3.62761e-05 -0.00060637 -0.000981054 -0.0010981 -0.00123375 -0.00046286 -0.000973429 -0.00061309 -0.000273496 8.89748e-05 0.000673168 0.000104945 0.000882238 0.00097874 0.000893191 0.00103207 0.000431912 0.00110405 0.00109838 0.000889985 0.000927932 0.000319655 -0.000723415 -0.00262891 -0.00221273 -0.00934878 -0.00530624 -0.0165039 -0.018693 -0.00775716 -0.0074116 -0.006552 -0.00519492 -0.00938228 -0.00570109 -0.000447915 -0.000873168 9.06588e-05 0.000258883 0.000874525 0.000829125 0.000906897 6.38296e-05 0.00100718 
0.00160755 0.00157376 0.000601276 0.00168144 0.00175178 0.000723668 0.00230882 0.00339019 0.00102409 0.0115552 0.0192778 0.029279 0.0392779 0.0479517 0.0535425 0.00890212 0.0536567 0.0191653 0.0392757 0.0291917 0.0194733 0.011423 0.0061055 0.00340346 0.0022657 0.00169085 0.00168833 0.00157742 0.00155348 0.00160837 0.00156041 0.000593584 0.00103278 0.000101176 -0.00154958 -0.00166766 -0.00724207 -0.0104266 -0.0133375 -0.00610432 -0.0158551 -0.0152081 -0.00536036 -0.010696 -0.00292589 -0.00403218 -0.000575932 5.79324e-05 0.00106772 0.0014888 0.00155596 0.0017999 0.00168323 0.000592456 0.000630492 0.00163876 0.000590356 0.00114394 0.00059978 -0.000713041 -0.00245719 -0.00483021 -0.00719805 -0.00913342 -0.00419812 -0.0108475 -0.0105239 -0.00911191 -0.00286334 -0.00482477 -0.00252293 -0.000613467 0.000181421 0.00119077 0.0016385 0.00152598 0.00170141 0.00175758 0.00163963 0.00155794 0.000665368 0.0015797 0.00147382 0.00075262 4.26346e-05 -0.00050354 -0.00112045 -0.00177554 -0.00229016 -0.00684498 -0.00704674 -0.00264613 -0.00593598 -0.00443795 -0.00113674 -0.00051316 6.4108e-05 0.000794562 0.00139418 0.000619744 0.00163092 0.00164354 0.000255438 0.0017629 0.00162588 0.000626804 0.00151093 0.00145874 0.000414624 0.000230354 -0.000900861 -0.0022252 -0.0036389 -0.00191545 -0.0056964 -0.00592451 -0.00561766 -0.00496808 -0.00147583 -0.00215989 -0.000827359 8.4198e-05 0.00110574 0.00133668 0.00167877 0.00011228 0.00173724 0.00157469 0.00151685 0.00186146 0.000654076 0.00157499 0.00167741 0.00163291 0.00157343 0.00128937 0.00125591 0.00100181 0.000136026 0.000839214 0.000768972 0.000782434 0.000851853 0.00099936 0.000441836 0.00134198 0.000629204 0.000591684 0.00161688 0.00167212 0.00160269 0.00170554 0.000278643 0.00176104 0.00070478 0.000635484 0.00162139 0.000452 0.000288634 -0.00125972 -0.00360468 -0.00669218 -0.00985844 -0.0124733 -0.0142401 -0.014808 -0.00564284 -0.0123709 -0.00963773 -0.00671732 -0.00373602 -0.00138408 0.000166993 0.00105772 0.00139672 0.00158106 0.00154235 0.00160029 0.00167764 0.0016754 
0.00226495 0.00224517 0.000875264 0.000370091 0.00236066 0.000959712 0.00272199 0.00341585 0.00537916 0.0087304 0.0137448 0.00809852 0.0267353 0.012954 0.036003 0.0373814 0.0360817 0.0323576 0.0267391 0.0201945 0.0138743 0.00864141 0.00518622 0.0034442 0.00269002 0.00092656 0.000928888 0.00224522 0.000891764 0.00227372 0.000892744 0.00216225 0.000728072 0.00110363 -0.000155793 -0.00216417 -0.00453236 -0.00698886 -0.0092149 -0.0106787 -0.0111417 -0.0106481 -0.00370313 -0.00286758 -0.00458538 -0.000831104 -3.27003e-05 0.00114187 0.00184921 0.000866228 0.00222134 0.00239174 0.00231371 0.000871848 0.0022362 0.000910748 0.0021492 0.00187371 0.00138699 0.000286786 -0.00123485 -0.00324598 -0.00528489 -0.00694297 -0.00810534 -0.00337342 -0.00324961 -0.00692994 -0.00209738 -0.00129902 -0.00127692 5.68256e-05 0.00130043 0.00190294 0.00225282 0.00220311 0.00232449 0.00236572 0.00228778 0.00222391 0.0023036 0.000891224 0.00212232 0.00153863 0.000904041 -0.000239967 -0.00158635 -0.00120544 -0.00416529 -0.00203985 -0.00529854 -0.00494481 -0.00430265 -0.00120644 -0.00161616 -4.05768e-05 0.000971986 0.00156419 0.000821876 0.00221387 0.000911884 0.00229785 0.00225925 0.00238013 0.00227916 0.00223847 0.000878552 0.00216029 0.00186306 0.00130038 0.000519343 -0.000415907 -0.00139239 -0.00220772 -0.00283364 -0.00298843 -0.00277963 -0.00231424 -0.0005744 -0.000376451 0.000560007 0.00129719 0.00190919 0.000830304 0.00230839 0.00235936 0.00234333 0.00224089 0.000880568 0.000976256 0.000364386 0.00223707 0.0022813 0.000884588 0.0020874 0.00176346 0.00158791 0.00125125 0.000409576 0.00092597 0.000340631 0.000140764 0.00103001 0.00125889 0.00148417 0.00180198 0.00208634 0.00210664 0.00224535 0.00230028 0.00226995 0.0023315 0.00235905 0.00237246 0.00237519 0.00225026 0.00228776 0.000789624 0.00145806 0.000510696 -0.000922367 -0.00281552 -0.0047695 -0.00637348 -0.00745618 -0.0078047 -0.00736639 -0.00629825 -0.00462231 -0.00283404 -0.00040432 0.00043426 0.00138052 0.0019329 0.00213643 0.00225369 0.00223077 0.00225744 0.000924744 0.00230772 
0.0011401 0.00284122 0.00279532 0.0028737 0.00290827 0.00293228 0.00311699 0.00351188 0.00466495 0.00661576 0.0095337 0.0133127 0.00683304 0.0203834 0.0224757 0.0232923 0.00901112 0.0203618 0.017092 0.0132905 0.00961242 0.00262414 0.00454577 0.00355192 0.001237 0.00287398 0.00115778 0.00284043 0.00282566 0.00114438 0.00282078 0.00275484 0.000996404 0.00076172 0.000140706 -0.000296773 -0.00107018 -0.00468665 -0.00647792 -0.00306279 -0.00804001 -0.00763745 -0.00650284 -0.00479529 -0.00271501 -0.000277266 0.000933774 0.000773416 0.00250844 0.00276087 0.00281238 0.0011693 0.00287262 0.00279873 0.00282639 0.00284659 0.00275341 0.00253329 0.00211639 0.00122559 -1.78463e-05 -0.00168811 -0.00135159 -0.00474548 -0.00569688 -0.00239571 -0.00571207 -0.00473283 -0.00133462 -0.00169221 -6.94434e-05 0.00127011 0.00206869 0.00254563 0.00280929 0.00280558 0.002887 0.00291002 0.0028664 0.00281732 0.000460628 0.00112645 0.00273158 0.00230476 0.00182807 0.000943855 -7.06647e-05 -0.000184658 -0.00204355 -0.00273054 -0.00289229 -0.00263355 -0.00212357 -0.00115267 -8.58088e-05 0.000944864 0.00185744 0.00232246 0.00268061 0.00281403 0.00286059 0.00288309 0.00284882 0.00293109 0.00114275 0.00282794 0.00278222 0.00271908 0.0024284 0.00188995 0.00113013 0.00018438 -0.000775074 -0.00160191 -0.00218707 -0.00235165 -0.00215165 -0.000264704 -0.000809873 0.000207948 0.00115434 0.0019052 0.00246578 0.00266376 0.00284899 0.00289939 0.00115461 0.00283309 0.00280355 0.00118545 0.00285656 0.0028352 0.00113816 0.00279052 0.00268464 0.000972936 0.000909752 0.00200226 0.00182718 0.00173335 0.00168202 0.00169291 0.0018341 0.00202081 0.00220568 0.0024628 0.00268334 0.00272465 0.000452732 0.00287064 0.00286224 0.00289232 0.00290926 0.00292061 0.00292645 0.00283514 0.00287546 0.00269206 0.00242432 0.00190673 0.00114335 0.000125605 -0.000937756 -0.00179421 -0.000950416 -0.00256612 -0.00232217 -0.00174261 -0.00033813 0.000119493 0.00109173 0.00187403 0.00237576 0.00267636 0.0027834 0.00284942 0.00283821 0.00283856 0.00115118 0.00286622 
0.00129963 0.00325283 0.00321695 0.0013067 0.00328352 0.00330371 0.00338753 0.00356667 0.0041411 0.00509204 0.00650167 0.00133426 0.0101575 0.00471272 0.0127819 0.0131969 0.005127 0.0117655 0.0101736 0.00833678 0.00654741 0.00505751 0.00407317 0.00361496 0.00134618 0.00325497 0.00328384 0.00325239 0.00324011 0.00326516 0.00129482 0.00317914 0.00300182 0.00103485 0.00187521 0.00029518 -0.000618114 -0.00203557 -0.00328868 -0.00410851 -0.00175183 -0.00409943 -0.00132126 -0.00209661 -0.000644558 0.000764833 0.00191139 0.0026115 0.00301477 0.00318713 0.00322453 0.003296 0.00326213 0.00322475 0.00323172 0.00323226 0.00315392 0.0011777 0.001004 0.00163509 0.000348564 -0.00128256 -0.00298484 -0.00435483 -0.00530517 -0.000898476 -0.00531009 -0.00434503 -0.00293568 -0.00051702 0.000134534 0.00166681 0.000995684 0.0011796 0.00318329 0.00128678 0.00327243 0.00328836 0.00326743 0.00322648 0.00327426 0.00128565 0.00125443 0.00277853 0.00234466 0.000617536 0.000627019 -0.000341663 -0.00115891 -0.00174822 -0.00191145 -0.000679636 -0.00120356 -0.000339678 0.000621191 0.00154629 0.00234223 0.0027871 0.00123422 0.0032225 0.00325342 0.00328924 0.00325223 0.00331272 0.00130087 0.00324099 0.000511891 0.00314164 0.00291131 0.00248917 0.00189723 0.00114031 0.000154256 -0.000276611 -0.000289748 -0.000855555 -0.000707133 -0.000288469 0.000358952 0.00114915 0.000306006 0.00100673 0.00117644 0.00310391 0.00323886 0.00327615 0.00326544 0.00324034 0.00322778 0.00133287 0.00325973 0.00325601 0.00327168 0.00326844 0.00325673 0.00318323 0.000512717 0.00313697 0.00125615 0.00313862 0.00313468 0.00309947 0.00314278 0.00126366 0.00315769 0.00320628 0.0032551 0.00323043 0.00130603 0.00130908 0.00327607 0.00328099 0.00329242 0.00329655 0.00330759 0.00323843 0.00327375 0.00315656 0.0029948 0.00267673 0.00221398 0.000641224 0.00094828 0.000172328 8.21867e-05 -3.40291e-05 0.00011867 0.00047338 0.000998995 0.00159573 0.0021889 0.00106832 0.00296478 0.00315488 0.00321678 0.00326101 0.00325174 0.00129601 0.00327025 0.00325378 
0.00142358 0.00357091 0.00353987 0.00357326 0.00358053 0.00143857 0.00361022 0.00144882 0.0037652 0.00397978 0.00426483 0.00464856 0.00501898 0.00540028 0.00558477 0.00569409 0.0056119 0.00537109 0.00504 0.00465966 0.00171785 0.00396498 0.00373349 0.00367081 0.00358031 0.00355356 0.00359244 0.00357583 0.00356222 0.00357403 0.00355235 0.00139721 0.00335183 0.00120027 0.00238231 0.00139765 9.20408e-05 -0.00100754 -0.00207944 -0.00111282 -0.00301681 -0.00277156 -0.00208055 -0.00102572 0.000214542 0.00141797 0.0023984 0.00301142 0.00335467 0.00350286 0.00354622 0.000574772 0.00142216 0.00355814 0.00355291 0.00352772 0.0034891 0.00332964 0.00299399 0.00231267 0.00131188 4.79535e-05 -0.00129091 -0.00235346 -0.00123127 -0.00332856 -0.00307998 -0.00233181 -0.00123494 3.58967e-05 0.000524016 0.00234168 0.00297912 0.0033345 0.00350958 0.00141832 0.00357242 0.00358978 0.00142932 0.00354252 0.00143196 0.00351729 0.00343144 0.00308606 0.00104695 0.00177609 0.000807838 -0.000212373 -0.00108422 -0.00167143 -0.00186388 -0.0016579 -0.00110111 -0.000204232 0.000805009 0.000713652 0.00259144 0.00308748 0.00338521 0.00353416 0.00355919 0.00361185 0.00356389 0.00360848 0.00141872 0.00355962 0.00351504 0.00346154 0.00326213 0.00288999 0.000378616 0.00068126 0.00103697 0.000451409 7.15793e-05 -2.29682e-05 6.94786e-05 0.000184757 0.00102164 0.0016985 0.00238951 0.00292777 0.0013132 0.00343207 0.00353991 0.0035739 0.00356441 0.00355795 0.00355872 0.00361423 0.00358432 0.0014427 0.00367908 0.00383308 0.000660483 0.00072543 0.00511856 0.00564026 0.00615071 0.00103488 0.00656999 0.00641307 0.00613905 0.0022648 0.00203244 0.00455288 0.00412586 0.00381684 0.00147284 0.00361257 0.00360627 0.00143361 0.0035851 0.00358913 0.00360389 0.00355352 0.00142474 0.00345635 0.0032647 0.00115741 0.00236315 0.00167772 0.000953445 0.000364554 -2.00586e-05 -0.000159718 -1.60783e-06 0.000400662 0.000971156 0.00167031 0.00235651 0.000466534 0.00324073 0.0034553 0.00140884 0.00357292 0.000570482 0.00142014 0.0035848 0.00354665 
0.00147131 0.00368886 0.00365886 0.00368011 0.00368733 0.00369436 0.00367425 0.0036093 0.00141685 0.00339516 0.0031439 0.00282862 0.00250047 0.00227637 0.0020648 0.00203433 0.00208227 0.000900468 0.00252029 0.00284698 0.00315661 0.00339119 0.00353463 0.00366275 0.00364991 0.00146639 0.00370435 0.00369121 0.0036808 0.00147768 0.00366645 0.00360499 0.00138581 0.00124504 0.00249513 0.000606028 0.000336128 -0.000909777 -0.00197399 -0.00266936 -0.000465592 -0.00266549 -0.00197058 -0.000909673 0.000322578 0.00151942 0.00100148 0.00312447 0.00346742 0.00361246 0.0036591 0.00368959 0.00366549 0.00368181 0.00146712 0.00364501 0.00361369 0.00347608 0.00317579 0.0025914 0.00170452 0.000244559 -0.000561192 -0.00148762 -0.00211651 -0.0023472 -0.000847828 -0.000587952 -0.000509292 0.00059905 0.00170749 0.0026103 0.00317854 0.00347475 0.00361628 0.00366643 0.00368017 0.00369309 0.00368549 0.00365889 0.00369163 0.00145284 0.00354385 0.00323605 0.00111678 0.00199924 0.00109689 0.000139514 -0.000687985 -0.00122398 -0.00141017 -0.00122061 -0.000686489 0.000144585 0.00109415 0.000804928 0.00110366 0.00323471 0.00140165 0.00365139 0.00367791 0.00372314 0.0036831 0.00371598 0.00366731 0.00147059 0.00363757 0.003589 0.00341978 0.00310962 0.00267455 0.00210522 0.00155254 0.00104586 0.000735325 0.000627033 0.000292982 0.000428876 0.00153473 0.00209596 0.00268327 0.00314898 0.003433 0.00356997 0.00364797 0.00367654 0.00366567 0.00367602 0.00367446 0.00370818 0.00368993 0.00371112 0.00373927 0.00383182 0.00400146 0.00422669 0.00456237 0.00485197 0.00515903 0.00533837 0.00539801 0.0052902 0.00206188 0.00487843 0.00453815 0.0042425 0.0039993 0.00382481 0.00375088 0.00148385 0.00371992 0.00369117 0.00369198 0.00369709 0.00370955 0.0036715 0.00368968 0.00364944 0.00359451 0.00347146 0.00331919 0.000498832 0.00288647 0.00271217 0.00104146 0.00102178 0.00104352 0.0027382 0.00289035 0.00311529 0.00132764 0.00350309 0.00358447 0.00365842 0.00366998 0.00369263 0.00369374 0.00366703 0.00147731 0.00365887 
0.00372202 0.00149506 0.00370813 0.00372634 0.0014902 0.00373177 0.00369326 0.000573696 0.00135862 0.00304549 0.000993532 0.00176994 0.00104233 0.00047476 3.93615e-05 -1.1948e-05 5.25423e-05 0.000448474 0.000425276 0.00179214 0.00249376 0.00304598 0.00340302 0.00363528 0.00367058 0.00370873 0.00149747 0.00373754 0.00372862 0.00374045 0.00371992 0.00366131 0.00142133 0.00327093 0.00277685 0.00198665 0.00103953 1.21501e-05 -0.000821516 -0.00137853 -0.00157314 -0.00137559 -0.000816557 4.34557e-05 0.00102929 0.00031815 0.000444614 0.00328167 0.00355454 0.00146784 0.00371067 0.00373136 0.00370685 0.00373215 0.00371502 0.00368661 0.00366841 0.00355066 0.00328969 0.000445968 0.00201514 0.00107156 5.18114e-05 -0.000745768 -0.00051472 -0.00149435 -0.00128938 -0.000291361 0.000105033 0.00106052 0.00202267 0.00112125 0.00329867 0.00355053 0.00366921 0.00371746 0.00148906 0.00373498 0.000596616 0.00370659 0.00373115 0.00366996 0.00356662 0.00324204 0.00273953 0.00186953 0.000866408 -0.000192303 -0.0011085 -0.00169338 -0.0019004 -0.00169891 -0.0010994 -0.00018555 0.000863903 0.000753828 0.0010803 0.0032355 0.00352909 0.001476 0.0037178 0.00376881 0.001491 0.00375578 0.00370716 0.00372433 0.00368582 0.00363795 0.00348359 0.00319176 0.00278548 0.00225109 0.00173315 0.0012595 0.000972439 0.000346949 0.000963799 0.000515884 0.00171853 0.00223784 0.0011161 0.00323119 0.00349012 0.00362216 0.00147682 0.00371783 0.00370924 0.00372172 0.00372734 0.00374389 0.00149392 0.00375858 0.00151674 0.00389591 0.00408936 0.00435801 0.00473724 0.0050783 0.00542547 0.00224992 0.00569519 0.00557557 0.00541757 0.00510007 0.0047169 0.00437161 0.00163462 0.00389393 0.003804 0.00375476 0.00150648 0.00373365 0.00373131 0.00149474 0.00374838 0.00148746 0.00372841 0.00369213 0.00362592 0.00139608 0.00331697 0.00309042 0.00284099 0.00264381 0.00252491 0.0009878 0.00252624 0.00266709 0.00283687 0.00308829 0.00332132 0.00352664 0.00361938 0.00369975 0.00371289 0.00373709 0.00373808 0.0037136 0.000598293 0.00370172 
0.00378588 0.00380103 0.0037755 0.00378544 0.0037858 0.00379263 0.00374089 0.00144734 0.00338081 0.00293797 0.00089894 0.00137031 0.000472935 -0.00024627 -0.000773268 -0.000918533 -0.000763594 -0.000103914 0.000492442 0.00139494 0.00224539 0.00117484 0.00338939 0.00367271 0.0037229 0.0037689 0.00152232 0.003801 0.0015172 0.00380749 0.00378276 0.00373131 0.00363076 0.00134698 0.00291841 0.00219948 0.00132918 0.000161886 -0.000375213 -0.00035135 -0.00105893 -0.000881928 -0.000371034 0.000416789 0.000527176 0.00219383 0.00292578 0.0033821 0.00145526 0.00373706 0.00377158 0.00378655 0.00377584 0.00151857 0.00377676 0.00375469 0.00148609 0.00356535 0.00128814 0.00258001 0.00158663 0.000377763 -0.000922519 -0.000782568 -0.0026623 -0.00292391 -0.00266078 -0.00194779 -0.000871118 0.000362595 0.00159263 0.00103658 0.0032376 0.00356092 0.00148161 0.00377416 0.0037854 0.00379149 0.00151879 0.0037715 0.00379956 0.00374997 0.00367547 0.00343372 0.00307693 0.00242617 0.0016951 0.000368943 9.6732e-05 -0.000183526 -0.000339087 -0.000192591 0.000102408 0.000369739 0.000679256 0.00243834 0.00303624 0.00343052 0.00363689 0.00376935 0.00151451 0.00382772 0.00151754 0.00381919 0.00378239 0.00379002 0.00150309 0.00371525 0.0035792 0.00333967 0.00300658 0.00255011 0.00212353 0.00171667 0.00148189 0.00140022 0.00147696 0.00175552 0.00210552 0.00253905 0.00300489 0.00337858 0.00143686 0.0014812 0.00375485 0.00377612 0.00376822 0.0037864 0.00378984 0.00381039 0.00379168 0.00380318 0.00379158 0.00380128 0.00380772 0.00152108 0.00153458 0.00153182 0.00387944 0.00388261 0.00389295 0.00384475 0.00388018 0.00385765 0.00153022 0.00381666 0.001522 0.00380127 0.00380252 0.0037953 0.00382304 0.00379593 0.0037967 0.00379912 0.0015237 0.00377875 0.00152192 0.00379583 0.00381158 0.00382107 0.00385683 0.003911 0.00393143 0.00397047 0.00160196 0.00400531 0.00400533 0.00399363 0.00392401 0.00156388 0.00386679 0.000616628 0.00152448 0.00381407 0.00379974 0.00152328 0.000609664 0.00377786 0.00151818 0.00377082 
0.00153731 0.00385654 0.00382893 0.00383961 0.00384494 0.00384993 0.00380362 0.00368594 0.00346911 0.00306248 0.00242571 0.000643152 0.000779971 0.000119829 -0.000370573 -0.000505556 -0.00035862 9.79772e-05 0.000800061 0.00163255 0.00242803 0.00122535 0.00138956 0.00374002 0.00151277 0.0038257 0.00386749 0.00385852 0.00384723 0.00386039 0.00383168 0.00377347 0.0036503 0.00332513 0.00275658 0.00186323 0.00031219 -0.000368242 -0.00133674 -0.00197046 -0.00219308 -0.00196796 -0.00133 -0.000354346 0.000768113 0.00186082 0.00276524 0.00333508 0.00365152 0.0037814 0.00382631 0.00384369 0.00382596 0.00385374 0.000613656 0.00380943 0.00378336 0.000584821 0.00336523 0.00281735 0.00197476 0.000945741 -0.000166168 -0.00104297 -0.00163554 -0.000744512 -0.00163883 -0.00102616 -4.58492e-05 0.000933372 0.00198048 0.0028311 0.00337475 0.00365038 0.00151005 0.00383464 0.00384332 0.00384945 0.00154031 0.00382684 0.00385647 0.00380505 0.00373004 0.0034811 0.00311971 0.00245371 0.00171191 0.000919995 0.000228466 -0.000204774 -0.000145342 -3.37798e-05 9.68496e-05 0.000926785 0.00171481 0.000988512 0.00308022 0.00139196 0.0036961 0.00382492 0.00384411 0.00388762 0.00384984 0.00154982 0.00383256 0.00384144 0.00379962 0.00373714 0.00354916 0.00320972 0.00272605 0.00083522 0.0014712 0.00090484 0.000564134 0.000440539 0.00055879 0.000375833 0.00145523 0.002078 0.00273206 0.00325207 0.00356404 0.0037234 0.000607866 0.00383201 0.00382378 0.00384284 0.00384246 0.00386327 0.00385341 0.0038725 0.00388244 0.00394975 0.00406938 0.00422851 0.00178715 0.00466919 0.00195935 0.0020084 0.00202692 0.00497586 0.00489526 0.00187931 0.0044522 0.00169768 0.00406685 0.00157982 0.00389633 0.0038655 0.00388283 0.0038523 0.00384988 0.00385585 0.00386716 0.00153394 0.00385486 0.00383567 0.00382721 0.00377746 0.00373944 0.00369127 0.00144564 0.00357077 0.00354901 0.0014108 0.00354663 0.00143685 0.00360886 0.003694 0.0037483 0.00381654 0.00382206 0.00385104 0.00153895 0.0015443 0.00386401 0.00383152 0.00154174 0.00382017 
0.00151028 0.00379297 0.00376834 0.0037782 0.00377759 0.00378656 0.00373256 0.00360202 0.00335347 0.0028897 0.00216264 0.00123502 0.000290981 -0.000463427 -0.00101511 -0.00117499 -0.00100226 -0.00048464 0.000125749 0.0012603 0.000866096 0.00289018 0.00335887 0.00365731 0.00370938 0.00375685 0.00152011 0.00379582 0.00378439 0.00151731 0.00377374 0.00371907 0.00362557 0.00336287 0.00291051 0.00219013 0.00132389 0.000400145 -0.000379202 -0.000887472 -0.000426272 -0.000885653 -0.000373379 0.000414295 0.000525984 0.00218921 0.00291765 0.0033724 0.00362538 0.00149181 0.00376534 0.00378144 0.00150508 0.00379 0.00376993 0.00373867 0.00370866 0.00142618 0.00323542 0.00261084 0.000662568 0.000481582 -0.000780975 -0.00177985 -0.00245939 -0.00108421 -0.00245778 -0.00176313 -0.00029031 7.48038e-05 0.00166276 0.00262609 0.00324415 0.00142436 0.00370322 0.00376816 0.00377745 0.00378485 0.00378802 0.00376357 0.00379155 0.0014945 0.00366254 0.00340157 0.00302063 0.00232597 0.00154131 0.000285764 -4.05952e-06 -0.000464426 -0.000633259 -0.000478929 2.93027e-07 0.0002888 0.00154583 0.00233895 0.00297648 0.0033987 0.00362302 0.0037586 0.00150936 0.00153023 0.00378301 0.0038087 0.00376393 0.00377959 0.00149488 0.00367612 0.00139888 0.00317135 0.0027103 0.00210109 0.00150798 0.000969612 0.00064513 0.000527264 0.000635618 0.000161347 0.00149526 0.000334242 0.00272025 0.00321662 0.00140532 0.00366243 0.00373873 0.00376802 0.00375994 0.00377759 0.00378338 0.00380171 0.00151759 0.0015286 0.00154449 0.003985 0.00421434 0.00181837 0.00500277 0.00541825 0.00233413 0.00607592 0.00616595 0.00602928 0.00582742 0.00217818 0.00498473 0.00455998 0.00421216 0.00398734 0.00154924 0.00381321 0.00382339 0.00378841 0.00378656 0.00378778 0.00380373 0.00377008 0.00378607 0.00150242 0.00371691 0.00361742 0.00350143 0.00335655 0.00317968 0.00305212 0.00297506 0.00293651 0.00119105 0.00307653 0.00317106 0.00335412 0.00351245 0.0036575 0.00370994 0.0015079 0.00377752 0.000607454 0.00379491 0.00376603 0.00378947 0.00375376 
0.00375942 0.00377423 0.00374829 0.00375928 0.00150446 0.00376732 0.00148585 0.00358092 0.00332704 0.00285778 0.00212073 0.000471536 8.91852e-05 -0.00054289 -0.00110469 -0.000506592 -0.00109254 -0.0005665 9.78104e-05 0.00120351 0.00212282 0.00286037 0.00333502 0.00145409 0.00369079 0.00374144 0.00378313 0.00377741 0.00376703 0.00377647 0.00375271 0.00369556 0.00358517 0.00329194 0.00277915 0.0019649 0.000984082 -5.93203e-05 -0.000939489 -0.000605248 -0.00171489 -0.00151146 -0.000932199 -4.31127e-05 0.000389915 0.00196331 0.00278284 0.00052812 0.00358592 0.00370377 0.00374579 0.00376256 0.00374339 0.00377255 0.00375274 0.0014891 0.000236691 0.00356825 0.00327232 0.00108406 0.00184757 0.000792363 -0.00034785 -0.00124659 -0.00185423 -0.0020833 -0.000741712 -0.00122893 -0.0002945 0.000311393 0.00185432 0.00109006 0.00328171 0.00356478 0.00369259 0.00375262 0.00375812 0.00376771 0.00150712 0.00149778 0.00377253 0.00371697 0.00145478 0.0033682 0.00296762 0.0022472 0.000572756 0.000568949 -0.000185341 -0.000262918 -0.000833115 -0.000669707 -0.000172004 0.000575171 0.0014334 0.000904512 0.00292501 0.00336479 0.00359916 0.00373892 0.00150321 0.00380683 0.00150638 0.00151635 0.00374701 0.00376202 0.00372337 0.00367333 0.0035161 0.00323036 0.00113126 0.00229558 0.00178205 0.00130742 0.0010266 0.00092283 0.00040702 0.00053816 0.00176807 0.000365182 0.0028362 0.00327336 0.00352835 0.00365976 0.00148976 0.00375072 0.00374151 0.00376051 0.00376442 0.00377987 0.00377411 0.00380034 0.00153305 0.000101013 0.00415465 0.00178056 0.00486103 0.00209343 0.00561159 0.00233201 0.00590771 0.0057822 0.00560495 0.000841744 0.00484427 0.00446522 0.00166093 0.00157924 0.00153862 0.00379278 0.00380533 0.00376945 0.00376741 0.00377067 0.00378437 0.00375373 0.00376821 0.0037442 0.00371244 0.00363029 0.00354026 0.00137092 0.00328441 0.00318279 0.00124994 0.00123634 0.00312385 0.00320565 0.00327475 0.00342545 0.0035498 0.00367072 0.00148292 0.00375738 0.00150396 0.00377776 0.00377909 0.00149966 0.00377286 0.00373633 
0.00153405 0.0015396 0.00382063 0.00383491 0.00153445 0.00153625 0.00379113 0.00366218 0.00341558 0.00296425 0.00225312 0.00135016 0.000429909 -0.000307172 -0.00085226 -0.00100216 -0.000336882 -0.000327586 0.000448208 0.00137399 0.00225419 0.00296613 0.00342763 0.00371416 0.00377005 0.00382028 0.00154191 0.00384959 0.00153706 0.00385659 0.00382933 0.00377329 0.00365482 0.0033606 0.00113833 0.00202207 0.000411748 -2.63276e-05 -0.000916208 -0.00149133 -0.00169668 -0.00149346 -0.000909907 -4.07484e-06 0.00101846 0.00201869 0.00113862 0.00337324 0.00366236 0.00377697 0.0038199 0.00383707 0.00382091 0.00384571 0.0015307 0.0038024 0.00377525 0.00364567 0.00335499 0.00280786 0.00195686 0.000371372 -0.000186664 -0.00106612 -0.00166135 -0.00188877 -0.00166185 -0.000421544 -0.000134898 0.000913761 0.0019643 0.00282115 0.00337084 0.0036449 0.00376807 0.00382715 0.00153277 0.00384336 0.00384159 0.00381797 0.00384499 0.00379068 0.00369736 0.00136548 0.00297575 0.0022066 0.00132939 0.000400664 -0.000410226 -0.000919572 -0.00110496 -0.000927009 -0.000393384 0.000402322 0.00132736 0.00088806 0.00293552 0.00340804 0.00146369 0.00381017 0.00383508 0.00387776 0.00384208 0.00386827 0.00153103 0.00383953 0.00381046 0.00378332 0.00367562 0.00348254 0.00321974 0.00114396 0.00252914 0.00220304 0.00202102 0.00195444 0.00201407 0.00223931 0.00251095 0.00113837 0.00321826 0.00351917 0.00368184 0.00150776 0.00380965 0.00382713 0.00381801 0.00383545 0.00383956 0.00385447 0.00153621 0.00385422 0.00385082 0.00388042 0.00392737 0.00397722 0.00163072 0.00414037 0.000679827 0.00429384 0.00431067 0.00424964 0.00424745 0.00166652 0.0040647 0.00159637 0.00392421 0.00388021 0.00154551 0.00384829 0.00387448 0.00384385 0.00384314 0.00384849 0.00385637 0.00382974 0.00384711 0.00383103 0.00381476 0.0037751 0.00373676 0.00369367 0.00362017 0.00142933 0.00355575 0.00353471 0.00355264 0.00359625 0.00361104 0.00147662 0.00374435 0.00380975 0.0038145 0.00384514 0.00383823 0.00385368 0.00385826 0.00153096 0.0015394 0.00381826 
0.00376079 0.00150918 0.00374552 0.00375275 0.00375555 0.00150245 0.00148016 0.00142561 0.00131604 0.00278415 0.000802368 0.000402356 -1.15173e-05 -0.000333113 -0.00143066 -0.00159797 -0.00142384 -0.000847751 8.50032e-06 0.00103226 0.00200055 0.00278836 0.00330652 0.00362275 0.00368567 0.0014964 0.00377751 0.00377006 0.00376318 0.00377939 0.00375146 0.00369247 0.00358032 0.00328303 0.00277691 0.00197075 0.000393441 -5.60234e-05 -0.000930359 -0.000599608 -0.00170449 -0.0015038 -0.000925431 -4.03735e-05 0.000972324 0.00195711 0.00111276 0.00329935 0.00358367 0.00369971 0.0037387 0.00375095 0.00374355 0.00150755 0.00374525 0.00372674 0.00369373 0.00142508 0.00325552 0.0026982 0.00181427 0.000753149 -0.000394499 -0.00130144 -0.00192121 -0.00215986 -0.00192362 -0.00129229 -0.000138508 0.000740855 0.000728828 0.00270465 0.0032797 0.00355307 0.00367637 0.00374841 0.00375388 0.00375849 0.00376514 0.00374181 0.00376783 0.00371241 0.00362618 0.00336655 0.00296491 0.00224792 0.00144194 0.000584762 -2.69869e-05 -0.000635792 -0.000806779 -0.000644012 -0.000151553 0.000586936 0.00057698 0.0022646 0.0029244 0.00134481 0.00359176 0.00373378 0.00375793 0.00379713 0.00376633 0.00151498 0.00375391 0.00375794 0.00372281 0.00366814 0.00351316 0.00323507 0.00113841 0.00230849 0.00180849 0.00133166 0.000169056 0.000960538 0.00105377 0.00137535 0.00178837 0.0022961 0.0028369 0.00327692 0.00352117 0.00366119 0.00371787 0.00374209 0.00373145 0.00375739 0.00150225 0.00376985 0.00375819 0.00377557 0.00375186 0.00375913 0.00375609 0.00373566 0.00149756 0.00371893 0.00375193 0.00374221 0.00375085 0.00370669 0.0037562 0.00149964 0.00373372 0.00374771 0.00150161 0.00376104 0.00376941 0.00376562 0.00379498 0.00376329 0.00150606 0.0015075 0.00378035 0.00375291 0.00378682 0.0038168 0.00391822 0.00407788 0.00435283 0.00469864 0.00502416 0.00532098 0.00552345 0.0055799 0.0055195 0.00213489 0.00501589 0.00470104 0.00174419 0.00411612 0.00156914 0.00383777 0.00378917 0.00377879 0.00378578 0.00374826 0.00376307 0.00373766 
0.00379919 0.00152473 0.00151399 0.00379529 0.0037981 0.00152072 0.00374956 0.00362084 0.00134824 0.00290786 0.00218708 0.00126939 0.000133005 -0.000420718 -0.000973375 -0.00112494 -0.000964706 -0.000174275 0.000350792 0.00129397 0.00218344 0.00290939 0.0033826 0.00367627 0.00373157 0.00151285 0.0038179 0.00152466 0.00380488 0.00382028 0.00379124 0.00373637 0.00144774 0.00332452 0.00281616 0.00200395 0.00101793 -2.56945e-05 -0.000906381 -0.00147463 -0.00167924 -0.00147924 -0.000901044 -1.18791e-05 0.00100635 0.0019959 0.00282044 0.00333947 0.001451 0.00149614 0.00378041 0.00379576 0.00151444 0.00060932 0.00378773 0.00376765 0.00373118 0.00358999 0.0032666 0.00266859 0.00173337 0.00060409 -0.000246397 -0.00158411 -0.00224279 -0.00249092 -0.00224265 -0.00157528 -0.00022646 0.000588885 0.00173987 0.002679 0.00131453 0.00143412 0.00371812 0.00378705 0.00379486 0.00380263 0.00380637 0.00378149 0.00380998 0.00375886 0.00367778 0.00342664 0.00304758 0.00236566 0.0015985 0.000784302 6.81271e-05 -0.000377862 -0.000541772 -0.000385416 3.40615e-05 0.00078457 0.000639488 0.00237885 0.0030077 0.00136914 0.00364019 0.00151142 0.00379993 0.00383821 0.00380628 0.00383072 0.0037955 0.00152063 0.00377256 0.00373896 0.00362148 0.00341703 0.00313595 0.00274392 0.00238691 0.000813428 0.00183714 0.00176858 0.000733256 0.00207372 0.00236696 0.00273158 0.00313094 0.00345486 0.00363079 0.00372771 0.00376872 0.00378704 0.00151097 0.00151936 0.00379943 0.0038174 0.00152011 0.00152457 0.00378972 0.0037861 0.00376541 0.00148656 0.00369179 0.00363031 0.00363232 0.00360636 0.00360363 0.00356827 0.00363529 0.00365955 0.00147292 0.00372985 0.00376271 0.00151456 0.00380345 0.00380354 0.00153388 0.00380589 0.00380727 0.00381101 0.00381979 0.00379173 0.00381939 0.00382365 0.00386528 0.00392494 0.00403728 0.00418685 0.00172211 0.00442565 0.00451504 0.00453271 0.00451219 0.00444689 0.00429662 0.00418608 0.00161831 0.00395874 0.00386766 0.00153708 0.00381609 0.00381945 0.0038249 0.00151598 0.00380687 0.00378226 
0.00374798 0.00376031 0.00373369 0.00374878 0.00375377 0.00150456 0.00372227 0.00362086 0.00138118 0.00125258 0.00261658 0.000786672 0.00129986 0.000780926 0.000380894 0.000112472 0.000157976 0.000304428 0.0013188 0.00198802 0.00262037 0.00125176 0.00138119 0.00367457 0.00369864 0.00149327 0.0037724 0.00376403 0.00150186 0.0015068 0.00149551 0.00368367 0.00355678 0.00324061 0.00268731 0.00180656 0.000746943 -0.000377014 -0.00133292 -0.00195166 -0.000867664 -0.00195167 -0.00132764 -0.000147921 0.000735017 0.0018074 0.00269397 0.00130084 0.00356368 0.00368848 0.00373149 0.00375456 0.00373711 0.00375645 0.00374004 0.00148638 0.00367946 0.00141266 0.00320162 0.00257135 0.00160876 0.000428923 -0.000840133 -0.00184824 -0.00253153 -0.00278159 -0.00253061 -0.0018343 -0.000787905 0.000413001 0.00161269 0.0010353 0.00320956 0.0035303 0.00367547 0.00373622 0.00374827 0.00375935 0.00375778 0.00373118 0.00150545 0.00148472 0.00363741 0.00135119 0.0030073 0.00233076 0.0015687 0.000761082 5.49601e-05 -0.000392865 -0.000555705 -0.00039779 2.58802e-05 0.000305385 0.00156899 0.00234163 0.00296961 0.00337662 0.00143876 0.0014925 0.00375031 0.00379267 0.000240325 0.000605507 0.000598728 0.0037515 0.00371936 0.0014743 0.0035555 0.0033267 0.00120355 0.00258395 0.00218198 0.0017988 0.00157589 0.000598928 0.00157089 0.00183235 0.00216442 0.00257313 0.00120616 0.00336495 0.00356965 0.00366892 0.00372224 0.00149748 0.00373411 0.00374864 0.00375021 0.00377713 0.00375891 0.0015098 0.00378606 0.00384279 0.0039426 0.00407022 0.00427553 0.00443755 0.00463489 0.00189624 0.00477661 0.00187832 0.00463249 0.00178639 0.00425926 0.00408555 0.00394004 0.00384024 0.00379693 0.0037697 0.00378913 0.00376019 0.00376071 0.00376412 0.00377475 0.00149632 0.00150407 0.0037285 0.00369086 0.00360384 0.003496 0.00336565 0.00319737 0.00307659 0.00300602 0.00296968 0.00300775 0.00310296 0.00319293 0.0033622 0.00350255 0.00363604 0.0036853 0.00374239 0.00374738 0.00376752 0.00376914 0.00373905 0.00376174 0.00373181 
0.00385042 0.000617861 0.0038342 0.00384883 0.00385538 0.00154442 0.00381553 0.00369453 0.0013949 0.00309624 0.00247401 0.00026941 0.000350654 9.6914e-05 -0.00023963 -0.0003665 -0.000225188 0.000218236 0.000358938 0.00170647 0.000990536 0.00123909 0.0034907 0.00375335 0.00378924 0.00383309 0.00387591 0.00386666 0.00385713 0.00154706 0.00383745 0.00377601 0.00363595 0.00328753 0.00267475 0.00169876 0.000523151 -0.000720628 -0.00177878 -0.0024646 -0.00270586 -0.00246468 -0.00177163 -0.000710535 0.000512353 0.00169758 0.00267781 0.00329811 0.00145622 0.00378154 0.00383017 0.0038541 0.00383555 0.00385965 0.0038403 0.00381354 0.00377993 0.00363337 0.00330496 0.00267691 0.000686124 0.000215892 -0.000728488 -0.0017333 -0.00241206 -0.00266229 -0.00241107 -0.00171611 -0.000674324 0.000522958 0.00172013 0.00269434 0.00331365 0.0014522 0.00377505 0.00383864 0.00153866 0.00386038 0.00385758 0.00153232 0.00386477 0.00380625 0.00372485 0.00344105 0.00121113 0.00228309 0.000576368 0.000548108 -0.000232667 -0.00028986 -0.000907287 -0.000732881 -0.000221447 0.000550504 0.0014392 0.00229434 0.002987 0.00343899 0.00368214 0.00382902 0.00154051 0.00389708 0.00385658 0.00388562 0.0038412 0.00385292 0.00381968 0.00378766 0.00366026 0.003436 0.00125042 0.00270988 0.000927372 0.00194074 0.0017256 0.00164813 0.00171915 0.00197971 0.00230054 0.00107851 0.0031337 0.00347818 0.00367261 0.00377181 0.00382307 0.00384369 0.00383122 0.00154016 0.00385095 0.00154974 0.00386225 0.00388709 0.00391255 0.00160507 0.00419433 0.00177756 0.00480008 0.002046 0.00544779 0.0056411 0.00570465 0.00559194 0.0021777 0.00514589 0.00478202 0.00445845 0.00419223 0.00401251 0.00392756 0.00388092 0.00389696 0.00386028 0.00386134 0.00386403 0.0038776 0.00384359 0.00386305 0.00384154 0.00382058 0.00150557 0.00148348 0.00364121 0.0035376 0.0034717 0.00343781 0.00341264 0.00343784 0.00139898 0.00352977 0.00363648 0.000594384 0.00152069 0.00381588 0.00385586 0.00385198 0.00386885 0.00387181 0.00383906 0.00386314 0.00382854 
0.00150036 0.00376479 0.00373837 0.00374966 0.00375098 0.00375586 0.00370336 0.00357162 0.00132739 0.00285104 0.00211941 0.00118755 0.000237378 -0.000523964 -0.00108347 -0.00124011 -0.00107322 -0.000543047 0.000257553 0.00121193 0.000847512 0.00285329 0.00133179 0.00362679 0.00368279 0.00373359 0.00377122 0.00376578 0.00375794 0.00377023 0.0037451 0.00368899 0.00143136 0.00131721 0.00111966 0.00200863 0.00105346 4.0313e-05 -0.000815076 -0.00136891 -0.00156649 -0.00137119 -0.000323691 2.19861e-05 0.00104353 0.0020033 0.00280191 0.00330566 0.00143326 0.00147804 0.00149394 0.00375114 0.00149478 0.00376172 0.0037411 0.00371639 0.00147412 0.00354866 0.00323604 0.00265125 0.00174317 0.000640764 -0.000549823 -0.0014915 -0.00213143 -0.00237205 -0.00213081 -0.00147897 -0.000199258 0.000250444 0.0017501 0.00266372 0.00325182 0.00354463 0.00367629 0.00374127 0.00374743 0.00375698 0.00375853 0.00373446 0.00376205 0.0037068 0.00144888 0.00335137 0.00294041 0.00220914 0.00137915 0.000501548 -0.000107008 -0.000748678 -0.000370415 -0.000759056 -0.000252954 0.000201666 0.00137909 0.00222188 0.0011596 0.00334685 0.00358341 0.00372802 0.00149982 0.00379388 0.001503 0.0037825 0.00374288 0.0037541 0.00372159 0.000589328 0.00355527 0.00332603 0.00120368 0.00257708 0.00217298 0.0017857 0.00156441 0.00148495 0.00155765 0.00182545 0.00215578 0.00256358 0.00120376 0.00336622 0.00356456 0.00367121 0.00372081 0.00149636 0.00373101 0.00375086 0.00375404 0.00376996 0.00375825 0.0037779 0.0037844 0.00384113 0.00393854 0.00406789 0.0042674 0.00442993 0.00462606 0.00472582 0.0047649 0.00468322 0.00462426 0.00445759 0.00425401 0.00408084 0.0039361 0.00384246 0.00151934 0.00377024 0.00379219 0.00150366 0.0037595 0.00376231 0.00377397 0.00374508 0.00376642 0.00060144 0.00376709 0.00150616 0.00378971 0.00382377 0.00382833 0.00385113 0.00387617 0.00387159 0.00387494 0.00387324 0.00152756 0.00152854 0.003798 0.00380201 0.00376639 0.00377471 0.00376045 0.00377018 0.00377343 0.00374149 0.00376138 0.00373132 
0.00378062 0.00379847 0.0037728 0.00378628 0.00378358 0.00379341 0.00374352 0.00144828 0.00339425 0.0029701 0.00229974 0.00145033 0.000580379 -0.00010674 -0.000617637 -0.000759888 -0.000604112 -5.1094e-05 0.000603948 0.000589768 0.00230461 0.00296937 0.00135976 0.00367602 0.00372043 0.00376353 0.00380398 0.00380024 0.00379034 0.00379985 0.0037824 0.00149098 0.00363661 0.00338652 0.00295863 0.000907304 0.00144217 0.000560971 -0.000185169 -0.000669487 -0.000839592 -0.000669068 -0.00018085 0.000572462 0.00143346 0.00226822 0.00296383 0.00339819 0.000582163 0.00149491 0.00150842 0.00151594 0.00377021 0.00060698 0.00377382 0.00149739 0.00371054 0.00356089 0.000514869 0.00256751 0.00157205 0.000347566 -0.000966189 -0.00200624 -0.00271631 -0.00119062 -0.0027135 -0.00199124 -0.000909835 0.000332911 0.0015786 0.00258352 0.00322807 0.00355793 0.00370779 0.00377238 0.00378232 0.00379247 0.0037934 0.00150723 0.00379553 0.003736 0.00365127 0.00335892 0.00292295 0.00214723 0.00125929 0.000327651 -0.000194566 -0.00100195 -0.00118967 -0.000406024 -0.000191359 0.000333584 0.00050456 0.00086318 0.00287923 0.00335416 0.00360826 0.00375849 0.00377687 0.00383084 0.00151512 0.00381623 0.000603144 0.00378675 0.00149908 0.00369717 0.00354093 0.00325399 0.00285414 0.00232159 0.00180677 0.00133573 0.000168554 0.000952405 0.00104384 0.00137384 0.00071716 0.0023084 0.00114467 0.00329775 0.00355416 0.00368239 0.00375182 0.00377605 0.00376725 0.00378227 0.00378994 0.00152386 0.00379801 0.0038249 0.00386536 0.00159353 0.00168115 0.00451792 0.00495746 0.00214128 0.00575388 0.00598372 0.0060698 0.0059369 0.00574602 0.00537861 0.00493808 0.0045313 0.00420056 0.00398457 0.00387617 0.00381796 0.00382937 0.00379464 0.0015177 0.00379461 0.00381045 0.00377656 0.00379228 0.00150354 0.00370864 0.00359902 0.0034624 0.00329041 0.00308633 0.00117359 0.00113689 0.00279948 0.00284729 0.0011841 0.00307887 0.00328513 0.00138844 0.00363625 0.00148083 0.00150835 0.00378051 0.00380181 0.00151977 0.00377247 0.00379601 0.00376158 
0.00381035 0.00152987 0.00379703 0.00380639 0.00380829 0.00381176 0.00150394 0.00363105 0.000540032 0.00290408 0.00217283 0.00123493 0.000113576 -0.00019339 -0.00104296 -0.00120116 -0.000413764 -0.000501564 0.000303124 0.00126067 0.00217202 0.00290617 0.00338738 0.00368372 0.00374223 0.00151722 0.00382985 0.00382352 0.00381474 0.00382988 0.00152125 0.00374741 0.00363848 0.00334919 0.00284908 0.00205831 0.00109685 7.6111e-05 -0.000124765 -0.0005352 -0.0015372 -0.00133878 -0.000773896 9.33032e-05 0.00108507 0.00205167 0.00114213 0.00336186 0.00364179 0.00375428 0.00379446 0.00380726 0.00379376 0.00382108 0.00380114 0.00377804 0.00375207 0.00362857 0.00334537 0.00282118 0.00200152 0.000404292 -6.23648e-05 -0.000907713 -0.000592688 -0.000681704 -0.00148482 -0.000358166 -1.25388e-05 0.000399564 0.00200901 0.00283114 0.00336238 0.0036234 0.0037402 0.00380224 0.00380853 0.00381348 0.00381701 0.00379449 0.0038201 0.00376923 0.00368625 0.0034345 0.00305104 0.000944176 0.0015851 0.000759795 3.76601e-05 -0.000412306 -0.000576036 -0.000167882 5.48256e-05 0.000764707 0.00158723 0.00237818 0.00120441 0.00343065 0.00365352 0.00378834 0.00380966 0.00385099 0.00381708 0.00383957 0.00380168 0.00380974 0.00377222 0.00371589 0.00355027 0.00130013 0.0011307 0.0022577 0.00171652 0.00121181 0.000913437 0.000805713 0.000908254 0.00124863 0.00067974 0.00224651 0.00282459 0.00329021 0.00356052 0.00148199 0.00376858 0.00379664 0.00378909 0.000609515 0.00381074 0.00382562 0.00152579 0.00382867 0.00381783 0.00383988 0.00387079 0.00389977 0.0039714 0.00400849 0.00409284 0.00164744 0.00413574 0.00163134 0.00409258 0.00403576 0.00396002 0.00391389 0.00386795 0.00384059 0.00383178 0.00382074 0.00384589 0.00152688 0.00381539 0.00382138 0.000612888 0.00380291 0.00382584 0.00382294 0.00384693 0.00386375 0.00392069 0.00399418 0.00404296 0.00410323 0.00415161 0.000664581 0.00414764 0.00412221 0.00161426 0.00159894 0.00393009 0.00390124 0.00384665 0.0038399 0.00382226 0.00153139 0.00383324 0.00380018 0.00381931 0.00378967 
0.00378114 0.00379689 0.00377262 0.00377677 0.00377489 0.00151169 0.00371437 0.00356755 0.00325779 0.00268763 0.001813 0.000696372 -0.00044413 -0.00137281 -0.000814096 -0.000891024 -0.00202981 -0.00138082 -0.00042383 0.000724035 0.0018037 0.00268957 0.000524066 0.000580086 0.00370139 0.00376072 0.00379672 0.00379391 0.00378758 0.0038035 0.001512 0.00372928 0.00364418 0.00340972 0.00120878 0.00239666 0.000652324 0.000820403 5.66588e-05 -0.000294478 -0.000455437 -4.83666e-05 0.00014533 0.000836574 0.00162058 0.00238251 0.00302882 0.00342756 0.00365129 0.00373587 0.00376491 0.00377299 0.00377027 0.00379246 0.00150732 0.00374928 0.00370575 0.00355346 0.00319182 0.00253913 0.00150928 0.000106643 -0.00107094 -0.000854344 -0.00286712 -0.00314087 -0.00286496 -0.0021318 -0.0010212 0.00025168 0.000606804 0.00254479 0.00321898 0.00354429 0.00368593 0.00376774 0.00151078 0.00377913 0.0037915 0.00376681 0.00379209 0.0037425 0.00366856 0.00137686 0.00309683 0.00246746 0.00176374 0.00102065 0.000360143 -4.48593e-05 -0.000195863 -5.8345e-05 0.000378615 0.00102125 0.0017682 0.00248043 0.00305328 0.00343759 0.00363125 0.00376323 0.00377938 0.00381882 0.00378906 0.00380996 0.00377976 0.0015137 0.00375278 0.0037043 0.0035685 0.00333133 0.00300228 0.0025367 0.00211055 0.00169806 0.00146574 0.00138653 0.00146166 0.000697964 0.00209115 0.00252466 0.00119682 0.00337213 0.0035797 0.00369773 0.0037444 0.00376405 0.00375572 0.00151218 0.00378335 0.00151905 0.00151213 0.00379158 0.00375874 0.00373409 0.00366967 0.00356474 0.00138681 0.00333253 0.00327209 0.00319798 0.0012759 0.00316697 0.00327709 0.00336238 0.00346099 0.00357666 0.00366726 0.00373736 0.00377222 0.00378002 0.00381514 0.00378682 0.00151569 0.00378985 0.00380097 0.0037736 0.00380935 0.00383463 0.00392985 0.00408285 0.00433636 0.00186668 0.00496852 0.005247 0.00543807 0.00549305 0.00543651 0.00526595 0.00198294 0.0046669 0.00434857 0.00411781 0.00393577 0.00385831 0.00381383 0.00152205 0.00380927 0.00377212 0.003784 0.00376446 
0.0014763 0.00148708 0.00369686 0.00370408 0.00368837 0.00370349 0.00363659 0.00349197 0.00318165 0.00104496 0.001728 0.000243875 -0.000536764 -0.00146501 -0.00212146 -0.00232308 -0.00211234 -0.00147592 -0.000511235 0.000637265 0.00172894 0.00260949 0.00319413 0.00354206 0.00361993 0.00367275 0.00370909 0.00148616 0.00148253 0.00371521 0.00148516 0.00367236 0.00365469 0.00142363 0.00342076 0.00127149 0.00115894 0.00258131 0.00232377 0.0021603 0.00209998 0.000863084 0.00232509 0.00259842 0.00289178 0.00317659 0.00137138 0.00357295 0.00365724 0.00368505 0.00369602 0.00148099 0.0036883 0.00371085 0.0036893 0.0036562 0.00144733 0.00345749 0.00307455 0.000946288 0.00127463 -7.01436e-05 -0.0015059 -0.00264666 -0.00343478 -0.00372134 -0.00342722 -0.00263919 -0.00144826 -8.43242e-05 0.00128369 0.00237727 0.00309171 0.00345406 0.00361219 0.00368607 0.00147935 0.00148057 0.00371243 0.00368899 0.00148305 0.00365483 0.0014313 0.00132846 0.0029272 0.00222517 0.000566372 0.000579628 -6.30972e-05 -0.000619977 -0.000788914 -0.000257332 -0.000147786 0.000234917 0.000570128 0.00223372 0.00287797 0.00132533 0.000565693 0.00367592 0.00368371 0.00374284 0.00370089 0.00149022 0.00368315 0.00370467 0.00366452 0.0036017 0.00343911 0.00313667 0.00108591 0.00214605 0.000254866 0.0010993 0.000799401 0.000692696 0.000785781 0.00114048 0.00158343 0.00213329 0.00271813 0.00317999 0.00345414 0.00359042 0.0036632 0.0036865 0.00368371 0.00369613 0.00371412 0.00372546 0.00148471 0.00373314 0.00376828 0.00385614 0.00160705 0.00426321 0.00461145 0.00491482 0.00523228 0.00539709 0.00547596 0.00535871 0.00522247 0.00493461 0.00459764 0.00170992 0.00401473 0.0038604 0.00377265 0.00372301 0.00373847 0.00370899 0.00370706 0.00370356 0.00371964 0.00147574 0.00370396 0.00366646 0.00360615 0.00348176 0.00132471 0.00310719 0.00287024 0.00268874 0.0025781 0.00253219 0.00258695 0.00108606 0.00285854 0.00310139 0.00332805 0.00351651 0.00360155 0.00368005 0.00369723 0.00371921 0.00371108 0.0036886 0.00148289 0.00367932 
0.00354686 0.00358581 0.00356718 0.00357261 0.00353889 0.00356003 0.00348627 0.00334116 0.00299159 0.0023594 0.00138583 0.000158964 -0.00110254 -0.00213278 -0.0028432 -0.00307177 -0.00283861 -0.00213454 -0.00107481 0.000189011 0.00138989 0.00235205 0.00120452 0.00338051 0.00347926 0.00141263 0.00355743 0.00357485 0.0014269 0.00357794 0.00359731 0.00357202 0.00364706 0.00374619 0.00397265 0.00429474 0.0018802 0.005097 0.00545599 0.00569278 0.00577137 0.00568898 0.00545147 0.00511852 0.00469748 0.00429278 0.00398342 0.00376416 0.0036486 0.0035897 0.00357213 0.00142654 0.00355327 0.00357276 0.00355146 0.00351629 0.00348092 0.00332354 0.0029362 0.00223509 0.0011468 -0.000198275 -0.00162511 -0.00275649 -0.00142084 -0.00384324 -0.00354267 -0.00275741 -0.000626572 -0.000207719 0.00115982 0.00224122 0.00118442 0.00332145 0.0034762 0.00354923 0.0035641 0.00355929 0.00357745 0.00355799 0.00356189 0.00140482 0.00136972 0.00316077 0.0027275 0.000792308 0.00110067 0.000205073 -0.000582629 -0.000432236 -0.000501308 -0.00110937 -0.000574587 0.000217103 0.00111614 0.00198965 0.00267539 0.00314664 0.00338444 0.00352958 0.00353255 0.00360048 0.00355929 0.00358149 0.00353942 0.00356772 0.00352234 0.00343464 0.00324198 0.00286699 0.00234286 0.00163714 0.000940244 0.000136788 -3.69285e-05 -0.000170548 -5.46732e-05 0.000378894 0.000149782 0.00162571 0.00233849 0.00290781 0.00325478 0.0034262 0.00351911 0.00354552 0.00355113 0.00142195 0.003586 0.003588 0.00357069 0.00358439 0.00361537 0.00366372 0.0037529 0.00390595 0.00413734 0.00432226 0.00452911 0.00460868 0.00467769 0.00183174 0.00451537 0.00433001 0.00412619 0.00391537 0.00149956 0.00366836 0.00144433 0.00357356 0.00359097 0.00142846 0.00356629 0.00142438 0.00357586 0.00355038 0.00355972 0.00350783 0.00340986 0.00051576 0.00294943 0.00261385 0.00225532 0.00196495 0.0017833 0.00171633 0.00179861 0.00199045 0.000897912 0.00104368 0.00118806 0.00325307 0.00340565 0.00351819 0.000568515 0.00143206 0.0014259 0.00355264 0.0035674 0.00354518 
0.00334377 0.00136193 0.00339108 0.00339167 0.00132877 0.00335314 0.00325531 0.00308667 0.00261138 0.00176595 0.000482895 -0.00112426 -0.00279041 -0.0041655 -0.0050845 -0.00539412 -0.0050902 -0.00414504 -0.00275633 -0.0010881 0.000486077 0.000700972 0.00265181 0.00311552 0.0032684 0.00333028 0.00333621 0.00337609 0.00337476 0.00338911 0.00345023 0.00138028 0.00370388 0.00418305 0.00205294 0.00655583 0.00829979 0.0100925 0.0116538 0.0126782 0.0130258 0.0126647 0.0116368 0.0101209 0.00332141 0.00654605 0.000823158 0.00421458 0.00148268 0.00347727 0.00340159 0.00337263 0.00134786 0.00337937 0.00134106 0.00331698 0.00130844 0.00309266 0.00104978 0.00181607 0.000212056 -0.00105428 -0.00271769 -0.00403886 -0.00499617 -0.00534497 -0.00497842 -0.00406127 -0.00265527 -0.00105853 0.000220604 0.00180913 0.00267467 0.0030892 0.00326313 0.00335343 0.00134905 0.0033554 0.00339119 0.00135052 0.00335381 0.00132035 0.00318368 0.00288089 0.0023216 0.00141304 0.000302749 -0.000799742 -0.00177227 -0.000956352 -0.00259301 -0.00243511 -0.00176747 -0.000785052 0.000327124 0.000566952 0.00225971 0.00114099 0.00314081 0.0013264 0.00331269 0.00339844 0.00336023 0.00337851 0.00334091 0.00338051 0.00333265 0.00321562 0.00301337 0.00259285 0.00201635 0.00048548 0.000421528 -0.00023388 -0.000662289 -0.000806427 -0.00068711 -0.000192416 0.000423413 0.000192141 0.00198849 0.00105268 0.00301838 0.00321636 0.00332449 0.00133788 0.00134468 0.00335537 0.00341162 0.00339459 0.00336678 0.00337051 0.0033828 0.00334268 0.00326163 0.00319379 0.00314669 0.00304835 0.00300135 0.00115452 0.00117181 0.00287842 0.00298494 0.00121482 0.00314245 0.0031961 0.00325627 0.00134016 0.00336459 0.00335543 0.00338416 0.0033765 0.00337187 0.00335765 0.00134966 0.00335754 0.00134785 0.00332549 0.00323502 0.00308801 0.00284824 0.00255901 0.00226372 0.00201804 0.00186781 0.000728216 0.00189734 0.00204221 0.00225086 0.00255105 0.00287649 0.000497272 0.0032385 0.00333498 0.00336959 0.00338962 0.00336167 0.00134554 0.00336613 0.00336068 
0.0029891 0.00309065 0.00308721 0.00308604 0.00295346 0.00120398 0.00287804 0.00268139 0.00204558 0.000928576 -0.000304578 -0.00285102 -0.00504259 -0.00685594 -0.00803615 -0.00338227 -0.00805134 -0.00680655 -0.00499449 -0.00280763 -0.000750095 0.000901054 0.00210823 0.0010764 0.00291399 0.00298066 0.00295938 0.00303905 0.00121796 0.00305708 0.00127827 0.00324101 0.00379917 0.00493194 0.00711217 0.0104059 0.0144434 0.0186202 0.022225 0.0245894 0.0101604 0.0245653 0.0221879 0.0186554 0.0144614 0.010397 0.00712599 0.00497997 0.0038024 0.0032843 0.00124436 0.00305187 0.0030529 0.00304532 0.00301319 0.0029643 0.00116049 0.00266926 0.00203257 0.000952138 -0.000308744 -0.00291568 -0.0051379 -0.00690762 -0.00822144 -0.00868557 -0.00327368 -0.00695802 -0.00202454 -0.0029147 -0.000738499 0.000934293 0.00210895 0.00106804 0.00290293 0.00301426 0.00304393 0.00120545 0.00307154 0.00306193 0.00299915 0.00293609 0.0027743 0.000949824 0.0015775 5.5908e-05 -0.00121458 -0.00272526 -0.00405731 -0.00491857 -0.00518679 -0.00499398 -0.00406708 -0.00270311 -0.00117499 0.000339251 0.0005985 0.00232301 0.00271684 0.00117976 0.00293005 0.00305964 0.00301336 0.00303262 0.00298921 0.00306084 0.00300646 0.00285132 0.00264303 0.00216095 0.000607884 0.000605278 -0.000126318 -0.00102426 -0.00151705 -0.00167535 -0.00156054 -0.000979595 -0.000119127 0.000588604 0.00147194 0.00219895 0.00264045 0.00285915 0.0029999 0.00300802 0.00304415 0.00301161 0.00311759 0.00307483 0.00303174 0.00303193 0.00308507 0.00121235 0.00293051 0.00289172 0.00288848 0.00281624 0.00278218 0.00262929 0.00271909 0.00264378 0.00274889 0.00277016 0.00288572 0.00115336 0.0011692 0.00304316 0.00303898 0.00301275 0.00121596 0.0030465 0.00304055 0.00300784 0.00121289 0.00302345 0.00302128 0.0029278 0.00269888 0.00234967 0.000703796 0.00103468 0.000318342 -0.000298712 -0.00068863 -0.000801851 -0.000627156 -0.000106576 0.000301272 0.00101231 0.00072028 0.00235381 0.00270357 0.0029268 0.00301778 0.00305816 0.00300064 0.00303614 0.00302726 0.0030391 
0.00245137 0.0026032 0.00261401 0.00260759 0.00239961 0.000398138 0.00231848 0.00210049 0.000517308 -0.000114226 -0.00223424 -0.004834 -0.00758056 -0.00986165 -0.011308 -0.0118504 -0.0113342 -0.0097771 -0.00751556 -0.00478172 -0.00221101 -0.000160615 0.00137736 0.00208216 0.00238278 0.00244894 0.000958912 0.00252454 0.00101431 0.00254454 0.00277882 0.00115309 0.00152888 0.00575969 0.00945277 0.0150601 0.0219323 0.029053 0.0351842 0.0391992 0.0162342 0.0391667 0.0351229 0.0290965 0.0219667 0.00602216 0.00947482 0.00232971 0.00152868 0.00294893 0.00265469 0.00255654 0.0025604 0.00253415 0.00249812 0.000972508 0.00235263 0.00206643 0.00124941 -0.000119021 -0.00229969 -0.00201627 -0.007851 -0.0100925 -0.0117884 -0.0123747 -0.0117298 -0.0101742 -0.00775904 -0.00503057 -0.000901136 -0.000149927 0.0013511 0.00207179 0.00236679 0.00249784 0.0025431 0.00249139 0.0025785 0.00103076 0.00246428 0.00239696 0.00219905 0.00172771 0.000291297 -0.000304208 -0.00271713 -0.00456035 -0.00618575 -0.00725077 -0.0030264 -0.00736318 -0.00621459 -0.00452424 -0.00265385 -0.000784918 0.000625347 0.000264192 0.00213021 0.00240582 0.00235991 0.00101682 0.00248558 0.00250362 0.00245314 0.000410021 0.00249152 0.000905476 0.000795912 0.00132507 0.000176216 -0.000324892 -0.00210259 -0.00121968 -0.0014953 -0.0039577 -0.00380422 -0.000481 -0.00206132 -0.000829507 0.00037516 0.00136306 0.000317526 0.00227969 0.00248614 0.00249168 0.00255455 0.00248805 0.00106139 0.00103264 0.00040367 0.00251777 0.00262833 0.00257076 0.0024765 0.00251926 0.00262701 0.00264431 0.0026727 0.00250428 0.00266348 0.00254651 0.00261632 0.00255511 0.00262522 0.00249979 0.00246638 0.00103536 0.00254612 0.0024936 0.00251233 0.00254056 0.00252966 0.000396184 0.00251007 0.00250906 0.00248608 0.0023178 0.00075822 0.00123748 5.33684e-05 -0.00123298 -0.00257241 -0.00373275 -0.00447842 -0.0046938 -0.00437807 -0.00369198 -0.00259157 -0.00126807 7.71668e-05 0.000489352 0.00189705 0.00230322 0.00247828 0.00254799 0.00245242 0.00101222 0.00250945 0.00254018 
0.0018471 0.00205368 0.00208292 0.000827248 0.00177631 0.00190131 0.000269085 0.00143023 0.000400755 -0.00055376 -0.00406457 -0.00732726 -0.0107945 -0.0136894 -0.0154894 -0.0161858 -0.0155308 -0.00542248 -0.0107143 -0.00726523 -0.00403667 -0.000581164 8.19444e-05 0.00138077 0.00178014 0.00185179 0.000705068 0.000778192 0.00196602 0.00197321 0.00230967 0.00248648 0.00385001 0.00670306 0.0121178 0.0203525 0.0121768 0.0163621 0.0499028 0.0223204 0.057838 0.0557522 0.0199257 0.0409574 0.0304941 0.0203488 0.00485912 0.00678938 0.0038553 0.00257197 0.00213984 0.00199559 0.00201261 0.00195919 0.00191853 0.00183772 0.00172623 0.0013576 0.000115008 -0.00148921 -0.00432095 -0.00789196 -0.00461384 -0.014453 -0.0166784 -0.0174338 -0.0165914 -0.0145782 -0.00182842 -0.00315068 -0.00426003 -0.000614672 0.000424547 0.00136917 0.00174785 0.00191254 0.00197758 0.00190201 0.00202615 0.00203123 0.00186531 0.000721132 0.00157814 0.00107535 -7.09891e-05 -0.00172295 -0.00396493 -0.00601694 -0.00783744 -0.00903994 -0.00937943 -0.00919482 -0.00788182 -0.00597267 -0.00387493 -0.000707384 -0.000197884 0.000971689 0.00149372 0.00180482 0.00172445 0.00195507 0.00189458 0.00191078 0.00186193 0.00200805 0.0019334 0.000663528 0.00138852 0.000270646 -0.000249646 -0.00159573 -0.0030004 -0.00396941 -0.00188478 -0.00493739 -0.00480087 -0.00156959 -0.00117485 -0.00161394 -0.000342081 0.000708264 0.00137997 0.00168477 0.00192301 0.00191127 0.00200403 0.00190112 0.00085332 0.00081206 0.00194327 0.00191691 0.00204917 0.00188933 0.00160957 0.00145694 0.000530552 0.00108093 0.000866134 0.000478821 0.000645793 0.000560017 0.000791381 0.000946203 0.000534028 0.00142475 0.00159602 0.000122451 0.0019244 0.00188612 0.00191308 0.00197099 0.000783036 0.00187915 0.0019188 0.00192958 0.00189116 0.001653 0.00105112 0.000127846 -0.000231962 -0.00338793 -0.00529051 -0.00277767 -0.00800929 -0.00831043 -0.00786735 -0.00689208 -0.00531616 -0.00343993 -0.00136708 8.61127e-05 0.00105558 0.000651716 0.00188317 0.00197978 0.000737572 0.00196545 0.00192458 0.00198846 
0.00126242 0.00152291 0.00156715 0.00154279 0.00116638 0.00132164 0.00104905 0.000750094 -0.000536505 -0.00276109 -0.00608628 -0.0101334 -0.0144409 -0.00721812 -0.0202694 -0.00845624 -0.0203281 -0.00285878 -0.00573676 -0.0040236 -0.00605362 -0.000455392 -0.000388806 0.000676247 0.00118531 0.00127066 0.001144 0.00138 0.00141062 0.00141761 0.00185843 0.00209655 0.00155379 0.00763497 0.0147484 0.010229 0.0388224 0.0525777 0.0644024 0.0288602 0.0748256 0.0720852 0.0257143 0.052642 0.0388934 0.0102245 0.0147837 0.007746 0.00388731 0.00220673 0.00163809 0.00144559 0.00147608 0.00140136 0.00135031 0.00125697 0.00112208 0.000691366 -0.000593769 -0.00269444 -0.00242734 -0.0103245 -0.0146472 -0.0181117 -0.0207818 -0.00867408 -0.0206711 -0.00731132 -0.0145259 -0.0102991 -0.00239608 -0.00276385 -0.000413388 0.000702276 0.000458836 0.00134735 0.00142563 0.00132486 0.00059464 0.0015009 0.00127715 0.00120468 0.000926911 0.000132043 -0.000434824 -0.00309145 -0.00233778 -0.00834493 -0.0105653 -0.0120343 -0.0124414 -0.0122317 -0.010626 -0.00828971 -0.00573093 -0.00315229 -0.00123961 0.000195722 0.000829614 0.0012039 0.00110037 0.00138477 0.00131969 0.00133076 0.000512888 0.0014647 0.00137703 0.000410956 0.000710873 -6.13024e-05 -0.00127121 -0.00291411 -0.00463182 -0.00231826 -0.0067014 -0.00697153 -0.00681237 -0.0057418 -0.00454769 -0.00293564 -0.00139867 -0.000120843 0.000692438 0.00106945 0.00136287 0.00134105 0.00146033 0.0013286 0.00162384 0.00148164 0.000550724 0.00134378 0.00150356 0.000512188 0.000884893 0.000641792 0.000401145 2.7234e-05 -0.000314609 -0.000851607 -0.00064602 -0.000292458 -0.000406948 -6.10656e-05 0.000416367 9.50334e-05 0.000868933 0.000525112 0.00134403 0.00130407 0.00133454 0.00141384 0.00139918 0.00129601 0.00134664 0.00137061 0.0013245 0.00105765 0.000363651 -0.000672785 -0.00247411 -0.00468885 -0.00683823 -0.00871842 -0.00993032 -0.0102592 -0.00389931 -0.00866261 -0.00686961 -0.00475438 -0.0023724 -0.000733632 0.000374889 0.00041018 0.00132257 0.00142568 0.00125264 0.000565748 0.00135228 0.00144467 
0.000764248 0.000428828 0.0011341 0.00110461 0.000656155 0.000844672 0.000518668 0.000155813 -0.00137905 -0.00161182 -0.00800639 -0.0128374 -0.0179812 -0.0222848 -0.0249373 -0.0259873 -0.0250037 -0.0220778 -0.00714544 -0.0127546 -0.0079673 -0.0016514 -0.00120826 6.24926e-05 0.000671942 0.000310013 0.000626279 0.000911528 0.000379308 0.000942777 0.00147533 0.00176802 0.00390964 0.00842128 0.0169575 0.0299403 0.0458492 0.0623635 0.0765479 0.0137357 0.0890627 0.0857718 0.0764122 0.0624386 0.0183766 0.0299352 0.0169901 0.00854422 0.00156466 0.00189722 0.0012176 0.000991357 0.00102343 0.000933749 0.000875335 0.000755942 0.000599275 3.61272e-05 -0.000228437 -0.00392978 -0.00316866 -0.0129758 -0.0181065 -0.00888928 -0.0101559 -0.0264475 -0.0252493 -0.0089664 -0.00718584 -0.0129503 -0.0078309 -0.00400537 -0.00122653 0.000108226 0.000639326 0.000868372 0.000956696 0.000846107 0.00103287 0.00105199 0.000786586 0.000703283 0.000396032 -0.00011438 -0.0019167 -0.00420046 -0.00737316 -0.010229 -0.00510804 -0.0144525 -0.00238816 -0.0146993 -0.00513896 -0.0101653 -0.00724033 -0.00428531 -0.0020981 -0.000444922 0.000274643 0.000281858 0.000228835 0.000914133 0.000133078 0.000337738 0.000314396 0.00101464 0.000922873 0.000219884 0.000265851 -0.00058824 -0.00166465 -0.00327671 -0.00199705 -0.00243353 -0.00697394 -0.00723308 -0.00711317 -0.00601945 -0.00488479 -0.00330615 -0.000719836 -0.000552977 9.75724e-05 0.000597622 0.000911753 0.00034754 0.00100831 0.000848066 0.0012053 0.000412232 0.000916913 0.000894069 0.00115422 0.000411724 0.000834753 0.000966121 0.00120045 0.0012798 0.00132457 0.000988232 0.000529096 0.000450356 0.00120499 0.0010625 0.00121532 0.000905461 0.000817028 0.00107272 0.000962328 0.000847633 0.000863019 0.000947855 0.000372476 0.000801309 0.000866653 0.000897695 0.000823896 0.000475669 -0.000444546 -0.00183129 -0.00421592 -0.0071488 -0.00400584 -0.0125166 -0.00565236 -0.0145783 -0.0139107 -0.0124457 -0.0040242 -0.00723887 -0.00409404 -0.0019055 -0.000436391 0.000429846 0.00081659 0.00095801 0.00074638 0.000948053 0.0008772 0.000982641 
0.000302662 0.000636689 0.000709662 0.000677064 0.000186919 0.000157726 4.42794e-05 -0.000335833 -0.00196946 -0.00191639 -0.00902466 -0.014155 -0.0196309 -0.0242095 -0.0108091 -0.0281435 -0.0270943 -0.00383698 -0.019503 -0.00562756 -0.00898208 -0.00489983 -0.0017875 -0.00043997 0.000211351 0.000315492 0.00015114 0.000463666 0.000505063 0.00049429 0.00108129 0.0014073 0.0015041 0.00349084 0.018121 0.0129616 0.0499092 0.0680862 0.0836889 0.0939217 0.0974601 0.0938373 0.0835393 0.0272647 0.050013 0.0323998 0.0181547 0.0088602 0.00376243 0.00154805 0.000798952 0.000221578 0.000590941 0.000486181 0.000423739 0.000294965 4.73868e-05 -0.000441596 -0.0021108 -0.00486918 -0.00926086 -0.00593112 -0.00819012 -0.025012 -0.0114001 -0.0296566 -0.011337 -0.025224 -0.0203244 -0.0148013 -0.00916383 -0.00495072 -0.00189471 -0.000421946 0.000165586 0.00016578 0.000512073 0.000393778 0.000597249 0.000618571 0.000328463 9.57736e-05 -3.28724e-05 -0.000806708 -0.00254837 -0.00497194 -0.00836235 -0.0113963 -0.0140996 -0.015894 -0.0163978 -0.0161658 -0.0141905 -0.011329 -0.00821828 -0.00507186 -0.00274311 -0.000391798 -0.000217082 0.000241163 9.20176e-05 0.000463909 0.000150159 0.000388908 0.000328442 0.000578979 0.000485819 3.80511e-05 -6.95624e-05 -0.00102915 -0.0020907 -0.00370338 -0.00217328 -0.00649576 -0.00738704 -0.00763912 -0.00753928 -0.00257042 -0.00212531 -0.0014942 -0.00223462 -0.00099343 -0.000197532 0.000148103 0.000477089 0.000421445 0.00057223 0.000394829 0.000785802 0.000596704 0.000472779 0.000181195 0.000302984 0.000658292 0.000207105 0.00077313 0.00116877 0.000558064 0.00156318 0.00127712 0.00166809 0.00143117 0.00057256 0.00115606 0.00118358 0.000704141 0.000499438 0.000706229 0.000546188 0.000402896 0.000412105 0.00050398 0.000488705 0.000341987 0.000416292 0.000450227 0.00036826 -1.34943e-05 -0.00102548 -0.00254388 -0.00515998 -0.00837716 -0.0115232 -0.00570764 -0.00641708 -0.0165307 -0.0157976 -0.0141909 -0.00462936 -0.00848114 -0.00502889 -0.00263001 -0.0010176 -6.57328e-05 0.000359285 0.00020554 0.000279859 0.000201798 0.000424996 0.000543963 
6.33771e-06 0.000361427 0.000443538 0.000408267 -0.00011493 1.73205e-05 -0.000264647 -0.000666931 -0.00239404 -0.00537982 -0.00394511 -0.0152873 -0.0210857 -0.0259295 -0.0289037 -0.0120367 -0.0289783 -0.0256849 -0.0209481 -0.0060792 -0.00981824 -0.00549605 -0.00088136 -0.000776388 -8.85869e-05 1.93907e-05 -0.000154565 0.000179877 8.98556e-05 8.32676e-05 0.000838533 0.00118941 0.00370791 0.00903035 0.0190954 0.00550276 0.0531445 0.0726205 0.0893292 0.100291 0.104082 0.100199 0.089169 0.0290784 0.0213033 0.0137556 0.0191292 0.00917133 0.00371004 0.00133976 0.00021446 0.000110956 0.000318081 0.000201915 5.39832e-05 -1.30329e-06 -0.000198761 -0.000809506 -0.00262312 -0.00563228 -0.0104115 -0.0164737 -0.0226251 -0.0275711 -0.00501859 -0.0326172 -0.0311929 -0.0277974 -0.0224648 -0.016448 -0.0103096 -0.00228692 -0.000958268 -0.000788929 -0.000145877 4.92892e-05 0.0002284 0.000105429 0.000322479 0.000137704 3.64059e-05 -2.39824e-05 -0.000392038 -0.00115739 -0.0011977 -0.00554338 -0.0091239 -0.00492624 -0.0151636 -0.017056 -0.00703588 -0.0173505 -0.0152657 -0.0122458 -0.00897091 -0.00226276 -0.00128079 -0.000536404 -0.000541017 -5.60361e-05 -0.000219251 0.000179145 8.3404e-05 9.86676e-05 3.50968e-05 0.000304606 0.000210322 -0.000191343 -0.000443356 -0.00128813 -0.00232033 -0.00156471 -0.00563073 -0.00665253 -0.00301255 -0.00310921 -0.00769498 -0.00657519 -0.00550114 -0.00394724 -0.00246931 -0.00124972 -0.000186906 -0.000134679 0.000204132 0.000136821 0.00029534 0.000105642 0.000524044 0.000324118 0.000192827 0.000179821 0.000529879 0.000475823 0.000170006 0.000850069 0.000585712 0.00189608 0.00224201 0.00204721 0.00249992 0.00221217 0.000839816 0.0016413 0.000591144 0.000774318 0.000406465 0.000528438 0.000303937 0.000126058 0.000128431 8.89376e-05 0.000208953 4.71686e-05 5.23196e-05 0.000165322 7.72392e-05 -0.000331757 -0.00141857 -0.00304403 -0.00584711 -0.00929299 -0.0126675 -0.00624428 -0.00700528 -0.00721352 -0.0172473 -0.015525 -0.012723 -0.00941017 -0.00570813 -0.00125515 -0.00141133 -0.00038856 6.69116e-05 0.000232669 -1.98833e-05 8.88104e-05 0.000136408 0.000264692 
-0.000182894 0.000180833 4.33112e-05 9.34276e-05 -0.000303063 -7.02184e-05 -0.000460342 -0.000355587 -0.00268658 -0.00579667 -0.00419104 -0.016137 -0.0221864 -0.0272385 -0.0121378 -0.0315861 -0.0304183 -0.0269884 -0.0220445 -0.0160473 -0.0104348 -0.00591534 -0.00249435 -0.000999447 -0.000286655 -0.000170704 -0.000137777 6.77144e-07 4.75955e-05 2.28856e-05 0.000671758 0.00103641 0.00362197 0.00909885 0.0194476 0.0351674 0.0544493 0.0744738 0.0916443 0.102917 0.0427264 0.102821 0.00585484 0.07455 0.0545702 0.0351682 0.007791 0.00369578 0.00362651 0.000190162 0.00036317 0.000100478 0.000141963 8.5384e-06 -4.75325e-05 -0.000195058 -0.000403649 -0.00105225 -0.00118518 -0.00246248 -0.0112053 -0.0176146 -0.00965056 -0.0293682 -0.013349 -0.034684 -0.0331865 -0.0118394 -0.0239597 -0.0175946 -0.0111027 -0.00623805 -0.00273594 -0.00102851 -0.000345555 -2.56975e-05 4.35838e-05 -3.05708e-05 0.000145269 0.00016557 -0.000145693 -0.000243253 -0.000565461 -0.00132926 -0.00316395 -0.00570122 -0.00371528 -0.0124638 -0.0153061 -0.0171938 -0.0177323 -0.0175054 -0.0154124 -0.0123954 -0.0091314 -0.00582717 -0.000540882 -0.000606484 -0.000726742 -0.000236365 -0.00041207 -2.52299e-07 -0.000102801 -8.53432e-05 -0.000151049 0.000131586 4.41252e-05 -0.000335326 -0.00021065 -0.000504088 -0.000849652 -0.00350076 -0.000801984 -0.00233712 -0.00660043 -0.0067984 -0.00677264 -0.00575813 -0.00487673 -0.00354016 -0.000906692 -0.00122075 -0.000548187 -0.000279485 3.96322e-05 -4.23352e-05 0.00011795 -7.69468e-05 0.000356377 0.000151538 1.89011e-05 1.38227e-05 0.000408983 6.7979e-05 0.000204708 0.00116091 0.00205727 0.00276392 0.00335158 0.00330703 0.00381669 0.00138882 0.0032011 0.00250431 0.00207046 0.00108196 0.000493382 0.000482351 7.02932e-05 -4.20734e-05 -4.71585e-05 1.68796e-05 3.0269e-05 -0.000141591 -5.20318e-05 -7.20652e-06 -0.000115374 -0.000553116 -0.00171793 -0.00346381 -0.00646765 -0.0101531 -0.0137805 -0.00677548 -0.00303678 -0.0195424 -0.00748168 -0.0168448 -0.0138447 -0.00411304 -0.00632243 -0.0014243 -0.0017128 -0.00024501 -0.000128177 2.12496e-05 -8.38872e-05 4.03935e-05 -1.83566e-05 8.45982e-05 
-0.000311282 5.48817e-05 2.34123e-05 0.000107614 -0.000435338 -8.101e-05 -0.0006008 -0.00104429 -0.00288878 -0.00243156 -0.0108787 -0.0166868 -0.0228921 -0.0280754 -0.0312669 -0.0325383 -0.0313436 -0.027821 -0.0227489 -0.00265538 -0.0108388 -0.0061963 -0.00268887 -0.00115438 -0.000423248 -0.000119891 -0.000477944 -0.000127387 -7.86408e-05 -4.14704e-05 0.000220977 0.000920422 0.00353549 0.00907982 0.0195578 0.0354688 0.0549819 0.0752509 0.0926305 0.104042 0.107987 0.0415772 0.0924663 0.075329 0.0220422 0.035465 0.00783368 0.00922369 0.00354077 0.00107328 0.000237859 -2.93265e-05 1.65218e-05 -0.000105932 -0.000177813 -0.000324174 -0.000214337 -0.00118809 -0.00311542 -0.00632822 -0.0114197 -0.0178746 -0.0244336 -0.0297137 -0.0337501 -0.035073 -0.0335614 -0.0119796 -0.0242673 -0.00285675 -0.011315 -0.0064136 -0.00288051 -0.00116569 -0.000480101 -0.000192507 -8.68126e-05 -0.000207014 1.78258e-05 3.92217e-05 -0.000277021 -0.00037809 -0.000709344 -0.00059572 -0.0033685 -0.00596321 -0.00962843 -0.00515148 -0.0157887 -0.007087 -0.0182708 -0.00721364 -0.0158946 -0.0128121 -0.00947236 -0.0060919 -0.00358747 -0.00167997 -0.000872818 -0.000370054 -0.000544692 -0.000130485 -9.25052e-05 -0.000215506 -0.000278173 1.04919e-06 -3.07018e-05 -0.000449772 -0.000613406 -0.00130017 -0.000836356 -0.00338402 -0.00192281 -0.00556102 -0.00100284 -0.00644578 -0.00257654 -0.00547137 -0.00186851 -0.00137032 -0.00224067 -0.00126115 -0.00025587 -0.000390299 -3.3013e-05 -6.87292e-05 -1.17248e-05 -0.000205414 0.000231979 2.03563e-05 -0.00011229 -0.000115764 0.000275564 0.000112468 0.000138433 0.000969354 0.00182983 0.00250241 0.0030595 0.00299005 0.00139904 0.00316006 0.00290991 0.00224016 0.00184524 0.000887282 0.000327871 2.18118e-05 6.74056e-06 -0.000173342 -7.00996e-05 -8.72868e-05 -9.72567e-05 -0.000272353 -2.90245e-05 -0.000143767 -0.000238236 -0.000658971 -0.000717096 -0.00347074 -0.00637775 -0.00994081 -0.0134411 -0.00659764 -0.0184649 -0.0190013 -0.0181874 -0.0164017 -0.0135084 -0.0100731 -0.00623214 -0.00356886 -0.000713268 -0.000717586 -9.88736e-05 -7.35273e-05 -0.00033727 -8.60161e-05 -0.000176392 -4.15964e-05 
-0.000385975 -2.0647e-05 7.29999e-05 1.39061e-05 -8.1096e-05 -0.000108684 -0.000668959 -0.00044364 -0.00293332 -0.00609273 -0.0108502 -0.0165998 -0.0227498 -0.0278814 -0.0310407 -0.0323012 -0.0311146 -0.027628 -0.0226051 -0.0165106 -0.0108099 -0.00621096 -0.00273884 -0.00121581 -0.000495137 -0.000150175 -0.000549478 -0.000199434 -0.000151547 -0.000180195 0.000476841 0.000844663 0.00345591 0.0089931 0.0194579 0.0141376 0.0219326 0.0750754 0.0924264 0.103822 0.107763 0.103722 0.0922623 0.0751491 0.0219826 0.0353425 0.00779376 0.0091357 0.00346093 0.000399198 6.50136e-05 -0.000100458 -5.55499e-05 -0.000180549 -0.000252503 -0.00040109 -0.000619869 -0.000515764 -0.00325627 -0.00655078 -0.00470272 -0.0073446 -0.0250763 -0.0304849 -0.0346087 -0.0359552 -0.0137666 -0.0307185 -0.0249081 -0.0183443 -0.0116539 -0.00106125 -0.00302599 -0.000506844 -0.000561362 -0.000269659 -6.46056e-05 -0.000278909 -5.46177e-05 -3.54906e-05 -0.000139109 -0.000450922 -0.000772557 -0.000620264 -0.00136458 -0.00598263 -0.00962103 -0.0020543 -0.0062896 -0.0176379 -0.0181893 -0.0179574 -0.0158342 -0.0127736 -0.00946486 -0.00611592 -0.00145256 -0.00173967 -0.00094135 -0.000440713 -0.000618935 -0.000201849 -4.89548e-05 -0.000287782 -0.000140955 -2.635e-05 -0.000148039 -0.000513505 -0.000664792 -0.000529896 -0.00207583 -0.00132622 -0.00187536 -0.00539746 -0.00607524 -0.00624198 -0.00624975 -0.00530543 -0.00455176 -0.00134315 -0.00221922 -0.00128353 -0.00068754 -7.29032e-05 -0.000150694 -0.000243088 -8.50162e-05 -0.000279105 0.000158599 -4.82058e-05 -7.2414e-05 -0.000177519 0.000237383 0.000292495 0.000452655 0.00121977 0.000362317 0.00124678 0.00383414 0.0038705 0.00441132 0.00403796 0.0036824 0.00285673 0.0022766 0.00113747 0.000435121 0.000352646 3.6313e-06 -0.000235162 -9.75032e-05 -0.000159739 -0.000167896 -0.000346525 -0.000251671 -8.72716e-05 -0.000313189 -0.00074267 -0.0018947 -0.00360431 -0.00655955 -0.00162909 -0.0137482 -0.0168539 -0.0188606 -0.0194072 -0.00297272 -0.016758 -0.0138162 -0.00412744 -0.0025657 -0.00148099 -0.00188789 -0.000801841 -0.000324438 -0.000146738 -0.000413036 -0.000161195 -0.000250172 -0.0001166 
-0.00037451 -3.45121e-06 8.49714e-05 4.70431e-05 -0.000495017 -0.00025946 -0.00065679 -0.0010975 -0.00117004 -0.00608853 -0.0108534 -0.0166119 -0.0227698 -0.0279098 -0.0310735 -0.0323366 -0.012459 -0.0276568 -0.0226258 -0.0165228 -0.0108126 -0.00620701 -0.0027305 -0.0012064 -0.000483331 -0.000145266 -0.000215163 -0.00018717 -0.000139404 -0.000168045 0.000488986 0.000858231 0.00138831 0.00901275 0.0194835 0.0353803 0.0548825 0.0751391 0.0925024 0.103906 0.10785 0.103807 0.0923388 0.0752141 0.00352046 0.0353802 0.0195097 0.0091545 0.0034764 0.0010109 0.000175743 -3.51621e-05 -4.4e-05 -0.000168206 -0.000239237 -0.000388673 -0.000605043 -0.0012708 -0.00322721 -0.00650406 -0.00467244 -0.0182507 -0.0099716 -0.030308 -0.0344102 -0.0357499 -0.0342182 -0.0305413 -0.0247609 -0.00729336 -0.0115781 -0.00658562 -0.00299791 -0.000199531 -0.0005457 -0.000256802 -0.000149079 -0.000266446 -1.71398e-05 -2.31937e-05 -0.000336052 -0.000437182 -0.000758488 -0.00153201 -0.00338661 -0.00594702 -0.00957308 -0.0127788 -0.0156517 -0.00702324 -0.00724268 -0.0178775 -0.00630432 -0.0127127 -0.00941664 -0.00607992 -0.00360643 -0.00172113 -0.000926369 -0.000427879 -0.000606665 -0.000189908 -0.000294077 -0.000276008 -0.000136374 -5.35241e-05 -0.00013513 -0.0004985 -0.00010341 -0.00130012 -0.00204288 -0.00130767 -0.00463004 -0.000852448 -0.00599897 -0.00616446 -0.00098786 -0.00523748 -0.00179713 -0.00331137 -0.000874196 -0.0012602 -0.00066923 -0.000441406 -0.000138242 -0.000230638 -7.15656e-05 -0.000266885 6.87188e-05 -1.43992e-05 -0.000168779 -6.70092e-05 0.000246508 0.000118484 0.000447388 0.00120074 0.00222736 0.00306234 0.00376311 0.00378942 0.00432573 0.00395618 0.00361066 0.00112046 0.00224023 0.000447548 0.00042954 0.000142498 1.18004e-05 -0.000224714 -9.31156e-05 -0.000147539 -0.000156777 -0.00033448 -9.642e-05 -0.000206555 -0.00012182 -0.000741033 -0.000305728 -0.00365188 -0.00665661 -0.00165432 -0.0139676 -0.0171269 -0.00766712 -0.0197269 -0.0188874 -0.0170306 -0.0056144 -0.0104759 -0.00260423 -0.00375053 -0.00190448 -0.000320398 -0.000316773 -0.000135187 -0.000401591 -5.95064e-05 -0.000237066 -0.000103971 
-0.000313532 5.32685e-05 0.000146584 0.000105599 -0.000436332 -8.05488e-05 -0.000600516 -0.000416508 -0.00287785 -0.00605852 -0.0108428 -0.00665288 -0.00365082 -0.011194 -0.0311624 -0.0324323 -0.0312377 -0.02773 -0.0226734 -0.0165412 -0.0108031 -0.00247093 -0.00268266 -0.00115058 -0.0001697 -0.000303384 -0.000477198 -0.000127035 -8.05694e-05 -0.000107201 0.00021979 0.000367702 0.00353807 0.00908324 0.00782532 0.035483 0.0220026 0.0752858 0.092673 0.0166541 0.108036 0.103991 0.0925091 0.0753624 0.0551301 0.0354809 0.00783752 0.00922531 0.00354164 0.000429472 0.000236968 -3.02674e-05 1.52738e-05 -0.000106834 -0.000178149 -0.000326586 -0.000216593 -0.00120221 -0.00315058 -0.00256222 -0.0115526 -0.0180847 -0.0247225 -0.0300683 -0.0341491 -0.0354844 -0.0339595 -0.030302 -0.0245554 -0.00722608 -0.0114493 -0.00648959 -0.00116796 -0.00047234 -0.000485674 -0.000195389 -8.63554e-05 -0.000208798 1.84972e-05 3.892e-05 -0.000110085 -0.000372845 -0.000688698 -0.00143965 -0.00325716 -0.00576468 -0.00932105 -0.0124569 -0.0152694 -0.0171354 -0.0176683 -0.0174538 -0.00615084 -0.0123884 -0.00916141 -0.00589367 -0.00347689 -0.00162769 -0.00085214 -0.000364579 -0.000545539 -5.20912e-05 -0.000232818 -3.47422e-05 -4.48459e-05 4.11736e-06 -3.34266e-05 -0.000467977 -0.000658545 -0.00139133 -0.00225286 -0.00363338 -0.00514874 -0.0059783 -0.0067354 -0.00693153 -0.00690922 -0.00588861 -0.00501118 -0.00146933 -0.00239688 -0.00134985 -0.000678787 -0.000409257 -8.94517e-05 -0.000173658 -1.26582e-05 -8.26208e-05 0.000230502 2.2654e-05 -0.000109518 -0.000111101 0.000290913 0.000318515 0.000426576 0.00111678 0.00082526 0.00281874 0.00344947 0.00137102 0.00158097 0.000575524 0.00329828 0.00255815 0.00207742 0.00103581 0.000163444 0.000378672 5.62866e-05 -0.000169427 -0.000175739 -3.49985e-05 -9.81699e-05 -0.000109735 -0.000181451 -0.000147254 -0.000241752 -0.000268661 -0.00181844 -0.00352963 -0.00648355 -0.0101037 -0.0136654 -0.0167666 -0.00750868 -0.0193188 -0.0184926 -0.0166728 -0.0137323 -0.0102354 -0.00633574 -0.00362668 -0.00181196 -0.000729463 -0.000250647 -7.41491e-05 -0.000340073 -3.55715e-05 -0.000178417 -4.46336e-05 
-0.000200567 0.00016148 0.000250309 0.000212789 -0.000322489 -9.19991e-05 -0.000479801 -0.000903072 -0.00269251 -0.00578739 -0.0104408 -0.00642672 -0.0220824 -0.0271083 -0.0301964 -0.0314292 -0.0302721 -0.0268555 -0.0219422 -0.0159772 -0.0103998 -0.0059059 -0.000999292 -0.00101393 -0.000302916 -0.000187816 -0.000364592 -1.9727e-05 1.10058e-05 2.36358e-06 0.000651707 0.00101616 0.00359562 0.00906214 0.0193945 0.0350899 0.0543367 0.0118924 0.0365881 0.102725 0.106616 0.102628 0.0913073 0.074403 0.0217824 0.0350874 0.019425 0.00920499 0.00360194 0.00116686 5.47564e-05 7.85687e-05 0.000123585 1.17015e-06 -6.77426e-05 -0.000210305 -0.000420104 -0.000425608 -0.00296425 -0.0061308 -0.0111482 -0.0175105 -0.0239738 -0.0291772 -0.0331562 -0.0344614 -0.0329721 -0.0294105 -0.0238099 -0.0174896 -0.0110454 -0.00248615 -0.00273303 -0.000416536 -0.000365411 -3.33923e-05 2.42845e-05 -9.72599e-05 0.000125412 0.000146066 -0.000165843 -0.000261422 -0.000585822 -0.00134259 -0.00317134 -0.00569647 -0.00370667 -0.0124279 -0.0152579 -0.0171371 -0.0176705 -0.017445 -0.0153624 -0.0123611 -0.00911076 -0.00582091 -0.00135419 -0.00152962 -0.000744519 -0.000255941 -0.000429147 -2.28805e-05 -4.83364e-05 -4.18368e-05 -0.000166382 0.000111532 1.0577e-05 -0.000351735 -0.000215294 -0.00126143 -0.00084404 -0.00347264 -0.00496393 -0.00578214 -0.00104481 -0.00672289 -0.00669945 -0.00569801 -0.00483073 -0.00351117 -0.00225885 -0.00122425 -0.000224712 -0.000294317 7.94348e-06 -6.2876e-05 3.89376e-05 -9.62659e-05 0.000334376 2.07629e-05 -2.36441e-06 -1.71934e-05 0.000352924 0.000318089 0.000305361 0.000803145 0.000603316 0.00202576 0.00244787 0.00229621 0.00277055 0.00246556 0.00230174 0.00176664 0.00152433 0.00072406 0.000114738 0.000374449 0.000120491 -7.30132e-05 -7.09563e-05 8.72792e-06 4.31056e-06 -0.000159638 -7.2606e-05 -3.6762e-05 -0.000128522 -0.000550684 -0.0016764 -0.00134036 -0.00624838 -0.0097998 -0.01329 -0.0163323 -0.0182973 -0.0188339 -0.0180235 -0.0162409 -0.0133527 -0.00992699 -0.0061044 -0.00344992 -0.00166803 -0.000607963 -0.000138679 3.44771e-05 -0.000225643 2.22418e-05 -6.68484e-05 6.78877e-05 
6.64164e-06 0.000372695 0.000456319 0.00042284 -0.000101605 0.000124584 -0.000250136 -0.000262642 -0.00238857 -0.00215262 -0.00988356 -0.015324 -0.0211419 -0.0104004 -0.028986 -0.0301786 -0.029059 -0.025757 -0.0210047 -0.0152357 -0.00157418 -0.00549892 -0.0021999 -0.000767384 -3.10929e-05 4.93763e-06 -0.000142648 0.000194135 0.000239185 0.000220184 0.000340635 0.00120588 0.00372582 0.00906219 0.0191471 0.0344696 0.0532615 0.0291099 0.0895122 0.100497 0.104297 0.100405 0.0357411 0.0728501 0.0533765 0.0344704 0.0191784 0.00920162 0.00149254 0.000541612 0.000549975 0.000293168 0.000332108 0.000214364 0.00014866 7.23701e-06 -0.000191674 -0.000814236 -0.00265135 -0.00571303 -0.00422532 -0.00267483 -0.00918688 -0.0279947 -0.0318432 -0.0132434 -0.0316661 -0.0112883 -0.0228046 -0.0166954 -0.00418484 -0.00579445 -0.0024272 -0.000789869 -5.405e-05 0.000133933 0.000239788 4.82184e-05 0.000134245 0.000142439 5.00866e-05 -4.48046e-05 -0.000372911 -0.000454624 -0.00118605 -0.00550017 -0.00906886 -0.0122436 -0.00603144 -0.016963 -0.0174968 -0.00690424 -0.0151807 -0.0121756 -0.00891628 -0.00561816 -0.00317441 -0.00132025 -0.000526544 -4.07855e-05 -0.000207052 7.72552e-05 9.49569e-05 0.000112728 4.73454e-05 0.000320887 0.000232468 -0.000148172 -0.000143623 -0.00112458 -0.00203963 -0.00347586 -0.0020168 -0.00593137 -0.00672439 -0.00277456 -0.00275622 -0.00585403 -0.00491145 -0.0014051 -0.00218418 -0.00108816 -6.11742e-05 -3.77954e-05 0.000227388 0.000152741 0.00031135 0.00011868 0.000540903 0.000341766 0.000208247 0.000194388 0.000556485 0.000517254 0.000497438 0.000387854 0.00164425 0.0021337 0.00253123 0.00237218 0.00283236 0.00253403 0.00238635 0.00187828 0.00165801 0.000357663 0.000191436 0.000570187 0.000327927 5.65888e-05 0.000143111 9.44724e-05 0.000222824 5.94652e-05 0.000142592 0.000176861 8.25684e-05 -0.000346456 -0.00148406 -0.00319182 -0.00098063 -0.00973598 -0.0132813 -0.0163702 -0.0183657 -0.0189178 -0.0180983 -0.0162799 -0.0133396 -0.00394312 -0.00598853 -0.0032879 -0.00147843 -0.000404954 6.83055e-05 0.000245572 -3.62995e-06 0.000235146 0.000151327 0.000279273 
0.000305765 0.000640984 0.000712877 0.000681867 7.54132e-05 0.000395536 4.57935e-05 -0.000333823 -0.000789244 -0.00480082 -0.00904377 -0.0141827 -0.00786808 -0.0242587 -0.027079 -0.004512 -0.0271522 -0.0240282 -0.0195431 -0.0140967 -0.00900105 -0.00196402 -0.0017872 -0.000440151 8.62348e-05 0.000128144 0.000150787 0.000465178 0.000203486 0.000500135 0.00108908 0.00141682 0.0037794 0.00877377 0.0182195 0.0325782 0.0501755 0.0273795 0.0841349 0.094424 0.0979804 0.0943374 0.083984 0.02741 0.0502792 0.0325727 0.0182512 0.00890946 0.00378412 0.00155642 0.000803783 0.000557308 0.000595649 0.000195498 0.000170506 1.91845e-05 0.000123373 -0.000434091 -0.00209753 -0.001936 -0.00921555 -0.0147562 -0.0203764 -0.00995616 -0.0283658 -0.0295197 -0.0112832 -0.025106 -0.0202261 -0.0147292 -0.00911729 -0.00492335 -0.00187667 -0.000413206 0.000170167 0.000418195 0.000514898 0.000396909 0.000600058 0.000248831 0.000131548 0.000239046 -9.39331e-05 -0.00083555 -0.00261815 -0.00203886 -0.00342367 -0.0116662 -0.0144322 -0.0162677 -0.016783 -0.0165382 -0.0145218 -0.0046402 -0.00841666 -0.00519725 -0.00112495 -0.00101089 -0.000228852 9.58312e-05 9.3854e-05 0.00018595 0.000378678 0.000392358 0.000333084 0.00058372 0.000494352 4.45092e-05 -0.000136901 -0.000382795 -0.0019639 -0.00351091 -0.00517094 -0.0061749 -0.00702845 -0.00726602 -0.00718049 -0.00610604 -0.00202091 -0.00354381 -0.00211405 -0.000924291 -0.000164844 0.000164887 0.00048494 0.000425014 0.000576559 0.000397608 0.000316246 0.000598859 0.00047158 0.000446472 0.00029433 0.00059822 0.000153375 0.00021111 0.000783463 0.000870813 0.000366531 0.000219686 0.000914557 0.000705972 0.000786233 0.00025163 0.000320149 0.000457967 0.00014586 0.000258104 0.000523473 0.000396997 0.000412218 0.000506805 0.000491974 0.000138324 0.000417694 0.000454597 0.000373194 -4.1369e-06 -0.000404056 -0.00250873 -0.00510134 -0.00828834 -0.0114014 -0.0141227 -0.0158778 -0.0163595 -0.0156328 -0.014045 -0.0114514 -0.00839262 -0.00497112 -0.00259777 -0.000999523 -5.6744e-05 0.000364122 0.000206882 0.000283904 0.000509692 0.000428417 0.000550624 
0.000116239 0.000411468 0.00108692 0.00105828 0.000617931 0.000800563 0.000195269 0.000148846 -0.000530392 -0.00387097 -0.00768081 -0.0123105 -0.0172421 -0.0213689 -0.0239065 -0.0249134 -0.0239733 -0.0211653 -0.0171272 -0.012229 -0.00763969 -0.00396862 -0.00115757 5.46276e-05 0.000257388 0.000738189 0.000235461 0.000866569 0.000902444 0.000901111 0.000569696 0.000683912 0.00381585 0.00824341 0.0166249 0.0293794 0.0450011 0.0612194 0.0751542 0.0337137 0.0874407 0.0842112 0.0750192 0.0612929 0.0450895 0.0293723 0.00666412 0.00836594 0.00381485 0.00183873 0.00117057 0.000378663 0.000977895 0.000890148 0.000833576 0.000720241 0.000229286 9.26417e-05 -0.000541812 -0.00372341 -0.0075169 -0.0123204 -0.0171881 -0.0210897 -0.0241058 -0.010047 -0.0239732 -0.0212797 -0.0170518 -0.00196646 -0.00742696 -0.00380117 -0.00115454 0.000108222 0.000611127 0.000829959 0.000916751 0.000803847 0.000987596 0.00100851 0.000744129 0.000662208 0.000351662 -0.000326112 -0.00194936 -0.00422444 -0.00118013 -0.00163563 -0.01275 -0.0144257 -0.014892 -0.00234586 -0.0128268 -0.0101574 -0.00724511 -0.00172078 -0.00212384 -0.000482785 3.82629e-05 0.000661409 0.00021432 0.000869432 0.000791595 0.000802135 0.000298203 0.000966155 0.000869351 0.000478934 6.06888e-05 -0.000313432 -0.00198293 -0.00375044 -0.00224797 -0.00684793 -0.00782714 -0.00811824 -0.00796097 -0.00678966 -0.00220587 -0.00151072 -0.00212071 -0.000749304 5.14356e-05 0.000211125 0.000343294 0.00082535 0.000963925 0.000805992 0.00115383 0.000982133 0.000870694 0.000844725 0.00108335 0.000928039 0.000269414 0.000705086 0.000813133 0.000771464 0.00070743 0.000305144 0.000614142 0.000443772 0.000591986 0.000556014 0.000827283 0.000258334 0.000655972 0.000968358 0.00089563 0.000799885 0.000816405 0.000904474 0.000886898 0.000122042 0.000825213 0.000856663 0.000126025 0.000182564 -0.000417824 -0.000694208 -0.00400265 -0.00679818 -0.00951617 -0.0118926 -0.0134273 -0.0138501 -0.0132121 -0.0118277 -0.00382224 -0.00275224 -0.00388532 -0.00180846 -0.000409273 0.000411071 0.000781643 0.000913203 0.000707158 0.00090546 0.000834793 0.000938893 
0.00124872 0.00060212 0.00154423 0.00152336 0.00115095 0.000519264 0.0010287 0.0007161 -0.000240864 -0.00286791 -0.00626009 -0.0104041 -0.0147954 -0.018475 -0.00132834 -0.00865852 -0.0208159 -0.0183095 -0.0058798 -0.0103299 -0.006224 -0.00117826 -0.000445157 0.000636283 0.00116288 0.0012594 0.00112832 0.00136166 0.0013933 0.000560316 0.00183473 0.00206352 0.0038176 0.00299916 0.0144671 0.025074 0.038059 0.0515337 0.00404026 0.0707211 0.0293369 0.0282641 0.0630172 0.051609 0.0381297 0.025063 0.0144927 0.00304168 0.00381649 0.000868576 0.00161996 0.000570632 0.00144929 0.00138701 0.00133678 0.00124166 0.00113785 0.000307139 -0.000367291 -0.0021944 -0.00515755 -0.00889381 -0.0126781 -0.0156972 -0.0180526 -0.0188602 -0.00718012 -0.00634248 -0.0125608 -0.00886362 -0.00507614 -0.0009058 -0.000187857 0.000781931 0.000466144 0.00134196 0.00140588 0.00130966 0.00146078 0.00148153 0.00125325 0.00117628 0.000869231 0.000224734 -0.00129998 -0.0034572 -0.00639397 -0.00363967 -0.0114871 -0.00522416 -0.0135044 -0.0053012 -0.01154 -0.0090419 -0.00628799 -0.00350978 -0.00144955 8.70271e-05 0.000312494 0.00117451 6.94797e-05 0.00136765 0.00130306 0.00131031 0.0005035 0.00144486 0.00135738 0.00040548 0.000282496 -0.00015328 -0.00020241 -0.00115575 -0.00183591 -0.00229679 -0.00265552 -0.006914 -0.00675142 -0.00569397 -0.00450538 -0.00116566 -0.00055784 -0.000124218 0.000270268 0.00105632 0.00134352 0.00132363 0.00144175 0.00131256 0.00160467 0.00144817 0.00135792 0.00132831 0.000595852 0.00128716 0.000934128 0.000119089 0.000558737 0.000255038 -3.48471e-05 -0.000532107 -0.000323997 -0.000419713 -0.000129271 2.86954e-05 0.000573861 0.000278384 0.000367041 0.00132019 0.00133649 0.00129082 0.0013186 0.00139311 0.00137398 0.00127893 0.00132454 0.00135818 0.0012994 0.00103843 0.000332237 -0.000723973 -0.00101773 -0.00479536 -0.00278617 -0.00887443 -0.0101 -0.00417664 -0.00992882 -0.00882536 -0.0069989 -0.00194233 -0.000978552 -0.000778374 0.000345238 0.00100058 0.00129642 0.00140175 0.00123582 0.00139835 0.0013407 0.00142258 
