0.000149647 -5.78655e-05 -9.36282e-05 -0.000378723 -0.000901674 -0.00194643 -0.00400603 -0.00661611 -0.0100247 -0.0135109 -0.0169807 -0.019987 -0.0217416 -0.0216427 -0.0200792 -0.0172651 -0.0140163 -0.0109639 -0.0089494 -0.00873169 -0.00970357 -0.0119862 -0.015438 -0.0185335 -0.020864 -0.0218701 -0.0210349 -0.0185171 -0.0152023 -0.0121617 -0.00949807 -0.00819366 -0.00848266 -0.0100291 -0.012568 -0.0154267 -0.0179471 -0.0194111 -0.0194363 -0.0179813 -0.0155735 -0.0125501 -0.00994071 -0.00853058 -0.00830997 -0.0097288 -0.0122401 -0.0156119 -0.0187955 -0.021082 -0.0219289 -0.0211199 -0.0186587 -0.0155772 -0.012134 -0.0094355 -0.00809093 -0.00839227 -0.0099983 -0.0122981 -0.0152607 -0.0176852 -0.0191924 -0.0191234 -0.0178131 -0.0153134 -0.0124375 -0.00993554 -0.00823222 -0.00806097 -0.00935965 -0.0120286 -0.0151433 -0.0184057 -0.0207847 -0.0215874 -0.0206606 -0.0183337 -0.0151937 -0.011983 -0.00964442 -0.00863073 -0.00899571 -0.0110894 -0.0140013 -0.0172889 -0.020268 -0.0217608 -0.0217635 -0.020066 -0.0171566 -0.0135912 -0.0101371 -0.00657886 -0.00406868 -0.00228939 -0.000952709 -0.000162287 -8.26629e-06 -0.000102857 
0.000152306 -4.92212e-05 -8.10801e-05 -0.000345914 -0.000798938 -0.00173373 -0.00360367 -0.00593061 -0.0090119 -0.0121129 -0.0152098 -0.0179132 -0.0195043 -0.019402 -0.0180106 -0.0155018 -0.012619 -0.00995193 -0.0082959 -0.00839072 -0.00960396 -0.0120589 -0.0156477 -0.018813 -0.0211862 -0.0222104 -0.0213567 -0.0187963 -0.0154336 -0.0123189 -0.00957903 -0.00819916 -0.00840895 -0.00989561 -0.0123599 -0.0151483 -0.0176188 -0.0190564 -0.0190785 -0.0176601 -0.0152978 -0.0123442 -0.00980869 -0.0084901 -0.00838684 -0.00992754 -0.0125707 -0.016065 -0.0193596 -0.0217136 -0.0225881 -0.0217597 -0.0192268 -0.0160274 -0.0124791 -0.00966825 -0.00822786 -0.00845329 -0.00999873 -0.0122803 -0.0152243 -0.0176371 -0.0191431 -0.0190635 -0.0177594 -0.0152662 -0.0124035 -0.00991546 -0.00822836 -0.00806524 -0.00938041 -0.0120706 -0.0151982 -0.0184754 -0.0208664 -0.0216658 -0.0207452 -0.0184157 -0.0152643 -0.0120711 -0.00978267 -0.00885012 -0.00933458 -0.0115811 -0.0146755 -0.0181316 -0.0212611 -0.0228353 -0.0228336 -0.0210577 -0.0180019 -0.0142491 -0.0106384 -0.00691324 -0.00426938 -0.00238553 -0.00100503 -0.00018597 -2.03007e-05 -0.000111308 
0.000154369 -3.56355e-05 -5.84005e-05 -0.000288525 -0.000621059 -0.00136177 -0.00289805 -0.00473757 -0.00724081 -0.00967704 -0.0121327 -0.0143048 -0.0156031 -0.015497 -0.0144039 -0.0124312 -0.0101901 -0.00819614 -0.00718257 -0.00783447 -0.00949825 -0.0122833 -0.0161376 -0.0194642 -0.0219284 -0.0229884 -0.0220934 -0.0194466 -0.0159804 -0.0127247 -0.00986196 -0.00838802 -0.00854295 -0.0100249 -0.0124798 -0.0152764 -0.0177627 -0.0192141 -0.0192315 -0.0178117 -0.01542 -0.0124468 -0.00986642 -0.00848816 -0.00834126 -0.00981629 -0.0123988 -0.0158221 -0.0190601 -0.0213658 -0.0222224 -0.0214148 -0.0189341 -0.015771 -0.0122951 -0.00954551 -0.0081485 -0.00839565 -0.00992849 -0.0122364 -0.0151703 -0.0175821 -0.0190804 -0.018989 -0.0176834 -0.015202 -0.0123485 -0.00986325 -0.00816952 -0.00796741 -0.00923966 -0.0118759 -0.0149381 -0.0181551 -0.0205067 -0.0212848 -0.0203931 -0.0181061 -0.0150181 -0.0119191 -0.00974471 -0.00893515 -0.00956749 -0.0119601 -0.0152254 -0.0188269 -0.022088 -0.023729 -0.0237188 -0.0218833 -0.0187024 -0.0147907 -0.0110566 -0.0071958 -0.00443302 -0.00245968 -0.00105085 -0.000205281 -3.69979e-05 -0.000119238 
0.000163009 -1.15879e-05 -2.01309e-05 -0.000185503 -0.000315189 -0.000713848 -0.00166719 -0.00267155 -0.0041647 -0.00545341 -0.00679551 -0.00805663 -0.00883567 -0.00872723 -0.0081545 -0.00710988 -0.00597982 -0.00514506 -0.00523916 -0.00683934 -0.00926096 -0.0126007 -0.016879 -0.0204601 -0.0230723 -0.0241872 -0.02323 -0.0204511 -0.0168179 -0.0133306 -0.0102499 -0.00858725 -0.00859502 -0.00999127 -0.0123503 -0.0150731 -0.0175147 -0.0189504 -0.0189611 -0.0175788 -0.0152066 -0.0122961 -0.00974548 -0.00837864 -0.00827311 -0.00974314 -0.0123274 -0.0157296 -0.0189548 -0.0212354 -0.0220815 -0.0212872 -0.0188427 -0.0156724 -0.0122504 -0.00954895 -0.00820974 -0.00851086 -0.0100681 -0.0124918 -0.0154848 -0.0179633 -0.0194876 -0.019375 -0.0180287 -0.0155038 -0.0125826 -0.0100396 -0.0083005 -0.00801932 -0.00925772 -0.0118779 -0.014919 -0.0181164 -0.0204659 -0.0212414 -0.0203665 -0.0180829 -0.0149919 -0.0119024 -0.00973318 -0.00890999 -0.00952947 -0.0118921 -0.0151603 -0.018735 -0.0219971 -0.023627 -0.0236082 -0.0217906 -0.0186159 -0.0146983 -0.0110174 -0.0071789 -0.00440847 -0.00242572 -0.00105931 -0.000215239 -6.19888e-05 -0.000129774 
0.000177116 2.2125e-05 3.48633e-05 -4.2483e-05 0.000119317 0.00020477 7.20971e-05 0.000253131 0.000186093 0.000526618 0.000758711 0.000788504 0.000742245 0.000854455 0.000691258 0.000421444 -1.61337e-05 -0.000818512 -0.0024648 -0.00539188 -0.0088569 -0.0129483 -0.0178 -0.021708 -0.0245096 -0.025694 -0.0246564 -0.0217115 -0.017879 -0.014115 -0.0107908 -0.00894011 -0.00883427 -0.0102147 -0.0125437 -0.0152639 -0.0177246 -0.0191831 -0.0191835 -0.0178108 -0.0153854 -0.0124682 -0.00985938 -0.00842781 -0.00832579 -0.00976144 -0.0123464 -0.0157344 -0.0189595 -0.0212207 -0.0220574 -0.0212775 -0.0188643 -0.0156619 -0.0122942 -0.00965025 -0.00839876 -0.00880218 -0.0104346 -0.0130774 -0.0162095 -0.0188271 -0.0204161 -0.0202732 -0.0188421 -0.0162077 -0.0131367 -0.0104535 -0.00859988 -0.00817264 -0.00934087 -0.0119296 -0.0149403 -0.0181202 -0.0204738 -0.0212419 -0.0203933 -0.0181069 -0.0150099 -0.0119432 -0.0098141 -0.00903285 -0.00972099 -0.0121555 -0.0155566 -0.0192208 -0.0225902 -0.0242646 -0.0242311 -0.0223794 -0.0191066 -0.0150537 -0.0113232 -0.00739444 -0.00452026 -0.00245515 -0.00110546 -0.000238742 -9.9681e-05 -0.00014804 
0.00018997 6.7553e-05 0.000106055 0.000154149 0.000695975 0.00142522 0.00239302 0.0041479 0.00598438 0.00848833 0.0108204 0.0125671 0.0134964 0.0136133 0.0124719 0.0104533 0.00792428 0.00494129 0.00122109 -0.00347367 -0.00834295 -0.0134474 -0.0190617 -0.0234189 -0.0264764 -0.0277552 -0.026608 -0.0234366 -0.0193249 -0.0151614 -0.0114682 -0.00930137 -0.00895763 -0.0102116 -0.0123914 -0.0149978 -0.0173946 -0.0188373 -0.0188254 -0.0175102 -0.0151032 -0.0122812 -0.00970956 -0.00829116 -0.00826947 -0.00971193 -0.01233 -0.0157111 -0.0189448 -0.0211795 -0.0220054 -0.0212448 -0.018872 -0.0156108 -0.0122889 -0.00966038 -0.00842138 -0.00880638 -0.0103585 -0.0130839 -0.0162013 -0.0188389 -0.020417 -0.0202344 -0.0187861 -0.0161707 -0.0131033 -0.01044 -0.00862095 -0.00815329 -0.00934168 -0.011956 -0.0149727 -0.0181432 -0.0205085 -0.0212707 -0.0204542 -0.0181642 -0.0150405 -0.0119834 -0.00986688 -0.00907333 -0.00977168 -0.0121957 -0.0156558 -0.0193262 -0.0227437 -0.0244228 -0.0243719 -0.022528 -0.019219 -0.0150975 -0.0114129 -0.00747152 -0.00453927 -0.00242531 -0.00113774 -0.000265374 -0.000149499 -0.000169739 
0.000208168 0.000124116 0.000195079 0.000395217 0.0014101 0.00293579 0.00526164 0.00896745 0.0131542 0.0183354 0.0232681 0.0271407 0.0292727 0.0293993 0.0270462 0.0228603 0.0177323 0.0120316 0.00569575 -0.00126633 -0.00797933 -0.0144615 -0.0211619 -0.0261977 -0.0296545 -0.0310854 -0.0297703 -0.0262306 -0.0216506 -0.0168601 -0.0125815 -0.00992017 -0.00920889 -0.0102671 -0.0122424 -0.0147061 -0.0170266 -0.0184518 -0.0184237 -0.0171783 -0.0147908 -0.0120775 -0.00954808 -0.00814224 -0.00821941 -0.00967605 -0.0123391 -0.0157202 -0.0189722 -0.0211797 -0.021994 -0.0212548 -0.0189287 -0.0155915 -0.0123246 -0.00972477 -0.00852217 -0.00892645 -0.0104267 -0.0133095 -0.0164651 -0.019174 -0.0207674 -0.0205334 -0.0190379 -0.0163996 -0.0132747 -0.0105731 -0.00872857 -0.00814658 -0.00929854 -0.0118931 -0.0148652 -0.0179847 -0.0203397 -0.021088 -0.0203169 -0.0180482 -0.0149323 -0.0119315 -0.00988177 -0.00912514 -0.00988887 -0.0123519 -0.0159359 -0.0196576 -0.0231745 -0.0248779 -0.0248042 -0.022951 -0.0195638 -0.0153137 -0.0116449 -0.0076452 -0.00461068 -0.00241506 -0.00118845 -0.000299708 -0.00021135 -0.000197067 
0.000226761 0.000180961 0.000285111 0.000640114 0.00213389 0.00447051 0.00817421 0.0138573 0.0204291 0.0283265 0.0358952 0.0419234 0.0452764 0.0454112 0.0418328 0.0354479 0.0276929 0.0192507 0.0102998 0.00109651 -0.00740672 -0.0151926 -0.0228904 -0.0285225 -0.0323215 -0.0338794 -0.0324185 -0.0285742 -0.0236195 -0.0183126 -0.0135773 -0.0105549 -0.00961783 -0.0106194 -0.0125247 -0.0149683 -0.0173086 -0.0187711 -0.0187257 -0.0174973 -0.0150341 -0.0123217 -0.00972064 -0.00823236 -0.00834666 -0.00978319 -0.0124925 -0.0158955 -0.0191891 -0.021391 -0.0222003 -0.021476 -0.0191701 -0.0157207 -0.0124663 -0.00984977 -0.00863803 -0.00901428 -0.0104177 -0.0134263 -0.0165866 -0.0193394 -0.020933 -0.0206491 -0.0191166 -0.0164796 -0.0133289 -0.0106124 -0.00876083 -0.00807605 -0.00918957 -0.0117455 -0.014655 -0.0177031 -0.0200341 -0.0207559 -0.0200422 -0.0178091 -0.014722 -0.0118031 -0.00984939 -0.00915289 -0.010001 -0.0125179 -0.0162374 -0.0200204 -0.0236416 -0.0253738 -0.025275 -0.0234091 -0.0199352 -0.0155527 -0.011895 -0.00783322 -0.00468925 -0.00240882 -0.00124154 -0.000334324 -0.000276084 -0.000226421 
0.000243832 0.000233627 0.000369209 0.000864592 0.00280474 0.0058861 0.0108619 0.0183749 0.0271516 0.0375618 0.0475655 0.0555885 0.0600719 0.0602143 0.0554975 0.0470821 0.0368928 0.0259046 0.0145101 0.00319287 -0.00701951 -0.0160749 -0.0247711 -0.0310186 -0.035179 -0.0368742 -0.0352604 -0.0310837 -0.02571 -0.0198384 -0.0145744 -0.0111055 -0.00983623 -0.0106601 -0.0123751 -0.0146843 -0.0169525 -0.0183961 -0.0183365 -0.0171743 -0.0147287 -0.012116 -0.00954139 -0.00804054 -0.00820689 -0.00960153 -0.0122847 -0.015613 -0.0188576 -0.0209876 -0.0217687 -0.0210804 -0.0188679 -0.0154184 -0.0122978 -0.0097983 -0.00871232 -0.00919519 -0.0106336 -0.0138663 -0.0171296 -0.0200046 -0.0216402 -0.0213087 -0.0197033 -0.0169952 -0.0137312 -0.0109231 -0.00900725 -0.00819059 -0.00926872 -0.0118272 -0.0147251 -0.0177614 -0.0201065 -0.0208258 -0.0201452 -0.017903 -0.0147908 -0.0118892 -0.00996601 -0.00929113 -0.0102024 -0.0127727 -0.0166363 -0.0204998 -0.024241 -0.0260121 -0.0258926 -0.0240024 -0.0204263 -0.0158886 -0.0122094 -0.00806006 -0.00479617 -0.00241962 -0.00129793 -0.000368181 -0.000332809 -0.00025149 
0.000260512 0.000280687 0.000443726 0.00106758 0.0034039 0.00715886 0.0132768 0.0224272 0.0331812 0.0458416 0.0580296 0.0678375 0.0733345 0.0734828 0.067751 0.0575134 0.0451499 0.031895 0.0183442 0.00518764 -0.00648351 -0.0165924 -0.0260833 -0.0327967 -0.0372232 -0.0390155 -0.0372889 -0.03288 -0.0272223 -0.0209537 -0.0153423 -0.0116007 -0.0101649 -0.0109565 -0.0126248 -0.014925 -0.0172142 -0.0186911 -0.0186169 -0.0174669 -0.0149541 -0.0123403 -0.00970534 -0.00814007 -0.00834818 -0.00974102 -0.0124834 -0.0158541 -0.0191538 -0.0212951 -0.0220774 -0.0213956 -0.0191842 -0.0156224 -0.0124918 -0.00996194 -0.00886146 -0.00932381 -0.0106921 -0.0140476 -0.0173335 -0.020261 -0.0219072 -0.0215348 -0.0198879 -0.0171637 -0.0138561 -0.0110133 -0.00907138 -0.00815034 -0.00918162 -0.0116963 -0.0145333 -0.0175041 -0.0198261 -0.0205226 -0.0198902 -0.01768 -0.0145937 -0.0117571 -0.00990494 -0.00926255 -0.0102143 -0.0127937 -0.0167291 -0.0206027 -0.024396 -0.0261728 -0.0260329 -0.0241502 -0.0205357 -0.0159299 -0.0123003 -0.00813925 -0.0048147 -0.00238987 -0.00133102 -0.00039312 -0.000386092 -0.000275658 
0.000273552 0.000314334 0.000497928 0.00120946 0.00383474 0.00806838 0.0150014 0.0253294 0.037498 0.0517751 0.0655262 0.0766154 0.0828384 0.08299 0.076528 0.0649892 0.0510743 0.0362016 0.0211305 0.00668819 -0.00597657 -0.0167834 -0.0267898 -0.0337782 -0.038361 -0.0402099 -0.038416 -0.0338737 -0.0280603 -0.0215553 -0.0157282 -0.0118022 -0.0102233 -0.0109486 -0.0125201 -0.0147443 -0.0169915 -0.0184548 -0.01837 -0.0172664 -0.0147628 -0.0122198 -0.00960894 -0.00805948 -0.0083416 -0.00975973 -0.0125497 -0.015941 -0.0192681 -0.0214065 -0.022187 -0.0215145 -0.019317 -0.0156998 -0.0125998 -0.0100979 -0.00905544 -0.00959059 -0.011009 -0.0145563 -0.0179581 -0.0210048 -0.0227078 -0.0223049 -0.020585 -0.0177661 -0.0143295 -0.0113656 -0.00932476 -0.00826608 -0.00922726 -0.0117055 -0.0145029 -0.0174474 -0.0197658 -0.0204519 -0.019849 -0.017646 -0.0145633 -0.0117644 -0.00996888 -0.00938677 -0.0104236 -0.0130921 -0.0171758 -0.021152 -0.0250621 -0.0268915 -0.0267378 -0.0248143 -0.0210914 -0.0163356 -0.0126432 -0.0083798 -0.00494293 -0.00242586 -0.00138071 -0.000420887 -0.000423425 -0.000294101 
0.000278214 0.000335408 0.000531506 0.00130487 0.00410826 0.00864858 0.0161054 0.0271747 0.0402503 0.0555517 0.0702952 0.0821973 0.0888871 0.0890395 0.0821139 0.0697439 0.0548356 0.0389276 0.0228641 0.00757322 -0.00577552 -0.0170811 -0.0274655 -0.0346895 -0.0394048 -0.0413018 -0.0394507 -0.0347916 -0.0288349 -0.0221357 -0.0161413 -0.0120925 -0.0104586 -0.0111915 -0.0127747 -0.0150288 -0.0173142 -0.0188116 -0.0187227 -0.0176022 -0.015037 -0.0124502 -0.00975712 -0.00810707 -0.0083196 -0.00963487 -0.0123429 -0.0156419 -0.0188986 -0.0209747 -0.02173 -0.021083 -0.0189555 -0.0153763 -0.0123639 -0.00993198 -0.00893909 -0.00948174 -0.0108582 -0.0144267 -0.0177961 -0.0208321 -0.0225096 -0.0220901 -0.0203743 -0.0175946 -0.0141954 -0.0112818 -0.00930489 -0.00827995 -0.00931004 -0.0118566 -0.0147169 -0.0177034 -0.020059 -0.0207546 -0.0201554 -0.0179147 -0.014772 -0.0119188 -0.0100603 -0.00939968 -0.0103734 -0.0129659 -0.0170099 -0.0209312 -0.0248162 -0.026618 -0.0264563 -0.024564 -0.0208696 -0.016141 -0.0125249 -0.00830983 -0.00488508 -0.00237912 -0.0013809 -0.000425471 -0.000446466 -0.000302644 
0.000281392 0.000344131 0.000546402 0.00134249 0.00422615 0.00889907 0.0165816 0.0279773 0.0414446 0.0571925 0.0723651 0.0846227 0.0915144 0.091665 0.0845406 0.0718148 0.0564924 0.0401614 0.0237402 0.00819306 -0.00529628 -0.0166403 -0.0269959 -0.034142 -0.038798 -0.0406674 -0.0388378 -0.0342506 -0.0284013 -0.0218005 -0.0159084 -0.0119391 -0.0103547 -0.0111246 -0.0127075 -0.0149498 -0.0172237 -0.0187134 -0.0186201 -0.0175173 -0.0149558 -0.0123975 -0.00971379 -0.00807076 -0.00830866 -0.00963079 -0.0123536 -0.0156586 -0.0189195 -0.0209961 -0.021751 -0.0211071 -0.0189817 -0.0153904 -0.0123917 -0.00997109 -0.00899873 -0.00956617 -0.0109623 -0.0145945 -0.0179996 -0.0210707 -0.022769 -0.0223434 -0.0206017 -0.0177873 -0.0143422 -0.0113719 -0.00933473 -0.00822238 -0.00916342 -0.0116161 -0.0143813 -0.0172875 -0.01959 -0.0202601 -0.0196918 -0.0175043 -0.0144364 -0.0116739 -0.00990864 -0.00933011 -0.01037 -0.0130119 -0.017108 -0.0210596 -0.024971 -0.0267916 -0.0266252 -0.0247224 -0.021 -0.0162363 -0.0126049 -0.00836947 -0.00491725 -0.00238503 -0.00139273 -0.000434626 -0.000456557 -0.000307915 
0.000277132 0.000342209 0.000543706 0.00133995 0.00421402 0.00887122 0.0165361 0.0278954 0.0413328 0.0570386 0.0721606 0.0843823 0.0912633 0.0914047 0.0843014 0.0716224 0.0563735 0.0401368 0.0238892 0.00858492 -0.00459489 -0.0155929 -0.0255687 -0.0323824 -0.0368192 -0.0385963 -0.0368526 -0.0324952 -0.0269672 -0.0207146 -0.0151519 -0.0114382 -0.0100153 -0.0108555 -0.0124497 -0.0146588 -0.016894 -0.0183556 -0.0182646 -0.017187 -0.0146666 -0.0121689 -0.00952961 -0.00792521 -0.00817959 -0.00949159 -0.0121913 -0.0154545 -0.0186745 -0.0207222 -0.0214674 -0.0208352 -0.0187361 -0.015187 -0.0122359 -0.00985011 -0.00890187 -0.00946275 -0.0108496 -0.0144554 -0.0178263 -0.0208683 -0.0225476 -0.0221276 -0.0204026 -0.0176155 -0.0142167 -0.0112925 -0.00932317 -0.00828216 -0.00930382 -0.0118379 -0.014694 -0.0176806 -0.0200318 -0.0207158 -0.0201359 -0.0178944 -0.0147486 -0.0119042 -0.0100522 -0.00940569 -0.0103848 -0.0129822 -0.0170431 -0.0209716 -0.0248544 -0.0266718 -0.0265086 -0.0246125 -0.0209038 -0.0161623 -0.0125449 -0.00833379 -0.00489795 -0.00237014 -0.00138752 -0.000437891 -0.000454201 -0.000307058 
0.000273653 0.000326758 0.000524832 0.00128176 0.00405793 0.00854696 0.0159169 0.0268533 0.0397887 0.0549208 0.0694621 0.0812272 0.087859 0.087985 0.0811548 0.0689556 0.0543317 0.038781 0.0233556 0.00893857 -0.00329546 -0.0133637 -0.0224128 -0.0284539 -0.0323883 -0.0339551 -0.0324107 -0.028578 -0.0237836 -0.0183833 -0.013692 -0.010756 -0.00998819 -0.0113405 -0.0133598 -0.0159048 -0.0183771 -0.0199536 -0.0198629 -0.0186608 -0.0159205 -0.0131692 -0.0102452 -0.00839132 -0.00843022 -0.00957557 -0.0121657 -0.0153637 -0.0185217 -0.0205561 -0.0212926 -0.0206661 -0.018569 -0.015078 -0.0121632 -0.00982993 -0.00894784 -0.0095805 -0.0110656 -0.0147526 -0.0181979 -0.0212905 -0.0230085 -0.0226113 -0.0208416 -0.0179804 -0.0145063 -0.0114629 -0.00937414 -0.00821965 -0.00908691 -0.0114435 -0.0141511 -0.0170242 -0.0192858 -0.019918 -0.0193833 -0.0172174 -0.0142047 -0.0114983 -0.00979184 -0.00929789 -0.0103909 -0.0130941 -0.0172256 -0.0212275 -0.0251338 -0.0269956 -0.0268327 -0.0249028 -0.0211439 -0.0163744 -0.0126784 -0.00842895 -0.00496532 -0.00241114 -0.001393 -0.000436673 -0.000442474 -0.00030477 
0.000258956 0.000295549 0.000480271 0.00116507 0.00371285 0.007822 0.0145477 0.0245395 0.036366 0.0502194 0.0634884 0.0742341 0.0803103 0.0804088 0.0741727 0.0630348 0.04975 0.0356512 0.0218662 0.00914071 -0.00138576 -0.00983906 -0.0173073 -0.0220782 -0.025191 -0.0264168 -0.0251991 -0.0222135 -0.0185916 -0.0145465 -0.0112006 -0.00941924 -0.00956109 -0.0115417 -0.0140489 -0.0169302 -0.0196187 -0.0212889 -0.0212059 -0.0198841 -0.016961 -0.0139898 -0.0108177 -0.00875265 -0.00857008 -0.00953754 -0.0119895 -0.0150851 -0.0181413 -0.0201424 -0.0208643 -0.0202494 -0.0181646 -0.0147795 -0.0119146 -0.00962667 -0.00877223 -0.00938737 -0.0108862 -0.0144895 -0.0178712 -0.0208901 -0.0225766 -0.0222211 -0.0204799 -0.0176569 -0.0142675 -0.0112645 -0.00923236 -0.00815903 -0.00904672 -0.0113797 -0.0141027 -0.0169971 -0.019248 -0.0198552 -0.0193336 -0.0171586 -0.0141553 -0.011443 -0.00972346 -0.00924292 -0.0103137 -0.0130066 -0.0170823 -0.021068 -0.0249006 -0.0267714 -0.0266183 -0.024688 -0.0209544 -0.0162625 -0.0125497 -0.00834972 -0.00493593 -0.00240889 -0.00136781 -0.00042711 -0.000413522 -0.000294155 
0.000240238 0.000248553 0.000413568 0.000987904 0.00319391 0.00673372 0.0124903 0.0210631 0.031224 0.0431574 0.054514 0.0637265 0.0689712 0.0690261 0.0636821 0.0541411 0.0428769 0.0309731 0.0196875 0.00955639 0.00167271 -0.0042699 -0.00927036 -0.0120445 -0.0138697 -0.01456 -0.0138563 -0.012202 -0.0104208 -0.00850044 -0.00725805 -0.00727368 -0.00881495 -0.0117515 -0.0149865 -0.018357 -0.0213541 -0.0231525 -0.0230802 -0.0215926 -0.018412 -0.01514 -0.0116252 -0.00928217 -0.00881455 -0.00956415 -0.0118615 -0.014857 -0.0178046 -0.0197884 -0.0205004 -0.0198911 -0.017793 -0.014532 -0.0117108 -0.00947352 -0.00867431 -0.00930885 -0.0108975 -0.0144656 -0.0178413 -0.0208241 -0.0225109 -0.022218 -0.0204751 -0.0176308 -0.0142721 -0.011233 -0.00920088 -0.00817525 -0.00904048 -0.0113071 -0.0140322 -0.0169522 -0.0191848 -0.0197544 -0.0192527 -0.0170636 -0.0140748 -0.0113484 -0.00960103 -0.00913062 -0.010143 -0.0127971 -0.0167622 -0.0206955 -0.0243927 -0.0262675 -0.0261303 -0.0242099 -0.0205361 -0.0159885 -0.0122773 -0.00817909 -0.00486211 -0.00238815 -0.00132254 -0.000410701 -0.000369089 -0.000278742 
0.000212701 0.000185838 0.000323514 0.000751835 0.00249551 0.00526756 0.00972064 0.0163821 0.0242996 0.0336453 0.0424302 0.0495786 0.0537005 0.0537003 0.0495561 0.0421615 0.0336008 0.0246263 0.0166365 0.00989296 0.00541809 0.00268664 0.000824363 0.000567311 0.000366059 0.000350006 0.000406055 0.000385739 -0.000146221 -0.000900543 -0.00230499 -0.00458231 -0.00788892 -0.0120268 -0.0161846 -0.0201777 -0.0235675 -0.0255307 -0.025474 -0.0237695 -0.0202631 -0.0165997 -0.0126437 -0.00993279 -0.00907212 -0.00951111 -0.0115694 -0.0143933 -0.0171642 -0.0190991 -0.0197889 -0.0191953 -0.0171061 -0.0140389 -0.0113 -0.00914321 -0.00840518 -0.00902833 -0.0106797 -0.0141219 -0.0174154 -0.0202887 -0.021936 -0.0217258 -0.0200194 -0.0172135 -0.0139755 -0.0109739 -0.00901852 -0.00812698 -0.00902047 -0.0112431 -0.0140056 -0.0169788 -0.0191995 -0.0197269 -0.0192435 -0.0170258 -0.0140386 -0.0112741 -0.00946615 -0.00898166 -0.00989768 -0.0124771 -0.0162727 -0.0201179 -0.0236232 -0.0254907 -0.0253752 -0.0234775 -0.0198996 -0.0155604 -0.0118681 -0.00791892 -0.00474238 -0.00235188 -0.00125758 -0.000386456 -0.000309241 -0.000256443 
0.000179919 0.000112037 0.000218958 0.000474051 0.00168081 0.00355471 0.0064826 0.0109135 0.0162085 0.022534 0.0283112 0.0330513 0.0358601 0.0357953 0.0330537 0.0281667 0.0227687 0.0172206 0.0130964 0.01033 0.00986709 0.0109234 0.01276 0.0154768 0.0171962 0.0179773 0.017269 0.0152687 0.0119951 0.00806684 0.00351026 -0.00147762 -0.00692547 -0.0125501 -0.0178674 -0.0226667 -0.0265782 -0.0287676 -0.0287291 -0.0267367 -0.0227874 -0.01859 -0.0140311 -0.0108044 -0.00940412 -0.00940788 -0.0111238 -0.0136921 -0.0162106 -0.0180593 -0.0187117 -0.0181474 -0.0160966 -0.0132967 -0.0106981 -0.00868258 -0.00805793 -0.0087039 -0.0104584 -0.0137805 -0.0169979 -0.0197584 -0.0213667 -0.0212543 -0.019581 -0.0168057 -0.0136936 -0.0107146 -0.00882846 -0.00807725 -0.00898552 -0.011139 -0.0139308 -0.0169581 -0.0191572 -0.0196283 -0.0191731 -0.0169276 -0.0139599 -0.0111781 -0.00934093 -0.00890021 -0.009782 -0.0123649 -0.0160613 -0.0199007 -0.0232602 -0.0251642 -0.0250719 -0.0231579 -0.0196122 -0.0154231 -0.011658 -0.00779309 -0.0047111 -0.00236698 -0.0012066 -0.000364888 -0.000240446 -0.000231736 
0.000147599 3.34588e-05 0.000107569 0.000175937 0.000809122 0.00172466 0.00302288 0.00507114 0.00756401 0.0106601 0.0132259 0.0153922 0.0167993 0.0166659 0.0154217 0.0132137 0.0111914 0.00930074 0.00929373 0.0107608 0.0145624 0.0196359 0.0253948 0.0312629 0.0350142 0.0366389 0.0351202 0.0310238 0.0248565 0.0175803 0.00970976 0.00188957 -0.00576692 -0.0128986 -0.0193712 -0.0249537 -0.0293589 -0.0317527 -0.0317322 -0.0294707 -0.0251108 -0.020421 -0.0153017 -0.0115996 -0.00968869 -0.00927833 -0.0106629 -0.0129844 -0.0152511 -0.0170199 -0.0176367 -0.0170983 -0.0150814 -0.0125616 -0.0101122 -0.0082573 -0.00778134 -0.00850272 -0.0104275 -0.0136921 -0.0168971 -0.0195949 -0.0211983 -0.0211894 -0.0195181 -0.0167161 -0.0136582 -0.0106225 -0.00872493 -0.00803343 -0.00887097 -0.010874 -0.0136215 -0.0166455 -0.0187828 -0.0191856 -0.0187689 -0.0165313 -0.0136361 -0.010879 -0.00903861 -0.00864727 -0.00946013 -0.0119895 -0.0155052 -0.0192562 -0.0223915 -0.0242972 -0.0242309 -0.0223375 -0.0188977 -0.0149528 -0.0111928 -0.00749893 -0.00458137 -0.00233172 -0.00112871 -0.000334248 -0.000164645 -0.000203543 
0.000114936 -3.99821e-05 3.69015e-06 -0.000100251 1.12956e-06 2.81127e-05 -0.000183846 -0.000343114 -0.000447815 -0.000342309 -0.000756097 -0.000974205 -0.000868074 -0.0010674 -0.000918802 -0.000640257 0.000483982 0.00200987 0.005893 0.011395 0.0193011 0.0282773 0.037867 0.0468323 0.0525865 0.0550428 0.0527275 0.0465637 0.0375323 0.0269503 0.0157948 0.00515577 -0.0047173 -0.0133875 -0.021047 -0.0274483 -0.0323798 -0.0350001 -0.0349957 -0.0324489 -0.0276431 -0.0224248 -0.0167082 -0.0125073 -0.0100898 -0.00928521 -0.0103808 -0.0125035 -0.0145659 -0.0162845 -0.0168774 -0.0163572 -0.0143395 -0.0120354 -0.00967192 -0.00789954 -0.00748323 -0.00818105 -0.0101714 -0.0132917 -0.0163966 -0.0189612 -0.02052 -0.0206096 -0.0189779 -0.0162175 -0.0133004 -0.0102894 -0.00845063 -0.00787061 -0.00866971 -0.0105312 -0.0132318 -0.0162413 -0.0183088 -0.0186319 -0.0182664 -0.016052 -0.0132457 -0.010552 -0.00876684 -0.00849378 -0.00933024 -0.0119088 -0.0153602 -0.01913 -0.0221349 -0.0240913 -0.0240466 -0.0221266 -0.0187015 -0.0148877 -0.0110367 -0.00741156 -0.00457381 -0.00235673 -0.00108306 -0.000317338 -9.77029e-05 -0.00018066 
8.87817e-05 -0.000103326 -8.65074e-05 -0.000340468 -0.000703103 -0.00145142 -0.00298176 -0.00506845 -0.00743988 -0.0099449 -0.0129551 -0.0152557 -0.016284 -0.016538 -0.0151793 -0.0127351 -0.00888398 -0.0044064 0.00279188 0.011692 0.0230137 0.0352008 0.0479195 0.0593957 0.0667676 0.0698954 0.0669346 0.0591031 0.047767 0.0345146 0.0207138 0.00780743 -0.0038438 -0.0137351 -0.0223401 -0.0293889 -0.0347337 -0.0375287 -0.0375398 -0.0347657 -0.0296139 -0.023979 -0.0177935 -0.0131993 -0.0103661 -0.00923307 -0.010074 -0.0120139 -0.0138901 -0.015555 -0.0161234 -0.0156205 -0.0136174 -0.0115199 -0.00925422 -0.00758802 -0.00726927 -0.00800561 -0.0101147 -0.0131696 -0.0162509 -0.0187538 -0.0203013 -0.0204736 -0.0188513 -0.0160816 -0.0132263 -0.0101932 -0.00837609 -0.00788538 -0.00867865 -0.0104757 -0.0131987 -0.0162564 -0.0183092 -0.0185892 -0.0182424 -0.0160003 -0.0132032 -0.01048 -0.0086493 -0.0083867 -0.00915673 -0.0116985 -0.0150214 -0.0187433 -0.0215896 -0.0235575 -0.023534 -0.0216182 -0.0182562 -0.0146117 -0.0107393 -0.0072249 -0.00449977 -0.00234521 -0.00102808 -0.000294722 -3.73141e-05 -0.000158759 
6.77749e-05 -0.000151285 -0.000154856 -0.000521959 -0.00123545 -0.00257169 -0.00509923 -0.00864381 -0.0127299 -0.0172091 -0.0221843 -0.0260599 -0.0279466 -0.0282424 -0.0259684 -0.0218846 -0.015969 -0.00925668 0.000456005 0.0119359 0.0258538 0.0404852 0.0555868 0.0689767 0.0775826 0.0812221 0.0777697 0.0686674 0.0555733 0.0402868 0.0244732 0.00984433 -0.00315363 -0.0139648 -0.0232772 -0.0308059 -0.0364552 -0.0393777 -0.0394009 -0.0364591 -0.031054 -0.0251129 -0.01858 -0.013693 -0.0105439 -0.00915677 -0.00979474 -0.011582 -0.0133049 -0.014919 -0.0154658 -0.0149798 -0.0129973 -0.0110676 -0.0088884 -0.00731111 -0.00706822 -0.00782689 -0.0100151 -0.0130032 -0.0160494 -0.0184909 -0.0200202 -0.0202553 -0.0186497 -0.0158883 -0.0131011 -0.0100734 -0.00829718 -0.00789954 -0.00871401 -0.0104871 -0.0132511 -0.0163658 -0.0184198 -0.0186711 -0.0183349 -0.0160596 -0.0132521 -0.0104921 -0.00861667 -0.00836131 -0.00909148 -0.0116241 -0.0148745 -0.0185867 -0.0213352 -0.0233247 -0.0233173 -0.0213922 -0.0180549 -0.0145099 -0.0105936 -0.00713621 -0.00447592 -0.00235285 -0.000994121 -0.000280865 8.1631e-06 -0.000142407 
5.37655e-05 -0.000183909 -0.000198374 -0.000647556 -0.00158659 -0.00331239 -0.0065004 -0.0109999 -0.0162188 -0.021999 -0.0282749 -0.0331811 -0.035635 -0.035959 -0.0330797 -0.0279129 -0.0206277 -0.0124297 -0.00102459 0.0122127 0.0279191 0.0442514 0.0610145 0.075752 0.0852307 0.0892317 0.085434 0.0754324 0.0610948 0.0443748 0.0271396 0.0112972 -0.00264244 -0.0141011 -0.0239 -0.0317625 -0.0376204 -0.0406245 -0.0406533 -0.0376025 -0.0320218 -0.0258681 -0.019077 -0.0139427 -0.0105108 -0.0088565 -0.0092408 -0.0108013 -0.0123065 -0.0138116 -0.0143149 -0.0138666 -0.0119798 -0.0102832 -0.00829986 -0.00693041 -0.00687987 -0.00779393 -0.0101569 -0.0132183 -0.016334 -0.0188095 -0.020371 -0.0206503 -0.0190097 -0.0161776 -0.0133347 -0.010188 -0.00829613 -0.00779558 -0.00843254 -0.00999016 -0.0125823 -0.0155698 -0.0175085 -0.0176984 -0.0174125 -0.0152255 -0.0125841 -0.0099857 -0.00826658 -0.0081891 -0.00903657 -0.0116739 -0.0149656 -0.0187397 -0.0214707 -0.0235076 -0.0235082 -0.0215521 -0.018185 -0.0146539 -0.0106485 -0.00718029 -0.00452416 -0.0023899 -0.000983536 -0.000274782 3.99626e-05 -0.000130337 
4.9144e-05 -0.000203313 -0.000226531 -0.000722519 -0.00180773 -0.00377292 -0.00737463 -0.0124789 -0.0184088 -0.0250076 -0.0320932 -0.0376546 -0.0404637 -0.0408033 -0.0375455 -0.031704 -0.0235717 -0.0144595 -0.00204602 0.0122087 0.028923 0.0461862 0.0638491 0.0793019 0.0892373 0.0934285 0.0894461 0.0789719 0.0639843 0.0465023 0.0285079 0.0120068 -0.00246059 -0.0142933 -0.0243964 -0.0324778 -0.0384807 -0.0415504 -0.0415833 -0.0384523 -0.0327476 -0.0264467 -0.0195019 -0.0142524 -0.0107192 -0.00901011 -0.00937873 -0.010958 -0.0124728 -0.01401 -0.014523 -0.0140621 -0.0121308 -0.0104333 -0.00840917 -0.00701151 -0.00695292 -0.00786924 -0.010278 -0.0133473 -0.0164919 -0.0189795 -0.0205583 -0.0208619 -0.0192049 -0.0163372 -0.0134696 -0.0102759 -0.00835243 -0.00784907 -0.00846501 -0.00999347 -0.0125862 -0.0155854 -0.0175221 -0.0177011 -0.0174172 -0.0152203 -0.0125768 -0.00995564 -0.00820363 -0.00809719 -0.00887806 -0.011453 -0.0146481 -0.0183506 -0.0209886 -0.0230017 -0.0230092 -0.021079 -0.0177778 -0.0143548 -0.0103998 -0.00701757 -0.00443707 -0.00235436 -0.000951879 -0.000261188 5.86845e-05 -0.000123827 
4.16947e-05 -0.000210658 -0.000242012 -0.000755761 -0.0019166 -0.00400901 -0.00781305 -0.0132116 -0.0194996 -0.0265052 -0.0339796 -0.0398656 -0.0428622 -0.0432033 -0.0397628 -0.0335836 -0.0250523 -0.01552 -0.00268298 0.0119556 0.0290011 0.0465333 0.0644323 0.0800524 0.0900884 0.0943167 0.0902931 0.0797283 0.0646263 0.0470293 0.0289682 0.0124756 -0.00188083 -0.0135266 -0.0234078 -0.031246 -0.0370461 -0.0399964 -0.0400328 -0.0370145 -0.0315242 -0.025472 -0.0188098 -0.0138448 -0.0105505 -0.00906189 -0.00960562 -0.0113252 -0.0129541 -0.0145627 -0.0151081 -0.0146227 -0.0126119 -0.0108176 -0.00867058 -0.00712445 -0.00690605 -0.00765221 -0.00991295 -0.0127889 -0.0157811 -0.0181356 -0.0196504 -0.0199584 -0.0183833 -0.0156291 -0.012917 -0.00988345 -0.00811583 -0.00776632 -0.0085085 -0.0101449 -0.0128318 -0.0159049 -0.0178837 -0.01808 -0.017775 -0.0155454 -0.0128361 -0.0101556 -0.00835101 -0.00821495 -0.0089826 -0.0115707 -0.0147781 -0.0185064 -0.0211595 -0.0231899 -0.0232042 -0.0212549 -0.0179344 -0.0144811 -0.0104856 -0.00707103 -0.00447713 -0.00237642 -0.000957302 -0.000270958 6.73738e-05 -0.000120906 
4.20747e-05 -0.000210141 -0.000245611 -0.000765853 -0.00194386 -0.00407479 -0.0079321 -0.013396 -0.0197836 -0.0268933 -0.0344527 -0.0404198 -0.0434735 -0.0438077 -0.0403291 -0.0340633 -0.0254581 -0.015863 -0.00302479 0.011545 0.0284505 0.0457858 0.0634501 0.0788586 0.0887431 0.0929027 0.0889361 0.0785426 0.0636982 0.0464181 0.0287386 0.0126661 -0.00120755 -0.012368 -0.0217606 -0.0291398 -0.0345773 -0.0373208 -0.037357 -0.0345461 -0.0294204 -0.0237975 -0.0176115 -0.0130992 -0.0101896 -0.00902867 -0.00980946 -0.0117049 -0.013474 -0.0151615 -0.0157429 -0.0152292 -0.0131453 -0.0112509 -0.00900486 -0.00735797 -0.00706322 -0.00777621 -0.0100337 -0.0128976 -0.0159091 -0.0182777 -0.0198161 -0.0201158 -0.0185439 -0.015763 -0.0130163 -0.00996306 -0.00816726 -0.00778625 -0.008502 -0.0101364 -0.0128028 -0.0158646 -0.017837 -0.0180474 -0.0177277 -0.0155162 -0.0128126 -0.0101435 -0.00835193 -0.00823388 -0.00901613 -0.0116267 -0.0148534 -0.0185922 -0.021264 -0.0233027 -0.0233227 -0.0213632 -0.0180377 -0.0145539 -0.0105411 -0.00710147 -0.00450142 -0.00238541 -0.00096159 -0.000280307 7.24133e-05 -0.000118902 
4.24094e-05 -0.000204857 -0.000246934 -0.000764506 -0.00194731 -0.00409508 -0.00795884 -0.0134181 -0.0198343 -0.0269637 -0.034504 -0.0404826 -0.0435649 -0.0438815 -0.0404128 -0.0341365 -0.0255861 -0.0160832 -0.00349585 0.0106759 0.0270289 0.0437141 0.0606634 0.0754388 0.0848909 0.0888609 0.0850611 0.0751408 0.0609886 0.0445376 0.0277927 0.012676 -0.000196538 -0.0104086 -0.0188875 -0.0254344 -0.0302247 -0.0326081 -0.0326443 -0.0301966 -0.0257164 -0.0208477 -0.0155068 -0.0117915 -0.00956268 -0.00898261 -0.0101855 -0.012395 -0.0144199 -0.0162459 -0.0168908 -0.0163264 -0.0141156 -0.0120253 -0.00958368 -0.00772407 -0.00723775 -0.00781453 -0.00996768 -0.0127112 -0.0156602 -0.0179777 -0.0195081 -0.0197877 -0.0182673 -0.0155245 -0.0128145 -0.00983521 -0.00808718 -0.00773518 -0.00848089 -0.0101714 -0.0128468 -0.0159115 -0.0178915 -0.018137 -0.0177824 -0.0155893 -0.0128666 -0.0101854 -0.00837652 -0.00823228 -0.00898785 -0.0115738 -0.014774 -0.0184717 -0.0211372 -0.0231562 -0.0231852 -0.0212373 -0.0179508 -0.0144644 -0.0104852 -0.00705143 -0.00447609 -0.00236626 -0.000956791 -0.000292221 7.68912e-05 -0.00011557 
4.48942e-05 -0.000190328 -0.000239503 -0.000739981 -0.00188141 -0.0039839 -0.00772895 -0.0129899 -0.0192263 -0.0261266 -0.0333837 -0.0391735 -0.0421863 -0.0424711 -0.0391423 -0.0330601 -0.0248662 -0.0158046 -0.00394774 0.00924662 0.0243752 0.0396987 0.0551849 0.068694 0.0772887 0.0808863 0.0774198 0.0684298 0.0556233 0.0407779 0.0258188 0.012493 0.00144868 -0.00706411 -0.0139207 -0.0190062 -0.0226686 -0.0244271 -0.0244638 -0.0226486 -0.0192846 -0.0157192 -0.0118215 -0.00944307 -0.00833084 -0.00866678 -0.0104916 -0.0131234 -0.0154873 -0.0174744 -0.0181997 -0.0175752 -0.0152308 -0.0129065 -0.0102581 -0.00817179 -0.00749321 -0.00796451 -0.0100475 -0.0126974 -0.0156316 -0.0179417 -0.0194935 -0.0197325 -0.0182616 -0.0155213 -0.0127944 -0.00987685 -0.00816957 -0.00784613 -0.00867044 -0.0105232 -0.0132878 -0.0164329 -0.0184799 -0.018811 -0.0183759 -0.016155 -0.0133244 -0.0105441 -0.00863226 -0.00839642 -0.00909392 -0.0116487 -0.0148441 -0.0185144 -0.0212157 -0.0232197 -0.0232631 -0.0213157 -0.0180528 -0.0145036 -0.0105378 -0.00706342 -0.00448942 -0.00235978 -0.000965019 -0.000316328 8.04745e-05 -0.000111055 
4.91819e-05 -0.000169769 -0.000230393 -0.000710285 -0.00179982 -0.00385004 -0.00744999 -0.0124535 -0.0184793 -0.0250965 -0.0319849 -0.0375381 -0.0404813 -0.040716 -0.0375641 -0.0317258 -0.0240035 -0.0155358 -0.00469668 0.00710877 0.0204784 0.033833 0.0471931 0.0588614 0.0662089 0.0692631 0.0662813 0.0586469 0.0478021 0.0352961 0.0229329 0.0122093 0.00382313 -0.00222957 -0.00673705 -0.00970957 -0.0117405 -0.0125946 -0.012629 -0.0117322 -0.00998736 -0.00831326 -0.00652773 -0.00612968 -0.00670672 -0.00847038 -0.0113157 -0.0146905 -0.0176606 -0.0199633 -0.0208364 -0.0200973 -0.0174714 -0.0146897 -0.0116082 -0.00905542 -0.00796897 -0.00818263 -0.0100775 -0.0125211 -0.0153791 -0.0176309 -0.0191986 -0.0193778 -0.018 -0.0152948 -0.0125812 -0.00977513 -0.00811812 -0.00780314 -0.00866324 -0.0106421 -0.0134128 -0.016561 -0.0186276 -0.0190483 -0.0185276 -0.0163535 -0.0134838 -0.010698 -0.00878937 -0.0085602 -0.00929854 -0.0119198 -0.0152027 -0.0189116 -0.0217273 -0.0237456 -0.0238072 -0.0218265 -0.0185406 -0.0148294 -0.0108152 -0.007214 -0.00459054 -0.00239397 -0.000995231 -0.000359392 8.3588e-05 -0.000107159 
5.53029e-05 -0.000141273 -0.000214889 -0.000664624 -0.00166841 -0.0036247 -0.0069875 -0.011587 -0.0172536 -0.0234087 -0.0297282 -0.0348971 -0.0377032 -0.0378743 -0.0349983 -0.0295508 -0.0225326 -0.0149313 -0.00550385 0.00442619 0.0154572 0.0262171 0.0367899 0.0460547 0.0517745 0.0541203 0.0517714 0.0459044 0.0376204 0.0281775 0.0192243 0.0119343 0.00707515 0.0043029 0.00294241 0.00280698 0.00296989 0.00333475 0.00330324 0.00296306 0.00253459 0.00166582 0.000632462 -0.00158861 -0.00437248 -0.00796135 -0.0120677 -0.0163203 -0.0199962 -0.0226486 -0.0236914 -0.0228238 -0.0199008 -0.0166176 -0.0130859 -0.0100458 -0.00854759 -0.00853932 -0.0102895 -0.0125605 -0.0153974 -0.0176398 -0.019262 -0.0193624 -0.018071 -0.0153529 -0.0125799 -0.00984614 -0.00819035 -0.00782287 -0.00868516 -0.0108033 -0.0135623 -0.0167048 -0.0187903 -0.019332 -0.0186988 -0.0165862 -0.0136712 -0.0108766 -0.00895783 -0.00871866 -0.00947997 -0.0121469 -0.0155024 -0.0192173 -0.0221458 -0.0241638 -0.0242502 -0.0222474 -0.0189677 -0.0150869 -0.0110519 -0.00732842 -0.00467263 -0.00240914 -0.00102296 -0.000412128 8.89475e-05 -0.000100118 
6.53288e-05 -0.000109798 -0.000202114 -0.000622761 -0.00155335 -0.0034393 -0.00659836 -0.0108288 -0.0162049 -0.0219619 -0.0277468 -0.0325846 -0.0352988 -0.0353929 -0.032775 -0.0276716 -0.0213453 -0.0146234 -0.00673547 0.00107295 0.00940519 0.0171282 0.0244173 0.0308389 0.0346256 0.0361293 0.0345287 0.0307619 0.0255231 0.0197115 0.0147995 0.0115733 0.0108848 0.0119863 0.0143317 0.017538 0.0202838 0.0220824 0.0220547 0.020258 0.0172649 0.0133932 0.0090041 0.00362274 -0.00187255 -0.00776803 -0.0135458 -0.0190361 -0.023724 -0.0269154 -0.0282062 -0.0271428 -0.0237349 -0.0196832 -0.0154195 -0.0116083 -0.00946192 -0.00907403 -0.0105794 -0.0125945 -0.0153852 -0.0175978 -0.0192844 -0.0192909 -0.01811 -0.0153822 -0.0125502 -0.00991619 -0.0082767 -0.0078748 -0.00876933 -0.0110844 -0.0138612 -0.0170249 -0.0191555 -0.0198457 -0.0190697 -0.0170146 -0.0140135 -0.011174 -0.00921745 -0.00894081 -0.00970326 -0.0124136 -0.0158422 -0.0195559 -0.0226132 -0.0246275 -0.0247444 -0.0227143 -0.0194474 -0.015372 -0.0113187 -0.00745276 -0.00476491 -0.0024278 -0.00105432 -0.000474153 9.58821e-05 -9.36961e-05 
7.26686e-05 -7.54946e-05 -0.000185166 -0.000569779 -0.00140606 -0.00319094 -0.00608555 -0.009859 -0.014842 -0.0200849 -0.0252193 -0.0296286 -0.0322012 -0.0322151 -0.0299112 -0.0252483 -0.019743 -0.0140431 -0.00786822 -0.00236816 0.00305986 0.00754533 0.0113476 0.0147531 0.0164981 0.0171134 0.0163066 0.0147564 0.0127258 0.0107407 0.0100738 0.0111014 0.0147545 0.0198745 0.0260565 0.0327119 0.0381209 0.041396 0.0413715 0.0380763 0.0324434 0.0254881 0.0176659 0.00908281 0.000875298 -0.00728693 -0.0146553 -0.0212776 -0.026883 -0.0305396 -0.0320521 -0.0308182 -0.0270058 -0.0222818 -0.0173962 -0.0129132 -0.0101864 -0.00945367 -0.0107145 -0.0124512 -0.0151624 -0.0173184 -0.0190477 -0.0189569 -0.0179074 -0.0152063 -0.0123545 -0.00986444 -0.00827611 -0.00786036 -0.00879961 -0.0113176 -0.014107 -0.0172808 -0.0194475 -0.0202891 -0.0193701 -0.017382 -0.0143086 -0.0114425 -0.00946219 -0.00916127 -0.00994748 -0.0127144 -0.0162334 -0.0199591 -0.023161 -0.0251747 -0.0253217 -0.0232618 -0.0199986 -0.01571 -0.0116268 -0.00760327 -0.00487119 -0.00245214 -0.00109003 -0.000538548 0.000101861 -8.5666e-05 
8.00855e-05 -4.54242e-05 -0.000173228 -0.000531105 -0.00129843 -0.00302456 -0.00573055 -0.00915887 -0.0138752 -0.0187498 -0.0233857 -0.0274867 -0.0299775 -0.0299175 -0.0278581 -0.0235112 -0.0186595 -0.0137957 -0.0090982 -0.00564328 -0.00282489 -0.00127993 -0.000661908 -1.55663e-05 -0.000146504 -0.000349182 -0.000428792 6.2335e-05 0.000991849 0.00254252 0.0058222 0.0108308 0.0185853 0.0275311 0.0373827 0.0473535 0.0553271 0.0600281 0.0600056 0.0552653 0.0470865 0.0371537 0.0260177 0.0143325 0.00349338 -0.00687732 -0.0158063 -0.0235488 -0.0300625 -0.0341868 -0.0359204 -0.0345156 -0.0302916 -0.0249023 -0.0193964 -0.0142528 -0.0109713 -0.00992563 -0.0109901 -0.0124981 -0.0151779 -0.0173154 -0.0191089 -0.0189274 -0.0179842 -0.0152687 -0.0123554 -0.00996317 -0.00840043 -0.00796711 -0.00896455 -0.0117116 -0.0145579 -0.0177902 -0.0200238 -0.021022 -0.0199534 -0.0179948 -0.0148043 -0.0118597 -0.00980751 -0.009451 -0.010234 -0.0130491 -0.0166542 -0.0203985 -0.0237421 -0.0257622 -0.0259404 -0.0238444 -0.0205763 -0.016075 -0.011949 -0.00776515 -0.00498698 -0.00248297 -0.00112599 -0.000601261 0.00011075 -7.77258e-05 
8.47945e-05 -1.62349e-05 -0.000159778 -0.000483823 -0.00117376 -0.0028144 -0.00529434 -0.00833785 -0.0127193 -0.0171582 -0.0212427 -0.0249829 -0.027353 -0.0272263 -0.0254323 -0.0214568 -0.0172961 -0.0132904 -0.0100238 -0.00849376 -0.00809467 -0.009244 -0.011523 -0.0133831 -0.0152114 -0.0161531 -0.0155731 -0.0132378 -0.00963895 -0.00489822 0.00192911 0.0105035 0.0219104 0.0342498 0.047348 0.0602468 0.070482 0.0764356 0.0764149 0.0704031 0.0599813 0.0474255 0.0333668 0.0189453 0.00577877 -0.0065482 -0.0168682 -0.0256124 -0.0329425 -0.0374862 -0.0394179 -0.0378606 -0.0332644 -0.0272616 -0.0211784 -0.0154049 -0.0115661 -0.0101527 -0.0109383 -0.0121366 -0.014683 -0.0167182 -0.0185166 -0.0182529 -0.0174523 -0.014812 -0.0119525 -0.00975699 -0.00831814 -0.00795528 -0.00907337 -0.0120686 -0.0150001 -0.0183004 -0.020604 -0.0217423 -0.0205408 -0.018602 -0.0152907 -0.0122642 -0.010135 -0.00970957 -0.0104776 -0.0133192 -0.0169881 -0.020737 -0.0241991 -0.0262171 -0.0264216 -0.0243006 -0.0210363 -0.0163552 -0.0122068 -0.00789091 -0.00507567 -0.00250213 -0.00115698 -0.000658127 0.000114744 -7.1823e-05 
9.08961e-05 5.68841e-06 -0.000147529 -0.000448175 -0.00107163 -0.0026359 -0.0049315 -0.00766165 -0.0117628 -0.0158417 -0.0194836 -0.0229251 -0.0251875 -0.0250111 -0.0234303 -0.0197625 -0.0161506 -0.0128197 -0.010655 -0.0105892 -0.0120159 -0.015191 -0.0196457 -0.0233836 -0.0264822 -0.0279757 -0.026902 -0.0231902 -0.0175994 -0.0104854 -0.00103125 0.0101686 0.0242461 0.0390489 0.0544952 0.0695001 0.0813605 0.088215 0.0881971 0.0812698 0.0692387 0.0548016 0.0386496 0.0222786 0.00745956 -0.00624577 -0.0175308 -0.0269609 -0.0348461 -0.0396708 -0.0417363 -0.0400756 -0.0352377 -0.0288314 -0.0223797 -0.016213 -0.0120433 -0.0104518 -0.0111209 -0.0121902 -0.0147246 -0.0167564 -0.0185988 -0.0182746 -0.0175358 -0.0148821 -0.0119702 -0.00982128 -0.00837086 -0.00795532 -0.00905994 -0.0121433 -0.0150476 -0.0183262 -0.0206346 -0.0218606 -0.020577 -0.0186954 -0.0153648 -0.0123449 -0.0102204 -0.00979065 -0.0105734 -0.0134405 -0.0171512 -0.0208898 -0.0244266 -0.0264356 -0.026658 -0.0245278 -0.0212812 -0.0164882 -0.0123414 -0.00794752 -0.00511855 -0.00250507 -0.00117382 -0.000695031 0.000117948 -6.68743e-05 
9.11821e-05 1.89265e-05 -0.00014147 -0.000424206 -0.00101315 -0.00253489 -0.00472122 -0.00727219 -0.0112115 -0.0150856 -0.0184689 -0.0217393 -0.0239423 -0.0237356 -0.0222777 -0.0187875 -0.0154998 -0.0125685 -0.0110677 -0.011888 -0.0144309 -0.0188442 -0.0246254 -0.0295168 -0.0333922 -0.0352232 -0.0338465 -0.0292921 -0.0224824 -0.0139137 -0.00285087 0.00995648 0.0256647 0.0419742 0.0588532 0.0751442 0.0879967 0.0953982 0.0953808 0.0878988 0.0748848 0.0593021 0.0418721 0.0243125 0.00848902 -0.00605378 -0.0179255 -0.0277703 -0.0359926 -0.0409857 -0.0431321 -0.0414098 -0.0364245 -0.0297645 -0.0230723 -0.016632 -0.0122012 -0.0104115 -0.0109058 -0.0117762 -0.0141887 -0.0161234 -0.0179354 -0.0175752 -0.0169288 -0.0143628 -0.011539 -0.00954065 -0.00819797 -0.00785355 -0.00903381 -0.01223 -0.0151679 -0.0184628 -0.0207921 -0.0220766 -0.0207379 -0.0188764 -0.0155056 -0.0124625 -0.0103098 -0.00984242 -0.0106058 -0.0134578 -0.017164 -0.0208719 -0.0244337 -0.0264241 -0.0266577 -0.0245336 -0.0213175 -0.0164802 -0.012358 -0.00793864 -0.00511686 -0.00249301 -0.00117839 -0.000717075 0.000119332 -6.32722e-05 
9.12508e-05 2.54285e-05 -0.000137553 -0.000416812 -0.000987221 -0.00249964 -0.00464457 -0.00711754 -0.0109956 -0.0147877 -0.0180625 -0.0212594 -0.0234425 -0.0232178 -0.0218196 -0.0184023 -0.0152755 -0.0125559 -0.0114492 -0.0128224 -0.0160814 -0.021303 -0.0279674 -0.0336312 -0.0380263 -0.0400827 -0.0385019 -0.0333833 -0.0257604 -0.0162329 -0.00411551 0.00972949 0.0264688 0.0437211 0.0614846 0.078558 0.0920117 0.0997472 0.0997282 0.0919128 0.0783066 0.0620459 0.0438778 0.025671 0.00935619 -0.005541 -0.0175784 -0.0274725 -0.0357198 -0.0406901 -0.0428383 -0.0411199 -0.0361806 -0.0295582 -0.0229331 -0.0165584 -0.0121931 -0.0104954 -0.0110716 -0.011984 -0.0144636 -0.0164555 -0.0183052 -0.0179248 -0.017275 -0.0146617 -0.0117637 -0.00973555 -0.00835553 -0.00797603 -0.00915984 -0.0124205 -0.0153888 -0.0187183 -0.021076 -0.0224108 -0.0210258 -0.0191491 -0.0157348 -0.0126471 -0.0104429 -0.00993708 -0.0106866 -0.0135347 -0.017253 -0.0209622 -0.0245564 -0.0265434 -0.0267852 -0.024657 -0.0214432 -0.0165595 -0.0124249 -0.00796905 -0.00513902 -0.00249973 -0.00118455 -0.000726358 0.000124898 -5.74043e-05 
8.7495e-05 2.53453e-05 -0.000133995 -0.00041786 -0.00097773 -0.0024888 -0.00462413 -0.00707538 -0.0109331 -0.0147031 -0.017959 -0.0211251 -0.0232996 -0.0230688 -0.0216875 -0.0182983 -0.0152292 -0.0125904 -0.0116529 -0.0132656 -0.0168478 -0.0224282 -0.0294956 -0.0355239 -0.0401497 -0.0423038 -0.0406264 -0.035261 -0.0272947 -0.01739 -0.00490728 0.00922872 0.0261577 0.0435172 0.0613274 0.0783922 0.0918277 0.0995501 0.0995291 0.0917349 0.0781564 0.0619624 0.0438909 0.0258622 0.00980487 -0.00477133 -0.0164216 -0.0259096 -0.0338003 -0.0385203 -0.0405735 -0.0389386 -0.0342686 -0.0280065 -0.0217731 -0.015799 -0.0117711 -0.010348 -0.0111144 -0.0121548 -0.0147228 -0.0167867 -0.0186563 -0.0182761 -0.0175956 -0.0149409 -0.0119738 -0.00987905 -0.00841949 -0.00795753 -0.00905765 -0.0122435 -0.0151338 -0.0183969 -0.0207062 -0.0220388 -0.0206595 -0.0188185 -0.0154836 -0.0124707 -0.0103292 -0.00988522 -0.0107083 -0.0136017 -0.0173642 -0.021113 -0.0247434 -0.026738 -0.0269781 -0.0248429 -0.0216054 -0.0166905 -0.0125164 -0.00802564 -0.00517094 -0.00252199 -0.00118985 -0.000718726 0.000129324 -5.03509e-05 
8.31373e-05 2.33304e-05 -0.000124408 -0.000411644 -0.000934552 -0.0024004 -0.00446468 -0.00681386 -0.0105295 -0.0141512 -0.0172954 -0.0203273 -0.02242 -0.0221944 -0.0208768 -0.0176176 -0.0146874 -0.0121947 -0.0114016 -0.0131274 -0.0168045 -0.0224372 -0.0295562 -0.0356303 -0.0402601 -0.0424104 -0.0407205 -0.0353614 -0.0274284 -0.0176058 -0.00529785 0.00854819 0.0250177 0.0418428 0.0590655 0.0755251 0.0884744 0.0959227 0.0958996 0.0883917 0.0753142 0.0597489 0.0424216 0.0252248 0.0100301 -0.00365383 -0.0144289 -0.023089 -0.030266 -0.0345143 -0.0363803 -0.0349063 -0.0307295 -0.025144 -0.0196413 -0.0144259 -0.0110556 -0.0101616 -0.0113108 -0.0126661 -0.0154402 -0.0176747 -0.0195944 -0.0192282 -0.0184482 -0.015679 -0.0125501 -0.0102699 -0.00862863 -0.00799149 -0.00892193 -0.0119378 -0.0146908 -0.0178426 -0.0200685 -0.0213702 -0.0200282 -0.0182313 -0.0150341 -0.012144 -0.0101056 -0.00976236 -0.0106928 -0.0136428 -0.0174603 -0.0212646 -0.0249261 -0.0269325 -0.0271634 -0.0250244 -0.0217496 -0.0168217 -0.0125993 -0.00808581 -0.00519933 -0.00254654 -0.0011934 -0.000697212 0.000131173 -4.28596e-05 
7.28719e-05 1.16047e-05 -0.000119265 -0.00042403 -0.000943965 -0.00242022 -0.00451639 -0.00693531 -0.010667 -0.014348 -0.0176179 -0.0206762 -0.0227506 -0.0225447 -0.0211942 -0.0179035 -0.0148891 -0.0122981 -0.0113794 -0.0129254 -0.0164028 -0.0217939 -0.0286758 -0.0345854 -0.0390641 -0.0411384 -0.0394915 -0.0343127 -0.0266755 -0.0172935 -0.00560461 0.00742357 0.0227722 0.0383946 0.0543181 0.0694841 0.0814018 0.0882683 0.0882348 0.0813408 0.0693164 0.0550666 0.0392786 0.0237611 0.0102909 -0.00164374 -0.0107367 -0.0178272 -0.0236557 -0.027021 -0.0285341 -0.0273589 -0.0240991 -0.0197886 -0.0156402 -0.0118344 -0.00968872 -0.00976041 -0.0116159 -0.0135261 -0.0166647 -0.0192003 -0.0211937 -0.0208646 -0.0199103 -0.0169526 -0.0135654 -0.0110033 -0.00913606 -0.00833736 -0.0091677 -0.0121077 -0.0148729 -0.0180511 -0.020281 -0.021583 -0.0202504 -0.0183659 -0.0151839 -0.0122385 -0.0100862 -0.00963896 -0.0104915 -0.0133017 -0.0169893 -0.0207093 -0.024267 -0.0262093 -0.0264301 -0.0243611 -0.0211606 -0.0163973 -0.0122486 -0.00786223 -0.00505012 -0.00249366 -0.00115104 -0.000635912 0.000143253 -2.43206e-05 
5.64058e-05 -3.62292e-06 -0.000107053 -0.000433234 -0.00092364 -0.00237738 -0.00445789 -0.00688088 -0.0105285 -0.0141671 -0.0174994 -0.0204895 -0.0224861 -0.0223076 -0.0209607 -0.0177278 -0.0147053 -0.0120882 -0.0110742 -0.0124122 -0.0156144 -0.0206298 -0.0271276 -0.0327465 -0.0369631 -0.0389091 -0.0373377 -0.0324668 -0.0253342 -0.0166762 -0.00599718 0.00572009 0.0192998 0.0330208 0.0469107 0.0600549 0.0703618 0.0763202 0.0762746 0.0703319 0.05995 0.0477442 0.0343396 0.0214027 0.010551 0.00125144 -0.00533288 -0.0100961 -0.0139281 -0.0159898 -0.0169816 -0.0162502 -0.0143392 -0.0118984 -0.00973658 -0.0079884 -0.00760942 -0.00905298 -0.0118843 -0.0145571 -0.0181685 -0.0210928 -0.0231667 -0.0228917 -0.0217048 -0.0185168 -0.0148075 -0.0118652 -0.0096706 -0.00860657 -0.00921165 -0.0119207 -0.014573 -0.0176686 -0.0198178 -0.0210766 -0.0198012 -0.0178786 -0.0148534 -0.0119914 -0.0098575 -0.00944245 -0.0103683 -0.0131485 -0.0168149 -0.0205613 -0.0240859 -0.0260033 -0.0262028 -0.0241743 -0.0209643 -0.0163038 -0.0121289 -0.00779941 -0.00499031 -0.0024978 -0.00112666 -0.000559529 0.000154582 -1.21934e-06 
3.13902e-05 -2.52179e-05 -9.43597e-05 -0.000451504 -0.000919153 -0.00236805 -0.00446556 -0.00695048 -0.0105568 -0.0142208 -0.0177105 -0.0206725 -0.0226045 -0.0224624 -0.0210822 -0.0178587 -0.0147447 -0.0120043 -0.0107649 -0.0117228 -0.0144601 -0.0188829 -0.0247756 -0.0299344 -0.0337542 -0.0355109 -0.0340585 -0.0296442 -0.0232428 -0.0156044 -0.00631047 0.00365453 0.0149165 0.0261724 0.0374411 0.0479878 0.0562301 0.0610264 0.0609649 0.0562425 0.0479639 0.0383789 0.0280349 0.0184239 0.0109609 0.00508251 0.00176606 4.30998e-05 -0.00117752 -0.00153389 -0.00184461 -0.00169429 -0.00154611 -0.00155005 -0.00197957 -0.00290079 -0.00479117 -0.00796856 -0.0120067 -0.0155907 -0.019738 -0.0231004 -0.0252423 -0.0250409 -0.0235882 -0.0201629 -0.0161118 -0.012743 -0.0101725 -0.00879038 -0.00909326 -0.0114626 -0.0139193 -0.0168547 -0.0188589 -0.0200456 -0.0188601 -0.0169301 -0.0141647 -0.0114741 -0.00942193 -0.00909356 -0.010145 -0.0128977 -0.0165335 -0.0203072 -0.0237766 -0.0256587 -0.0258308 -0.0238603 -0.0206489 -0.0161367 -0.0119362 -0.0076943 -0.00489904 -0.00249599 -0.00109035 -0.00046114 0.000171106 3.0333e-05 
5.15018e-06 -5.28884e-05 -7.90952e-05 -0.000482111 -0.000926367 -0.00238188 -0.00452951 -0.00712358 -0.0107253 -0.0144679 -0.018199 -0.0211645 -0.0230394 -0.022941 -0.0214989 -0.0182498 -0.0149785 -0.0120428 -0.0104943 -0.0109717 -0.0131353 -0.0168451 -0.0220251 -0.0266443 -0.029998 -0.0315308 -0.030218 -0.0263433 -0.0208093 -0.0144004 -0.00679221 0.00101994 0.00941777 0.0176109 0.0256154 0.0329207 0.038586 0.0419338 0.0418543 0.0386512 0.0329968 0.0266795 0.020144 0.0146592 0.0113859 0.00972234 0.0104226 0.0124232 0.0144011 0.0161278 0.0166508 0.0160924 0.0140842 0.0110781 0.00746368 0.00323733 -0.00149762 -0.00690144 -0.0125373 -0.0173747 -0.0223119 -0.026321 -0.028612 -0.0285008 -0.0266582 -0.0228315 -0.0182211 -0.0141854 -0.011014 -0.00911741 -0.00894289 -0.0108137 -0.0129593 -0.0156514 -0.017449 -0.0185382 -0.0174706 -0.0155564 -0.0131554 -0.0107168 -0.00880945 -0.00863025 -0.00986624 -0.0126134 -0.0162336 -0.0200573 -0.0234724 -0.0253189 -0.0254566 -0.0235497 -0.0203255 -0.0159838 -0.0117367 -0.00758878 -0.00480283 -0.00250413 -0.00104791 -0.000337167 0.000192997 6.89312e-05 
-2.35481e-05 -7.98666e-05 -6.1659e-05 -0.000507286 -0.000916258 -0.00236377 -0.00453196 -0.0071931 -0.010737 -0.0144971 -0.0184172 -0.0213378 -0.0231277 -0.0230742 -0.0215974 -0.0183692 -0.0149947 -0.0119212 -0.0101122 -0.0101472 -0.0117617 -0.0147666 -0.019238 -0.0233153 -0.0261974 -0.0275041 -0.0263307 -0.0230003 -0.0183482 -0.0131854 -0.00728505 -0.00165658 0.0038325 0.00891621 0.013609 0.0176267 0.0206763 0.0225534 0.0224543 0.0207943 0.0178051 0.0148083 0.0121503 0.0108725 0.011882 0.0145364 0.0193609 0.0251957 0.0304662 0.0343428 0.0357243 0.0344333 0.0302013 0.0241061 0.0172103 0.00958697 0.00193685 -0.00573347 -0.0129854 -0.0190781 -0.0247956 -0.0294436 -0.0318707 -0.0318503 -0.0296253 -0.0254141 -0.0202693 -0.0155955 -0.0118643 -0.00950337 -0.00891394 -0.0103543 -0.0122607 -0.0147732 -0.0164048 -0.0174098 -0.0164485 -0.0145059 -0.0124142 -0.0101756 -0.00837023 -0.00832447 -0.00976301 -0.0125442 -0.016209 -0.0201497 -0.0235672 -0.0254086 -0.0255112 -0.0236378 -0.0203414 -0.0160994 -0.0117363 -0.00761566 -0.00478617 -0.00255345 -0.00102494 -0.000218673 0.000213443 0.000107087 
-4.84624e-05 -0.000103925 -4.19114e-05 -0.000522765 -0.000884187 -0.0022943 -0.00443537 -0.00709962 -0.0105066 -0.0141983 -0.0182133 -0.021022 -0.0226859 -0.0226758 -0.0212067 -0.0180726 -0.0146895 -0.0115774 -0.00962179 -0.00932651 -0.0105043 -0.0129147 -0.0167749 -0.0203897 -0.022856 -0.0239589 -0.0229059 -0.0200652 -0.0162088 -0.0121848 -0.0078687 -0.00428962 -0.00155908 0.000562782 0.00209043 0.00295923 0.00350234 0.00396835 0.00385101 0.0036706 0.00323896 0.00342509 0.00448758 0.00725524 0.0123826 0.0191988 0.0280008 0.0375342 0.0459824 0.0519339 0.0541453 0.0521487 0.0457655 0.0366852 0.0266135 0.0156965 0.0052082 -0.00468357 -0.0135283 -0.0208789 -0.0273891 -0.0326895 -0.0352669 -0.0353326 -0.0327171 -0.0281039 -0.0223967 -0.0170644 -0.0127502 -0.00989397 -0.00886654 -0.00986014 -0.0115063 -0.0138185 -0.0152758 -0.0162 -0.0153425 -0.013384 -0.011604 -0.00955635 -0.00782487 -0.00785106 -0.00939487 -0.0120907 -0.0156666 -0.0195859 -0.0228964 -0.0246694 -0.0247389 -0.0229603 -0.0197054 -0.015694 -0.0113542 -0.00738919 -0.00461466 -0.00251882 -0.000967342 -9.16646e-05 0.000233369 0.000145566 
-7.45294e-05 -0.000128145 -3.22416e-05 -0.000544668 -0.00089993 -0.0023233 -0.00451776 -0.00730846 -0.0107338 -0.0145272 -0.0187803 -0.0216254 -0.0232508 -0.0232816 -0.0217423 -0.0185583 -0.0150015 -0.0116745 -0.00938975 -0.0086035 -0.00920201 -0.0109063 -0.0140437 -0.0171102 -0.0191189 -0.0200044 -0.0190946 -0.0167789 -0.0137558 -0.0108868 -0.00811889 -0.006479 -0.00629198 -0.0068594 -0.00819121 -0.010143 -0.0118419 -0.0126411 -0.0127769 -0.0116305 -0.0097822 -0.00676214 -0.00240965 0.0038969 0.0125969 0.0229836 0.0351576 0.0478031 0.0589173 0.0666037 0.0695103 0.0669231 0.0587519 0.0471899 0.0345 0.0208868 0.00811403 -0.00350124 -0.0135332 -0.0217669 -0.0287812 -0.0344939 -0.0371144 -0.0372593 -0.0343906 -0.029575 -0.0235733 -0.0178669 -0.013248 -0.0101658 -0.00894473 -0.00970588 -0.0112772 -0.0135296 -0.0149106 -0.0157824 -0.0149942 -0.0129532 -0.0113324 -0.00933819 -0.00756355 -0.00755621 -0.00911879 -0.0116918 -0.0151505 -0.0190311 -0.0222286 -0.023933 -0.0239754 -0.022284 -0.0190765 -0.015285 -0.0109795 -0.0071643 -0.00444847 -0.00248279 -0.000913905 1.77381e-05 0.00025063 0.000178003 
-9.0014e-05 -0.000143464 -1.98893e-05 -0.000557255 -0.000882137 -0.00228726 -0.00447251 -0.00727008 -0.0106221 -0.0143815 -0.0187053 -0.0214875 -0.0230414 -0.0230991 -0.0215597 -0.0184239 -0.0148474 -0.0114818 -0.00908138 -0.00806282 -0.00835472 -0.00965185 -0.0123756 -0.0151201 -0.0168486 -0.0175991 -0.0167722 -0.0147818 -0.0122849 -0.0101585 -0.00840882 -0.00807025 -0.00961499 -0.0120354 -0.015338 -0.0192476 -0.0225038 -0.0241775 -0.0243241 -0.0222609 -0.0188244 -0.013828 -0.00716252 0.00165796 0.0129186 0.0258933 0.0405434 0.0554932 0.068588 0.0775674 0.0809907 0.0779629 0.0684518 0.0550269 0.0403524 0.0246778 0.0101225 -0.0028982 -0.0139488 -0.022994 -0.0305292 -0.0366695 -0.039398 -0.0395964 -0.0364725 -0.0313823 -0.0250032 -0.0188559 -0.0138443 -0.0104273 -0.00890795 -0.00937098 -0.0107619 -0.0128798 -0.0141442 -0.0149608 -0.0142418 -0.012199 -0.010788 -0.00893698 -0.00724434 -0.00733321 -0.00902365 -0.0116175 -0.0151 -0.0190433 -0.0222362 -0.0239348 -0.0239559 -0.0222885 -0.0190445 -0.0153206 -0.0109546 -0.00716453 -0.00442894 -0.00250616 -0.000897841 8.97654e-05 0.000262745 0.000200805 
-0.000102152 -0.000154801 -1.4537e-05 -0.000564122 -0.00088341 -0.00228511 -0.00448292 -0.00732692 -0.0106646 -0.0144497 -0.0188653 -0.0216473 -0.0231699 -0.0232472 -0.0216842 -0.0185471 -0.0149135 -0.0114726 -0.00895076 -0.00773564 -0.00779333 -0.00879425 -0.0112116 -0.0137312 -0.0152628 -0.0159173 -0.0151501 -0.0133908 -0.0112671 -0.00967314 -0.00865954 -0.00926814 -0.0120843 -0.015864 -0.0206241 -0.0259757 -0.0303808 -0.0327059 -0.0328618 -0.0301174 -0.0255126 -0.0190659 -0.0107268 -0.000118121 0.0129314 0.0276792 0.0439873 0.0604559 0.0748482 0.0846699 0.088432 0.085118 0.0747396 0.0601146 0.0441775 0.027203 0.0115513 -0.0022879 -0.0138925 -0.0233469 -0.0311071 -0.0374326 -0.0401698 -0.0404069 -0.0371676 -0.0319982 -0.0254981 -0.0191935 -0.0140595 -0.0105605 -0.00897709 -0.00935306 -0.0107345 -0.0128421 -0.0140839 -0.0148796 -0.0141896 -0.0120917 -0.0107362 -0.00888321 -0.00713684 -0.0071689 -0.00882717 -0.0113164 -0.0146972 -0.018581 -0.0216869 -0.0233309 -0.0233382 -0.0217323 -0.0185435 -0.0149679 -0.0106597 -0.00698046 -0.00430074 -0.00246559 -0.00086174 0.000148344 0.000270047 0.000216556 
-0.000109792 -0.000160903 -1.14726e-05 -0.00057183 -0.000886914 -0.00229459 -0.00450779 -0.00737919 -0.0107252 -0.0145357 -0.0190111 -0.0217982 -0.0233156 -0.0234011 -0.0218203 -0.0186706 -0.0149968 -0.0115091 -0.00891953 -0.00760521 -0.00755093 -0.00841164 -0.010694 -0.0131147 -0.0145554 -0.0151667 -0.0144244 -0.0127685 -0.0108148 -0.00946358 -0.00878965 -0.00983815 -0.0132469 -0.0176648 -0.0231058 -0.0291372 -0.0340829 -0.0367115 -0.0368712 -0.0338074 -0.0286523 -0.0215155 -0.0123699 -0.000879051 0.013076 0.0287412 0.0459332 0.063228 0.0783309 0.0886178 0.0925648 0.0890919 0.0782329 0.0629413 0.0462983 0.0285988 0.012336 -0.00196817 -0.0138919 -0.0235802 -0.0314742 -0.0379075 -0.040659 -0.0409156 -0.0376108 -0.0323851 -0.0258021 -0.0193871 -0.0141466 -0.0105496 -0.0088584 -0.00910905 -0.0103987 -0.0124287 -0.0136064 -0.0143729 -0.0137163 -0.0116434 -0.0103976 -0.00863947 -0.0069708 -0.00708548 -0.00884044 -0.011384 -0.0148166 -0.0187624 -0.021898 -0.0235575 -0.0235565 -0.0219426 -0.0187113 -0.0151229 -0.0107556 -0.00704966 -0.00433605 -0.00249664 -0.000865313 0.000169935 0.00027445 0.000224815 
-0.000115865 -0.000165179 -1.32074e-05 -0.000574835 -0.000903486 -0.00232434 -0.00456742 -0.00749705 -0.0108888 -0.0147655 -0.0193202 -0.0221557 -0.0236924 -0.023783 -0.0221651 -0.0189709 -0.0152242 -0.0116534 -0.0089666 -0.00753748 -0.00736754 -0.00809937 -0.0102486 -0.0125771 -0.0139403 -0.0145152 -0.013798 -0.0122305 -0.0104177 -0.00926278 -0.00885838 -0.0102472 -0.0141072 -0.0190051 -0.0249625 -0.031499 -0.0368473 -0.0397083 -0.039871 -0.0365667 -0.0310071 -0.0233705 -0.0136716 -0.00162087 0.01286 0.0290078 0.0466114 0.0642574 0.0796524 0.0901229 0.0941457 0.0906099 0.0795701 0.0640325 0.047149 0.0292184 0.0127997 -0.00156342 -0.0134717 -0.0231006 -0.0309001 -0.0372537 -0.0399336 -0.0402029 -0.0369368 -0.0318143 -0.0253564 -0.0190526 -0.0139192 -0.0104273 -0.00881258 -0.00909339 -0.0104245 -0.0124713 -0.0136549 -0.0144117 -0.0137647 -0.011671 -0.010423 -0.0086524 -0.00696075 -0.00704442 -0.00878202 -0.011288 -0.0146812 -0.0186052 -0.0217104 -0.0233496 -0.0233435 -0.0217494 -0.0185375 -0.0149998 -0.0106567 -0.00698771 -0.00429187 -0.00248391 -0.000854252 0.000186028 0.000274177 0.000227781 
-0.000123523 -0.000163083 -1.47196e-05 -0.000556754 -0.000886878 -0.00228395 -0.00448468 -0.00737461 -0.0107049 -0.0145178 -0.0190012 -0.0217909 -0.0233033 -0.0233922 -0.0217961 -0.0186603 -0.0149804 -0.0114762 -0.00885517 -0.00748375 -0.00737378 -0.0081442 -0.0103096 -0.0126638 -0.0140326 -0.0146093 -0.0138875 -0.0123151 -0.0105075 -0.00935907 -0.00899047 -0.0104452 -0.0144236 -0.0194589 -0.0255762 -0.0322636 -0.0377378 -0.0406836 -0.0408482 -0.0374619 -0.03178 -0.0239962 -0.0141702 -0.00204112 0.0124528 0.0285443 0.0460174 0.0635013 0.0787383 0.0891017 0.0930838 0.0895821 0.0786709 0.0633397 0.0467065 0.0290859 0.013035 -0.000892828 -0.0123513 -0.0215197 -0.028894 -0.0348966 -0.0373727 -0.0376415 -0.0345709 -0.0297927 -0.0237723 -0.0179096 -0.0131947 -0.0100897 -0.00879808 -0.00931236 -0.0108469 -0.013022 -0.0142902 -0.0150598 -0.0143977 -0.012238 -0.0108654 -0.00898629 -0.00719864 -0.00718526 -0.00887019 -0.0113416 -0.0147165 -0.0186401 -0.0217488 -0.0233817 -0.0233726 -0.0217782 -0.018559 -0.0150159 -0.0106788 -0.00700355 -0.00429432 -0.00248792 -0.000860694 0.00017925 0.000264241 0.000222811 
-0.000131606 -0.000159023 -2.30094e-05 -0.000533726 -0.000889337 -0.00227426 -0.00445506 -0.00734664 -0.0106728 -0.0144804 -0.0189237 -0.0217262 -0.0232543 -0.0233371 -0.0217298 -0.0186048 -0.0149343 -0.0114298 -0.00879089 -0.00739313 -0.00725584 -0.00798222 -0.0100625 -0.0123579 -0.0136844 -0.0142452 -0.0135431 -0.0120127 -0.0102701 -0.00917499 -0.00886768 -0.0103655 -0.0143727 -0.0194238 -0.0255559 -0.0322255 -0.0376892 -0.0406505 -0.0408143 -0.037427 -0.0317727 -0.0240433 -0.014374 -0.00255329 0.011473 0.0269371 0.0436405 0.0603105 0.074814 0.0846796 0.0884694 0.085133 0.0747715 0.0602371 0.0445121 0.0279102 0.0129004 2.82626e-05 -0.0104501 -0.0186814 -0.025242 -0.0305714 -0.0326925 -0.0329535 -0.0302532 -0.0260944 -0.0208692 -0.0158059 -0.011834 -0.00940159 -0.00864874 -0.00953648 -0.0113742 -0.0137276 -0.0151179 -0.0158961 -0.0152157 -0.01299 -0.0114301 -0.00940826 -0.00751457 -0.00737772 -0.00898484 -0.0114199 -0.0147693 -0.0186843 -0.021796 -0.0234234 -0.0234121 -0.0218104 -0.0185857 -0.0150274 -0.0107124 -0.00702659 -0.00430135 -0.00249097 -0.000872988 0.00015458 0.000245267 0.000208386 
-0.000149639 -0.000154163 -4.15841e-05 -0.000506014 -0.000929106 -0.00234175 -0.00455819 -0.00755204 -0.0109939 -0.0149329 -0.0194405 -0.0223728 -0.0239926 -0.0240623 -0.0223798 -0.0191594 -0.0153897 -0.0117757 -0.00905056 -0.00761247 -0.00750348 -0.00827879 -0.0103745 -0.0127306 -0.0140938 -0.0146763 -0.0139637 -0.0123811 -0.0105688 -0.0093535 -0.00890822 -0.0102337 -0.0140381 -0.0188698 -0.0247957 -0.0312265 -0.0365099 -0.039406 -0.0395719 -0.036268 -0.0308222 -0.0233604 -0.0141414 -0.00298679 0.0101752 0.0245568 0.0400059 0.0553857 0.06873 0.077821 0.0813075 0.0782292 0.0687232 0.0554374 0.0411437 0.0261669 0.0128458 0.00171332 -0.00713196 -0.013755 -0.0189226 -0.0230974 -0.0246041 -0.0248511 -0.022798 -0.0197106 -0.0158595 -0.0121932 -0.00952761 -0.0082916 -0.008519 -0.0101221 -0.0125494 -0.0152705 -0.0169093 -0.0177303 -0.0169917 -0.0146118 -0.0126732 -0.0103415 -0.00819448 -0.00779192 -0.00923255 -0.0115832 -0.0148752 -0.0187716 -0.0218896 -0.023504 -0.0234935 -0.0218798 -0.0186503 -0.0150611 -0.0107758 -0.00706497 -0.00431543 -0.00249882 -0.000892643 0.000112485 0.000219429 0.000188838 
-0.000171657 -0.000141784 -6.34322e-05 -0.000444574 -0.000936682 -0.00232381 -0.00448882 -0.00748725 -0.0109253 -0.0148598 -0.019257 -0.0222256 -0.0238941 -0.0239412 -0.0222349 -0.0190412 -0.0153246 -0.0117553 -0.00910939 -0.00779516 -0.00788576 -0.0088619 -0.01108 -0.0135948 -0.0150565 -0.0156875 -0.0149444 -0.013246 -0.0112741 -0.00981101 -0.00910065 -0.0101196 -0.0135848 -0.0180761 -0.0236864 -0.0297582 -0.0347728 -0.0375764 -0.0377415 -0.0345661 -0.0294301 -0.0223811 -0.0138677 -0.00377352 0.00797827 0.0205905 0.0339751 0.047221 0.0586504 0.0664567 0.0694433 0.066794 0.0586979 0.0474686 0.0355157 0.0231736 0.0125557 0.00416565 -0.00212271 -0.00627725 -0.00930949 -0.0117185 -0.0122939 -0.0125142 -0.0114433 -0.00998668 -0.00821899 -0.00666515 -0.00595511 -0.00648361 -0.00813011 -0.0107324 -0.0139588 -0.0171471 -0.019108 -0.0199706 -0.0191667 -0.0166161 -0.0141781 -0.0114546 -0.00899394 -0.00821648 -0.00939254 -0.0115715 -0.0147142 -0.0185036 -0.02157 -0.0231277 -0.0231158 -0.0215212 -0.0183505 -0.0147922 -0.0106436 -0.0069739 -0.00424248 -0.00245834 -0.000903465 5.25958e-05 0.00017383 0.000155632 
-0.000201931 -0.000128927 -9.65704e-05 -0.000378963 -0.000984336 -0.00238695 -0.00456305 -0.00767592 -0.0112408 -0.0153146 -0.019717 -0.0228517 -0.0246496 -0.0246695 -0.0228676 -0.0195835 -0.0157859 -0.0121196 -0.00941581 -0.00812056 -0.00834015 -0.00946913 -0.0117584 -0.0144106 -0.0159603 -0.0166395 -0.0158726 -0.0140596 -0.0119335 -0.0102123 -0.00920981 -0.00987003 -0.0129142 -0.0169611 -0.0221514 -0.0277371 -0.0323862 -0.0350572 -0.035224 -0.032224 -0.0275097 -0.0210151 -0.0134341 -0.00473383 0.00518876 0.0155093 0.0262323 0.036734 0.0457002 0.0518565 0.0541992 0.0521004 0.0458187 0.0372288 0.0282836 0.0193256 0.0121757 0.00730519 0.00428607 0.00330451 0.00300601 0.00286011 0.00347856 0.003291 0.00309764 0.00246528 0.00155215 0.000377966 -0.00146281 -0.00432714 -0.00789354 -0.0119006 -0.0162831 -0.0201937 -0.0226484 -0.0235934 -0.0226758 -0.0198244 -0.0166321 -0.0132924 -0.0103335 -0.00902516 -0.00985659 -0.0118587 -0.0148786 -0.0186154 -0.0216867 -0.0232136 -0.0232023 -0.021588 -0.018417 -0.0148056 -0.0107369 -0.00702905 -0.00425692 -0.0024642 -0.000941617 -3.26433e-05 0.000118021 0.000112733 
-0.000236688 -0.000111515 -0.000133384 -0.000293497 -0.00101968 -0.00241402 -0.00455799 -0.00774253 -0.0113827 -0.0155385 -0.0198599 -0.0231232 -0.0250371 -0.0250239 -0.0231466 -0.019824 -0.0160132 -0.0123153 -0.00961882 -0.00840133 -0.00881256 -0.0101451 -0.012524 -0.0153359 -0.0169871 -0.0177219 -0.0169285 -0.0149849 -0.0126771 -0.0106389 -0.00926955 -0.00946388 -0.0119413 -0.0153847 -0.0199873 -0.0249075 -0.0290497 -0.0315216 -0.0316882 -0.0289413 -0.0247997 -0.0190567 -0.012684 -0.00573575 0.0019193 0.00943661 0.0169272 0.0241089 0.0301011 0.0342656 0.0358312 0.0343971 0.0303004 0.0248893 0.0195583 0.0146654 0.011674 0.0110122 0.0119004 0.0146975 0.0176569 0.0202067 0.022242 0.0220953 0.0203988 0.0172833 0.0131893 0.00878436 0.00394003 -0.00164787 -0.00742355 -0.0130137 -0.0186755 -0.0233573 -0.0263412 -0.0273645 -0.0263321 -0.0231844 -0.0191745 -0.0151843 -0.0117031 -0.00980348 -0.0102294 -0.0119944 -0.0148224 -0.0184374 -0.0214645 -0.0229286 -0.0229178 -0.0213089 -0.0181905 -0.0145769 -0.0106683 -0.00697729 -0.00420218 -0.0024301 -0.000970528 -0.000131834 5.06455e-05 6.17893e-05 
-0.000274759 -9.52625e-05 -0.000173459 -0.000209554 -0.00107109 -0.00247143 -0.00460928 -0.00790842 -0.0116738 -0.015969 -0.0202619 -0.0237003 -0.0257593 -0.0257128 -0.0237286 -0.0203233 -0.0164398 -0.0126435 -0.00987538 -0.00865133 -0.00917024 -0.0106202 -0.012998 -0.0159002 -0.0176033 -0.0183732 -0.017572 -0.0155492 -0.0131359 -0.0108701 -0.00923972 -0.00907752 -0.0111065 -0.0140615 -0.0181918 -0.0225507 -0.0262672 -0.0285892 -0.0287554 -0.0262132 -0.0225675 -0.0174846 -0.0122377 -0.00698747 -0.00158328 0.00310636 0.00729894 0.0110736 0.0140097 0.0161221 0.016888 0.0161382 0.0142981 0.0121687 0.0105793 0.00990197 0.0112405 0.0149792 0.0199662 0.0267361 0.0331307 0.0385247 0.0420582 0.0419502 0.0386715 0.0329344 0.0254831 0.0176806 0.00968667 0.00125078 -0.00681162 -0.0140123 -0.0209671 -0.0264122 -0.029917 -0.0310045 -0.0298687 -0.0264414 -0.021627 -0.0170126 -0.0130443 -0.0105818 -0.0106362 -0.012196 -0.014859 -0.0183804 -0.0213827 -0.0227954 -0.0227829 -0.0211675 -0.0180797 -0.0144422 -0.010671 -0.00697399 -0.00417524 -0.00241278 -0.00100669 -0.000235273 -1.98054e-05 8.60571e-06 
-0.000310368 -7.90772e-05 -0.000210593 -0.000125962 -0.00111102 -0.00250999 -0.00462766 -0.00801817 -0.0118752 -0.016273 -0.0205128 -0.0240977 -0.0262782 -0.0262008 -0.024132 -0.0206704 -0.0167489 -0.0128954 -0.0101058 -0.00893167 -0.00961306 -0.0112374 -0.0136793 -0.0167225 -0.0185131 -0.0193319 -0.0185088 -0.0163708 -0.0138037 -0.0112632 -0.00932085 -0.00876567 -0.0103273 -0.0127825 -0.0164383 -0.0202413 -0.0235397 -0.0257132 -0.0258813 -0.0235385 -0.0203754 -0.0159316 -0.0117628 -0.00813002 -0.00485683 -0.00283745 -0.00175321 -0.00118428 -0.00112624 -0.000941816 -0.000927752 -0.00103455 -0.000754389 0.000204857 0.00213401 0.00542039 0.0108259 0.0187008 0.0275367 0.0380399 0.0476578 0.0557187 0.0606619 0.0605922 0.0558245 0.0476224 0.0370093 0.0259894 0.0149853 0.00379659 -0.0065301 -0.0153856 -0.0237038 -0.0299985 -0.0340849 -0.0352694 -0.0340008 -0.0302176 -0.0245122 -0.0191651 -0.0145948 -0.0114825 -0.011098 -0.012407 -0.0148805 -0.0182954 -0.0212659 -0.0226217 -0.0226098 -0.0209924 -0.0179402 -0.0142853 -0.0106534 -0.0069558 -0.00414038 -0.00239145 -0.0010402 -0.00033193 -8.62821e-05 -4.15692e-05 
-0.000338693 -6.39851e-05 -0.000241713 -5.24995e-05 -0.0011403 -0.00253161 -0.00462391 -0.0080771 -0.0120003 -0.0164679 -0.0206383 -0.024335 -0.0266157 -0.026508 -0.024376 -0.0208849 -0.0169614 -0.0130974 -0.0103584 -0.00932399 -0.0102663 -0.0121772 -0.014823 -0.0181154 -0.0200682 -0.0209658 -0.0200907 -0.0177622 -0.0149332 -0.0120121 -0.00965642 -0.00863785 -0.00969517 -0.0116479 -0.0148412 -0.0181279 -0.0210411 -0.0230745 -0.0232434 -0.0210864 -0.0183639 -0.0144987 -0.0113001 -0.00910949 -0.00772978 -0.00807818 -0.00974067 -0.0120047 -0.0144892 -0.0160075 -0.0166572 -0.016195 -0.0140465 -0.0103671 -0.00534364 0.00141557 0.0103687 0.0218277 0.0339875 0.0477023 0.0600829 0.070429 0.0765758 0.0765425 0.0704986 0.0601874 0.0468722 0.033099 0.0195257 0.00598852 -0.00626765 -0.0165326 -0.0260049 -0.0330146 -0.0375937 -0.0388608 -0.0374777 -0.0334004 -0.0269409 -0.0209775 -0.0159064 -0.0122469 -0.0114944 -0.0125968 -0.0149148 -0.0182414 -0.0211926 -0.0224992 -0.0224876 -0.0208664 -0.017843 -0.0141659 -0.010653 -0.00694798 -0.00411485 -0.00237621 -0.00107073 -0.000415361 -0.000144584 -8.56708e-05 
-0.000359062 -5.3979e-05 -0.000263215 -6.05041e-06 -0.00116342 -0.00255225 -0.0046309 -0.00812426 -0.0121022 -0.0166232 -0.0207506 -0.0245237 -0.0268812 -0.0267529 -0.0245703 -0.02105 -0.0171057 -0.0132062 -0.0104329 -0.00938967 -0.0103725 -0.012321 -0.0149348 -0.0182399 -0.0201984 -0.0211073 -0.0202372 -0.0178868 -0.0150271 -0.0119997 -0.00950866 -0.0082771 -0.00903305 -0.0106513 -0.0134984 -0.0163873 -0.0189923 -0.0208991 -0.0210648 -0.0190689 -0.0166958 -0.0132923 -0.0108276 -0.00969738 -0.0096918 -0.0117356 -0.0153498 -0.0196183 -0.0238942 -0.0266162 -0.0277355 -0.0268727 -0.0234046 -0.0178133 -0.0106195 -0.00142308 0.0100178 0.0239795 0.038457 0.0544027 0.0687073 0.0806479 0.0876235 0.0876139 0.0806863 0.068919 0.0537391 0.0380917 0.0228038 0.00774267 -0.00569467 -0.0167483 -0.0268214 -0.0341529 -0.0389507 -0.0402244 -0.0388119 -0.0346572 -0.0278551 -0.021669 -0.0164624 -0.0126177 -0.0117705 -0.0128599 -0.0151746 -0.0185198 -0.0215137 -0.0228275 -0.0228132 -0.021157 -0.0180976 -0.0143387 -0.0108401 -0.00707008 -0.00417683 -0.00240365 -0.00110829 -0.0004832 -0.000185636 -0.00011762 
-0.000373412 -4.51108e-05 -0.000278203 3.80079e-05 -0.00116671 -0.00253521 -0.00457371 -0.00806699 -0.012034 -0.0165449 -0.0205885 -0.0243828 -0.0267679 -0.0266246 -0.0244307 -0.0209349 -0.0170367 -0.0131784 -0.0104767 -0.00953904 -0.0106832 -0.0127972 -0.0155211 -0.0189593 -0.0210027 -0.0219518 -0.0210549 -0.0186078 -0.0156128 -0.0123859 -0.00967883 -0.00820323 -0.00869355 -0.0100449 -0.0126464 -0.0152609 -0.0176604 -0.019493 -0.0196589 -0.0177617 -0.0156214 -0.0125264 -0.0105737 -0.0101986 -0.011185 -0.0144636 -0.0195114 -0.025258 -0.03086 -0.0344702 -0.0359351 -0.0347749 -0.0303337 -0.0233223 -0.0145138 -0.00350284 0.00979357 0.0256343 0.0418592 0.05949 0.0752489 0.0883908 0.0960008 0.0960104 0.0884129 0.0755341 0.058934 0.0418383 0.0252 0.0089108 -0.00553451 -0.0173195 -0.0279899 -0.0356854 -0.0407356 -0.0420524 -0.0405811 -0.0362769 -0.0290834 -0.0225701 -0.0170834 -0.0129152 -0.0118203 -0.0127295 -0.014883 -0.0181018 -0.0210192 -0.0222695 -0.0222558 -0.020635 -0.0176568 -0.0139672 -0.0106115 -0.0069155 -0.00407057 -0.00234635 -0.00110319 -0.000520006 -0.000216263 -0.000139732 
-0.000376948 -4.32472e-05 -0.000287126 4.38106e-05 -0.00119435 -0.00257846 -0.00465165 -0.00820362 -0.0122572 -0.0168552 -0.0209487 -0.0248224 -0.0272712 -0.0271184 -0.0248707 -0.0213122 -0.0173362 -0.0133906 -0.010596 -0.00957918 -0.0106621 -0.0127235 -0.0153807 -0.0187734 -0.0207879 -0.0217284 -0.0208464 -0.018425 -0.0154658 -0.0122648 -0.00959218 -0.00813302 -0.00861662 -0.00996318 -0.0125549 -0.0151404 -0.0175166 -0.0193498 -0.0195106 -0.0176279 -0.0155297 -0.0125038 -0.0107227 -0.0106605 -0.0121139 -0.0160138 -0.0218094 -0.0283509 -0.0346619 -0.0387605 -0.0404131 -0.0390899 -0.0341159 -0.0263504 -0.016686 -0.00473866 0.00948688 0.0262193 0.0432474 0.0616219 0.078012 0.0916793 0.0995488 0.0995654 0.0916866 0.0783459 0.0611567 0.0434919 0.0263687 0.00967895 -0.00500958 -0.0168806 -0.027568 -0.0352114 -0.040227 -0.0414983 -0.0400607 -0.0358442 -0.0286982 -0.0222903 -0.0169502 -0.0128891 -0.0118996 -0.0129174 -0.0151561 -0.0184473 -0.0214279 -0.0227113 -0.0226926 -0.0210329 -0.0179974 -0.0142299 -0.0108258 -0.00705801 -0.00415407 -0.00239051 -0.00112863 -0.000546212 -0.000231642 -0.000153279 
-0.000368824 -4.06299e-05 -0.000284859 4.13976e-05 -0.00118524 -0.00255002 -0.00460291 -0.00810276 -0.0121285 -0.0166792 -0.0207079 -0.0245384 -0.0269811 -0.0268202 -0.0245895 -0.0210737 -0.0171506 -0.0132597 -0.0105206 -0.00955583 -0.0106835 -0.0127915 -0.0154937 -0.0189054 -0.0209392 -0.0218897 -0.0210038 -0.0185628 -0.0155606 -0.0122944 -0.00954371 -0.00797441 -0.00829196 -0.00948216 -0.0118927 -0.0143086 -0.0165434 -0.0182917 -0.0184422 -0.0166569 -0.0147052 -0.0118729 -0.0103306 -0.0105407 -0.0123131 -0.0165577 -0.0227073 -0.029605 -0.0362166 -0.0405274 -0.0422607 -0.0408652 -0.0356766 -0.0276274 -0.0176646 -0.00542964 0.00902064 0.0258716 0.0429568 0.0613148 0.0776658 0.0913024 0.099119 0.0991424 0.0912956 0.0780253 0.060938 0.0434131 0.0265027 0.0100934 -0.00422875 -0.01569 -0.0259395 -0.0332017 -0.0379625 -0.0391371 -0.0377916 -0.0338483 -0.0270726 -0.021071 -0.0161431 -0.01242 -0.0116684 -0.0128485 -0.0151835 -0.0185134 -0.0215218 -0.0228274 -0.0228035 -0.0211311 -0.0180839 -0.014293 -0.0108781 -0.00709438 -0.00417881 -0.00239853 -0.00113238 -0.000554954 -0.000235288 -0.000157911 
-0.000350659 -4.20745e-05 -0.000279144 1.56904e-05 -0.00119243 -0.0025562 -0.00463883 -0.00812581 -0.0121907 -0.0167565 -0.0208025 -0.0246321 -0.0270959 -0.0269279 -0.0246835 -0.0211587 -0.0172114 -0.0132969 -0.0105214 -0.00951788 -0.0105818 -0.0126376 -0.0153162 -0.0186703 -0.0206772 -0.0216173 -0.0207454 -0.0183378 -0.0153711 -0.0121615 -0.00949141 -0.00800724 -0.00839209 -0.00969023 -0.0121866 -0.0147072 -0.0170146 -0.0187846 -0.0189203 -0.0171232 -0.0151016 -0.0122006 -0.0105852 -0.0107337 -0.0124971 -0.0167602 -0.0229452 -0.0299151 -0.0365742 -0.0409442 -0.0426944 -0.0412775 -0.0360444 -0.0279839 -0.0180349 -0.00590266 0.00832898 0.0247858 0.0414144 0.0592136 0.0750399 0.0882467 0.0957833 0.0958075 0.0882274 0.0754181 0.0589316 0.0420778 0.0259069 0.0102763 -0.00321614 -0.0138711 -0.0233259 -0.0299492 -0.0342816 -0.035299 -0.0341054 -0.030584 -0.0244482 -0.0191223 -0.0148848 -0.0117774 -0.0114968 -0.0130412 -0.0156486 -0.0191631 -0.0223078 -0.0237041 -0.0236694 -0.0219264 -0.0187614 -0.0148338 -0.0112721 -0.00735887 -0.00434664 -0.00248557 -0.00116229 -0.000557799 -0.000233185 -0.000160891 
-0.000315114 -4.39306e-05 -0.000262019 -3.36267e-05 -0.00118069 -0.00252328 -0.00462033 -0.00801109 -0.0120697 -0.0165758 -0.0205762 -0.0243212 -0.026779 -0.0265981 -0.0243768 -0.0209047 -0.0170074 -0.0131551 -0.0104392 -0.00949081 -0.0105692 -0.0126598 -0.0154375 -0.0187978 -0.0208279 -0.0217794 -0.0209023 -0.0184788 -0.0154592 -0.0122095 -0.00951914 -0.00801178 -0.00832056 -0.00962241 -0.0120742 -0.0146129 -0.0169129 -0.0186338 -0.0187409 -0.0170066 -0.0149869 -0.012106 -0.0104651 -0.0105139 -0.0121681 -0.0162595 -0.0221971 -0.0289369 -0.0353491 -0.0395936 -0.0412866 -0.0399082 -0.0348564 -0.0271463 -0.0176517 -0.00617515 0.00719274 0.0224664 0.0378458 0.0542349 0.068772 0.0809197 0.0877979 0.0878234 0.0808793 0.0691647 0.0541088 0.0388199 0.0243384 0.0104699 -0.00119727 -0.0101252 -0.017889 -0.0231679 -0.0265956 -0.027303 -0.0264158 -0.0237666 -0.0189777 -0.0150531 -0.0122168 -0.0103565 -0.011012 -0.0132461 -0.0163538 -0.0201847 -0.0235573 -0.0251106 -0.025057 -0.023203 -0.019852 -0.0157054 -0.011896 -0.00777841 -0.00461733 -0.00262206 -0.00120386 -0.000553954 -0.000221106 -0.000158534 
-0.000264586 -4.88235e-05 -0.000239049 -0.000112529 -0.00117999 -0.00251155 -0.00466203 -0.00795926 -0.0120617 -0.0165413 -0.020543 -0.024214 -0.0266875 -0.0264922 -0.0242748 -0.020824 -0.0169216 -0.013071 -0.0103138 -0.00929118 -0.0102065 -0.0121526 -0.0148724 -0.0180651 -0.0200134 -0.020933 -0.0200934 -0.0177677 -0.0148431 -0.0117306 -0.00920689 -0.00783752 -0.00817539 -0.0095861 -0.0120518 -0.0146741 -0.0170028 -0.0186702 -0.0187364 -0.0170736 -0.0150192 -0.0121256 -0.0103921 -0.0102416 -0.0116806 -0.0154647 -0.020989 -0.0273427 -0.03335 -0.0373841 -0.038983 -0.0376713 -0.0329097 -0.0257547 -0.01697 -0.00649961 0.00555914 0.0190658 0.0325815 0.0468789 0.0595078 0.0700895 0.0759965 0.07602 0.0700166 0.0599209 0.0469721 0.033991 0.0219865 0.0106919 0.00168278 -0.00473683 -0.0100549 -0.0133975 -0.015519 -0.0157755 -0.0153341 -0.0139388 -0.0110959 -0.00919777 -0.00839336 -0.00835869 -0.0103958 -0.0136661 -0.01754 -0.0218735 -0.0256064 -0.0274109 -0.0273303 -0.0252944 -0.0216364 -0.0171332 -0.012918 -0.00846633 -0.00506021 -0.00284575 -0.0012744 -0.000551586 -0.000201959 -0.000155152 
-0.000195774 -5.30786e-05 -0.000206631 -0.000206309 -0.00116095 -0.0024506 -0.00463079 -0.00775568 -0.0118486 -0.0162256 -0.0201513 -0.0236695 -0.0261291 -0.0259112 -0.0237331 -0.0203786 -0.0165631 -0.0128187 -0.0101657 -0.00923283 -0.0101623 -0.0121622 -0.0150518 -0.0182475 -0.0202326 -0.0211686 -0.0203227 -0.0179799 -0.01497 -0.0118073 -0.009283 -0.00791944 -0.00818207 -0.00967332 -0.0121375 -0.014877 -0.0172563 -0.018868 -0.01888 -0.0172976 -0.0151804 -0.0122456 -0.0103747 -0.00994093 -0.011085 -0.0144579 -0.0194383 -0.0252934 -0.0307784 -0.0345427 -0.0360186 -0.0347894 -0.030407 -0.0239683 -0.0160986 -0.00693267 0.00342745 0.0146334 0.0257326 0.0373064 0.0474521 0.0559923 0.0606366 0.0606599 0.055884 0.0478908 0.0376946 0.0277222 0.0189621 0.0110507 0.00554061 0.0024338 0.000353558 -0.000411086 -0.00079956 -0.00046463 -0.000608356 -0.000878219 -0.000610091 -0.00137329 -0.00320895 -0.00549406 -0.00923072 -0.0137059 -0.01841 -0.0232262 -0.0272913 -0.029337 -0.0292209 -0.0270304 -0.023118 -0.0183249 -0.0137568 -0.00903472 -0.00543382 -0.00303356 -0.00132003 -0.000529639 -0.000177107 -0.000148133 
-0.000115323 -5.87276e-05 -0.000167748 -0.000319408 -0.00113542 -0.00237771 -0.00459281 -0.00750789 -0.011585 -0.0158299 -0.0196669 -0.0229982 -0.0254375 -0.0251966 -0.0230676 -0.0198247 -0.0160984 -0.0124602 -0.00986313 -0.00893558 -0.00973486 -0.0116271 -0.0145366 -0.0175647 -0.0194818 -0.0203914 -0.0195808 -0.0173326 -0.0143896 -0.0113529 -0.00900861 -0.00780406 -0.00808976 -0.00975174 -0.0122576 -0.0151573 -0.0176093 -0.019157 -0.0191055 -0.017616 -0.015413 -0.0124211 -0.0103649 -0.00957617 -0.0103464 -0.0132024 -0.0175074 -0.0227351 -0.0275692 -0.0309914 -0.0323142 -0.0311925 -0.0272794 -0.0217226 -0.0149797 -0.00740541 0.000890891 0.00932213 0.0175035 0.0257973 0.0329552 0.03904 0.0421677 0.0421893 0.0388876 0.0334235 0.0265243 0.0201546 0.0152559 0.0113532 0.00996892 0.0107483 0.0124542 0.0146876 0.0163179 0.0173462 0.0165157 0.014311 0.0115739 0.00769296 0.00274404 -0.00231768 -0.00813021 -0.0141326 -0.0199423 -0.0254567 -0.0300168 -0.032412 -0.0322536 -0.0298195 -0.0254968 -0.0202306 -0.0151151 -0.00995135 -0.00602679 -0.0033318 -0.00140885 -0.000516738 -0.000148396 -0.000142115 
-3.06008e-05 -6.55017e-05 -0.000128374 -0.000444903 -0.00112406 -0.00233503 -0.0046166 -0.00734967 -0.0114627 -0.015627 -0.019424 -0.0226023 -0.0250483 -0.0247816 -0.0226796 -0.0195079 -0.0158264 -0.0122517 -0.00968272 -0.0087497 -0.00942438 -0.011235 -0.0142107 -0.0171074 -0.0189849 -0.019881 -0.0190955 -0.0169105 -0.0139812 -0.0110097 -0.00877514 -0.00765108 -0.00786207 -0.00960574 -0.012058 -0.0150377 -0.0174951 -0.0189337 -0.0188149 -0.0174638 -0.0152423 -0.0122721 -0.0101099 -0.00902391 -0.0094564 -0.0118071 -0.0154153 -0.0199843 -0.0241299 -0.0271881 -0.0283489 -0.0273411 -0.0239295 -0.0193148 -0.0137737 -0.0078933 -0.00179018 0.00369116 0.00877146 0.0135894 0.0175769 0.0210572 0.022574 0.0225943 0.020854 0.0180743 0.0146768 0.012132 0.0113396 0.0117045 0.0147188 0.0196429 0.0253926 0.0308303 0.034619 0.0363847 0.0348241 0.0305486 0.0246001 0.0173884 0.00911756 0.00109687 -0.00692313 -0.0145431 -0.0215162 -0.027759 -0.0328344 -0.0355945 -0.0353926 -0.0327057 -0.027961 -0.0222047 -0.0165194 -0.010898 -0.00664151 -0.0036409 -0.00149865 -0.000502524 -0.000115552 -0.000134107 
5.17257e-05 -7.19946e-05 -8.78632e-05 -0.000561842 -0.00109826 -0.00226046 -0.0045783 -0.00709927 -0.0111943 -0.0152261 -0.0189381 -0.0219241 -0.0243458 -0.0240567 -0.0220049 -0.0189479 -0.015358 -0.0118924 -0.00938786 -0.00846759 -0.00902224 -0.0107375 -0.0137503 -0.0164945 -0.0183123 -0.0191843 -0.0184303 -0.0163338 -0.0134607 -0.0106101 -0.00855998 -0.00761139 -0.00787787 -0.00983605 -0.0123795 -0.0155768 -0.0181511 -0.0195477 -0.0193643 -0.0180822 -0.0157276 -0.0126401 -0.0102136 -0.00866907 -0.00860881 -0.0103054 -0.0130887 -0.0168839 -0.0202469 -0.0228778 -0.0238512 -0.0229789 -0.0201311 -0.0165357 -0.0122747 -0.00815804 -0.00429077 -0.001758 0.000248992 0.00163459 0.00250631 0.00342558 0.00336983 0.00338595 0.00318148 0.00302863 0.00305928 0.00425683 0.0074707 0.0119917 0.0192766 0.0282205 0.0378814 0.0464167 0.0522913 0.0547701 0.052502 0.0462338 0.0371815 0.0267606 0.0152989 0.0044442 -0.00567805 -0.0148194 -0.0228747 -0.0297824 -0.0353208 -0.0384135 -0.0381683 -0.0352579 -0.0301367 -0.023953 -0.0177562 -0.0117349 -0.007186 -0.00391508 -0.0015739 -0.000480384 -8.38337e-05 -0.00012511 
0.000120762 -7.7825e-05 -5.64784e-05 -0.00066215 -0.00109074 -0.00222746 -0.00460092 -0.00698389 -0.0111097 -0.0150831 -0.0187706 -0.0216407 -0.0240661 -0.0237579 -0.0217256 -0.0187221 -0.0151613 -0.0117383 -0.00924831 -0.00831402 -0.00875781 -0.0103976 -0.0134509 -0.0160817 -0.0178629 -0.0187207 -0.0179896 -0.0159518 -0.0131016 -0.0103235 -0.00838865 -0.00754137 -0.00779918 -0.00987609 -0.012437 -0.0157562 -0.0183815 -0.019718 -0.0194816 -0.0182822 -0.0158652 -0.012739 -0.0101657 -0.00832424 -0.00794195 -0.00918902 -0.0113806 -0.0146235 -0.0174154 -0.0197436 -0.0205818 -0.0198037 -0.0173696 -0.014547 -0.0112673 -0.0085328 -0.00645308 -0.00631503 -0.00682467 -0.00825878 -0.00995854 -0.011153 -0.0125111 -0.0124972 -0.0114352 -0.0094155 -0.00655181 -0.00226757 0.00424614 0.012183 0.0229696 0.0351994 0.0480569 0.0591195 0.0666943 0.0697521 0.0669106 0.0590164 0.0474354 0.0344025 0.0203432 0.00718386 -0.00463945 -0.0150113 -0.0239357 -0.0313715 -0.0372773 -0.0406359 -0.0403567 -0.0372682 -0.0318518 -0.0253309 -0.0187296 -0.0123929 -0.00761669 -0.00413171 -0.00163166 -0.000461854 -5.67207e-05 -0.000117909 
0.00017521 -8.11171e-05 -3.06109e-05 -0.000734133 -0.00107075 -0.00216873 -0.00455614 -0.00679193 -0.0108923 -0.0147651 -0.0183778 -0.0211147 -0.0235181 -0.0231946 -0.021201 -0.0182856 -0.0148007 -0.0114644 -0.00903386 -0.00812495 -0.00850713 -0.0101009 -0.0131873 -0.0157272 -0.0174764 -0.018321 -0.0176093 -0.0156233 -0.0128004 -0.0100891 -0.00826121 -0.00751401 -0.00779277 -0.00999446 -0.0126022 -0.0160479 -0.0187382 -0.0200439 -0.0197652 -0.0186166 -0.0161255 -0.0129433 -0.010233 -0.00814934 -0.00752546 -0.00844607 -0.0102185 -0.0130817 -0.0154749 -0.0176003 -0.0183451 -0.0176295 -0.0154818 -0.0132083 -0.0106347 -0.00891385 -0.00816517 -0.0098337 -0.0122488 -0.0158366 -0.0194998 -0.022309 -0.024665 -0.0246521 -0.0226185 -0.0189356 -0.0139001 -0.00724372 0.00181503 0.0123969 0.0259064 0.0407048 0.0560651 0.0691137 0.0780232 0.0815391 0.0782442 0.06907 0.0555055 0.0404222 0.0243256 0.00936929 -0.00377206 -0.0150869 -0.0246682 -0.0324923 -0.0386655 -0.0422201 -0.0419132 -0.0386971 -0.0330696 -0.02631 -0.0194205 -0.0128619 -0.00792414 -0.0042853 -0.00167124 -0.000446383 -3.80188e-05 -0.000113578 
0.000209397 -8.57277e-05 -1.732e-05 -0.000794123 -0.0010904 -0.0022039 -0.00466448 -0.00689216 -0.0110865 -0.0150182 -0.0187033 -0.0214495 -0.0238953 -0.0235618 -0.02154 -0.018579 -0.0150266 -0.0116277 -0.00913045 -0.00815691 -0.00844616 -0.00998486 -0.0130887 -0.0155764 -0.0173131 -0.0181544 -0.017452 -0.0154858 -0.0126549 -0.00995476 -0.00814507 -0.00739446 -0.00759269 -0.00976829 -0.0122937 -0.0157137 -0.0183583 -0.0195906 -0.0192853 -0.0182194 -0.0157692 -0.0126496 -0.00995081 -0.00778722 -0.0070433 -0.00775759 -0.00922306 -0.0117841 -0.0138633 -0.0158165 -0.0164868 -0.0158246 -0.013909 -0.012063 -0.0100259 -0.00904716 -0.0092454 -0.0121708 -0.0159031 -0.0209485 -0.0259439 -0.0298469 -0.0328776 -0.0328665 -0.0301808 -0.0253731 -0.0188709 -0.0106189 0.000147095 0.0124965 0.0278195 0.0443169 0.0613323 0.0756886 0.0854796 0.0892912 0.0857036 0.0756865 0.0608125 0.0443783 0.0269421 0.0107963 -0.00322017 -0.0151651 -0.0251864 -0.0332753 -0.0396305 -0.0433193 -0.0429968 -0.0396919 -0.0339207 -0.0269946 -0.0199002 -0.0131851 -0.00813844 -0.00439317 -0.00169768 -0.000436624 -2.0605e-05 -0.000107741 
0.000230468 -8.67498e-05 -6.48084e-06 -0.000818108 -0.00107398 -0.00216116 -0.00461007 -0.00675997 -0.0109137 -0.0147734 -0.0184006 -0.0210709 -0.023491 -0.0231534 -0.0211597 -0.0182592 -0.0147612 -0.0114186 -0.00895113 -0.00797694 -0.00821254 -0.00968886 -0.0127501 -0.0151513 -0.01684 -0.0176601 -0.016979 -0.0150731 -0.0123134 -0.00971198 -0.00802838 -0.00740688 -0.00771362 -0.0100353 -0.0126758 -0.0162332 -0.018973 -0.020234 -0.0199127 -0.0188262 -0.016277 -0.0130548 -0.0102147 -0.00787943 -0.00698215 -0.0075256 -0.00880674 -0.0112113 -0.0131315 -0.0150058 -0.0156387 -0.0150013 -0.0131943 -0.0115565 -0.00978621 -0.00919201 -0.00989561 -0.0135031 -0.0179545 -0.0238198 -0.0295587 -0.0340738 -0.0374805 -0.037471 -0.0344147 -0.0289781 -0.0216563 -0.0125072 -0.000784087 0.0125564 0.0288956 0.0463519 0.0642962 0.0793882 0.0896732 0.0936579 0.0898988 0.0794104 0.0638013 0.0466083 0.0284168 0.0116047 -0.0029002 -0.0151952 -0.0254618 -0.0336971 -0.0401518 -0.0439145 -0.0435805 -0.0402276 -0.034375 -0.027361 -0.0201592 -0.0133622 -0.00825351 -0.00445088 -0.001713 -0.000429685 -1.5058e-05 -0.000107109 
0.000244456 -8.71331e-05 -3.38616e-06 -0.000831033 -0.00107969 -0.00216843 -0.00463534 -0.00679141 -0.0109657 -0.0148441 -0.0184885 -0.0211708 -0.0235939 -0.0232548 -0.0212599 -0.0183478 -0.0148419 -0.0114968 -0.00905876 -0.00813903 -0.00844464 -0.010024 -0.0132105 -0.0157088 -0.0174754 -0.0183266 -0.0176207 -0.0156391 -0.0127561 -0.010025 -0.00819695 -0.00743341 -0.00758751 -0.00977753 -0.0122919 -0.0157463 -0.0184026 -0.019607 -0.0192812 -0.0182531 -0.0157834 -0.0126632 -0.00992301 -0.00766592 -0.00682833 -0.00739998 -0.00867163 -0.0110605 -0.0129534 -0.014816 -0.0154416 -0.0148037 -0.0130293 -0.0114661 -0.00980161 -0.00938571 -0.0103599 -0.0143526 -0.0192311 -0.0255754 -0.0317689 -0.0366626 -0.0402953 -0.0402833 -0.0370099 -0.0311969 -0.0233876 -0.0137473 -0.00154355 0.0122512 0.028983 0.0467442 0.0649653 0.0802526 0.0906593 0.0946691 0.0908847 0.0802889 0.0645056 0.0471657 0.0288545 0.0119665 -0.00252647 -0.0147604 -0.0249268 -0.0330364 -0.0393876 -0.0430951 -0.0427631 -0.0394686 -0.0337295 -0.0268499 -0.0197748 -0.0131056 -0.00810229 -0.00437114 -0.001673 -0.000409406 -6.95323e-06 -0.000102984 
0.000248977 -8.6397e-05 -1.93804e-06 -0.000819464 -0.00106302 -0.00212492 -0.00455164 -0.00667762 -0.0107761 -0.0145921 -0.0181792 -0.0208205 -0.0231908 -0.0228602 -0.0209008 -0.018043 -0.0145971 -0.0113069 -0.00892105 -0.00802705 -0.008338 -0.00991186 -0.0130628 -0.015537 -0.0172904 -0.0181298 -0.0174337 -0.0154794 -0.0126292 -0.00994719 -0.00816952 -0.00746429 -0.00769562 -0.00994572 -0.0125349 -0.0160523 -0.0187601 -0.0199979 -0.0196765 -0.018612 -0.0160839 -0.012903 -0.0100824 -0.00773821 -0.00681007 -0.00727726 -0.00845362 -0.0107533 -0.0125706 -0.0143825 -0.0149852 -0.0143609 -0.0126456 -0.0111637 -0.0095923 -0.00928988 -0.0104011 -0.0145276 -0.0195409 -0.0260284 -0.0323487 -0.0373553 -0.0410346 -0.0410249 -0.0376915 -0.0317923 -0.023873 -0.0141587 -0.00194427 0.0118072 0.0283949 0.0459476 0.0639256 0.078993 0.0892403 0.0931797 0.0894617 0.0790421 0.0635085 0.0464833 0.0285383 0.0120353 -0.00205432 -0.0138874 -0.0236651 -0.0314222 -0.0374869 -0.0410305 -0.0407057 -0.0375657 -0.0321018 -0.0255626 -0.0188195 -0.0124727 -0.0077144 -0.00416902 -0.00158487 -0.000374129 -2.45809e-06 -9.76513e-05 
0.000249142 -8.61479e-05 -9.56258e-06 -0.000794977 -0.001076 -0.00213231 -0.00454973 -0.00674946 -0.0108359 -0.0147004 -0.0183205 -0.021025 -0.0233666 -0.0230519 -0.0210872 -0.0182044 -0.0147331 -0.0114013 -0.00900984 -0.00810258 -0.00842876 -0.0100372 -0.0131664 -0.0156782 -0.0174614 -0.0183019 -0.0176048 -0.0156409 -0.0127602 -0.0100582 -0.00824276 -0.00750746 -0.00774607 -0.00995507 -0.0125557 -0.0160571 -0.0187596 -0.0200166 -0.0197102 -0.0186175 -0.0160871 -0.0129145 -0.0101127 -0.00780459 -0.00691305 -0.00741584 -0.00865892 -0.0110288 -0.0129194 -0.0147724 -0.0153867 -0.0147402 -0.0129836 -0.011421 -0.00974099 -0.00930852 -0.0102917 -0.0142268 -0.0190559 -0.0253384 -0.0314826 -0.0363597 -0.0399289 -0.039923 -0.0366779 -0.0309546 -0.0232595 -0.0138715 -0.00210778 0.0110958 0.0269639 0.0437273 0.0608773 0.0752552 0.0850147 0.0887529 0.0852307 0.0753125 0.0605388 0.0444168 0.0274915 0.0120522 -0.000971895 -0.0117703 -0.0205519 -0.0274231 -0.0327737 -0.0359013 -0.0355973 -0.0328404 -0.0280656 -0.0223674 -0.0164546 -0.010902 -0.00675032 -0.00366977 -0.00136882 -0.000298236 6.21241e-06 -8.58871e-05 
0.000254275 -8.57224e-05 -1.82653e-05 -0.000760512 -0.00108515 -0.00212554 -0.00451962 -0.00680644 -0.0108491 -0.0147506 -0.0183971 -0.0211721 -0.0234522 -0.0231635 -0.021209 -0.0183111 -0.0148245 -0.0114561 -0.00906937 -0.00815083 -0.00848456 -0.0101243 -0.0132055 -0.0157439 -0.0175581 -0.0183938 -0.017702 -0.0157393 -0.0128401 -0.0101474 -0.00831425 -0.00757822 -0.00787351 -0.0100668 -0.0127261 -0.0162421 -0.0189688 -0.020268 -0.0199844 -0.0188359 -0.0162678 -0.0130708 -0.0102433 -0.00793534 -0.00704164 -0.00753628 -0.00881469 -0.0112272 -0.0131731 -0.0150516 -0.0156689 -0.0150011 -0.0132239 -0.0116085 -0.00985416 -0.00934821 -0.0102995 -0.014144 -0.0189114 -0.0251187 -0.0312158 -0.0360798 -0.0395844 -0.0395834 -0.0363709 -0.0307382 -0.0231685 -0.0140672 -0.00281498 0.00968564 0.0245262 0.0400917 0.0559595 0.0692384 0.078219 0.0816353 0.0784258 0.0693169 0.055746 0.0410503 0.0257141 0.0118913 0.000462914 -0.00882314 -0.0161738 -0.0217844 -0.0261235 -0.028662 -0.0283901 -0.0261729 -0.0223692 -0.0178575 -0.0131157 -0.00868327 -0.00539028 -0.00296499 -0.00106432 -0.000186874 2.03214e-05 -6.93221e-05 
0.000255115 -8.59779e-05 -3.51026e-05 -0.000704729 -0.00111295 -0.00214287 -0.00451589 -0.00697758 -0.0109855 -0.0149959 -0.0187272 -0.0216492 -0.0238521 -0.0236053 -0.0216442 -0.0186852 -0.0151336 -0.0116615 -0.00924239 -0.00826426 -0.00858834 -0.0102581 -0.0132375 -0.0158158 -0.0176699 -0.0184948 -0.0178123 -0.0158588 -0.0129362 -0.0102557 -0.00838698 -0.00762989 -0.00798694 -0.010112 -0.0128206 -0.0163149 -0.0190423 -0.0203904 -0.0201448 -0.0189222 -0.0163324 -0.0131336 -0.0103033 -0.00801103 -0.00710119 -0.00754749 -0.00882745 -0.0112388 -0.0132108 -0.0150834 -0.0156892 -0.0150038 -0.0132389 -0.0115902 -0.00975971 -0.00914576 -0.00999893 -0.0135872 -0.0181051 -0.0239995 -0.0298302 -0.0345133 -0.0378181 -0.037828 -0.0347597 -0.0294333 -0.0222626 -0.0138144 -0.00355034 0.00769127 0.0208048 0.034424 0.0482301 0.0597675 0.0675194 0.0704271 0.0677108 0.0598757 0.0482092 0.0357717 0.0229692 0.0117455 0.00289057 -0.00392805 -0.0089287 -0.0124643 -0.0151323 -0.0166984 -0.0164783 -0.0151551 -0.0129574 -0.0104079 -0.00759795 -0.00501784 -0.00314201 -0.00180025 -0.000560115 -6.02296e-06 4.40733e-05 -3.96549e-05 
0.000257894 -8.43208e-05 -5.65082e-05 -0.000626064 -0.00113691 -0.00214012 -0.00446618 -0.00712371 -0.0110548 -0.015161 -0.0189553 -0.0220396 -0.0241297 -0.0239341 -0.0219833 -0.0189805 -0.0153894 -0.0118345 -0.00943305 -0.0084537 -0.0088423 -0.0106293 -0.0135582 -0.0162502 -0.018201 -0.0190313 -0.0183448 -0.016355 -0.0133418 -0.0106111 -0.00863364 -0.00780368 -0.00821495 -0.0102461 -0.013025 -0.0164985 -0.0192387 -0.0206618 -0.0204654 -0.0191399 -0.0165127 -0.0133052 -0.0104882 -0.00827738 -0.00745236 -0.00798868 -0.00946018 -0.0120738 -0.014266 -0.016256 -0.0168952 -0.0161454 -0.0142602 -0.012374 -0.0102325 -0.00925942 -0.00978892 -0.0128761 -0.0169376 -0.0223197 -0.0277279 -0.0321134 -0.03513 -0.0351487 -0.0323035 -0.0274284 -0.0208517 -0.0133378 -0.00445253 0.00504247 0.0157892 0.0267531 0.0377587 0.0469296 0.0530111 0.0552385 0.0531849 0.0470673 0.0379777 0.0285656 0.0191184 0.0113036 0.00578049 0.00210811 7.48677e-05 -0.000857945 -0.00144126 -0.00178763 -0.00163407 -0.00142386 -0.00122763 -0.00111885 -0.000726443 -0.000450782 -0.000339237 -0.000348747 6.41582e-05 0.000216236 6.91058e-05 -6.95089e-06 
0.000260607 -8.33799e-05 -8.36801e-05 -0.000534977 -0.0011772 -0.00216028 -0.00445073 -0.00737545 -0.0112501 -0.0155146 -0.0194263 -0.0227394 -0.0247119 -0.0245783 -0.0226204 -0.019531 -0.015851 -0.0121524 -0.00972899 -0.00870787 -0.00914027 -0.0110403 -0.0138836 -0.0166966 -0.0187528 -0.019585 -0.0188979 -0.0168756 -0.0137686 -0.0109974 -0.00891146 -0.00801718 -0.00851925 -0.0104609 -0.0133491 -0.016821 -0.0195945 -0.0211176 -0.0209809 -0.0195204 -0.016831 -0.0135907 -0.0107651 -0.00862644 -0.00787652 -0.0084955 -0.0101735 -0.0130095 -0.0154482 -0.0175685 -0.0182433 -0.0174196 -0.0154007 -0.0132459 -0.0107451 -0.00935442 -0.00950381 -0.0119915 -0.0155031 -0.0202623 -0.0251546 -0.0291753 -0.0318403 -0.0318712 -0.0292978 -0.0249728 -0.0191194 -0.0127363 -0.00551455 0.00187587 0.00977702 0.0175531 0.0251957 0.0315267 0.0356043 0.0370151 0.0357571 0.0317014 0.0257044 0.0199265 0.0145141 0.0108031 0.00929581 0.00942151 0.0109755 0.01319 0.0151299 0.016259 0.0163323 0.0151956 0.0129695 0.0101223 0.00759097 0.00507714 0.00305297 0.00140694 0.000820565 0.00048623 0.000100358 3.32978e-05 
0.000263841 -8.41133e-05 -0.000113539 -0.000444948 -0.00123244 -0.00220663 -0.00448099 -0.00772 -0.0115702 -0.0160458 -0.0201286 -0.0237167 -0.0255793 -0.0255157 -0.0235292 -0.020309 -0.0164775 -0.0125575 -0.0100046 -0.00879903 -0.00910707 -0.0109438 -0.0135005 -0.0162704 -0.0183261 -0.0191127 -0.0184695 -0.0165322 -0.0134885 -0.0108545 -0.00882877 -0.00800603 -0.00869697 -0.0105961 -0.0136224 -0.0170968 -0.0199004 -0.0215207 -0.0214463 -0.0198505 -0.0171012 -0.0138397 -0.0110069 -0.00893701 -0.00824877 -0.00892117 -0.0107751 -0.0137993 -0.016452 -0.0186826 -0.0193839 -0.0184913 -0.0163619 -0.0139766 -0.0111569 -0.00939334 -0.00921634 -0.0111494 -0.0141593 -0.01834 -0.022754 -0.0264439 -0.0287699 -0.0288176 -0.0264972 -0.0226968 -0.0175362 -0.0122669 -0.00672195 -0.0014686 0.0035154 0.00800988 0.012178 0.0155706 0.0175747 0.0181384 0.0177047 0.0157898 0.0130002 0.0110068 0.00981357 0.0104092 0.0131462 0.0173071 0.0226894 0.0282728 0.0329233 0.0356279 0.0356158 0.0330348 0.02821 0.0221866 0.0165229 0.0110106 0.00669169 0.00329223 0.00163469 0.000776081 0.00013652 7.76405e-05 
0.000265875 -8.1209e-05 -0.000136475 -0.000345816 -0.00124373 -0.00216693 -0.00435066 -0.00777499 -0.0114736 -0.0159997 -0.0200956 -0.0238217 -0.0255188 -0.0255163 -0.0235716 -0.0203532 -0.0165404 -0.0125901 -0.0101284 -0.00898011 -0.00941963 -0.0114382 -0.0139695 -0.0169036 -0.0190882 -0.0198865 -0.0192313 -0.0172377 -0.0140669 -0.0113481 -0.00917099 -0.00824331 -0.00898829 -0.0107704 -0.0138767 -0.0173289 -0.0201494 -0.0218599 -0.0218439 -0.0201236 -0.0173248 -0.0140443 -0.0112061 -0.00918786 -0.00853632 -0.00922817 -0.0112067 -0.0143614 -0.0171777 -0.0194799 -0.0201948 -0.0192486 -0.0170495 -0.0144782 -0.0113953 -0.00930863 -0.00882947 -0.0102251 -0.0127234 -0.016314 -0.0202277 -0.0235663 -0.0255455 -0.0256045 -0.023548 -0.0202886 -0.0158336 -0.0116701 -0.00775017 -0.00454385 -0.00233198 -0.000942026 -4.83842e-05 0.000582853 0.000637893 0.00040331 0.000744863 0.000838991 0.00106144 0.00261524 0.00537428 0.0100036 0.0166994 0.0246243 0.0335682 0.042285 0.0494484 0.0536229 0.0535326 0.0496062 0.0423663 0.0333966 0.0248169 0.0165217 0.010075 0.00504529 0.00238902 0.00104523 0.000166637 0.000118603 
0.000268453 -8.15434e-05 -0.000158572 -0.000273659 -0.00127966 -0.00219042 -0.00435176 -0.00800692 -0.0116665 -0.0163342 -0.0205454 -0.0244687 -0.0260686 -0.0261206 -0.0241655 -0.0208639 -0.0169579 -0.0128651 -0.0103446 -0.0091059 -0.00950916 -0.0115416 -0.0139193 -0.0168797 -0.0191028 -0.0198814 -0.0192444 -0.0172765 -0.0141028 -0.0114385 -0.00926207 -0.00836567 -0.00926296 -0.011034 -0.014285 -0.0177826 -0.0206653 -0.0224747 -0.0225088 -0.0206582 -0.017772 -0.0144212 -0.0115144 -0.00948059 -0.00880216 -0.00945883 -0.011497 -0.0147236 -0.0176442 -0.0199884 -0.020707 -0.0197219 -0.0174826 -0.0147924 -0.0115284 -0.00922411 -0.00855923 -0.00958207 -0.0117392 -0.0149216 -0.0184986 -0.02161 -0.0233356 -0.0234075 -0.021534 -0.0186624 -0.0147222 -0.0114101 -0.00879639 -0.0072743 -0.00738055 -0.00861195 -0.0104976 -0.0122237 -0.013831 -0.0147444 -0.0137426 -0.0119296 -0.00914275 -0.00456869 0.00154621 0.00958085 0.0196097 0.0306862 0.0426044 0.0539287 0.063186 0.0685817 0.0684245 0.0633816 0.0541353 0.0427126 0.031714 0.0211046 0.0128864 0.00650045 0.0030172 0.00127195 0.000194796 0.00015345 
0.000270453 -8.02402e-05 -0.000174896 -0.000212451 -0.00129671 -0.00218515 -0.00430555 -0.00810745 -0.0116995 -0.0164351 -0.0206891 -0.024732 -0.0262391 -0.0263321 -0.0243888 -0.0210572 -0.0171248 -0.0129697 -0.0104568 -0.00919978 -0.0096274 -0.0117198 -0.0140214 -0.0170371 -0.0193135 -0.020087 -0.0194556 -0.0174827 -0.0142681 -0.0115932 -0.00935323 -0.00840617 -0.00933159 -0.0110017 -0.0142689 -0.017709 -0.0205662 -0.0224122 -0.0224844 -0.0205751 -0.0176945 -0.0143802 -0.0115234 -0.00958201 -0.00898446 -0.00970899 -0.0118795 -0.0152373 -0.018303 -0.0207199 -0.0214576 -0.0204287 -0.0181174 -0.0152736 -0.0118046 -0.00925901 -0.00837974 -0.00904806 -0.0108815 -0.0136939 -0.0169648 -0.0198635 -0.0213755 -0.0214548 -0.0197444 -0.0172056 -0.0137035 -0.0110926 -0.00952529 -0.00933118 -0.0112476 -0.0145157 -0.0185518 -0.0220962 -0.0249868 -0.0264259 -0.0249131 -0.0217781 -0.0170075 -0.0100987 -0.00138548 0.00929612 0.0219242 0.0354657 0.0497155 0.0630905 0.073993 0.0803483 0.0801387 0.0742175 0.0633915 0.0500427 0.037138 0.0247088 0.0150975 0.00764708 0.00351058 0.00144659 0.000215533 0.000180029 
0.000269919 -7.87901e-05 -0.000184663 -0.000165626 -0.00129633 -0.00215733 -0.00422819 -0.00810138 -0.0116096 -0.0163493 -0.0205939 -0.0246844 -0.0261096 -0.02623 -0.024313 -0.020997 -0.0170897 -0.0129394 -0.0104852 -0.00927157 -0.00977433 -0.0119594 -0.0142608 -0.0173595 -0.0196974 -0.0204777 -0.0198382 -0.0178357 -0.0145632 -0.0118522 -0.00955428 -0.00858197 -0.00957111 -0.0112356 -0.0145915 -0.0180743 -0.020983 -0.0228955 -0.0229948 -0.0210028 -0.0180557 -0.0146769 -0.011756 -0.00977668 -0.00913771 -0.00981894 -0.0120012 -0.0153784 -0.0184866 -0.0209141 -0.0216497 -0.0206047 -0.0182819 -0.015378 -0.0118139 -0.00914168 -0.00813226 -0.00854805 -0.0101306 -0.0126491 -0.0156644 -0.0183796 -0.0197172 -0.0198019 -0.0182254 -0.0159589 -0.0128125 -0.0107383 -0.00994424 -0.0107166 -0.0139258 -0.0186321 -0.0241831 -0.0290035 -0.0327926 -0.0345961 -0.0327295 -0.0286686 -0.0225144 -0.0139846 -0.00347513 0.00902607 0.0234202 0.038628 0.0544428 0.0691859 0.0811838 0.0881824 0.0879384 0.0814306 0.0695543 0.0549224 0.0407476 0.0271074 0.0165714 0.00840977 0.00383805 0.00156458 0.000227706 0.000197744 
0.000267362 -7.83179e-05 -0.000190315 -0.000147224 -0.00130272 -0.00216531 -0.00422908 -0.00815296 -0.0116507 -0.016419 -0.020687 -0.0248213 -0.0262252 -0.0263581 -0.0244422 -0.0211047 -0.0171787 -0.0130009 -0.0105367 -0.00931033 -0.00981397 -0.0120106 -0.0142872 -0.0173995 -0.0197521 -0.0205322 -0.0198936 -0.0178857 -0.0145984 -0.0118732 -0.00952975 -0.00850183 -0.00943958 -0.0110004 -0.014279 -0.01766 -0.020495 -0.0223807 -0.0224935 -0.0205201 -0.0176413 -0.0143497 -0.0115217 -0.00964056 -0.00907206 -0.00980275 -0.0120314 -0.0154357 -0.0185765 -0.0210111 -0.0217496 -0.0206975 -0.0183662 -0.0154297 -0.0118204 -0.00908187 -0.0080018 -0.00828687 -0.0097437 -0.0121039 -0.0149856 -0.0176015 -0.0188527 -0.0189385 -0.0174371 -0.0153072 -0.0123462 -0.0105452 -0.0101408 -0.0113978 -0.0152485 -0.0206726 -0.0269738 -0.0324321 -0.0366659 -0.0386493 -0.0366082 -0.0320927 -0.0252589 -0.0159506 -0.00459746 0.00872615 0.0238879 0.0397882 0.0562319 0.0715106 0.0839333 0.0911812 0.09092 0.0841881 0.0719083 0.056789 0.0421278 0.0280261 0.0171345 0.00870298 0.00396206 0.00160625 0.000233794 0.000205053 
0.000266661 -7.86915e-05 -0.000194827 -0.000142216 -0.00131763 -0.00219552 -0.00428444 -0.00826773 -0.0118096 -0.0166377 -0.0209629 -0.0251599 -0.0265818 -0.0267179 -0.0247792 -0.0213936 -0.0174138 -0.013182 -0.0106844 -0.00945235 -0.00997359 -0.0122086 -0.0145242 -0.017688 -0.0200797 -0.0208743 -0.0202237 -0.0181768 -0.0148402 -0.012072 -0.00968437 -0.00863606 -0.00959114 -0.0111701 -0.0144974 -0.0179179 -0.0207931 -0.0227114 -0.022831 -0.0208225 -0.0179044 -0.0145656 -0.0117046 -0.00982745 -0.00928701 -0.0100829 -0.0124119 -0.0159297 -0.0191819 -0.0216871 -0.0224525 -0.021375 -0.018963 -0.0159053 -0.0121529 -0.00926019 -0.00803434 -0.00816039 -0.00948186 -0.0117013 -0.0144742 -0.0170041 -0.0181953 -0.01828 -0.0168363 -0.0148046 -0.0119813 -0.0103634 -0.010204 -0.0117697 -0.0160096 -0.0218611 -0.0286048 -0.0344417 -0.0389389 -0.0410192 -0.0388807 -0.0341033 -0.0268792 -0.0171446 -0.00536216 0.00834722 0.023825 0.0399636 0.0565937 0.0720069 0.0845271 0.091839 0.0915711 0.0847911 0.0724232 0.0571983 0.0424261 0.0282278 0.0172591 0.00876442 0.00398641 0.00161564 0.000233463 0.000204459 
0.000262883 -7.70243e-05 -0.000190548 -0.000140324 -0.00128825 -0.00215167 -0.00420391 -0.00810745 -0.0115819 -0.0163068 -0.0205486 -0.0246643 -0.0260587 -0.0261925 -0.0242956 -0.0209754 -0.017071 -0.0129249 -0.010472 -0.00927229 -0.00978075 -0.0119701 -0.0142502 -0.0173487 -0.0196967 -0.020478 -0.0198393 -0.0178262 -0.0145584 -0.0118562 -0.00952904 -0.00852937 -0.00950845 -0.0111062 -0.0144217 -0.0178235 -0.0206862 -0.0225912 -0.0227105 -0.0207172 -0.0178138 -0.0144898 -0.011632 -0.00976227 -0.00921808 -0.0100076 -0.0123166 -0.0157987 -0.0190229 -0.021501 -0.0222608 -0.0211982 -0.0188061 -0.0157726 -0.0120603 -0.00920198 -0.00800121 -0.0081449 -0.00948477 -0.0117139 -0.0144947 -0.0170263 -0.0182217 -0.0183023 -0.0168629 -0.0148222 -0.0120081 -0.0103908 -0.0102428 -0.0118351 -0.016106 -0.0220029 -0.0287904 -0.0346838 -0.0392101 -0.0412881 -0.0391524 -0.0343509 -0.0271075 -0.0174067 -0.00573254 0.00776194 0.0229183 0.0386464 0.0548096 0.069763 0.0818996 0.0889928 0.0887298 0.0821618 0.0701783 0.0554258 0.0411088 0.0273547 0.0167245 0.00848971 0.00386089 0.00156955 0.000226454 0.000196177 
